3327 128
1617 0.173582 0.156962 -0.124960 -0.206642 0.207344 0.038194 -0.202438 0.055880 0.117708 0.027148 -0.004677 0.079526 -0.276472 -0.070619 -0.117006 0.229422 0.071470 0.325656 0.267828 -0.004630 0.060128 0.221051 -0.102976 -0.398547 -0.200598 -0.192452 -0.001195 0.273653 -0.203689 0.130106 -0.299071 -0.275686 -0.624677 0.094130 -0.125115 -0.176167 -0.274932 0.448127 -0.094357 0.138717 -0.259651 0.246725 0.233046 -0.029570 0.195621 -0.005029 0.297699 0.308116 -0.667570 -0.203914 0.106787 -0.040779 0.073135 -0.061987 -0.004673 -0.061100 -0.193841 0.101397 -0.094889 -0.195984 -0.370576 -0.055995 -0.386365 0.101138 0.197727 0.286383 0.092931 0.484212 -0.224237 -0.247203 0.132843 0.188261 -0.097004 -0.097454 0.072618 0.164688 0.018287 -0.371183 0.253859 0.153128 -0.255244 -0.194960 0.170140 -0.115790 0.250636 -0.117718 -0.241242 0.026974 0.299857 0.136680 0.171324 -0.007806 0.000661 -0.026798 -0.166871 -0.032688 0.192584 0.342322 -0.045718 -0.370067 -0.262629 0.012079 0.105317 -0.084964 0.300189 0.026346 0.252452 -0.079882 -0.625220 0.096537 0.373564 -0.074721 0.326336 -0.133867 -0.140834 -0.182538 0.121016 -0.240613 -0.156817 -0.306396 -0.030988 0.228500 -0.008209 0.164861 -0.267979 -0.419851 -0.327381 -0.161039
2936 -0.173465 0.110068 -0.556377 0.231821 -0.330827 0.033732 0.376021 -0.040453 0.086471 0.119635 0.096924 0.043879 0.017340 -0.028270 0.033246 -0.103409 -0.406353 0.181182 -0.487919 0.014614 0.096531 0.303223 0.119083 -0.097609 -0.250867 0.392413 0.344050 -0.146002 0.241362 -0.232681 -0.092090 -0.104375 -0.119022 -0.433627 -0.344061 0.057484 -0.119662 0.408250 -0.467570 -0.040258 -0.201563 0.568659 -0.146368 -0.698089 -0.224625 0.013114 0.276413 -0.161671 0.226236 0.006262 -0.502328 0.454167 -0.049731 -0.065795 -0.120526 -0.132496 0.164547 -0.653829 0.017237 -0.076260 -0.331407 -0.129853 -0.192981 0.100827 0.183147 -0.414322 -0.111467 0.260658 0.136862 -0.036874 -0.512088 -0.127915 0.428953 -0.255001 -0.358362 0.110733 -0.084396 0.132697 0.273571 0.143592 0.037235 -0.150439 0.145650 -0.244991 0.124022 -0.098242 0.217180 0.376590 -0.602394 0.254159 -0.008448 -0.070250 -0.463708 0.160241 0.124120 -0.082984 -0.119119 0.185620 -0.388622 -0.542220 -0.329025 -0.083123 -0.100668 0.075614 0.498650 -0.178244 -0.168505 -0.327116 0.268914 -0.114137 0.028654 0.228778 0.108138 -0.028037 -0.273954 -0.288262 0.183343 -0.073740 0.123596 0.328690 -0.271130 0.586643 0.302057 -0.385565 -0.166579 -0.357551 -0.331694 -0.390931
1752 -0.067959 0.095483 0.010577 -0.275828 0.084499 0.002907 -0.082077 -0.013155 0.251467 0.243571 0.043872 0.309964 0.033408 0.041700 -0.195206 -0.109449 0.430706 0.151414 0.251247 -0.036592 0.237064 0.274790 0.136644 -0.361635 0.102777 -0.070409 0.048292 0.371721 -0.163569 0.169469 0.022398 -0.506489 -0.750628 0.063503 0.105940 -0.203264 -0.525179 0.372094 -0.320692 0.494821 -0.300635 0.168824 0.491268 -0.208923 0.135779 -0.119850 -0.007489 0.214636 -0.495186 0.027917 0.129082 0.101077 0.214440 -0.107327 -0.048273 -0.204722 -0.617595 0.080544 -0.319190 0.132149 -0.282513 -0.247994 -0.411033 0.159276 0.219225 -0.005202 -0.129766 0.489778 -0.313847 -0.153325 0.443290 -0.099644 -0.342923 -0.192024 -0.207906 0.061227 0.415162 -0.312831 -0.141856 0.104802 -0.433159 -0.340190 0.097437 -0.198960 0.139475 0.032033 -0.088682 0.178159 0.070904 -0.338737 0.103980 -0.171366 0.140783 -0.187643 0.048091 0.004964 0.016409 0.142584 0.260837 -0.414910 0.049402 -0.398146 0.315361 -0.028173 0.518098 0.000308 0.395528 -0.021939 -0.085808 0.157012 0.392592 0.087819 0.131465 -0.021773 -0.101752 -0.170130 0.151904 -0.294511 -0.087849 -0.371287 -0.020146 -0.007171 -0.072309 0.018955 -0.022220 -0.311020 -0.358364 -0.269953
1508 0.024758 0.365313 0.165513 -0.348035 0.484446 0.140209 -0.067661 0.120451 0.081166 0.324811 0.033615 0.252523 0.056371 0.200150 -0.202986 -0.014681 0.498455 0.411989 0.311704 0.026303 0.089814 0.083626 0.166495 -0.452900 -0.157364 -0.082931 -0.160837 0.261614 -0.254452 -0.098521 -0.174433 -0.277778 -0.663303 0.232689 0.130545 -0.064888 -0.501238 0.187964 -0.320438 0.343933 -0.430865 -0.247223 0.427634 -0.063529 0.058622 0.047979 0.088129 0.144515 -0.469704 -0.079969 0.043898 -0.001904 -0.019362 -0.064858 -0.324879 -0.270610 -0.160414 0.199605 -0.312617 -0.043158 -0.102965 0.118000 -0.458726 -0.107958 0.214034 -0.090821 -0.212520 0.541609 -0.258127 0.040793 0.259480 0.220065 0.018745 -0.140628 -0.145934 -0.007389 -0.049088 -0.299262 -0.229389 -0.071829 -0.431107 -0.160038 0.109600 -0.058569 0.144431 -0.136542 0.157663 -0.171958 0.126109 -0.261274 0.176373 -0.064835 -0.028872 -0.130667 -0.131698 0.043765 0.233757 0.267587 0.050259 -0.478942 0.035326 -0.263666 0.360780 -0.103042 0.547054 0.038715 0.048142 -0.245793 -0.468055 0.002931 0.438766 0.113298 -0.009231 -0.086586 -0.185237 -0.319813 0.195671 -0.186712 -0.388229 -0.122851 -0.056069 0.216130 -0.077260 -0.134977 -0.309654 -0.313949 -0.486293 -0.534202
1838 0.215133 0.282459 -0.063140 -0.074280 0.054148 -0.191935 -0.383559 0.009766 0.474022 -0.081209 -0.052463 -0.076184 -0.036860 -0.045165 -0.059831 0.150312 0.550410 0.035053 0.377439 0.180091 0.022711 0.153769 0.183306 -0.144005 0.148272 0.132625 0.136947 0.340776 -0.243549 0.139807 -0.130276 -0.301329 -0.383218 0.436436 0.168861 -0.050959 -0.385061 -0.045891 -0.342773 -0.028776 0.125494 -0.344541 0.176944 -0.309450 -0.006811 -0.139866 0.120571 0.086202 -0.459144 -0.365273 0.242680 0.088347 0.273791 -0.024000 -0.356874 0.023569 -0.028572 -0.015169 -0.030825 -0.142779 -0.247386 -0.341952 -0.100123 -0.112858 -0.000406 0.374855 -0.340634 0.090402 0.103436 -0.456794 -0.143729 -0.067067 0.308396 -0.269064 -0.208154 0.612630 0.149223 -0.171433 -0.469134 -0.408859 -0.254001 -0.395877 -0.002586 -0.361889 0.265641 -0.081278 0.095775 0.381391 0.228853 0.125145 -0.183885 0.021932 0.049758 -0.027393 0.395139 0.286138 0.033736 0.055828 -0.019270 0.294658 -0.179607 0.153845 0.114326 -0.063808 0.363788 -0.148037 -0.132068 -0.067090 0.004284 -0.309088 -0.183751 -0.141465 0.089796 0.428667 -0.452153 -0.129861 0.391966 -0.027341 -0.391177 -0.157691 -0.217652 0.187871 -0.060954 0.210757 -0.007719 -0.225820 -0.518312 -0.426209
1381 -0.334220 -0.109721 -0.685710 -0.030862 0.267062 -0.388255 -0.214973 0.106872 0.187375 0.733502 0.267963 -0.518803 0.078157 -0.120731 -0.702501 -0.163565 -0.096614 -0.001477 -0.586516 0.372281 0.361257 -0.113320 0.275083 -0.170534 0.098178 0.501785 0.188727 -0.007974 0.212353 -0.271124 -0.057198 0.063835 -0.455267 -0.375229 0.128696 -0.042861 -0.168063 0.457056 0.009724 -0.232998 -0.129308 0.192553 0.112207 -0.353623 -0.473875 0.114550 0.083111 -0.082270 0.620836 0.361052 -0.270670 0.492299 0.516219 0.193473 -0.086558 -0.099100 0.439927 -0.523676 -0.007207 -0.330488 -0.106675 -0.073477 -0.312008 0.209208 -0.044652 0.131743 -0.260195 0.112016 -0.335909 0.149417 -0.141524 0.318656 0.617616 -0.008677 -0.087919 -0.084548 -0.202536 0.347650 -0.548188 0.222618 0.101896 -0.198331 0.187528 -0.724177 -0.211375 0.172116 -0.845966 0.253260 -0.029618 0.186663 -0.186574 -0.101866 0.271557 0.020725 0.068944 -0.176831 0.382192 0.234579 -0.113733 -0.284267 0.226391 0.302204 -0.125378 0.938654 0.364466 -0.086566 -0.090334 -0.305425 0.273666 -0.200031 -0.246385 0.789787 0.805735 -0.314308 -0.144384 0.077984 0.246694 -0.056889 -0.047181 0.024485 -0.759257 0.057904 0.456707 -0.036331 -0.426576 -0.951148 0.142841 -0.359857
2340 -0.102362 -0.569258 -0.064588 0.217091 -0.059131 -0.289553 -0.027717 -0.082627 0.014192 0.075409 0.229523 -0.070610 0.303102 0.040689 -0.583701 0.231250 0.260841 -0.312145 -0.381042 0.285071 0.376289 0.082672 0.372912 -0.569996 0.082638 0.446242 -0.020339 0.132470 0.105644 -0.494695 -0.223483 -0.018994 -0.131817 -0.540517 -0.242554 -0.106573 -0.036817 0.505334 0.017501 -0.006755 0.228130 0.397656 0.273971 -0.237935 -0.555525 0.616624 -0.016241 -0.203582 -0.096323 -0.029898 0.445591 0.286037 0.584039 -0.019645 0.006905 -0.005714 0.234571 -0.179941 -0.036286 0.020001 -0.343483 -0.228484 -0.005229 0.045438 0.060020 0.207329 0.235954 0.148266 -0.128395 0.039345 -0.457608 0.275650 0.365047 -0.229730 -0.136229 -0.275238 0.679548 0.385815 -0.509649 0.114936 -0.036326 -0.140830 -0.025593 -0.544247 0.040250 0.022774 -0.141607 0.128171 -0.514619 0.453997 -0.151580 -0.390188 -0.144083 -0.157977 0.051848 0.204363 0.118490 0.279392 -0.502629 -0.629906 0.045825 -0.040713 -0.275351 0.613220 0.089665 -0.300278 -0.329174 -0.221614 0.348470 -0.013690 0.005545 0.698747 0.125510 0.105271 0.251749 -0.129159 0.148831 0.227074 -0.225783 -0.036901 -0.144356 -0.083097 0.011196 -0.386218 0.026207 -0.696444 -0.082051 -0.155470
2868 -0.387245 0.202256 0.354452 -0.043803 0.024687 -0.055533 0.155471 -0.026233 0.479486 0.199923 0.057754 0.046761 0.189724 -0.155971 -0.028287 0.184907 -0.005970 -0.441022 0.241181 0.363543 -0.454222 0.584677 -0.701896 -0.446068 0.046546 -0.468445 0.504534 -0.283668 -0.564890 0.152806 -0.435799 -0.348218 -1.183431 0.009465 0.213064 -0.366380 0.887831 -0.358149 0.061042 -0.177125 0.316617 -0.083139 0.258780 0.134538 -0.548892 -0.166635 0.094343 0.032327 0.195174 -0.453623 0.347167 0.312538 -0.011546 -0.488471 -0.869532 0.019196 0.293240 0.043839 0.279397 0.214384 0.057757 -0.410113 -0.230346 0.326241 0.059472 -0.241338 0.319455 0.062684 -0.083902 0.248044 0.130479 -0.223865 -0.564559 -0.571279 -0.561850 0.154612 -0.315786 0.693215 -0.855624 0.242090 0.204575 -0.253727 -0.361466 -0.665173 -0.531573 0.123228 -0.248365 0.489995 0.002243 0.282094 0.360738 0.101482 -0.865073 0.045601 -0.073944 0.028206 -0.239334 0.108600 -0.467519 0.162306 -0.158103 -0.075488 0.066265 0.011932 0.186844 -0.118361 0.640041 0.513327 -0.238841 0.377691 -0.257847 0.362664 -0.391684 0.253025 0.428613 -0.030664 0.124752 0.137403 -0.631457 0.365591 -0.343891 -0.015986 0.637203 -0.182696 0.173076 -0.513442 -0.062191 -0.909757
1175 0.366525 0.680590 0.166935 -0.037374 0.085780 0.162125 -0.276489 -0.210528 -0.277990 0.475695 0.065155 0.036137 0.156756 -0.025932 -0.361737 0.137856 0.305877 0.334853 0.291235 0.018819 -0.053571 0.076823 0.104277 -0.216844 0.087419 -0.058737 0.090448 0.364585 -0.269774 0.003962 -0.122750 -0.535153 -0.395215 0.137550 0.006734 -0.097647 -0.296144 0.135946 -0.111399 0.336506 -0.009043 0.012238 0.172210 -0.194481 -0.155603 -0.224734 -0.064702 0.094206 -0.195301 -0.203404 0.497151 0.215837 0.019792 0.084484 -0.025524 -0.180981 -0.254178 0.319097 -0.417871 -0.116314 -0.388851 -0.049802 -0.698993 -0.026324 0.081830 0.001320 -0.340386 0.509628 -0.202114 -0.157572 0.058781 -0.194925 0.016673 0.206549 -0.151726 0.142049 -0.069920 -0.432402 0.076625 -0.187797 -0.205104 -0.193275 -0.169471 -0.052843 0.379781 -0.429156 0.001987 0.235918 0.016205 0.036162 -0.123784 0.003007 0.209778 0.054940 -0.415735 0.084209 0.236792 -0.064575 -0.112980 -0.506887 0.091969 -0.214604 -0.167514 0.282729 0.273025 0.080830 0.090209 0.117104 -0.358357 0.184984 0.036888 0.120161 -0.157572 -0.089438 -0.281569 -0.291462 0.042309 -0.342702 -0.273074 -0.168456 -0.130034 0.212948 -0.086670 0.400991 -0.322488 -0.581983 -0.120507 -0.166760
2527 0.048104 0.224100 0.253059 -0.123047 0.285864 0.042433 -0.051148 -0.240741 0.060167 -0.401864 -0.335507 -0.153375 -0.002435 0.013939 -0.307121 0.071451 0.088288 0.260945 0.104825 -0.085102 0.179148 0.229878 -0.016153 -0.417577 -0.206978 -0.273267 -0.258361 0.289920 -0.254674 -0.106282 -0.099483 -0.239505 -0.781845 0.231473 0.310096 -0.049231 -0.416450 0.371422 -0.023639 0.165458 0.010068 0.380403 0.518141 -0.185412 0.306957 -0.282980 -0.430465 0.161455 -0.614290 0.093599 0.142223 -0.023881 -0.105013 -0.245216 0.002937 -0.219808 0.122102 0.103238 -0.169855 -0.037890 -0.054827 -0.020822 -0.443411 0.501311 0.124197 0.133110 0.120545 0.290267 -0.130490 -0.145793 0.128618 0.266602 0.190923 -0.091998 -0.167856 -0.066061 0.174350 -0.167532 0.075263 -0.103796 -0.188728 -0.325346 -0.077980 -0.164650 0.116985 -0.373725 0.031744 0.532854 0.240770 -0.160365 0.309522 0.037394 0.152617 0.109115 -0.042312 0.226504 0.224569 0.567809 0.116865 -0.185916 -0.080428 -0.322719 0.043979 0.168024 0.301509 -0.129728 0.071844 0.065567 -0.330276 0.156117 0.207056 -0.178355 0.006401 -0.013170 -0.236859 -0.130083 0.392062 -0.328913 -0.016054 -0.555644 -0.261141 0.224380 -0.049016 -0.047133 -0.190217 -0.353459 -0.223926 -0.444852
385 0.095545 0.251297 0.033163 0.093132 0.194366 -0.150631 -0.162445 -0.102027 0.257898 -0.103395 -0.169426 0.184138 -0.104611 0.179428 0.128015 0.024653 0.356490 0.438977 0.221877 -0.184350 0.096167 0.007938 0.018399 -0.274882 -0.117070 -0.238761 -0.264862 0.454183 -0.080982 0.096295 0.044997 -0.223327 -0.737355 0.496879 0.342989 0.137765 0.004921 -0.030368 -0.038072 0.473725 0.073258 -0.159210 0.409353 -0.289094 0.236668 0.005738 -0.013211 -0.011529 -0.485220 0.036716 0.292843 0.293110 0.272289 0.155996 -0.153552 -0.237689 -0.176296 0.067446 0.263924 -0.056036 0.042647 -0.241113 -0.564664 0.477688 0.021559 0.009875 -0.041811 0.226175 -0.066682 -0.514730 0.064166 -0.203454 -0.050333 -0.061787 -0.215944 0.238671 0.065909 0.046231 0.080624 -0.115654 -0.003668 -0.426220 0.185437 -0.426662 0.122413 -0.007530 0.026151 0.168372 0.340596 0.204578 0.385705 -0.313598 0.062150 0.128320 -0.104588 0.144330 0.406328 0.322995 -0.030222 -0.340941 0.011875 -0.246180 0.233269 0.002117 0.433657 0.028532 0.101993 -0.138370 0.068020 0.123152 0.054654 -0.032808 0.111871 -0.193590 -0.297271 -0.337354 0.421392 -0.222198 -0.129389 -0.283388 -0.453202 0.191298 0.077322 0.038159 0.004336 -0.413246 -0.129987 -0.219022
1054 0.116728 0.046627 -0.291601 0.157573 0.070386 -0.144910 -0.530827 -0.122595 0.139830 -0.344144 -0.145631 -0.383032 -0.125607 0.200101 0.087613 -0.202788 0.392599 0.444609 0.364432 -0.164937 0.110513 0.239201 0.294726 -0.492548 -0.192035 -0.269793 -0.109825 0.040168 -0.110721 0.101965 -0.369393 -0.084285 -0.461279 0.431486 -0.135999 -0.103349 0.145656 0.057219 -0.353315 0.659322 0.012808 -0.446249 0.034210 -0.394058 -0.088579 -0.054785 0.013494 -0.138913 -0.479316 -0.113654 -0.188939 -0.169118 0.316325 0.006555 0.253250 -0.184395 -0.235051 -0.023858 0.010471 -0.298869 0.025059 -0.494003 -0.459608 0.057221 -0.311727 0.242073 -0.117145 -0.152540 -0.044575 -0.473472 -0.025998 -0.172687 0.336203 -0.310788 -0.403823 0.282336 -0.060823 -0.236642 0.046770 0.082739 0.030759 -0.188569 -0.125986 -0.330944 0.071854 -0.149865 -0.089650 0.075317 0.200920 -0.120550 -0.202541 -0.245722 0.025013 0.151137 -0.140432 0.071418 0.208674 0.142593 -0.033599 -0.234726 0.066595 -0.102556 -0.231319 0.002719 0.350156 -0.486163 -0.041209 0.392257 -0.276127 -0.371870 -0.343132 0.328190 -0.287692 0.361015 -0.162080 -0.481841 -0.119878 -0.080371 -0.199412 0.049094 -0.087989 0.216891 0.056659 0.190677 0.035951 -0.717793 -0.167171 -0.370612
1274 -0.287569 0.202206 -0.431567 0.333510 0.545825 -0.339211 -0.324379 0.022486 0.307233 -0.026428 -0.088603 0.402212 -0.035160 0.379659 -0.143184 0.487446 -0.442337 0.380126 0.156218 0.510662 -0.103358 -0.075426 0.517359 -0.344170 0.395902 -0.252353 -0.025519 0.147897 0.399815 0.028348 0.183015 -0.370768 -0.222201 -0.220145 0.274259 0.056359 0.900469 0.118584 -0.529501 0.777546 -0.028735 0.503441 0.058125 0.214525 -0.001998 -0.200477 0.357300 0.251274 0.196069 -0.186051 0.396480 -0.057185 0.051099 -0.226692 -0.244840 -0.228418 -0.001005 -0.388613 -0.360962 0.595493 0.087522 0.112237 -0.560452 -0.717662 0.211953 -0.036120 1.166316 0.138069 -0.625976 -0.073096 -0.305014 0.305225 0.021633 -0.897665 -0.329305 -0.080312 -0.685157 -0.316101 0.307820 -0.200929 -0.005702 -0.457930 -0.633509 -0.608166 0.153901 0.070773 -0.383927 0.125445 -0.450067 0.372667 -0.684838 0.705976 -0.195198 -0.595195 0.126366 -0.430593 -0.594363 1.196997 0.265162 -0.149742 -0.071408 0.502102 -0.430354 0.007397 0.138805 0.243890 0.527524 -0.779037 0.133938 -0.461557 0.832399 -0.181572 -0.893449 0.345607 -0.450037 0.246803 0.485655 -0.667181 -0.350988 -0.261917 -0.190729 0.000792 -0.537728 -0.464867 0.300750 -0.194921 -0.143956 -0.815104
1883 0.205070 -0.217688 -0.058760 0.146978 -0.346068 -0.360982 0.333072 0.304798 -0.241897 0.044021 0.036105 -0.436776 -0.001709 -0.519295 -0.005681 -0.149431 0.467217 0.061131 0.485189 1.106803 0.210754 0.111348 -0.069394 -0.803331 0.580968 0.703062 0.047455 -0.161925 0.301396 -0.115462 -0.278373 -0.194804 -0.431547 0.054392 -0.162819 -0.172158 0.416015 0.317870 -0.642595 -0.144606 -0.052290 0.082793 -0.190198 -0.155033 -0.501599 0.580584 0.200325 -0.397528 -0.401274 -0.160460 -0.009432 0.164600 0.355586 -0.245734 -0.418212 0.327923 -0.046638 -0.508255 -0.371168 0.419060 0.194848 -0.166723 -0.242466 0.254257 0.553694 -0.262504 0.421522 0.197741 0.098367 -0.229236 -0.508629 0.463606 0.227153 -0.300129 0.147361 0.041987 0.177286 0.493115 0.243984 -0.138159 0.857122 0.262941 -0.039048 -1.102409 0.353320 -0.342033 0.110225 0.485863 -0.975688 0.749274 -0.340588 0.012572 -0.236448 -0.056007 0.090839 0.315827 0.050745 0.324629 -0.074631 -0.350724 0.576862 -0.205303 -0.107262 0.135286 0.294000 -0.342780 -0.149497 -0.409010 0.202807 0.351817 0.495893 0.264248 -0.383594 -0.067639 -0.792197 -0.322175 -0.391019 -0.217778 -0.094297 0.409801 -0.039772 -0.747026 -0.073930 -0.431326 -0.502034 -1.104905 -0.153013 -0.153155
1115 -0.488919 0.404192 0.271863 0.471276 -0.026091 0.239218 0.026616 0.020875 0.492953 0.134608 -0.011428 0.161677 0.214608 -0.086272 -0.495007 -0.124045 -0.412452 -0.145671 -0.288238 0.381825 0.622668 0.165560 0.412413 -0.714173 -0.196179 0.348891 0.395820 0.167003 0.428742 -0.094235 -0.723987 0.162769 0.045130 -0.188122 0.207846 -0.067062 0.148449 0.261903 -0.213908 0.147127 -0.094794 0.531844 0.501603 -0.438737 0.104523 0.539537 0.150673 0.276206 0.415179 -0.123977 -0.092085 0.015731 -0.304067 0.240393 -0.129599 -0.305779 0.081761 -0.887359 0.013311 -0.377931 -0.089989 -0.333886 0.000045 0.408318 0.432505 -0.317696 -0.102946 0.210033 -0.129059 0.261125 -0.495281 -0.676791 0.074573 0.283085 0.091741 0.192647 0.192403 -0.176535 0.155124 -0.048414 -0.168066 -0.009587 0.054965 -0.445112 0.270573 -0.142264 0.064999 -0.138773 -0.659252 0.163475 -0.226480 -0.339176 -0.321612 0.271265 0.040755 0.239908 0.044652 0.218432 0.431883 -0.311821 -0.127134 0.592215 -0.255665 0.120506 0.016201 0.064630 0.347229 -0.355570 0.016085 -0.110058 -0.435903 0.192378 -0.080913 0.015844 -0.571502 -0.214334 -0.475014 0.067449 0.099698 0.012127 -0.339125 0.599953 0.181475 -0.137677 -0.288411 -0.077504 0.027894 -0.766842
2417 -0.337277 0.153726 -0.314779 0.544561 -0.125300 -0.376032 -0.010342 -0.209552 0.661879 0.061615 0.271306 0.348239 0.488728 -0.255762 -0.257349 -0.171283 -0.420085 -0.422535 -0.537509 0.271232 0.157185 0.464688 0.417568 -0.470285 -0.017771 0.385580 0.181764 -0.189278 0.181943 -0.009691 -0.963344 0.111584 -0.197618 -0.315806 -0.093976 -0.035886 0.207815 0.838793 -0.353066 0.163157 0.138841 0.398946 0.067096 -0.336708 0.275613 0.300395 -0.001966 0.296452 0.054164 0.274106 -0.002593 0.077608 -0.167237 0.000491 -0.159072 -0.503223 -0.005098 -0.714198 -0.396635 -0.605103 0.275877 -0.164691 -0.066264 0.215562 0.070990 -0.453429 -0.113513 0.486329 -0.198193 0.418336 -0.162090 -0.370930 -0.385101 0.229536 0.119467 0.384701 0.124230 0.180524 0.346463 -0.141459 0.241787 -0.093768 0.276975 -0.329838 0.644851 -0.244431 0.256448 0.028998 -0.070863 0.037912 -0.410897 -0.072214 -0.394307 0.308569 0.338387 0.397730 0.198466 0.317446 0.071245 -0.570637 -0.209666 0.825590 0.151031 0.301087 0.404518 -0.326992 0.060579 -0.495250 0.343702 -0.196264 -0.182788 0.070641 -0.424423 -0.008189 -0.319664 0.008026 -0.166984 0.183106 0.087552 -0.018031 -0.118877 0.622185 0.366335 -0.022100 -0.255677 -0.116336 -0.090589 -0.580020
14 -0.042049 0.392974 -0.263990 -0.148236 0.165799 -0.382206 -0.614151 -0.194611 0.076736 -0.193843 0.083076 -0.128110 -0.237592 0.012495 0.233551 0.118138 0.331302 0.254077 0.261901 0.207632 0.561992 0.485111 -0.316663 -0.514838 0.011995 -0.312575 -0.368379 0.336831 -0.285461 0.067919 -0.152125 -0.389406 -0.586895 0.275437 -0.236611 -0.013966 0.057671 0.349394 -0.455700 0.115180 0.298761 -0.090943 0.092718 -0.068502 -0.064939 -0.032952 0.197968 0.073854 -0.170927 0.160050 0.078054 0.020904 0.094778 0.039155 -0.411454 -0.186543 -0.217110 0.286652 -0.085894 -0.253570 -0.273951 -0.146088 -0.458697 0.108211 -0.284054 0.025614 0.097594 -0.161374 0.090274 -0.203942 -0.034159 0.293668 0.252126 -0.570972 -0.330656 0.452776 -0.010705 -0.100348 0.072254 -0.546927 0.316438 -0.170703 -0.528043 -0.237647 0.025246 -0.252594 -0.295357 0.014851 -0.481060 0.020871 -0.550870 -0.047799 0.416075 0.181917 0.481661 0.075657 0.002818 -0.040741 0.174587 0.186040 0.332217 0.085536 0.245462 -0.082528 -0.009930 0.162993 0.004900 0.264653 -0.032249 -0.292478 -0.332134 0.293725 -0.190161 -0.041842 -0.073843 -0.214435 0.311098 0.177259 -0.516432 0.097802 -0.575142 0.302805 0.105607 0.101623 0.134218 -0.076039 -0.355746 -0.352153
39 -0.056141 0.027176 0.286504 0.495194 0.456027 0.147865 0.603568 0.310710 0.352634 -0.369789 0.567250 0.023162 0.445022 -0.134748 -0.478434 -0.023196 -0.245276 0.021341 0.228148 0.177579 0.215963 -0.340357 0.135872 -0.459830 -0.371552 0.149618 -0.018028 0.343172 -0.119953 0.379830 -0.321309 0.290189 -0.233919 0.271625 -0.173280 -0.574671 -0.169734 0.084773 -0.046970 -0.608368 0.095553 0.046849 0.194368 -0.041542 -0.307551 -0.427044 0.435694 -0.074387 0.117758 0.454231 -0.418529 0.265775 -0.022262 -0.581946 0.013657 -0.444300 0.336299 0.599763 0.075297 0.010611 -0.763284 -0.253173 -0.945628 -0.333391 0.052261 -0.021658 0.023422 0.037855 -0.439855 -0.844792 0.139262 -0.053247 -0.026527 -0.198072 -0.167705 -0.319738 -0.052175 -0.162841 0.698440 -0.213061 -0.023623 -0.567811 -0.416132 -0.566417 0.374897 -0.515177 0.350187 -0.086038 0.454881 -0.051349 -0.416577 0.284234 -0.470829 -0.203110 0.284494 -0.595878 0.413283 -0.088886 -0.018699 -0.269241 0.079111 0.498394 -0.448805 -0.108542 0.414180 -0.513928 -0.241673 0.172357 0.192378 -0.134155 0.326340 0.120730 -0.123738 -0.422340 0.119075 -0.344955 0.417312 -0.056242 0.258062 0.060646 0.040035 -0.073037 0.019414 0.248475 0.469432 -0.526797 -0.157164 -0.716718
2413 -0.495732 0.198190 0.085937 0.364356 0.223114 -0.069434 0.072336 -0.399222 0.373242 0.232070 0.139533 0.111259 0.581238 -0.358997 -0.299018 -0.035805 -0.339527 -0.308203 -0.569573 0.330099 0.253139 0.368319 0.803242 -0.504124 -0.099896 0.391408 0.427808 -0.009723 0.184453 -0.107955 -0.822817 0.199085 0.164027 -0.140655 -0.176197 0.113437 -0.328316 0.502836 -0.185474 -0.241007 0.291515 0.441284 0.236636 -0.220172 0.086117 0.019220 0.213417 0.221433 0.183812 0.105645 -0.105082 0.201413 0.100481 -0.216027 -0.104882 -0.507108 0.080909 -0.715491 -0.037483 -0.424232 -0.315668 -0.228264 -0.175636 0.526460 0.160146 -0.773346 0.037510 0.283589 -0.109043 0.345413 -0.161263 -0.425791 0.136749 0.129500 0.276290 -0.092131 -0.051735 -0.355318 0.044080 0.105776 -0.042150 0.010517 0.240881 -0.415332 0.501440 -0.129602 -0.346242 -0.005291 -0.454609 0.297706 -0.156919 -0.199758 -0.162514 0.246048 0.060565 0.218336 0.172567 0.149516 0.360747 -0.290655 -0.177218 0.487702 -0.035545 0.121914 -0.146250 -0.056565 0.425781 -0.304921 0.219110 -0.390554 -0.504470 0.416516 -0.200728 0.193628 -0.615188 -0.288645 -0.326072 0.193006 0.299642 0.054784 -0.336089 0.296140 0.211237 -0.522520 0.067291 -0.298505 -0.000774 -0.735404
2895 -0.496386 0.877915 0.051512 0.538533 -0.467687 0.191358 -0.092928 0.321873 -0.082782 0.548828 0.270080 -0.075783 0.091954 -0.040754 -0.492537 0.276685 -0.233119 0.175910 -0.442873 0.011070 0.199568 0.188599 0.323937 0.023687 0.042928 0.453241 0.258286 -0.281095 0.635195 0.121150 -0.414933 -0.278655 -0.108378 -0.292285 0.433048 -0.001567 -0.413132 0.642444 -0.211918 0.376705 0.151132 -0.107478 -0.144909 -0.000259 -0.165004 0.071984 -0.105575 0.050738 -0.296772 0.437962 -0.888659 0.327764 0.132484 -0.546747 0.067970 0.155388 -0.031946 -0.686747 -0.049510 -0.662582 -0.446085 0.130955 0.236437 0.363422 0.186333 -0.079670 -0.340299 0.661616 -0.492639 0.011502 -0.520782 -0.119579 0.258059 -0.255010 0.453857 -0.390575 0.031016 -0.278240 -0.047368 0.025991 0.470482 -0.191081 -0.186038 -0.629243 0.228942 -0.016051 -0.148990 -0.027762 -0.627951 -0.431722 -0.110141 -0.005363 -0.753504 0.209554 0.402930 -0.103150 -0.095568 0.438426 -0.230156 -0.394938 -0.108881 0.093483 -0.211055 0.166818 0.083321 0.143536 -0.221642 0.198376 0.379724 0.189929 0.032481 0.393735 -0.020787 0.100693 -0.324993 -0.422270 0.106366 0.230859 -0.345526 -0.459637 -0.550738 0.226020 -0.028106 0.070226 0.150672 0.143208 0.064167 -0.873850
2587 -0.380273 -0.465326 -0.038704 0.466938 -0.094884 -0.040797 0.568194 -0.268437 -0.331182 0.400745 0.210959 0.113077 0.837539 -1.158269 -1.220916 -0.813190 0.138551 0.389955 -0.085898 0.600377 0.855337 0.035379 0.448568 -0.349402 0.506205 -0.260675 -0.226325 0.585829 -0.057702 -0.106267 0.308271 -0.637824 -0.123653 -0.837275 -0.133542 -0.546547 -0.398205 -0.207437 -0.450383 0.030662 0.133017 0.777121 0.185581 0.228112 -0.171174 0.420009 -0.392718 0.358478 -0.160130 0.163168 0.717556 0.772831 0.707745 -0.116814 -0.300869 -0.743506 0.689433 0.139068 0.301695 -0.683997 -0.379651 0.190067 -0.094966 -0.310084 0.084573 0.492785 0.224307 1.283932 -0.907783 -0.219975 -0.789712 0.191747 0.524222 -0.272261 -0.160580 0.152564 -0.757942 -0.884665 -0.104950 -0.553174 0.535031 -0.409945 -0.315330 0.057307 -0.248685 0.840122 -0.487989 0.266240 1.551126 0.812190 -0.138600 -0.067445 0.133902 0.699216 0.495941 0.429892 -0.684688 1.378200 0.193180 -0.216557 0.084478 0.848581 0.811097 0.028330 0.441344 -0.372939 0.168940 0.504985 -0.295870 -0.599323 0.532838 -0.146144 -0.675978 -0.269630 0.445797 -0.692895 -0.563488 -0.642020 -0.336927 0.098443 -0.420029 -0.351693 0.453322 -1.302890 0.582506 0.289515 -0.172386 -0.539161
2344 -0.086937 -0.381973 -0.307013 0.050630 -0.284307 -0.174532 0.603643 0.274641 0.203573 0.117095 0.170404 0.312500 0.233075 -0.002414 -0.117453 -0.126359 -0.386602 -0.052497 -0.526362 0.105807 0.177146 0.469439 0.310681 -0.064647 -0.466769 0.279799 0.007505 -0.280819 0.253485 -0.500287 -0.145279 0.072173 -0.251212 -0.410143 -0.049141 -0.018407 0.118512 0.429735 -0.478130 -0.115796 0.189329 0.267099 0.067153 -0.630360 -0.432327 0.355207 0.003806 -0.121568 -0.216176 -0.195655 0.293201 0.442896 0.269830 0.226409 0.279051 0.066846 0.317993 -0.446837 -0.198867 -0.022164 -0.314053 0.009794 -0.130157 -0.035714 0.122742 -0.019441 0.007526 0.297634 -0.552683 0.026867 -0.707298 0.048545 0.531014 -0.197363 -0.280989 -0.016542 0.473210 -0.153239 -0.282489 0.042998 0.128866 -0.163027 0.126273 -0.602872 0.339847 -0.011875 -0.097285 0.361409 -0.557984 0.555109 -0.411993 -0.303767 -0.307471 -0.119711 0.236815 0.065111 -0.230012 0.072218 -0.497481 -0.638137 -0.290447 -0.051420 -0.517867 -0.111036 0.038779 -0.343791 -0.496909 -0.356008 0.465920 0.079554 0.192685 0.672240 0.373659 0.019678 0.353687 -0.177560 0.063617 0.202860 -0.219671 -0.019759 -0.447480 0.060941 0.241858 -0.186701 0.090931 -0.662698 -0.216048 -0.445234
3118 -0.083296 -0.281793 -0.222629 -0.072015 0.262575 -0.129995 0.093856 0.628081 0.017657 -0.318770 0.180768 -0.184992 -0.226797 -0.138612 -0.968802 -0.413618 0.515070 -0.250709 0.014642 0.212759 -0.349472 0.517654 -0.343571 -0.509436 -0.265930 0.058158 0.541532 0.006296 -0.623079 0.237380 -0.270389 -0.320541 -0.451503 -0.218874 0.241743 -0.156476 0.036609 -0.381489 -0.354350 0.046626 0.055253 -0.171214 0.563424 -0.046069 -0.026616 -0.261856 -0.037909 0.252788 0.315536 0.312307 0.526329 -0.215853 -0.076073 -0.241005 -0.880191 -0.425312 0.121460 -0.404026 0.240645 0.228156 0.272446 -0.096842 -0.073527 -0.386891 0.019491 -0.008365 0.320629 0.712416 0.189896 -0.042452 -0.492313 -0.261509 -0.220568 -0.390965 -0.556781 0.124272 -0.543440 0.309366 -0.295942 0.378375 0.793309 -0.428429 -0.439181 0.115937 -0.517535 0.176882 -0.561702 0.773347 0.060980 -0.645790 0.173606 -0.169497 -0.951471 0.167908 0.389928 0.454536 -0.165366 -0.305458 -0.168514 -0.460415 -0.145737 0.374598 -0.075280 -0.418268 0.244661 0.103346 0.397575 0.165310 -0.144654 -0.433022 -0.324810 -0.026504 0.039523 0.295036 0.235841 -0.097302 -0.137249 0.385685 -0.388480 -0.312148 -0.108706 -0.066897 0.364907 -0.123047 0.005274 -0.729986 0.351636 -0.434989
1841 0.276109 0.231996 0.103912 -0.111948 0.038945 -0.388882 -0.363658 -0.126568 0.419971 0.093532 0.163054 -0.297706 -0.068536 0.071524 0.002390 -0.061454 0.123075 0.168083 0.652770 0.858318 0.201687 0.011560 0.128142 -0.174539 -0.074266 0.009113 0.233890 0.179565 -0.271644 -0.335106 -0.121022 -0.407790 -0.312645 0.300260 -0.183971 0.035896 -0.205603 0.098808 -0.325529 0.356363 0.250412 -0.244000 0.256184 -0.222396 -0.092134 0.005448 -0.317541 -0.061282 -0.477713 -0.087496 0.432434 0.133490 -0.000143 0.015517 -0.601710 0.099434 -0.323111 0.067669 0.179971 -0.226724 -0.030099 -0.082583 -0.313836 0.161428 -0.398538 0.132729 -0.342686 -0.138959 -0.026772 -0.417210 0.123647 -0.236639 0.148964 -0.416603 -0.215312 0.398438 0.079337 -0.146741 -0.085956 -0.235677 -0.009213 0.006262 -0.600746 -0.529264 0.232830 -0.131219 -0.175795 0.518537 0.040645 -0.093397 0.031705 -0.033920 -0.196834 -0.080844 0.371022 0.215431 -0.125965 0.145966 -0.133701 0.380509 -0.389122 0.126916 0.022578 -0.233029 0.509450 0.113398 0.449234 0.092341 -0.436895 -0.060822 -0.034764 0.439155 -0.036382 0.080326 0.004825 0.031378 0.319716 0.249000 -0.551621 -0.152041 -0.167276 0.446684 0.124361 0.179676 -0.074863 -0.222369 -0.351712 -0.117122
1961 0.092130 0.375353 0.341625 0.117892 0.276759 -0.042240 -0.030748 0.143005 -0.090207 -0.190878 0.071476 0.042922 -0.210749 0.263660 0.074104 -0.134816 0.339983 0.378893 -0.125765 -0.211525 0.237916 0.124084 0.015425 -0.226068 0.087411 -0.295617 -0.194967 0.298715 0.050896 -0.336578 -0.287107 -0.373550 -0.617299 0.291327 0.167739 -0.285444 -0.245293 0.267476 0.259214 0.233710 0.209018 0.004932 0.386744 -0.223077 0.316076 -0.497353 -0.072540 0.042352 -0.599229 0.375791 0.112075 0.063152 0.364001 0.166706 -0.203397 -0.285188 -0.127890 0.455322 -0.208909 -0.072575 0.036890 -0.100628 -0.485078 0.199122 0.504433 -0.259286 -0.022388 0.407602 -0.042692 -0.448704 0.031629 0.155128 -0.151765 0.268327 -0.275290 0.000697 0.422479 0.055845 0.027605 -0.125720 -0.206760 -0.133682 -0.158212 -0.277900 0.333708 -0.339808 -0.325625 0.298378 0.318372 0.176457 -0.103665 -0.011356 -0.362426 0.110845 -0.125721 0.328069 -0.333090 0.271935 -0.163456 -0.154921 -0.208008 -0.219959 0.239167 0.422990 0.311431 -0.100654 0.150158 -0.000742 -0.200094 -0.282667 0.052083 -0.213702 0.059773 0.086471 -0.146234 -0.474912 0.355416 -0.730752 0.050771 0.047407 -0.145390 0.405050 -0.304086 0.113270 -0.302550 -0.735131 -0.104021 -0.323241
96 -0.616061 0.237151 -0.378575 -0.198458 -0.811480 0.949204 -0.051697 -0.274204 0.855471 -0.301668 0.167613 -0.623042 0.142358 -0.136147 -0.229560 -0.079255 -0.091037 -0.815117 0.377295 0.172941 0.430782 -0.503515 0.107465 0.189679 -0.469899 0.350680 0.015811 0.232820 0.520176 -0.039296 -0.572504 -0.226699 -0.950197 0.418216 -0.050587 -0.239315 0.559667 -0.049470 -0.146599 -0.069787 0.081471 0.399933 -0.079629 0.266158 -0.195270 -0.276961 -0.616940 0.034785 -0.081204 0.659665 0.226161 0.356537 -0.105896 0.088820 0.131988 0.032463 0.109669 0.021702 0.273916 -0.411221 -0.418814 0.045865 -0.529562 -0.773618 0.181524 -0.633711 0.595569 0.443078 0.234273 -0.298058 -0.547028 -0.080908 0.116441 0.038803 -0.023793 0.165772 0.158567 0.007241 -0.141517 -0.328294 -0.170723 0.549938 -0.426216 -0.067839 0.231440 0.041567 -0.166398 -0.051852 0.097109 0.253580 -0.365574 -0.247374 -0.721845 -0.372632 0.157891 0.466497 0.008692 0.478950 0.566263 -0.216697 0.237032 0.146034 -0.542682 -0.130867 0.357152 0.397050 -0.534469 0.626809 0.462292 -0.254071 1.081540 0.405950 0.091333 -0.182292 -0.980388 -1.202533 -0.181352 -0.538903 -0.792582 -0.144061 -0.409860 0.017492 -0.327966 -0.434433 0.255029 -0.658071 -0.264859 0.135645
1643 0.072415 0.113642 0.226178 0.109808 0.168822 0.165817 -0.096304 -0.136687 0.314251 -0.323253 -0.138358 0.159480 -0.122469 0.064388 0.038539 -0.026146 0.335102 0.601008 -0.105405 -0.217311 0.454199 0.134767 -0.243562 -0.055924 -0.136477 -0.287151 -0.143228 0.367886 -0.063960 -0.049933 0.184249 -0.339201 -0.861417 0.466716 0.312122 -0.255049 -0.282206 0.417215 0.237101 0.468053 -0.136097 0.017469 0.384562 -0.091442 0.230891 -0.253040 -0.165709 0.198503 -0.599182 0.248605 0.181250 0.197935 0.219903 0.004460 -0.237941 -0.128950 -0.300007 0.120460 -0.272009 -0.215476 0.102455 -0.004732 -0.497048 0.135794 0.381503 -0.102000 0.044554 0.013924 -0.112164 -0.379606 0.060796 0.105352 0.281313 0.101990 -0.024750 0.052935 0.100613 -0.063770 0.311233 -0.246372 -0.065743 -0.280109 0.011050 -0.342926 0.170344 -0.267598 -0.256904 0.162806 0.209635 0.094745 0.153070 -0.255485 -0.250204 -0.034807 -0.331010 0.368756 0.204000 0.368650 0.057917 -0.193956 -0.253373 -0.013390 0.263488 -0.035166 0.382082 -0.165539 0.313941 -0.083036 -0.135040 0.018863 0.217349 -0.118883 0.258439 -0.196066 -0.037937 -0.274408 0.410267 -0.334453 -0.229616 -0.281180 -0.135176 0.066106 0.099622 0.014703 -0.354578 -0.689109 -0.130945 -0.245424
471 0.246406 -0.469360 -0.244696 0.048312 0.237879 -0.531089 -0.139892 0.106168 0.057123 -0.046694 0.904672 -0.622857 0.113958 0.112651 0.226962 0.064658 -0.529111 0.258437 -0.125590 0.114594 -0.021466 -0.228232 -0.365965 -0.364921 0.117491 -0.260027 -0.010257 -0.455659 -0.033872 -0.020162 -0.638721 -0.314205 -0.538448 -0.124509 -0.205094 -0.895011 0.049519 -0.372165 -0.954815 -0.007412 -0.264889 -0.188799 -0.170625 -0.212106 0.596769 -0.052860 -0.119368 0.765574 -0.295049 -0.739095 -0.457185 -0.449007 -0.304164 -0.155738 -0.589927 0.315264 -0.221320 0.516575 0.393049 0.253415 -0.564838 0.276034 0.495260 -1.029202 -0.389177 -0.797617 -0.345145 0.363865 0.287280 -0.163736 -0.107616 0.262958 -0.110825 -0.030689 -0.495504 0.232597 -0.420709 0.846710 1.099834 -0.066581 0.165856 -0.836156 -0.506655 -1.206887 -0.024506 0.452233 -0.697387 0.562933 -0.314835 0.361870 -0.546997 -0.196132 -0.177227 -0.663131 -0.199187 -0.079592 -0.013783 0.313497 0.302652 -1.205193 0.330316 0.072366 -0.610650 -0.587826 0.470121 0.496007 0.712704 0.350327 -0.449568 -0.235794 0.583839 0.324521 -0.251767 0.231807 -0.310182 -0.041098 -0.930288 0.475110 -0.302555 -1.272609 -0.848710 -0.822869 0.435391 0.139241 -0.004882 -0.957227 -0.160772 -1.363537
1282 -0.484161 0.059369 -0.279349 0.479234 0.441585 -0.319854 -0.327357 0.069684 0.223873 0.050062 -0.237291 0.280287 0.158206 0.327208 -0.148811 0.367586 -0.425704 0.496265 -0.236615 0.608716 -0.119541 -0.038294 0.961851 -0.074897 0.384036 -0.130257 -0.016514 0.159965 0.363515 0.268974 0.271812 -0.263153 -0.341077 -0.321944 0.320369 -0.283480 0.772889 0.431481 -0.687638 0.662565 0.260839 0.456940 0.069889 0.224217 -0.058965 -0.291410 0.164475 -0.003374 0.312073 -0.234413 0.547489 0.079430 0.089987 -0.232661 -0.084129 -0.209020 0.013132 -0.383670 -0.339830 0.466511 -0.022565 -0.074996 -0.683897 -0.759849 0.282187 -0.046439 1.255544 0.258982 -0.484859 -0.034004 -0.337810 0.331174 0.083200 -0.887229 -0.533362 -0.000308 -0.928408 -0.175732 0.358255 -0.109695 0.021728 -0.419068 -0.384642 -0.515554 0.262561 0.070444 -0.297454 0.228866 -0.425535 0.173717 -0.825659 0.863570 -0.262094 -0.258719 -0.132491 -0.344387 -0.822375 0.916683 0.202713 -0.150659 -0.173807 0.449217 -0.617267 -0.125876 0.258276 0.460083 0.502637 -0.885089 -0.029876 -0.466166 0.937188 -0.187382 -0.989924 0.636621 -0.345795 0.223579 0.680560 -0.768243 -0.447222 -0.313284 0.008015 -0.065941 -0.275450 -0.127503 0.231393 -0.265177 0.012024 -0.986623
1514 0.146541 0.136831 0.062889 -0.161531 0.175445 0.274502 -0.016651 -0.057434 0.186181 0.383185 0.132486 0.290380 0.129911 0.064776 -0.098685 0.010321 0.256772 0.322005 0.516636 -0.111759 0.208204 0.135798 0.106936 -0.347143 -0.089456 -0.297495 -0.185450 0.494576 -0.231004 -0.195845 -0.344553 -0.562684 -0.594573 0.113964 0.047449 -0.264826 -0.463941 0.160551 -0.246955 0.180218 -0.350579 -0.025465 0.448676 -0.172521 0.022018 0.207435 -0.073403 0.420510 -0.460454 0.092736 0.037981 0.085676 0.138597 -0.047101 0.052466 -0.126214 -0.412009 0.024858 -0.091619 0.064572 -0.429387 -0.215700 -0.472199 0.245148 0.064114 0.020676 -0.025796 0.622528 -0.404465 -0.012080 0.247820 0.000763 -0.384142 0.039615 -0.239607 0.052941 -0.012885 -0.423260 -0.065001 0.028330 -0.278105 -0.164631 0.320173 -0.223773 0.137622 -0.078497 0.031226 0.061502 -0.203229 -0.410538 0.097919 0.197519 0.013990 -0.067736 -0.067460 -0.342560 0.044462 0.241906 -0.001652 -0.476735 -0.236155 -0.136307 0.342208 -0.224563 0.662789 0.068658 0.254404 0.015931 -0.236956 0.138562 0.304381 0.044312 0.097235 0.010473 -0.098560 -0.177760 0.170529 -0.516936 -0.239043 -0.170916 -0.036967 0.299288 0.028030 0.072121 -0.189861 -0.478347 -0.316667 -0.185739
1027 0.523318 0.493109 0.128885 -0.075977 0.037383 0.028231 -0.494308 -0.137964 -0.043166 0.164857 -0.104219 0.144775 -0.130512 -0.047207 -0.287862 0.104135 0.269436 0.414705 0.380853 -0.161180 0.000972 0.151325 0.401947 -0.846267 0.408570 -0.128285 -0.151828 0.241390 -0.031598 -0.142790 -0.209546 -0.193336 -0.741988 0.130942 -0.122028 -0.211763 -0.372478 0.235941 -0.123886 0.560277 -0.197252 -0.531435 -0.066580 -0.418215 -0.125298 -0.770013 0.239198 -0.171253 -0.694468 -0.083668 0.258943 -0.110873 0.154218 0.322067 0.015855 -0.196150 -0.246826 0.055397 -0.003158 -0.185977 0.003510 -0.320635 -0.363319 -0.153745 -0.049273 0.212610 -0.233768 0.113796 -0.034829 -0.173173 0.199543 -0.075117 0.142112 -0.214440 0.088082 0.059001 -0.248886 0.088466 -0.059377 0.207842 -0.247255 0.196950 -0.041168 -0.467420 0.341402 -0.184613 0.005209 -0.156347 0.419776 -0.103622 -0.227474 0.112180 -0.100858 -0.073849 -0.098661 0.027424 0.257061 -0.126985 0.278191 -0.525828 -0.318698 -0.156163 -0.227209 -0.005353 0.408161 0.184348 0.038673 0.127362 -0.327493 -0.391965 0.286813 0.175177 0.325839 0.143539 -0.122076 -0.453800 -0.245351 -0.063539 -0.124936 -0.107861 -0.281969 0.214967 0.019697 -0.029639 -0.069624 -0.492641 -0.436818 -0.494539
1861 0.425319 -0.082813 -0.633148 0.183334 -0.336912 0.290621 0.474611 0.447142 -0.079653 -0.084949 -0.443388 -0.499319 -0.399594 0.010211 -0.887862 -0.077598 -0.479547 0.041576 -0.105402 -0.265036 -0.026514 -0.033449 0.162293 0.161792 -0.357013 0.216568 0.271982 0.010702 -0.120848 0.208619 -0.592231 -0.265390 -0.195762 -0.612113 -0.135430 0.624374 0.442790 0.392798 -0.159178 0.034988 0.136415 0.319597 0.315536 -0.276029 0.424698 0.097232 0.100322 0.440866 0.299089 0.178570 0.123222 -0.056365 0.238049 0.198305 -0.615975 -0.760055 -0.701805 -0.604568 -0.218129 -0.395664 -0.176482 -0.051656 -0.330337 -0.431057 -0.181917 -0.253791 -0.325538 0.212205 -0.304493 -0.473520 -0.181135 -0.221324 -0.769496 -0.285672 -0.316006 -1.000134 -0.308091 0.528018 -0.074748 -0.119750 0.639756 -0.305597 0.609510 -0.214290 0.044552 -0.579128 0.143738 0.137877 0.044164 0.102987 0.018024 -0.076589 -0.432042 0.262324 0.399376 0.690862 -0.247577 0.153520 0.208356 -0.295963 -0.194195 0.320230 -0.242871 0.144085 0.233383 0.188699 0.726125 -0.381164 0.628395 0.123185 -0.195781 0.470555 -0.224044 0.058391 -0.574999 -0.185970 -0.109753 0.190767 -0.706083 -0.042943 0.135309 -0.245752 0.376958 -0.633146 0.069153 -0.260159 -0.177848 -0.574389
366 0.199891 0.636022 0.228002 -0.174925 0.311160 -0.367759 -0.458747 -0.055787 0.488251 -0.151885 0.201537 -0.196886 0.031234 -0.002388 0.021012 -0.008041 -0.020669 0.668160 0.411270 0.473572 0.183727 0.320396 -0.088258 0.263652 -0.041099 -0.116860 -0.090960 0.261206 -0.025573 -0.027347 0.106078 -0.221190 -0.360325 0.546423 0.049424 0.024699 -0.042039 0.050702 -0.384048 -0.171811 0.050372 -0.149340 0.407494 -0.630976 -0.118673 0.184793 0.371874 0.303822 -0.314626 -0.210162 0.436502 -0.069403 0.138229 0.060182 -0.261786 0.214464 0.284661 0.440327 0.007423 -0.324358 -0.269477 -0.109052 -0.498531 -0.308146 0.163475 0.100648 0.107900 0.044684 -0.112733 -0.242233 -0.155907 0.127270 0.007315 -0.305886 -0.082246 0.559219 0.169777 -0.306389 -0.361735 -0.270789 0.038135 -0.217269 -0.233834 -0.095323 0.199639 -0.162865 0.091012 0.113739 -0.193572 -0.139062 -0.077594 0.281383 -0.138088 0.172337 0.429226 -0.015265 0.225632 0.045821 0.124436 0.247884 0.097189 0.281884 0.209180 0.103479 0.270860 0.203981 0.031201 0.326133 0.201503 -0.310724 -0.191837 0.511621 -0.037906 0.450823 -0.383113 0.003954 0.805013 0.265224 -0.555313 -0.155910 -0.441206 0.109752 0.045163 -0.395541 0.366023 -0.097290 -0.193890 -0.337738
537 0.044355 0.214647 0.210681 -0.168717 0.144741 0.000157 -0.028307 -0.504027 0.293099 0.120653 -0.243192 0.127823 -0.029379 0.094868 -0.350543 0.253508 0.426131 0.577040 0.384888 -0.118848 0.283782 0.005339 0.317472 -0.355759 0.007454 -0.013192 -0.046112 0.265623 -0.077265 -0.153164 -0.404180 -0.510685 -0.740392 0.221771 -0.062054 -0.290915 -0.713123 0.156531 0.002552 0.059518 -0.201962 -0.195809 0.417083 -0.152385 0.263765 0.067822 -0.121225 0.180864 -0.325357 -0.114021 0.018123 0.211040 -0.061879 -0.002048 -0.323155 0.004424 -0.062819 0.092887 -0.493239 0.236353 -0.240746 -0.013614 -0.390529 0.049640 -0.072332 -0.023765 -0.167600 0.641925 -0.315018 0.094964 0.291544 0.161608 -0.035666 -0.261934 -0.193969 0.041466 0.047931 -0.213245 -0.069790 0.057131 -0.014347 -0.256739 0.244987 -0.256056 0.062706 -0.024525 0.067951 0.257373 0.128913 -0.240186 -0.164107 0.096025 -0.039233 0.077278 -0.166952 -0.012631 0.224627 0.117740 0.055864 -0.365739 0.271884 -0.187446 0.035103 -0.141729 0.419335 -0.148883 0.258239 0.179566 -0.283619 0.137272 0.354610 -0.081930 -0.102587 -0.079454 -0.204747 -0.169426 0.408317 -0.128733 -0.486880 0.087751 0.042448 0.385053 -0.111803 0.349215 -0.277524 -0.443648 -0.313330 -0.110122
1031 0.414691 -0.054097 0.009175 0.100843 -0.221558 0.011674 -0.072114 -0.474158 0.208262 0.263587 0.007077 -0.219408 0.367715 0.224257 -0.350536 -0.160118 0.402028 -0.166097 0.250508 0.198322 0.167871 0.404501 -0.052858 -0.149092 0.021062 -0.145057 0.186585 0.240342 0.507636 0.345354 -0.752115 -0.088744 -0.130877 0.151297 -0.309687 0.221819 -0.304419 -0.051833 -0.232358 0.587665 -0.117283 -0.078085 -0.120353 -0.593112 0.167532 0.153025 -0.084768 0.183798 -0.235192 -0.182335 0.225249 0.257365 0.268576 -0.115316 -0.219296 -0.415457 -0.100019 -0.168581 0.134747 0.053483 -0.312993 -0.535076 -0.557054 -0.309742 0.229025 0.482927 0.335354 -0.253880 0.084028 -0.774690 0.020758 0.078350 -0.174978 -0.657509 -0.274382 0.424441 0.054633 0.042717 -0.636243 0.034120 0.148668 0.019723 -0.320351 -0.780031 0.398589 0.136177 0.547837 0.073372 0.165697 -0.168668 0.317728 -0.756083 0.102402 0.157074 0.287381 -0.000073 0.453088 0.302837 -0.156924 -0.194570 0.276173 -0.043762 -0.139626 0.728717 -0.458305 -0.432814 -0.287741 0.283394 -0.020673 -0.528484 0.129593 0.211071 0.193563 -0.030673 0.574352 -0.265567 0.390755 -0.142898 -0.117621 0.113545 0.005485 -0.145592 0.023780 0.423322 -0.103591 -0.562379 -0.211578 -0.401276
1917 -0.261542 0.297591 0.198939 0.226010 0.158981 -0.064874 0.206388 0.005306 0.359345 -0.237934 0.051115 0.464964 0.204821 -0.269767 -0.320620 0.005565 -0.227269 -0.016073 -0.477831 0.448250 0.500134 0.084727 0.434334 -0.467129 -0.329942 0.326739 0.088575 -0.258543 0.658191 0.169564 -0.703166 -0.052135 0.050120 -0.111085 0.153647 -0.011864 -0.202011 0.287732 -0.145481 0.406234 0.081213 0.637050 -0.397782 -0.570374 0.021574 -0.057861 -0.116887 0.328542 0.225427 -0.128274 -0.351289 0.057101 -0.092836 -0.191380 -0.027498 -0.316201 0.323664 -1.285809 -0.063291 -0.228657 -0.169067 -0.279621 -0.186526 0.312856 0.494803 -0.303805 -0.214432 0.477672 -0.216640 0.309673 -0.406999 -0.281494 -0.009656 0.217287 0.067577 0.010735 0.066186 -0.300439 -0.203255 -0.173879 -0.053623 -0.121375 0.043818 -0.532337 0.598933 -0.008258 -0.111678 -0.174218 -0.738045 0.010489 -0.374316 -0.132248 -0.394274 0.247103 0.347199 0.378168 0.122383 0.207469 0.291455 -0.289345 -0.218113 0.554221 -0.132851 0.477677 0.021686 0.281499 0.483672 -0.083624 0.143241 -0.023142 -0.274762 0.217268 -0.079768 0.076908 -0.583303 -0.159127 -0.304679 0.100740 0.060693 -0.109763 -0.246443 0.518363 0.075258 -0.425852 -0.246476 -0.364309 0.006059 -0.608398
3120 0.173683 -0.287536 -0.157638 -0.058881 0.113392 0.053673 0.296071 0.490362 -0.209289 -0.195783 -0.136751 -0.482715 0.086600 0.144313 -0.938536 -0.063721 0.538102 -0.134626 -0.229975 0.286871 -0.444159 0.462638 -0.042587 -0.269522 -0.958319 -0.070185 0.542919 0.030510 -0.225671 0.242418 0.375857 -0.337936 -0.536018 -0.200728 0.286555 0.117811 0.177987 -0.063230 -0.109774 0.214353 -0.095669 0.001430 0.458571 0.082652 0.132464 0.277674 0.242973 -0.125581 -0.051049 0.004654 -0.094625 0.212571 -0.099427 -0.109137 -0.540095 -0.916140 -0.086488 -0.302796 -0.240720 -0.338560 -0.205610 -0.432491 -0.237192 -0.210910 -0.048562 -0.444529 0.499090 0.879162 -0.391988 -0.048625 -0.460751 -0.098160 -0.006461 -0.291787 -0.577082 -0.154631 -0.414732 0.606053 -0.561690 0.052200 0.912189 -0.121846 -0.289958 0.239650 -0.092120 0.358117 -0.457097 0.276663 0.069903 -0.039668 -0.036038 0.185454 -0.803607 0.129464 0.325594 0.672588 -0.305336 -0.398605 0.033509 -0.019000 0.155484 0.460122 -0.303000 -0.258864 0.539787 0.116752 0.624969 -0.068061 0.168380 -0.368543 -0.415398 0.130196 0.039747 0.210696 0.047632 0.175193 -0.358796 0.275169 0.008193 -0.289220 -0.208505 0.148064 0.253707 -0.045865 -0.122860 -0.371280 -0.187400 -0.183358
531 0.133738 0.185833 0.221560 -0.295162 0.208420 0.051213 0.031542 -0.060226 0.224169 0.375233 0.017822 0.093700 0.012715 0.117767 0.031777 -0.071275 0.349665 0.625073 0.180707 0.010741 0.116764 0.128375 0.045791 -0.213735 0.022297 -0.117805 -0.170082 0.272828 -0.104587 -0.201051 -0.417224 -0.310557 -0.562773 -0.151747 0.475866 -0.300350 -0.353690 0.450577 0.010155 0.286160 -0.109027 0.142581 0.434589 -0.109239 0.246130 -0.133460 0.013833 0.136213 -0.567877 -0.075392 -0.079034 0.112793 0.192873 -0.068945 -0.196185 -0.175702 -0.457920 0.276554 -0.222151 0.294533 -0.350484 -0.182426 -0.355917 0.065735 0.148905 -0.088081 -0.273878 0.795234 -0.513774 -0.396616 0.237138 0.234444 -0.235439 -0.119103 -0.194260 0.038795 0.146480 -0.369944 0.107535 0.006141 -0.312427 -0.408248 0.061407 -0.107621 0.252366 -0.024187 -0.112991 0.067199 -0.025265 -0.344765 0.150394 0.107568 -0.043814 -0.076241 -0.161435 0.006617 0.070300 -0.097293 -0.045445 -0.327571 0.068984 -0.096800 0.403013 -0.018454 0.518141 0.079641 0.389388 0.295796 -0.096338 0.012788 0.306795 0.140752 -0.010156 -0.109390 -0.047754 -0.324453 0.200543 -0.599351 -0.369982 -0.011003 0.019737 0.375608 -0.145595 0.076286 -0.241803 -0.395133 -0.427412 -0.215698
1757 -0.013665 0.050257 0.413461 0.066499 0.183214 -0.073767 0.030649 0.335768 0.432929 -0.258808 0.694509 -0.008187 0.167419 -0.282443 -0.540794 0.157496 -0.307797 -0.073308 0.228956 -0.503560 0.076638 -0.204632 -0.087411 -0.093465 -0.596279 -0.185177 0.193152 0.549691 -0.158624 0.184861 -0.372479 -0.306343 -0.284684 0.550367 0.040279 -0.284436 -0.473182 -0.094975 0.262170 -0.136646 -0.309208 0.224912 -0.084247 -0.090418 -0.401850 0.130292 0.593627 0.149440 -0.292803 -0.230770 -0.070573 -0.183048 0.120039 0.141046 0.123935 0.175406 0.017309 0.479592 -0.137697 -0.521472 -0.582304 -0.171267 -0.841510 -0.105324 0.260592 0.143922 -0.021493 -0.055849 -0.279964 -0.523531 0.067747 0.202185 0.474745 -0.164649 -0.240931 -0.044633 0.249918 -0.082860 0.096537 -0.199414 0.492843 -0.797063 -0.079016 -0.239761 0.269176 -0.160917 0.524125 -0.361850 0.071314 0.005981 -0.339925 0.263720 -0.388160 -0.091666 0.536064 -0.411628 0.298642 -0.124466 0.343295 0.227376 -0.160113 0.474917 -0.255130 0.250483 0.248993 -0.151711 -0.134964 0.062454 0.095866 0.035229 0.347041 0.379026 -0.453470 -0.221375 -0.121530 -0.001963 0.811133 -0.294961 0.633052 -0.586891 0.059691 0.336973 0.361400 0.299778 0.305859 -0.708394 -0.057396 -0.518061
1962 -0.126055 0.194339 0.133371 0.026806 0.203664 -0.228122 -0.006844 0.011803 0.122749 -0.153169 0.131783 -0.229173 -0.136886 -0.044660 -0.032598 0.138371 0.223593 0.048471 -0.157921 -0.024913 0.001329 -0.000303 0.122333 -0.346478 0.056594 -0.549274 0.176382 0.005259 -0.004174 0.011286 -0.231466 -0.056343 -0.622356 0.229837 -0.103968 -0.015594 0.011384 -0.106680 0.211762 0.379743 0.082010 0.219199 0.531593 -0.762374 0.212204 -0.068433 -0.066664 0.170868 -0.820047 0.208530 0.335110 0.077106 0.232965 -0.138885 -0.316814 -0.048823 -0.068402 0.406440 0.348623 0.040618 0.006418 -0.247382 -0.271203 0.689980 0.204873 -0.114562 0.124794 0.292394 -0.002411 -0.191463 0.114634 0.202937 0.274406 0.532654 -0.539758 0.197849 0.064979 -0.286362 0.089946 -0.457255 0.174564 -0.047333 -0.297263 -0.113447 0.284323 -0.278150 0.153118 0.431134 0.220961 -0.119097 0.137269 0.175836 -0.172378 0.302668 -0.091574 0.277635 0.197964 0.264246 -0.256199 -0.233378 -0.319081 -0.396921 0.116790 0.279732 0.342072 -0.164060 0.317547 -0.082786 -0.121570 -0.011366 0.159706 -0.483185 -0.154281 -0.164086 -0.161967 -0.409987 0.288256 -0.627465 -0.083271 -0.444829 -0.143417 0.218158 -0.375226 0.074480 -0.209565 -0.600862 -0.419329 -0.604188
3315 0.203708 0.101060 0.041600 -0.191781 -0.280539 0.439893 -0.055411 -0.373609 0.118955 -0.045918 0.186647 0.126231 0.263463 0.314284 -0.509553 0.370197 0.659520 0.384672 0.359308 -0.114117 0.304031 0.248723 0.067484 -0.533974 0.154109 -0.317940 -0.201919 -0.305027 -0.044373 0.000506 -0.030344 -0.179209 -0.677134 -0.091941 0.199127 -0.219716 -0.550306 0.251300 -0.054764 0.138688 -0.062835 -0.068597 0.336993 -0.298207 0.487098 0.003779 0.270849 -0.017537 -0.385747 -0.155041 0.111704 -0.192703 0.202394 0.204890 -0.318289 -0.123141 -0.067883 0.219246 -0.226373 0.133623 -0.004245 -0.249086 -0.372889 -0.157937 -0.207815 -0.314100 -0.419379 0.287836 -0.405090 -0.262083 0.069997 -0.228431 0.298819 -0.370224 0.063712 0.340637 0.167198 0.104639 -0.343072 -0.043918 -0.177844 -0.368141 0.376871 -0.409805 0.552736 -0.335936 0.211623 0.226133 0.053111 -0.070377 0.018814 0.228522 0.044087 0.099910 -0.183487 0.098840 0.086198 0.108810 -0.083665 0.176088 0.080449 0.063982 -0.022310 0.092177 0.398322 -0.431878 0.423204 0.124735 -0.033386 -0.277916 0.342887 -0.157221 0.353538 -0.096037 -0.127898 -0.468870 0.396440 -0.617355 0.008939 -0.160039 -0.066080 0.281668 -0.127753 0.194096 0.272263 -0.428207 -0.189819 -0.172363
1493 0.117807 -0.263346 0.746676 0.060175 -0.011618 -0.255881 0.108061 0.191658 0.771184 -0.326370 -0.419918 -0.022305 0.406572 -0.172498 -0.170570 -0.486838 -0.142069 -0.697788 -0.625309 0.285298 0.193313 0.226542 0.475202 -1.451529 0.012712 0.238084 -0.625571 0.839621 0.815764 0.134983 0.190104 -0.023450 0.047688 -0.335715 -0.304504 0.019585 0.435586 0.220017 0.521206 -0.531416 -0.493200 -0.181198 0.104867 0.176438 -0.284363 0.233241 -0.099309 0.059722 -0.353197 -0.231591 -0.462592 0.481145 0.122984 -0.117690 -0.736191 -0.391099 0.291747 0.281425 -0.162842 -0.555004 -0.429662 -0.167409 0.246104 0.084978 -0.109002 -0.639530 -0.488880 0.555116 -0.319342 -0.510125 -0.323539 -0.566424 0.332881 -0.056665 -0.189278 0.171386 -0.531901 -0.798452 0.024000 -0.114529 0.630051 -0.527351 -0.197922 -0.746395 0.335700 -0.291004 -0.196297 -0.589297 -0.310332 -0.934495 -0.177922 0.249444 -0.323694 0.337990 0.923508 -0.377805 0.026122 -0.119472 -0.686821 -0.138409 -0.100637 -0.556371 -0.387691 0.561034 0.456716 -0.568342 0.444602 -0.597707 -0.400000 -0.104081 0.772474 0.341478 0.493034 -0.178926 -0.491338 -0.318413 0.346880 -0.226115 -0.770398 -0.371555 -0.928043 -0.502446 0.144654 -0.185703 0.566355 0.135505 0.016877 -0.016793
0 0.120462 -0.059545 -0.084847 0.281156 -0.038526 0.284616 0.258173 0.388368 0.399143 -0.122956 -0.194868 -0.613900 0.319512 -0.229630 -0.197760 0.096701 -0.077495 -0.663966 0.257802 -0.323242 -0.232697 0.618090 0.027626 -0.053670 0.019915 0.176893 0.105305 0.045933 0.447349 -0.604286 -0.403764 -0.693717 0.007042 -0.079632 0.081117 -0.248706 0.216063 -0.048568 -0.467457 -0.036941 -0.191548 -0.362630 -0.309931 -0.250945 0.181283 0.370174 -0.076796 -0.096364 -0.014619 0.611607 0.423919 0.517827 -0.602353 -0.370259 -0.379978 0.310700 -0.080866 -0.346616 -0.282092 0.290745 0.357567 0.125516 -0.072104 0.268792 0.333465 -0.387211 0.359419 0.538094 -0.404882 -0.121758 -0.538683 -0.040346 0.124282 -0.316638 -0.021500 0.023954 0.249394 -0.409405 -0.254292 -0.210860 -0.212146 -0.018647 -0.356491 -0.601735 0.385643 0.024142 0.221728 0.138599 -0.112295 0.463544 -0.087993 -0.652064 0.178707 0.249271 0.048239 -0.139186 0.284152 -0.073378 0.042713 -0.670290 -0.296371 0.074780 0.032693 0.059274 0.375773 -0.239419 -0.590457 0.247637 0.264528 -0.739083 0.397044 0.447105 -0.119991 -0.318580 -0.303734 -0.485509 -0.262979 0.220962 -0.478513 -0.371147 -0.167297 0.198637 -0.048233 0.098266 -0.218846 -0.266590 -0.388729 -0.046323
2281 -0.091851 0.240971 0.326266 0.058881 0.354147 -0.196620 -0.081732 0.031518 -0.073275 -0.251586 0.120952 -0.287090 -0.206601 -0.194752 0.099031 0.228489 0.128847 0.021617 0.071328 -0.199111 0.138562 0.072264 0.075659 -0.488312 -0.017209 -0.458661 -0.077123 0.431493 0.021249 -0.021909 -0.186944 -0.101018 -0.671444 0.247501 0.231955 -0.016536 -0.049971 0.012938 0.048864 0.402543 0.399187 0.305712 0.478520 -0.413711 0.071323 -0.181263 -0.022220 -0.043577 -0.728362 -0.024374 0.241946 0.095944 0.199539 -0.058023 -0.118238 -0.115242 0.136764 0.391259 0.123090 -0.029427 0.085961 -0.153373 -0.480887 0.511547 0.262751 -0.050315 -0.005895 0.438999 -0.066716 -0.217209 0.118355 0.103370 0.345098 0.212073 -0.657471 -0.161074 0.308023 -0.264590 0.191851 -0.360200 0.114120 -0.162639 -0.088761 -0.127506 0.518762 -0.278273 -0.005187 0.410778 0.174836 -0.049810 0.358896 0.110984 0.008198 0.245983 -0.034743 0.195502 -0.000668 0.457658 -0.098704 -0.299721 -0.311333 -0.418271 -0.058660 0.452390 0.201139 0.008399 0.150702 0.097025 -0.038611 -0.002253 0.082121 -0.507693 -0.049364 -0.203147 -0.154271 -0.458410 0.215341 -0.419354 -0.027272 -0.352946 -0.293087 0.297159 -0.149918 -0.021233 -0.450373 -0.597771 -0.391327 -0.593609
3039 -0.087818 0.244674 0.040267 0.074402 0.506699 -0.535627 -0.495144 -0.338069 -0.073807 -0.228410 0.469503 -0.448105 -0.444693 0.269772 0.140756 -0.162025 0.257754 0.331210 0.309168 0.597774 0.732778 0.805536 0.258469 -0.346723 0.200441 -0.468359 -0.623600 0.235070 -0.152027 0.197275 -0.053366 -0.195736 -0.720030 -0.163575 -0.348404 -0.198289 -0.201679 0.583479 0.097710 0.576640 -0.037798 -0.246891 0.179718 -0.184169 0.162759 0.118959 0.016889 0.175300 -0.087055 -0.039741 0.227703 0.031204 0.060963 0.082291 -0.675378 -0.267302 -0.038327 -0.091354 0.148824 -0.335119 -0.574621 -0.276559 -0.406212 0.263086 0.118109 -0.066098 -0.053692 -0.051246 0.510249 -0.002041 -0.276692 0.038756 -0.005192 -0.903268 -0.819128 0.152547 -0.265876 -0.239036 -0.293017 -0.407406 0.052573 -0.552323 -0.458852 0.320720 0.548479 -0.432569 -0.087880 0.117516 -0.194819 0.324450 -0.261103 0.125971 0.620523 0.293972 -0.287868 -0.319142 -0.028754 0.116236 0.430358 0.088181 0.403907 0.429665 0.024115 -0.618404 0.196273 0.343032 -0.021737 0.370211 0.136727 0.067049 -0.026277 0.638503 0.032433 0.331935 0.100534 -0.421138 0.463477 0.203515 -0.391744 -0.420303 0.135196 0.414906 0.168677 -0.375718 0.372711 -0.586908 -0.273659 -0.060012
2934 -0.471845 0.032366 -0.346566 0.078438 -0.261267 -0.001098 0.420306 -0.019479 0.343388 0.085367 -0.206376 0.792739 0.043690 0.245568 -0.188276 -0.159481 -0.443840 -0.040902 -0.539065 0.195422 -0.100213 0.273624 0.058052 0.155198 -0.758942 0.499675 0.009350 0.177417 -0.075882 -0.408966 -0.159049 0.242514 -0.520972 -0.415706 -0.118753 -0.239040 -0.226364 0.053876 -0.437357 0.096370 0.303567 0.857607 -0.354999 -0.275652 -0.272305 0.318411 0.152493 0.116555 0.093198 0.135166 0.082562 0.392029 0.051024 0.389087 -0.194010 -0.110928 -0.251888 -0.556536 0.288583 -0.210566 -0.191518 -0.509886 -0.073060 0.325137 0.019545 -0.228482 -0.111237 0.468536 -0.373883 0.002416 -0.181925 -0.202705 0.626837 -0.346970 -0.519079 -0.077642 -0.015914 -0.078653 0.103475 0.108434 -0.102580 -0.420484 0.184964 -0.278724 0.291664 -0.100895 0.311611 0.158932 -0.515667 0.519927 -0.741655 -0.365952 -0.138192 0.188748 -0.021757 0.157719 -0.383115 -0.084825 -0.437508 -0.766617 -0.343831 0.144810 -0.499424 0.298857 -0.017680 -0.220381 -0.049725 -0.325102 0.271759 -0.240236 0.021484 0.313636 0.062711 0.204507 -0.272829 -0.554619 0.106333 0.351215 -0.044552 0.251626 -0.190946 -0.351702 0.222367 -0.096923 0.159175 -0.597963 -0.211141 -0.036057
115 -0.291747 0.274529 -0.356720 0.553030 -0.217647 0.412282 0.178951 0.220141 -0.333217 -0.026729 -0.005305 -0.149754 -0.020241 -0.269993 -0.351688 -0.002898 -0.498125 0.217808 -0.388942 0.184631 0.216387 -0.341875 -0.273074 0.211801 -0.472807 0.408427 0.197412 0.027769 0.527415 -0.384297 -0.313207 0.076462 -0.302354 -0.515242 -0.456900 0.135503 -0.067768 0.659800 -0.423692 -0.002239 0.036621 0.436117 -0.198978 -0.347338 0.079762 -0.025747 0.323339 -0.156844 0.393812 0.077796 0.263444 0.568196 0.631267 -0.058308 -0.397569 0.260757 -0.657908 -0.658547 -0.143759 -0.153345 -0.673744 -0.020375 0.016905 -0.132956 0.022255 -0.818164 0.133200 0.381705 0.128865 -0.508079 -0.731441 -0.220938 -0.013120 -0.378579 0.076017 -0.171690 -0.344758 0.134951 -0.047544 0.579471 0.095972 -0.224229 0.259615 -0.209137 0.057647 -0.357658 0.146450 0.105692 -0.020279 0.050977 0.095967 0.161437 -0.265368 0.371753 0.290441 -0.372928 0.194591 -0.165630 -0.155143 -0.117700 -0.251924 -0.231729 -0.175711 0.310615 0.494890 0.015436 0.221657 0.097042 0.189607 -0.161933 -0.207351 0.036188 -0.463433 0.171742 -0.082295 -0.485807 0.125255 0.509064 -0.387818 -0.260985 -0.455616 0.210710 -0.128999 -0.950882 -0.923337 -0.130553 0.241682 -1.233801
1910 -0.040486 0.369550 0.268124 0.510773 0.164850 0.034251 0.232776 -0.064770 0.652201 -0.073679 0.309065 0.433839 0.439683 -0.475185 -0.351017 0.148219 -0.304614 -0.323199 -0.540731 0.685257 0.444048 0.143336 0.801240 -0.618872 -0.451785 0.166047 -0.022361 -0.079062 0.443747 0.063846 -0.836053 -0.003749 0.059423 -0.248986 0.115054 -0.064389 -0.114576 0.587692 -0.377748 0.322130 0.286806 0.432611 -0.171445 -0.534532 0.445781 0.071704 -0.080568 0.229639 0.016000 -0.021379 0.061906 0.136158 -0.010542 0.171010 0.010090 -0.396516 0.111179 -1.114590 -0.289299 -0.282204 0.158284 -0.619000 -0.314552 0.560083 0.226890 -0.258737 0.046148 0.522017 -0.135967 0.583308 -0.098099 -0.329040 -0.141807 0.406938 0.223793 0.055541 0.276843 -0.192946 0.040204 -0.200614 -0.035008 0.037278 -0.121965 -0.526885 0.441969 0.086201 -0.119005 -0.358523 -0.513252 0.147487 -0.395010 0.000485 -0.189812 0.214048 0.362277 0.489969 0.105710 0.226579 0.361405 -0.463878 -0.102613 0.582285 0.034406 0.170168 0.290180 0.044533 0.372499 -0.160279 0.324713 0.026777 -0.299167 0.276195 -0.153016 0.127817 -0.456984 -0.093153 -0.260750 0.343933 -0.037013 -0.042476 -0.266722 0.499242 -0.020623 -0.336971 -0.089800 -0.069304 0.316042 -0.724687
8 -0.341450 0.066983 0.050915 0.225015 -0.419957 -0.041624 0.540754 0.175141 0.492537 -0.014589 0.160792 -0.099978 0.242500 -0.151949 -0.425647 0.180556 -0.388131 -0.296489 -0.067446 0.209336 -0.107706 0.605469 0.177039 -0.246774 0.240095 0.369077 -0.174391 0.041907 0.487321 -0.235764 -0.608121 -0.373468 -0.021349 -0.141164 -0.395243 0.155748 0.413727 0.023236 0.018311 -0.007265 -0.358438 0.431549 -0.259019 -0.534586 -0.122472 0.393896 -0.101336 -0.317773 -0.265705 0.096331 -0.038097 0.221657 -0.481504 -0.457314 -0.062428 0.429256 0.140397 -0.476922 -0.910566 -0.099851 0.473374 0.173102 -0.284659 0.379103 0.275146 -0.617850 0.167798 0.370784 -0.162579 -0.177261 -0.658930 -0.370366 -0.009154 -0.154788 0.013549 -0.003635 0.038620 -0.095889 0.060743 -0.188593 -0.060204 -0.017893 0.058393 -0.287204 0.708634 -0.132121 -0.092002 0.181379 -0.393276 0.175977 -0.138878 -0.716294 0.037247 0.032703 0.352473 0.295392 0.082019 0.389554 -0.092075 -0.671731 -0.017148 0.242577 0.111012 0.196987 0.508822 -0.052627 -0.073504 -0.124043 0.534808 -0.496927 -0.291398 0.331551 -0.136160 -0.301602 -0.163981 0.002704 -0.245957 0.435788 -0.659097 -0.197170 -0.395157 0.676504 -0.028603 0.052612 0.041792 -0.387382 -0.039235 -0.254175
188 -0.015426 -0.176361 -0.036864 0.044679 0.057041 0.126392 -0.022298 0.490673 -0.253039 -0.278479 -0.194631 -0.732387 0.018466 -0.001878 -0.921159 0.057939 0.292851 -0.194563 -0.166708 0.757883 -0.431561 0.019728 -0.128439 -0.362522 -0.717518 0.167639 0.591548 0.031606 -0.263198 0.191210 0.411799 -0.161976 -0.608687 -0.061791 0.190760 0.312618 0.068788 -0.053990 -0.139237 0.252722 -0.247428 -0.160842 0.492767 0.073749 0.095351 0.328628 0.336569 0.058817 -0.149135 0.079251 -0.359072 0.478682 -0.322091 -0.153595 -0.224533 -1.116707 0.285544 -0.327069 -0.261173 -0.245343 -0.197575 -0.359592 0.040355 -0.145277 0.037015 -0.548846 0.485125 1.024043 -0.151262 0.142080 -0.392572 -0.122683 0.235663 -0.605053 -0.838292 0.184452 -0.526253 0.563359 -0.429666 -0.060971 0.903086 -0.073726 -0.297182 -0.033092 -0.005434 0.305689 -0.492162 0.326683 0.281216 -0.107144 -0.028632 0.125506 -0.688582 0.448721 0.368755 0.841164 -0.447457 -0.509033 0.006276 0.001023 0.112776 0.334150 -0.091357 -0.214636 0.268987 0.088019 0.614067 0.063669 0.019081 -0.226673 -0.193671 0.240060 -0.126216 -0.062354 0.258149 0.413263 -0.283157 0.108268 0.074823 -0.541151 -0.073254 0.119233 0.035006 0.211695 -0.032128 -0.536486 -0.210482 -0.015198
1701 -0.540728 0.347296 0.409614 0.376430 -0.094198 0.183332 0.322943 0.525662 0.026763 0.344603 -0.207293 -0.137860 0.401954 -0.267903 -0.382122 -0.033918 -0.315620 -0.501738 -0.353419 -0.009844 0.045802 0.022325 0.938093 -0.502464 0.076803 -0.239335 0.088718 0.311820 0.776792 -0.060120 -0.596133 0.080651 0.030579 -0.095702 -0.079228 0.056286 -0.270139 0.567042 0.022351 0.267680 -0.213488 0.266506 0.311231 -0.086528 0.003066 0.282476 -0.390084 -0.078735 -0.114667 0.062123 -0.718221 -0.078882 -0.065650 -0.741065 -0.108285 -0.320333 -0.425191 -0.120019 0.133124 -0.345896 -0.467795 0.110717 0.240527 0.476203 0.370429 -0.600103 -0.372964 0.507991 -0.211795 -0.061947 -0.796512 -0.087358 0.139535 -0.258955 0.320185 0.039338 -0.084239 -0.348806 0.242431 -0.082769 0.022979 0.129249 0.128529 -0.765071 0.116734 -0.080512 -0.410248 -0.354582 -0.274613 -0.423791 -0.207251 -0.362966 -0.603282 0.179863 0.293984 -0.112315 -0.205090 0.398914 -0.503950 -0.258568 0.132767 0.516203 -0.164227 0.191204 -0.179539 -0.172637 0.085242 -0.293654 0.347041 -0.059480 0.029572 0.404693 -0.079120 -0.029424 -0.768788 -0.498321 0.281391 0.601466 -0.591360 -0.275493 -0.639492 0.094610 0.152197 -0.105959 0.463697 0.150183 0.116851 -0.643110
285 0.358914 0.127824 -0.228726 0.203284 0.139633 0.005495 -0.021969 -0.122553 0.075395 -0.168003 -0.075961 -0.249386 -0.012780 0.408905 0.115317 -0.564384 0.316393 0.288121 0.364258 0.408001 -0.093329 0.249455 0.273936 -0.338760 -0.362955 -0.247188 -0.046804 0.057496 0.268809 0.069188 -0.273109 -0.284365 -0.036945 0.344059 -0.088341 -0.048436 -0.179475 -0.342056 0.243910 0.332127 -0.082429 -0.267758 -0.111201 -0.194181 0.165715 0.282330 -0.158281 0.088630 -0.189453 -0.258330 0.032063 0.294389 0.478147 0.008819 0.306672 -0.211095 -0.173398 0.072076 0.053757 -0.596024 -0.013915 -0.331443 -0.404468 0.209708 -0.091720 0.297084 0.304544 -0.033497 0.104426 -0.450143 0.363186 -0.172728 -0.211838 -0.613468 -0.554355 0.481019 0.177135 -0.401954 -0.078586 0.007041 0.064286 -0.327446 0.085466 -0.738866 0.267628 -0.370325 0.151060 0.337772 0.267098 0.267831 0.076814 -0.420689 0.018048 0.117499 -0.313781 0.013891 0.562813 0.200534 -0.094690 -0.342139 0.155401 -0.048876 -0.131100 0.087287 0.208912 -0.389361 -0.210154 0.226842 -0.053056 -0.310607 0.045140 0.093363 -0.047296 0.079102 -0.009656 -0.466685 -0.056549 -0.255178 -0.461790 0.004554 -0.275770 0.154056 0.236125 0.439763 0.086559 -0.444766 -0.071265 -0.560931
649 0.212883 0.101646 0.344908 0.610588 -0.102234 -0.125195 0.364504 0.362032 0.454162 -0.759573 0.248745 0.199166 0.278339 0.023757 -0.478222 -0.094121 -0.480655 0.085307 0.350408 0.036284 0.127309 -0.103045 0.293051 -0.815335 -0.098186 0.390110 0.133572 0.666120 0.267763 0.498489 0.094777 0.394033 -0.332477 0.298378 0.056361 -0.642849 0.171472 0.040719 -0.221784 -0.432346 -0.063535 0.392595 0.176667 0.463040 -0.546978 -0.148401 0.354570 0.146879 0.412353 0.470649 -0.789783 0.276592 -0.195229 -0.289079 -0.411011 -0.398884 0.260385 0.335638 0.594062 -0.260175 -0.377829 -0.291521 -0.671716 -0.293226 0.243610 0.000697 0.057727 0.398969 -0.886291 -1.006853 0.180744 0.118077 -0.125605 -0.188307 -0.610959 -0.468020 0.169436 -0.287949 0.378117 -0.451131 0.117526 -0.074073 -0.018878 -0.538903 0.462276 -0.728853 0.024275 -0.104794 0.485293 -0.127077 -0.518279 0.432553 -0.590743 0.039890 0.257157 -0.782849 0.432699 0.000268 -0.054525 -0.286728 -0.311529 -0.326216 0.163628 -0.126589 0.414644 -0.593898 -0.406816 0.074258 0.144315 -0.058166 -0.180450 0.575655 -0.024842 -0.406893 0.232752 -0.210982 0.230801 0.182035 0.055409 0.080061 -0.296663 0.050529 0.335108 0.246779 0.158017 -0.134890 -0.155213 -0.556603
3128 -0.378545 -0.027298 -0.731073 -0.091264 -0.271962 -0.102159 -0.252878 0.168699 0.475963 0.588387 0.403640 -0.514219 -0.017824 -0.181439 -0.837822 -0.460102 -0.446305 0.351338 -0.562815 0.454767 0.038642 -0.281468 0.065698 -0.084603 -0.185112 0.699771 0.128039 0.103872 0.329684 -0.515868 0.094769 0.105700 -0.072324 -0.574191 0.120788 -0.186502 -0.241652 0.548027 -0.208313 -0.057016 -0.432912 0.006329 0.235632 -0.356157 -0.448005 0.009745 0.208533 -0.154058 0.758126 0.184387 -0.169732 0.427864 0.221339 0.116309 -0.129673 0.008051 0.583740 -0.509373 0.358959 -0.166054 -0.400692 0.126233 -0.255895 0.603828 0.094580 0.474706 0.137564 0.035471 -0.380742 0.189497 -0.185066 0.431165 0.495959 -0.172255 -0.352323 0.412814 -0.412911 0.326015 -0.470400 -0.025856 -0.086642 -0.294959 0.384027 -0.486915 -0.141544 -0.019980 -0.593606 0.300438 -0.180681 -0.071628 -0.160512 0.047673 0.078787 0.405533 -0.133303 -0.067396 -0.021508 0.691946 0.215296 -0.096371 0.077281 0.288763 -0.148797 0.525184 0.415582 -0.292633 0.239397 -0.157659 0.005495 -0.007395 -0.319075 0.592452 0.753832 -0.327640 -0.087385 -0.400553 -0.190568 -0.105471 0.123841 -0.089322 -0.629800 0.146243 0.770829 0.328391 -0.561652 -0.870852 -0.055023 -0.273097
124 -0.070850 1.156876 -0.725085 0.891338 0.363852 0.371372 1.099547 0.342345 0.474721 0.251211 0.577034 -0.499750 0.362964 0.050250 -0.842063 -1.229929 1.242587 0.834378 0.283159 -0.303310 0.688979 -0.458862 1.024250 -0.854724 0.180160 0.781043 0.336644 0.629594 0.325025 0.229560 0.057873 -0.307281 -1.487513 -0.533508 -0.624435 0.352336 0.365852 0.426740 -0.388205 -0.750570 0.220746 0.569848 0.034268 0.266264 -0.802059 -0.063581 0.201903 0.707009 -1.255183 -0.342647 0.311648 -0.253921 -0.242011 0.152357 -0.232422 -0.141228 0.192155 -0.410601 0.337629 -0.770889 -0.423862 0.389714 0.312867 -0.957819 0.330441 -0.406242 0.222620 0.319740 0.268542 -0.638017 0.598074 -0.349382 0.495246 0.107954 0.626036 -0.367121 -0.854389 -0.269611 -0.858584 0.478198 0.252266 -0.673346 -0.223853 0.213661 -0.012432 -0.157668 -0.014423 0.333612 -0.230808 1.242371 0.086112 -0.452498 0.145695 1.329854 0.765479 0.128955 -0.484980 0.769581 -0.478752 0.256197 -0.328010 0.091388 -0.421901 -0.918155 0.178291 -0.507118 0.695387 0.781979 0.530378 -0.082794 -0.214413 0.909629 -0.848961 0.471763 -0.469055 -0.922360 -0.683529 -0.579182 -0.605000 -0.521331 -0.809495 -0.569757 -0.194404 0.343151 0.286317 0.035380 0.632988 0.708117
3045 0.495414 0.349231 -0.533816 -0.228218 -0.049955 -0.037507 0.566095 -0.197747 -0.028117 -0.682246 -0.022840 -0.394760 0.267694 0.266815 -0.708870 -0.132916 -0.132659 0.064958 -0.510852 0.023241 -0.798838 0.292731 0.252196 -0.487741 -1.005056 -0.233884 0.408031 0.028122 -0.021403 -0.194564 0.420969 -0.552011 -0.722526 -0.103457 0.662244 -0.073628 0.269449 -0.068434 0.143615 0.479866 -0.039388 0.050613 0.696531 0.012238 -0.178185 0.603050 0.157372 -0.131985 0.143375 0.125995 -0.143396 0.215752 0.092141 -0.267445 -0.422978 -0.895123 0.028306 -0.260817 -0.000949 -0.306354 -0.447717 -0.564295 -0.443145 -0.106806 -0.169656 -0.525552 0.603305 0.789645 -0.446426 -0.195034 -0.197615 0.349935 0.023536 0.060897 -0.409438 -0.116799 -0.327170 0.361908 -0.621015 0.196017 0.860548 0.617382 -0.357277 0.085927 0.506450 0.285795 -0.628143 0.115828 0.055322 -0.105644 0.104688 -0.060520 -0.363978 -0.120810 0.763596 0.492308 -0.597075 -0.279520 0.443128 -0.195942 -0.055339 0.607949 -0.478944 -0.290347 0.053667 -0.000554 0.623077 0.006652 0.472243 -0.261986 -0.440833 -0.018492 0.095056 0.326329 -0.479362 0.501575 -0.537143 0.200642 0.038814 -0.414192 -0.264537 -0.225433 0.212053 -0.119657 -0.424027 -0.140361 -0.211918 -0.054753
451 -0.219302 0.721599 -0.078970 0.304837 -0.260825 0.041167 0.122805 0.510247 0.252447 0.429722 0.029382 0.108693 0.052886 0.105051 -0.400277 0.457650 -0.410155 -0.422737 -0.671384 0.232419 -0.068305 0.367667 0.421812 -0.291089 0.239466 0.645218 0.386139 -0.188213 0.744318 0.042106 -0.395297 -0.087783 -0.271481 -0.321994 0.092098 -0.169341 -0.194671 0.951351 -0.073353 0.094876 -0.298668 0.980372 0.476804 -0.527559 0.107213 0.604454 -0.182278 -0.285492 0.079670 0.069815 -0.417900 0.300431 -0.067438 0.086661 -0.387449 -0.097490 -0.131772 -0.534045 0.098191 -0.296037 -0.327831 -0.408302 -0.055021 0.158931 0.447244 -0.397895 -0.182316 -0.054046 -0.118492 0.200802 -0.198806 -0.521149 0.206396 -0.086757 -0.103288 0.199921 -0.100445 -0.179052 0.837465 0.230950 0.167530 0.210285 0.059575 -0.276378 0.210609 0.481446 -0.022246 0.275039 -0.337782 0.247705 0.121142 -0.523582 -0.799192 0.489596 0.611098 0.023482 0.342579 -0.032396 -0.145996 -0.218029 0.053407 0.075002 -0.313427 -0.164071 0.066406 -0.199905 -0.162325 -0.030763 -0.107203 -0.130639 -0.123095 0.307175 0.138898 0.477625 -0.576032 -0.225433 0.247676 -0.012785 0.182943 0.426062 0.002621 0.231925 0.465132 -0.096185 0.168932 -0.041710 -0.424567 -0.927056
2675 -0.905175 1.074862 0.497400 -0.164907 -0.164150 0.463874 0.545805 -0.584438 0.575897 0.292739 0.982742 0.033719 0.424175 -0.699126 -1.138391 -0.044036 -0.023022 0.367197 0.107637 0.161815 1.383876 1.019863 1.055861 -0.616635 -0.228166 0.702960 -0.110107 0.664750 0.077836 0.981064 0.585515 -0.165623 -0.651699 0.466906 0.188264 -0.128390 0.806499 -0.350780 0.845042 0.081626 0.424510 0.868657 0.623260 -0.595451 0.250812 0.689248 -0.223413 -0.196719 -0.510057 0.509266 0.437152 -0.167993 0.028702 0.545482 0.150636 -0.824167 -0.567562 0.384934 0.911887 -0.726432 -0.352681 0.120143 -0.584464 -0.692664 -0.139543 1.077161 -0.096223 -0.042151 -0.052159 -0.387677 -0.188509 0.691673 0.396784 -0.029677 -0.219170 -0.799403 -0.303162 -0.549615 0.143486 0.156986 0.310490 -0.031744 0.102400 0.797158 -0.021371 -0.406786 0.117182 0.822157 -0.374716 0.889449 -0.754936 0.125464 -0.897544 0.408042 1.417868 -0.580935 -0.375583 1.158484 -0.274011 -1.170461 0.087622 0.070137 -0.206285 -0.682934 0.231147 -1.153344 0.375988 0.363631 -0.171563 -1.130422 1.275069 0.418068 -0.111548 -0.550672 -0.232470 -0.759998 -1.106474 -0.146907 -0.267997 0.009708 0.303269 -0.269987 1.224563 0.185102 0.471279 -0.345937 -0.881937 0.174793
1782 0.352864 0.487593 -0.206593 0.496942 0.582433 -0.381946 -0.329867 -0.729379 0.277525 0.378466 -0.255281 0.247241 -0.246727 -0.073237 0.063826 -0.235767 0.508018 -0.014068 0.115301 0.440532 -0.242170 -0.003853 -0.300569 -0.917454 0.452952 -0.827224 -0.142496 0.439930 0.022898 0.093253 -0.318361 -0.495139 -0.852560 0.151121 -0.076530 -0.235652 -0.428970 -0.078569 -0.437709 -0.338171 0.445236 0.248059 0.521911 -0.333047 0.013294 -0.451063 0.657955 0.708864 0.362282 0.433815 0.026037 0.139598 -0.094258 -0.415772 -0.232321 0.335534 -0.548061 -0.149012 -0.432752 0.068400 -0.252148 -0.038650 -0.341408 -0.359497 0.287812 -0.299340 -0.327868 0.597591 -0.627161 0.023559 -0.760465 0.045318 0.323670 -0.391887 0.403001 -0.185313 0.285749 -0.409291 -0.137756 0.117948 0.068983 -0.092840 0.107180 0.303926 0.666990 0.044363 0.032857 0.237878 0.305568 -0.230415 -0.254618 -0.212569 -0.268580 0.415286 0.177155 0.339325 0.226594 1.080752 -0.257795 -0.159366 -0.069159 -0.040692 -0.515647 -0.705341 -0.211348 -0.395863 -0.003439 -0.115152 0.565284 0.482305 0.605733 0.361943 0.182210 -0.189220 0.175514 -0.068744 -0.038746 0.261598 0.100206 -0.038029 0.310044 0.608844 0.743571 0.388565 -0.175800 -0.439046 0.070051 0.062992
603 -0.568431 0.328907 -0.089509 -0.505875 -0.911923 1.212007 -0.106093 -0.278245 0.641931 0.097881 0.331176 -0.598655 0.027630 -0.339797 0.075131 0.116174 -0.081207 -0.502543 0.222957 0.404227 0.413042 -0.214601 0.261623 -0.058572 -0.388621 0.691977 0.209816 0.188166 0.766312 0.121194 -0.704697 0.158892 -0.899984 0.291277 -0.098295 -0.222764 0.992850 -0.177490 0.185702 -0.297705 0.411315 0.287791 -0.333604 0.523505 0.423340 -0.256635 -0.431853 0.338226 -0.083094 0.607704 -0.229336 0.306633 0.127016 -0.095566 0.344381 0.410110 -0.142092 0.055769 0.481955 -0.120898 -0.230640 -0.241561 -0.320459 -0.887373 0.071140 -0.739724 0.762628 0.695197 0.088849 -0.178069 -0.378116 -0.265587 0.348454 0.048439 -0.355481 0.123055 -0.127106 0.120828 -0.526109 -0.534428 -0.050468 0.420434 -0.491733 0.009373 0.146324 -0.040841 -0.468889 0.350648 -0.066986 0.162681 0.098966 -0.204868 -0.342640 0.067008 0.743493 0.299208 0.260197 1.015546 0.965019 -0.551590 0.175669 -0.259102 -0.546258 -1.021500 0.508961 0.180754 0.109143 -0.103141 0.257684 -0.460403 0.974490 0.706045 -0.130696 0.162491 -1.097818 -1.438327 0.083848 -1.001981 -0.967762 0.049526 0.277791 0.690858 -0.333867 -0.646482 0.098666 -0.633414 -0.212555 -0.013127
579 0.581152 -0.084448 -0.061984 -0.017389 -0.079359 -0.136999 -0.706126 -0.179712 0.030016 -0.269624 -0.014999 -0.032685 -0.141096 0.208083 -0.340401 0.505199 0.435119 0.374055 0.065464 -0.028177 0.170902 0.231102 0.082170 -0.535786 0.251297 -0.183400 0.054961 0.202570 -0.151011 0.180518 -0.124109 -0.154862 -0.618083 0.444024 0.182466 0.002406 -0.474169 0.037536 -0.127633 0.291756 0.003779 -0.102675 -0.109675 -0.280387 -0.006446 -0.297993 0.403430 -0.085276 -0.472700 -0.384978 -0.133658 -0.218372 0.205369 0.192931 -0.053769 -0.055617 -0.025003 0.130253 -0.188660 -0.104432 -0.172899 -0.435787 -0.063472 0.107345 -0.205699 -0.099052 -0.155259 0.211126 0.381272 -0.424391 -0.417349 0.028745 0.000489 -0.131637 -0.234138 -0.024795 -0.271844 -0.239860 -0.189994 -0.052092 -0.596707 -0.176353 -0.040636 -0.582597 0.180847 -0.160295 0.295515 0.113939 0.488953 0.019592 -0.250631 -0.324127 -0.056332 0.193328 -0.147658 0.248153 0.044709 0.252101 0.188791 0.055127 -0.095099 0.365609 -0.173953 -0.048687 0.629578 -0.426119 0.068489 0.072600 -0.290168 -0.337252 0.196996 0.393538 0.224020 0.440290 -0.283189 -0.301334 0.267520 -0.372530 -0.140897 0.107522 -0.383050 0.043612 -0.204216 0.370846 -0.118278 -0.124129 -0.427151 -0.119271
2264 -0.203524 0.944815 0.570527 0.644709 -0.063318 0.007575 -0.375701 -0.237428 -0.154020 -0.258324 0.472324 -0.507243 -0.068303 -0.052722 0.336652 -0.296444 0.136400 0.020231 0.525333 0.323967 0.490182 0.128598 0.507482 -0.008522 -0.948050 0.192823 -0.221768 0.784915 0.542784 0.597885 0.179452 1.019000 -1.598695 -1.009976 0.178734 -0.195120 0.191140 0.146526 -0.199623 -0.488231 -1.076216 0.506887 -0.418542 1.023111 -0.553470 0.044465 0.102565 0.694126 0.357615 -0.057185 -0.324391 0.656243 -0.845729 0.430573 -0.082729 0.075893 0.166931 0.465623 0.731831 0.649939 -1.240728 0.014674 -0.327248 -0.443690 0.674443 -0.561856 -0.205459 0.275476 0.056136 -0.201951 -0.342570 0.381298 -0.006740 0.255298 -0.023175 -0.621771 0.300220 0.103637 0.416861 0.239960 0.042599 -0.354464 0.152733 -0.053384 0.133364 -0.747867 0.212693 0.403519 -0.652133 -0.811459 0.170857 -0.243116 -0.339926 0.680677 0.163510 0.692724 -0.595555 1.705960 0.820133 -1.040853 0.704594 -0.649930 -0.504849 -0.643453 0.564027 0.006194 1.140096 0.594861 0.205085 -0.907343 0.339657 -0.298610 -0.738055 -0.216580 -1.175343 -0.316884 0.162187 -0.806337 -0.441882 -1.027566 0.139134 -0.709346 0.056621 0.572172 0.085428 -1.037149 -0.280809 -1.309755
1204 -0.112831 0.834716 -0.290934 0.356636 0.116803 -0.124298 -0.999257 -0.454376 0.053821 -0.215751 0.130396 -0.306026 0.215344 -0.217797 0.272916 -0.332270 0.765486 -0.195376 0.496558 0.431057 0.155631 0.472108 -0.458100 -0.427181 -0.255325 -0.463978 -0.748881 0.168486 0.380240 0.076034 -0.003665 -0.550715 -0.361607 0.281357 -0.211884 -0.134726 0.094437 0.154150 -0.463273 0.172737 0.196605 0.008427 0.405902 -0.390555 -0.040803 0.457301 0.681152 1.065505 -0.163947 -0.093683 0.443725 -0.074059 -0.021514 -0.078840 -0.437829 -0.072489 -0.249611 0.027142 -0.338248 0.125246 -0.756146 0.015266 -0.364285 -0.137347 -0.150508 0.425706 0.043101 -0.055713 -0.293241 -0.539404 -0.103887 0.451325 0.083720 -0.154713 -0.345993 -0.239281 -0.090062 -0.239356 0.088407 -0.311154 0.241691 -0.060504 -0.389311 -0.385742 0.188315 -0.320461 -0.652412 0.273941 -0.092398 -0.138626 -0.870389 -0.207972 0.049805 0.493623 0.276251 0.464983 0.379672 0.472005 0.312097 0.254087 0.319339 -0.022924 -0.160060 -0.330103 0.014316 -0.314997 0.249904 0.083523 0.395578 0.114088 0.207692 0.215808 0.128669 -0.060665 -0.203280 -0.325447 0.596314 0.653760 -0.207922 0.550307 -0.350251 0.544797 0.047406 -0.044465 0.476666 -0.001356 -0.380004 -0.217526
2973 -0.313300 0.347348 0.131732 0.461785 -0.074790 -0.687683 0.579304 -0.090426 0.484623 -0.094057 0.398648 -0.142502 0.209835 0.349010 -0.268773 0.923394 -0.059723 -0.567963 0.066638 0.284970 -0.010763 0.775735 0.279444 -0.416206 -0.555156 0.724737 0.446583 0.556497 0.112171 -0.326732 -0.239707 0.066845 -0.169010 0.149054 0.260415 -0.505965 1.083475 -0.401336 -0.195228 0.493562 0.000506 0.649319 0.632522 -0.610536 -0.493087 -0.555959 0.530398 0.694473 0.114601 -0.364739 -0.070533 0.844665 0.288727 0.327211 0.048060 -0.081724 -0.191258 -0.588579 -0.147479 -0.199353 -0.515614 -0.175971 0.143925 -0.340493 -0.608245 -0.835097 -0.255988 0.096790 0.343653 -0.175276 0.030002 1.380235 0.611288 -0.337702 0.068265 0.497184 -0.176306 0.664249 -0.805173 0.224616 -0.304367 -0.019160 -0.329437 -0.504676 -0.294105 -0.027103 -0.257866 0.291079 -0.906210 -0.398572 0.043946 0.348445 0.183650 -0.087239 -0.295665 0.284861 0.423465 0.708693 -0.648392 -0.626532 0.283196 0.076582 -0.238011 -0.077441 -0.000685 0.144744 0.295045 0.396042 -0.119215 0.376926 -0.035050 0.245303 0.016738 -0.266646 -0.003381 -0.331428 -0.003528 -0.073536 0.000905 -0.227499 0.474632 -0.184168 0.047456 0.073753 0.043522 -0.420952 -0.191954 -0.682848
961 -0.100230 0.166075 0.242838 0.079833 0.126052 -0.130101 -0.228961 0.059157 -0.148972 -0.277666 0.031548 -0.245395 -0.252972 -0.228067 -0.160413 0.267305 0.159945 0.065797 0.161343 -0.134144 0.134428 0.143337 0.145999 -0.503961 -0.098875 -0.622369 -0.013771 0.302507 -0.020896 0.026606 -0.304927 -0.269967 -0.651796 0.214184 0.074236 -0.076246 -0.040198 0.056209 0.096899 0.205226 0.300152 0.447056 0.602631 -0.390509 0.058730 -0.251662 -0.126344 -0.044616 -0.661557 0.029793 0.291656 0.186456 0.072754 -0.262062 -0.037053 -0.171738 0.236103 0.501065 -0.069996 -0.148411 0.027543 -0.152087 -0.409729 0.495977 0.146764 -0.074717 -0.029689 0.462619 -0.154095 -0.166030 0.184545 0.125283 0.213944 0.096839 -0.602700 -0.135770 0.248738 -0.169330 0.154832 -0.389377 0.063639 -0.151533 -0.144462 -0.140937 0.517837 -0.342574 0.022682 0.392628 0.184024 -0.048846 0.293638 0.077916 0.087946 0.286029 -0.104462 0.128430 0.003254 0.436646 -0.065498 -0.214027 -0.180857 -0.529261 -0.010374 0.353160 0.153546 0.012608 0.109527 0.085579 -0.154532 -0.071583 0.186915 -0.438509 -0.079988 -0.080184 -0.149516 -0.416560 0.220209 -0.441318 -0.096935 -0.359330 -0.186824 0.366687 -0.068415 0.119699 -0.396790 -0.655775 -0.199626 -0.538199
346 -0.022697 0.311984 0.166247 0.000781 0.056312 -0.126700 -0.309629 0.048298 -0.187203 -0.057624 0.163569 -0.290383 -0.214659 -0.112238 -0.108096 0.393453 0.236724 0.096550 0.168165 -0.153347 -0.012301 0.088485 0.044714 -0.344172 -0.157130 -0.436346 0.026740 0.240345 -0.015239 0.202149 -0.243662 -0.239486 -0.614151 0.311596 -0.086716 0.006586 -0.015942 0.212036 -0.048300 0.395893 0.220540 0.542745 0.443712 -0.444227 0.161134 -0.120384 -0.024870 -0.054284 -0.464141 -0.143603 0.267685 0.051179 0.150554 -0.181783 -0.093331 -0.171140 0.226174 0.448580 -0.140987 -0.173551 0.015590 0.005956 -0.505025 0.485830 0.101814 -0.033887 0.017555 0.634823 -0.188389 -0.225440 0.096234 0.145746 0.244865 0.165429 -0.523078 -0.038977 0.150854 -0.413990 0.020821 -0.247219 0.121404 -0.202849 -0.168607 -0.121913 0.513188 -0.120031 -0.085526 0.363795 0.309621 -0.029762 0.231097 0.261178 0.137601 0.335840 -0.119878 0.188626 0.190164 0.338806 -0.093876 -0.299664 -0.328215 -0.488290 -0.080954 0.276486 0.281589 -0.049289 0.053340 0.060016 -0.283809 0.125728 0.187359 -0.397979 -0.080812 -0.101520 -0.139073 -0.253672 0.096844 -0.535969 -0.121752 -0.536659 -0.281461 0.273701 -0.024025 0.289248 -0.406054 -0.585522 -0.237534 -0.392674
947 0.192046 0.200524 0.196935 -0.155463 0.227704 -0.234666 -0.157946 -0.115939 0.427760 0.009944 -0.077339 -0.047819 -0.107808 0.085179 -0.084438 -0.062934 0.128527 0.525291 0.197110 0.551860 0.130875 0.001894 0.095903 -0.089376 0.130865 0.086480 0.191057 0.377136 -0.228354 -0.119249 0.032228 -0.741943 -0.346016 0.597471 -0.279908 -0.291687 -0.164040 0.233587 -0.296920 0.133287 0.244484 -0.155729 0.228845 -0.489094 0.121404 0.106241 -0.158983 -0.063279 -0.563328 -0.050312 0.254623 0.032082 0.410338 -0.049861 -0.591663 0.112712 -0.164651 0.132364 0.046709 -0.173688 -0.158393 -0.385463 -0.105788 0.059038 -0.212987 0.338583 -0.232725 0.104732 -0.074397 -0.486357 0.087564 -0.172044 0.014262 -0.306265 -0.007926 0.325899 0.170246 -0.149853 -0.354808 -0.341377 -0.287053 0.085854 -0.449953 -0.532621 0.404218 0.022331 -0.090594 0.201499 0.125421 -0.024193 0.109427 0.111294 -0.176284 0.018021 0.239647 0.311320 0.115381 0.160564 0.061546 0.050110 0.004048 -0.140782 -0.044521 -0.441092 0.423601 0.165762 0.437841 0.172331 -0.054717 -0.224534 -0.006715 0.437505 0.219438 0.456309 -0.281354 0.042945 0.574511 -0.082325 -0.345374 0.020951 -0.397740 0.220646 0.166974 0.248513 -0.126671 0.035800 -0.141031 -0.378458
963 -0.201667 0.154485 0.306616 0.057490 0.239467 -0.158227 -0.051546 0.136098 -0.074289 -0.238786 0.127950 -0.181852 -0.397213 -0.207534 -0.051540 0.192621 0.158770 0.050436 0.099960 -0.143960 0.113239 0.045127 0.178674 -0.375504 -0.224173 -0.549126 -0.025756 0.306627 0.026172 -0.006664 -0.292606 -0.151026 -0.673535 0.234393 0.026586 -0.143502 -0.082092 0.109715 0.176523 0.158583 0.318367 0.285716 0.554783 -0.408721 0.154553 -0.287018 -0.099594 0.032471 -0.614151 -0.056909 0.169930 0.148583 0.169085 -0.256844 -0.025978 -0.189937 0.105144 0.468073 -0.047938 -0.058870 0.034470 -0.091646 -0.447542 0.578542 0.216574 0.003266 -0.003835 0.532255 -0.054589 -0.165225 0.125425 0.339951 0.230088 0.211009 -0.777771 -0.148629 0.295371 -0.292466 0.064817 -0.492058 0.036998 -0.097446 -0.260091 -0.132533 0.537690 -0.325961 0.043291 0.466264 0.242161 -0.070907 0.286081 0.048615 -0.019076 0.300771 -0.064797 0.257072 -0.052223 0.513058 -0.077905 -0.159738 -0.396401 -0.453281 0.122956 0.348118 0.129508 -0.092608 0.078666 0.078589 -0.190179 -0.068532 0.173669 -0.447236 -0.064335 -0.066758 -0.239618 -0.417168 0.237853 -0.556502 -0.038644 -0.352878 -0.202432 0.321480 -0.221684 0.042231 -0.318448 -0.738749 -0.318445 -0.625583
682 0.225892 0.336199 0.211325 0.018537 -0.182289 0.047487 0.209263 0.036871 0.259419 -0.101971 -0.055318 -0.435707 -0.000707 -0.000359 0.170647 -0.239406 0.306894 0.076201 0.617289 0.124027 -0.114329 0.108369 0.264066 -0.151638 -0.155573 -0.327184 -0.301395 0.281555 0.385962 -0.133368 -0.629714 -0.005835 0.037685 0.276008 -0.263584 0.123823 -0.100486 -0.133484 -0.255948 0.747496 -0.071952 -0.420511 0.098278 -0.623469 0.066402 -0.187866 -0.281356 -0.114368 -0.167255 -0.054058 0.074177 0.247912 0.273248 -0.054996 0.096175 -0.388052 -0.120406 0.001040 -0.211484 -0.484131 -0.191966 -0.491081 -0.828103 -0.151315 -0.085824 0.238637 0.219700 -0.128587 -0.244859 -0.326004 0.059896 0.012658 -0.206231 -0.587702 -0.220730 0.514557 -0.078252 0.071110 -0.297226 0.196916 0.139938 -0.059907 -0.127520 -0.557151 0.107192 -0.256806 0.310138 0.034305 0.540954 0.073721 -0.055096 -0.213003 0.166248 0.202121 -0.102500 0.179617 0.268119 -0.211567 -0.105420 -0.351611 0.137250 -0.101801 -0.134839 0.495146 -0.089308 -0.697915 0.019656 0.301908 -0.371553 -0.401192 0.234761 0.229188 0.016712 0.522663 0.078549 -0.479273 -0.087961 -0.209212 -0.042992 0.059115 -0.212867 0.216433 -0.066143 0.542533 -0.049428 -0.785508 -0.086507 -0.494948
1723 -0.157353 0.405789 -0.194953 0.484921 -0.134533 -0.200134 -0.418074 -0.332747 -0.153043 -0.392439 0.281989 -0.130319 -0.593841 -0.090531 0.000183 0.094389 0.531779 0.091200 0.175259 0.100024 0.462273 0.154987 -0.008487 -0.875660 0.234571 -0.143993 0.400144 0.296058 0.212254 -0.149569 0.367738 -0.424139 -0.006609 -0.181282 0.501808 0.352792 0.357680 0.556248 -0.485237 -0.127083 -0.046827 -0.182562 -0.358730 -0.360360 -0.688220 0.229834 0.105220 0.632421 -0.583588 0.204757 0.116954 -0.256907 0.159111 0.052509 -0.555916 -0.042397 -0.147756 0.215559 -0.708597 0.093472 -0.098743 -0.012966 -0.689609 -0.143754 0.281875 -0.428851 0.606975 0.076549 0.187542 -0.260599 0.065304 0.384239 0.209552 -0.676416 -0.084445 0.321029 -0.118718 -0.057594 -0.002970 -0.535462 0.287799 0.072768 -0.247178 -0.924005 0.031545 -0.081378 -0.215484 0.614387 -0.427567 0.187259 -0.879013 0.123886 0.348421 0.091120 0.312127 -0.158154 0.013752 0.115421 0.133796 0.238320 0.663714 -0.201533 0.273243 -0.388044 -0.253932 0.322366 0.536298 0.107369 0.225416 -0.055057 -0.096106 0.098139 -0.191546 -0.432614 -0.262886 -0.025067 0.237621 -0.068080 -0.088958 0.856223 -0.491026 0.082882 -0.147458 -0.137827 0.331824 -0.152772 -0.463933 -0.170199
2769 -0.897326 0.748844 0.327834 0.060933 0.421534 0.452994 0.616605 -0.734351 -0.045158 -0.883627 0.700306 0.180043 -0.293297 -0.783566 -1.199622 -0.241581 0.338595 -0.172565 -0.196601 0.896456 -0.255858 0.361358 0.270657 -0.799577 0.195534 0.771099 0.078597 -0.658122 -0.239359 0.387268 0.339917 -1.015016 -0.519173 0.130583 0.250601 -0.013819 0.832542 0.619338 0.408838 0.112172 -0.752803 -0.342769 -0.431028 -0.889627 0.209517 0.652171 1.192719 0.521354 -0.768621 0.204372 0.502758 -0.393859 -0.262908 0.391234 0.026699 -0.761705 -0.690285 -0.274115 -0.412329 -0.063045 -0.271432 0.437105 -0.614244 0.383337 -0.476688 -0.619292 0.470238 0.216630 0.699081 -0.322231 -0.753208 0.373189 0.152184 -0.655679 0.172516 -0.551391 -0.373794 -0.005518 0.407842 -0.564322 -0.322285 -0.156837 -0.921041 -0.926432 0.516118 0.006682 0.319060 0.091685 0.457647 -0.062207 0.483585 -0.091837 0.309542 0.290394 0.651508 -0.909711 -0.858727 0.103963 -0.101655 -0.225196 -0.674937 -0.116043 -0.192712 0.701581 0.258466 -0.746441 -0.790778 0.199752 0.293597 0.391695 0.170919 0.269805 0.431434 0.085833 0.031015 -0.944280 -0.268189 0.112677 -0.328863 -0.083758 -0.018335 -0.092003 0.641525 0.076683 -0.100046 -1.334854 0.344144 -0.202563
181 0.383251 0.070327 -0.174698 0.186277 0.337458 0.225454 -0.095121 0.616192 0.095906 0.203591 -0.422749 -0.582897 -0.194003 -0.146444 -1.009101 0.252698 -0.466644 0.042685 -0.289958 0.784676 -0.709440 -0.297082 -0.027076 -0.526022 -0.471393 0.425358 0.233966 -0.208678 -0.112601 -0.113359 0.156156 0.229257 -0.541577 0.361715 0.044304 0.342347 -0.083391 0.033748 -0.203896 0.634037 0.035918 -0.388077 0.301178 0.153377 -0.339009 0.353310 0.051129 0.411550 -0.383531 0.107580 -0.504961 0.588718 -0.035901 -0.279891 -0.478052 -1.183198 0.279387 -0.088870 -0.265008 -0.003910 -0.198429 -0.461682 -0.031785 -0.314636 0.007608 -0.699463 0.388598 0.937153 0.155500 0.148916 -0.383511 0.140147 0.340973 -0.936920 -1.035849 0.044762 -0.128546 0.090788 0.030525 -0.192750 0.617027 0.024145 0.087648 -0.256656 0.037837 0.066872 -0.389021 0.098809 0.077668 -0.001172 0.095844 0.076374 -0.356478 0.247932 0.173159 0.904974 -0.569230 -0.813280 -0.028319 -0.069291 0.055642 0.752751 0.202249 -0.475830 -0.001631 -0.026474 0.165249 0.245791 0.196663 -0.113819 0.002893 0.232780 -0.146023 -0.397039 0.397474 0.405195 -0.480261 -0.441171 -0.455379 -0.423184 -0.338199 0.203347 0.133181 0.200639 0.440045 -0.461557 0.352847 -0.021446
957 0.005704 0.225182 0.237770 -0.407487 0.028409 0.042845 -0.365005 0.142826 -0.361054 -0.038942 0.120322 -0.219005 -0.138838 -0.145951 0.003044 0.338796 0.145687 -0.044307 0.062400 0.161703 0.202954 0.068126 0.455635 -0.417136 -0.223547 -0.737853 0.008499 0.312119 -0.179783 -0.023962 -0.255448 -0.284588 -0.684465 0.461942 -0.184288 0.112035 0.222586 0.234510 -0.304841 0.411902 0.247508 0.646627 0.401388 -0.564287 0.127690 -0.114908 -0.157684 0.051100 -0.363726 0.059967 0.181287 0.113014 0.254236 -0.457514 -0.094471 -0.023124 0.257047 0.387664 0.122945 -0.073787 0.231442 -0.122888 -0.191945 0.375204 -0.147521 -0.159116 -0.030609 0.623490 -0.374613 -0.368801 0.316135 0.121144 0.333677 0.204324 -0.571164 0.105107 0.328603 -0.210037 0.173521 -0.411229 0.289850 -0.395602 -0.066098 -0.229852 0.632406 -0.397508 -0.016676 0.402189 0.195279 0.005714 0.363566 0.317647 0.124887 0.289762 -0.126049 0.288679 0.085065 0.363470 -0.035660 -0.387034 -0.264835 -0.543199 -0.112051 0.354020 0.082403 -0.219004 -0.020968 0.250663 -0.016527 0.255617 0.312393 -0.523284 -0.049190 -0.281864 -0.226607 -0.264792 0.063220 -0.359514 -0.173495 -0.487969 -0.097814 0.361917 0.341161 0.364336 -0.455288 -0.576255 -0.123712 -0.494201
1610 -0.660904 -0.001626 -0.817578 0.287785 -0.271154 0.129733 0.505791 0.379126 0.325253 0.204543 0.475085 -0.634273 0.118167 0.244810 -0.797231 0.099334 -0.378621 0.186074 -0.451396 0.985837 0.133161 0.002945 0.079934 -0.291895 -0.111301 0.455727 -0.036221 -0.330047 0.009634 -0.132500 -0.737619 0.159013 0.192939 0.041282 -0.080227 -0.054919 -0.116862 0.594793 -0.292625 -0.105696 0.373793 0.053606 -0.327270 -0.033051 0.173865 -0.250101 0.349802 0.592180 -0.211025 0.567748 0.111836 0.214301 0.313130 0.007836 -0.639521 -0.608622 -0.284539 -1.312435 -0.274604 -0.839856 -0.421409 0.082657 0.672022 -0.024265 0.253907 -0.793520 -0.229076 -0.144105 -0.174254 -0.468963 -0.317885 -0.180256 -0.695246 -0.417858 0.167169 -0.727164 -0.260645 -0.455643 -0.104194 -0.590994 0.903577 -0.336281 0.381558 0.282649 -0.545459 -0.640391 -0.162289 0.270417 0.394359 0.425601 0.395752 0.139512 -0.522546 0.450127 0.009687 -0.118875 -0.097933 -0.325917 -0.574820 -0.086983 0.247741 -0.184049 -0.379478 0.098619 0.453173 0.091600 0.262726 -0.094434 0.129728 0.486552 -0.721642 0.369958 -0.031929 -0.029556 -0.345858 -0.733431 0.491645 -0.197054 -0.536773 -0.067133 -0.396326 -0.025469 -0.589427 -0.200877 -0.284595 -0.131259 -0.240894 -1.342160
901 -0.312095 0.297003 -0.291928 -0.064008 0.088076 0.533819 -0.078211 0.436321 0.292104 -0.987368 -0.377294 0.128738 0.104396 0.607022 -0.505752 -0.228702 -0.496827 -0.694018 0.326467 0.549240 -0.153733 0.267845 0.567086 -0.258632 -0.319184 0.259883 0.008684 -0.110245 0.350969 -0.097680 -0.329693 0.047289 -0.473789 -0.050218 0.335700 -0.228063 -0.663408 -0.251114 -0.571541 -0.056720 -0.010604 0.347424 0.185696 0.185097 -0.100295 -0.462720 -0.133266 0.539091 -0.358470 0.385242 -0.216543 0.112648 1.274433 0.604403 -0.026907 0.094877 0.719681 0.561248 0.295772 -0.707474 -0.130943 -0.204472 -0.216964 0.093585 0.218536 -0.032668 -0.524237 1.116906 -0.005217 -0.567538 -0.288076 -0.250336 0.366366 -0.510997 -0.778600 -0.308430 -0.451578 -0.084635 0.532498 -0.194260 0.576439 -0.055985 0.146104 -0.555116 -0.095528 0.028449 0.597400 0.002567 0.140188 0.810637 -0.909300 -0.190702 -0.554628 0.284629 -0.310356 0.202307 -0.100062 0.489907 -0.397332 -0.177544 0.102233 -0.268361 -0.224314 0.208971 0.652164 -0.059649 0.401518 -0.165096 0.323748 -0.466107 -0.287558 0.558917 0.016619 -0.376179 0.060853 0.218107 0.011009 0.541031 0.195959 0.080571 0.063748 -0.334299 0.635191 -0.334297 -0.108343 -0.423011 0.025849 -0.088853
383 0.044553 0.296897 -0.379424 0.438309 0.111885 -0.149939 -0.211190 -0.242011 0.334716 -0.160762 -0.108898 -0.479856 -0.239273 0.189123 0.186165 -0.395431 0.280898 0.462634 0.448393 0.048789 0.158719 0.113715 0.222337 -0.269272 -0.243181 -0.261961 -0.220412 0.189133 0.396657 0.239248 -0.445741 -0.245001 -0.304704 0.160276 -0.173283 -0.125690 -0.074153 -0.240200 -0.126988 0.549932 0.020878 -0.400034 0.000010 -0.300717 -0.041748 -0.147046 -0.080737 0.048176 -0.580794 -0.303146 0.071665 0.135108 0.311435 -0.075951 0.375410 -0.200535 -0.035227 -0.045794 0.067525 -0.380109 0.223699 -0.406313 -0.810596 -0.185249 -0.234570 0.243461 0.186185 -0.121148 -0.096766 -0.755903 0.194844 -0.124983 0.167760 -0.260812 -0.515743 0.380244 -0.074240 0.052465 -0.227916 0.067806 -0.116888 -0.403163 0.189452 -0.585229 0.234960 -0.361082 -0.114247 0.135573 0.157343 0.194495 0.176332 -0.426598 0.039824 0.258821 -0.103902 0.238346 0.350702 -0.022450 -0.165919 -0.205474 -0.171404 -0.238736 0.034282 0.241706 0.461635 -0.631660 0.091688 0.528747 -0.054175 -0.052002 -0.274386 0.401060 -0.238414 0.426546 -0.226858 -0.443298 -0.131097 0.137717 -0.023857 -0.137516 -0.090255 0.117634 -0.071963 0.249820 0.072089 -0.750369 -0.312755 -0.333973
1003 0.015781 0.399719 0.154340 0.001930 0.546130 -0.398859 -0.489793 -0.419585 -0.072537 -0.296613 0.576537 -0.437832 -0.471958 0.286342 0.171519 -0.087550 0.156565 0.181365 0.457262 0.494203 0.758279 0.961103 0.246986 -0.286129 0.146677 -0.353595 -0.663754 0.278045 -0.116389 0.139294 -0.143233 -0.024657 -0.813881 -0.159790 -0.475756 -0.091982 -0.183984 0.653146 0.151375 0.471397 0.057983 -0.269127 0.276865 -0.260894 0.071233 0.238932 -0.011399 0.113109 -0.088948 0.062688 0.284938 0.030977 0.110027 0.041253 -0.679794 -0.313304 0.123382 -0.113891 0.026573 -0.314698 -0.458712 -0.349659 -0.405908 0.288241 0.158357 0.019237 -0.148089 -0.081680 0.383417 0.029038 -0.293165 0.095002 -0.021445 -0.889852 -0.792359 0.241064 -0.291602 -0.115870 -0.187472 -0.405320 -0.068721 -0.520555 -0.483361 0.317720 0.470321 -0.396673 -0.022391 0.024427 -0.142563 0.382172 -0.247093 0.213597 0.511219 0.312619 -0.285382 -0.245911 -0.121429 0.110165 0.365724 0.193614 0.283178 0.494696 0.083305 -0.529952 0.183646 0.399187 -0.079131 0.369854 0.067702 0.018239 0.023030 0.619193 0.039159 0.316925 0.088950 -0.244442 0.550278 0.227925 -0.528049 -0.385480 0.042943 0.352872 0.090669 -0.298103 0.511259 -0.597326 -0.257438 0.007701
1528 0.310162 0.237750 -0.253472 0.233562 0.341920 0.142213 -0.114272 0.673887 -0.018865 0.169245 -0.324173 -0.624936 -0.175440 -0.012671 -0.941324 0.147073 -0.562327 0.087897 -0.348624 0.782928 -0.759063 -0.378733 -0.045514 -0.583781 -0.427409 0.319770 0.177240 -0.204698 0.004118 -0.300189 0.153651 0.304358 -0.491081 0.506684 0.057342 0.245296 0.026138 -0.005203 -0.159507 0.632218 0.061769 -0.424374 0.374555 0.223682 -0.271456 0.333662 -0.030191 0.499938 -0.491336 0.032085 -0.497359 0.556415 -0.085775 -0.287431 -0.463386 -1.112740 0.241764 -0.165713 -0.234839 0.005000 -0.349631 -0.387061 -0.175086 -0.242008 -0.008000 -0.693956 0.422827 1.007552 0.106347 0.246536 -0.259616 0.066638 0.386894 -0.811492 -1.036113 0.105185 -0.193510 0.151899 0.082477 -0.263651 0.547602 0.115033 0.174393 -0.296884 0.106972 0.021421 -0.441914 0.034469 0.034954 -0.143826 0.076696 -0.044857 -0.351867 0.141603 0.212702 0.994835 -0.590596 -0.785018 -0.026794 0.011813 0.034272 0.812722 0.156222 -0.457698 -0.046797 -0.074669 0.164575 0.297681 0.246520 -0.032134 -0.049304 0.216332 -0.183474 -0.384281 0.421417 0.444099 -0.640866 -0.463725 -0.501932 -0.475515 -0.250343 0.087761 0.119428 0.287706 0.341210 -0.435691 0.339851 -0.051912
1405 -0.077073 0.528068 -0.094019 0.186471 0.138198 0.174548 -0.024677 -0.519068 0.136313 0.064097 0.034994 -0.246210 0.068491 -0.019641 -0.057794 0.282279 0.483362 0.256731 0.176934 0.123937 0.053902 0.270785 0.403150 -0.325312 0.196765 -0.046121 -0.247492 0.363628 -0.168976 0.105946 -0.078404 -0.125921 -0.578279 0.576326 0.405136 0.190780 -0.545902 0.384715 -0.582187 -0.366482 -0.025396 -0.267521 0.914476 -0.428968 -0.284929 -0.221359 0.068748 -0.014473 -0.115232 -0.240464 0.189581 0.048133 0.248332 -0.181552 -0.912878 0.327880 0.171593 -0.299197 -0.133333 -0.041628 -0.319045 -0.392631 -0.053512 -0.018762 -0.268492 -0.056457 -0.232194 -0.025526 -0.537796 -0.514103 0.220382 -0.321234 0.163188 -0.450717 -0.069463 0.754992 0.090337 0.312591 -0.315011 -0.464440 -0.409642 -0.690283 0.388225 -0.082792 0.199602 0.044025 0.137603 0.543430 0.484036 0.200279 -0.604035 -0.012362 -0.005959 -0.393807 0.428356 0.167405 0.237146 -0.293421 -0.215079 0.016754 -0.010131 0.027503 -0.232757 -0.043601 0.409174 -0.320765 0.450043 0.206116 0.121595 -0.615769 0.651889 -0.495569 0.075855 0.079710 -0.550763 -0.046462 0.236296 -0.116744 -0.611584 -0.154393 0.214722 0.505245 0.076845 0.567105 -0.090539 -0.647969 -0.115663 -0.039370
212 0.391404 0.130611 -0.442163 0.185241 -0.422993 0.478396 -0.001414 -0.190595 0.752235 -0.076029 0.767049 0.051182 -0.548641 -0.000436 -0.232274 -0.304526 0.024838 0.249375 -0.013598 -0.040564 -0.015979 0.144073 -0.204877 -0.689848 0.248814 -0.330580 0.543544 0.192833 0.175086 0.086747 0.060041 -0.466778 -1.386469 0.035909 0.439812 0.468345 -0.049768 0.380848 -0.220646 -0.011413 0.239880 -0.237682 -0.102811 -0.732590 0.049026 -0.032571 -0.358882 0.060818 -0.291093 -0.412001 0.226760 0.128965 0.356206 -0.226629 -0.518105 -0.380681 0.339126 0.167841 0.073548 -0.247382 -0.755987 -0.299122 0.460466 0.720393 0.133554 -0.177323 -0.294168 0.199932 -0.076760 0.350537 -0.752508 0.291673 0.438176 -0.268735 -0.536053 -0.224533 0.074514 -0.497933 0.211699 -0.505109 -0.128047 -0.573129 -0.620774 -0.708803 0.338831 -1.243148 -0.206515 -0.255182 0.451805 -0.215385 0.276132 0.688266 0.295690 0.140307 0.034318 -0.391998 0.208774 0.026388 0.207032 -0.307941 0.319648 0.252351 0.705187 -0.272053 0.053027 0.064725 0.426621 -0.373921 -0.199839 0.253511 0.552591 0.308912 -0.343549 0.082341 -0.492502 -0.165483 -0.394984 0.547293 0.408155 0.736137 -0.010409 0.518020 0.012429 0.608067 -0.136103 -0.404292 0.512397 -0.002261
955 -0.208094 0.211103 0.090472 -0.090067 -0.101642 -0.084313 -0.213241 0.220398 0.016314 -0.178064 0.261421 -0.184147 -0.322874 -0.169434 -0.098780 0.306696 0.309401 0.037655 0.202939 -0.278696 0.054417 -0.049765 0.513819 -0.408532 -0.159931 -0.745085 -0.000826 0.140146 0.061913 -0.184633 -0.321225 0.072507 -0.466158 0.542923 -0.221559 0.296893 0.227871 -0.168555 -0.142931 0.496502 0.167336 0.135576 0.465616 -0.756863 0.116514 0.122380 0.023081 -0.169754 -0.645054 0.126356 0.188997 0.322347 0.233241 0.010990 -0.244547 -0.447837 -0.137201 0.561609 -0.118179 -0.199090 -0.031079 0.065903 -0.372618 0.575586 0.165301 0.245909 0.037882 0.368076 -0.093040 -0.333495 0.289772 0.146385 0.035901 0.170428 -0.624199 0.216617 0.301699 -0.141877 0.018091 -0.192777 0.177136 -0.290203 -0.368613 -0.376229 0.385186 -0.078015 0.051899 0.478645 0.297552 0.044647 0.247630 0.003472 -0.178151 0.477855 -0.227670 -0.036785 0.245729 0.351506 -0.185265 -0.511032 -0.233524 -0.640226 0.049929 0.217025 0.119137 -0.141465 -0.005305 -0.102497 0.154618 0.074948 0.142145 -0.398736 -0.078156 -0.113205 -0.325588 -0.266318 0.309878 -0.357659 -0.325267 -0.487328 -0.164126 0.525115 0.119867 0.178463 -0.257722 -0.493191 -0.291550 -0.149096
