3327 128
1617 0.038239 0.307700 0.264977 -0.141672 0.072949 -0.202908 -0.119592 0.378495 0.249550 0.060949 -0.339123 0.106182 -0.226807 0.039509 -0.097697 0.088113 -0.025075 0.267581 -0.076124 -0.141670 0.146183 -0.135370 -0.029296 -0.082268 -0.191783 0.027980 -0.070037 -0.007431 -0.087414 -0.201955 -0.226331 -0.110479 -0.623998 -0.140432 0.035429 -0.105453 -0.484638 0.359773 -0.046446 0.193851 -0.157644 0.164044 0.287935 -0.137089 0.044503 0.150223 0.142641 0.119799 -0.474643 0.032318 -0.055219 0.221365 0.212627 -0.002891 0.211320 -0.396923 -0.394371 -0.146411 0.120882 -0.025267 -0.350427 0.052062 -0.123294 0.103401 0.040540 0.104566 0.001107 0.498837 -0.118169 -0.098106 0.025006 0.101858 -0.137312 -0.317295 -0.146313 0.093508 -0.305408 -0.267791 0.418157 0.193114 -0.081999 -0.200450 0.058979 0.021894 0.152535 -0.098948 -0.084534 0.054864 0.221771 0.176088 -0.083523 -0.015537 -0.213406 -0.250846 -0.107551 -0.172253 0.370998 0.318785 -0.067069 -0.359209 -0.340822 0.089059 0.031818 0.346489 0.161674 -0.057151 0.119837 -0.117043 -0.496459 0.084659 -0.143000 0.115792 0.285802 0.305966 -0.184154 -0.237948 0.227410 -0.334121 -0.091572 -0.581407 -0.202183 0.402521 0.162428 -0.285772 -0.279456 -0.340401 -0.153202 -0.427060
2936 -0.023559 0.282014 -0.307360 0.443512 -0.157816 -0.300180 0.418884 -0.222915 -0.062594 0.026954 0.063773 -0.427152 0.245278 0.076692 0.125873 -0.043211 -0.548449 0.079230 -0.587118 -0.206621 -0.122578 -0.079115 0.390958 0.054417 -0.113707 0.363277 0.327461 -0.112604 0.408612 -0.146278 -0.292127 0.234806 0.031862 -0.491915 -0.137183 0.141010 -0.103871 0.153975 -0.718865 0.204120 -0.481990 0.305404 -0.065097 -0.513872 -0.123949 -0.413270 -0.007710 0.030237 0.346037 -0.175307 -0.180489 0.321871 0.013579 0.202194 -0.059375 0.153407 -0.484017 -0.316943 0.171199 0.103946 -0.192700 0.105205 -0.152993 -0.028254 0.130379 -0.597353 -0.331047 0.243799 0.237512 -0.125082 -0.191525 -0.211807 0.161124 0.182433 -0.127865 0.201057 0.080503 0.283172 0.237023 0.080058 0.140997 -0.225283 0.058053 -0.113634 -0.019272 -0.200676 0.290260 0.473770 -0.779163 0.245024 0.194926 -0.260191 -0.176690 0.235706 0.003661 -0.151516 -0.021179 -0.028380 0.060744 -0.370989 -0.088382 -0.146022 0.011884 0.163666 0.172618 -0.365284 0.191704 0.140274 0.399042 -0.594540 0.019644 -0.318112 0.220838 -0.082212 -0.466732 -0.103723 -0.061335 0.048193 -0.346357 0.057094 -0.552326 0.342915 -0.027369 -0.538137 -0.043677 -0.105283 0.078112 -0.205800
1752 -0.048214 0.053877 -0.030668 -0.152536 0.183318 0.109476 0.051738 0.112326 0.071465 0.112972 -0.221553 0.251566 -0.447734 -0.109749 -0.137437 -0.071508 0.206364 0.292021 -0.019939 0.019207 0.198662 0.009415 0.007470 -0.210658 -0.138970 -0.116298 0.008276 0.086814 -0.194318 -0.018186 -0.193900 -0.202137 -0.363888 0.237346 0.099410 -0.325833 -0.398959 0.522866 -0.362688 0.576243 -0.060986 0.239067 -0.038217 -0.281929 0.054427 -0.107369 0.048104 0.017632 -0.364725 0.157065 -0.154404 0.481141 0.180746 -0.253081 -0.087525 -0.170639 -0.650590 -0.307408 0.178549 -0.090748 -0.304540 -0.390698 -0.200905 0.258633 0.050071 0.053860 0.366399 0.791156 -0.168941 -0.237622 0.242213 -0.148859 -0.144798 -0.294402 -0.205290 -0.280467 -0.334636 -0.123665 -0.112715 -0.014916 -0.292759 -0.116789 -0.174353 0.010516 0.269220 0.002933 -0.164538 0.082719 0.275732 0.101322 0.148728 -0.163298 -0.138354 -0.168021 -0.161696 0.147220 0.378767 -0.052695 0.008573 -0.418626 -0.234524 0.011717 0.063076 -0.016901 0.524396 0.009442 0.686314 0.165744 -0.175382 0.155407 0.273107 0.279292 0.274425 0.377147 -0.055756 -0.195473 0.295129 -0.280217 -0.140710 -0.491389 0.020098 0.320362 -0.038277 -0.245239 0.030227 -0.433813 0.062647 -0.445860
1508 -0.048296 0.333794 0.172936 -0.365179 -0.031852 0.005100 -0.168503 -0.062199 0.192031 0.113758 -0.043829 0.294888 -0.109694 0.160481 -0.357653 -0.093067 -0.042746 0.335486 -0.039700 -0.235614 0.168450 0.034190 -0.180216 -0.072221 -0.085640 -0.007441 -0.072898 0.122490 -0.036986 -0.058203 -0.047046 -0.074668 -0.514277 0.136945 0.224931 -0.179568 -0.601296 0.438615 -0.323219 0.367529 -0.235625 0.334269 0.218235 -0.087921 0.060046 -0.178128 -0.076348 0.005647 -0.438387 0.098581 0.110625 0.383262 0.036922 -0.214698 -0.110300 -0.425102 -0.468577 -0.250855 -0.133853 0.050072 -0.138020 -0.320120 -0.478726 -0.141235 0.074337 0.079268 -0.021221 0.634660 -0.090132 0.010785 0.257846 0.111967 -0.050278 -0.371048 -0.035275 -0.358087 -0.213282 -0.065901 0.176271 0.074415 -0.187254 -0.200989 -0.214503 -0.089838 -0.087369 -0.049465 -0.148915 -0.128256 0.527874 -0.024769 -0.075135 0.032982 -0.302628 0.091829 -0.464120 0.058992 0.347187 -0.072677 0.045780 -0.399788 -0.197538 -0.070546 0.429197 0.044822 0.336298 0.048853 0.262091 0.127449 -0.032714 0.141018 0.142654 0.403055 0.163957 0.188003 -0.302404 -0.463032 0.357889 -0.141754 -0.090850 -0.700199 -0.069528 0.315352 0.113366 -0.283881 -0.185697 -0.254880 0.088021 -0.593018
1838 0.046988 0.490885 -0.103165 -0.124142 -0.208325 0.246955 -0.320063 -0.084834 0.272002 0.290555 -0.005547 0.225954 -0.034191 -0.085811 -0.279347 0.176618 0.043450 0.042222 0.242231 -0.122402 -0.186617 -0.099734 -0.020560 -0.285604 0.230678 -0.224990 0.174837 0.423962 -0.210340 0.062922 -0.110485 -0.261375 -0.299018 0.164577 -0.235178 -0.062833 -0.445287 0.446216 -0.112861 0.034127 0.050064 -0.215412 0.102219 -0.401446 0.093590 -0.070747 -0.089480 -0.079160 -0.491072 -0.191227 -0.150774 0.248371 0.201774 0.055359 0.073976 -0.227949 -0.118019 0.219337 0.010638 -0.110799 -0.412104 0.001788 -0.513758 -0.147785 0.209267 0.239174 -0.390295 0.081400 -0.027702 -0.196252 0.138572 0.084095 -0.057122 0.054016 -0.158501 0.191327 0.041748 -0.038204 -0.528623 0.087400 0.198644 -0.357563 -0.227596 -0.095505 0.328076 -0.165253 -0.151781 0.232709 0.170477 0.059369 -0.255476 -0.000514 -0.287723 -0.171840 0.441547 -0.044418 0.011390 0.225633 -0.037516 -0.196832 -0.007579 0.220034 0.252630 -0.279710 0.566015 -0.023711 -0.008953 0.313309 -0.165733 0.178951 0.427810 -0.093313 0.150066 0.355814 -0.293865 -0.271961 0.499923 -0.198595 -0.420468 0.282653 -0.117699 0.670365 0.128062 0.259623 -0.060093 -0.263117 -0.091824 -0.505096
1381 -0.356837 0.393866 -0.769929 0.180442 0.362758 -0.530134 -0.615819 -0.360800 -0.310409 0.304462 0.300118 -0.514661 0.017743 0.553350 -0.222978 -0.081078 -0.077329 0.273336 -0.476063 0.349460 -0.520795 0.073654 0.099976 0.166355 -0.038344 0.399186 0.044020 -0.513281 0.129689 -0.071492 -0.218081 0.440035 -0.167428 -0.145234 -0.385518 0.008403 -0.451498 0.298997 -0.527449 -0.441042 -0.010714 0.145973 -0.030679 -0.481903 -0.558816 -0.192870 -0.404840 -0.091774 0.608209 0.266230 -0.096475 -0.257004 0.415585 0.033327 -0.208079 -0.020767 0.195241 -0.501630 0.406692 -0.334144 -0.246234 -0.363928 0.046673 -0.198143 -0.239289 -0.171465 -0.135500 0.278375 -0.385243 0.407765 -0.237405 0.093718 0.308145 -0.461372 -0.199064 0.455611 0.114463 -0.229824 -0.627788 -0.076859 0.342527 -0.133315 -0.114411 -0.343224 -0.062954 -0.467094 0.029905 0.678005 -0.480993 0.668006 0.279223 0.017836 0.055555 -0.099723 0.084277 -0.011191 0.371491 -0.190126 0.617941 -0.158052 0.010381 0.129124 -0.082108 0.147778 0.461863 -0.080783 -0.118659 -0.194006 0.548027 -0.337019 0.185641 0.266810 0.113545 -0.260421 0.021560 -0.341504 -0.232578 -0.251604 -0.299477 0.135005 -0.831022 -0.072556 -0.024533 -0.341771 -0.252533 -0.916734 0.450706 -0.226189
2340 -0.158197 -0.098301 -0.262722 0.395564 0.007397 0.135659 -0.357281 0.065004 -0.084061 0.074085 0.178749 0.095524 0.448862 -0.002063 -0.648759 0.615272 0.094282 0.158923 -0.250261 0.543559 -0.415927 0.294361 0.142497 0.003760 -0.002473 0.069930 -0.263446 -0.288133 0.491810 -0.374102 -0.026593 0.498955 0.008567 -0.277868 -0.019251 -0.186532 -0.082205 0.357983 -0.100751 -0.049759 0.142286 0.037435 -0.359238 -0.421481 -0.336966 0.080350 -0.078709 -0.363473 0.176713 -0.064483 0.129112 0.364246 0.401311 0.045937 -0.379658 -0.011160 -0.036321 -0.189198 0.121200 -0.343298 -0.201159 -0.253127 -0.238906 -0.191325 -0.104081 -0.245161 0.315928 0.427813 0.187967 0.070681 -0.355409 0.079315 0.455906 0.009444 -0.078593 0.311206 0.341910 -0.018923 -0.239838 0.302091 0.071974 -0.346452 0.225308 -0.145641 -0.304345 -0.352692 0.423689 0.442724 -0.394645 0.586893 0.338458 0.124541 0.441230 -0.022614 0.164611 0.257300 0.166599 0.038715 0.357264 -0.325922 0.133740 -0.334202 -0.576068 0.092100 0.280013 -0.486138 0.025061 0.151200 0.652785 -0.383564 0.420530 0.112791 -0.108876 -0.362014 -0.100960 0.004036 0.149560 -0.240374 -0.666887 -0.014139 -0.381492 0.573461 -0.029509 -0.365051 -0.062283 -0.487907 -0.055315 -0.224106
2868 0.134773 0.344232 -0.097592 -0.021009 -0.179479 -0.242135 0.554829 0.491919 0.287870 0.028851 0.400238 -0.160150 0.775285 -0.268549 -0.462763 0.397008 0.062859 0.127580 -0.340601 0.267581 0.110510 0.616632 -0.461909 -0.123495 -0.360520 0.212575 0.174094 0.060120 0.013488 0.470940 0.570215 0.035182 -0.415671 0.282595 0.135423 -0.442058 0.400755 0.088386 -0.072266 -0.142474 0.084675 -0.036590 0.294896 0.118643 -0.984375 0.376440 -0.248650 -0.343687 0.419092 -0.150412 -0.010066 0.288190 -0.200021 -0.284135 -0.406743 -0.104198 -0.307030 -0.087766 0.101919 0.626657 -0.297186 -0.194369 -0.264123 0.459352 -0.113571 0.082136 0.202740 0.328511 -0.237412 -0.065969 -0.112772 -0.306286 -0.039696 -0.437982 -0.737814 -0.089709 -0.344653 0.564728 -1.127889 0.365218 0.410160 -1.062554 -0.678874 -0.645987 -0.632752 0.410319 -0.512534 0.541864 0.179781 0.324479 -0.246430 -0.010826 -0.797017 0.223756 0.291849 -0.488642 -0.403048 0.143653 0.286460 -0.021944 -0.120707 0.293094 -0.160596 -0.166215 0.039146 0.099411 0.193037 0.615162 0.146270 -0.038355 0.125967 -0.355593 0.054022 0.264348 -0.104170 0.463283 -0.312808 0.240524 -0.726007 -0.551985 0.158001 -0.120159 0.547017 0.124570 -0.002393 -0.244780 -0.501123 -0.271767
1175 -0.348819 0.367956 0.092557 -0.117830 -0.028654 -0.004936 -0.399957 -0.087032 -0.014048 0.272368 -0.235754 0.018691 0.002551 -0.299116 0.027842 0.056827 0.226911 0.047309 0.079534 -0.071136 -0.088238 0.283690 -0.018221 -0.124017 -0.181630 -0.179373 0.229807 0.340335 0.054207 -0.273400 -0.498743 -0.390210 -0.385304 0.346714 0.172776 0.049615 -0.260897 0.632443 -0.117952 0.314783 -0.104141 -0.032595 -0.192314 -0.228641 -0.065915 -0.224931 -0.181766 0.094545 -0.043306 0.000228 0.141834 0.339828 0.072404 0.289551 0.006551 -0.428801 -0.401335 -0.149305 -0.046664 0.143533 -0.115751 -0.140983 -0.328785 -0.005156 0.109288 -0.155615 -0.067780 0.431771 -0.341165 -0.290512 0.153720 0.057322 -0.035796 -0.124916 -0.231809 -0.282483 0.120902 -0.213561 0.392673 -0.006890 0.127276 -0.236358 -0.474708 -0.109266 -0.005726 -0.301848 0.225471 -0.172499 0.471720 0.136822 0.011701 0.110020 -0.106832 -0.319456 -0.657876 -0.207769 0.233842 0.032618 -0.206968 -0.398115 -0.092278 -0.086137 -0.140771 0.357747 0.374950 0.259630 0.245169 0.321178 -0.296133 0.318189 0.078471 0.118378 -0.033129 0.399045 -0.105608 -0.340016 0.144638 -0.140031 -0.041916 -0.419122 -0.189408 0.219722 0.457962 -0.096619 -0.305510 -0.507885 -0.150150 -0.254986
2527 -0.012445 0.169513 0.466234 -0.101436 0.247284 -0.103816 0.218261 0.248545 0.334357 -0.122340 -0.368228 0.005752 -0.167457 0.053585 -0.013143 0.049525 0.340073 0.292781 -0.048940 -0.136910 0.163348 -0.091803 0.062732 -0.410623 0.183400 -0.110237 0.072935 -0.097594 -0.148216 -0.263804 -0.372059 -0.203396 -0.402520 0.058372 0.241972 0.077431 -0.378357 0.359810 -0.274256 0.167326 0.098901 0.208784 0.017781 -0.117104 0.122514 -0.262318 -0.263834 -0.383372 -0.417870 0.179757 0.352258 0.172141 0.121463 0.099369 0.197457 -0.452983 0.027761 -0.081916 0.114504 -0.265449 -0.135470 -0.235333 -0.258035 0.285040 0.018322 0.240068 0.239763 0.688918 0.077490 -0.383908 -0.018412 0.167547 0.143454 -0.151161 -0.001282 -0.372543 -0.198471 0.090561 -0.036010 -0.066503 -0.049429 -0.480945 -0.059474 -0.346367 0.157811 -0.461393 -0.077219 0.314291 0.712198 0.281650 -0.127237 -0.016656 -0.114522 0.056056 -0.141827 -0.162786 0.184243 0.409775 -0.055064 -0.180256 -0.203630 0.068548 -0.094645 0.065047 0.146290 0.203006 0.305930 0.068381 -0.261737 -0.045226 -0.108907 0.234315 0.585165 0.049569 0.015249 -0.357217 0.202389 -0.221421 -0.357924 -0.496789 -0.283231 0.282541 0.179362 -0.089603 -0.059912 -0.198755 0.013272 -0.619056
385 -0.070157 0.242802 0.026047 -0.057114 0.196818 -0.083577 0.073791 -0.155208 0.187460 -0.084988 -0.133650 -0.147120 0.148018 0.131392 -0.351671 0.032086 0.504435 0.448299 -0.145851 0.078657 -0.095924 -0.137378 -0.018580 -0.434971 -0.145103 -0.128578 0.113371 0.122052 -0.143827 0.011463 -0.108127 0.156138 -0.286205 0.343819 -0.149391 0.126856 -0.003440 0.219912 -0.140282 0.255785 -0.178927 0.229507 0.064701 -0.239005 -0.182302 -0.246591 -0.152526 0.014480 -0.536793 0.238098 -0.086591 0.004475 0.136354 -0.064635 0.177728 -0.181461 -0.226843 0.170587 0.042749 -0.265466 -0.064532 -0.434778 -0.248884 0.272939 0.249893 0.035237 -0.242263 0.586164 0.014563 -0.296360 0.060583 0.121901 -0.235142 0.076176 -0.173725 -0.154511 -0.280302 -0.233189 -0.165924 -0.168372 0.028226 -0.341818 0.040215 -0.243492 0.127570 -0.018655 0.160718 0.355324 0.472855 0.259567 0.061649 -0.470693 -0.374677 -0.079652 -0.195198 -0.309572 0.265583 0.516900 -0.310975 -0.369492 -0.198200 0.065609 0.338488 -0.055122 0.416830 0.033352 0.057553 0.202571 -0.214213 0.223971 -0.037133 0.284965 0.379111 0.215028 -0.154746 -0.356864 0.434373 -0.335208 -0.373390 -0.234436 0.083427 0.333940 0.150453 0.117488 -0.028313 -0.375979 -0.245800 -0.458643
1054 -0.158238 0.350396 0.135171 0.023263 -0.297113 0.096898 -0.131792 -0.098715 0.209394 -0.094924 0.219418 -0.394632 -0.142537 0.176891 -0.246650 -0.190720 -0.211032 0.230352 0.110454 -0.064950 0.036342 0.471003 -0.029119 -0.451257 -0.131930 -0.069747 0.083663 0.252217 0.361364 0.223032 -0.184447 0.015262 -0.624436 -0.008236 -0.265977 0.171125 -0.237708 0.245991 -0.140117 0.242955 0.070981 -0.237533 -0.117952 -0.331808 -0.031155 -0.091236 0.083266 -0.062852 -0.760681 -0.234186 -0.081889 0.057479 -0.161962 0.396496 0.495367 -0.314699 -0.385902 0.366210 -0.041613 0.023155 -0.310576 -0.401681 -0.240759 -0.118530 -0.112746 -0.121281 0.130095 0.067529 0.132893 -0.649942 0.008598 0.224632 0.013040 -0.243340 -0.153327 0.170591 -0.453649 -0.172955 -0.143786 0.044461 0.085438 -0.447655 0.016969 -0.187270 -0.011149 -0.299785 -0.041548 0.074201 0.079437 0.225497 0.176437 -0.091829 -0.400915 -0.225207 -0.425544 0.029940 0.020972 0.353769 0.277706 -0.496048 0.306996 0.220037 0.203745 0.130426 0.007419 -0.110231 -0.059079 0.175459 -0.090998 0.207961 0.287879 0.309090 0.115327 0.111594 0.059453 -0.405969 0.209930 -0.559695 -0.451663 0.380365 -0.179221 0.121902 0.310199 0.233084 0.226017 -0.368500 -0.486502 -0.192038
1274 0.397697 -0.383442 0.234781 0.230798 0.491343 -0.032848 -0.359693 0.141839 0.637005 0.197656 0.018056 -0.014394 0.390450 -0.069883 -0.202172 -0.144689 -1.043218 -0.068582 -0.204900 0.681843 -0.381347 -0.151172 -0.302897 -0.621009 0.287943 -0.380169 0.176097 -0.013856 0.249042 -0.459214 0.175432 -0.176583 -0.653376 0.248738 -0.055892 0.106638 0.466104 0.231728 -0.684176 0.425817 0.267279 0.431167 0.639819 0.103186 -0.127696 -0.143424 -0.023018 0.228298 -0.151635 0.375675 0.658566 0.190056 -0.319220 -0.242186 -0.498967 -0.804463 -0.276145 -0.116262 -0.336428 1.010917 0.064022 -0.122864 -0.642967 -0.243890 0.121993 -0.138850 0.338862 0.058273 -0.428941 -0.076998 0.065640 -0.215569 -0.246463 -0.592613 0.400140 -0.382642 -0.124814 -0.235712 0.195142 -0.234178 0.102144 0.148806 -0.495720 0.016309 0.068239 0.191205 0.475065 0.485485 -0.785760 0.402151 -0.213667 -0.169331 -0.396593 0.397617 0.087612 -0.310010 -0.577596 0.767793 0.092185 0.275868 -0.290294 -0.173674 -0.237002 0.406873 0.257196 -0.402213 0.898565 -0.934543 -0.324460 -0.273340 0.567372 -0.560831 -0.451151 0.133785 -0.237590 0.407730 0.446300 -0.813218 -0.616206 0.496296 -0.403853 -0.203738 -0.220841 0.169841 -0.129577 -0.192841 0.186090 -1.500735
1883 -0.333452 -0.367693 0.044321 0.757338 0.001124 0.306754 -0.085049 0.323023 -0.501425 0.218674 0.197927 0.290129 0.547286 -0.088208 -0.235454 0.662722 0.140051 0.107518 -0.364880 0.876604 0.314257 0.387464 0.349007 -0.468022 0.260858 0.024379 -0.024148 0.478508 0.675430 0.026552 -0.222328 0.433696 -0.058827 -0.169376 -0.218673 -0.554047 0.053091 0.785879 -0.734049 -0.163489 -0.231029 -0.104503 0.508883 -0.224718 -0.295036 0.052237 -0.278182 -0.252017 0.386728 -0.301288 0.393013 0.089290 -0.286639 0.473947 -0.307632 -0.089041 -0.219271 -0.000184 -0.695742 0.119204 -0.277523 -0.104524 -0.549906 0.033212 0.147077 -0.448988 0.442933 0.654244 0.167662 0.513445 -0.280450 -0.062680 -0.545941 0.333622 -0.138800 0.332807 -0.020919 0.462684 0.065297 0.574331 0.455889 -0.184849 0.017743 -0.308400 0.242263 -0.800756 0.174363 0.142281 -0.670991 0.793907 0.178920 0.078417 -0.733733 -0.107279 0.348596 0.244820 0.611688 0.619449 0.240535 -0.138664 0.534075 -0.309428 0.164755 -0.265793 -0.410957 0.032255 -0.057277 -0.301425 0.395035 -0.512846 0.210756 -0.021639 -0.501218 -0.144051 -0.893600 -0.217300 -0.011947 -0.316242 -0.005220 0.276837 -0.219315 0.147082 0.148092 -0.690743 -0.318320 -0.595688 -0.322311 -0.634021
1115 -0.301030 0.502596 -0.347582 0.042372 -0.448693 -0.300769 0.016316 0.279117 0.375104 0.057096 0.400827 -0.314090 0.272399 0.055528 -0.682451 0.101263 0.056347 0.311779 0.323915 0.085569 0.143193 -0.093351 0.597697 -0.646762 -0.385191 0.325968 -0.233321 0.122275 0.293387 0.173931 -0.566968 0.174518 0.208370 -0.381138 -0.044446 0.128843 -0.266573 0.125696 -0.169152 0.222220 -0.304330 0.089055 0.023704 -0.340802 0.338571 -0.135337 0.016716 0.138941 0.589857 0.494942 -0.179228 0.149768 -0.202468 0.634436 -0.399186 -0.421851 -0.092565 -0.276179 0.348416 -0.190644 0.105779 -0.207693 0.134347 -0.097843 -0.030180 -0.532922 -0.024345 0.165020 -0.307512 0.266628 -0.063216 -0.281089 0.079762 0.350015 0.208368 -0.174300 -0.360906 -0.110256 0.231826 -0.302216 0.251182 -0.166465 0.089554 -0.846352 0.001349 -0.034775 0.167574 0.351211 -0.843388 -0.072484 0.069479 -0.205714 -0.045732 0.228443 0.110463 0.285354 -0.402624 0.105986 -0.111103 -0.371646 -0.197116 0.079637 -0.559665 0.211229 0.449320 -0.135067 0.367094 0.009568 0.353863 -0.702226 -0.378902 -0.040608 -0.201108 0.185867 -0.660575 -0.142496 0.105764 0.311284 -0.403010 0.000668 -0.680401 0.279623 -0.173478 0.123839 -0.362361 0.049137 0.217929 -0.513752
2417 0.009066 0.523057 -0.640662 0.382561 -0.325093 -0.796182 0.507861 0.249425 0.395776 -0.039368 0.103887 -0.102297 0.199636 0.063997 -0.192173 -0.255141 -0.148758 0.367292 -0.135835 -0.009123 0.179420 0.050032 0.591805 -0.373492 -0.150153 0.373470 -0.076705 -0.282451 0.135221 0.393045 -0.836018 0.140956 0.136381 -0.489339 -0.208340 -0.062897 0.040504 0.096923 -0.214394 0.274202 -0.561822 -0.025640 -0.086646 -0.210828 0.536125 -0.047718 -0.294819 0.258398 0.439610 0.159703 -0.029386 0.038257 -0.007195 0.364903 -0.414725 -0.388327 -0.053355 0.047132 -0.186042 -0.647418 0.268709 -0.072596 0.094606 -0.113595 -0.429318 -0.311351 0.327178 0.220490 -0.470312 -0.115828 -0.183921 -0.164145 -0.073289 0.200816 0.406183 0.103162 -0.169973 -0.162695 -0.071362 0.101728 0.369477 -0.349696 -0.197039 -0.149586 0.126488 0.123555 0.278959 0.345701 -0.340589 -0.046197 -0.128231 -0.081556 -0.150030 0.251895 -0.071022 0.384877 -0.361400 0.108058 0.346682 -0.723678 -0.451405 0.054879 -0.317479 -0.015513 0.089294 -0.110018 0.295410 -0.001444 0.598220 -0.720635 0.289347 -0.428938 -0.386562 0.183718 -0.626082 -0.196747 0.446656 0.305632 -0.615533 0.010348 -0.767581 0.265348 -0.266044 -0.315621 -0.460673 -0.026420 0.119367 -0.727417
14 -0.026048 0.223510 0.185340 -0.460720 -0.263705 -0.141332 0.010969 -0.278431 0.301473 -0.452354 -0.272103 -0.124516 -0.362805 -0.255789 -0.067223 0.461653 0.053281 0.263865 0.141501 0.039507 0.341017 0.363604 -0.291525 -0.640738 -0.019286 -0.412211 0.117098 0.465793 0.370708 -0.012432 -0.242387 -0.065062 -0.909458 -0.042834 -0.403534 0.147084 -0.165892 0.156659 -0.447194 -0.025011 0.131338 0.096161 0.008142 -0.420815 -0.082950 0.381497 -0.221686 0.021626 -0.340956 -0.002556 0.083372 -0.191213 0.031417 -0.113094 -0.199933 -0.467364 -0.210014 0.136066 0.026030 0.185996 0.024000 -0.313797 -0.195783 -0.033177 0.013827 0.484574 -0.269655 0.176337 -0.042374 -0.123151 -0.197415 0.177124 -0.143984 -0.091483 -0.133912 0.192355 0.253826 0.235494 -0.323412 -0.166055 0.392804 -0.125763 -0.195349 0.295930 0.408322 -0.215450 0.234538 0.005005 -0.297302 -0.075375 -0.191436 0.058031 -0.338752 -0.038030 0.154807 -0.115314 -0.324038 0.257645 0.136458 -0.251676 0.133129 0.221176 0.279757 -0.358422 0.212472 0.138219 0.061708 0.479957 0.299301 0.308183 0.150304 0.312793 -0.071694 0.224267 0.070788 -0.096970 0.010242 -0.174883 -0.402378 0.310496 -0.410069 0.252565 0.240160 0.166212 0.049921 -0.670048 -0.278680 -0.667834
39 -0.397608 0.075879 0.473221 0.333596 0.171808 -0.020362 0.672186 0.216500 -0.031960 -0.167835 0.606928 0.124603 0.212078 -0.167630 -0.359474 -0.431006 -0.626016 0.445337 -0.003600 0.093961 0.445804 -0.191409 -0.400892 -0.144149 -0.241892 -0.086823 0.321697 0.024411 0.026430 -0.192611 -0.400184 -0.104219 0.252124 -0.483997 -0.303007 -0.230402 -0.010223 0.365507 0.264575 -0.248291 -0.050985 -0.043647 -0.182526 -0.400462 -0.140611 -0.177374 0.463011 0.061048 0.602437 -0.089366 0.222601 0.115492 -0.197802 -0.904403 0.546993 -0.259655 0.219289 -0.250385 0.220699 -0.131831 -0.378665 -0.404882 -0.838515 0.021402 0.409564 -0.306970 0.180636 -0.582523 -0.127628 -0.475010 -0.328288 0.232511 0.133423 -0.109751 0.364496 -0.120617 0.090488 -0.233919 0.428891 -0.157382 0.048032 -0.499568 -0.535406 -0.547081 0.308215 -0.173214 0.265868 -0.361636 -0.284147 0.456852 -0.385367 0.517454 -0.564443 -0.339785 -0.143790 -0.513721 -0.089843 0.082106 -0.066163 -0.436971 -0.392857 0.418090 0.289957 0.298401 0.415413 -0.266923 -0.058354 -0.250338 -0.050911 -0.026252 0.596269 0.296037 0.165131 0.138326 0.555304 -0.076218 0.510254 0.099656 0.086082 -0.263122 -0.578902 0.256585 0.321730 -0.255723 0.287726 -0.558287 -0.380261 -0.724546
2413 -0.263379 0.272751 -0.254321 0.148322 -0.186588 -0.352306 0.057729 0.125380 0.455131 -0.349026 0.220007 -0.593824 0.345471 0.051589 -0.281736 -0.105784 -0.000375 -0.078032 -0.089133 0.319314 -0.004641 0.293822 0.610125 -0.501769 -0.253402 0.388774 0.001556 0.128905 0.314352 0.603709 -0.726439 0.148776 0.093695 -0.400045 -0.243809 0.213166 -0.246361 0.276453 -0.268511 -0.080361 -0.090891 0.081605 -0.071915 -0.005295 0.402385 -0.144262 -0.141197 0.132645 0.658897 -0.041688 0.227543 0.386086 0.081668 0.432602 -0.293797 -0.617192 -0.193344 -0.454507 0.314354 -0.234928 -0.221985 -0.304602 -0.190981 0.083701 0.073013 -0.667863 0.337142 -0.027598 -0.318578 0.011249 0.135371 -0.331921 0.134147 0.194443 0.224599 0.306746 -0.039736 -0.446431 -0.059789 -0.058172 0.080995 -0.128751 -0.003724 -0.494038 0.074856 0.078552 0.003005 0.191516 -0.680175 0.194417 -0.008348 -0.243042 0.082369 0.262196 -0.197034 0.285662 -0.292436 -0.417567 0.077635 -0.377988 -0.517379 0.188425 -0.299113 -0.039584 0.361789 -0.154139 0.093257 -0.084492 0.459560 -0.606954 -0.210965 -0.235071 -0.082186 0.039788 -0.606587 -0.027902 0.097158 0.676211 -0.598997 -0.046060 -0.826476 0.110040 -0.476370 -0.086979 -0.223800 -0.106240 0.471357 -0.533867
2895 -0.199602 0.404240 -0.514040 -0.108516 0.111591 0.171295 -0.012923 0.146358 -0.059140 0.217754 0.199960 -0.396656 -0.068052 -0.150006 -0.383671 -0.014482 -0.199979 -0.076398 -0.209179 0.224056 0.037707 0.028841 0.433228 -0.035843 0.284231 0.884001 0.099278 -0.541754 0.757656 -0.072109 -1.034047 -0.071269 -0.017588 -0.174795 0.133924 -0.208038 0.291200 0.146100 -0.486260 -0.208177 0.394675 -0.149044 -0.318319 -0.157799 0.549622 -0.375046 0.058625 0.329546 -0.085191 0.158974 -0.572002 0.346590 -0.508020 -0.128953 -0.550211 -0.336045 0.045531 -0.839656 0.270989 -0.474800 -0.715128 0.147896 0.493945 -0.072227 0.094229 -0.464919 -0.311771 0.202799 0.069035 -0.143945 0.025535 0.035674 0.302597 -0.225099 0.006464 -0.362914 0.048420 -0.295451 0.232439 -0.516943 0.163083 -0.095981 -0.205166 -0.503556 0.131668 -0.099517 0.147267 0.146527 -0.723107 0.423897 0.287659 -0.220510 -0.747505 0.403534 0.280466 -0.285358 -0.146907 -0.089331 0.240981 -0.197767 -0.065259 0.039780 -0.040664 -0.057825 0.084227 -0.110225 0.051517 0.485082 0.452663 0.100265 -0.125137 -0.130569 -0.552135 -0.002698 -0.506491 -0.376366 0.178293 -0.091779 -0.775809 -0.271635 -0.424445 -0.082348 -0.165597 -0.624792 -0.057119 0.062984 0.231252 -0.551700
2587 -0.224033 -0.111848 -0.114945 0.471715 -0.049321 -0.342547 -0.500865 -0.520345 0.463964 0.168023 -1.091617 -0.162057 0.245278 -1.093938 -0.819052 -1.091588 -0.973875 0.097082 -0.370603 0.551633 0.195189 -0.637070 0.383745 0.522340 0.783307 -0.571503 0.849636 -0.054117 0.171335 0.401918 0.107443 0.397125 0.159190 -0.420903 -0.591715 -0.156415 -0.368543 0.075789 0.079545 -0.174764 -0.002054 0.557344 -0.230362 0.401230 -0.153713 0.993146 0.633697 -0.429705 0.145834 0.428773 1.067853 0.711906 -0.176683 0.151816 -0.272272 -0.726228 -0.352976 -1.177797 -0.640551 -0.460964 0.056218 -0.056104 -0.333893 -0.078222 -0.141256 0.582898 0.215280 0.793592 -0.510179 -0.034862 -0.764894 -0.628170 0.373989 -0.489706 0.067726 -0.377358 -0.498378 -0.602593 0.079192 0.514384 -0.226151 0.403737 0.516109 -0.954675 0.471090 0.190648 0.102524 -0.145279 0.857533 1.571222 -0.592880 -0.509063 0.372065 0.492934 0.687756 0.492762 -0.919987 0.376815 -0.224204 -0.409068 -0.132953 1.317770 -0.056273 0.410787 0.874419 0.213615 -0.701795 0.354493 0.506689 -0.278501 0.193357 0.341690 -0.570724 0.073949 0.181622 -0.068421 -0.007782 0.187710 -0.874422 0.200580 -0.410057 0.090562 0.350339 -0.706559 -0.238527 -0.979648 0.093135 -0.269846
2344 0.041240 0.063261 -0.551629 0.110595 -0.071487 0.053976 0.128278 0.004592 -0.213417 0.245814 -0.055521 0.204966 0.643609 -0.015880 -0.373127 0.349611 -0.440845 0.051002 -0.475570 0.101597 -0.402980 0.060544 0.434206 0.143457 -0.326746 0.279351 0.084732 -0.422081 0.659796 -0.531305 -0.279262 0.367686 -0.213884 -0.412393 -0.151871 0.091061 -0.059831 0.026561 -0.495250 0.075509 -0.166492 -0.117330 0.010817 -0.799967 -0.304396 -0.407821 0.298077 -0.156378 -0.083277 -0.011742 0.172484 0.588032 0.037680 0.159549 0.047252 -0.200093 0.012792 -0.505863 0.090506 0.004146 -0.300102 0.145815 -0.200154 0.176503 -0.214613 -0.708410 -0.143356 0.236015 0.193298 -0.036872 -0.316370 -0.046053 0.173261 0.294328 -0.111757 0.261420 0.389112 -0.257487 -0.001808 0.400158 0.246998 -0.549082 0.169474 -0.107384 -0.058110 -0.125478 0.740300 0.414047 -0.614390 0.579750 0.234973 -0.038547 0.191652 0.138059 0.296283 0.290412 -0.072437 -0.057058 0.411357 -0.406811 0.121879 -0.113866 -0.508534 -0.110613 0.095237 -0.366078 -0.041785 0.018250 0.741196 -0.599650 0.500336 0.087276 0.065043 -0.064233 0.180999 0.029389 0.200502 -0.069515 -0.450451 -0.211770 -0.279245 0.292663 -0.147634 -0.357844 -0.087883 -0.339526 -0.155630 -0.258298
3118 0.207283 0.523152 -0.524059 0.126635 0.374307 -0.159403 0.189664 0.093052 0.051853 -0.227335 0.511213 0.024401 -0.025653 0.099817 -0.434371 -0.380626 -0.245886 0.111675 -0.099966 0.299835 -0.098413 0.555406 -0.582369 0.315469 0.166132 -0.020511 0.061858 0.104114 -0.056987 0.492118 0.401150 -0.015438 0.064594 -0.064352 -0.652667 0.091928 -0.409702 -0.236256 -0.322609 -0.328216 0.163166 0.041420 -0.019338 -0.084760 0.109836 0.548210 0.257386 -0.179455 0.377410 0.252561 0.422449 0.416440 -0.034785 0.115781 -0.708657 -0.221074 0.000828 -0.039050 0.541838 0.132575 -0.193989 0.117267 -0.388365 -0.295739 -0.308785 -0.133918 0.492223 0.405273 -0.002059 -0.445968 -0.358906 0.272471 0.234304 -0.442041 -0.658563 -0.193119 -0.630330 -0.124797 -0.076417 0.246068 1.013146 -0.606951 -0.734227 -0.122206 -0.289092 0.095787 -0.506162 0.472830 0.139819 0.151003 -0.374026 -0.660335 -0.798503 -0.269385 0.488817 0.123177 -0.319439 0.327596 -0.408839 -0.422437 0.754810 0.360876 -0.381698 -0.312386 0.113626 -0.095403 0.577315 0.262460 0.147033 -0.322301 0.141058 -0.066018 0.120126 0.086538 -0.189151 0.483924 -0.406523 0.082824 -0.267684 -0.611955 0.197084 0.288325 0.633757 -0.015307 0.253820 0.047754 -0.375785 -0.236839
1841 -0.222367 0.391569 0.262178 -0.141530 -0.227612 0.100062 -0.169321 0.104784 0.400444 -0.014834 0.318450 -0.085561 0.104614 0.061602 -0.476344 0.042608 0.321149 0.508377 0.142617 0.039179 0.076885 -0.042154 0.174610 0.032731 -0.052597 -0.219243 0.366011 0.425660 0.216374 -0.162204 -0.283050 -0.493087 -0.443836 0.057981 -0.124146 0.033746 -0.456937 0.032607 -0.358584 0.075382 0.201509 -0.365141 0.374831 0.128693 -0.319893 -0.105861 -0.237666 -0.140571 -0.370048 0.324258 -0.123956 0.162579 0.357186 0.231215 -0.106447 -0.393492 -0.386455 0.055499 0.036194 0.233486 -0.237509 -0.069922 -0.244975 -0.038350 0.044763 0.136109 -0.122101 0.158081 0.295041 -0.143130 0.218326 0.075159 0.169080 -0.125214 -0.256114 0.259868 0.138215 0.161747 -0.478019 0.299441 0.244284 0.036402 -0.589056 0.275711 0.463211 0.041080 -0.093271 0.216440 0.170373 -0.035718 -0.018367 0.244824 -0.583624 -0.157593 0.380375 0.152191 -0.324128 0.355785 0.040544 -0.218632 -0.295685 0.013511 0.073872 -0.424734 0.435904 0.003464 0.037451 0.500608 -0.180966 0.151839 0.204511 0.394398 0.107148 0.241973 -0.188304 0.190109 0.093337 -0.095537 -0.633567 0.211324 -0.011346 0.411895 0.640216 -0.033754 -0.086707 -0.278074 -0.398105 -0.474199
1961 0.349151 0.218127 0.538127 -0.119272 -0.082921 -0.130079 0.010402 -0.119401 0.150313 -0.234260 -0.199339 0.324530 -0.228385 0.095608 -0.057969 -0.275246 0.324122 0.033155 -0.216587 -0.045319 0.399031 0.104557 0.077989 -0.413061 0.000376 -0.276155 0.067534 -0.076777 0.351127 -0.082052 -0.322685 0.157452 -0.371307 0.211804 0.068073 0.146323 -0.051559 0.169488 0.003203 0.285490 0.103772 0.365678 0.236350 -0.085188 -0.055399 -0.328918 -0.401258 -0.222107 -0.064874 0.088599 -0.060499 0.155103 0.386721 -0.041705 0.152057 -0.215816 -0.210573 -0.164062 0.184752 -0.532474 -0.088615 -0.162781 -0.434688 0.292810 0.254740 -0.228643 -0.088159 0.389738 -0.149809 -0.597020 -0.086545 0.140453 -0.290601 0.222391 -0.530886 -0.485214 0.005311 -0.340113 -0.016569 -0.033470 0.063286 -0.433286 -0.327645 -0.240966 -0.072459 -0.345471 -0.371415 0.039749 0.532621 0.364140 -0.018187 0.079840 -0.228924 -0.286075 -0.213243 0.010268 0.090113 0.371572 -0.321362 -0.208888 -0.089776 -0.113868 -0.163915 0.203231 0.808883 -0.129508 0.010079 -0.193466 -0.256393 0.157938 -0.145844 -0.201891 0.285653 0.252732 -0.146408 -0.508806 0.164545 -0.530750 -0.556828 -0.246274 -0.077611 0.178998 0.072637 -0.352836 -0.252745 -0.542601 -0.212651 -0.367906
96 -0.417390 0.354364 -0.065566 0.559984 -0.037803 0.397972 0.545189 -0.445269 0.192810 0.214930 0.497406 0.031118 0.054638 0.162166 0.206877 -0.241814 -0.410804 -0.238704 0.617149 0.772182 1.029986 -0.257253 -0.289359 -0.171199 0.020439 0.585226 -0.022139 -0.132183 0.866182 -0.143630 -0.772307 -0.245554 -0.876596 0.395702 -0.213961 0.037877 0.851963 0.719628 -0.190282 -0.313929 0.112258 0.424648 0.581197 -0.101648 -0.554970 0.092067 0.592854 -0.327837 0.093940 0.548353 0.661622 0.901369 -0.915938 -0.140989 0.407035 0.224818 0.004939 -0.023402 0.362261 0.063698 -0.056182 -0.140008 -0.581497 -0.629068 -0.204510 -0.024980 0.010214 -0.108017 -0.215489 0.219561 -0.190933 0.131737 0.450414 0.098938 0.346883 -0.192420 0.290232 -0.278149 -0.202295 -0.015330 -0.674714 0.609069 -0.127140 -0.310994 0.174740 -0.327533 -0.046657 0.579643 -0.408810 0.404470 -0.394667 -0.368690 -0.223881 -0.151653 0.323110 -0.001146 0.099820 0.615357 -0.436131 -0.340505 -0.039847 -0.532333 -0.551587 -0.064129 0.319017 0.256497 -0.456612 0.452185 0.188136 -0.621092 0.472132 -0.037939 0.306331 0.372033 -0.494538 -0.958912 -0.173793 -0.158391 -0.489581 -0.470881 0.147015 0.275292 -0.050058 0.150442 -0.369536 -0.419755 -0.213441 -0.198076
1643 0.050533 -0.013961 0.343658 -0.137954 0.190586 -0.083011 -0.172191 0.043846 0.228621 0.029137 -0.615945 0.186222 -0.126663 0.288265 0.014658 -0.071962 0.347943 0.362387 -0.189592 -0.244342 0.318418 -0.180824 -0.025247 -0.329033 -0.294035 -0.189962 0.327760 -0.268671 0.243827 -0.159187 -0.106554 0.057686 -0.409462 0.237763 -0.049278 0.032785 -0.076939 0.257127 0.051193 0.240731 -0.050590 0.269476 0.076033 -0.343826 -0.229302 -0.121690 -0.220187 -0.070760 -0.455184 0.271297 -0.164583 -0.011136 0.121840 -0.078719 0.019117 -0.195790 -0.250153 0.036781 0.096717 -0.374260 -0.157027 -0.191540 -0.483255 0.112049 0.191572 0.035245 0.018932 0.438555 0.032228 -0.577764 -0.083837 0.172571 0.210619 -0.004385 -0.138251 -0.224030 -0.301674 -0.279267 0.085296 -0.159191 -0.056464 -0.272049 -0.136542 -0.355851 0.183838 -0.434985 -0.181958 0.150043 0.422545 0.172620 -0.232036 -0.298417 -0.334707 -0.170853 -0.226975 0.033255 0.432896 0.381871 -0.062851 -0.243175 0.039374 -0.105759 0.198893 -0.001865 0.391436 0.186818 0.020314 -0.025358 -0.193168 -0.179677 -0.304582 0.133825 0.435085 0.377929 -0.143098 -0.321886 0.218456 -0.149962 -0.505482 -0.342224 0.124093 0.236221 0.210767 -0.319346 -0.289929 -0.337079 -0.117325 -0.816912
471 -0.186623 -0.386780 -0.923750 0.253572 0.268742 -0.311089 0.036019 0.332268 0.503011 0.548937 0.820180 -0.759581 -0.104593 -0.120980 -0.224190 0.025709 -0.308896 -0.167645 -0.244712 0.467816 0.698292 0.060785 0.083816 -0.652994 0.135238 -0.075481 0.853940 0.364302 0.823884 -0.827065 -0.073758 -0.316021 -0.545040 0.287123 -0.641551 -1.010639 -0.209430 -0.615440 -0.498182 0.138788 -0.381434 -0.331806 0.877485 0.622418 0.384156 0.246948 0.052159 0.568483 0.135446 -1.014962 0.646034 0.529179 -0.047159 -0.193736 -0.899267 -0.126910 -0.366162 0.213180 0.207577 0.418683 -0.305114 0.132528 0.350412 -0.343212 -0.345726 -0.468907 -0.556861 -0.273192 0.155337 -0.717249 -0.450247 0.244316 -0.389744 -0.351182 -0.234172 0.383917 -0.311328 0.015751 0.227658 0.657860 -0.326904 -0.467248 -0.363228 -1.278285 0.199224 -0.138495 -0.066248 0.136041 -0.236048 0.147682 -0.832142 0.165052 -0.245215 -0.317294 0.633019 0.377415 -0.055877 0.920542 -0.118539 -1.373793 0.549126 -0.382628 0.415041 0.096825 -0.100874 -0.223579 0.711632 -0.323854 -0.159189 0.138805 0.462801 0.395838 0.622155 0.639591 0.125299 0.442452 -0.527037 -0.606504 -0.171947 -0.901841 -0.310999 -1.020805 0.593891 0.253978 0.230463 -0.772763 0.044751 -0.647709
1282 0.370866 -0.432928 0.014985 0.042908 0.564854 0.132585 -0.120445 0.199233 0.587095 0.341245 -0.132422 0.018244 0.456598 0.087656 -0.128916 -0.031495 -1.353676 -0.108153 -0.347352 0.622288 -0.539558 -0.242746 -0.026398 -0.286183 0.207292 -0.465033 0.287406 0.141241 0.210146 -0.411669 -0.133590 -0.292000 -0.710179 -0.031544 -0.012410 0.044644 0.428947 0.366491 -0.594711 0.473279 0.298571 0.373622 0.528618 0.465053 -0.070172 -0.183967 0.056484 -0.028265 0.065871 0.511690 0.495083 0.379390 -0.363545 -0.318848 -0.580009 -0.776587 -0.155224 -0.084649 -0.122818 0.899245 0.112616 -0.061562 -0.677410 -0.188564 0.018594 -0.074325 0.219516 0.206495 -0.427351 -0.249932 -0.077643 -0.209903 -0.328037 -0.773739 0.207670 -0.297878 -0.124153 0.042755 0.183309 -0.350626 0.402550 -0.044453 -0.390782 -0.138353 0.032227 0.051689 0.558049 0.775500 -0.718348 0.544989 -0.398250 -0.087401 -0.580339 0.427963 -0.312836 -0.150651 -0.724229 0.834448 0.226906 0.238543 -0.042188 -0.196250 -0.043176 0.497705 0.405572 -0.398695 0.891712 -0.950957 -0.339622 -0.412079 0.480752 -0.704928 -0.634010 0.121690 0.082618 0.396243 0.660264 -0.766087 -0.555168 0.508296 -0.361672 -0.059084 -0.319296 0.087449 -0.187945 0.058797 0.365634 -1.404930
1514 -0.172729 0.143747 0.167101 -0.003423 -0.045943 0.065239 0.045915 0.233040 -0.107323 0.192201 -0.194459 0.078147 -0.063666 0.052606 -0.070048 -0.119930 0.180100 0.317317 -0.111279 -0.309760 0.168352 0.007651 -0.036406 -0.181594 -0.171115 -0.214034 -0.069198 0.190657 0.041024 -0.252611 -0.430794 -0.108803 -0.448243 0.239339 0.243640 -0.303724 -0.547553 0.234814 -0.154377 0.293967 -0.384738 0.465745 -0.097585 -0.212604 -0.025008 -0.084770 0.143602 -0.026431 -0.395407 0.167822 -0.006126 0.441373 0.192816 -0.273316 -0.052125 -0.584774 -0.468813 -0.506764 -0.034583 0.286880 -0.368382 -0.429323 -0.195311 0.119620 -0.196889 0.220816 0.175217 0.487505 -0.008971 -0.168010 0.091621 0.101094 -0.439515 -0.492482 -0.406285 -0.359659 -0.306925 -0.254760 0.134920 -0.004810 -0.355000 -0.154793 -0.093815 -0.004239 0.197549 0.016213 -0.035134 -0.026987 0.124035 -0.050906 0.096834 -0.012445 -0.273408 -0.122433 -0.386225 -0.128585 0.419863 -0.221328 -0.139886 -0.513360 -0.363547 0.075947 0.061107 0.036238 0.515035 0.103384 0.236237 0.038552 -0.134614 -0.127003 0.107458 0.166108 0.183474 0.377908 -0.168806 -0.145948 0.097637 -0.398872 -0.217277 -0.599388 0.061981 0.530370 0.159686 -0.098161 -0.210579 -0.429103 0.105034 -0.413744
1027 -0.188486 0.435352 -0.235094 -0.064061 -0.395368 0.024831 -0.161948 -0.049321 0.138894 0.202775 0.230533 0.348157 -0.265193 -0.156411 -0.549151 -0.069979 -0.058415 0.059556 -0.004866 0.200376 0.130986 0.516609 -0.182200 0.156624 0.042548 -0.042761 0.336606 0.364273 0.226138 0.027568 -0.233959 -0.529132 -0.726194 -0.127747 -0.293529 0.015588 -0.546670 0.234894 -0.112616 0.032284 -0.070065 -0.014177 -0.155997 0.250716 0.051558 -0.307809 -0.333143 -0.017301 -0.729024 -0.440735 -0.153321 0.121933 -0.090759 0.214691 0.109575 -0.353493 -0.298641 -0.087355 -0.130267 -0.176905 -0.021695 -0.465492 -0.400684 -0.149650 0.043827 -0.184878 -0.263544 0.098499 0.059566 -0.303713 0.179386 0.276286 -0.148083 -0.316650 -0.339872 -0.026563 -0.491682 -0.148702 0.088901 -0.033151 -0.058095 -0.051276 0.094855 -0.237577 -0.096072 -0.199646 -0.046741 0.009051 0.319815 0.017336 0.142353 -0.173735 -0.250259 -0.230955 -0.528324 0.174328 0.299436 0.204891 0.240518 -0.250970 -0.308504 0.055066 0.119235 0.219589 0.478213 -0.288509 0.185257 -0.124965 -0.646549 0.162569 0.141386 0.104475 0.520628 0.330677 -0.384486 -0.504800 0.284996 -0.336420 -0.133069 -0.178512 -0.250426 0.134076 -0.109989 -0.152652 -0.120523 -0.426273 -0.590336 -0.478473
1861 0.023995 0.301146 -0.885284 0.695972 0.212891 -0.040794 0.240351 0.250983 -0.401695 -0.264401 0.403257 -0.700697 -0.006441 -0.119049 -0.578175 -0.769156 -0.082999 -0.115070 -0.194074 -0.058176 0.608951 0.075733 0.150080 0.173224 -0.477737 0.124207 -0.290485 0.468593 -0.126673 0.015985 0.327398 -0.736869 0.057400 -0.534060 -0.557579 -0.140163 0.738044 -0.116075 -0.203863 -0.294887 -0.013017 0.250298 0.098811 -0.380813 0.185962 -0.193228 -0.142038 0.140538 -0.033890 0.844621 0.282258 0.604734 0.173325 0.337245 -0.361161 -0.193999 -0.559095 0.235533 -0.071289 -0.282779 -0.323930 0.054681 -0.130998 -0.656535 0.226793 -0.244907 0.618836 0.143562 -0.228896 -0.673061 0.065084 -0.014419 -0.407351 -0.428574 -0.217943 -0.197929 0.062982 -0.200407 0.105094 0.057178 0.669087 -0.813995 0.236350 0.585432 0.066501 -0.077259 0.332582 0.494641 -0.186774 0.265899 0.122303 -0.170193 -0.368086 0.270274 0.415998 -0.112742 -0.348255 0.050873 -0.142795 -0.231610 0.175364 -0.329976 -0.386584 0.493428 0.263178 0.657901 0.272963 -0.216221 0.925148 -0.459126 -0.046815 -0.106878 0.270421 0.172321 -0.791353 -0.015647 0.219259 0.288183 -0.380022 -0.277316 -0.112064 -0.213218 -0.004764 -0.353251 -0.056319 -0.153823 0.250774 -0.237175
366 -0.032390 0.083751 0.160154 -0.392862 -0.201332 0.328184 -0.448423 -0.075979 0.386732 -0.042956 -0.183075 -0.196841 -0.152851 0.081456 -0.037268 0.101415 -0.045385 0.619756 -0.072370 0.062938 0.257331 0.234923 -0.468057 -0.208567 0.160349 -0.208337 0.314246 0.241260 0.191440 0.031884 -0.393552 -0.362663 -0.423295 0.382002 0.072252 0.317373 -0.333323 0.359722 -0.060604 -0.104436 0.008652 0.181083 0.398671 -0.274568 0.117434 -0.079180 0.340770 -0.032940 -0.031646 -0.036174 0.050405 0.015584 0.115250 0.083351 -0.191990 -0.366646 0.152814 0.042977 0.050975 0.199305 -0.442147 -0.399126 -0.554780 -0.523796 0.139367 0.250336 -0.265413 0.064774 -0.008243 -0.110872 0.315583 0.052961 -0.014626 0.424656 -0.277199 0.104080 0.209729 0.141008 -0.516787 0.143487 0.123484 -0.422825 -0.014014 0.313721 -0.109132 0.295101 0.218634 0.390909 -0.216563 -0.112297 -0.329296 0.274791 -0.324845 0.087989 0.527006 -0.368564 -0.348205 0.427120 0.233290 -0.005266 -0.102621 0.498506 0.207428 -0.332887 0.583263 0.259806 -0.049087 0.389742 0.103162 0.294939 0.234344 0.295289 -0.081929 0.282362 -0.028004 -0.169731 0.648137 -0.041644 -0.264747 0.078295 -0.285993 0.467328 0.217860 0.008340 0.066036 -0.249972 -0.216614 -0.555502
537 -0.236272 0.126710 0.207304 -0.105760 -0.189770 0.089503 -0.130537 0.036148 -0.118919 0.194521 -0.130145 -0.065204 0.108133 0.099956 -0.103054 -0.028097 0.152457 0.232868 -0.155805 -0.319154 0.381048 0.046213 -0.243877 -0.198803 0.092727 -0.216771 0.211658 0.254054 0.106522 -0.402303 -0.287174 -0.373958 -0.406142 0.165986 0.062930 -0.424952 -0.531047 0.418082 -0.125525 0.421841 -0.323957 0.156743 0.095277 -0.156139 0.132039 -0.168412 -0.035931 -0.100296 -0.341544 -0.094330 -0.095890 0.214877 0.184767 -0.403579 -0.084434 -0.420671 -0.144234 -0.264857 -0.180512 0.014953 -0.137774 -0.151184 -0.042785 -0.119918 0.106688 0.041903 0.010450 0.843055 -0.234938 -0.224789 -0.178311 0.062691 -0.102037 -0.447763 0.031420 -0.065144 -0.010619 -0.076876 0.149585 -0.077518 -0.011403 -0.320919 -0.198363 0.098281 0.180557 -0.149555 -0.338529 0.214043 0.559424 0.018702 -0.113639 -0.122095 -0.279076 -0.108723 -0.524081 -0.154089 0.475255 -0.015165 0.333190 -0.184981 -0.099629 0.050814 -0.091296 -0.093254 0.472900 0.083642 0.441888 0.159571 -0.050738 -0.081117 0.165800 -0.001978 0.139873 0.098491 -0.273386 -0.490001 0.216427 -0.142082 -0.229912 -0.548772 -0.027494 0.504959 0.279516 0.344996 -0.082710 -0.392149 -0.093011 -0.400395
1031 -0.806043 -0.073901 -0.081930 0.329967 0.063946 -0.011464 -0.147474 0.111275 -0.265054 -0.287050 0.344722 0.109240 -0.459527 -0.301893 -0.230676 -0.131820 -0.019448 -0.171091 0.109927 -0.212269 -0.246876 0.276148 -0.278314 0.147689 -0.204958 -0.360964 -0.431194 0.361781 0.507555 0.396608 -0.067510 -0.236726 0.115999 0.128383 0.325307 0.125458 -0.489235 0.418000 0.054813 0.700466 -0.112090 -0.411365 -0.078274 -0.390250 -0.434201 0.223446 0.117827 -0.402216 -0.026886 -0.082138 -0.282298 0.167858 0.013455 -0.099251 0.229990 -0.165643 -0.105721 0.149548 -0.578401 -0.402850 -0.108315 0.039086 -0.024066 -0.322651 0.130416 0.019276 0.303403 0.218557 0.166161 -0.157262 0.088690 0.108684 0.232629 0.005144 0.040441 0.183068 -0.299715 -0.333850 -0.685735 0.375161 -0.013516 -0.407029 -0.581698 -0.280533 -0.098464 0.093727 0.565323 0.409448 -0.223072 0.370012 0.578257 -0.098964 -0.124610 0.313723 0.253013 -0.300679 0.109149 0.509943 0.085142 -0.362212 0.227161 0.026154 0.206281 0.136089 -0.004534 -0.498884 -0.118050 0.325393 -0.125878 0.012362 0.241157 0.064963 0.353645 -0.108615 -0.010669 -0.389814 0.537055 -0.266177 -0.664318 -0.050297 -0.033558 0.669656 0.034424 0.377318 0.043730 -0.976502 -0.414943 -0.468870
1917 -0.361213 -0.016532 -0.611687 0.600052 -0.250215 -0.305659 -0.293834 0.215754 0.441972 -0.293827 0.468514 -0.314965 0.447703 0.030865 -0.179648 0.087343 -0.157066 -0.130388 -0.053935 -0.244290 0.142698 -0.140365 0.337128 -0.568734 -0.061356 0.434865 -0.346544 -0.114576 0.586449 0.134116 -0.807255 -0.086448 -0.128548 -0.479137 0.059894 -0.008603 -0.400929 0.141471 -0.108643 0.033896 -0.138196 0.137327 -0.001355 -0.355102 0.374148 -0.156094 -0.015256 0.265057 0.478547 0.433842 -0.171788 0.232034 -0.381348 0.397703 -0.328123 -0.432879 -0.063899 -0.284312 0.375830 -0.207152 0.024470 -0.320620 -0.095874 -0.096952 0.089180 -0.691070 0.144955 0.502242 -0.062796 -0.114713 0.312171 -0.505555 0.436796 0.336661 0.082992 -0.091233 -0.123754 -0.334194 -0.047526 -0.070590 0.424728 -0.267165 0.052171 -0.770028 0.320763 0.165404 0.028126 0.156520 -0.602751 -0.042293 0.150658 -0.201426 -0.115466 0.316041 0.187293 0.275377 -0.296984 -0.086429 0.290696 -0.453099 -0.278599 0.075077 -0.303051 0.043315 0.304280 -0.102159 0.367696 -0.082701 0.203797 -0.667865 -0.348519 -0.737229 -0.226824 -0.000124 -0.554361 -0.340834 -0.054102 0.028008 -0.303706 -0.090967 -0.625787 0.136255 -0.252878 -0.230354 -0.411041 0.066193 0.435635 -0.620938
3120 0.766962 0.438682 -0.774091 0.322060 0.162059 0.032962 0.019703 -0.283908 -0.353140 -0.364196 0.296780 -0.226575 0.210337 0.207850 -0.541281 -0.408970 -0.051779 -0.217052 0.163916 0.173908 -0.058754 0.314902 -0.192760 0.180714 -0.157518 0.114540 -0.110707 0.046322 0.306836 0.402686 0.556271 -0.244125 -0.290559 -0.011155 -0.360778 0.028103 -0.291550 -0.165343 -0.511141 0.058274 0.200533 0.222839 0.205282 0.142132 0.336973 0.528646 0.144452 0.169468 0.130716 0.132690 -0.119073 0.650428 0.131208 -0.115843 -0.400687 -0.351153 -0.011217 -0.016258 0.505412 0.079069 -0.271444 -0.080583 -0.423473 -0.131842 0.178688 -0.185615 0.549700 0.314778 -0.517873 -0.514530 -0.353468 0.143107 0.653277 -0.266949 -0.320739 -0.540924 -0.463295 -0.045107 -0.427243 0.006589 1.233798 -0.467551 -0.576862 0.203652 0.210938 0.017356 -0.169729 0.532837 0.088026 0.642299 -0.408006 -0.227528 -0.222340 0.210704 0.330887 -0.033646 -0.045539 0.195372 -0.403358 -0.360938 0.411743 0.438953 -0.112488 0.205082 -0.093115 0.143031 0.212907 0.101155 0.469943 -0.955710 0.201360 0.421986 0.163154 0.047596 -0.389034 0.424262 -0.173385 0.079630 0.195322 -0.214773 -0.190959 0.132848 0.501909 -0.229661 -0.163239 0.356315 -0.342830 -0.136635
531 -0.115677 0.060348 0.160645 -0.224893 -0.126275 -0.014431 0.097162 -0.103974 -0.065132 0.022712 -0.219634 -0.018441 -0.064643 0.057627 0.018449 -0.137142 0.113963 0.249429 -0.056958 -0.217398 0.214417 -0.118443 -0.402906 -0.210404 -0.180807 -0.272855 0.084201 -0.044281 0.073724 -0.262059 -0.307624 -0.161169 -0.512566 -0.090025 0.222603 -0.379079 -0.357533 0.213243 -0.181233 0.472659 -0.094427 0.327449 0.236737 -0.072328 0.062941 -0.410754 -0.209731 0.004434 -0.132028 -0.042966 -0.041168 0.412372 0.224490 -0.262167 -0.119301 -0.427581 -0.340026 -0.097930 0.001355 -0.000186 -0.530225 -0.274596 -0.167035 0.203785 0.020746 -0.034870 0.187973 0.796504 -0.273394 -0.307008 0.036913 -0.057826 -0.402888 -0.426840 -0.255708 -0.414423 -0.230560 -0.268934 0.196633 -0.008812 -0.289300 -0.252168 -0.319706 -0.023584 0.156821 0.090337 -0.282919 -0.050050 0.275433 0.023382 0.118855 0.192884 -0.116073 -0.205778 -0.186436 0.104866 0.325686 -0.036472 -0.237435 -0.205639 -0.129378 0.007751 0.236444 0.182276 0.691613 -0.001078 0.283091 0.125725 -0.126294 0.073694 0.011976 0.464239 -0.066611 0.175844 -0.178844 -0.405029 0.244940 -0.321466 -0.457534 -0.637549 0.025520 0.563863 -0.027891 -0.238077 -0.155459 -0.612339 -0.108115 -0.220249
1757 -0.237786 -0.095260 0.185253 -0.293401 -0.122722 -0.248851 0.328962 0.141339 0.033780 -0.037557 0.288841 -0.081815 0.216031 -0.109132 -0.668513 -0.253757 -0.707463 0.217232 -0.365622 -0.181346 0.381468 -0.225969 -0.374142 -0.251081 -0.154013 -0.149886 0.286280 0.164579 -0.125770 -0.218154 -0.772313 -0.265104 0.274145 0.182845 0.108540 0.118397 -0.366437 0.221157 0.571516 -0.048426 0.117477 -0.019526 -0.315420 -0.195851 -0.111496 0.344533 0.468985 0.235124 0.025585 -0.107115 0.052178 -0.061638 0.267573 -0.561038 0.553710 -0.111682 0.099232 -0.084249 0.221917 -0.350432 -0.701414 -0.461787 -0.547663 0.243162 0.478499 0.198137 0.110057 -0.332938 -0.241686 -0.346485 -0.021120 0.319972 0.395670 0.446633 -0.226845 -0.461675 0.591902 -0.346154 -0.002631 0.215711 0.321415 -0.558518 -0.030961 -0.181194 0.413383 -0.215228 0.220411 0.448016 -0.538785 -0.134944 -0.289090 0.124731 -0.332264 -0.566986 0.214412 -0.513066 0.228361 0.070863 0.174376 -0.196795 -0.435034 0.170604 -0.029480 0.453308 -0.045471 -0.204079 0.099998 -0.160835 -0.210944 0.078017 0.643812 0.427265 0.141703 0.100019 0.116271 -0.458156 0.565516 -0.187534 0.285289 -0.300426 -0.328086 0.163523 0.376736 0.081979 -0.103003 -0.451463 0.288071 -0.855920
1962 -0.026669 0.180659 0.327267 0.004445 0.234201 -0.452151 0.212024 0.129233 0.326372 0.075781 -0.118745 -0.051100 0.134682 -0.109826 -0.176993 -0.222522 0.327987 -0.056927 -0.489354 -0.049243 0.122488 -0.042233 0.239501 -0.519407 0.413708 -0.325762 0.223382 0.056109 -0.031404 0.252603 -0.430568 0.276029 -0.532583 0.192534 0.123783 0.279680 -0.210143 0.272334 0.183253 0.262839 -0.013212 -0.072068 0.329556 -0.286054 0.093159 -0.172752 -0.421929 -0.334166 -0.243517 0.179346 0.338616 0.266305 0.586580 0.156438 0.249974 -0.209611 -0.244437 -0.053390 0.113388 -0.236297 -0.039890 -0.513763 -0.304479 0.338312 0.025290 -0.080965 -0.022963 0.334062 0.267843 -0.317490 0.062928 -0.023603 0.082492 0.365272 -0.442745 -0.316944 -0.294375 -0.058974 -0.234620 -0.259463 0.011054 -0.466761 -0.314204 -0.142896 0.252956 -0.546674 -0.005841 0.130179 0.377130 0.308274 -0.387022 0.256119 -0.321357 0.228202 -0.111504 -0.271716 0.075087 0.553485 -0.395634 -0.114053 -0.302666 0.054890 0.189480 0.351274 0.317371 -0.173675 0.100909 0.015338 -0.341480 -0.084768 0.098389 -0.096578 -0.022201 0.133648 -0.224786 -0.448655 0.033285 -0.461358 -0.315068 -0.832294 0.182276 0.278914 0.126502 -0.209268 0.221670 -0.217978 -0.456772 -0.241383
3315 0.297288 -0.116479 -0.082730 -0.352461 -0.304681 0.099658 -0.170770 -0.238659 -0.350582 0.190697 -0.136627 0.313013 -0.199663 0.272275 -0.544064 -0.137621 0.242792 0.037271 0.003114 -0.396813 0.347252 0.100434 0.068176 -0.462915 -0.267269 -0.314383 -0.012219 0.014569 -0.057356 -0.227493 -0.420797 -0.378516 -0.149889 -0.141900 0.093436 0.041584 -0.362143 0.672153 0.149536 0.210486 0.034582 -0.026766 -0.069166 0.097930 0.327851 -0.576114 0.007240 0.022528 -0.212354 -0.248067 -0.136653 0.018517 -0.034585 -0.328779 0.091462 -0.174983 -0.223216 -0.017873 -0.261735 0.201365 -0.071524 -0.108226 -0.546417 0.328990 -0.328834 -0.192552 0.066849 0.309268 -0.098566 -0.276775 -0.332916 -0.300798 0.173883 -0.377265 -0.145644 0.172758 -0.349664 -0.343357 0.050539 0.166187 0.103988 -0.267270 -0.138519 -0.037694 0.298045 -0.470262 -0.056326 0.413942 0.391777 0.012996 -0.052602 0.015084 -0.141684 0.087649 0.029008 -0.161648 0.278246 0.337588 -0.026934 -0.042315 -0.136229 0.171813 0.334369 0.148184 0.792156 -0.060565 0.333920 0.529107 -0.186031 -0.079328 0.308352 -0.000692 0.448118 0.160317 -0.423077 -0.350717 0.494160 -0.340315 -0.205440 -0.234312 0.008259 0.369353 0.042929 0.087710 -0.025176 -0.759631 -0.239750 -0.298636
1493 -0.426618 -0.105026 -0.403063 0.125575 0.724103 -0.619505 -0.211826 -0.262370 -0.011324 -0.270960 0.559130 0.408457 0.311317 -0.096925 -0.396145 0.542507 -0.236933 0.374327 -0.645279 0.298789 -0.054683 0.556530 0.361607 -0.106679 -0.040677 0.084168 0.229702 0.683141 0.711002 -0.248348 0.056516 0.147322 -0.345882 -0.213816 -0.070831 -0.596352 0.374749 0.739681 -0.461386 -0.277302 -0.301049 0.127155 0.254291 0.230085 -0.083197 -0.148226 0.666070 -0.008074 -0.460134 0.013260 0.008350 0.071350 0.091858 -0.543984 -0.129572 -0.324400 0.772521 -0.278912 -0.236363 -0.823075 -0.189541 0.070932 -0.635290 0.140706 0.495876 0.099887 -0.128795 0.048377 -0.140234 -0.102421 -0.166202 -0.517595 0.030269 -0.164977 -0.328078 -0.044181 -0.782636 -0.563844 -0.004190 -0.029359 -0.064237 0.281740 -0.505273 -0.801740 1.140359 -0.576060 0.327714 0.033060 -0.002488 -0.531840 0.282890 0.148019 -0.165140 -0.042361 0.333021 -0.881088 -1.081123 -0.339771 0.005640 -0.010491 -0.553395 0.874393 -0.501257 -0.233365 0.310558 -0.415907 0.117050 -0.356737 0.441728 -0.810075 0.423250 1.038768 -0.388218 0.211684 -0.577027 -0.813336 0.215708 -0.077398 -0.598512 -0.422379 -0.672673 0.295411 0.402527 -0.493486 1.083323 0.298582 0.678569 0.148201
0 -0.179065 0.233776 0.162480 0.364797 -0.030186 -0.461858 0.016314 0.148410 0.019241 0.315930 0.223242 0.007504 -0.073856 -0.360385 -0.351149 0.264936 -0.110456 0.369740 0.115213 0.265472 -0.118503 0.224013 0.145407 0.150135 -0.111017 0.197185 0.096251 0.057250 0.459017 -0.219182 -0.746095 0.061253 -0.176887 0.379038 -0.457016 -0.192139 -0.335672 0.212917 -0.968101 -0.182346 -0.386464 -0.323391 -0.036785 -0.323897 0.099933 0.438581 0.188759 -0.604061 -0.347149 0.101909 0.691600 0.176350 -0.677696 -0.141054 -0.146098 0.094312 0.302161 0.064034 -0.395855 0.187659 0.091303 0.812944 -0.002485 0.364259 -0.114909 -0.490455 0.205443 -0.129979 -0.249346 -0.251724 0.145800 0.177541 0.286681 0.546241 0.006665 0.028650 0.069193 0.005469 -0.087179 -0.253799 -0.531704 -0.351810 -0.482470 0.014711 0.076183 0.226074 -0.166693 0.476232 -0.321443 0.248411 0.622823 -0.235545 -0.041473 0.434047 0.318358 0.067224 0.263704 -0.171698 -0.432396 -0.714039 0.103983 -0.330852 -0.156393 0.137551 0.413326 0.092834 -0.289160 -0.093576 0.460798 -0.324451 0.628826 -0.088440 -0.130608 -0.199309 -0.632187 -0.513472 0.136910 -0.059431 -0.255991 -0.433211 0.041311 0.348137 -0.131132 -0.130067 -0.345245 -0.142974 -0.462716 -0.245280
2281 0.037493 0.179551 0.331493 -0.121333 0.269293 -0.360580 0.289193 0.056846 0.394925 0.062354 -0.129320 0.002651 0.289773 -0.276755 -0.198237 -0.140122 0.436514 -0.000482 -0.227175 -0.069629 0.120830 -0.022762 0.051164 -0.486305 0.346560 -0.188879 0.102674 -0.025982 0.119142 0.286612 -0.415695 0.275543 -0.548944 0.350427 0.007473 0.069732 -0.119710 0.384370 -0.268196 0.200658 0.200211 0.142849 0.163000 -0.304715 0.097961 -0.287728 -0.443874 -0.447120 -0.045786 0.097290 0.269238 0.180800 0.458322 0.182039 0.174885 -0.261257 -0.158979 -0.080349 0.062210 -0.397171 -0.157982 -0.412655 -0.418808 0.392768 0.176051 -0.068167 -0.179368 0.391024 -0.000425 -0.445461 0.097199 0.201096 0.034438 0.085794 -0.370714 -0.455992 -0.138051 0.085537 0.075338 -0.235822 0.015260 -0.549781 0.015856 -0.211470 0.413782 -0.567789 0.128095 0.242515 0.470093 0.255860 -0.109455 0.146408 -0.026422 0.092948 -0.171200 -0.200863 0.123197 0.592314 -0.392825 -0.291887 -0.399816 0.061250 -0.146504 0.366643 0.205665 -0.187290 0.186505 -0.058783 -0.345602 0.096155 -0.187373 0.056639 0.103510 0.073087 0.106983 -0.486395 0.027290 -0.521345 -0.396724 -0.531206 -0.008038 0.472162 0.269625 -0.047443 -0.088275 -0.233105 -0.320272 -0.354609
3039 -0.040543 -0.057489 0.509560 -0.428740 -0.098341 0.117548 -0.543180 -0.146867 0.240104 -0.223374 0.275435 -0.454655 -0.553344 0.161805 -0.020666 0.672486 -0.105871 0.019769 -0.124453 0.216147 0.110369 0.548369 -0.497068 -0.400197 -0.672577 -0.914275 0.328824 0.204506 0.109795 0.205871 -0.131010 -0.223027 -0.946410 -0.466780 -0.436772 0.376836 -0.308594 0.341625 0.032285 -0.017353 -0.033901 0.529017 0.013842 -0.179452 0.371946 0.331371 -0.022794 -0.130940 0.177075 0.195805 0.313203 0.135610 -0.471270 0.452327 -0.240892 -0.301603 -0.496326 -0.060524 -0.149028 0.278197 -0.124277 -0.451022 0.084779 0.072109 0.360993 0.133473 -0.304984 0.668524 0.592500 -0.448317 -0.517894 0.219444 0.125304 -0.479668 -0.269019 -0.219240 0.195809 0.089033 -0.299739 -0.135407 0.149794 -0.335478 -0.178676 0.319500 0.775822 0.002714 0.024697 0.547471 -0.279881 0.128132 -0.465035 -0.005642 0.069242 0.258108 -0.134290 0.014192 -0.383073 0.277424 0.351268 -0.334455 -0.510968 0.068596 0.247626 -0.474402 0.198712 0.023511 -0.122359 0.084675 0.301731 0.527923 0.246639 0.337539 0.068272 0.505381 0.199641 -0.160223 0.393267 -0.153737 -0.486780 0.317622 -0.248965 0.618813 0.310632 -0.060758 -0.126532 -0.526962 -0.333179 -0.450423
2934 -0.415115 -0.061438 -0.428554 0.333809 -0.165303 0.045110 0.550974 0.017148 0.010480 0.060866 0.139269 0.305509 0.419055 -0.185462 -0.045441 0.251914 -0.741846 -0.010087 -0.297678 0.114187 -0.410479 -0.320000 0.669941 -0.003045 -0.305714 0.256940 -0.041627 -0.201243 0.576596 -0.283939 -0.276445 0.615913 0.011644 -0.527126 -0.543042 0.448616 -0.135185 0.086117 -0.503035 -0.252935 -0.336772 0.185473 -0.223379 -0.312167 -0.044060 -0.038952 -0.041253 0.127482 -0.084814 0.349164 -0.481821 0.351099 -0.099858 -0.216414 -0.234692 -0.213597 -0.406438 0.113678 0.269105 0.292742 -0.506002 -0.088441 -0.400866 0.034920 0.316248 -0.741804 -0.248887 0.483516 -0.264929 0.062559 -0.108696 -0.400349 0.220356 0.117698 -0.005409 0.280520 0.216932 -0.074621 -0.145520 0.319778 0.032778 -0.785174 0.189401 0.107606 -0.038917 -0.326200 0.708032 0.605642 -0.339303 0.269214 -0.240140 -0.441586 0.287699 -0.175742 -0.271354 -0.098502 -0.502489 -0.217365 -0.107312 -0.568220 0.078460 -0.260009 -0.318534 0.122091 0.265287 -0.157150 0.259495 0.140704 0.503046 -0.528850 0.167151 -0.097647 0.227355 0.076257 -0.111464 -0.056299 0.179281 0.032351 -0.371705 -0.242240 -0.447243 -0.057447 -0.352071 -0.061556 -0.212069 -0.334571 -0.157570 0.150844
115 -0.333874 0.083377 -0.477754 0.541978 0.154277 0.042414 0.114720 0.096330 -0.066525 -0.203953 0.204311 -0.862273 -0.015390 -0.309745 -0.264878 -0.324061 -0.220643 0.092773 -0.341669 0.011320 0.120777 -0.261690 -0.430271 -0.023624 -0.572608 0.452541 0.067037 0.160056 0.318669 -0.078011 -0.570199 -0.018726 -0.036708 -0.419761 -0.725852 -0.135620 0.365104 0.050816 -0.627667 -0.355010 0.012914 0.455439 -0.082414 -0.059844 -0.035597 -0.110321 0.142531 -0.335340 0.298898 0.263454 0.024221 0.879255 0.169372 0.215970 -0.357152 0.299423 -0.701926 -0.646340 -0.157187 -0.099657 -0.311660 0.276604 0.412272 -0.206741 0.111646 -1.180587 -0.394430 0.082998 0.006823 -0.479035 -0.211315 -0.087188 0.136386 0.128792 -0.241963 0.263684 -0.296690 0.359581 -0.122917 0.221915 0.283499 -0.064451 0.055196 0.010669 -0.561348 -0.530104 0.349375 0.516576 -0.181315 -0.245722 0.094381 0.118452 -0.086634 0.096145 -0.035668 -0.873820 -0.057451 0.035913 -0.053073 0.094899 0.439889 0.019979 0.242877 0.485072 0.583749 -0.049035 0.057616 0.116591 0.280123 -0.302380 -0.107672 0.003331 -0.327757 -0.187833 -0.541808 -0.096841 -0.019881 0.212205 -0.525258 -0.254985 -0.465025 0.085949 -0.387326 -0.438268 -0.506235 0.276804 0.497285 -0.955584
1910 -0.244842 0.137765 -0.621532 0.475926 -0.607183 -0.292793 0.031045 0.400245 0.586232 -0.124332 0.275802 -0.388026 0.546264 -0.050781 -0.313219 -0.153963 0.123783 -0.248313 -0.031054 0.377213 0.323301 -0.193032 0.461057 -0.733317 -0.205368 0.437221 -0.196295 -0.024025 0.350560 0.302249 -1.112416 -0.067614 -0.210994 -0.531136 0.068247 -0.028556 -0.208377 -0.051460 -0.104365 -0.213163 -0.137694 0.270217 -0.145966 -0.303274 0.498636 -0.047870 -0.188365 0.174620 0.340639 0.333602 -0.154044 0.021029 -0.288180 0.407630 -0.364269 -0.776087 0.015815 -0.388487 0.089622 -0.545649 0.360303 -0.331191 0.008716 -0.011254 -0.001170 -0.438395 0.296142 0.406040 -0.118278 0.153008 0.192491 -0.324174 0.260685 0.425279 0.248106 0.007858 -0.435215 -0.367570 -0.138722 0.050437 0.379659 -0.276622 -0.100053 -0.515480 0.212807 0.367721 0.201093 0.085651 -0.394323 0.096826 0.217703 -0.115823 0.062469 0.353614 -0.083887 0.460691 -0.266400 -0.217313 0.267356 -0.586027 -0.415954 -0.114951 -0.325029 -0.056841 0.429577 -0.080285 0.441817 -0.028856 0.307216 -0.788302 0.089239 -0.429969 -0.339851 0.139732 -0.434680 -0.103484 0.283277 0.210894 -0.362386 0.099202 -0.672459 0.422361 -0.157107 -0.048902 -0.260441 0.197091 0.414764 -0.838831
8 -0.515345 0.433721 -0.226468 0.408708 -0.106076 -0.651411 -0.143856 0.242361 0.067162 0.000959 0.375231 -0.195105 0.315914 0.101368 -0.303087 0.242521 -0.056283 -0.081993 -0.014772 0.127945 0.222285 0.341738 0.197833 -0.058204 0.072362 0.672442 -0.066815 -0.235878 0.311041 -0.081128 -0.838487 0.304652 -0.106943 0.158641 -0.245089 -0.301773 0.127453 0.011108 -0.632021 0.378785 -0.474747 -0.331323 0.142900 -0.585570 0.103656 -0.116669 0.064693 -0.441821 -0.048000 -0.075476 0.139197 0.015473 -0.530178 0.113972 -0.327147 -0.177459 0.162706 -0.595391 -0.369866 0.101392 0.560689 0.449262 -0.143014 0.392438 -0.071604 -0.562539 0.183091 0.060915 -0.080018 -0.652302 0.112832 -0.361319 0.415091 0.572624 0.177222 -0.269940 0.236065 0.079208 -0.035079 -0.093943 -0.046433 -0.356028 -0.060006 0.266348 0.115054 0.192681 -0.025653 0.464612 -0.470782 0.011870 0.220851 -0.216921 0.002848 -0.158184 0.331598 0.105310 0.010647 0.119023 -0.092584 -0.495175 -0.236047 0.035092 -0.307252 -0.048376 -0.027900 0.358876 0.006078 -0.301528 0.622620 -0.806913 0.277997 0.113568 -0.348595 -0.016652 -0.825497 -0.042440 0.225126 0.045118 -0.695395 0.084396 -0.227254 0.564076 -0.069554 -0.282006 -0.183416 -0.243598 -0.012155 -0.312225
188 0.550218 0.358684 -0.817235 0.467825 0.156927 0.010565 0.001426 -0.267921 -0.453919 -0.188772 0.470307 -0.025100 -0.016346 0.103503 -0.363273 -0.346429 -0.104182 -0.048777 0.364215 0.445902 0.033765 0.065961 -0.032132 0.060082 -0.017767 -0.201190 -0.032209 0.025983 0.305030 0.581526 0.374056 0.013880 -0.370179 0.199725 -0.221012 -0.053007 -0.310964 -0.163737 -0.421880 0.278940 0.242135 0.103988 0.416307 0.131020 0.031303 0.688891 0.164472 0.109681 0.152421 0.014953 -0.105330 0.669323 0.077971 -0.093161 -0.234818 -0.446606 0.417767 -0.091394 0.480979 0.086774 -0.406023 0.064412 -0.072254 -0.097732 0.495111 -0.246689 0.294107 0.400540 -0.454317 -0.414774 -0.296925 0.151149 0.729574 -0.296917 -0.495889 -0.276060 -0.281745 0.022536 -0.082684 -0.110895 1.589740 -0.279099 -0.632812 0.126665 0.300287 -0.116332 -0.247662 0.832208 0.346541 0.540912 -0.525348 -0.137137 -0.407510 0.449992 0.112603 0.079692 -0.072158 -0.113513 -0.399549 -0.228131 0.024933 0.710299 0.209395 0.076899 -0.232821 0.133851 0.432693 0.144807 0.283869 -1.008635 0.334503 0.490793 0.148942 0.132154 -0.304288 0.325935 -0.320153 0.018356 0.228986 -0.142657 -0.265803 0.166608 0.426690 -0.214335 -0.229547 0.144865 -0.263059 0.004013
1701 -0.163857 0.133572 -0.559243 0.052549 0.160902 -0.242842 0.190773 0.134854 0.080307 0.143930 0.294002 -0.294529 0.174327 0.004153 -0.493086 0.153278 -0.338983 -0.179939 -0.096454 0.293666 0.176837 0.244443 0.425268 -0.271008 0.015813 0.659924 -0.024197 -0.004707 0.716786 0.186337 -0.854818 0.285539 -0.050191 -0.339770 0.078087 -0.478372 -0.063313 0.094495 -0.217308 -0.131447 -0.049827 -0.037298 0.146943 -0.080623 0.390790 -0.359055 -0.073936 -0.449234 -0.120889 0.124096 -0.114973 0.318787 -0.507810 -0.360175 -0.675797 -0.611290 -0.286912 -0.451730 0.159959 -0.665805 -0.260178 0.382598 -0.102116 0.075400 0.248419 -0.131165 0.115072 0.225788 0.351622 -0.175931 -0.026852 0.081476 0.283348 -0.138633 0.236239 0.066292 0.227705 -0.847562 0.190631 -0.611744 -0.303904 0.096055 -0.149310 -0.497672 0.031045 -0.204001 -0.009995 -0.225972 -0.914258 0.059516 0.172006 -0.051083 -0.365343 0.522774 0.113165 -0.456321 -0.465335 -0.184285 -0.134103 -0.116260 -0.238617 0.684296 -0.483976 0.080423 0.083392 0.256941 -0.137603 -0.057593 0.397244 -0.307544 -0.317563 0.574218 -0.459427 -0.040522 -0.828702 -0.243510 0.480166 0.190884 -0.872239 -0.337847 -0.609501 -0.055261 0.191937 -0.176367 0.356754 0.248119 0.539236 -0.547219
285 -0.253337 0.622606 0.159415 0.160442 0.088474 0.275206 -0.298193 0.068880 0.079942 -0.237174 0.294955 -0.173888 -0.391603 0.067956 -0.070796 -0.168337 -0.216969 0.219359 0.127791 -0.096040 -0.232799 0.137322 -0.054977 -0.447601 -0.287614 -0.345078 0.099287 0.291974 0.539275 0.111828 -0.034569 0.121278 -0.323149 0.363796 -0.202614 -0.230627 -0.223463 0.295910 -0.067310 0.355182 -0.422179 -0.170640 0.166061 -0.055816 -0.102338 0.100172 -0.098166 0.057815 -0.482233 0.218099 -0.258385 -0.150551 -0.396900 0.379391 0.875919 -0.490631 -0.306510 -0.078645 -0.183742 -0.295010 -0.046362 -0.222460 -0.214834 0.173272 -0.043918 -0.061950 0.137790 0.177142 0.069181 -0.310335 0.191573 -0.116777 0.058362 -0.169918 -0.207222 0.180217 -0.143225 -0.395367 -0.237829 0.266322 0.182512 -0.615139 0.014123 -0.373142 0.145846 0.009774 0.281156 0.241856 0.171695 0.215579 0.252997 0.007988 -0.274692 0.096353 -0.153581 -0.618736 0.265230 0.193119 -0.069021 -0.417977 0.249223 -0.150224 0.347868 -0.076612 0.130174 -0.337448 -0.519663 0.116290 0.140868 0.139366 0.311074 0.134577 0.025572 0.072971 0.125293 -0.185622 0.287721 -0.298604 -0.621403 0.038230 0.011684 0.231189 0.191022 0.328455 0.184980 -0.562059 -0.425533 -0.283195
649 -0.202702 0.126325 0.333962 0.407458 0.000676 -0.125489 0.664269 0.304457 0.285051 0.104308 0.532416 0.402997 0.225010 -0.250767 -0.441547 -0.241222 -0.443647 0.838531 -0.604663 0.195308 0.353047 -0.249735 -0.088175 0.128264 -0.150745 0.193279 -0.017032 -0.003967 0.640877 0.055011 0.273952 0.138934 -0.278315 -0.686890 -0.365825 -0.464196 -0.048242 0.312755 -0.136305 -0.133840 -0.091154 -0.180851 -0.438512 -0.429607 -0.259826 -0.251452 0.735472 0.338714 0.799021 -0.072362 -0.128312 -0.107046 0.152798 -0.618569 0.252305 0.064321 0.516956 -0.365300 0.219046 -0.184619 -0.350586 -0.381602 -0.416432 -0.063832 0.370018 -0.146722 0.273981 -0.246381 -0.607615 -0.655077 0.076204 -0.038874 -0.135268 -0.274654 0.146118 -0.393531 0.014875 0.000790 0.506006 -0.459895 0.018414 -0.298315 -0.153890 -0.563527 0.462182 -0.471588 0.310282 -0.337442 -0.134359 0.212510 -0.021101 0.385001 -0.895510 -0.177028 0.003135 -1.060374 -0.407887 -0.158624 -0.089647 -0.490652 -0.683123 0.159780 0.065590 0.109181 0.484083 0.182045 -0.617780 -0.202625 0.323118 -0.083715 0.502016 0.416321 0.292986 0.125800 0.491923 -0.182608 0.343534 -0.090002 0.080879 0.049493 -0.465217 0.387174 0.230865 0.156523 0.255886 -0.167525 -0.645079 -0.925163
3128 -0.505126 0.517659 -0.853483 0.149734 -0.079104 -0.396409 -0.532307 -0.373333 -0.487400 0.419718 0.445155 -0.429323 -0.478934 0.192750 -0.096455 -0.151903 -0.088386 0.417543 -0.737619 -0.127336 -0.724024 -0.316021 0.323295 -0.020182 -0.010366 0.289839 -0.117517 -0.367368 0.262243 -0.220108 -0.072174 0.405385 0.019703 -0.265400 -0.065064 0.024764 -0.442838 -0.033375 -0.368112 -0.328538 -0.260348 -0.099019 0.141531 -0.282515 -0.553296 -0.085052 -0.034290 -0.244728 0.567894 0.395083 -0.072791 0.035509 0.100030 0.424930 -0.173253 -0.366572 0.394958 -0.801981 0.404391 -0.025771 -0.634114 -0.166565 -0.050484 0.151261 -0.386040 -0.107114 0.068870 0.277623 -0.085173 0.255966 -0.246967 0.053607 0.024657 -0.515273 -0.199296 0.319634 0.019306 0.237248 -0.321122 0.017906 0.325457 0.002790 -0.205185 -0.439005 0.072708 -0.413643 -0.352355 0.946739 -0.904013 0.584504 -0.425793 -0.178270 0.082496 -0.078818 -0.206003 -0.122831 0.352232 0.230574 0.303076 -0.106672 -0.092890 -0.098898 -0.053934 0.228684 0.712544 -0.239969 -0.233046 0.205154 0.390802 -0.618756 0.002388 0.309297 0.063476 -0.090105 0.203144 -0.478433 -0.221929 -0.109464 0.031299 0.301224 -0.827307 -0.229647 0.204073 -0.296477 -0.279711 -0.742548 0.373391 -0.071560
124 -0.451360 1.014883 -0.341974 0.346699 0.016588 0.111291 -0.301223 1.146680 -0.229544 -0.059139 -0.912645 0.200556 0.142627 0.462013 -1.075292 -0.806505 0.514386 0.339605 0.404268 0.205959 -0.027896 -0.325397 0.745470 -0.582851 -0.307083 1.088993 1.156390 1.363294 0.819492 0.422547 -0.050129 -0.077587 -0.726504 -0.688246 -0.619663 0.684039 -0.332024 0.558000 -0.001338 -0.403187 -0.365066 0.928655 -0.404164 0.375437 0.015579 -0.029403 1.502635 0.170655 -0.061481 -0.413960 0.464507 -0.157521 -0.851214 -0.097218 0.079914 0.386826 -0.422308 -0.770256 -0.056538 0.519968 0.033481 0.060125 -0.583448 -1.048073 1.495808 -0.024134 1.097942 0.381194 -0.484926 -0.516823 -0.234882 0.053578 0.244305 -0.753280 -0.396934 -0.807028 0.441016 0.277430 -0.019880 1.543149 0.273982 -0.337914 -0.341911 -0.399810 0.311821 -0.888608 0.206770 0.374962 0.171168 0.951902 -0.173926 -0.908217 0.332750 -0.204475 0.735228 0.221986 -0.589259 0.561647 -0.126357 0.380896 -0.543232 0.650134 -0.030504 -0.077668 0.740642 0.274015 -0.535116 0.838841 0.548277 0.476655 0.374317 0.221322 -1.619482 0.473813 -0.456904 -0.488207 -0.022670 -0.027100 -0.827411 -0.084825 0.559965 -0.136054 -0.622416 -0.068495 0.447102 -0.316001 0.444066 0.087064
3045 0.710494 0.402182 -1.163948 0.427498 0.030886 -0.159728 0.527184 -0.185839 -0.427434 -0.537870 0.002545 -0.306751 0.243643 0.463131 -0.369173 -0.925117 0.012067 -0.539329 0.402487 0.041216 -0.325341 0.479773 0.201405 -0.368259 -0.255983 0.050392 -0.106394 -0.158980 0.566060 -0.176758 0.231957 -0.526146 -0.807420 0.202698 -0.121759 -0.205417 -0.550673 -0.255960 -0.403942 0.221443 0.276704 0.291467 0.387802 0.108425 0.191237 0.614380 0.079169 0.225081 0.341228 0.142884 0.239232 0.418149 0.282459 0.167004 -0.538428 -0.364917 0.511083 0.107339 0.066525 0.032560 -0.793163 -0.330992 -0.402882 -0.146079 0.284596 -0.030778 0.550106 0.223124 -0.426316 -0.294296 0.129014 0.376014 0.453882 0.068787 -0.329853 -0.451024 -0.761975 -0.056676 -0.337545 -0.181303 0.770972 -0.302734 -0.366211 0.086707 0.312239 0.091986 0.286356 0.174645 -0.249928 1.012728 -0.539227 -0.604670 0.117557 -0.219314 0.256108 -0.370793 -0.283383 0.233449 -0.191470 -0.119313 -0.001362 0.149936 -0.190896 -0.055039 0.036903 0.596582 0.051259 0.014071 0.502359 -1.023772 -0.163304 0.410690 0.158340 -0.136487 -0.275674 0.288139 -0.022737 -0.098596 0.194950 -0.094461 -0.263782 0.013943 0.219810 -0.181245 -0.140233 0.484062 -0.727903 -0.191065
451 -0.323096 0.798972 -0.095642 0.252671 -0.271176 -0.158485 0.569238 0.542843 0.323509 0.176409 0.416710 0.018279 -0.267673 0.143694 -0.138144 0.328144 -0.283118 -0.219513 -0.457320 -0.111430 0.208617 0.219342 0.577312 -0.208679 0.120983 0.169248 0.657662 -0.327583 0.155808 0.221222 -0.947302 0.217085 0.091783 -0.432443 0.202663 -0.079540 -0.074982 0.337707 -0.145556 0.629453 -0.240785 0.316135 0.212589 -0.304747 0.120075 -0.177976 -0.319075 0.191807 0.530321 0.051387 -0.407797 0.522313 0.187106 0.453289 -0.368858 -0.024477 -0.304919 -0.039821 0.085317 -0.311184 -0.324566 0.293021 -0.251746 -0.181383 0.111910 -0.847690 -0.233130 0.042035 -0.099492 0.233828 -0.446206 -0.369748 -0.023305 -0.031125 0.177418 -0.178731 -0.020637 -0.111652 -0.124082 -0.314657 0.300300 0.007431 0.221518 -0.327396 -0.108765 -0.076819 0.018182 0.427055 -1.031593 0.489372 0.615385 -0.507618 -0.312213 0.566995 0.374947 -0.353614 -0.491429 -0.524632 0.121357 -0.357882 0.093203 0.049331 -0.243222 0.066359 0.482234 -0.168192 0.164147 0.272527 0.260501 -0.663391 -0.133436 0.484669 -0.208379 -0.170211 -0.667977 0.022742 0.418734 0.198051 -0.004005 -0.151769 -0.682137 0.088841 0.073879 -0.131607 0.194513 0.227011 -0.005805 -0.328536
2675 -1.257040 1.655084 0.665766 0.789442 -0.598607 0.462172 0.755806 -0.016009 0.580051 0.387004 -1.362342 0.134942 0.365146 -0.570978 -0.594874 -0.347619 -0.715190 0.504259 0.114098 -0.399990 0.381481 0.377071 0.891502 0.344238 -0.431670 0.970808 0.710761 0.248289 0.914915 0.784417 0.034088 -0.153971 -0.574228 -0.072114 -0.131100 0.679648 -0.004165 0.910537 0.854728 -0.133846 -0.317234 0.383985 -0.195138 0.157535 0.457847 0.993192 0.786570 0.727873 0.016774 0.010187 0.579543 0.367735 -0.153054 -0.275826 -0.610732 0.178939 -0.674298 -0.995899 -0.316592 -0.102587 -0.419992 -0.468762 -1.745865 -0.593141 0.011075 -0.066387 0.432351 0.782090 0.403017 -0.383254 -0.840359 0.026851 0.275889 -0.504503 0.912815 -1.181070 -0.313722 -0.128823 0.839445 -0.356366 -0.359468 0.443325 0.892817 -0.209681 0.495929 -0.250130 0.869354 1.095981 -0.365209 0.916696 -0.324832 0.094198 0.201054 0.061643 0.950350 -0.156754 -0.558028 0.095437 -0.141073 0.234149 -0.675288 -0.095518 -0.366558 -0.237775 0.361542 -0.466348 0.095155 -0.534246 0.453375 -0.324933 0.756612 0.448018 -0.018080 -0.229891 0.459929 -0.303614 -0.054950 -0.489060 -0.113035 -0.039210 0.704373 -0.003872 0.561508 0.308472 0.299312 -1.883024 -0.265981 -0.016189
1782 -0.125468 0.023146 0.049904 0.580412 -0.024751 -0.556016 -0.217773 -0.292754 -0.194601 0.162957 -0.355004 -0.151663 -0.071600 0.105883 -0.099025 -0.166304 0.598996 -0.045110 -0.173759 0.021723 0.013299 -0.054299 0.339697 0.117021 -0.014593 -0.150259 -0.154974 -0.148660 0.489951 0.003792 -0.310215 -0.355698 -0.106865 0.113412 0.291344 -0.148891 -0.468487 0.518027 -0.526974 -0.126915 -0.098625 0.326037 -0.333994 -0.414931 0.048161 -0.095172 0.170443 0.177424 -0.190576 -0.055681 0.360883 0.127693 -0.472270 -0.401043 0.340004 0.247254 -0.581093 -0.228907 -0.551208 -0.055714 -0.740186 -0.018721 -0.022664 -0.027883 -0.322218 -0.118905 -0.299626 0.822941 -0.666464 -0.058659 -0.654669 0.430036 0.159132 -0.203502 0.402226 0.095431 0.116522 0.033850 0.366803 0.049419 0.793271 -0.767703 -0.409407 0.011550 0.187844 -0.304833 -0.532603 -0.329815 -0.332927 -0.458574 0.095515 -0.996175 -0.134735 0.117592 -0.021938 0.197849 -0.201984 0.702193 0.222603 0.123154 -0.897661 0.157314 -0.603533 -0.486623 0.536908 0.001139 -0.009157 -0.492586 -0.249714 0.699011 0.079280 0.113436 -0.090529 0.725815 -0.078008 0.736554 0.494206 0.168030 -0.296322 -0.858598 -0.273069 0.594934 0.177108 0.253162 0.089806 -0.479737 -0.521406 -0.686283
603 -0.511990 1.147346 -0.067904 0.374541 -0.379662 0.023954 0.290162 -0.469353 0.409575 0.544433 0.467298 -0.502815 0.082507 0.167402 0.805969 -0.445401 -0.289260 -0.747345 0.411542 0.706840 1.165532 -0.072980 0.243426 -0.058570 -0.023083 0.509613 -0.278212 0.535656 0.707095 0.048016 -0.720516 0.186274 -1.315791 0.293661 -0.298858 0.417172 0.819380 0.677442 0.013923 -0.353837 0.669470 0.550924 1.114908 0.358695 -0.417486 0.166791 0.671026 -0.272223 0.200611 0.540234 0.893020 0.858400 -0.865073 -0.529648 0.338666 0.642993 -0.077816 -0.297731 0.527396 0.194079 -0.072767 -0.267361 -0.442758 -0.474432 -0.275993 -0.205207 0.310238 -0.091014 0.149202 0.067433 -0.273168 -0.236289 -0.332282 -0.093879 0.502742 -0.174424 0.398179 0.116631 -0.051832 -0.001465 -0.423673 0.539221 0.018783 -0.410147 0.325578 -0.249218 -0.107165 0.537839 -0.196013 0.338944 -0.101809 -0.911007 -0.453349 0.206040 0.614386 -0.195362 0.355615 0.566382 -0.225891 -0.244914 -0.337298 -0.926404 -0.251801 0.194500 0.556750 -0.112506 0.002107 0.104822 0.294015 -0.955339 0.525693 0.156785 0.010808 0.625020 -0.634433 -0.889277 -0.121429 -0.212023 -0.536691 -0.325924 0.427625 0.781977 -0.011572 0.127770 -0.418644 -0.265307 -0.110898 -0.261882
579 0.164288 0.495971 -0.217474 -0.038621 -0.343105 -0.125707 -0.432294 -0.097650 0.182024 0.182182 0.113706 0.267348 -0.112453 0.143705 -0.150739 0.308024 -0.164347 0.120341 -0.068555 -0.072178 0.143075 -0.198720 -0.127828 -0.211626 0.019990 -0.071789 -0.029702 0.229383 0.273667 0.030410 -0.297105 -0.558625 -0.528983 0.121488 -0.176229 0.080296 -0.418206 -0.064772 0.216598 0.316999 0.182701 0.067883 -0.312304 -0.131082 -0.071210 0.011966 -0.209484 0.185056 -0.464307 -0.404453 0.026262 0.124657 -0.094778 0.074289 0.302104 -0.253316 -0.218697 0.297992 -0.174193 0.101722 -0.222155 0.094126 -0.200141 -0.108512 0.225758 -0.134744 0.000407 0.044852 -0.050307 -0.280441 -0.020425 -0.273670 -0.270992 -0.246000 -0.114351 0.024017 -0.323226 -0.478850 -0.181172 0.020272 -0.261399 -0.534197 -0.216232 -0.334328 0.061039 -0.682980 0.116512 0.218716 0.223071 -0.020802 -0.130970 -0.038947 -0.196618 -0.092360 -0.240651 0.196438 0.357185 0.455458 0.034175 0.140204 0.118500 0.423467 0.083655 -0.014048 0.566475 -0.104816 0.191900 0.002753 -0.376075 0.261165 0.218816 0.336827 0.748498 0.160718 -0.438412 -0.254688 0.342341 -0.521604 -0.327108 0.379699 -0.391741 0.746618 0.341593 -0.036854 -0.020431 -0.254530 -0.324166 -0.188008
2264 -0.429734 0.483503 -0.280751 0.501431 0.918524 -0.993169 -0.220498 -0.083181 0.659578 0.471775 0.214494 -0.359318 -0.464982 -0.208904 0.709213 -0.460989 -0.263953 -0.253214 0.941112 0.573953 1.128567 -0.425234 0.131860 -0.452633 -0.253140 0.094208 0.603414 0.702998 0.305291 -0.078930 0.011032 0.476036 -1.029606 -0.494245 0.161082 -0.514889 -0.206855 0.973442 -0.156824 0.028405 -0.428650 0.215821 -0.678800 1.455705 -0.153184 0.191566 1.136528 -0.013503 0.935631 0.243927 -0.019372 1.231476 -0.216854 -0.213876 -0.505104 0.383737 0.093255 -0.995047 1.068500 0.397864 -0.873028 -0.668482 -0.404627 -0.109358 0.205938 -0.436863 0.012226 -0.297994 -0.286632 -0.536057 -0.030074 0.528878 -0.808486 -0.623181 0.732015 -1.330994 0.327600 0.891853 0.756313 0.249039 -0.476030 -0.835238 0.669938 -0.716341 0.484092 -0.863028 -0.190529 0.443166 -0.260605 0.452655 -0.073623 -0.001198 -0.297603 0.359628 0.001403 -0.657462 -0.311266 1.488610 0.066685 0.188461 0.181564 -0.622813 0.756818 -0.000675 -0.074855 -0.034530 0.849081 0.044911 0.842265 -0.438728 -0.773588 0.137282 0.153478 0.703516 -0.075120 -0.571004 1.196809 -0.759798 -0.529845 -0.708407 0.021151 -0.119848 0.733934 0.018104 0.126202 -0.469811 0.579379 0.100556
1204 -0.352740 -0.025635 0.565871 0.264288 -0.316066 -0.300333 -0.544630 0.070269 0.146359 -0.362831 -0.366627 -0.433655 -0.434250 -0.584689 -0.186576 -0.261887 0.293206 0.029467 0.427819 0.023540 0.423569 0.217116 -0.010891 -0.568461 -0.106012 0.080297 -0.169333 0.019504 0.676912 0.128948 -0.089427 -0.080859 -0.711310 0.006387 -0.377160 0.024740 -0.431114 0.606839 -0.531847 -0.105944 0.209271 0.080197 0.252003 -0.719029 -0.276875 0.473954 0.001616 0.508551 -0.317869 0.224131 -0.143097 0.313949 0.219308 -0.278637 -0.077855 -0.482812 -0.047684 0.396503 -0.336001 0.294347 -0.231888 0.067933 -0.534842 -0.199272 -0.354372 0.527750 -0.059877 0.471521 0.046077 -0.239573 -0.240123 0.490392 -0.143469 0.068381 -0.036936 0.015495 0.368720 -0.044380 0.042668 -0.011005 0.252090 -0.177987 -0.240119 -0.012643 0.284790 -0.203602 0.066712 0.064070 -0.434664 -0.333884 -0.561994 -0.144598 0.209267 0.730157 0.233859 -0.220594 -0.036678 0.558371 0.804899 0.283451 0.042789 0.278963 0.037771 -0.434718 0.426737 -0.127848 0.128900 0.194856 0.741103 0.717826 0.244433 0.281769 0.029131 1.020543 -0.203852 0.101815 0.353332 0.056768 -0.241703 0.097176 -0.395987 0.285009 0.560589 0.240191 0.520689 -0.422786 -0.501360 -0.916236
2973 -0.249349 0.284193 -0.135208 0.027320 0.035513 -0.295919 0.535335 0.213312 0.622007 0.253400 0.070606 -0.407106 0.401192 0.224593 -0.067713 0.356458 -0.114579 -1.018068 0.427947 0.354963 -0.744811 0.138136 0.471295 0.054051 0.115861 -0.076149 -0.076853 1.028043 0.540745 0.043092 0.040726 0.298415 -0.203181 -0.218779 0.378936 -0.740372 0.730072 -0.307678 -0.247013 0.041620 -0.070011 0.255194 0.001667 -0.527416 -0.246818 -0.077259 0.532278 0.925263 0.100361 -0.137254 0.034629 -0.023085 0.632959 0.350189 -0.512820 0.662204 0.023290 -0.424705 0.466564 0.746973 -0.116726 -0.842849 -0.176943 -0.079603 -0.179542 -0.522233 0.182255 0.936324 -0.280348 -0.055711 0.130938 0.879958 0.763561 -0.200710 0.296984 0.540732 -0.247834 0.281477 -0.240362 -0.131701 0.149038 -0.579869 -0.629620 -0.785772 -0.427826 -0.182973 -0.085532 0.793224 -0.474184 -0.170051 -0.394783 0.469125 0.410483 0.454240 0.109956 -0.325623 0.209008 0.179037 0.230913 0.249769 -0.204661 0.078581 -0.287046 -0.164785 0.196150 -0.152775 0.507238 0.434374 0.241893 -0.394370 0.316170 0.239984 0.184694 -0.383260 -0.196215 -0.139828 0.642311 -0.582291 -0.235062 -0.219229 0.006336 -0.159408 0.369615 -0.711592 -0.268956 -0.959229 -0.234231 -0.565424
961 0.086306 0.208634 0.359129 -0.188002 0.308637 -0.376945 0.254816 0.159402 0.353493 -0.047091 -0.165598 0.032583 0.160009 -0.295610 -0.267273 -0.103789 0.305890 -0.041781 -0.128075 -0.123187 0.247346 0.012921 -0.004238 -0.426312 0.433242 -0.147084 0.096572 0.106260 0.096198 0.250159 -0.406641 0.148863 -0.599576 0.296055 0.124318 0.105919 -0.175018 0.288282 -0.143007 0.245877 0.300847 0.125917 0.157969 -0.369354 0.046885 -0.441725 -0.341025 -0.491048 -0.014089 0.088543 0.384134 0.284551 0.309004 0.178751 0.282283 -0.276933 -0.122654 -0.152052 -0.079194 -0.341309 -0.146227 -0.324278 -0.389368 0.472678 0.139161 0.024670 -0.002812 0.399239 -0.015582 -0.429810 -0.002270 0.084296 0.045629 0.017824 -0.463964 -0.348779 -0.054274 0.018027 0.114132 -0.229346 0.149738 -0.480869 -0.030048 -0.090773 0.313771 -0.522995 -0.060446 0.211893 0.533990 0.283254 -0.090007 0.145825 -0.009377 0.129263 -0.162779 -0.373766 0.099075 0.539346 -0.174317 -0.360559 -0.359756 0.020072 -0.137757 0.288702 0.117661 -0.089034 0.207372 -0.031828 -0.327472 0.020972 -0.079637 -0.045987 0.140001 0.131407 0.115324 -0.433297 -0.010897 -0.442284 -0.333685 -0.640539 -0.224855 0.396251 0.400117 -0.011441 -0.142034 -0.386933 -0.277050 -0.319815
346 0.068386 0.341880 0.340762 -0.081546 0.176881 -0.329367 0.100370 0.201844 0.227765 0.195281 -0.207890 -0.131100 0.037074 -0.200557 -0.191284 -0.059848 0.293118 -0.112020 -0.189674 -0.166382 0.017990 -0.019843 -0.014957 -0.291346 0.364872 -0.144574 0.018137 -0.075764 0.093165 0.281398 -0.405367 0.064346 -0.703865 0.305812 0.087709 0.221821 -0.059029 0.367163 -0.155319 0.412325 0.361234 -0.021459 0.137900 -0.314649 0.115195 -0.281766 -0.124801 -0.198658 -0.080476 0.087048 0.320647 0.356526 0.353265 0.261941 0.200130 -0.328697 -0.172102 -0.085486 0.010666 -0.210588 -0.201305 -0.125725 -0.286149 0.441913 -0.007978 0.029656 -0.109821 0.451619 -0.032592 -0.390692 0.164288 -0.066441 0.160792 -0.068237 -0.328060 -0.237943 -0.100754 0.044214 0.124803 0.018748 0.182479 -0.464919 -0.098139 -0.109942 0.514846 -0.519488 0.113404 0.248181 0.583338 0.262553 -0.011508 0.217393 -0.101067 -0.039830 -0.302541 -0.445104 0.304474 0.559815 -0.300499 -0.427894 -0.341915 0.176914 -0.120093 0.343518 0.174069 0.023681 0.204642 0.033216 -0.367343 0.147161 -0.033188 0.023171 -0.018130 0.014763 0.051414 -0.479648 -0.067763 -0.551991 -0.035293 -0.726503 -0.236001 0.297841 0.418122 -0.046700 -0.078019 -0.245495 -0.284388 -0.472678
947 -0.477867 0.373450 0.006916 -0.398140 -0.239301 0.405263 -0.296941 0.186814 0.387935 -0.062987 0.086167 -0.286607 -0.080945 0.282087 -0.181170 -0.046318 0.340802 0.352356 -0.066961 0.085149 0.079512 -0.082855 0.016828 -0.061749 0.245445 -0.054276 0.309482 0.430925 0.172053 -0.207275 -0.007848 -0.640296 -0.341632 0.091288 0.012244 0.063985 -0.223160 0.117388 -0.280573 0.062976 0.129091 0.011670 0.402906 0.004262 -0.037917 -0.006968 -0.244144 -0.194062 -0.302476 0.009379 -0.344816 0.285512 0.211327 -0.150206 -0.075917 -0.301337 -0.185504 0.007343 0.071864 -0.053362 -0.308420 -0.243158 -0.482437 -0.099231 0.162226 -0.007817 -0.269460 0.454095 0.028059 -0.396331 0.189718 -0.228619 -0.072271 0.207071 -0.366595 0.294345 -0.117132 0.092316 -0.547907 0.070217 -0.104575 -0.203959 -0.332061 0.076567 0.270097 -0.035324 -0.028027 -0.012067 0.182636 0.168241 0.190571 0.070964 -0.302301 -0.076143 0.490887 0.165924 -0.022558 0.258871 0.002186 -0.033938 -0.276285 0.107630 0.089723 -0.391622 0.741135 0.176527 -0.058742 0.337698 -0.249431 0.104416 0.298479 0.188520 0.104562 0.491552 -0.102829 0.184886 0.361084 -0.362571 -0.367208 0.092227 -0.306667 0.488395 0.427419 0.069737 -0.025196 -0.097049 -0.389520 -0.540584
963 0.026455 0.224233 0.433491 -0.227011 0.228833 -0.307912 0.196558 0.208338 0.374882 -0.043681 -0.128416 0.066730 0.201278 -0.272238 -0.157809 -0.226093 0.251293 -0.098355 -0.136613 -0.145146 0.246523 -0.034010 0.050124 -0.492510 0.529657 -0.319314 0.023956 -0.052372 0.157446 0.293158 -0.300804 0.205355 -0.745277 0.290796 0.084620 0.080759 -0.172208 0.237523 -0.044407 0.221308 0.272837 0.109387 0.232462 -0.487592 0.075134 -0.367429 -0.299081 -0.497304 0.061529 0.037088 0.335976 0.265130 0.390554 0.189512 0.371233 -0.338614 -0.193867 -0.187531 0.095604 -0.429146 -0.230139 -0.229010 -0.436455 0.523698 0.256017 0.044922 -0.045396 0.413874 0.075047 -0.492975 0.005497 0.189235 -0.057130 0.063124 -0.380120 -0.354184 0.018128 -0.072275 0.020873 -0.153299 0.050724 -0.576918 -0.095730 -0.107902 0.378961 -0.551214 -0.076220 0.233574 0.466834 0.324239 -0.101516 0.218891 -0.069241 0.185857 -0.192450 -0.273195 0.115820 0.531531 -0.312125 -0.256869 -0.409734 0.022690 -0.109176 0.278831 0.230976 -0.187891 0.133741 -0.101710 -0.277596 -0.035264 -0.177040 -0.071482 0.140576 0.019175 0.122086 -0.528855 -0.017076 -0.534914 -0.339225 -0.718662 -0.130150 0.364125 0.311336 -0.194698 -0.084496 -0.310676 -0.238185 -0.375274
682 -0.322517 0.172529 0.132853 0.138530 -0.428187 0.161356 0.028285 -0.213683 -0.182688 -0.146718 0.332809 -0.322018 -0.223563 -0.363864 -0.133452 -0.217318 -0.088659 -0.026763 0.203986 0.031518 -0.313893 0.734692 -0.065976 -0.453459 -0.064448 -0.222392 -0.108240 0.443544 0.456385 0.076594 -0.250599 0.004530 -0.344155 0.174394 0.089545 0.118804 -0.222507 0.105741 -0.031150 0.656793 -0.405488 -0.129711 0.011631 -0.113940 -0.290461 -0.210901 0.031612 -0.438102 -0.399043 0.504209 -0.308599 0.160267 -0.264246 0.120448 0.598208 -0.318595 -0.123820 -0.052527 -0.377181 -0.289316 -0.227278 0.233182 -0.354351 -0.445833 0.042667 -0.173293 0.464526 -0.195807 0.123647 -0.524952 0.278537 0.089890 0.056476 -0.061181 -0.091710 0.107606 -0.433122 -0.171475 -0.403217 0.238344 0.306219 -0.426209 -0.356428 -0.234884 -0.142266 -0.046773 0.032725 0.263357 0.284584 0.150085 0.337922 0.181762 -0.201818 0.040997 -0.225769 -0.249093 0.380749 0.180518 0.220022 -0.485640 0.165862 0.462279 0.100003 0.153029 0.007620 -0.391049 -0.287248 0.108880 -0.340729 0.055530 0.491610 0.145540 0.165302 0.111808 0.128673 -0.694855 0.470653 -0.219332 -0.288417 0.059768 -0.019906 -0.073466 0.267458 0.091261 0.019486 -0.731253 -0.568975 -0.531151
1723 0.197634 0.157860 0.195381 -0.061017 -0.311624 0.197614 -0.143068 0.214703 -0.145961 -0.375044 -0.090970 0.119154 -0.103331 -0.190805 0.002616 0.064529 0.246815 -0.039601 -0.252454 0.741683 0.787771 0.154707 -0.130170 -0.704839 0.181225 -0.421958 0.262113 0.755015 0.335717 -0.043148 0.104280 -0.165251 -0.731147 0.286950 -0.177848 0.547351 0.078840 0.650164 -1.130213 0.288796 -0.296217 0.013624 -0.123080 -0.325524 -0.523830 0.192277 0.003584 0.165617 -0.129230 -0.517703 0.227379 -0.600574 0.297434 -0.075871 -0.539634 -0.593370 0.146642 0.113104 -0.138771 0.292119 0.042534 -0.059000 -0.123064 0.419709 0.152607 -0.266888 0.397017 0.448084 -0.204568 -0.052573 -0.215126 0.033316 -0.267020 -0.157689 -0.003436 -0.137979 0.562817 0.107508 0.118905 -0.332630 0.418550 0.448529 -0.020816 -0.254125 0.489717 -0.197965 0.432982 -0.274932 -0.912183 -0.096804 -0.389483 -0.163555 0.156559 0.252925 0.392189 -0.195273 0.101200 0.216312 0.410814 0.427955 0.490644 0.320768 0.245964 0.200621 0.363556 0.106686 0.054864 0.338703 0.150407 0.116786 0.408176 -0.246104 -0.096306 0.055746 -0.402350 0.149896 -0.267065 -0.313110 -0.668269 0.400063 -0.035890 0.264089 0.259841 -0.145692 0.171321 -0.657159 -0.305523 -0.760798
2769 -0.132547 0.480286 -0.471972 0.044911 -0.550650 0.065493 0.305980 0.704857 -0.512444 -0.386725 0.416155 0.373139 -0.529321 -0.356311 -0.542137 -0.535080 -0.030294 0.067262 -0.767441 0.804883 -0.093682 0.437406 0.272889 0.268168 0.202497 0.482553 0.016969 -0.846353 0.146337 0.755006 -0.263161 -0.857415 -0.966138 0.482407 -0.432051 -0.378713 0.179406 1.058727 0.000970 0.301629 -0.646923 0.282370 -0.037144 -0.818607 0.505411 1.057002 1.144911 0.069554 -0.583388 0.218984 0.689780 -0.703140 -0.492191 -0.013219 -0.530439 -0.295474 -0.089114 0.417902 -0.588106 -0.193110 -0.167682 -0.186946 -0.845639 0.583722 0.258729 -1.514138 -0.125279 0.017791 1.114461 0.126753 -0.779668 0.072852 0.170718 0.415224 -0.107513 -0.036388 -0.257839 0.103323 0.757226 -0.071794 0.010996 -0.662960 -1.158161 -0.851221 0.045712 -0.715255 0.357001 1.123944 0.236558 0.448658 -0.004188 0.383514 0.502745 -0.200528 0.249639 -0.332105 -0.734939 0.072238 0.359562 0.582141 -0.882017 -0.236632 0.249733 0.167723 0.014346 0.298762 0.103872 0.149949 0.085039 0.048128 -0.027754 0.172235 0.403707 -0.186665 -0.273056 0.057083 -0.672426 0.136287 -0.482495 0.347637 0.018967 0.346367 0.674749 -0.806613 -0.399589 -1.241988 0.626052 -0.769233
181 0.497391 0.241734 -0.632781 0.441043 -0.203996 -0.146597 0.191487 0.019755 -0.585293 0.394108 0.492857 0.037450 -0.223176 0.092047 -0.203774 -0.563571 -0.625050 0.022952 0.160043 0.891679 0.096538 0.101527 -0.116831 -0.596706 -0.372505 -0.206106 -0.044002 0.118458 0.592662 0.155016 0.132915 -0.056171 -0.344299 0.095091 -0.262817 -0.069885 0.171857 -0.338814 -0.254787 0.296141 -0.031372 -0.462823 0.258319 0.094787 -0.100020 0.534944 -0.461273 0.332599 0.119407 -0.204293 0.209919 0.515026 -0.254216 -0.157790 -0.157419 -0.653749 0.753077 0.045386 0.298687 -0.028593 -0.309443 -0.053204 0.041936 -0.565662 0.679970 -0.311330 -0.092649 0.904973 -0.208229 -0.081805 0.223315 0.273696 0.753409 -0.734729 -0.660236 0.151402 0.052534 -0.219653 0.338211 -0.418774 1.304266 -0.456771 -0.473998 0.389081 0.271945 -0.139914 -0.108227 0.568401 0.459391 0.472749 -0.104015 -0.177590 -0.463619 0.556809 0.153518 0.284031 -0.224403 -0.065806 -0.803789 -0.197420 -0.335451 0.849197 0.276263 0.049692 -0.101781 0.320125 -0.083503 0.306635 0.148385 -0.979092 0.035229 0.437307 -0.006047 0.089082 0.038601 0.340206 -0.357254 0.050328 -0.103800 -0.043794 -0.091793 0.388748 0.267141 -0.454373 0.082598 0.000201 -0.003512 -0.097322
957 0.120261 0.078444 0.022993 -0.058671 0.063955 -0.181128 0.336950 0.308880 0.213637 0.112450 -0.283653 -0.145435 -0.025651 -0.345380 -0.308001 -0.051145 0.097990 -0.127315 -0.004316 -0.182870 -0.034765 -0.045508 0.349122 -0.454534 0.561117 -0.224113 -0.005537 0.085699 0.240474 0.369121 -0.509847 0.169863 -0.582509 0.451324 0.092615 0.202573 -0.044516 0.422718 -0.459025 0.268318 0.280517 0.020950 0.270459 -0.427000 0.029539 -0.645315 -0.471321 -0.275957 0.080452 0.291828 0.357068 0.313494 0.275687 0.088262 0.271566 -0.080731 -0.005773 -0.017643 0.044064 -0.350467 0.002529 -0.429134 -0.343484 0.378956 -0.114906 0.169403 -0.076191 0.407783 0.078649 -0.522074 -0.048190 -0.117701 0.239831 -0.173939 -0.299119 0.108777 -0.172461 0.057203 0.089317 0.002117 0.251231 -0.521650 0.188435 -0.098263 0.524425 -0.374452 -0.037360 0.175061 0.670040 0.317667 0.023664 0.370573 -0.077577 0.008701 -0.186166 -0.376418 0.162329 0.678087 -0.178032 -0.333537 -0.517518 -0.078244 0.032900 0.326617 -0.108755 0.058948 0.155383 -0.017950 -0.145442 0.302486 0.170078 0.159672 -0.176964 0.097745 0.016532 -0.369541 0.009797 -0.410263 0.005005 -1.015239 -0.247939 0.464435 0.649337 0.071534 -0.259087 -0.377603 -0.252136 -0.435012
1610 -0.679959 0.521142 -0.097666 -0.113517 -0.000169 -0.072658 -0.007525 -0.021302 -0.113263 -0.503193 0.342329 -0.651045 -0.024433 0.605983 -0.291905 -0.155454 -0.072381 -0.155246 -0.557069 0.788758 -0.016028 -0.109567 0.010345 -0.124974 -0.118297 0.536125 0.005506 0.213907 -0.023097 0.510164 -0.136424 -0.162204 0.415561 -0.426642 -0.625131 -0.577364 0.494152 0.020334 -0.668090 -0.614942 -0.140729 -0.247767 0.024493 -0.594116 0.456191 0.054095 -0.054045 1.000065 0.309410 0.617570 0.287612 0.620845 0.039733 -0.034310 0.587094 0.067075 -0.309673 -0.503955 0.067782 -0.202683 -0.272693 0.445937 0.373664 -0.746614 0.291087 -1.069006 0.158214 0.099651 0.302389 -0.095698 -0.761735 -0.189502 -0.420248 -0.440816 -0.702838 -0.442032 -0.298040 -0.085519 -0.338635 0.242541 0.442667 -0.230675 -0.119381 0.333806 -0.141898 -0.884305 -0.124697 -0.164541 0.027260 0.427276 -0.479245 0.681832 -0.560342 0.935764 0.154460 -0.166848 -0.588573 -0.334352 0.174665 -0.259748 0.209246 0.113986 -0.378703 0.385661 0.098380 0.306886 0.084799 0.621971 0.498625 -0.342307 -0.042572 -0.422192 -0.050530 -0.076917 -0.359954 -0.624060 0.337324 0.392967 -1.081241 -0.112529 -0.277368 0.091351 -0.419600 -0.551777 -0.599537 0.055109 0.291423 -0.910956
901 -0.140040 0.199715 -0.363059 0.288364 0.223947 0.027219 0.401212 0.007760 0.353729 -0.301551 0.843867 0.418599 0.048114 -0.102345 -0.166553 0.077252 -0.509770 -0.385241 -0.375022 0.193793 0.770956 -0.051255 0.450995 -0.193525 -0.054629 0.012530 -0.137320 -0.326274 0.431724 0.501104 -0.133514 0.641756 0.255816 -0.027758 -0.214214 0.091627 -0.558023 -0.000757 -0.635272 -0.882458 -0.055779 0.276287 -0.459210 0.543598 -0.554256 -0.406655 -0.073587 -0.246690 -0.604220 0.262812 -0.464754 0.195495 0.060333 0.879974 0.173543 0.165919 0.486238 0.461485 0.062343 -0.216225 -0.581722 -0.162400 -0.311326 -0.395781 0.516785 -0.131073 -0.473126 0.787216 -0.555951 -0.523184 -0.071841 -0.714793 0.361015 -0.293481 -0.125814 -0.159780 -0.033191 -0.495021 0.904570 0.430922 0.064487 -0.694509 -0.006280 0.044434 -0.008586 -0.336671 0.381574 0.120168 -0.388226 0.776673 -0.749607 0.318466 -0.633617 0.279584 -0.005922 -0.610379 0.045626 0.196726 0.122343 -0.555496 0.011020 0.364655 -0.455848 -0.108752 0.917378 0.233674 -0.372773 -0.226046 0.586098 -0.514619 1.054973 0.192885 0.476246 0.037816 0.236596 0.156758 -0.006459 -0.002430 -0.224443 -0.178386 -0.022059 -0.070606 0.127919 0.240443 -0.343742 -0.293956 -0.012358 -0.331254
383 -0.473251 0.366060 0.166368 0.323501 0.054867 0.133342 -0.167024 -0.129816 0.271837 0.025813 0.132796 -0.535784 -0.287596 0.053363 -0.278247 -0.185332 0.134828 0.274649 0.097271 0.129808 -0.079838 0.151900 -0.104488 -0.600627 -0.092825 -0.020196 0.098383 0.337887 0.507784 0.171891 -0.074254 0.054598 -0.591049 0.181956 -0.101210 -0.183063 -0.355368 0.314889 -0.061261 0.313915 -0.094852 -0.146770 0.021353 -0.211051 -0.417595 -0.334989 0.143527 -0.004350 -0.619568 0.028463 -0.248185 -0.247210 -0.078503 0.384073 0.712564 -0.292072 -0.388713 0.205970 -0.134151 -0.152216 -0.175964 -0.140389 -0.249704 -0.195218 0.128996 -0.171024 0.385804 0.076598 0.146319 -0.858622 0.181935 0.324141 0.072644 -0.099423 -0.411616 0.268139 -0.184094 -0.056227 -0.217350 0.112023 0.186252 -0.723592 0.007067 -0.229173 0.101335 0.062556 0.050573 0.600831 0.203387 0.476594 0.158787 -0.179494 -0.199367 -0.326602 -0.258127 -0.229441 -0.078759 0.355962 0.262077 -0.698147 0.118302 0.144587 0.389628 0.181610 0.256389 -0.470738 -0.146184 0.175244 0.008614 0.351828 0.334739 0.184857 0.037023 0.193841 -0.006700 -0.640136 0.345266 -0.192176 -0.372961 0.400328 0.267195 -0.054718 -0.056419 0.129718 0.025095 -0.379347 -0.559268 -0.239831
1003 0.078594 0.058561 0.602912 -0.403243 -0.146099 0.132509 -0.493010 -0.114992 0.367175 -0.154510 0.362812 -0.384562 -0.468923 0.186194 -0.048109 0.753679 -0.119390 -0.007751 0.021862 0.178340 0.156840 0.694349 -0.443649 -0.395822 -0.659188 -0.856891 0.350399 0.144790 0.096969 0.100994 -0.054860 -0.203868 -0.849343 -0.389771 -0.416145 0.433969 -0.328224 0.393957 0.188561 -0.122965 0.017881 0.568398 -0.055815 -0.192077 0.182458 0.329482 -0.010145 -0.207298 0.144355 0.242350 0.213998 0.077769 -0.363362 0.387916 -0.346599 -0.409455 -0.344382 -0.017364 -0.268373 0.197869 -0.081155 -0.334891 0.072251 0.076483 0.363493 0.292881 -0.389635 0.634601 0.609550 -0.379406 -0.427840 0.259655 0.113676 -0.497732 -0.226249 -0.240532 0.122276 0.166414 -0.255307 -0.135477 0.095195 -0.401548 -0.205192 0.457011 0.785423 0.054876 0.127454 0.635757 -0.334441 0.167935 -0.382355 0.068691 0.069232 0.270500 -0.098760 0.084381 -0.384320 0.227271 0.394034 -0.333103 -0.542026 0.187369 0.302132 -0.430526 0.178476 0.263774 -0.131903 0.158918 0.282516 0.482491 0.286860 0.157838 0.132558 0.476200 0.195936 -0.314759 0.364075 -0.167858 -0.603512 0.206485 -0.393789 0.725687 0.278347 -0.124253 -0.028351 -0.504447 -0.341935 -0.432287
1528 0.522269 0.246799 -0.608146 0.466393 -0.126675 -0.293544 0.160083 0.026738 -0.533711 0.333421 0.475943 0.161052 -0.260874 0.186220 -0.160619 -0.616807 -0.566428 -0.050148 0.212525 0.847723 0.161090 0.088933 0.022092 -0.535518 -0.472587 -0.200479 -0.022918 0.044893 0.662319 0.080106 0.046386 -0.096274 -0.392391 0.175301 -0.124221 -0.200604 0.110637 -0.404954 -0.245798 0.322530 -0.145710 -0.461556 0.364845 0.116800 -0.172659 0.589438 -0.404395 0.388039 0.235515 -0.297938 0.238346 0.489875 -0.183380 -0.124421 -0.174155 -0.591768 0.723825 0.093276 0.202050 -0.077798 -0.342211 -0.057831 0.101343 -0.533870 0.711558 -0.399711 -0.112211 0.986682 -0.320082 -0.125328 0.245160 0.342836 0.685376 -0.680297 -0.750286 0.103991 -0.033907 -0.287530 0.413856 -0.435322 1.326419 -0.521754 -0.523346 0.358073 0.243402 -0.103647 -0.196890 0.531158 0.341827 0.454315 -0.183825 -0.067615 -0.441174 0.520066 0.078061 0.459354 -0.145778 -0.081804 -0.827378 -0.177594 -0.388278 0.775828 0.287890 0.056842 -0.113821 0.328172 -0.083777 0.334772 0.146329 -0.987486 -0.083959 0.428607 -0.141413 0.040915 0.215059 0.304098 -0.314431 -0.013234 -0.106218 0.091666 -0.073315 0.295525 0.217900 -0.347139 0.105511 0.021405 0.045385 -0.151028
1405 0.387596 0.768517 0.211952 0.356881 -0.077347 0.295655 -0.247080 -0.246227 -0.124084 0.317821 -0.245018 0.122841 0.382365 0.341671 -0.600139 0.065860 0.167618 -0.094562 0.291141 -0.157279 -0.217473 0.012490 0.116764 -0.374031 0.080787 -0.373883 -0.009810 0.319742 -0.340282 -0.238163 -0.309250 -0.422226 -0.152725 0.310024 0.050885 0.221755 -0.670421 0.741451 -0.473397 0.106107 -0.410844 -0.094603 0.385385 -0.215174 -0.078473 -0.218265 -0.402031 -0.093059 -0.061769 -0.080494 -0.296501 0.338245 -0.040392 -0.382690 -0.234458 0.409856 -0.046644 0.082177 -0.089015 -0.089716 -0.356527 -0.150071 -0.452408 -0.003462 0.215606 -0.108109 -0.280019 -0.031501 -0.074323 -0.876232 -0.002234 0.108917 -0.094001 -0.757683 0.014313 0.328394 -0.338160 -0.030426 -0.158763 -0.056337 -0.223721 -0.543193 -0.153847 0.229972 0.386782 -0.364995 -0.391786 0.410578 0.149637 -0.176640 -0.425910 -0.004583 -0.107679 -0.422075 0.393579 0.089222 0.070810 -0.058856 0.237869 -0.072982 0.052708 0.449777 0.253758 -0.204423 0.664693 0.049472 0.134808 0.369409 -0.383583 -0.228567 0.568385 -0.408354 -0.276639 0.437211 -0.096355 -0.485338 0.368101 0.199504 -0.344876 -0.279614 -0.469862 0.475783 0.278462 0.574261 0.289865 -0.764013 -0.285798 -0.761559
212 0.045416 0.255920 -0.539777 -0.465940 0.003430 0.090343 -0.199345 0.128247 0.571177 0.115028 0.553321 -0.106160 0.041585 0.144080 -0.051429 -0.386956 -0.351611 0.735415 -0.561971 -0.296671 -0.085269 -0.084782 0.620745 -1.108842 -0.120728 0.046214 -0.179200 0.396733 0.254233 -0.081986 0.045540 -0.712735 -1.032326 -0.037419 -0.084213 0.674476 0.556057 0.819808 -0.054197 -0.387866 -0.403402 0.280328 -0.600546 -0.590655 -0.000567 0.039276 -0.254627 -0.012282 0.145291 0.296016 0.067781 0.549797 0.311573 0.013111 0.191947 -0.432862 0.257936 -0.173045 -0.190464 -0.438796 -0.320418 0.050050 0.603179 0.517286 0.248078 0.433504 0.060810 0.508006 0.332390 0.315184 -0.554749 -0.340688 0.231873 -0.101039 -0.482311 -0.212902 0.342637 0.129188 0.522485 0.226181 -0.363444 -0.420004 -0.891672 -0.412799 0.157897 -0.617227 -0.365716 -0.165282 0.073667 -0.068389 -0.245453 -0.413650 0.347961 0.108784 0.087969 -0.159538 0.029324 0.047280 0.308305 -0.694647 -0.307286 0.376890 0.821931 -0.223922 0.369306 0.359484 0.411410 -0.555074 -0.672659 -0.081951 0.181903 0.290581 -0.323069 -0.143456 -0.654253 0.144250 -0.581622 0.219214 0.002459 0.249392 -0.233855 0.504169 0.361741 -0.150696 -0.015295 -0.649560 -1.077928 -0.454879
955 0.027814 0.261490 0.152092 0.005913 -0.075943 -0.065315 0.276823 0.115101 -0.006640 -0.114491 -0.037479 0.004826 -0.067526 -0.111904 -0.387417 -0.222592 0.264697 0.074884 -0.099246 -0.092790 -0.034947 0.038806 0.280258 -0.493748 0.417283 0.006404 0.055023 0.080566 0.079640 0.053374 -0.314011 0.540093 -0.604089 0.309216 0.229528 0.490056 -0.106101 0.186567 -0.267799 0.377338 0.019812 -0.199549 0.142259 -0.667782 0.009460 -0.288538 -0.155665 -0.287489 -0.311362 0.350961 0.393270 0.244438 0.503041 0.289726 -0.009501 -0.056870 -0.344752 -0.110232 -0.176118 -0.350198 -0.014972 -0.322353 -0.361600 0.258084 0.183013 0.204490 -0.093498 0.124275 0.334128 -0.428684 0.157625 -0.110980 -0.125306 0.126906 -0.284599 -0.234265 0.063196 -0.169942 0.008369 -0.269081 0.214058 -0.411539 -0.084341 -0.033580 0.508863 -0.109035 -0.111998 0.475759 0.532393 0.171635 0.051949 0.213678 -0.247951 0.164662 -0.263150 -0.692360 0.433539 0.460423 -0.460898 -0.350280 -0.279664 0.145884 -0.029642 0.179116 0.100786 -0.357668 0.060355 0.038125 -0.098075 0.236689 0.121340 0.069721 0.004236 0.018757 0.057253 -0.501558 -0.010203 -0.647047 -0.441328 -0.751698 0.109155 0.345487 0.557115 0.038798 0.029656 -0.226207 -0.444035 -0.500552
