3327 128
1617 0.124073 -0.037527 0.219956 -0.168383 0.285207 -0.094607 0.206424 -0.037165 0.090775 0.079017 0.068839 0.127391 -0.513703 -0.232562 -0.062657 -0.268690 0.103142 -0.221848 0.203157 -0.186890 0.273961 0.517210 0.154089 -0.007734 -0.059704 0.023646 0.319129 0.108864 -0.135911 0.078624 -0.165850 -0.291956 -0.387441 -0.351821 0.389660 -0.317422 0.082237 -0.139067 -0.032440 0.094690 0.248902 0.324816 -0.273695 0.022497 0.299367 -0.130325 0.102410 -0.283273 -0.176498 -0.040902 -0.273036 -0.042384 0.096070 0.038223 -0.131473 -0.166575 -0.191766 -0.177322 -0.226869 -0.199681 -0.063729 0.205009 -0.052899 -0.137979 -0.207595 0.180432 0.038119 0.109636 -0.180754 0.043605 0.266989 0.365454 0.160768 -0.261589 0.044474 0.140789 0.035616 -0.096979 0.029759 -0.158307 -0.354504 0.290926 0.073770 -0.120844 0.336444 0.146069 -0.222918 -0.025027 -0.029623 0.074404 -0.121438 0.205633 -0.200324 -0.371747 -0.011465 0.175833 0.196919 0.319536 -0.395138 0.289625 0.060674 -0.204873 0.484409 0.265810 -0.110969 0.181734 -0.064405 0.009811 -0.499048 0.405626 -0.066930 -0.066543 -0.330025 -0.301940 -0.251206 -0.032356 0.477946 -0.213938 -0.096516 -0.283417 0.374942 -0.077209 0.036604 0.200627 0.060906 -0.034650 -0.108946 0.509580
2936 -0.885012 -0.480319 0.286871 -0.037664 0.062025 -0.528886 0.493125 -0.072834 0.051817 -0.229221 0.165470 -0.134507 -0.149414 -0.094589 -0.206713 0.540483 -0.139263 -0.737565 -0.011143 -0.610924 0.110918 -0.105521 -0.481246 0.183406 0.045316 0.183761 0.418102 -0.066302 0.028581 -0.019212 -0.049408 -0.214379 0.317864 -0.422472 0.067960 0.331164 0.223395 0.237246 -0.286533 0.385784 -0.071459 0.325121 -0.194058 -0.047098 0.146448 -0.145366 0.375400 0.025638 -0.087060 -0.054804 -0.257045 -0.350939 0.150582 -0.216811 0.134009 -0.135602 0.387548 -0.641657 -0.098395 -0.355062 0.374369 -0.088563 0.316041 0.277901 0.177166 -0.166530 -0.014641 0.038648 -0.039083 0.231605 0.072228 -0.059423 0.112618 0.059221 -0.083549 -0.214236 -0.427846 -0.035867 -0.015155 0.016083 -0.023855 0.261212 0.120328 0.081326 -0.333753 0.140424 -0.280633 0.094654 -0.270082 -0.191719 0.294472 0.144248 0.050656 -0.184145 -0.464067 -0.402958 -0.041649 -0.020719 -0.337205 0.038644 -0.190962 -0.022469 0.271391 -0.123123 0.112377 0.089025 -0.030685 0.110323 0.295003 -0.039753 -0.764634 0.458810 0.059590 0.155258 0.389197 -0.633899 -0.195045 -0.054013 0.163767 0.020105 -0.135309 0.335356 0.284497 0.140827 -0.054855 0.240724 0.321897 0.133471
1752 -0.072024 -0.132889 0.123336 -0.369476 0.281748 -0.225644 0.320492 0.158901 0.075436 -0.039893 -0.073167 0.146950 -0.661563 -0.269550 0.153747 -0.149244 0.081169 0.037698 0.344459 -0.207293 0.019270 0.542120 0.503357 -0.159766 0.107325 0.009110 0.218155 0.579331 -0.107927 -0.015548 0.084301 -0.296653 -0.243893 -0.133233 0.320091 -0.299874 -0.249976 -0.316484 -0.390412 0.226495 0.193484 -0.057443 -0.165656 -0.247618 -0.001659 0.050128 0.239256 0.135870 -0.100497 0.318426 0.014220 0.428329 0.115277 0.211382 0.000837 -0.091502 -0.179652 0.174724 -0.102487 -0.262967 -0.083504 -0.133991 0.284971 -0.094335 -0.088509 0.210261 -0.090723 0.073025 -0.242890 0.047206 0.186424 0.048458 0.017988 -0.368191 -0.147536 0.164916 -0.178856 -0.153722 -0.027927 -0.081003 -0.368758 0.202882 0.365209 -0.317567 0.020862 0.256189 -0.189480 0.167706 0.090532 -0.329293 -0.279985 0.365041 -0.158346 -0.263068 -0.021289 0.102645 0.187896 0.076663 -0.674282 0.330363 0.166765 -0.149957 -0.092192 0.194685 -0.179009 0.087348 0.026303 0.009016 -0.535694 0.516834 -0.239192 0.066325 -0.515144 -0.230093 -0.235494 -0.114163 0.392309 -0.393120 -0.174951 -0.383154 0.360755 0.067896 -0.013677 -0.051022 0.121161 0.001215 0.020114 0.688113
1508 0.041929 -0.133769 -0.147032 -0.216225 0.146826 -0.198646 0.214541 0.307958 0.056942 -0.172434 -0.109809 0.180597 -0.506872 -0.400341 -0.041606 -0.203255 0.283890 -0.184051 0.260579 -0.225672 -0.034665 0.733718 0.319581 -0.099043 0.213035 -0.140271 0.215108 0.212031 -0.245706 -0.102219 -0.034131 -0.006844 -0.131167 0.112355 0.284569 -0.423683 -0.153382 -0.354884 -0.374212 0.062523 0.248094 0.210899 -0.052878 -0.235350 -0.079655 -0.026785 0.123391 -0.015198 -0.278343 -0.016710 -0.191128 0.241457 0.079815 0.296821 -0.030813 -0.135446 0.237978 -0.141642 -0.133238 0.125207 0.018098 -0.007389 0.102057 -0.387639 -0.082195 0.333066 0.030158 0.125413 -0.125946 -0.029828 0.177685 0.037114 -0.005320 -0.213451 -0.044382 -0.138265 0.152190 -0.102328 0.066343 0.061804 -0.373409 0.218935 0.119811 -0.249425 -0.113252 0.275845 -0.163408 -0.034136 0.103699 -0.013139 -0.093572 0.659276 -0.084733 -0.285235 -0.127618 0.006465 0.379118 0.064046 -0.393779 0.082665 -0.047364 -0.281292 0.007279 0.239826 -0.085956 0.340632 -0.165060 -0.039159 -0.568905 0.601324 -0.326558 0.006720 -0.532292 -0.265672 -0.314352 -0.235967 0.376672 -0.370470 -0.262506 -0.248081 0.304870 -0.292829 -0.100115 0.160399 0.063227 0.050704 -0.080028 0.738847
1838 -0.037713 -0.153265 0.539042 0.263409 0.407952 -0.372473 0.211991 0.225390 0.115590 -0.047089 0.056025 0.439199 -0.227947 -0.512673 0.284268 0.056202 -0.351383 -0.182038 0.705648 -0.101783 -0.425340 0.355885 0.119074 0.030138 0.426355 0.083286 0.163543 0.340144 -0.107616 -0.101156 0.246011 -0.226477 -0.122800 0.241314 0.030321 -0.445068 0.064667 0.044022 -0.153393 0.366064 0.370685 -0.017806 -0.361700 -0.313938 0.084029 -0.146044 0.326232 -0.084699 -0.147940 -0.166747 0.040765 -0.084721 -0.126000 0.093566 0.201728 0.404373 0.224780 0.137625 -0.128397 -0.095014 0.175326 -0.269578 -0.190467 -0.433258 0.091417 0.521053 -0.065772 -0.115350 0.439724 0.164801 0.206224 0.285935 -0.045119 -0.001064 0.138283 0.236417 0.240079 -0.028528 -0.103450 -0.275882 -0.359169 0.098973 -0.072297 -0.273269 0.037528 0.147750 -0.221183 0.050861 -0.183655 -0.115275 0.029946 0.056730 0.219408 -0.217171 0.079826 0.414136 -0.158287 0.407716 -0.133966 0.558496 -0.011092 -0.090869 -0.026300 -0.116054 -0.111974 0.392831 -0.486108 0.044120 -0.119041 0.216839 0.030710 0.226355 -0.453737 0.037763 -0.065411 0.121787 0.264616 -0.311685 0.083191 0.149110 0.134994 0.013473 0.027629 0.035332 0.090695 -0.222450 -0.061862 -0.135798
1381 -0.849342 -0.147283 0.099104 0.085746 1.158371 -0.876635 -0.142408 0.264500 0.435166 -0.704615 -0.247708 0.207369 -0.183979 0.010029 -0.055268 0.542093 -0.288104 -0.186398 -0.075584 -0.107389 0.244938 0.105227 -0.502730 -0.030899 0.023975 -0.027871 -0.055219 -0.237587 0.086855 -0.306720 -0.153030 -0.572591 0.657975 0.194287 0.724822 0.391912 -0.121659 -0.175448 0.099139 0.543344 -0.560335 -0.142551 0.125778 0.168682 0.052518 -0.150671 0.260722 0.123332 -0.092516 -0.101844 -0.260979 -0.622843 0.256037 -0.243566 0.249375 0.305996 0.381884 -0.623415 -0.182930 -0.582211 0.320880 0.176844 0.359915 -0.152449 -0.424237 -0.070556 0.045324 -0.163803 -0.157453 0.417236 -0.067964 0.074720 0.076163 -0.055729 0.328679 -0.155624 -0.152500 -0.041768 -0.327468 -0.265276 -0.048326 0.189783 -0.095013 -0.147843 0.185508 -0.121712 -0.280471 -0.838038 0.125485 -0.122529 -0.272979 0.310332 -0.401256 -0.147743 0.086727 -0.376946 0.108171 -0.514915 -0.001943 -0.296170 -0.469535 -0.067548 0.263909 0.351783 -0.098937 -0.247181 0.150580 0.450992 -0.019138 0.712125 -0.102423 0.397404 -0.247113 0.595835 0.195369 -0.587063 0.164347 0.325893 -0.109998 0.007227 -0.037902 0.305075 0.458885 -0.366730 0.587907 -0.078291 -0.128044 -0.295476
2340 -0.630276 -0.095333 0.141509 0.193048 0.647881 -0.669847 0.183285 0.445746 0.361043 -0.445504 -0.073560 -0.172634 -0.296864 -0.015376 0.230362 0.695383 -0.050360 -0.159941 -0.052964 0.056517 0.008260 -0.251016 0.161622 0.346208 0.456845 0.056123 0.134206 -0.295402 0.071014 -0.376057 -0.433040 -0.402507 0.262839 0.105490 -0.006724 0.072421 0.344771 -0.165948 -0.504359 0.392128 -0.293905 -0.400630 0.127960 0.086961 0.186643 -0.311490 0.100062 0.052039 0.206505 0.215643 0.083796 -0.048243 0.294141 -0.260562 0.419156 -0.076511 0.208712 -0.741991 -0.289286 -0.611739 0.333102 0.264517 0.359793 -0.118705 -0.142893 -0.150483 0.206977 0.152399 0.121191 0.282367 -0.328354 0.118932 0.058910 -0.008361 -0.013754 -0.017563 -0.025288 0.122271 0.063087 -0.072502 -0.360353 0.195222 0.429824 -0.408446 -0.203309 -0.370889 -0.176275 -0.082843 -0.365277 -0.024565 0.018565 0.275631 -0.117426 -0.192450 -0.185112 -0.312502 -0.270040 -0.217511 0.212526 -0.059791 -0.113095 -0.135871 -0.002110 0.335611 -0.464819 -0.081028 0.075268 0.212733 0.213938 0.547237 -0.026638 0.960392 0.243215 0.215778 0.253550 0.102715 0.104955 0.416110 0.220730 -0.371146 0.279680 0.083309 -0.059902 -0.243336 0.255750 -0.157217 -0.176391 0.038460
2868 -0.530275 0.289058 0.584216 -0.088637 0.521474 -0.138581 -0.108828 0.182753 0.166878 -0.329412 0.604500 -0.114923 0.091216 0.015540 0.247326 0.435514 0.500321 -0.027219 0.182238 -0.503016 -0.419679 0.074507 -0.236414 0.268953 -0.557015 -0.100239 -0.178025 0.041444 0.482003 0.129723 -0.022450 -0.218900 0.563178 0.064480 -0.008592 -0.105621 0.575649 -0.228886 0.207431 -0.095628 -0.262747 -0.590853 0.076934 -0.012576 0.041520 -0.044342 0.149620 -0.179122 -0.059740 -0.173775 0.867757 -0.435889 -0.227148 -0.097549 -0.163328 0.434411 -0.003356 -0.223815 -0.140825 0.050206 -0.025757 0.305227 -0.329556 0.321984 0.093826 -0.362824 -0.245829 -0.459024 -0.255548 -0.524934 0.044549 -0.548189 0.258868 -0.167586 -0.138409 -0.081779 0.129624 0.374047 0.378548 -0.134986 -0.343123 -0.401182 -0.124994 0.506533 -0.228896 0.118941 -0.159289 1.058995 -0.355605 -0.813977 0.214917 0.526357 0.665437 -0.915454 0.176640 -0.330751 -0.059987 -0.185910 -0.632826 0.261149 -0.769622 -0.442369 0.042089 -0.526761 -0.202419 0.530727 -0.158458 -0.013054 -0.428666 0.601577 0.247977 0.219092 -0.796051 -0.690644 0.147798 -0.223525 0.682865 -0.192459 0.003526 -0.317745 0.239015 -0.466749 0.279080 0.067581 0.325400 -0.979060 0.152047 -0.197068
1175 -0.067292 -0.310840 0.043879 -0.343658 0.043487 -0.239424 -0.015991 -0.067202 0.252308 -0.313624 -0.246022 0.450642 -0.198670 0.001156 -0.102386 -0.073234 0.059702 -0.337879 0.496576 0.228388 0.205036 0.652924 0.167992 -0.093297 0.098915 -0.429350 0.192589 0.588836 -0.193998 -0.190015 0.073603 -0.368984 -0.029972 0.047143 0.318938 -0.440725 0.157205 -0.061755 -0.107286 0.226289 0.270204 0.194708 -0.288818 -0.317115 -0.003581 -0.131985 -0.034244 0.114287 -0.260614 0.547882 -0.046094 0.021676 0.325904 0.151461 -0.272599 -0.133015 0.222118 -0.154800 -0.398274 0.139232 -0.098978 0.295615 0.010079 -0.127872 0.003202 0.375624 -0.083830 0.191459 -0.156619 0.036980 0.061778 0.241835 0.198971 -0.234926 -0.014261 -0.380543 0.107148 -0.197993 0.128292 -0.243557 -0.424378 0.388343 0.165981 -0.376373 0.216338 -0.176187 -0.137410 0.072787 -0.233747 -0.154506 -0.336877 0.100208 -0.059216 -0.150931 -0.217932 -0.075513 -0.253602 0.107062 -0.452938 0.148249 0.297696 -0.352515 0.012471 0.086453 -0.180379 0.355560 -0.117473 -0.003039 -0.518184 0.284990 -0.129734 -0.276578 -0.275563 0.090264 -0.147662 -0.021937 0.600314 -0.461494 -0.026987 0.085135 0.116293 -0.086297 -0.122411 0.548831 0.146418 -0.049579 -0.175050 0.281675
2527 0.142629 0.126471 0.374963 -0.095711 0.346753 -0.313196 0.241759 0.324838 -0.156958 0.039214 0.137292 -0.091754 -0.079301 -0.217769 0.050277 -0.361118 0.257782 -0.201292 0.229096 -0.269495 0.211728 0.654811 0.159086 -0.003396 -0.156798 0.130622 0.001544 0.087121 -0.298493 -0.011831 0.468896 -0.371647 -0.381846 0.039240 -0.006186 -0.243646 -0.011804 -0.239170 -0.168017 0.333384 0.329229 0.655765 -0.087909 0.255886 0.068833 0.072259 -0.111058 -0.135102 -0.291124 0.373408 -0.237493 -0.105711 0.126303 0.243374 0.080551 -0.129931 0.166761 -0.257202 0.020801 -0.118504 0.017193 0.027596 -0.112139 -0.054516 -0.040341 0.441394 0.301708 0.092211 -0.273877 -0.072347 0.326280 0.311745 -0.146438 -0.325601 0.244933 0.204889 0.111039 0.034432 -0.008603 -0.181496 -0.383659 0.289147 0.189544 -0.352868 0.116226 -0.134275 -0.025381 0.216759 0.045115 0.043788 -0.075725 0.589267 -0.082346 0.000213 -0.146163 -0.169459 0.085817 0.393982 -0.440208 0.313530 0.022187 -0.114912 -0.024333 0.155768 -0.134650 0.108269 0.060853 0.254855 -0.300924 0.486225 -0.012901 0.210115 -0.507267 -0.252291 -0.098006 -0.070272 0.717470 -0.289260 -0.270846 -0.124538 0.328491 0.006506 -0.092190 0.155913 0.349601 0.029702 0.108103 0.339716
385 0.058441 0.221422 0.327754 0.013914 0.260997 -0.270946 0.298545 0.186142 0.141972 0.006541 -0.015295 0.345930 -0.292456 -0.281443 0.181346 -0.438951 -0.060194 -0.265056 0.356334 -0.392294 -0.180857 0.400243 0.031736 -0.186318 0.120697 0.134105 -0.003638 0.166166 -0.048165 0.271031 0.193938 -0.084034 -0.218929 -0.284201 0.282012 -0.092971 0.249613 -0.411378 -0.195441 0.400546 0.481806 0.309737 -0.128107 0.039951 0.116100 0.155070 0.045813 -0.084525 -0.596197 0.391353 -0.014250 -0.109566 0.085525 -0.008292 0.252080 -0.018700 0.094476 0.157805 -0.179068 -0.104178 0.168638 0.056200 -0.123257 -0.267542 0.083814 0.144975 0.195585 -0.183290 -0.169174 -0.171487 0.172940 0.076866 0.033163 -0.121999 0.148213 0.336472 0.160505 0.308751 -0.003453 -0.159232 -0.297498 -0.017395 0.393441 -0.314563 -0.080613 0.199886 -0.032370 -0.015701 -0.211873 -0.002967 0.149688 0.083248 -0.244925 -0.316587 -0.133828 -0.174571 0.004474 0.019410 -0.689446 0.018689 0.405836 -0.194028 0.017496 -0.156839 -0.250264 0.132229 -0.421158 -0.110727 -0.126098 0.548586 -0.002781 0.084535 -0.441853 0.159288 -0.389872 -0.199090 0.520030 -0.122695 -0.275039 -0.129534 0.229140 0.072592 -0.228013 -0.085784 0.294299 -0.039244 -0.175145 0.235176
1054 -0.462157 -0.085569 0.269528 -0.020926 0.302406 -0.043574 0.071043 -0.187703 0.333663 -0.234455 0.201753 0.274015 -0.458305 -0.130484 0.058012 -0.172301 0.054712 -0.552499 0.666856 -0.337809 -0.370066 0.249415 0.291324 0.127258 0.129062 0.197283 0.000124 0.195383 0.029224 -0.067865 0.207917 -0.118772 -0.141852 0.362404 0.130726 -0.184598 0.127567 0.102907 -0.399054 0.107441 0.528998 -0.087474 0.011796 -0.139994 0.099591 -0.025451 0.031605 -0.097798 -0.316097 -0.020367 -0.083471 -0.332223 -0.109646 0.344736 0.209787 -0.255056 -0.124689 0.193695 -0.590922 -0.444611 0.275307 -0.107404 -0.096597 0.030992 -0.411536 0.465624 0.162473 -0.306179 0.032572 -0.068402 0.148475 0.184494 -0.186566 -0.221141 0.051145 0.547045 -0.093031 0.092745 0.182015 0.010207 -0.410832 0.044353 0.123592 -0.115240 0.069439 0.093647 0.089225 -0.221255 -0.143074 -0.227298 -0.067698 0.015481 -0.156083 -0.289292 -0.382166 -0.143904 0.353712 0.026303 -0.142131 0.012355 0.137790 -0.386897 0.133957 0.130364 -0.255308 0.477093 -0.293910 -0.343539 0.051670 -0.377765 0.022472 0.087432 -0.098511 0.257689 -0.051825 -0.264797 0.637804 -0.594378 -0.425434 0.029545 0.222406 -0.134321 -0.381181 0.359587 0.409975 -0.180510 -0.190507 -0.407868
1274 -0.524168 0.204447 0.290813 1.067281 0.481548 -0.185619 0.992224 0.010261 0.488761 -0.062721 0.003946 -0.277194 -0.511747 -0.473267 -0.437222 -0.293448 -0.088425 0.235568 -0.213158 -0.477551 0.399270 -0.274941 0.324664 0.021385 0.779107 0.310070 -0.041054 -0.140340 -0.398622 -0.055268 -0.490221 -0.421202 0.024013 -0.631745 -0.686887 -0.200382 0.433945 -0.063380 -0.575522 -0.442972 -0.571591 0.278411 0.487737 -0.378442 0.097063 -0.867684 0.228095 -0.620453 0.394268 0.213536 0.152687 -0.382645 -0.173665 0.040441 0.026817 -0.451748 -0.164733 0.019592 0.402898 0.134947 -0.247919 0.522084 -0.731900 0.059976 -0.354267 -0.021201 0.000425 -0.072751 -0.404604 0.154326 0.007063 -0.608391 -0.226433 0.149304 -0.262370 -0.233295 -0.294326 -0.567140 -0.309465 -0.712611 -0.364251 0.408168 -0.494118 -0.645805 -0.134401 -0.468713 -0.399451 0.459768 -0.648693 -0.799088 -0.482613 0.602658 -0.013847 -0.824916 0.448917 -0.145459 0.078200 -0.212547 0.093716 0.221126 0.392117 -0.082870 0.100644 -0.565146 0.645773 0.388746 -0.106310 0.321160 0.206773 0.132207 -0.071812 0.019636 -0.751135 0.121125 -0.523360 -0.759766 -0.228482 -0.630501 -0.071924 0.368624 0.368711 -0.607129 -0.525980 0.573632 0.481991 0.235777 0.234560 0.108788
1883 -1.024680 -0.058550 0.046197 -0.426617 0.424764 -0.654859 -0.024412 0.435715 -0.123855 -0.300083 0.425604 0.478331 -0.021908 -0.579128 -0.403658 0.779388 0.079805 -0.546746 -0.137875 0.651274 0.345179 -0.443440 0.160120 0.202173 0.466597 0.085469 0.452248 -0.286733 0.149460 0.107298 -0.229531 -0.013214 0.259474 0.008356 -0.402600 0.014873 0.196263 0.053772 -0.701820 0.109287 -0.170143 -0.240631 0.282317 -0.237063 -0.167797 0.281054 0.927886 -0.684036 0.294385 0.028378 -0.055371 -0.233059 0.061368 -0.449103 0.216592 0.001934 0.332744 -0.407411 -0.222334 -0.150251 0.478837 0.433393 -0.029816 0.352568 0.238206 0.291256 -0.164455 -0.384031 -0.064977 0.341933 -0.160246 0.204969 -0.408561 0.368369 0.267123 0.242884 -0.913194 0.760987 0.054085 -0.217127 -0.074688 0.360981 0.616492 -0.536518 0.033505 -0.795313 -0.104186 0.909506 -0.500192 -0.150250 -0.034194 0.600654 -0.607872 -0.508783 -0.234008 -0.562492 -0.135530 -0.013229 -0.222034 -0.059408 0.042911 -0.311202 0.175173 0.481163 -0.349047 0.829682 -0.458074 -0.157780 -0.006028 0.206458 0.208888 0.503355 0.220905 0.019088 -0.714633 -0.376515 -0.290688 0.501058 -0.266641 0.193297 0.152841 -0.541340 0.170373 -0.150038 0.163531 -0.307253 0.067329 0.168799
1115 -0.347737 0.158408 0.172765 -0.026884 0.095000 -0.035756 0.247569 0.280225 0.362681 -0.657726 -0.356212 -0.366344 0.146762 -0.458449 -0.431583 0.097797 -0.406089 -0.987450 0.294547 0.234510 -0.079244 -0.116074 -0.190156 -0.095917 -0.399659 0.478287 0.343224 -0.413194 -0.013323 -0.055685 -0.388040 -0.444709 0.265494 0.062891 -0.111268 0.128194 -0.199774 0.342066 -0.080598 0.634509 -0.351827 -0.037930 0.230408 0.095902 0.200281 -0.269257 0.238635 -0.036727 0.346465 0.456432 -0.419884 -0.076100 -0.140362 -0.161814 0.098672 0.038892 0.427393 -0.626578 -0.056208 -0.705614 0.676357 0.132991 0.308719 0.705691 0.264787 -0.474719 0.356521 0.267689 -0.129565 0.233788 0.313560 -0.695270 -0.151014 0.069470 0.059673 -0.144786 -0.524694 0.065846 0.143181 -0.468402 0.002494 0.234267 0.003852 -0.125503 0.128605 0.840475 -0.256993 -0.010104 -0.026587 0.096638 0.040730 -0.044364 0.167161 -0.021612 0.110437 0.024551 -0.445527 -0.244075 -0.179159 0.647516 0.483521 0.092818 0.005081 -0.167309 -0.216249 0.208026 -0.101042 0.077022 0.137302 0.211680 -0.289783 0.324949 -0.451134 0.023680 0.069555 -0.629181 -0.085655 0.020902 -0.202077 -0.085316 0.226923 0.099151 0.131945 0.290339 -0.061289 0.105237 0.043355 0.210653
2417 -0.208272 0.442920 0.072639 0.003102 -0.117403 0.004535 0.310713 0.341223 0.668973 -0.366262 -0.118240 -0.117054 -0.058776 -0.289058 0.156823 0.394133 -0.274398 -0.726836 0.023941 -0.186384 -0.082588 -0.157250 -0.026342 -0.046472 -0.033921 0.050192 0.235898 -0.277009 -0.067435 -0.254499 -0.375929 0.088965 0.359981 -0.258290 0.102272 0.498082 0.124172 0.623821 -0.102987 0.236261 0.163005 -0.159090 0.009670 0.061758 0.658992 -0.325110 0.412489 -0.133224 0.524616 0.363426 0.108410 -0.098068 0.015171 0.323132 -0.385151 -0.074120 0.736241 -0.636172 -0.121826 -1.039509 0.761441 0.094777 -0.058474 0.501940 0.079914 -0.193613 0.196367 -0.063990 -0.362728 0.281657 0.196470 -0.293365 -0.419197 -0.298886 0.162285 -0.288964 -0.614721 -0.152858 -0.074687 -0.470442 -0.027037 0.370638 0.007554 -0.170587 0.195234 0.585090 -0.260239 -0.102452 0.091556 0.142502 0.388785 0.349295 0.026362 -0.053799 -0.030713 -0.216495 -0.374156 -0.129703 -0.503630 0.208954 0.330763 0.203709 -0.101422 0.191619 -0.036051 0.282962 0.046179 0.467651 0.092271 0.115918 -0.203485 0.541702 -0.673219 -0.053739 0.496196 -0.856291 -0.232501 0.017681 -0.090584 0.378751 -0.030559 0.101835 0.149115 0.010002 0.134258 0.019892 0.433561 0.515981
14 -0.581822 0.397533 0.703689 0.351533 0.119681 -0.016555 -0.043194 0.189134 0.202206 -0.295343 -0.049042 0.226668 -0.370776 -0.223019 0.165555 -0.074278 -0.003324 -0.091608 0.343029 -0.097003 -0.086570 0.537160 0.137091 0.179076 0.242260 -0.268790 0.034689 0.224200 0.164935 -0.261180 0.060079 -0.087130 -0.389949 0.330871 0.135456 -0.266183 0.179269 -0.133155 -0.458374 0.082787 -0.087274 -0.052638 -0.097570 0.212088 0.050250 0.124728 -0.101648 0.188327 -0.364011 -0.014901 0.100094 -0.060784 0.143494 0.302108 -0.033389 0.158669 -0.035943 0.255418 -0.031098 0.145973 0.414083 -0.169053 -0.310448 -0.124225 -0.379011 0.226296 0.120569 -0.458538 0.062673 0.053543 -0.021360 0.154353 -0.184033 -0.047117 0.086869 0.353594 -0.145187 0.012069 0.064248 -0.580947 0.304080 0.231569 -0.023321 -0.408846 0.147995 0.040317 0.099026 -0.205687 -0.383232 -0.326002 0.205256 -0.054286 -0.061555 -0.250369 0.023703 -0.331332 -0.277432 0.287144 -0.119856 0.512082 -0.126449 -0.456117 0.260957 -0.259098 -0.176694 0.543549 -0.555082 0.150431 -0.529381 0.223781 -0.044600 0.182554 0.099784 -0.221457 -0.087458 -0.430548 -0.084087 -0.936770 -0.298700 0.317911 0.064491 -0.374921 0.021027 -0.025415 0.173518 -0.165644 -0.013590 -0.484995
39 -0.519078 0.276140 0.195876 -0.096692 0.089146 0.269058 -0.104318 -0.365603 0.284257 -0.020506 0.211198 -0.057208 -0.561759 -0.384339 -0.586035 0.176310 -0.235536 -0.317087 0.752283 -0.697033 -0.069939 0.522402 0.182590 -0.037787 -0.023470 -0.436951 0.099075 0.575991 0.281192 0.229848 0.312725 -0.036804 0.462755 -0.385256 0.057910 -0.484963 -0.192484 -0.045522 -0.595884 -0.257917 -0.116444 0.108867 -0.615768 -0.493943 -0.023699 -0.433843 0.211606 -0.314280 -0.027510 0.325567 -0.424553 -0.196777 0.425614 0.192671 -0.248716 -0.221272 0.328156 -0.509364 -0.310045 -0.464608 0.102202 0.122862 0.173627 -0.361587 -0.437828 -0.364262 0.092734 -0.056085 -0.135457 -0.256647 0.355552 -0.211124 0.154029 0.518759 0.291794 0.404952 -0.030875 -0.023595 0.429504 -0.304031 -0.049215 0.031216 0.382744 0.703447 0.367893 -0.341077 0.331008 0.180203 0.401091 0.286548 0.229885 0.961937 0.311255 -0.530810 -0.237890 -0.525898 -0.429319 0.010999 0.892794 -0.030149 0.351993 0.077248 0.409540 -0.076393 0.176078 -0.439025 0.089509 0.371147 0.275451 0.264141 0.323653 0.225951 -0.650697 0.075935 -0.341234 0.093230 0.219243 -0.482654 0.182926 0.162471 0.285596 -0.051376 -0.227281 -0.130469 0.445619 0.218441 0.125061 0.031817
2413 -0.546071 0.217580 0.384805 -0.193958 0.097717 0.225389 0.327494 0.026085 0.235454 -0.865506 -0.064166 -0.176668 -0.112385 -0.023406 -0.353717 0.289754 -0.344694 -0.416117 0.527002 -0.159754 -0.035120 -0.013749 -0.083671 -0.113682 -0.327934 0.179819 0.329869 -0.325703 -0.326450 -0.365090 -0.275991 -0.736243 0.471024 0.265438 -0.159201 0.068135 -0.163188 0.632372 0.004493 0.152288 -0.313917 -0.099544 0.336419 0.333576 0.387357 -0.062423 0.194263 -0.007751 0.317495 0.148204 -0.293312 -0.189886 0.060832 0.037441 0.022098 -0.217693 0.425558 -0.651873 -0.206274 -0.690972 0.515574 0.080850 0.472782 0.383773 0.123495 -0.297105 0.083035 0.296696 -0.311600 0.343832 -0.081437 -0.511227 -0.313426 -0.044442 0.096038 -0.494296 -0.323144 -0.153204 -0.007677 -0.254882 -0.135192 0.520041 -0.336307 -0.042204 0.133860 0.483563 -0.577725 -0.045063 0.067890 0.290555 0.298473 0.001501 0.259266 0.003145 -0.183532 -0.299130 -0.426492 0.106012 -0.051363 0.212264 0.349185 0.133023 -0.175116 -0.017497 -0.484815 0.108466 -0.166664 0.457888 0.346849 0.118046 -0.585004 0.616759 -0.650874 -0.010707 -0.131736 -0.720140 0.123973 0.235083 -0.179396 0.213354 -0.063376 0.008247 0.075283 -0.254058 0.075977 -0.116956 0.272202 0.335235
2895 -0.499708 0.441475 0.465875 -0.131212 0.731648 -0.045590 -0.044700 0.262252 -0.249642 -0.001803 -0.236574 -0.047292 -0.342743 -0.065004 -0.600078 0.198088 -0.285301 -0.808218 -0.025338 0.047226 -0.098545 0.638882 -0.093632 0.422464 -0.015273 -0.193502 0.588419 0.321446 0.027082 0.550294 0.133943 -0.199189 0.455511 0.205631 0.166091 0.279207 -0.087885 0.514350 -0.519478 0.222507 -0.334635 0.136661 -0.152959 -0.176829 0.190113 -0.567847 0.129238 -0.223894 0.073696 0.070078 -0.177539 0.090750 0.064402 0.145538 0.689951 0.023478 -0.109913 -0.253674 0.018541 -0.686105 0.264401 0.388347 0.199041 0.635180 -0.126503 0.203774 0.212422 0.716304 0.012514 0.085908 -0.063928 -0.186681 -0.213360 -0.230692 -0.277882 -0.627473 -0.274004 -0.302418 0.049985 -0.048134 0.369825 0.480066 0.072411 0.464589 -0.426051 0.357359 -0.844238 -0.222727 0.087015 -0.145616 -0.146004 0.129707 -0.170459 0.146397 0.210893 -0.472563 -0.422343 -0.567404 -0.343441 0.126555 -0.040041 0.103564 0.042054 -0.264468 -0.189344 0.423349 -0.599667 0.585492 0.239807 0.350565 0.064863 0.293055 -0.037484 0.020971 0.165975 -0.656592 -0.386388 0.120778 -0.208635 -0.293048 -0.326193 0.536129 0.214704 0.473237 0.208466 0.042141 -0.233571 0.216644
2587 -0.505290 -1.353797 0.722065 -0.336052 0.716692 -0.695284 0.475930 0.424409 -0.092668 -1.436553 0.852553 0.197411 0.575024 -0.829693 0.023019 -0.187529 -0.536459 -0.053560 -0.403155 0.175236 0.284574 -0.358037 0.204626 0.080476 -0.626077 -0.372291 -0.073620 0.200650 0.042667 -0.946466 -0.196529 -0.671245 -0.487744 0.201567 0.688271 0.203085 0.070651 -0.036540 -0.110964 -0.693500 0.298771 0.922617 -0.224328 0.218141 0.912217 -0.239836 -0.106713 -0.658592 -0.584040 0.313274 0.919916 -0.240356 0.306737 0.500918 0.199269 0.170729 -0.746842 0.253399 -0.374337 -0.917654 0.147998 0.905871 0.120846 -0.458412 -0.058917 0.022704 0.582625 -0.022938 0.129709 0.055677 -0.794628 -0.639503 0.789063 0.212986 -0.148197 -0.231280 0.142210 -0.782764 0.359916 -0.564006 -0.427753 0.488247 0.377605 -0.133350 -0.286625 -0.265514 0.265408 -0.254847 0.583397 0.418087 -0.672569 1.293060 0.231228 -0.406302 0.467745 0.194475 -0.806590 0.209012 0.078519 0.250494 -0.135336 0.423104 -0.323837 0.304915 0.521543 -0.159137 -0.482597 0.945130 0.904559 0.444335 0.459566 0.833749 -0.875952 -0.896335 -0.604596 -0.671944 -0.692427 -0.399700 -0.182576 -0.122439 -0.085310 -0.970007 -0.865402 -0.696893 -0.276694 0.349361 -0.443415 0.098799
2344 -0.740699 -0.301830 0.077492 0.195478 0.402750 -0.906144 0.299869 0.146142 0.323703 -0.301565 0.083736 -0.170828 -0.280489 0.064223 0.055140 0.661991 -0.305006 -0.549121 0.138177 -0.278431 0.087114 0.226556 0.106640 0.324488 0.193594 0.456951 0.453381 -0.116393 0.105162 -0.566134 -0.176303 -0.049214 -0.022713 -0.340582 0.231669 0.442954 0.429975 0.155013 -0.748489 0.253190 -0.170955 -0.355113 -0.116465 -0.346593 0.283143 -0.026077 0.355818 0.118641 -0.035306 0.209858 0.116290 0.094026 0.223366 0.117633 0.467468 0.032917 0.256405 -0.890046 -0.253603 -0.739747 0.371619 0.445262 0.358406 0.249209 -0.311672 -0.431684 -0.063323 0.224205 -0.047182 0.379619 -0.262530 -0.017191 -0.138297 0.068403 -0.005977 -0.215939 -0.166398 0.152656 0.113304 -0.115110 0.200969 -0.014382 0.297051 -0.286247 -0.290555 -0.267634 -0.002913 0.072863 -0.302611 -0.007236 -0.119700 0.245809 0.222192 -0.144971 -0.389361 -0.263362 -0.136944 0.071987 -0.065178 0.084435 -0.518145 -0.187496 0.003674 0.069745 -0.022597 0.057957 -0.225032 0.346872 0.261660 0.070812 -0.089607 0.518459 0.224937 0.155047 0.370578 -0.113804 -0.116804 0.541270 0.416608 -0.394227 -0.049056 0.274782 -0.024246 0.214751 0.046487 0.052236 0.429119 0.102623
3118 -0.074069 0.227172 0.491043 -0.169728 0.368552 -0.279731 0.328394 0.167194 0.181786 -0.491570 0.774208 0.130044 -0.353073 0.031233 -0.096563 0.341616 -0.024444 -0.194701 0.096347 -0.093349 -0.458934 0.129435 -0.634586 0.178674 -0.714466 0.167255 -0.371463 0.429349 0.095635 -0.231304 0.055781 -0.562426 -0.031970 0.327186 0.390696 0.042301 -0.024608 0.046564 -0.247568 -0.210885 -0.034122 -0.207370 0.258740 -0.684235 0.416886 -0.543248 0.001867 -0.154427 0.247867 -0.156698 0.874051 -0.302580 -0.583165 -0.151401 0.219554 0.325529 -0.015813 -0.395468 0.186489 -0.119463 0.551644 0.442951 -0.570644 0.119461 0.118479 -0.250404 0.386167 -0.341573 0.243849 -0.772576 -0.355329 -0.025066 -0.128764 0.148319 0.812281 -0.114178 -0.625515 -0.116449 0.356095 0.364101 -0.029863 -0.265009 0.194689 0.198799 0.143870 0.325129 0.090653 0.578364 0.185563 -0.315809 0.067871 0.396413 0.478414 -0.502047 0.655092 0.157305 0.461084 -0.511134 -0.326311 0.327927 -0.497954 -0.487353 -0.112917 0.109763 0.327652 0.210316 0.450598 -0.169397 -0.176798 0.330137 -0.400612 0.326631 -0.111932 -0.349844 0.034177 -0.386511 0.657612 -0.433088 0.357570 0.127553 -0.040335 -0.125942 -0.399860 -0.293888 0.293253 -0.547682 -0.465538 0.136096
1841 -0.348047 0.182100 0.429534 0.240991 0.238391 -0.331365 0.075948 -0.031455 0.383639 -0.280956 0.339974 0.057492 -0.353497 -0.261353 0.021000 0.117664 -0.111701 -0.384098 0.780782 -0.066478 -0.382838 0.130867 0.204754 0.054794 0.346104 0.001547 0.204377 0.755277 0.119362 -0.097890 0.111695 -0.206014 -0.205912 0.452046 -0.032679 -0.229806 0.211846 0.107581 -0.032069 0.184680 0.066231 0.256712 0.011393 0.059763 0.054188 -0.229535 -0.033845 -0.002645 -0.446840 0.223176 0.271491 -0.109319 -0.108661 -0.211801 0.089416 0.015388 -0.092669 -0.045823 -0.097433 0.125478 0.338357 -0.161342 -0.005235 -0.046596 -0.100211 0.517069 -0.151625 -0.395072 0.263144 -0.033328 0.256695 0.428520 0.033668 -0.077683 0.068370 0.141206 0.154258 0.119501 -0.568247 -0.131545 -0.183122 0.150270 -0.100869 -0.327648 0.173893 0.035942 0.032505 0.068143 0.182357 -0.289768 0.409126 0.151957 0.257643 -0.268258 0.427011 0.307454 -0.268615 0.110671 -0.347767 0.377329 -0.550229 -0.272314 0.085939 -0.246820 -0.228249 0.521953 -0.562527 0.012949 -0.441937 0.172663 0.522425 -0.052812 -0.227043 0.095122 0.103217 -0.154037 0.142358 -0.231439 -0.155070 -0.048586 0.391164 -0.457523 -0.036071 -0.087644 -0.037462 -0.351153 -0.028126 0.309475
1961 0.173713 0.058148 0.059375 -0.289654 0.207206 -0.025980 0.193830 0.316192 0.030161 -0.406362 0.448542 -0.056268 -0.233062 0.034875 0.060585 -0.415519 0.198554 0.036981 0.327288 -0.363986 0.329061 0.605363 0.149511 0.115375 0.127757 0.017104 0.464788 0.207798 -0.438291 -0.118297 0.351080 -0.038102 0.088782 -0.173738 -0.043713 0.125324 0.130446 -0.493032 -0.277036 0.476506 0.468008 0.364417 -0.108816 0.226031 -0.482458 -0.264441 0.282601 -0.201057 -0.364720 0.482130 -0.181921 0.129156 0.026695 0.064321 -0.362543 -0.275964 0.168424 -0.064544 -0.224391 -0.309168 -0.172113 0.113597 -0.124799 -0.204840 0.257117 0.244546 0.427374 0.012769 -0.005084 -0.060568 -0.059946 0.387149 -0.026402 0.010720 0.290377 0.356688 0.072114 -0.140768 0.009457 -0.278516 -0.216872 0.125434 0.204805 -0.058623 0.281240 0.008200 -0.226262 -0.146708 -0.288407 -0.053908 -0.193753 0.390980 0.069436 -0.196530 0.025041 -0.392844 -0.332206 0.231020 -0.731373 0.259733 0.276566 -0.064461 -0.018770 0.134949 -0.235709 0.168992 -0.209545 -0.035691 -0.181474 0.238399 0.162931 -0.095988 -0.504914 0.031624 0.165289 -0.221913 0.604649 -0.537582 0.463168 -0.086982 0.339125 0.073752 -0.159099 -0.050067 0.435198 -0.331629 -0.269154 0.319567
96 -0.612843 0.392591 -0.518174 0.097588 1.073531 0.075577 0.939499 0.449701 -0.509577 -0.599953 -0.406255 1.335998 -0.212658 0.049682 -0.691259 0.196457 -0.076481 -0.843321 -0.240810 -0.274171 -0.297054 -0.116280 -0.122126 0.590099 0.308538 0.499253 -0.369582 0.392874 0.182780 0.267316 0.668392 0.016838 0.204693 -0.035583 0.132184 -0.188154 0.174409 -0.567677 -0.495307 -0.473810 0.120974 0.568396 0.246899 0.257752 -0.324262 -0.400341 0.560639 -0.380725 -0.625315 0.647502 -0.171154 -0.220775 -0.226031 0.423077 -0.340959 -0.300151 0.041209 -0.183204 -0.277653 -0.621573 0.346570 0.355299 0.496369 -0.022923 -0.708340 0.255154 -0.040635 0.341752 -0.007950 0.454059 -0.308932 -0.395342 0.298509 0.742920 -0.047744 0.052985 -0.237891 0.177024 0.007575 -0.545002 -0.152872 -0.306270 -0.325590 0.182392 -0.075770 -0.153387 -0.771975 1.002895 0.072193 0.429315 -0.038665 -0.041223 0.351181 -0.101852 -0.090994 0.022159 -0.102823 0.080409 -0.076215 0.321175 0.626370 -0.147828 0.258401 -0.005093 -0.388729 0.315043 0.426108 0.017459 0.085644 0.311769 0.249993 0.348185 0.100129 -0.145194 0.589613 0.070870 -0.288625 -0.741349 0.421520 -0.025142 0.083643 -0.254762 -0.256404 -0.234508 -0.600357 -0.060953 0.318477 -0.198657
1643 0.358550 0.219280 0.170802 -0.194094 0.339778 -0.202393 0.240543 0.279642 0.031937 -0.175295 0.075448 0.298986 -0.122692 -0.112603 0.082380 -0.325507 0.056056 -0.225153 0.173529 -0.552749 0.335729 0.486629 0.059988 0.076532 0.113262 0.077642 0.253432 0.409008 -0.212674 0.248335 0.276867 -0.279462 -0.342098 -0.281549 0.129763 -0.115027 0.263717 -0.594303 -0.335153 0.489972 0.286304 0.416435 -0.105150 0.281275 -0.184522 0.071865 -0.253068 -0.330104 -0.394886 0.309844 -0.173247 0.091031 0.379537 0.276896 -0.233014 -0.286795 0.064175 -0.008274 -0.344154 -0.088146 0.078900 0.004599 -0.298845 -0.105764 0.020029 0.397051 0.463162 -0.091120 -0.034433 -0.099194 0.086714 0.304638 0.133955 -0.012507 0.199600 0.450319 -0.056940 -0.055198 0.039398 -0.007186 -0.179577 -0.008747 0.257031 -0.336181 -0.078377 0.293433 -0.218755 -0.100260 -0.068395 0.436682 -0.161901 0.521756 -0.150105 -0.283194 -0.065602 -0.060840 0.087528 0.018516 -0.561396 0.239604 0.071184 -0.202402 0.249158 0.060088 -0.001645 0.252588 -0.192037 0.100325 -0.258904 0.185529 -0.156010 0.103495 -0.548557 -0.084652 -0.351674 -0.307236 0.422317 -0.140523 0.082996 -0.263419 0.355220 0.021158 0.016678 0.085039 0.339232 -0.280807 0.234234 0.364118
471 -1.274259 0.317348 0.654266 0.099896 0.968093 -0.116912 0.058298 0.466074 -0.343169 -0.261338 0.876879 0.881048 -0.837441 0.629522 -0.049814 0.548521 0.962200 -0.841925 1.030346 -0.179023 -0.190532 -0.313399 -0.716393 -0.401245 -0.097843 -0.376594 -0.196118 0.390943 -0.109857 -0.642881 -0.732202 -0.155225 -0.056958 -0.174909 0.178031 -0.010996 -0.198867 0.160466 -0.131821 -1.028962 -0.559656 -0.186893 0.701763 -0.567508 -0.046763 -0.251789 0.270055 -0.563540 -0.486120 0.196027 -0.147704 -0.421543 -0.340050 0.125328 -0.018888 0.134569 0.018764 0.217210 0.850766 -0.910997 -0.567407 -0.092785 -0.191631 -0.225248 -1.125465 -0.276300 0.160860 -0.267128 0.175972 -0.778330 0.506186 -0.036965 -0.699876 0.349284 -0.279572 0.080553 -0.848405 0.505486 0.457023 0.140627 -0.478184 0.226074 -0.027933 -0.558788 0.604050 0.068625 0.282199 0.515373 -0.316576 0.219884 -0.489909 0.319741 -0.407528 -0.394690 0.433297 0.208578 0.122634 0.000783 -0.585105 0.080684 0.524832 -0.075026 0.261893 -0.696140 0.468982 0.200196 -0.261994 1.087955 -0.568306 -1.056949 0.006637 0.080808 -0.042565 -0.408423 -0.231844 -0.742334 0.522069 0.102270 0.416176 -0.599937 0.354524 -0.229891 0.399566 0.990373 0.291383 -0.033616 -0.020576 0.704517
1282 -0.521088 -0.154448 0.295468 0.843947 0.727191 -0.408945 0.836781 0.023229 0.576046 -0.047988 0.000139 -0.068145 -0.384477 -0.503170 -0.548997 -0.332779 -0.054521 0.353216 -0.243577 -0.523824 0.426237 -0.253484 0.563196 -0.087418 0.359788 0.281099 -0.228211 -0.065222 -0.227728 0.033789 -0.472816 -0.190418 -0.076777 -0.669805 -0.685391 -0.045485 0.322094 -0.024481 -0.880554 -0.311486 -0.451449 0.390349 0.623562 -0.408142 0.095523 -0.995519 0.349211 -0.651997 0.491760 0.129128 0.400304 -0.075072 -0.060185 0.017975 0.208393 -0.297063 0.011874 -0.259217 0.456927 0.003634 -0.415498 0.270951 -0.590529 0.124801 -0.294415 0.101027 -0.036525 -0.110568 -0.451217 0.123010 -0.160696 -0.827808 -0.454750 0.135620 -0.194531 -0.571663 -0.469236 -0.599475 -0.375108 -0.555090 -0.609305 0.170608 -0.699115 -0.594141 -0.000264 -0.433489 -0.437333 0.536661 -0.597895 -0.883405 -0.491988 0.705230 0.150317 -0.597733 0.373997 -0.158551 0.049046 -0.035163 0.307637 0.268940 0.147821 -0.361902 0.158399 -0.532898 0.703399 0.311006 -0.536001 0.664916 0.321577 0.049116 0.097043 -0.018947 -0.763268 0.354036 -0.257785 -0.942998 0.015058 -0.586829 0.090673 0.450976 0.387514 -0.478268 -0.425526 0.857390 0.489109 0.281391 0.068556 0.228889
1514 -0.021894 -0.064802 0.021022 -0.202455 0.214377 -0.386745 0.291651 -0.255269 0.256449 -0.137445 0.147160 -0.152156 -0.617055 -0.008150 -0.197746 -0.081844 0.128450 -0.149803 0.280057 -0.338023 -0.149619 0.649488 0.498764 -0.223353 0.353481 -0.044578 0.244474 0.288503 -0.110202 0.095196 -0.077052 -0.084998 0.144183 0.092867 0.482318 -0.206556 -0.310305 -0.405904 -0.296974 0.097875 0.235035 0.200747 -0.147716 -0.135771 0.180097 0.022193 0.142744 -0.107440 -0.345572 0.004664 0.053756 0.248994 0.109252 0.185262 -0.101626 0.063576 -0.127677 -0.144006 -0.293939 -0.055654 -0.219074 -0.154670 0.175273 -0.054033 -0.129034 0.232231 0.246036 0.297232 -0.255085 0.177471 0.157807 0.349893 0.101256 -0.313390 -0.272684 -0.011118 0.077427 -0.149233 0.235007 -0.062208 -0.441576 0.341224 0.248876 -0.347624 0.202741 0.281780 -0.056889 0.211968 0.070117 -0.237292 -0.305000 0.283967 -0.027495 -0.399267 -0.061384 0.000306 -0.008735 -0.135415 -0.613940 0.115007 0.382350 -0.261588 0.211780 0.123692 0.072068 0.184694 -0.142034 -0.035907 -0.472318 0.686755 -0.426274 0.016015 -0.401422 -0.300805 -0.211505 -0.038315 0.459214 -0.404673 -0.179870 -0.346414 0.407333 -0.274509 -0.005504 -0.108529 -0.192156 0.124399 0.137063 0.600296
1027 0.071157 -0.462658 0.054997 -0.045551 0.191635 -0.048774 0.001573 0.048467 0.151350 0.061645 -0.127193 0.493482 -0.665944 -0.247833 -0.196334 -0.031586 0.390756 -0.298577 0.796249 -0.105372 -0.114453 0.387263 0.132095 0.102700 0.244386 -0.023580 0.169721 0.541494 -0.592702 -0.157360 0.275889 -0.032448 -0.066283 0.029268 0.235466 -0.377750 0.116008 -0.342817 -0.089599 0.164637 0.108781 0.096926 0.158457 -0.285648 -0.091618 -0.651467 0.324985 -0.113202 -0.410898 -0.110136 -0.159751 0.015317 0.206454 0.393711 -0.147981 -0.201455 0.166064 -0.145546 -0.297498 -0.578304 0.045568 -0.159064 -0.117333 -0.086867 -0.047788 0.333556 0.328759 -0.152062 -0.173002 0.259186 0.088277 -0.059138 0.077651 -0.504048 0.208046 0.104236 0.055560 0.226828 0.212265 -0.176939 -0.619433 0.101648 0.445964 -0.193865 0.201177 0.189150 -0.333247 -0.257316 -0.012693 -0.268434 0.005367 -0.305068 -0.262470 -0.318972 -0.014545 0.128853 0.196721 0.297244 0.073636 0.090454 -0.097677 -0.001211 0.117142 0.001552 -0.081415 0.656162 -0.274612 -0.470082 -0.334205 0.131851 0.184753 0.047555 -0.069767 0.043562 -0.234733 -0.508823 0.652447 -0.361847 -0.169152 -0.329640 0.153288 -0.293029 -0.120054 0.274742 0.273736 0.054600 -0.374957 0.347691
1861 -0.050122 0.533784 0.062246 0.315300 0.360323 0.009430 0.757171 0.839286 0.266481 0.064753 0.177478 0.099797 0.179712 0.094758 -0.480322 0.761255 -0.023089 -0.536691 -0.196960 -0.279068 0.263362 0.419064 0.106190 0.349792 -0.316487 -0.073872 0.370558 0.293251 0.044799 0.034027 -0.235925 -0.502022 0.041194 0.210638 -0.086873 0.384688 -0.207269 0.450300 -0.425098 0.389643 0.628296 0.104102 -0.305685 -0.487404 0.447395 -0.379572 -0.112147 0.019352 -0.001005 0.110850 0.678617 -0.266098 0.140519 0.225385 0.193461 -0.094453 0.400569 -0.662980 -0.503210 -0.461462 0.142064 0.394828 0.576598 -0.122520 0.178291 -0.498307 0.320745 -0.573140 -0.716947 -0.239960 -0.075430 -0.392052 -0.339796 -0.019677 0.030896 -0.095189 -0.400879 -0.270724 0.169370 0.304335 -0.358681 0.211937 -0.309119 0.234006 0.351761 -0.255662 -0.584364 0.605482 0.290755 -0.309994 0.531680 -0.146395 0.233138 -0.314553 0.609547 -0.219071 -0.244470 -0.344662 -0.864019 0.362414 0.157188 0.027959 -0.313452 -0.116898 0.736074 0.341433 0.708255 -0.218044 -0.405345 -0.347102 -0.365966 0.380787 0.047164 0.586306 -0.310263 -0.751328 -0.013403 0.350750 0.067853 0.283465 -0.011296 -0.090237 0.172359 -0.366203 -0.300032 0.164711 -0.356855 -0.270718
366 -0.216636 0.086861 0.422643 0.491368 0.228190 -0.064580 0.190824 0.417887 0.471836 -0.290654 -0.188215 0.109250 -0.165019 -0.429709 0.111322 0.027949 -0.414378 -0.173635 0.311372 -0.178847 -0.208380 0.719742 0.112551 0.084467 0.696175 0.062835 -0.141587 0.427476 0.167967 -0.128931 0.527125 -0.236582 -0.398578 0.307256 -0.023499 -0.474637 -0.024699 0.010090 0.050391 0.342733 0.225931 0.216314 0.112720 0.053904 0.515907 0.025957 0.286691 0.155452 0.010210 0.034005 -0.024360 -0.068218 -0.193634 0.210577 0.127337 0.452279 0.159099 -0.009183 -0.273046 -0.105710 0.144266 -0.100519 -0.004019 -0.108597 -0.269685 0.435713 0.040840 -0.454854 0.397200 0.094250 -0.001406 0.068631 -0.165966 0.241145 0.056489 0.192850 0.422185 0.096687 -0.077189 0.126750 0.083994 0.220787 -0.025653 0.016686 0.057941 0.010335 0.009480 0.042063 -0.337920 -0.206659 -0.128656 0.245650 0.392469 -0.205980 0.292904 -0.355556 -0.095279 0.347926 0.153401 0.135604 -0.011144 -0.120405 0.558731 -0.746879 0.128627 0.209261 -0.654775 0.324710 -0.536815 0.300262 -0.023095 0.293517 -0.217634 -0.133787 -0.181852 0.079697 -0.227113 -0.508390 -0.105498 0.093416 0.272564 -0.536525 -0.086550 0.104053 0.037032 -0.468795 0.036725 0.111644
537 0.057486 -0.071414 0.059368 -0.102301 0.391576 -0.366503 0.124942 -0.148582 0.074129 -0.102987 -0.136964 0.087273 -0.408264 -0.364673 -0.040485 -0.096731 0.492560 -0.097125 0.425166 -0.137956 0.040162 0.362490 0.347728 -0.320638 0.353005 -0.192548 0.069886 0.522280 0.172200 0.034117 -0.034255 -0.216126 0.157269 0.024870 0.185479 -0.122004 -0.276603 -0.404225 -0.227088 0.232235 0.593478 0.208437 -0.034885 -0.275446 -0.296660 -0.038454 0.108383 0.005659 -0.278729 -0.009762 0.028754 -0.000145 0.280340 0.335656 -0.036733 0.113796 0.178091 -0.279941 -0.175309 -0.025466 0.169401 -0.268805 0.095807 -0.061861 -0.080746 0.107075 0.427919 0.103529 -0.048063 0.082772 0.266603 0.433229 0.122360 -0.432768 0.026011 0.062515 0.194254 -0.212092 0.126275 0.310968 -0.393092 0.393113 -0.156047 -0.339033 -0.108531 0.060981 -0.077503 0.286018 0.018915 -0.082178 -0.262966 0.094817 0.064429 -0.232083 -0.082901 0.133743 -0.096450 0.163150 -0.382407 0.059713 0.046917 -0.309950 0.254838 0.282038 -0.115165 0.414110 -0.102195 0.326513 -0.392250 0.619160 -0.233857 0.123719 -0.455273 -0.399881 -0.198771 -0.249865 0.417012 -0.320166 -0.082655 0.152797 0.392595 -0.203322 -0.023293 0.233604 0.164547 0.082635 0.048571 0.575148
1031 -0.148238 -0.225150 -0.283215 0.788909 0.333669 -0.085469 0.330928 -0.290054 0.239053 -0.490880 0.055012 0.395709 -0.351181 0.022818 0.036908 0.389753 -0.111418 -0.510628 0.336080 -0.160813 -0.140831 0.315149 0.435507 0.433264 -0.149900 -0.331715 -0.246790 0.392489 0.030130 0.049491 -0.240678 -0.682160 0.384437 0.203393 0.279046 -0.322648 0.342437 -0.372358 -0.351710 0.610782 0.289677 0.018934 -0.284936 -0.128247 0.304633 -0.226332 0.223417 -0.318727 0.225370 -0.085464 0.249094 -0.062104 -0.356904 0.110447 -0.264306 0.023372 -0.095753 0.111655 -0.299173 -0.350531 0.429185 0.254597 0.215866 -0.367900 0.136395 0.054965 0.055071 0.019939 0.504652 -0.145914 -0.050518 -0.034890 -0.326134 -0.066646 -0.068671 0.808986 0.120706 0.472786 -0.248190 0.164152 -0.267686 0.620249 0.662812 -0.308359 -0.157239 -0.018992 0.597480 0.107022 -0.107089 -0.455301 0.161364 -0.108084 0.044759 -0.368563 -0.236187 -0.127530 -0.066360 0.294788 0.012687 -0.141600 -0.044412 -0.020004 -0.165994 0.506963 -0.263837 0.297288 -0.346897 0.062438 0.201503 0.354808 0.368357 0.366539 -0.384605 0.269361 0.174145 0.313094 0.146814 -0.391322 -0.564423 -0.140973 0.070877 0.443730 0.224640 0.206275 0.092949 0.012275 -0.137472 -0.111590
1917 -0.317815 0.224859 0.217244 0.227748 0.023723 -0.215653 0.172268 0.413318 0.206041 -0.386095 -0.087276 -0.556897 0.132797 -0.095601 -0.194465 0.433582 -0.337812 -0.886412 0.273293 -0.046058 0.088723 -0.088593 -0.049836 -0.020438 -0.322281 0.561950 0.246678 -0.345211 -0.131697 -0.217922 -0.022859 -0.799399 0.446718 0.153347 0.107323 0.137300 -0.152129 0.406178 -0.226038 0.134216 0.170863 0.190369 0.126718 -0.073728 0.031798 -0.326367 0.199295 -0.164057 0.333767 0.123321 -0.399870 0.098871 -0.037067 -0.106212 0.087022 -0.191635 0.289007 -0.703181 -0.052342 -0.831284 0.568549 0.103096 0.080824 0.611416 -0.136351 -0.139433 0.091132 0.106711 0.011298 0.369604 0.363439 -0.571219 -0.264968 -0.089800 -0.299341 -0.202515 -0.358682 -0.208610 -0.110582 -0.288170 -0.194335 0.534838 -0.011359 0.060537 -0.081318 0.708802 -0.469594 -0.225868 -0.227884 0.153346 -0.113648 0.051327 0.359856 -0.152183 0.094034 -0.387298 -0.398983 -0.059966 -0.028226 0.251757 0.593046 -0.081020 -0.052051 -0.058800 -0.326832 0.673058 0.065162 0.268709 0.203648 0.307768 -0.237542 0.508272 -0.367135 -0.005524 -0.044645 -0.900833 -0.118689 0.385282 -0.237163 0.256996 -0.137076 0.306971 0.381357 0.188365 -0.288604 0.017973 0.141643 0.730600
3120 0.405852 0.152027 0.429196 -0.250845 0.316958 -0.173550 0.693193 0.383104 -0.077130 -0.348937 0.370294 -0.078586 -0.095610 0.206855 -0.089500 0.261590 0.404334 0.114682 -0.065369 -0.140921 -0.029706 0.261914 -0.263948 0.288067 -0.439691 0.215920 -0.310060 0.307936 0.275313 -0.322459 -0.038035 -1.179699 -0.145196 0.308105 -0.044731 0.168721 0.322542 0.254077 -0.311065 -0.614947 0.118511 -0.155169 -0.117519 -0.770281 0.184997 -0.377182 0.354494 -0.342776 0.404018 0.139393 0.900777 -0.277113 0.130501 -0.051981 0.624201 0.324343 0.568021 -0.268572 -0.033280 -0.065241 0.650972 0.535601 0.290921 0.209987 -0.139946 -0.333778 0.507152 -0.648414 -0.074526 -0.379882 -0.047036 -0.092971 0.056009 0.303725 0.545777 -0.215302 -0.541459 0.284943 -0.272432 0.063223 0.003935 -0.040056 -0.067523 0.476200 0.371159 0.536526 -0.244706 0.175267 0.048279 -0.117476 -0.143446 0.151071 0.330295 -0.068319 0.296895 0.153378 0.258787 -0.642745 -0.176120 0.436875 -0.536060 -0.374986 0.198499 0.230477 0.590638 0.387330 0.155115 -0.211075 0.080329 0.250059 -0.530017 0.291504 -0.043006 0.041222 -0.160652 -0.494356 0.494974 -0.404008 -0.013625 -0.164065 0.338482 0.335350 -0.250967 -0.401034 0.189945 -0.109055 -0.287705 -0.208322
531 -0.076190 -0.021086 -0.060556 -0.321460 0.195526 -0.124786 0.142304 0.105265 0.189265 -0.154974 0.147664 -0.087066 -0.318417 -0.162150 -0.071402 -0.127359 0.518422 -0.044655 0.401928 -0.290172 0.124445 0.691535 0.362936 -0.357735 0.322496 0.030341 0.506328 0.445191 0.069419 -0.001558 -0.223466 -0.260352 0.095132 -0.073434 0.392832 -0.336653 -0.267265 -0.331140 -0.308842 0.308194 0.450985 0.503459 -0.127686 -0.234350 -0.113223 0.128393 0.351440 -0.142722 -0.163818 0.105435 0.076370 0.252969 0.094216 0.289451 -0.155759 -0.107059 -0.110604 0.070793 -0.123800 -0.161553 -0.120214 -0.163210 0.201159 -0.279105 0.014534 0.330485 0.311324 0.233566 -0.008279 -0.101725 -0.008563 0.125404 0.025398 -0.131881 0.027527 0.038028 0.071156 -0.180497 0.068025 -0.170522 -0.381800 0.061036 0.133352 -0.133656 0.020219 0.025531 -0.274920 -0.103613 0.103189 -0.469929 -0.186869 0.335508 -0.014580 -0.289661 -0.110659 -0.049139 -0.124236 -0.028436 -0.612496 0.235384 0.327820 -0.018231 0.274131 0.209589 -0.104658 0.139980 -0.134648 0.175457 -0.489847 0.643944 -0.122929 -0.035958 -0.324920 -0.431166 -0.093244 -0.163882 0.353991 -0.382308 -0.130131 -0.031161 0.575354 -0.081159 -0.117905 0.071040 0.255125 -0.057638 0.075138 0.557261
1757 -0.305064 0.271559 0.548380 -0.119391 0.326051 -0.257210 0.326147 -0.178033 0.439133 0.021477 -0.087518 -0.052671 -0.274621 -0.470281 0.279978 -0.170399 -0.262895 -0.079274 0.465237 -0.602354 -0.391402 0.781855 0.296465 -0.098384 0.316751 -0.487172 0.170273 0.491532 0.057670 0.134059 0.232324 -0.226471 0.241372 -0.400249 -0.169885 -0.593027 -0.175002 0.279455 -0.614843 -0.056690 0.084877 0.363590 -0.616878 -0.296025 0.531796 -0.685328 -0.049749 -0.176683 -0.355105 0.255041 -0.406559 0.441880 0.214484 0.064121 -0.457036 0.060511 0.041713 -0.639534 -0.088763 -0.464141 0.088657 0.273868 0.099724 -0.074483 -0.641037 -0.141797 0.224644 -0.476214 0.048492 -0.056196 0.043244 0.140795 0.055766 0.534185 -0.082179 0.460313 -0.008439 0.512345 0.561582 0.153669 0.280364 0.236028 -0.103106 0.490345 0.181982 0.162213 0.354127 0.002400 -0.264037 0.355603 -0.592758 0.410540 0.063607 -0.141784 -0.048161 -0.406158 -0.148343 0.024770 0.688650 -0.117412 0.172533 0.323659 0.428305 -0.064792 0.001099 0.178135 0.304515 0.083331 -0.195250 0.374054 0.363475 -0.127119 -0.689738 0.133904 -0.161345 0.452400 0.280263 -0.108663 0.093580 0.249363 0.409227 0.148759 0.413163 -0.161293 -0.019790 0.150102 0.077189 -0.145211
1962 0.120955 0.198372 0.451072 -0.232531 0.006334 -0.309473 0.037929 0.179477 -0.008748 -0.322798 0.476444 -0.034279 -0.337683 -0.074972 0.141026 -0.140901 0.151862 -0.346650 0.253246 -0.521192 0.046597 0.344106 0.138909 0.027601 0.037738 -0.065318 -0.133674 0.199116 -0.890224 0.187425 0.070256 -0.135782 -0.054398 -0.450722 0.038321 -0.109542 0.071142 -0.235392 0.027997 0.387395 0.477436 0.605292 0.095534 -0.200980 0.120880 0.074447 0.210947 0.017912 -0.058842 0.473900 -0.046550 -0.111254 -0.136855 -0.085076 -0.028518 0.065578 -0.233460 -0.100294 -0.167171 -0.064186 0.005425 0.094891 -0.249629 -0.082499 0.145576 0.190699 0.407717 -0.169371 -0.194410 0.141060 0.159827 0.317952 0.006841 0.194883 0.041523 0.176413 0.267946 0.360480 0.196842 -0.579250 -0.018593 0.133324 0.095662 -0.312224 0.101955 -0.245505 -0.210122 0.003638 -0.074590 0.068245 -0.186736 0.481472 0.033016 0.220228 -0.170258 -0.347983 0.047754 0.430012 -0.835920 0.024829 0.262052 -0.365226 -0.135790 0.020172 -0.362920 0.357145 -0.323356 0.008499 0.122170 0.109042 0.398010 0.168130 -0.464496 -0.273774 0.164982 -0.277342 0.852923 -0.507258 0.189219 -0.031111 0.553218 0.076537 -0.064473 -0.297007 0.312770 0.070833 -0.098945 0.281179
3315 0.183594 0.122053 0.085532 -0.105312 0.332491 -0.498457 0.217786 -0.025835 0.017894 -0.073984 -0.037560 0.128026 -0.241132 -0.219209 -0.210039 -0.354931 0.606682 -0.476746 0.374830 -0.128320 -0.087806 0.508380 0.488004 -0.218613 0.058437 -0.090838 0.123360 0.424750 -0.039834 0.093548 0.039770 -0.642290 0.353045 -0.367300 0.073165 -0.010283 -0.125109 -0.026223 -0.311512 0.663164 0.353208 0.013887 -0.323620 -0.461337 -0.196387 -0.167260 0.433948 -0.034632 -0.040661 0.018938 -0.030397 0.186104 0.390971 0.264466 -0.115450 0.149222 0.348331 -0.007042 -0.180212 -0.098913 0.029095 -0.622832 0.256159 0.204352 -0.056856 0.143637 0.299741 0.144277 0.029678 -0.002994 -0.294139 0.191347 0.019123 -0.112499 -0.142557 0.441524 0.267673 0.211241 -0.081872 0.000607 -0.783731 0.295416 0.307254 -0.436906 -0.083997 0.190443 -0.051184 -0.243078 -0.138537 0.189328 -0.167342 0.212942 -0.235805 -0.467253 0.181277 0.059952 0.216798 0.540069 -0.293379 0.322491 0.000861 0.085270 0.203908 0.180396 0.148066 -0.052958 -0.303444 -0.136642 -0.490117 0.368156 0.289674 0.314339 -0.286469 -0.067006 -0.079892 -0.142767 0.323290 -0.465302 0.293503 0.156394 0.210189 -0.317340 -0.501572 0.126362 0.241147 -0.069854 0.286994 -0.038710
1493 -1.060049 0.775639 0.869391 0.581147 0.213461 0.335647 0.545509 -0.233081 -0.548375 -0.726738 0.128370 0.408047 -0.021076 0.025839 0.048005 0.293852 -0.006614 -0.393055 0.138974 0.062798 0.604261 0.707495 0.568443 0.045375 0.645670 0.415028 -0.379288 0.741410 0.032585 0.521359 -0.300739 0.304916 0.035852 -0.305429 -0.292449 -0.509144 0.409235 0.170907 0.190020 -0.821233 0.045630 0.193271 -0.181438 -0.464158 0.162129 -0.200641 0.369443 -0.267015 -0.606252 0.049104 -0.326838 -0.000172 -0.133088 -0.365503 -0.127971 -0.013318 0.883267 -0.459412 -0.036274 -0.746688 0.016460 -0.256971 0.613331 0.159842 0.356116 -0.419593 -0.356814 0.619366 0.043533 0.013687 -0.212455 -0.661451 0.504308 -0.302041 0.106633 0.295972 0.299076 0.664860 0.971704 -0.162566 0.013214 -0.085966 0.261539 0.132736 0.345211 -0.298201 0.245648 -1.039252 0.735618 -0.251558 -0.657948 0.950365 0.244486 0.383214 0.295435 -0.097868 -0.087940 -0.413078 -0.123845 1.102018 -0.313662 -0.631759 0.253157 0.306583 -0.017691 0.492369 -0.403254 0.409199 0.287717 0.636650 -0.124913 1.080559 -0.024879 0.086161 -0.421070 -0.813970 -0.307351 0.410685 0.067032 0.346034 -0.235259 0.329544 -0.051566 -0.398808 0.168970 0.424629 0.006178 0.683269
0 -0.392387 0.216175 -0.036373 0.251579 0.891894 0.043625 0.042470 0.256626 -0.125439 -0.350877 -0.008660 0.248281 -0.494480 0.185714 -0.180067 0.226725 -0.062020 -0.759124 -0.116527 0.526561 -0.403472 0.091515 0.036584 0.373797 0.024004 0.012898 0.205410 0.454582 -0.183918 -0.295931 -0.053159 -0.504268 0.441359 0.038313 0.385477 -0.028862 0.246691 -0.165255 -0.604150 -0.120305 -0.276969 0.182637 -0.203431 0.431826 0.023332 -0.231625 1.028582 -0.165948 -0.190861 0.059844 0.476191 0.009430 -0.677439 -0.139865 0.138640 -0.027407 0.208334 -0.676979 -0.710533 -0.512892 0.239716 0.223949 -0.117855 0.224723 0.001385 0.076358 0.076017 0.000637 -0.221159 0.060384 0.401250 0.059620 0.114274 -0.223899 0.325226 0.088674 0.007724 0.352616 0.009713 -0.334815 -0.154853 0.268601 0.000274 -0.356770 -0.558995 -0.326632 0.314983 0.473302 -0.385819 0.344522 0.398239 0.102956 -0.022519 0.390434 -0.275287 0.046390 -0.225429 -0.313276 -0.377075 0.003884 -0.035692 -0.283319 -0.154976 0.096122 -0.088462 0.175289 -0.033524 -0.018526 0.284606 -0.055925 -0.550741 -0.339769 -0.036056 -0.572870 0.225954 0.351389 -0.317796 0.046280 0.192263 0.320205 -0.201195 -0.100356 -0.487120 -0.038263 0.165418 0.581668 0.500733 0.521520
2281 0.131121 0.135886 0.552802 -0.263379 0.119903 -0.336156 0.147156 0.274544 -0.111956 -0.176431 0.350857 -0.132346 -0.318245 -0.101603 0.140390 -0.430089 0.037318 -0.274143 0.345693 -0.558282 0.089690 0.355885 0.073523 0.057420 0.075872 0.072988 -0.072175 0.148807 -0.491964 0.088200 0.213024 -0.352529 -0.252593 -0.164337 -0.085402 -0.241127 0.159973 -0.365853 -0.150627 0.287962 0.466830 0.649136 -0.127642 0.101799 -0.206753 -0.034035 0.010549 -0.147022 -0.174028 0.611982 -0.214231 -0.161452 0.085635 -0.083961 -0.186628 0.185277 0.016014 -0.247180 -0.200527 -0.161036 0.056394 0.254376 -0.401497 -0.194118 0.231726 0.130534 0.496150 -0.079945 -0.349678 0.050272 0.085923 0.356385 -0.002412 -0.076139 -0.024574 0.012903 0.218324 0.334622 0.395637 -0.608142 -0.167917 0.286917 0.224196 -0.108547 0.311806 -0.170776 -0.272179 0.158125 -0.256377 -0.225681 -0.148843 0.549685 -0.129717 0.369555 -0.115692 -0.337716 -0.117415 0.479220 -0.704813 0.053506 0.356171 -0.176910 -0.005053 0.092123 -0.546669 0.204462 -0.210479 0.061894 -0.031177 0.360050 0.053480 0.216987 -0.373202 -0.179452 0.200225 -0.228345 0.807032 -0.315872 -0.126569 -0.220326 0.239837 -0.027371 -0.258268 0.013277 0.387043 0.135402 -0.252944 0.091076
3039 -0.203913 0.140741 0.696081 0.215258 0.515398 0.210949 0.303217 -0.004580 0.398431 -0.102238 0.069393 -0.151752 -0.569033 0.006396 0.320755 0.151476 -0.324853 -0.436653 0.286368 -0.376397 0.054032 0.235923 -0.046215 -0.097594 -0.275078 -0.290140 -0.062389 -0.449921 0.393311 -0.459957 0.004574 -0.305257 -0.425918 0.226527 0.232724 -0.360832 -0.089723 -0.140649 -0.510247 0.070845 -0.097897 0.185379 -0.197782 0.272161 0.208164 -0.258776 -0.405717 0.251165 -0.427618 0.326242 0.122500 -0.336780 0.125800 0.370943 0.188376 0.087556 0.048434 -0.051248 -0.435539 0.015876 0.696111 -0.771623 0.425162 0.085000 -0.109375 0.595648 -0.076194 -0.456049 0.046445 -0.095855 -0.705168 0.072083 -0.144542 0.238964 -0.079404 0.496082 -0.335294 -0.204289 0.026655 -0.072714 -0.528777 -0.091547 -0.059514 -0.407759 0.164066 -0.316970 -0.109560 -0.203149 -0.495582 -0.563266 -0.217977 0.081549 -0.266913 -0.183858 0.053868 -0.300596 -0.307505 0.713230 0.400650 0.113128 -0.049338 -0.557320 -0.118760 -0.592917 0.141557 0.872524 -0.680786 0.102154 -0.661789 0.555787 -0.088344 -0.273280 0.000318 -0.416825 -0.185351 -0.354716 -0.147994 -0.980657 -0.143979 0.000940 0.519978 -0.376454 -0.356808 -0.108094 0.257657 0.179187 -0.157071 0.251786
2934 -0.720789 -0.348486 -0.072119 0.475108 0.044142 -0.617781 0.625980 0.149239 0.210090 -0.541499 -0.349924 0.119553 -0.349434 -0.146604 0.232119 0.611697 -0.157337 -0.318441 0.251799 -0.357760 -0.075252 0.233320 0.228063 -0.275753 -0.239928 0.362102 0.369304 -0.273219 0.151245 -0.125994 -0.282093 -0.352951 -0.150551 -0.432420 0.118625 0.259676 0.067596 0.222873 -0.674036 0.136507 -0.014994 0.215605 -0.031545 -0.327976 0.195189 -0.225906 0.117612 0.063492 -0.312634 -0.045733 -0.325896 0.233531 -0.208790 0.271705 0.394096 -0.408956 0.401906 -0.665990 0.347362 -0.375922 0.522629 -0.059611 0.673746 0.001304 -0.102119 -0.606812 0.011413 -0.142933 -0.284041 0.394050 -0.446264 -0.130413 0.420033 -0.200215 0.394917 -0.460079 -0.425209 -0.015231 0.140845 -0.007841 -0.021409 0.048162 0.283499 0.382795 -0.395858 -0.215201 -0.106976 0.217750 -0.638169 0.125187 0.127999 0.253791 0.094043 -0.319371 -0.412190 -0.120870 -0.604740 -0.437829 -0.343789 0.181465 -0.058695 -0.321527 -0.356194 -0.133969 -0.259535 -0.258996 0.049969 0.134430 0.147732 -0.211021 -0.158421 0.453337 0.094109 0.184048 0.336281 -0.640109 0.014929 0.202281 0.235004 0.085607 -0.081420 0.308472 0.129899 0.116639 0.079136 -0.040921 0.522640 0.029621
115 -0.852614 -0.279413 0.253875 0.140231 0.626482 -0.112270 0.125672 0.131381 -0.137320 -0.272862 -0.858386 0.109493 0.008672 0.011563 -0.082454 0.529003 -0.042580 -0.221257 0.286138 -0.267776 0.112597 -0.117921 -0.781419 0.152002 -0.082607 -0.086674 0.175686 -0.111939 -0.155356 0.066540 -0.443815 -0.286998 0.300636 -0.080666 0.229600 0.144126 -0.183901 0.290520 -0.710228 0.981077 -0.183809 0.610580 0.208406 -0.129314 0.494067 -0.358279 0.396149 -0.131577 -0.322859 -0.198149 0.183693 -0.101262 0.129641 0.077309 0.106207 0.015296 0.242622 -0.387223 -0.389509 -0.089150 0.098126 0.517785 0.245547 0.235390 0.196761 0.028785 0.063629 0.347751 -0.069303 -0.418845 -0.121904 -0.240369 -0.133735 0.030324 -0.423438 -0.150515 -0.556948 0.379302 -0.172089 0.260481 -0.183629 0.515448 0.059922 0.474381 0.156814 -0.419926 -0.546360 0.110909 0.442792 -0.249388 0.589304 0.173342 0.650586 0.096357 0.273579 -0.917361 -0.552313 -0.227912 -0.520923 0.162822 -0.122813 -0.172805 0.751059 -0.379197 0.230980 0.441341 0.340376 -0.184403 0.061397 -0.516164 -0.557460 0.427431 -0.397186 0.039964 0.020358 -0.837444 -0.162876 0.260695 0.465653 -0.255389 -0.028843 0.299194 -0.179375 0.187389 -0.215121 0.284416 -0.074180 -0.028716
1910 -0.320282 0.616344 0.073577 0.005336 0.044893 -0.162098 0.001356 0.346455 0.252356 -0.311668 -0.094063 -0.513683 -0.055380 -0.199205 -0.226281 0.569871 -0.432863 -0.726464 0.286610 0.096289 -0.110069 -0.193591 -0.100217 -0.267493 -0.413027 0.394869 0.080705 -0.457293 -0.286847 -0.353580 -0.093237 -0.463533 0.243570 0.304437 -0.282798 0.280370 -0.113444 0.418593 -0.252670 0.189611 0.018727 -0.015302 0.175988 -0.141246 0.699851 -0.341985 0.141681 -0.259193 0.315596 0.325487 -0.094040 0.351830 -0.057194 0.186476 -0.068661 -0.145873 0.389692 -0.581793 -0.284899 -0.936776 0.456741 0.208922 -0.043960 0.479670 0.070539 -0.190856 0.265823 0.106877 -0.252049 0.746158 0.500200 -0.694459 -0.195535 -0.344540 0.073690 -0.194952 -0.447625 -0.103317 -0.087131 -0.267237 -0.295945 0.538842 -0.075967 -0.262106 -0.046063 0.839097 -0.591375 -0.217737 -0.044586 0.171630 0.024711 -0.052833 0.220133 -0.177652 0.137802 -0.312338 -0.755424 -0.110083 0.012611 0.319364 0.577481 0.002962 -0.075202 -0.203538 -0.372349 0.613892 -0.158386 0.182931 0.363073 0.468119 -0.226453 0.513973 -0.499975 0.044817 0.254386 -0.926325 -0.060399 0.213424 -0.063698 0.194900 0.024022 0.099423 0.111488 -0.086362 -0.041814 -0.021639 0.573429 0.733031
8 -0.313839 0.470853 -0.156176 0.030238 0.399426 -0.363358 0.333015 0.264158 0.156790 -0.378003 -0.019184 -0.026266 -0.528882 0.175741 0.123104 0.184804 -0.157514 -0.929194 -0.059376 0.715896 0.204764 -0.016705 0.122340 0.144516 0.260762 0.365671 0.159251 0.368585 0.192614 -0.308031 -0.096752 -0.129513 0.457787 -0.133566 0.296272 0.119310 0.313434 0.361638 -0.056449 0.010488 -0.180535 0.113770 -0.209425 0.453144 -0.055805 -0.319683 0.511889 -0.419921 -0.170143 0.351899 0.117429 0.061631 -0.394383 -0.136935 0.102178 0.006549 0.581995 -0.814331 -0.639989 -0.662894 0.865566 0.452999 -0.305615 0.594338 -0.047171 -0.307234 -0.281546 -0.056415 -0.133765 0.001226 0.145395 0.142121 -0.160633 -0.227243 -0.199958 -0.173091 -0.293278 -0.043588 0.075240 -0.061102 0.171770 0.271190 0.019608 -0.330058 -0.645125 -0.087490 -0.272510 0.255981 -0.164853 -0.091333 0.372179 0.095348 0.317315 0.392765 0.059519 -0.356677 -0.239121 -0.010930 -0.404033 0.056429 0.343050 0.315596 0.053371 0.100542 0.085297 0.389969 -0.019334 -0.099831 0.217523 -0.150739 -0.400858 0.446466 -0.183711 -0.415464 -0.005670 -0.344350 -0.226066 0.169992 -0.087483 0.166126 0.027250 0.203621 -0.060143 -0.137609 0.516408 0.380496 0.632365 0.388559
188 0.452223 0.277721 0.423959 -0.398330 0.354114 -0.061604 0.630697 0.208860 -0.185416 -0.208424 0.461970 -0.148246 -0.171455 0.133619 -0.157167 0.148906 0.381620 0.169594 0.156193 -0.016166 -0.014517 0.107343 -0.370763 -0.057554 -0.624642 0.154069 -0.380855 0.421422 -0.105341 -0.265128 -0.079688 -1.182716 -0.021772 0.123200 0.278772 0.272797 0.558032 0.206880 -0.204952 -0.688047 0.192966 0.114396 -0.207202 -0.860654 0.100139 -0.136573 0.408630 -0.312115 0.211519 0.180596 0.724937 -0.466591 -0.086612 -0.045237 0.674466 0.108811 0.655183 -0.424871 0.147362 0.057091 0.896361 0.607124 0.217612 0.274123 -0.264480 -0.420549 0.505954 -0.535856 0.381331 -0.054353 -0.227258 0.129475 0.097232 0.357763 0.345496 -0.098591 -0.460224 0.380856 -0.238041 0.005977 0.010636 -0.061151 -0.256544 0.452888 0.511850 0.514452 -0.111532 0.322605 -0.091664 -0.565869 -0.366321 0.491724 0.217063 0.049904 0.199759 0.413984 -0.063733 -0.716944 -0.056011 0.469901 -0.676839 -0.531339 0.259675 0.237318 0.510943 0.435940 0.013555 -0.025265 -0.043653 0.237457 -0.394940 0.281685 -0.394153 0.232440 -0.163924 -0.425611 0.236668 -0.452537 -0.089706 -0.250812 0.107193 0.308773 -0.122382 -0.572926 0.095453 -0.041840 -0.471200 -0.157525
1701 -0.595625 0.556302 0.510421 0.063631 0.185726 0.138068 0.328319 0.236138 -0.380870 -0.351845 -0.124377 0.160231 -0.371767 -0.237943 -0.457144 0.060945 -0.263357 -0.977072 0.118986 -0.040137 0.016893 0.230871 0.213206 0.356148 0.033985 -0.070620 0.363795 -0.009498 -0.136338 0.124973 -0.160976 -0.288994 0.418640 0.360467 -0.033609 -0.180078 0.013108 0.498301 -0.097431 -0.002578 -0.419112 0.068809 -0.077347 0.044707 0.195967 -0.408586 0.284274 -0.366676 -0.349553 0.146751 -0.249616 0.505887 -0.365638 -0.106479 0.264019 -0.260090 -0.147912 -0.457315 -0.239647 -0.431697 0.321945 0.354328 0.367242 0.490253 0.053984 -0.433032 0.041701 0.532730 -0.007235 -0.151962 -0.123075 -0.614720 -0.393991 -0.036710 -0.157282 -0.173215 0.054191 -0.482376 0.517791 0.104064 -0.228985 -0.010706 -0.434607 0.237198 0.109123 0.111305 -0.661944 -0.198582 0.582727 0.134692 -0.310183 0.086188 0.171020 0.241512 0.230252 -0.830879 -0.125879 -0.752194 -0.181451 0.696127 -0.000791 0.258914 0.009780 0.241719 -0.229748 0.280606 -1.150742 0.614361 0.190747 0.058450 -0.269981 0.697733 -0.218446 -0.216831 -0.091395 -0.371089 -0.287614 0.138245 -0.304485 0.127342 -0.219879 0.612657 0.301830 0.070151 0.399329 0.359797 0.238208 0.394456
285 -0.528149 0.077338 0.013786 0.419286 0.517418 -0.027530 0.372447 -0.323822 0.118976 -0.317645 0.031417 0.118300 -0.238628 0.093300 -0.078210 -0.110333 -0.229629 -0.299295 0.612642 -0.126594 -0.162419 0.507278 -0.052518 -0.092763 -0.065245 -0.030982 0.061282 0.128023 0.247707 -0.075524 -0.111722 -0.196179 -0.043262 0.104180 0.121453 -0.277735 0.496827 0.009413 -0.204992 0.333295 0.502802 -0.066305 -0.387373 -0.220459 -0.153989 0.051936 0.129599 -0.234253 -0.289131 -0.077983 0.178128 -0.203648 -0.688533 0.120680 0.196864 -0.212296 0.068035 0.262340 -0.560763 -0.653504 0.190680 -0.088227 -0.160873 -0.207443 -0.122964 0.434035 0.010150 0.012195 0.044984 0.103631 0.043338 0.149748 -0.121083 0.236299 -0.211566 0.627314 0.082784 0.159622 0.169437 0.264087 -0.191488 0.218433 0.466022 -0.217250 -0.006371 0.051951 0.177674 -0.106448 -0.350763 0.188978 0.130856 0.052030 -0.153321 -0.278345 -0.307560 -0.232923 -0.308262 0.212353 -0.358136 -0.149746 0.031143 -0.490112 0.084404 0.307166 -0.028684 0.374292 -0.226388 -0.222932 0.334193 0.191760 0.297535 -0.097221 -0.356368 0.531465 -0.096424 0.022172 0.584843 -0.424514 -0.827736 -0.108137 0.172435 -0.147058 -0.155857 0.154570 0.237489 0.122154 -0.075158 0.011226
649 -0.672010 0.506091 0.270365 -0.033562 -0.263387 0.463007 0.154977 -0.520738 0.028027 0.349973 -0.030070 -0.228069 -0.563548 -0.366892 -0.515337 0.603122 -0.198212 -0.271550 0.604032 -0.551195 -0.074657 0.224891 0.155427 -0.142287 0.166534 -0.102067 0.057058 0.464288 0.559218 0.301610 0.539361 0.488419 0.374452 -0.213505 -0.053673 -0.459957 -0.230411 -0.404986 -0.553480 -0.272114 -0.318107 0.069775 -0.970997 0.013945 -0.241370 -0.604488 0.222472 -0.689061 0.276961 0.212225 -0.376137 -0.153102 -0.015508 0.065727 0.479713 0.124012 0.482741 -0.785446 -0.635831 -0.774366 0.045702 0.042492 0.248907 -0.497339 -0.411123 -0.632495 0.294696 0.042448 -0.197395 -0.456092 0.387652 -0.345393 0.484734 0.262612 0.283694 -0.022087 0.047732 0.000603 0.337876 -0.451535 0.130326 -0.067145 0.515989 0.395600 0.525202 -0.233335 0.354710 0.058543 0.233434 0.575322 -0.028285 1.195507 0.397608 -0.362852 -0.231595 -0.219656 -0.316852 -0.072018 -0.105568 0.218620 -0.068965 -0.083452 0.345208 -0.193302 0.056469 -0.052983 -0.142252 0.314857 -0.158105 0.392419 -0.167399 0.351100 -0.825042 0.238911 -0.137973 -0.070148 -0.085119 -0.182696 -0.374521 0.103306 0.149082 -0.213657 -0.116418 0.037055 0.309083 0.448022 -0.346752 -0.288510
3128 -0.956650 -0.294138 -0.094570 0.053518 0.722188 -0.368568 -0.022081 -0.034564 0.376475 -1.023159 -0.315070 0.021405 -0.167522 -0.329195 -0.462552 0.471303 -0.375689 -0.058115 -0.319725 -0.036799 -0.094976 0.129324 -0.755541 -0.308627 -0.355846 0.411827 0.147386 -0.083244 0.153120 -0.276824 0.054144 -0.658704 0.542512 0.133905 0.962077 0.520273 -0.116645 -0.058086 0.033474 0.615145 -0.059780 0.152259 0.229781 -0.044491 0.248339 -0.506637 0.323410 -0.134366 -0.299389 -0.065875 -0.422998 -0.508226 0.160809 -0.255135 0.332132 0.525900 0.256505 -0.469369 -0.357495 -0.299314 0.233222 0.148475 0.193315 0.181761 -0.258958 0.018881 -0.170874 -0.243255 -0.104426 0.386029 -0.245351 -0.054720 0.402381 -0.143218 -0.095146 -0.123935 -0.532853 0.101446 -0.320427 -0.143388 0.193000 -0.171671 0.236546 -0.210853 0.141892 -0.202232 -0.206251 -0.590506 -0.012080 -0.188775 -0.653098 0.496082 -0.469571 -0.279453 -0.152249 -0.022941 0.121909 -0.475826 -0.092214 -0.024056 -0.535379 0.098199 0.023419 0.130582 0.005044 -0.304816 0.012473 0.887877 -0.198134 0.545242 -0.004583 0.308545 -0.130661 0.481590 0.075937 -0.638623 0.250759 0.186188 -0.168639 -0.172712 0.370129 0.205327 0.735722 -0.276732 0.362708 0.332869 0.184851 -0.508708
124 -1.002083 -0.576531 0.687516 0.267009 1.334538 1.135603 -0.488242 -0.065273 0.485693 -1.114910 0.048348 1.402131 -0.515595 -0.012781 0.069847 -0.587450 0.031747 -0.224657 0.197799 0.393069 0.233722 -0.173468 1.680638 -0.436705 -0.220026 1.130182 0.523617 -0.337408 0.388600 0.212220 0.443969 0.005645 0.205286 -0.607349 -0.051158 0.091059 -0.199687 0.955741 -0.125702 -0.045468 0.066179 0.573251 -0.686716 -0.370888 0.786962 0.174211 -0.137265 0.240580 -0.117877 0.063606 -0.239828 -0.852345 0.521799 0.403011 0.006389 -0.046480 -0.453439 -0.266604 -0.760301 -0.458879 0.487320 0.791116 0.792081 -0.134325 -0.031906 0.933175 0.334840 -0.099795 0.034538 -0.038116 0.493573 -0.366333 0.259765 0.853182 0.305040 -1.239655 0.443673 0.323000 0.035427 0.967703 -0.337852 0.042616 1.014082 -0.207929 -0.405773 -0.443922 -0.475273 0.479119 -0.640069 0.874190 -0.308603 0.043995 0.357636 0.032007 1.084649 -0.335450 -0.233140 -0.105410 -0.317303 1.397438 -0.327315 0.305055 -0.674214 0.545173 0.656294 0.672946 -0.108511 -0.178010 0.287459 0.585370 -0.603623 0.470218 -0.112892 0.091346 -0.187320 -1.564411 -0.285753 -0.648632 0.019101 -0.322074 -0.497537 -1.214810 -0.193215 -0.618445 -0.489955 -0.723878 -0.597270 -0.383993
3045 0.519002 0.299396 -0.139039 -0.098535 -0.347779 -0.142865 0.658028 0.356666 -0.335994 -0.565490 0.161109 -0.044968 -0.045926 0.517629 0.110687 0.038598 0.148097 -0.114103 -0.029134 -0.338615 -0.000192 0.555670 -0.043256 0.312628 -0.072392 0.750922 -0.199971 0.517494 0.139884 -0.657787 -0.031163 -1.101817 0.060666 0.008838 -0.382376 0.191210 0.496674 0.001618 -0.150549 -0.457410 -0.253236 0.242044 0.038305 -0.598513 0.551164 0.130450 0.384710 -0.484408 0.538701 0.173604 0.701102 -0.520190 0.100772 0.085779 0.648782 0.362340 0.219157 -0.221145 -0.368620 -0.035948 0.334285 0.565828 0.324400 0.015211 -0.705587 0.019710 0.537267 -0.420675 -0.386754 -0.324950 0.000809 -0.422501 -0.005778 0.261634 0.484102 -0.171772 -0.703799 0.321128 -0.369973 -0.207879 0.127974 -0.059817 -0.185719 0.500148 0.597379 0.414169 -0.242133 0.403295 0.077393 -0.041780 -0.343014 0.068830 0.200973 -0.348201 0.375145 -0.345272 -0.269621 -0.550405 -0.302778 0.673045 -0.610967 0.223717 0.012935 -0.028439 0.426694 0.788958 0.002295 0.326984 0.224249 0.621488 -0.769993 0.095981 0.434531 0.332234 -0.045570 -0.448071 0.939489 0.100581 -0.030478 -0.040986 0.176201 0.359536 -0.260150 -0.684284 -0.019425 0.141128 -0.222738 -0.143090
451 -0.817258 -0.244155 0.308222 -0.293152 0.015776 -0.172759 0.441602 -0.050634 -0.066613 -0.317068 -0.133759 -0.136326 -0.311820 -0.336487 -0.259999 0.388327 -0.266507 -0.869617 0.076616 0.094657 0.306856 0.172057 -0.099647 0.306760 0.355024 0.077532 0.001325 -0.192767 -0.254170 0.594440 -0.477327 -0.357969 0.793710 0.122980 -0.347036 0.460054 0.145833 0.196449 0.032487 0.742665 -0.204644 0.369070 0.044653 -0.150187 0.148668 0.391472 0.183381 -0.163446 0.029458 0.544282 -0.113816 -0.238485 -0.230450 -0.291198 0.420002 -0.145130 0.129981 -0.772178 -0.201192 -1.006784 0.113632 -0.308702 0.300450 0.325716 0.090607 -0.342866 -0.249467 -0.233101 -0.131584 0.494702 -0.143396 -0.381133 0.163091 -0.031388 0.226451 -0.374817 -0.724246 -0.288365 0.305736 -0.078870 0.203853 0.490688 0.064963 0.592462 -0.011657 0.905990 -0.273671 0.295479 0.061510 -0.001268 0.244416 0.154416 0.366671 0.055343 0.035987 -0.440906 0.051260 0.009232 -0.185396 0.395619 -0.192997 0.195771 -0.194365 -0.079756 -0.100406 0.296462 -0.447215 0.539680 0.155694 0.087654 -0.474961 -0.037450 -0.245388 -0.113902 0.328817 -0.378327 -0.510802 -0.067198 -0.018668 0.080865 0.255245 0.430208 0.423789 0.234173 0.396150 0.076494 -0.220521 0.307784
2675 -0.833522 -0.369323 -0.301442 1.086761 0.113770 -0.531607 0.870131 0.121796 0.883317 -0.506038 0.190190 0.665076 -1.028904 -1.623145 -0.423629 -0.356850 -0.230158 -1.208830 0.435687 -0.326366 0.322442 -0.078164 0.988591 0.415975 -0.385322 0.352196 0.055912 -0.005731 0.272350 0.607782 0.658287 -0.155672 0.168697 0.125912 -0.146025 0.612210 -0.361350 -0.389886 0.304542 -0.854316 0.176937 0.483478 -1.094041 -0.194813 0.367678 -0.046055 -0.557155 -1.018592 0.151899 0.658079 0.813566 -0.152809 1.387272 0.739430 -0.098550 -0.324968 -0.639018 -0.317541 -0.113411 -1.043718 0.297117 -0.113613 0.158938 0.254492 -0.755144 0.231970 0.511357 0.602844 -0.244514 -0.398716 -0.569558 -0.317327 0.718347 0.225347 0.504463 -1.545341 0.081395 0.505238 1.073200 0.199947 0.513254 0.098907 0.990849 0.792126 -0.187543 0.154965 -0.228522 0.358415 -0.133436 0.705684 -0.643098 0.203971 -0.144036 -0.150458 -0.071236 -0.323718 -0.656486 1.262671 -0.316499 1.121932 -0.395080 -0.152148 -0.478534 0.183785 -0.336664 -0.041263 0.097848 0.270355 0.405423 0.183951 -0.116723 0.544212 -0.122152 0.190176 0.085127 -0.017452 -0.769789 -1.133986 0.122403 -0.272245 1.485708 -1.514724 -0.405491 -1.079479 0.138799 0.636314 -0.268582 0.255624
1782 0.373017 0.177982 0.398635 0.310307 -0.194366 0.402689 -0.035558 -0.268762 0.594720 -0.292997 -0.183862 0.124165 -0.984004 0.004672 -0.384707 -0.393271 0.312189 -0.563241 -0.175783 -0.271849 -0.230265 -0.594942 0.077789 0.353269 0.045777 -0.317449 0.044263 0.247039 0.457209 -0.377814 -0.168357 -0.225265 0.044270 0.032581 -0.129924 -0.354172 -0.318539 0.080553 -0.814740 0.301613 0.312756 0.361243 -0.134854 -0.192598 0.160633 0.011260 0.096601 -0.120556 -0.272944 0.343106 0.318210 -0.672960 0.477128 0.301191 -0.016186 0.507437 -0.360534 -0.420020 0.241095 -0.641458 0.683605 -0.075490 0.079014 -0.143539 -0.081663 0.081418 -0.050879 0.146879 -0.692530 -0.119116 -0.258343 0.454119 0.598896 0.316265 0.515629 0.241241 0.222208 -0.591111 0.021432 -0.203605 0.123220 0.358534 0.817371 -0.472822 0.253524 -0.268991 -0.041305 0.211381 0.093575 -0.157118 -0.490489 -0.235709 -0.330727 -0.314751 0.092472 -0.180585 -0.081797 -0.026568 -0.689153 0.341219 -0.417238 0.215299 0.092122 -0.053918 -0.319367 0.480565 0.160677 0.159720 -0.341783 0.791448 -0.265057 0.441528 -0.863775 -0.229124 -0.783866 0.236995 0.070340 -0.084832 0.458588 -0.060527 -1.041727 0.086908 0.121442 0.790436 0.202454 -0.449406 0.730289 0.737039
603 -0.822500 0.576323 -0.442443 -0.305946 1.034077 0.256655 1.082239 0.659540 -0.257275 -0.391612 -0.217459 0.954397 -0.907821 -0.182825 -0.848416 -0.066808 -0.090053 -1.327687 -0.332068 -0.102998 -0.069892 0.004961 -0.006173 0.420351 0.005731 0.947437 -0.271719 0.589911 0.389198 0.251638 0.213420 0.044918 0.254238 0.337873 -0.097975 0.246043 -0.040876 -0.852664 -0.121323 -0.461677 0.528181 0.813812 0.160256 0.243844 -0.147739 -0.075631 0.802445 -0.589231 -0.428458 0.392779 -0.049962 -0.435876 -0.016358 0.186919 -0.458400 -0.396487 -0.128796 -0.222481 -0.190399 -0.360565 -0.009206 0.129491 0.592489 0.316292 -0.683007 0.235702 -0.217405 0.729980 -0.184044 0.515072 -0.292690 -0.748553 0.278415 0.836445 -0.161711 -0.556373 -0.733501 0.460327 -0.116424 -0.437010 0.181847 -0.629013 -0.267835 -0.462336 0.008424 -0.081387 -1.097518 0.815704 -0.259293 0.234927 0.201854 -0.258757 0.258200 -0.122743 0.145028 0.236068 0.136694 0.503790 -0.163767 0.277775 0.465794 -0.602473 0.219148 -0.307813 -0.152198 0.705585 0.306873 -0.335336 0.625590 0.438902 0.504076 0.371989 -0.711871 -0.288541 0.244682 0.066695 -0.263647 -0.953194 0.601936 0.300325 0.047105 -0.213525 -0.145280 -0.369821 -0.654274 -0.066706 0.348578 -0.538036
579 -0.005743 -0.300050 0.449152 -0.087793 0.050566 -0.176345 0.086486 0.044825 -0.041340 -0.067029 0.144462 0.426686 -0.096864 -0.655472 0.355389 -0.126423 0.218027 -0.299696 0.316804 -0.032956 -0.283396 0.413139 0.511320 -0.126026 0.103397 0.276425 0.301686 0.370402 -0.307204 0.050709 0.028745 -0.395134 0.162748 0.001251 0.128092 -0.322642 0.017689 -0.241036 0.015903 0.113148 0.291144 0.200381 -0.130890 -0.179213 -0.120476 -0.378191 -0.048325 -0.114802 -0.012587 -0.367106 0.209971 -0.149195 -0.029934 0.239962 -0.007924 -0.433721 0.518157 0.150785 -0.323958 -0.422742 0.346561 -0.193215 0.169508 -0.140041 -0.240486 0.360525 -0.068076 -0.054456 0.196185 0.089053 0.223284 0.137130 -0.080789 0.144842 0.260151 0.515216 0.066782 -0.238880 0.123213 -0.380321 -0.949840 0.447794 0.425332 -0.406125 0.265717 0.129563 -0.390223 -0.307336 -0.255184 -0.117472 -0.180509 -0.216550 -0.106861 -0.339617 0.012181 0.113759 0.400569 0.256891 -0.152205 -0.009642 -0.167712 -0.210920 0.490077 -0.183222 -0.173530 0.400487 -0.298444 -0.193525 -0.146537 -0.010243 0.207180 0.112124 -0.266965 0.005064 -0.086557 0.062208 0.417822 -0.254737 0.113068 -0.258689 -0.042614 -0.065719 -0.112470 0.358570 0.330144 0.192143 0.048805 -0.203830
2264 -0.664311 -0.601908 -0.251450 0.194414 1.504364 0.541230 0.078851 0.908907 0.278784 -0.007216 0.841763 1.152633 -0.474204 0.018015 -0.673031 -0.775631 0.150973 -0.817476 -0.551980 -0.619847 -0.316198 0.245383 0.303466 -0.075266 -0.775260 0.846433 -0.595022 0.911551 0.704725 0.607300 -0.933421 0.105624 0.289415 0.039217 -0.398835 0.046526 -1.232070 -0.333084 -0.160268 -0.081633 -0.060167 0.309701 -0.493710 -0.688207 -0.214712 0.053176 -0.262964 -1.531629 0.211621 0.861541 -1.282275 -0.164443 0.217557 0.404037 0.773960 -0.323979 -0.042292 -0.516508 -0.330930 0.525974 -0.857735 0.051066 1.081003 0.345001 0.226713 0.255581 0.218633 -0.046899 0.542679 -0.096743 0.027451 -0.568464 -0.294160 0.452758 0.181227 -0.526368 -0.938021 0.365694 0.604335 -0.195393 0.005572 -0.372636 -0.023485 0.260807 0.797668 -0.251277 -0.288008 0.612443 -1.276268 0.000693 -0.154809 0.284249 0.201111 0.149462 -0.165960 -0.705925 -0.386277 0.510059 -0.659635 0.761179 0.613785 -0.091837 0.347597 -0.424464 0.213432 0.448000 1.073762 1.090533 -0.439929 0.200660 0.231395 1.459150 -0.750094 -0.492271 -0.334737 -0.567760 0.474835 -0.954533 -0.564108 -0.321164 -0.614453 -0.253932 0.053442 0.751540 -0.282022 0.757855 -0.156341 0.432870
1204 -0.302718 0.425805 0.924917 0.956920 0.052016 0.221752 0.300922 0.140194 0.262513 -0.388551 -0.003695 -0.108746 -0.358951 0.210331 -0.210346 -0.240046 -0.133509 -0.514958 0.108343 -0.292528 -0.317172 0.024575 -0.016183 0.636449 0.149846 0.033489 0.332210 0.303452 0.243015 -0.044724 0.157283 -0.410656 -0.487078 0.613380 -0.040606 -0.107260 -0.176794 -0.292374 -0.476429 0.325334 0.047409 -0.253346 -0.127639 -0.005833 0.290651 0.606236 0.015871 0.283391 0.095313 -0.160700 0.158739 -0.270600 0.055564 0.671989 -0.207722 0.500983 0.062072 0.095355 -0.281462 0.480565 0.064746 0.553166 0.120286 -0.505307 -0.659704 -0.169969 -0.242498 -0.209818 0.366910 0.225051 0.142431 0.408917 0.436187 0.185374 0.160208 0.717288 0.038930 -0.255526 0.196820 -0.082717 0.196077 0.523147 0.406891 -0.617965 0.276067 -0.005456 -0.195632 0.245485 -0.151452 -0.098381 -0.332673 -0.259924 -0.672451 -0.095958 -0.016980 -0.428042 -0.276094 0.213907 -0.051637 0.579014 -0.009854 -0.155139 0.146306 -0.176698 -0.182582 1.042299 -0.387828 0.470271 -0.440455 0.191738 0.053942 0.762126 -0.581847 -0.272795 -0.457366 -0.454115 -0.367603 -0.905350 0.149323 0.155603 0.241872 -0.407343 -0.178915 0.342041 0.438973 -0.026369 0.149599 -0.011103
2973 -0.452009 -0.264453 0.826433 0.435839 0.538573 -0.061642 0.421487 0.521270 -0.295040 0.032403 -0.324842 0.086345 -0.286296 -0.172549 -0.201136 0.451305 0.793746 -0.707334 -0.129101 -0.362321 0.135252 -0.055036 -0.307911 0.143578 -0.353891 0.257113 -0.606929 -0.089600 0.446032 -0.170432 -0.801534 0.061047 1.259938 0.113356 -0.038653 -0.251363 0.449370 -0.140552 0.219856 0.378366 -0.497841 0.379006 0.353738 -0.624091 0.317919 -0.388484 0.170261 0.460203 0.649674 0.504197 -0.014262 0.028048 0.760089 0.294907 -0.213562 0.341605 -0.337537 -0.229029 -0.305277 -0.231241 -0.041461 0.467494 0.701206 -0.304868 -0.631842 -0.202964 -0.335581 0.156255 0.425495 -0.250151 0.038439 0.796354 -0.283680 -0.117079 -0.041972 -0.309614 -0.681925 0.030836 0.059540 -0.141658 0.480080 -0.105241 -0.554693 -0.315739 -0.250891 -0.304868 0.099149 0.064477 -1.003069 -0.210239 -0.409251 0.551608 0.434534 -0.527357 -0.301294 -0.077907 0.058752 -0.371274 -0.011933 1.004307 0.215016 0.047450 0.049737 -0.387691 -0.625163 0.389273 -0.139794 -0.345621 0.479637 0.379098 0.004515 0.424662 -0.267224 0.657691 0.545871 -0.237761 0.854567 0.065174 -0.435634 -0.691079 -0.173494 -0.760085 0.422599 -0.102602 0.455045 0.008628 0.504528 0.378999
961 0.182952 0.068307 0.479723 -0.242027 0.149854 -0.254663 0.124265 0.281818 -0.069169 -0.167737 0.281482 -0.163140 -0.339374 -0.067687 0.019500 -0.221302 -0.018207 -0.353097 0.291426 -0.440172 0.193816 0.301099 0.298138 0.106811 -0.079034 -0.054537 -0.077912 0.072638 -0.389625 -0.010610 0.225201 -0.456608 -0.317821 -0.104849 -0.028919 -0.165768 0.015202 -0.412810 -0.118783 0.143647 0.572925 0.604425 -0.125914 0.107231 -0.260624 -0.096817 -0.002896 -0.136789 -0.270484 0.601626 -0.286008 -0.190466 0.053174 -0.051907 -0.228380 0.228293 -0.012431 -0.348915 -0.266394 -0.226473 0.005331 0.190948 -0.309374 -0.117892 0.125848 0.198788 0.488849 -0.108852 -0.219413 0.066779 0.114405 0.409357 -0.093279 -0.110007 -0.120781 0.022834 0.321714 0.248136 0.229337 -0.562711 -0.119293 0.302523 0.142094 -0.232099 0.284781 -0.170561 -0.081193 0.339360 -0.192105 -0.147465 -0.260520 0.587934 -0.083242 0.238448 -0.027454 -0.480469 -0.025840 0.468862 -0.723084 0.114600 0.238137 -0.259684 0.234636 0.208154 -0.429552 0.240548 -0.148867 0.005732 -0.049067 0.300107 0.238941 0.241091 -0.352130 -0.233826 0.179603 -0.167862 0.870382 -0.447497 0.008132 -0.058487 0.183583 0.002009 -0.071843 0.125145 0.405449 0.037896 -0.136352 0.126935
346 0.127040 0.046195 0.471333 -0.242077 0.063751 -0.373286 0.080157 0.143852 -0.232765 -0.242904 -0.001179 -0.142977 -0.361871 0.001639 0.029951 -0.142178 -0.063938 -0.316573 0.170459 -0.399289 0.258543 0.398750 0.201802 -0.052938 -0.103686 -0.089125 0.036144 0.181925 -0.436158 0.080341 0.064756 -0.288072 -0.299303 -0.140070 0.094739 0.037003 0.127994 -0.027265 -0.087259 0.079384 0.443594 0.782577 -0.357422 -0.092532 -0.177580 -0.132927 -0.047472 -0.032778 -0.176452 0.492721 -0.100961 0.044860 0.159451 -0.067770 -0.151815 0.125787 0.030908 -0.143715 -0.490044 -0.207022 -0.102824 0.251346 -0.326972 -0.112762 -0.090048 0.240050 0.379316 -0.068999 -0.282310 0.123242 -0.104225 0.472606 0.006311 -0.141183 -0.012537 -0.090410 0.154559 0.339796 0.059319 -0.530693 -0.213917 0.318179 0.143160 -0.246854 0.424680 -0.072785 -0.104410 0.248846 -0.150597 -0.214541 -0.297098 0.565430 -0.122898 0.285404 -0.056016 -0.236787 0.143861 0.456249 -0.785764 0.041957 0.220900 -0.296622 0.222018 0.008192 -0.337547 0.264472 -0.115197 0.010125 -0.164900 0.341171 0.242158 0.062391 -0.341865 -0.172710 -0.002249 -0.060436 0.796049 -0.486856 -0.048526 -0.219916 0.228818 -0.006421 -0.070377 0.203969 0.359797 0.049336 -0.138485 0.153252
947 -0.225654 0.135484 0.503447 0.045816 0.234073 -0.316541 0.012031 0.182354 0.393526 -0.387219 0.186007 0.266284 -0.491548 -0.250655 -0.033430 -0.013701 0.013712 -0.027576 0.838727 0.249099 -0.309268 0.270036 0.225547 0.059737 0.677033 0.274456 0.227273 0.590916 0.268609 -0.076392 0.328960 -0.494769 -0.259797 0.209230 -0.354492 -0.291391 0.013429 -0.102245 -0.163874 0.413531 0.417556 0.195084 0.070087 -0.004062 0.116869 -0.000069 -0.039318 -0.294044 -0.210244 0.012938 0.233555 -0.120611 0.013674 0.072130 0.163285 0.328032 -0.046275 0.215103 -0.218589 -0.209097 0.113066 -0.249052 0.178821 -0.469211 -0.257483 0.381132 -0.168383 -0.171007 0.222990 -0.062148 0.215647 0.185848 -0.078534 -0.140138 0.057164 0.177091 0.188723 0.015206 -0.459192 -0.111517 -0.134075 0.425574 0.000252 -0.142377 -0.160649 0.155835 -0.205064 -0.005084 0.155984 -0.191607 0.231119 0.223884 0.437421 -0.243996 0.289808 0.187906 0.079101 0.322823 -0.300869 0.364404 -0.056915 -0.428880 0.109241 -0.387403 -0.075240 0.459637 -0.616020 0.023246 -0.278609 0.447228 0.360183 -0.113746 -0.216714 0.003578 0.045877 -0.208510 0.120482 -0.172816 0.091080 -0.100654 0.295096 -0.166377 0.159150 0.022852 0.161689 -0.265153 0.025804 0.375693
963 0.084143 0.042233 0.483224 -0.286039 0.152543 -0.174421 0.119070 0.321433 -0.172607 -0.252229 0.275382 -0.194642 -0.324839 0.051703 0.050521 -0.257918 -0.101832 -0.289274 0.303129 -0.589677 0.142775 0.386129 0.248367 0.023048 -0.016446 0.032456 -0.008703 0.060999 -0.453881 0.084187 0.174440 -0.352550 -0.227807 -0.188581 -0.059154 -0.143925 0.041152 -0.329102 -0.100863 0.190340 0.607710 0.655324 -0.157668 0.103170 -0.435476 -0.174268 -0.039399 -0.082466 -0.270475 0.551635 -0.224296 -0.035186 0.065506 -0.012703 -0.228762 0.113423 -0.056687 -0.470278 -0.247153 -0.210767 0.000253 0.324795 -0.332049 -0.164301 0.188928 0.211798 0.564706 -0.129115 -0.224202 0.015367 0.046174 0.371653 -0.187422 -0.043752 -0.019516 0.162980 0.280562 0.253266 0.257091 -0.479791 -0.138273 0.334909 0.004611 -0.218197 0.410526 -0.220435 -0.150235 0.230289 -0.126783 -0.246297 -0.294179 0.650168 0.000638 0.232159 -0.201106 -0.432557 0.031431 0.562363 -0.797342 0.074780 0.153492 -0.255074 0.137634 0.087469 -0.435468 0.198300 -0.191621 0.068917 0.059416 0.359102 0.247663 0.175458 -0.512704 -0.309508 0.186363 -0.097542 0.809122 -0.450951 0.063468 -0.170168 0.344082 0.037633 -0.066246 -0.128652 0.350989 0.045267 -0.187219 0.193500
682 -0.175417 0.035697 -0.174370 0.269609 0.272980 -0.056749 0.425140 -0.261921 0.116009 -0.201467 -0.102039 0.328316 -0.392315 -0.062095 -0.163158 -0.091360 0.101247 -0.501080 0.688678 -0.154425 -0.173298 0.602101 0.040669 0.271432 -0.142853 -0.139018 -0.300750 0.459262 -0.151430 -0.169606 0.032798 -0.229122 0.363082 0.567053 -0.161116 -0.045396 0.393216 -0.194247 -0.454103 0.191673 0.635478 -0.063064 -0.380110 -0.168007 0.337029 0.037128 0.333053 -0.203119 -0.373101 -0.063107 0.032635 -0.007739 -0.319713 0.101444 -0.163535 0.152117 0.173149 0.016036 -0.772085 -0.701462 0.254087 0.108767 -0.121493 -0.077725 0.155695 0.335210 0.036988 -0.064150 0.103463 -0.139182 0.172510 -0.147844 -0.094880 -0.208056 -0.130094 0.679217 0.098342 0.151396 -0.280356 0.201317 -0.282035 0.374654 0.164687 -0.183230 -0.027702 -0.478804 0.487394 -0.069489 -0.348646 -0.259870 -0.138106 0.045075 0.141877 -0.246711 -0.490613 -0.224472 -0.077418 -0.070104 0.017488 -0.059868 0.017610 -0.059310 -0.052585 0.584046 -0.328535 0.205059 -0.211969 -0.160647 0.145463 -0.228822 0.385713 -0.280597 -0.318209 0.344286 -0.032093 -0.301830 0.496208 -0.741443 -0.458642 -0.288503 0.200652 0.090020 -0.079280 0.282640 0.216303 -0.238395 -0.272301 -0.110863
1723 -0.734902 0.620899 0.674320 0.510421 -0.165692 0.322098 0.232423 0.054055 -0.051863 -0.207312 0.414825 0.665451 -0.134062 -0.358694 -0.004970 0.257179 0.532535 0.587622 -0.160888 0.024455 0.060812 0.003466 0.190651 0.335681 0.422597 -0.079013 0.368497 0.470248 0.136224 -0.538143 0.282436 -0.165386 0.031094 0.021200 -0.052742 -0.181524 0.435276 0.169104 -0.302565 0.747216 -0.130583 -0.359201 0.178269 -0.028293 -0.506322 0.278242 0.082161 -0.174546 -0.220427 0.360087 0.007860 -0.485244 -0.107291 -0.056244 -0.139106 0.185215 -0.202108 0.216631 -0.100019 0.377008 0.386693 0.248063 0.121421 0.128998 -0.387508 -0.381615 0.133849 -0.022774 0.247468 0.548186 -0.045920 0.176379 -0.051742 -0.209849 0.293718 0.073786 -0.491508 0.074587 0.191422 -0.697673 0.105285 0.713033 0.053053 -0.951244 -0.193051 0.134699 -0.066779 0.269338 -0.668656 -0.444783 -0.213749 0.367603 -0.196445 -0.525991 0.279409 -0.674308 -0.205492 0.402051 0.090317 0.328064 0.102502 0.156981 0.521083 0.072160 -0.166473 0.865211 -0.463292 0.084289 -0.093816 0.120346 -0.178663 0.066386 0.009649 -0.106697 -0.461942 -0.427306 -0.513224 -0.707778 -0.277695 0.353674 0.105928 -0.559747 -0.323348 -0.156148 0.174949 0.112061 -0.200458 -0.542710
2769 -0.030839 -0.437777 0.798330 0.276291 0.867217 0.548016 0.326336 -0.236704 -0.004927 -0.825400 -0.037578 0.363441 -0.608257 -0.671897 0.387203 0.699615 0.582756 -1.346506 0.791039 0.274775 -0.190943 0.232561 0.503480 0.222420 -0.552200 0.460306 -0.868601 0.085828 -0.923692 0.526686 0.532533 -0.357130 0.580389 -0.421414 0.266497 -0.123122 0.772533 0.364331 0.337915 0.009833 0.145449 -0.438943 -0.675110 0.712539 0.321214 -0.416221 0.365738 -0.150940 -0.313563 0.047156 0.591921 -0.234960 0.025969 0.171236 -0.587248 -0.138343 0.015966 -0.350705 -0.263625 0.224599 0.338824 0.573044 -0.294900 -0.162430 -0.807848 -0.364628 0.990972 -0.279952 -0.333263 0.211644 -0.194008 0.426109 -0.508233 0.257160 0.474851 -0.128115 -0.957373 0.142871 0.382446 0.381439 -0.322123 0.330992 0.654030 0.330117 -0.318794 -0.323541 -0.609527 -0.327408 0.416881 -0.763464 -0.465790 1.775498 -0.924247 -1.008055 0.372001 -0.940991 -1.028423 1.160232 0.190823 0.654848 -0.114390 -0.393804 -0.469357 0.099984 -0.551450 0.310760 0.265631 -0.581251 0.079133 0.295088 -0.539782 -0.441636 0.125791 0.233137 -0.257037 0.017250 -1.001317 0.481531 0.496256 -0.425564 -0.057093 0.072189 -0.229358 0.264463 0.540636 0.843705 0.491869 0.060898
181 0.374316 0.595935 0.165205 -0.403103 -0.045089 0.314935 0.432217 0.125196 -0.195652 0.120811 0.504237 -0.230019 -0.083147 -0.174895 -0.448381 0.318690 0.346809 -0.266612 0.278888 0.093143 0.002711 0.288343 -0.422960 -0.784950 -0.295200 0.088231 -0.375444 0.396382 0.088412 -0.670196 -0.238124 -0.702824 0.055671 -0.214303 0.323701 0.265168 0.981489 -0.099593 -0.562896 -0.144724 -0.038070 0.164261 -0.179253 -0.793482 0.280673 -0.163163 0.250122 -0.281722 -0.099477 0.130156 0.461204 -0.635030 -0.402028 0.071573 0.438495 -0.492609 0.514552 -0.208088 -0.163406 -0.051477 1.088636 0.409911 -0.016473 0.127273 -0.434139 -0.414011 0.496304 -0.467692 0.378384 0.102233 -0.297350 0.193973 -0.257473 0.460334 -0.023408 -0.154521 0.368369 0.358359 0.062235 -0.276937 -0.410438 0.313661 -0.544585 0.485520 0.281253 0.276230 -0.756747 0.371560 -0.070671 -0.543332 -0.443047 0.535828 0.044272 0.248182 0.219081 0.535899 -0.228034 -1.016732 0.002538 0.429978 -0.701509 -0.404162 -0.005798 0.408897 0.624525 0.564230 -0.096502 0.266023 -0.058855 0.298135 -0.438986 0.246244 0.087180 0.335473 0.013444 -0.292227 -0.012397 -0.386996 0.042460 -0.379630 -0.274584 -0.130997 0.056697 -0.452692 0.276609 -0.284898 -0.447159 -0.290454
957 0.237642 0.096900 0.615172 -0.275385 0.038678 -0.652835 0.036464 0.318343 -0.143869 0.007172 0.092486 -0.122130 -0.626256 -0.095766 -0.065888 0.018755 -0.261687 -0.663665 0.443579 -0.518619 0.052448 0.096394 0.331879 -0.032254 -0.179879 -0.156592 -0.303158 -0.040488 -0.242839 -0.207408 0.001725 -0.277210 -0.559117 0.103903 -0.045717 -0.089283 0.137466 0.022036 -0.134093 -0.003828 0.689107 0.845745 -0.226370 -0.249247 -0.185768 0.201570 0.101326 -0.033262 -0.159501 0.475632 -0.247982 -0.162982 0.159584 -0.270817 -0.325410 0.302395 0.194125 -0.083798 -0.211299 -0.106395 -0.294076 0.208982 -0.280403 -0.030808 -0.230091 0.092327 0.523232 -0.049286 -0.544113 0.095131 -0.195130 0.257662 -0.077655 -0.091829 -0.066104 0.095677 0.261261 0.275129 -0.060402 -0.608475 -0.136353 0.158545 0.238630 -0.369281 0.231876 -0.227605 0.004465 0.409096 -0.144588 -0.044463 -0.282136 0.622296 -0.159418 0.419905 -0.093788 -0.362532 0.023169 0.401102 -0.809119 0.187282 0.242772 -0.162967 0.294906 0.256076 -0.502869 0.147977 -0.189090 0.032383 -0.223568 0.494711 0.233117 0.225428 -0.395529 0.002201 0.084160 -0.134466 0.797289 -0.452356 -0.266548 -0.261786 -0.008944 -0.009716 0.112183 0.176473 0.464576 -0.056590 -0.006663 0.030807
1610 -0.194936 0.393669 0.978290 0.426820 0.793660 0.427576 0.473190 0.194733 -0.026093 0.134956 -0.293616 0.021000 0.208078 0.207458 -0.109053 0.645193 -0.148255 -0.358754 0.079867 0.408584 0.427687 0.275972 -0.014984 0.028014 -0.820176 -0.461621 0.745731 -0.203396 -0.041738 0.284867 -0.190363 -0.039420 0.254378 0.498412 0.164931 0.383299 -0.148262 0.285444 -0.807864 0.514480 0.234662 -0.000411 -0.069327 -0.445489 0.547304 0.063704 0.480675 0.425270 -0.003640 0.025376 -0.338663 -0.349845 -0.135134 -0.125384 0.389092 -0.340393 0.351279 -0.498279 -0.202718 -0.709451 -0.063292 0.417425 0.534252 0.032449 0.521937 0.041519 0.315188 -0.125276 0.034403 -0.715802 0.075509 0.111990 -0.524087 0.395789 -0.179574 -0.455852 -0.926274 -0.034533 -0.195477 -0.204126 0.405014 0.586163 -0.090316 0.698844 -0.203875 -0.586071 -1.066753 -0.339432 1.137001 -0.166116 0.298018 0.381630 0.828456 -0.517895 0.021973 -0.099618 -0.022390 -0.256994 -0.336496 -0.388801 0.251062 -0.542538 -0.154346 -0.228341 0.311202 0.624299 -0.157970 -0.113328 -0.356033 0.594107 -0.098231 0.503715 -0.711486 -0.022156 0.378225 -1.119935 -0.340410 0.242275 0.518427 -0.271102 -0.299211 -0.293572 -0.071461 -0.258544 0.103703 -0.074786 -0.074559 -0.690094
901 -0.579469 0.311465 -0.193040 0.444831 0.240710 -0.558838 0.374839 -0.034487 -0.405061 -0.185219 0.572020 0.604853 -0.268876 -0.227432 -0.209665 0.239738 -0.554110 -0.257179 0.441006 -0.233454 0.102566 0.510853 -0.140566 -0.136906 -0.336664 0.253912 -0.239443 -0.153012 0.203854 -0.292223 0.137470 -0.370295 0.538357 0.015655 -0.237456 0.237096 -0.607926 0.464853 -0.315882 0.202159 0.359359 0.274868 -0.538331 0.081851 -0.022318 -0.873193 0.139184 -0.363733 -0.258066 0.554844 -0.141879 -0.053360 -0.130793 0.373118 0.543996 -0.146723 0.584610 0.007026 0.885152 -0.917056 0.149985 0.432272 0.904131 -0.596133 0.214605 -0.645163 0.312620 -0.695770 0.142861 0.491244 -0.484755 -0.086675 0.503653 -0.363236 0.087276 0.505344 -0.067264 -0.307630 0.692893 -0.673770 0.293562 -0.079073 0.256288 0.277768 0.123704 -0.327071 -0.506200 0.194326 0.021134 0.836177 -0.059515 0.919648 -0.042579 -0.116623 -0.237375 -0.016886 -0.126672 -0.423148 -0.408630 -0.165407 -0.762900 -0.257956 0.646573 -0.301225 0.079560 0.546924 -0.293073 -0.040034 0.239839 -0.435248 -0.304718 0.359120 -0.057624 0.609687 0.154651 -0.114583 0.297337 0.136758 -0.400630 -0.037628 0.203041 -0.161682 -0.522781 0.096414 0.062340 -0.678411 -0.175138 0.296208
383 -0.611689 -0.118710 0.028942 0.171482 0.621865 0.427156 0.092626 -0.226736 0.303068 -0.010608 -0.142094 0.382595 -0.539730 0.086605 0.254594 -0.342320 -0.157589 -0.463133 0.732424 -0.351041 -0.108912 0.202816 0.165557 -0.069127 -0.017121 0.180289 0.030152 0.291962 0.080323 -0.088433 0.125786 -0.258642 -0.084711 0.389396 -0.042283 -0.419963 0.259865 -0.100377 -0.314264 0.308963 0.868924 0.105567 -0.188888 0.068679 0.094917 0.101138 0.260508 0.082433 -0.249400 0.017763 0.083122 -0.554480 -0.195374 0.251753 0.233423 0.037694 0.067363 0.039954 -0.698714 -0.674133 0.263805 0.190253 -0.149450 -0.038017 -0.297195 0.473676 0.202909 -0.348027 0.165448 -0.170704 0.358289 0.205555 0.156621 -0.228917 -0.221641 0.650500 0.014165 0.166286 0.096630 0.193356 -0.334372 -0.036933 0.365773 -0.157887 -0.100737 -0.083162 0.031599 -0.087832 -0.529878 -0.072185 -0.053133 0.112462 -0.142558 -0.388064 -0.320723 -0.250727 -0.121334 -0.137155 -0.322796 -0.179940 0.305042 -0.017351 -0.045397 0.160148 -0.049689 0.309830 -0.338011 -0.199919 0.029862 -0.220976 0.237711 0.130476 -0.304656 0.507784 -0.075464 -0.310542 0.605168 -0.521241 -0.389863 0.037628 0.359445 0.000809 -0.217340 0.097280 0.176138 -0.242832 -0.273021 -0.068689
1003 -0.131403 0.217228 0.575780 0.322524 0.444846 0.091677 0.162221 -0.034765 0.429517 0.007995 -0.044312 -0.087339 -0.543802 -0.079753 0.307103 0.115252 -0.291967 -0.566550 0.245971 -0.432714 -0.013767 0.395738 -0.093829 0.031912 -0.216058 -0.386665 -0.113952 -0.427848 0.447385 -0.446726 0.099265 -0.273889 -0.467090 0.159243 0.101304 -0.316208 -0.070464 -0.207017 -0.344808 0.010093 -0.111006 0.179670 -0.248351 0.218383 0.341032 -0.209422 -0.360500 0.288577 -0.385077 0.355983 0.055618 -0.255811 0.103599 0.425336 0.145857 0.133376 -0.010727 -0.121060 -0.433650 0.041790 0.770111 -0.666420 0.502245 0.099261 -0.005194 0.543731 -0.115837 -0.541820 0.147950 -0.085816 -0.708676 -0.034613 -0.259995 0.048020 -0.184406 0.599363 -0.227771 -0.156914 0.103246 -0.160801 -0.521044 -0.152207 -0.115650 -0.455631 0.098726 -0.375819 -0.147422 -0.245644 -0.487064 -0.598848 -0.131859 0.147154 -0.247605 -0.091866 0.156270 -0.344909 -0.457048 0.717672 0.267136 0.106232 -0.087021 -0.499814 0.059409 -0.508127 0.140188 0.879984 -0.661561 0.194086 -0.604247 0.597969 -0.048929 -0.288225 0.070426 -0.367728 -0.136499 -0.274557 -0.204900 -1.067937 -0.026090 -0.138886 0.479703 -0.527133 -0.409390 -0.225903 0.298145 0.104805 -0.088334 0.214571
1528 0.391515 0.641450 0.074451 -0.400476 -0.072997 0.417893 0.379159 0.077710 -0.161066 0.040925 0.628730 -0.219234 -0.093107 -0.191925 -0.298808 0.191317 0.336952 -0.231347 0.305599 0.200340 -0.012106 0.251538 -0.449846 -0.791818 -0.227054 0.034018 -0.248548 0.359349 0.074222 -0.736673 -0.273169 -0.598522 0.183386 -0.170937 0.378873 0.369899 1.050376 -0.143811 -0.669824 -0.201064 0.036932 0.228156 -0.157351 -0.834245 0.308926 -0.199554 0.302164 -0.465633 -0.054997 0.169568 0.366564 -0.735600 -0.353256 0.147792 0.491520 -0.445982 0.479192 -0.182414 -0.101896 0.081964 0.896226 0.410473 -0.036478 0.033201 -0.465497 -0.464878 0.598747 -0.404537 0.305498 0.163001 -0.223813 0.336905 -0.236855 0.559322 -0.013476 -0.172109 0.349564 0.412620 0.215032 -0.225471 -0.365433 0.250580 -0.693900 0.614799 0.398586 0.317996 -0.715123 0.276071 -0.021807 -0.632403 -0.372469 0.590863 0.041546 0.308762 0.220662 0.500451 -0.350648 -0.956031 0.013996 0.401343 -0.665031 -0.382189 -0.071803 0.352776 0.425826 0.598869 -0.024908 0.373937 -0.136883 0.286568 -0.510397 0.276130 -0.024475 0.460435 0.131498 -0.315914 -0.062206 -0.329442 -0.084024 -0.418835 -0.210375 -0.127809 0.022452 -0.449573 0.394063 -0.272449 -0.520208 -0.206005
1405 0.343080 -0.094037 0.379768 0.534079 0.110058 -0.676437 0.042860 0.098001 0.244592 -0.600401 -0.139972 0.677664 -0.671959 -0.464837 -0.002078 -0.313547 0.151257 -0.331163 0.670887 -0.405158 -0.307347 0.290534 0.456768 -0.499765 0.287192 -0.525880 0.068463 0.476725 0.059784 -0.189147 0.033666 -0.229511 -0.013347 0.328883 0.324080 -0.080611 0.028236 0.213157 -0.546797 0.320231 0.122587 -0.003882 -0.280944 -0.630097 -0.329777 0.305970 0.516813 -0.287105 -0.188413 -0.512587 -0.287584 -0.422823 0.232719 -0.136483 0.313607 0.568403 0.287330 0.002192 -0.081222 -0.046255 0.109856 -0.386347 0.218093 0.151758 0.414929 0.506267 -0.118886 -0.199591 0.002533 0.031061 0.390363 0.245610 -0.087578 -0.325363 -0.016747 0.246336 0.074771 -0.091447 0.091415 -0.140981 -0.513743 -0.259943 -0.159857 -0.291975 0.076908 -0.331047 -0.146441 0.281561 -0.223578 0.152095 -0.074004 0.184973 0.373572 -0.437995 0.407025 0.659901 -0.153844 0.452235 -0.387029 0.617377 -0.000522 0.542319 0.327950 -0.013303 -0.137741 0.509238 -0.003909 0.289500 -0.002883 0.469332 -0.058549 0.276902 -0.643841 0.233672 0.048869 0.149655 0.128725 -0.467400 0.385031 0.068266 0.410936 0.087175 -0.102978 -0.127463 0.829120 -0.179486 0.160732 0.036105
212 -0.277582 0.000725 0.536040 0.351157 -0.563140 0.342642 -0.264217 0.012348 0.233335 -0.072406 -0.364839 0.224732 -0.206873 -1.076057 -0.557021 0.722418 -0.129566 -0.226269 0.478853 -0.209628 -0.413955 0.529556 0.402310 -0.697365 -0.204255 -0.361150 -0.138277 -0.150236 0.026514 0.056770 0.807238 -0.449538 -0.226136 -0.103112 0.312098 -0.125421 0.485227 0.019710 0.332900 -0.094853 0.011214 0.247088 -0.229712 -0.151107 0.025540 -0.329399 -0.610635 -0.497373 -0.403210 0.014783 -0.198473 -0.452798 0.086810 0.365659 0.205948 0.353381 0.147070 -0.174993 -0.200093 -0.416804 -0.011874 -0.158793 0.433104 0.475919 -0.299644 -0.133308 0.086923 -0.147411 -0.066654 0.087251 0.202254 0.242714 0.202576 0.706483 -0.000344 0.858664 -0.662313 0.297671 -0.098354 -0.375588 -0.107391 0.313120 -0.338487 -1.314883 -0.305920 0.197379 -0.334488 -0.440261 0.108220 -0.512231 0.147050 0.482079 -0.649843 0.194637 0.148763 -0.633375 -0.417083 -0.046457 -0.853768 0.343338 -0.128889 -0.506172 0.508889 0.397906 -0.007981 0.444877 0.147464 0.108172 0.268585 0.641418 -0.204817 -0.451424 -0.325449 -1.152944 0.142141 -0.419719 0.542432 0.139650 0.705617 0.052391 -0.110323 -0.230689 -0.036351 0.458523 0.183774 -0.175157 -0.662466 -0.097962
955 0.107360 0.142023 0.369993 -0.098526 0.075080 -0.392140 0.370997 0.069762 -0.309363 -0.216035 0.197375 0.113360 -0.484735 0.049434 -0.058079 -0.085995 -0.110482 -0.471716 0.402881 -0.430238 -0.212044 0.340316 0.093573 0.315718 0.035829 0.117911 -0.100917 0.259352 -0.358884 -0.068315 -0.014478 -0.146302 -0.274527 -0.262013 -0.070365 0.260957 0.144597 -0.311883 -0.054341 0.179272 0.815443 0.408632 -0.492194 -0.283954 0.024816 0.086066 -0.134041 0.078071 -0.479185 0.202598 -0.151372 -0.059744 0.058873 -0.259516 -0.303400 0.272413 -0.075739 -0.194445 -0.342582 -0.083607 -0.043869 0.143162 -0.269451 0.037725 -0.012264 0.135002 0.504307 -0.204848 -0.279859 -0.072901 0.164180 0.213493 -0.158996 0.085273 -0.100763 -0.089559 0.332288 0.165355 0.028848 -0.547687 -0.056116 0.430220 0.143994 -0.394912 0.123006 -0.156603 0.122922 0.226949 -0.324219 -0.024795 -0.031883 0.618717 -0.228629 0.466381 -0.206064 -0.605893 0.213826 0.110361 -0.745587 -0.091841 0.219265 -0.187765 0.125439 0.051881 -0.672766 0.238180 -0.410584 -0.254774 -0.140310 0.501888 0.222728 0.103992 -0.350246 0.064472 0.121878 0.024652 0.504340 -0.512198 -0.139282 -0.192137 0.521580 0.105224 -0.252927 -0.126505 0.507959 0.137629 -0.272648 0.055568
