2708 128
24 -0.121766 0.133648 -0.092899 0.308880 0.078372 -0.000505 0.124263 0.261111 0.138167 0.260151 -0.142822 -0.243260 0.072677 0.174296 -0.283075 -0.289189 -0.030135 0.061693 0.170890 -0.267291 -0.122772 -0.141103 0.168057 0.148708 -0.058954 -0.406955 -0.065523 0.182384 0.076028 -0.035682 0.076762 0.170995 -0.293077 0.427134 -0.158217 0.060951 0.199187 -0.188942 -0.181947 0.431857 0.114258 -0.093785 0.315510 -0.152437 -0.054707 0.006186 -0.039656 -0.179504 -0.274975 -0.241357 0.298521 0.143335 -0.109487 0.011746 0.043569 0.154522 0.103912 0.134857 -0.126862 -0.127918 0.013071 -0.456225 -0.430568 -0.280930 0.212252 -0.008730 -0.003050 0.015331 -0.019510 0.027238 -0.100284 0.095258 -0.286922 -0.053409 0.115812 0.276093 -0.007998 -0.014869 -0.137988 0.264715 0.154246 -0.050739 0.403125 0.199305 0.108597 -0.196064 -0.063434 -0.208914 -0.187064 -0.136785 0.250119 0.180341 0.101474 0.225135 0.207042 -0.064576 0.196314 -0.155667 0.087545 0.083240 -0.152271 0.356760 -0.184585 0.158058 0.049769 -0.010229 0.238947 0.041755 0.167934 0.086994 0.158357 -0.147580 0.121042 0.092389 -0.424405 0.099416 0.033683 -0.157089 0.229393 0.159687 0.157112 -0.047642 -0.078006 0.063350 0.096106 -0.118746 0.184028 0.093273
927 0.123572 -0.373118 -0.281195 0.375757 0.095752 -0.011752 -0.272990 -0.210672 0.028906 0.470574 0.012819 0.054004 -0.178462 -0.065261 0.132262 -0.051945 0.045176 -0.285573 -0.148776 -0.122692 -0.041556 0.175486 0.217772 0.051698 -0.069192 -0.342036 -0.194327 -0.249382 0.158099 0.090484 0.181877 0.183398 0.207792 -0.214423 -0.238811 -0.110184 -0.066474 -0.264325 0.012838 -0.104682 0.089091 -0.142982 0.270157 0.357500 -0.053362 0.247235 -0.104948 0.377495 -0.070056 0.014731 -0.161965 0.041496 0.036509 0.106077 0.400617 0.277967 -0.131158 -0.454169 -0.520326 0.313116 -0.156562 -0.350529 0.132390 -0.159507 -0.277618 0.141288 -0.427977 0.022244 0.193968 -0.350102 -0.110541 0.189475 0.060758 0.078132 -0.045507 0.188905 -0.080612 -0.015471 -0.075593 -0.154447 0.072644 0.405828 0.394405 -0.065889 -0.014340 0.049360 0.353953 -0.196196 -0.108090 0.491467 0.573176 -0.076157 0.167738 0.107687 0.071778 0.023375 0.236626 -0.250478 -0.236062 -0.013660 -0.152023 0.564639 0.047475 -0.120140 0.002508 0.132587 0.051015 0.040474 -0.302456 0.108998 0.293432 0.142066 0.131939 -0.397113 0.116786 -0.296881 -0.245331 -0.163758 0.118370 -0.063127 0.137788 0.093477 0.512118 -0.212541 -0.113643 -0.111897 0.425960 0.063793
1423 -0.394299 0.045985 0.177633 -0.061880 0.118985 -0.192446 -0.083964 -0.354638 -0.041500 -0.038267 0.134854 0.235203 -0.096070 -0.225120 -0.114596 -0.080382 -0.192108 0.385901 0.361095 -0.075179 0.329123 -0.131801 0.181639 -0.105793 -0.102585 0.109955 -0.162964 -0.172618 0.379318 0.223810 -0.164942 0.149684 0.233568 -0.126533 0.051658 0.269556 -0.133570 -0.080048 -0.244098 -0.060905 0.121510 0.181028 0.031667 0.360415 -0.202936 0.267295 0.026547 0.127467 -0.157515 -0.109849 -0.172928 -0.230947 -0.114483 0.112747 -0.058417 0.322187 0.069767 0.215463 -0.172400 -0.028615 -0.435104 -0.202207 -0.120005 -0.401497 0.033710 0.165408 -0.158231 -0.175310 0.149836 -0.041190 0.101560 0.135862 0.060097 -0.075305 0.210670 0.206590 0.042840 0.017026 -0.234235 -0.094830 0.252396 0.381148 0.031201 0.094693 0.069165 0.307672 0.271694 -0.189225 -0.250562 0.001747 0.172168 -0.143671 0.462588 0.487447 0.246331 -0.107232 0.036853 0.016780 0.538279 0.210290 0.073883 0.493399 -0.100523 0.203114 -0.190108 -0.115346 -0.142995 0.261065 0.083492 0.294129 0.167005 -0.013928 0.356978 0.126227 0.124972 0.076946 0.265487 0.177089 -0.075273 0.116863 -0.042800 0.075974 0.214455 0.042105 0.377021 -0.161786 0.168003 0.170984
2154 0.277295 -0.041217 -0.020806 0.033526 0.697818 -0.072972 -0.101183 0.038368 0.305789 0.528359 0.266302 0.115336 -0.315822 0.153493 -0.099851 -0.002275 0.299992 -0.555882 -0.242363 -0.422968 -0.046084 -0.103010 0.206214 -0.073990 0.158314 0.087042 0.036727 -0.233983 -0.089652 -0.118265 -0.090303 0.386249 0.154598 -0.105094 0.016232 -0.254614 0.214689 -0.256002 -0.181557 -0.019207 0.025908 -0.211706 0.173850 0.123195 0.132490 0.314331 0.286860 -0.312764 -0.164511 -0.453926 -0.073619 -0.012751 0.168913 0.194644 0.270701 0.258554 0.064701 -0.181666 -0.075123 0.208966 -0.202182 -0.085043 -0.105716 -0.270320 -0.140763 0.370946 -0.181637 -0.252141 0.229038 -0.358432 0.031877 0.249386 0.061624 -0.083960 0.040065 0.029048 0.035508 -0.285427 -0.109610 -0.249009 0.103448 -0.020676 0.080358 -0.106641 -0.133761 -0.170118 0.343431 0.170310 -0.199648 0.125857 0.290222 0.127456 0.100083 0.341182 0.208021 -0.183123 0.028631 0.376741 -0.037090 -0.093508 -0.143962 0.408770 -0.118894 0.091401 -0.057560 -0.231983 0.003518 -0.147173 -0.169202 0.188533 0.210123 -0.262534 -0.074479 -0.228954 0.075953 0.086563 -0.137489 -0.272582 -0.070339 0.203887 0.123930 0.051887 0.207442 -0.135814 -0.264101 0.044158 0.091025 -0.029647
619 0.091234 -0.366991 0.271819 0.238692 0.359114 -0.210163 -0.424148 0.136474 0.325455 0.244577 0.072442 -0.026649 -0.225160 -0.016840 0.092785 -0.062390 0.525535 -0.077568 0.302046 0.133284 -0.332294 0.164714 0.299319 -0.010564 -0.038843 0.055133 -0.341875 -0.309884 0.186392 0.273306 -0.102774 0.398937 -0.122342 0.029002 0.262409 0.022580 -0.007127 -0.254328 -0.500138 -0.013214 0.345120 -0.082203 0.258038 0.492289 -0.015842 -0.098630 -0.100544 0.130652 -0.313593 -0.113118 0.149798 0.012108 -0.213236 0.040611 0.233269 0.251281 0.063707 0.004360 -0.440398 -0.084509 0.162583 -0.211677 -0.012089 0.530176 -0.256064 -0.028476 -0.440609 0.111870 -0.283879 -0.414467 0.322118 0.034786 -0.031326 0.209403 0.142034 0.248241 -0.004608 0.071629 0.035512 -0.061175 0.569171 0.108486 0.259248 -0.058664 -0.143830 0.343000 -0.046390 -0.017254 -0.092000 0.400260 0.259252 0.024350 -0.107875 -0.352683 0.189572 0.355934 0.039414 0.258416 -0.163904 0.402401 -0.430339 -0.004996 0.022201 0.016395 0.135574 -0.114492 0.407812 -0.183964 0.084465 0.448890 -0.014736 -0.009563 0.385477 -0.024004 0.103009 -0.140953 -0.043240 0.400659 -0.106683 -0.203146 -0.061412 0.813627 0.397294 -0.361294 0.103316 0.100823 -0.075598 0.382322
161 0.194181 0.106746 -0.144437 0.115352 0.119049 0.150779 0.149820 0.019754 0.334818 -0.246897 -0.022543 0.015025 0.096202 -0.069560 0.073229 -0.101794 0.297008 0.271463 0.068438 0.393476 0.136888 0.192715 0.203256 0.144133 -0.551757 0.321197 0.048931 -0.131440 0.138066 -0.146678 0.062851 0.567096 0.429733 -0.226366 0.099017 -0.598096 0.008057 -0.029442 -0.165381 0.254010 0.073580 -0.132765 0.589136 0.303986 -0.122334 0.363956 -0.080488 -0.050742 0.033980 -0.179447 -0.388336 0.154576 0.297365 -0.282013 0.517274 -0.272901 0.282113 -0.190758 -0.271642 0.026930 -0.266663 -0.135296 0.111022 -0.085106 0.300988 0.141451 -0.261977 -0.185547 -0.376993 -0.316325 0.220518 -0.082421 -0.138953 0.376747 -0.268548 0.118438 -0.132775 0.072116 -0.162775 -0.229994 0.118648 0.298187 0.137701 0.051172 -0.272492 0.285567 -0.265088 -0.181521 -0.135391 0.370785 -0.169287 0.397829 -0.262747 -0.117448 -0.093641 0.038571 0.387267 0.136546 0.202721 0.230348 -0.646403 0.546530 0.302830 0.353731 0.099393 -0.009283 -0.166472 0.003255 -0.133796 0.200918 -0.169007 -0.176121 -0.042497 -0.019281 -0.219214 -0.251210 0.299305 0.091800 0.063102 0.434005 0.017432 0.211774 0.179595 -0.294998 0.299062 0.072437 -0.032305 0.120678
82 -0.303484 -0.073347 0.163885 -0.282982 0.047768 -0.026866 -0.224274 -0.175314 0.131708 0.146353 -0.028447 0.131403 -0.236908 -0.589485 -0.055092 -0.273476 -0.207044 0.511053 0.067597 -0.526684 0.012890 -0.305686 0.220493 -0.227263 0.152618 -0.030892 -0.311968 -0.395745 -0.003068 0.028923 -0.113021 0.254458 0.320964 -0.433667 -0.026511 0.045162 0.005086 -0.037357 -0.107681 -0.022115 -0.191079 0.384575 0.147600 0.187587 -0.268150 0.246440 -0.345505 -0.102513 -0.230804 -0.224127 0.238819 0.014709 -0.131099 -0.082314 0.122921 0.262180 0.239991 0.044824 -0.328127 -0.125047 -0.128268 0.157985 -0.124482 -0.525507 -0.091923 0.119055 -0.173494 0.010138 0.074753 -0.072329 0.295744 0.011552 0.224628 0.043937 0.306056 0.361924 0.266656 0.161011 -0.356656 0.041424 -0.068387 0.282638 0.243889 0.133853 0.080532 -0.111783 0.046325 -0.040210 -0.366068 -0.260205 0.007289 -0.218124 0.459344 0.234011 0.028432 0.212495 -0.086840 0.277691 0.408867 0.125384 0.054521 0.604096 -0.035207 0.320051 -0.376046 -0.109721 -0.488080 0.453823 0.347568 0.314921 -0.032954 0.295475 0.580601 0.342927 0.043269 -0.118870 0.126822 -0.116936 0.001078 0.152623 -0.096860 0.538868 0.241160 0.177932 0.460770 -0.134197 0.104505 0.179512
2156 -0.280145 0.018808 -0.005383 0.059412 0.588385 -0.322690 0.341938 -0.125518 0.270142 0.453463 -0.013355 -0.318544 -0.229496 -0.146545 -0.022174 -0.349819 0.617746 -0.017210 0.026916 0.154226 0.003780 0.067496 -0.403820 -0.210607 -0.013456 0.195973 0.009075 -0.607673 -0.094229 -0.393545 0.153890 0.011060 -0.005987 0.088316 0.302390 0.165264 0.168941 -0.468868 0.033907 0.005795 -0.218422 -0.241474 0.146798 -0.040318 0.100857 -0.259946 -0.076089 -0.226543 0.052787 0.080585 -0.054005 0.127471 0.156906 -0.232872 -0.125627 0.111101 -0.065068 0.287721 -0.361276 -0.177466 -0.124091 0.095936 -0.429035 0.160435 0.237848 -0.132810 -0.086203 0.023909 -0.039841 0.128138 0.210978 -0.153646 -0.241240 0.135271 -0.074122 0.121127 -0.164845 -0.078052 0.075108 0.297083 0.082996 0.221870 0.042818 0.349402 -0.002512 0.229334 0.243035 0.000501 -0.196554 -0.280854 0.210334 0.009806 -0.045279 0.224789 0.027034 0.115937 0.241186 -0.541342 0.414942 0.239777 -0.560464 0.073471 -0.061749 0.201698 -0.139790 -0.392855 0.054447 -0.121470 -0.219449 0.559660 -0.104929 0.286135 -0.140020 0.203018 -0.026146 -0.157365 0.104328 -0.766084 0.421846 0.048167 -0.251565 -0.517653 0.110070 -0.249585 0.268737 0.323588 0.120921 -0.185658
2021 0.153861 0.169409 0.172355 0.221097 0.242207 -0.120906 0.064922 -0.171859 -0.077021 0.209649 0.004252 0.416812 -0.248189 -0.036221 -0.540849 -0.119390 0.045727 -0.435187 0.188776 -0.019742 0.089098 0.375089 0.078775 0.540078 -0.197830 -0.278210 -0.078945 -0.201346 0.089677 -0.092815 0.210208 0.297469 -0.150105 0.010303 0.009891 -0.338048 0.141258 -0.378731 0.370886 -0.198281 0.320863 -0.067609 0.367570 0.489052 -0.339806 0.123323 0.271405 0.207165 -0.286182 -0.118657 -0.012737 0.183170 0.010667 0.050044 0.203183 0.429642 0.207196 -0.248736 -0.109650 0.175072 -0.222972 0.138291 0.194222 -0.043851 -0.581272 0.346821 -0.311650 -0.228022 0.005429 -0.404557 -0.078000 0.496686 -0.064267 -0.408918 0.046235 0.319917 0.091455 0.194927 0.098942 -0.184120 0.057045 0.119563 0.064911 0.068111 0.355742 0.031344 0.100583 0.257720 -0.156507 0.384382 0.623137 -0.455814 0.035563 -0.315324 0.654155 0.519470 0.268469 -0.169695 0.105882 0.174776 -0.428237 0.361734 -0.233582 0.095967 -0.034212 -0.043168 0.315395 0.005077 -0.402616 -0.225600 -0.052894 0.061193 0.413701 -0.429352 -0.006264 -0.060237 0.415213 -0.362503 -0.474570 0.047752 -0.160717 0.315899 0.500448 -0.182747 0.039069 0.227284 0.286303 0.165738
864 0.348791 -0.221017 -0.437230 -0.023817 0.570864 -0.048200 -0.076410 0.228157 0.112604 0.132976 -0.102065 -0.226331 0.191535 0.316016 -0.216974 -0.483612 0.098612 0.248405 0.119011 0.054102 0.333820 -0.323068 -0.243140 0.188799 0.541054 0.032529 0.226024 -0.209579 -0.191244 0.236890 0.335073 -0.038846 0.209996 -0.299544 0.029054 0.394606 0.180633 -0.216322 -0.192337 -0.081138 -0.354732 0.286015 0.047294 0.015072 0.153371 0.243479 -0.357227 0.221793 -0.111761 -0.175536 0.081039 -0.014767 0.207255 0.209839 -0.313194 0.224713 0.099797 -0.239722 -0.267532 -0.117222 -0.669027 -0.007879 -0.138527 -0.077671 -0.068110 -0.097594 -0.171063 -0.140115 -0.043412 -0.242695 -0.004506 -0.003865 -0.534754 0.053775 0.222739 0.358621 -0.122732 -0.380390 -0.447370 0.057305 0.018353 0.317779 0.047855 -0.189637 -0.117711 -0.132181 0.009147 -0.237105 0.300591 0.034370 0.183104 0.127193 -0.070040 -0.063070 -0.143575 0.258939 0.044090 -0.170643 0.336935 0.363987 -0.042618 0.019149 -0.051028 -0.298709 0.244311 -0.053929 -0.085103 -0.193231 0.033834 0.175764 0.006847 0.028973 0.196512 0.211543 0.074564 0.488748 -0.112361 -0.201857 -0.069688 0.186095 -0.394984 -0.150462 0.302820 0.049752 0.050185 -0.187578 0.375870 -0.182253
1631 -0.198070 0.016872 0.035589 -0.008416 0.383431 0.196781 -0.136015 0.318950 0.237678 0.208407 -0.301225 0.002418 -0.236090 0.603519 -0.253349 -0.209091 -0.018899 -0.126919 0.261364 0.633309 0.398777 -0.833182 -0.136758 -0.334836 0.341008 -0.046961 -0.114675 0.001854 0.526424 -0.070149 0.408424 0.048305 0.620461 -0.679914 -0.203595 -0.515632 -0.047265 -0.673267 0.146871 0.094172 0.200884 0.229322 -0.023495 0.114609 -0.362118 -0.188477 -0.266691 0.027742 0.058020 0.202358 0.120999 0.162523 0.109242 0.011616 -0.334209 -0.110207 -0.028391 -0.266135 0.201095 -0.049986 -0.517058 -0.083213 -0.126849 -0.193840 0.133733 -0.137249 0.049082 -0.334324 -0.184451 -0.417794 0.263743 0.026430 -0.350195 0.184005 0.046808 0.407940 0.070305 -0.209113 0.429873 0.255874 0.317891 0.301290 0.381367 -0.120727 -0.245837 0.015814 0.228673 -0.282977 0.027197 -0.268597 -0.186687 0.048175 -0.277396 0.381913 -0.071945 0.386704 0.460661 -0.106758 -0.058866 -0.183741 -0.267796 0.035450 -0.564059 -0.007915 0.179236 -0.015263 -0.296968 -0.022687 0.538522 0.184637 -0.088139 -0.018271 0.036058 0.187677 0.042007 0.206668 -0.141390 -0.562529 0.104225 -0.169578 -0.194370 0.173401 0.229900 0.208576 0.248455 0.055830 0.453888 -0.398085
320 0.265654 -0.581935 0.006494 0.045523 0.455968 0.026827 -0.316452 -0.219402 0.221117 -0.120641 -0.089377 0.014400 -0.003145 -0.046374 -0.224349 -0.191573 -0.017811 0.265025 0.451522 -0.018665 -0.027727 -0.027214 0.231109 0.066578 0.023535 -0.005297 -0.093691 0.070918 0.190404 0.326002 -0.091542 -0.312263 0.289753 -0.107893 -0.252041 0.254916 0.100624 -0.018574 0.101505 0.086794 0.040889 0.210999 0.366508 0.304139 -0.172122 0.431036 -0.370096 0.114694 -0.090119 -0.168914 -0.189869 -0.200845 -0.145903 0.154343 0.262920 0.341641 0.372153 0.177680 -0.566891 0.168100 -0.319385 -0.499583 0.046464 -0.588648 0.019351 0.006564 -0.460484 -0.137391 0.364429 -0.135730 0.079246 0.207504 0.186632 -0.104896 0.157938 0.105157 0.197953 0.093264 0.058916 0.024725 0.094349 0.184631 0.090994 0.178913 0.268068 0.296315 0.403302 -0.262433 -0.301648 -0.051920 0.239209 -0.322593 0.252300 0.325396 0.138856 0.100683 -0.072288 0.119551 0.192363 0.209023 0.024833 0.162229 -0.099564 0.015531 -0.331776 -0.003662 -0.110008 0.091365 0.137564 0.154397 0.097394 0.245780 0.267011 -0.152953 -0.023663 0.047195 0.149300 -0.121631 0.249544 0.016169 -0.047204 -0.036004 0.475924 -0.280380 0.140800 -0.006623 0.109606 0.072367
1567 0.255591 -0.194756 0.090694 -0.013869 0.653282 0.070949 -0.272660 0.525798 0.622978 0.696438 0.097199 -0.567788 -0.014278 -0.504754 0.201735 0.202973 0.120445 -0.109921 0.355503 -0.114955 -0.387966 0.002861 -0.089671 0.044533 -0.024512 0.122150 -0.414038 0.232265 -0.193393 -0.092665 -0.132239 0.064550 0.482221 -0.043526 -0.099886 0.120657 0.077980 -0.109195 -0.138475 0.031316 0.254449 -0.589891 -0.175844 0.205312 -0.379072 -0.524309 0.532249 0.464629 0.007091 -0.003622 0.259422 0.046770 -0.216933 -0.013071 -0.015642 0.076115 0.172976 -0.000488 -0.217963 -0.074492 -0.564954 0.076391 0.152546 0.365174 0.009206 0.458154 -0.387810 0.023889 0.052529 -0.292629 0.412608 -0.046158 0.002170 0.259291 0.093188 0.056190 0.106693 -0.080588 0.001590 -0.108839 -0.467568 0.142336 0.346201 -0.421782 -0.317281 -0.208957 0.399702 0.374466 -0.249778 -0.027379 -0.093520 0.428733 0.085120 0.390836 -0.037187 -0.205384 0.012401 -0.214745 0.084372 0.371534 -0.301678 0.044218 0.020599 0.394127 0.214834 -0.290810 0.346120 -0.425702 -0.086014 0.038736 0.071854 -0.027565 -0.028224 -0.346698 -0.269003 0.010168 0.379772 0.076613 -0.286506 0.279648 -0.348641 0.288057 0.458068 -0.192264 0.595061 -0.008741 0.244539 0.410228
830 -0.150520 0.322089 -0.010628 0.254034 0.148574 0.242667 0.012821 -0.206369 -0.166533 0.102859 -0.062223 -0.028790 0.074779 0.175119 -0.146460 0.021888 -0.084165 0.021036 0.258948 -0.000900 0.164106 0.045686 0.053775 -0.094755 0.059925 -0.367023 -0.007781 -0.200133 0.232763 0.204054 -0.106175 0.434383 0.290135 -0.098813 0.216433 0.159312 -0.251001 -0.040385 -0.261014 -0.195510 0.109266 0.168945 0.277947 -0.083344 -0.133733 0.193572 0.012993 -0.030743 -0.386038 -0.377829 -0.375073 0.212674 -0.269449 0.361586 -0.042873 0.199609 -0.162699 0.110005 -0.191418 0.029500 -0.213517 0.030227 -0.493183 -0.504078 0.481503 0.008293 -0.306925 -0.151416 0.077429 -0.339684 0.051351 0.338348 -0.218598 -0.032639 0.009544 0.110933 0.180809 -0.101870 -0.198017 0.063776 0.233521 0.082326 0.156825 0.179243 0.255507 0.560105 0.374100 -0.113471 -0.042652 -0.241071 -0.046963 -0.295507 0.262787 0.252980 0.255673 -0.386947 -0.304183 -0.322425 0.167265 0.024104 0.307105 0.395212 -0.358612 0.332679 0.220947 0.231033 0.127709 0.132829 -0.340719 -0.059276 -0.067921 -0.064870 -0.014973 -0.046681 -0.006600 -0.012208 0.104269 0.041688 -0.112715 0.194225 -0.070827 0.203155 -0.175252 -0.087922 0.879334 -0.133620 0.086328 -0.014352
273 -0.008855 -0.477402 0.174838 -0.059596 0.128760 -0.128571 -0.284938 -0.280176 0.471949 -0.003850 -0.174467 0.121567 -0.256182 -0.349818 0.075973 0.134561 0.073957 0.447130 0.133042 0.040083 -0.119626 -0.061276 0.316906 -0.012977 0.007473 -0.349590 -0.180601 0.095236 0.145706 -0.102848 0.047021 -0.012752 0.248452 -0.115607 -0.238078 0.083618 0.174554 -0.075598 -0.167457 -0.292200 -0.289348 0.203792 0.248625 0.251992 -0.448029 0.418496 -0.404629 -0.284237 -0.142711 -0.324884 -0.272223 -0.125914 0.120655 0.304876 -0.017169 0.182637 0.129460 0.154750 -0.214305 0.130818 -0.114378 -0.374039 0.252242 -0.398718 -0.054164 0.285308 -0.097111 -0.159459 0.181783 0.068482 -0.169567 0.228669 -0.175313 0.267825 0.169205 0.355637 -0.194545 -0.175893 -0.156068 -0.305661 0.001657 -0.228381 -0.059697 0.230927 0.283477 0.277400 0.044670 -0.064597 -0.334157 0.011243 0.057982 -0.084264 0.240802 0.582716 0.222495 0.231648 -0.140927 -0.016105 0.161699 -0.112766 -0.027732 0.333084 -0.473146 -0.036085 0.120679 0.079409 -0.345419 -0.077538 0.114321 0.145671 0.268454 0.175241 0.232101 0.211089 0.015527 0.042497 0.414390 -0.175719 -0.157159 -0.181730 -0.145248 0.321848 0.361412 -0.000082 0.504243 -0.216854 0.275170 -0.065324
1780 -0.057869 0.002219 -0.144455 -0.012690 -0.340472 -0.240808 0.230284 0.087750 0.372434 0.482527 -0.111713 0.595287 -0.510726 -0.057621 0.160972 0.069769 0.175204 -0.198960 -0.040524 0.181017 0.568664 0.208348 0.019080 -0.188258 -0.075215 -0.209980 0.372519 0.642786 0.019119 -0.243029 0.112253 0.231447 -0.294405 -0.266899 -0.296225 0.392191 0.364548 -0.274680 0.182483 -0.106105 -0.030123 -0.200691 0.039433 0.107827 0.130471 -0.028259 0.039688 0.829685 -0.690721 -0.232436 0.096487 -0.295079 -0.285305 -0.326762 0.654064 0.218475 0.176348 -0.678794 -0.088436 0.516054 -0.218422 -0.409370 -0.122154 0.096761 0.031230 0.631268 -0.438473 0.042548 0.331347 -0.226781 0.056919 0.410187 -0.571998 0.906769 0.070219 0.400683 0.192549 0.503096 0.248189 -0.250800 0.497866 0.601814 0.386084 0.372112 0.020347 -0.316571 0.353760 0.574985 0.181197 0.167413 0.378090 -0.087012 0.150934 -0.334841 0.395825 0.694557 0.217876 0.063466 -0.291943 0.464742 -0.092260 0.395801 -0.484975 -0.249607 -0.277083 -0.328281 0.679049 -0.215040 -0.331844 0.179567 -0.344523 0.351765 -0.243857 -0.108292 0.448938 0.058161 0.079496 -0.450271 -0.376756 0.735840 0.198256 0.307075 0.175915 -0.058934 0.753074 0.168528 0.376356 0.002483
2529 0.090340 0.135030 0.501933 0.295081 1.085387 -0.458922 0.223161 0.091121 -0.171334 0.099938 -0.605103 0.497517 -0.057037 0.029284 -0.217201 -0.454065 0.245486 0.054119 -0.038078 0.188210 0.363090 0.449032 -0.044180 -0.208504 -0.029624 -0.000001 -0.484049 0.188420 -0.196577 -0.112811 0.423898 0.457033 0.328094 -0.430770 0.016178 0.214634 -0.591337 -0.209508 -0.072733 0.597490 -0.236371 -0.654354 -0.213914 0.169251 0.199465 -0.113478 0.035406 -0.240481 -0.899824 -0.308185 0.257679 -0.327387 0.202447 0.303572 -0.589950 -0.635713 -0.156930 0.159906 -0.144203 -0.462816 -0.029844 -0.308269 -0.159512 -0.558922 -0.024113 -0.518498 -0.252020 -0.104257 0.380228 0.845447 0.244544 0.213522 0.314996 0.328540 0.233953 0.671411 0.083577 -0.290237 0.165326 -0.267660 -0.351253 -0.025529 0.396245 0.406866 -0.793106 0.173859 0.279691 -0.019501 0.320992 0.108672 -0.194949 -0.459590 -0.562208 -0.143047 -0.541686 0.136899 0.018253 -0.039130 0.628673 -0.119507 0.119005 0.833382 -0.323445 -0.241180 0.244235 0.505507 0.265362 -0.252312 0.362381 -0.034573 0.444370 0.848948 0.179944 0.079918 -0.306338 0.069625 -0.033097 -0.724163 0.063649 0.368622 0.419155 0.453331 0.125427 0.288001 0.427405 -0.087371 -0.011235 0.218128
21 -0.636607 0.446677 -0.164248 0.005160 0.154310 0.046384 -0.390651 0.127335 0.324152 0.580538 0.065979 -0.710430 0.318348 0.324423 0.214261 0.025633 -0.021868 0.221811 0.276389 0.120162 0.017470 -0.165993 -0.293413 0.281011 0.278324 0.316911 -0.020810 -0.139794 0.219530 -0.061667 0.333394 0.366094 0.031257 -0.419979 -0.002696 -0.015676 -0.121660 -0.352830 0.214488 0.192310 -0.327105 0.113264 0.361307 0.258519 -0.097618 0.138212 -0.188562 0.039333 -0.504608 -0.074464 -0.162151 0.368326 0.428508 0.056448 -0.235988 0.376135 0.126867 -0.218200 -0.020326 -0.173944 -0.391454 -0.154695 0.110384 -0.030299 0.288911 -0.363292 0.265113 -0.318653 -0.239668 -0.233593 0.038645 -0.116722 0.119883 -0.169719 0.337512 0.232805 -0.006027 -0.125634 0.036706 -0.330011 0.334258 0.098267 0.114910 -0.027706 -0.312539 0.073907 0.097805 -0.333441 -0.334372 -0.404886 0.285755 -0.150623 -0.173639 0.484259 -0.490102 0.460650 -0.069406 -0.000693 0.371943 -0.219759 -0.304570 0.256093 -0.108071 -0.383823 0.299095 -0.220517 0.180674 -0.415260 0.004210 -0.354438 -0.185620 0.451207 0.226972 0.092076 -0.558692 0.157490 -0.211787 -0.338779 -0.158153 0.016408 -0.152432 -0.268600 0.193482 0.158075 0.174185 -0.020032 -0.105373 0.127199
2639 0.076532 0.569327 0.118429 -0.101421 0.374664 0.197321 0.037411 -0.094697 0.615975 -0.083414 -0.217763 -0.292412 -0.342763 -0.015219 0.384214 -0.179750 -0.445333 0.221730 -0.056436 0.605431 0.121771 -0.214156 -0.162751 0.077625 -0.340371 -0.183635 -0.050168 -0.571208 -0.257164 0.270684 0.547171 0.350562 0.087627 -0.300465 -0.666447 0.193675 -0.119479 -0.361276 0.172088 0.364909 -0.252244 0.400884 -0.399156 -0.103192 -0.432396 0.148525 0.087299 0.107767 -0.060480 -0.068411 0.660034 -0.030859 0.063423 -0.232583 0.304904 -0.009839 0.429088 0.265668 0.452006 0.008066 -0.525584 -0.188312 -0.188038 0.242250 -0.084594 -0.463317 0.052916 -0.710233 0.302884 -0.391297 0.222938 0.587507 -0.404500 0.012794 -0.093508 -0.071158 0.505172 0.057670 -0.187199 -0.107277 0.038229 -0.146753 0.129627 0.207255 0.170650 -0.211297 0.571221 0.125085 -0.780722 0.347378 0.050825 0.394204 -0.456928 -0.485584 0.171838 -0.142339 -0.354796 -0.012390 0.497828 -0.264174 0.179071 0.295543 0.090758 -0.270199 -0.075593 -0.250229 -0.288683 -0.502730 0.133554 0.327567 0.002902 0.440511 0.158378 -0.168518 -0.352346 -0.016604 0.006240 -0.410841 -0.019904 -0.534986 -0.550689 0.331916 -0.250597 -0.125598 0.053696 -0.088141 0.095203 0.270109
684 -0.001469 -0.213940 -0.031096 0.534690 0.088345 0.234699 0.055518 0.261709 0.242631 0.348908 0.078544 -0.313321 -0.005786 0.443883 -0.060698 -0.097037 -0.192835 0.134930 0.169288 -0.076377 0.225385 -0.135671 -0.190470 0.103606 -0.103640 -0.464147 -0.554337 -0.014510 0.124777 -0.386416 0.345871 0.496989 -0.535914 0.591729 -0.072843 0.129572 0.254832 -0.009279 -0.080208 0.215432 0.428623 -0.165757 -0.022328 0.167988 0.282623 -0.083778 0.118934 -0.252329 -0.346068 0.048619 0.402850 0.407831 0.244005 -0.261063 0.355836 0.222141 0.190706 0.113218 -0.143777 -0.338381 0.192497 -0.433986 -0.417835 -0.298890 0.365075 -0.454023 -0.342821 -0.325006 -0.131430 0.069936 0.310445 0.274546 -0.417081 -0.134565 0.602915 0.345735 0.131406 0.199708 -0.536638 0.518246 0.286444 -0.097700 0.573735 0.099675 0.352499 -0.144537 0.029588 -0.282068 -0.248795 -0.191676 0.213530 0.402389 0.295525 0.145094 0.368084 -0.044523 -0.017498 -0.179858 0.032726 0.107385 0.004848 0.389215 -0.386247 0.250917 -0.247915 0.045638 -0.026710 -0.224052 0.319795 -0.183033 -0.063438 -0.257986 -0.280882 0.398047 -0.358460 0.023877 0.108590 0.039887 0.365707 0.542253 -0.025998 0.176928 0.177643 0.253531 0.100326 0.079031 0.200546 0.071590
340 -0.178779 -0.057896 0.218429 0.055248 0.691039 -0.486727 -0.064069 -0.093656 0.253185 0.625704 0.000811 0.352186 -0.373248 -0.137197 -0.199750 -0.475887 0.032917 0.388237 -0.044193 0.486697 -0.101494 -0.251723 -0.575633 -0.201610 0.208806 0.316251 0.066166 0.006035 0.174353 0.260744 0.258816 0.383717 -0.464310 -0.408597 0.282939 -0.103210 -0.246535 0.020833 -0.112514 0.404739 -0.258725 0.178531 -0.304878 0.371698 -0.329190 -0.049520 -0.780363 -0.027268 -0.066216 0.504424 -0.156549 0.401472 0.101836 0.083027 -0.369241 -0.111815 0.045026 -0.085168 -0.114916 -0.298657 -0.542920 -0.243661 -0.585673 -0.317962 -0.180958 0.102586 0.510343 0.319382 -0.188934 -0.253169 0.523358 -0.058028 -0.170311 0.094496 0.077260 0.477083 -0.309006 0.396036 -0.714229 -0.194245 0.025747 -0.202834 0.327664 0.391578 -0.134891 0.177797 0.542102 0.138989 -0.016462 -0.056396 0.342605 -0.821105 -0.137128 0.053193 0.122912 0.102575 0.032184 -0.678693 0.257903 0.303828 0.241000 0.507098 0.004806 0.184249 0.136492 -0.312441 -0.488442 -0.217813 -0.234299 0.003972 0.196879 -0.038201 -0.035419 0.263114 -0.063245 0.568439 -0.097352 0.389926 0.229102 0.389358 0.022436 0.277852 -0.190124 -0.047332 0.050718 -0.282722 0.372922 0.553735
45 0.200522 0.045356 -0.299513 -0.023785 0.365105 -0.011654 -0.109282 -0.277661 0.710704 -0.418818 -0.498632 -0.319605 -0.115476 -0.069420 -0.007750 -0.654592 0.014530 0.234478 -0.025507 0.249256 0.416825 -0.860681 0.203130 0.015227 -0.306767 -0.237876 0.006995 -0.262501 -0.285648 0.116645 0.326301 0.628407 -0.199555 0.086266 -0.262871 0.310993 0.249377 -0.175262 0.172262 0.030222 -0.308896 0.244884 -0.152421 0.145881 -0.513453 -0.122808 0.336029 -0.080988 -0.313248 0.293020 0.130771 0.193168 -0.199510 -0.235725 0.109752 0.096135 -0.171158 0.067511 -0.157187 0.104619 -0.067212 -0.169525 -0.396919 0.579100 -0.308518 0.129460 -0.074855 -0.511481 0.223854 -0.292154 0.246803 0.507187 0.026933 0.147367 0.220456 0.193640 0.249304 -0.020290 -0.159972 -0.123533 -0.093136 -0.068497 -0.147875 -0.188219 0.216612 0.033536 0.025573 -0.055387 0.046895 0.111168 0.160394 0.346496 -0.343185 0.175123 -0.162894 0.034061 -0.297412 -0.206934 0.332733 -0.004186 0.348013 0.410810 -0.335607 0.300303 0.119465 -0.366196 -0.002597 -0.547642 0.291548 -0.213344 0.097750 0.141296 0.178574 0.072031 0.254616 -0.292895 -0.274476 -0.658006 -0.083978 0.046104 -0.369836 0.136941 -0.331737 0.166956 -0.000100 0.663657 -0.161670 0.093253
1319 0.051380 -0.002474 -0.202115 0.416647 0.836846 -0.264543 0.053124 0.016334 0.307728 0.238086 0.157269 -0.278228 0.008210 -0.020160 -0.232561 -0.189323 0.497387 -0.132107 -0.166055 0.330293 0.326532 -0.093983 -0.295561 -0.137285 0.293266 -0.040898 0.288216 -0.328794 -0.111412 -0.018112 0.175048 -0.373919 0.186452 0.128943 -0.001712 0.279293 0.114905 -0.288852 -0.011862 -0.031619 -0.721702 -0.126676 -0.032345 -0.236966 -0.103365 0.161728 -0.104401 -0.075987 0.198587 0.186857 0.281610 0.205543 0.054989 -0.224485 0.004038 0.297879 -0.332368 0.395202 -0.612614 -0.124950 -0.290420 0.024562 -0.270180 0.272125 -0.496546 -0.434088 -0.207497 -0.282498 0.050197 -0.107240 0.070669 -0.385507 -0.692117 0.041879 -0.032122 0.057876 -0.013373 -0.005399 -0.030980 0.062341 -0.296795 0.506820 0.053316 0.137675 -0.388073 0.006757 0.106288 0.319020 -0.022021 -0.130445 -0.092532 -0.068932 0.132898 0.185949 0.114036 0.341742 -0.026406 -0.306035 0.702653 0.036856 -0.627422 0.189127 -0.006756 0.038295 -0.121341 -0.262303 0.101033 -0.141845 -0.056515 0.475457 -0.116107 0.122900 -0.329678 0.537718 -0.070733 -0.059970 -0.180557 -0.779039 0.426784 0.195567 -0.335216 -0.053419 -0.103703 -0.268571 0.376032 0.342678 0.002946 -0.093434
1164 -0.022743 0.027158 -0.008493 -0.222397 0.282638 -0.295106 -0.344249 0.258293 0.878246 0.064214 0.418233 -0.057209 0.372338 -0.319871 -0.153517 0.152949 0.005505 0.532374 0.165497 0.249610 0.044441 -0.037987 -0.307449 0.429715 -0.038909 0.007570 -0.196603 -0.161223 0.005368 0.178569 0.017236 0.506768 0.372312 -0.121014 -0.020679 0.172162 -0.009852 -0.678729 -0.322343 -0.064893 -0.043996 0.125720 0.153639 0.421221 0.274966 -0.006916 0.150659 -0.199959 -0.398000 0.014103 -0.028912 0.248902 -0.243893 -0.313318 -0.215886 0.122385 -0.144087 -0.165350 0.117073 0.114841 0.040138 -0.440957 -0.406081 -0.052464 0.134893 -0.291243 -0.230142 -0.223642 -0.254695 -0.165205 0.383298 0.112623 -0.114107 -0.005479 0.031229 0.354643 -0.134317 -0.020697 -0.157747 -0.298941 0.130860 -0.094930 0.242304 0.078368 0.046501 -0.024768 0.102001 0.067509 0.044026 -0.397334 0.304202 -0.573098 -0.466323 -0.215128 -0.267222 0.270687 0.479733 -0.110358 0.454250 0.034542 0.077620 0.168404 0.018619 -0.290580 0.163641 -0.536565 -0.351621 -0.201612 0.030299 -0.270882 -0.354092 -0.066916 0.243725 0.144896 -0.107637 -0.012371 -0.074049 -0.196204 -0.407047 0.100148 -0.074744 -0.402685 0.181064 -0.602772 -0.512969 -0.400613 0.262622 0.028452
2084 0.223314 0.206488 0.135582 0.317047 0.308350 -0.207896 0.259584 -0.449696 0.764757 -0.099246 0.052613 -0.425004 0.049994 -0.382936 -0.360238 -0.682930 -0.199766 0.061732 -0.345342 0.357116 0.413932 -0.487924 0.024927 -0.165162 0.186784 0.206479 -0.289486 0.027585 -0.098500 -0.178413 0.191446 0.477275 0.246819 0.091496 0.162818 0.329778 0.030696 -0.108877 0.338196 0.030631 -0.355900 -0.029674 -0.368036 -0.236097 -0.264428 0.302647 -0.166391 0.112154 -0.071721 0.329383 0.349915 -0.366689 -0.271463 -0.299151 0.070974 0.031351 0.278423 0.197070 -0.124524 0.080799 0.266625 0.020911 -0.115661 0.294917 -0.376641 0.002945 0.211113 -0.491286 0.196029 -0.422054 0.584029 -0.009596 -0.437659 -0.011022 0.378060 0.062429 0.091067 0.272770 -0.154973 0.052347 -0.088963 0.035949 0.271125 -0.558673 0.055600 0.144415 0.342601 -0.260567 -0.466889 0.272351 0.089308 0.115380 -0.508919 -0.119248 0.178936 0.200494 -0.405763 0.154485 0.459612 -0.336233 -0.168050 0.449536 0.096410 0.499875 0.157567 -0.530540 0.406989 -0.010311 0.176554 -0.054884 0.351691 0.284650 -0.281024 0.456824 -0.351855 -0.014418 -0.275164 -0.589595 0.065309 -0.098125 -0.524387 -0.169179 0.081596 -0.190703 0.481637 0.321583 -0.114664 0.439232
1144 -0.042716 0.291597 -0.025452 0.242674 -0.275323 -0.374654 0.008956 -0.330882 -0.210837 0.193982 0.078654 -0.157556 0.202292 -0.239985 -0.749200 -0.137731 -0.111643 0.120482 0.326756 -0.405256 0.239074 -0.044175 0.503401 -0.252684 0.397081 -0.168776 0.033420 -0.186020 0.604128 0.514324 0.089144 0.376842 0.185030 0.222797 -0.030874 0.065733 0.087833 0.318530 -0.093231 0.434962 0.019905 -0.286833 0.079128 -0.044928 0.161742 -0.242161 -0.337854 0.148387 -0.348242 -0.322693 0.232681 0.024796 -0.141069 0.255271 -0.289308 0.539077 0.053526 0.315496 -0.534804 -0.001071 0.267910 -0.158175 -0.464024 -0.067218 0.517781 0.033873 -0.010292 -0.561232 0.392355 -0.165283 0.185092 0.445973 -0.267748 0.461300 0.187187 0.573925 0.346710 0.332470 -0.100272 -0.216181 -0.075359 0.078965 0.341858 0.521598 0.229619 -0.062359 0.045138 -0.180234 0.065807 -0.109397 0.203772 0.029476 0.027758 0.438434 0.041197 -0.228518 0.298586 -0.083398 0.060335 0.024689 -0.666355 0.721246 -0.550575 0.250769 0.282095 0.563059 -0.010669 0.184971 -0.060269 0.184279 -0.143486 -0.233217 0.243938 0.218667 -0.005915 0.314455 -0.216639 -0.044336 0.252167 -0.052317 -0.137848 -0.194789 -0.068684 -0.003995 0.104255 0.140276 -0.235934 0.215948
1791 -0.406741 0.087826 -0.132775 -0.218803 -0.042244 -0.220330 -0.235666 0.345888 1.184369 0.383625 -0.550712 -0.374916 -0.747202 0.755476 0.238868 0.127994 0.099586 0.029261 -0.763169 -0.532560 0.454380 -0.147301 -0.152531 0.393685 -0.090477 -0.065759 0.093375 -0.180744 0.528158 -0.037198 0.046811 0.290065 0.495603 -0.406673 -0.660254 0.572396 0.037157 -0.219364 -0.055942 -0.305062 0.552923 0.222887 -0.106101 0.160778 0.178306 0.168288 0.408736 0.046322 0.234259 -0.109812 0.194123 0.083393 -0.214989 0.133701 -0.022065 0.007470 -0.461234 0.211973 -0.395967 0.178737 -0.228649 -0.535317 -0.339354 -0.118400 0.181268 -0.126288 0.144540 0.311786 0.453315 -0.503013 0.899589 -0.109048 -0.009682 -0.185298 0.241340 -0.057629 0.152855 -0.205752 -0.570536 -0.019379 -0.580868 -0.025634 0.095650 -0.269354 -0.119304 0.137722 0.123146 0.754716 -0.595029 0.607252 0.690638 -0.004268 -0.054519 0.087567 -0.054700 0.408971 -0.126346 -0.180927 0.078707 0.273212 -0.264452 0.317628 -0.284615 0.161425 0.365001 -0.095125 -0.116896 -0.305097 0.082507 0.324984 0.057910 0.127540 0.667092 -0.257524 -0.097157 0.015950 0.875199 0.049495 0.047945 -0.238876 -0.083088 0.505280 -0.334593 -0.447105 0.433655 0.805156 -0.357643 -0.018521
2013 -0.139627 -0.521030 0.383910 0.347910 0.433231 -0.709456 -0.019949 -0.659992 0.750584 0.153220 0.188392 -0.109067 -0.252244 -0.156405 -0.033221 -0.005356 -0.325307 0.484999 -0.270397 0.446458 -0.337301 -0.293431 -0.047035 -0.218705 -0.485229 -0.438629 0.043796 -0.276023 -0.532186 0.111920 0.045122 0.115911 0.349765 -0.007588 -0.427764 0.197358 -0.761415 -0.713066 0.266142 0.152337 0.025890 -0.003620 0.115712 0.277613 -0.126479 -0.220555 -0.381777 0.331657 -0.405450 -0.162006 0.025447 -0.477519 1.021834 0.314127 0.515594 -0.089279 0.049805 -0.241356 0.021896 0.082118 0.119106 0.092944 0.320817 -0.344058 0.090566 0.071617 -0.701653 -0.205380 -0.314163 -0.299533 0.007478 0.265689 0.182658 0.334098 0.216181 -0.355814 0.308189 -0.088336 -0.284981 0.035556 0.062764 -0.044007 0.383982 -0.052038 0.040111 -0.180114 -0.278325 0.350397 0.351484 0.003063 0.232163 -0.062421 0.055898 1.004138 0.170422 0.368229 0.120299 -0.078281 0.381053 0.162931 0.257073 0.349090 0.582525 0.067189 0.463436 0.107707 0.567909 -0.002208 0.105363 0.244141 -0.851932 -0.091424 0.071538 0.258560 0.018158 0.507730 0.341390 -0.285732 -0.134060 -0.392316 -0.733474 0.624197 0.065107 0.142831 0.016713 0.316406 -0.046053 -0.018561
1341 -0.401853 -0.119052 -0.049115 0.301183 -0.379984 -0.299262 0.254719 0.097127 0.413063 0.589445 0.105412 0.508844 -0.797466 -0.126271 0.354606 0.003274 0.207652 -0.122507 0.136984 0.158642 0.854061 0.223103 -0.163989 -0.425690 -0.416972 0.254122 0.688336 0.855988 -0.065712 -0.560389 -0.029456 0.216211 -0.554831 -0.516519 -0.414161 0.489314 0.236123 -0.211385 0.251056 0.262666 0.091333 -0.272337 -0.167158 0.103419 0.136532 0.457905 -0.025911 0.989602 -0.387956 -0.517824 0.363075 -0.155292 -0.265974 -0.124593 0.683249 0.279631 -0.023910 -0.590924 -0.219374 0.653701 -0.589795 -0.427678 -0.206949 -0.081802 0.150107 0.637107 -0.489933 -0.085890 0.271598 -0.309137 0.016303 0.460886 -0.741937 1.420353 -0.263288 0.314279 0.379328 0.650959 0.518408 -0.262737 0.571347 0.714367 0.473587 0.433192 0.084963 -0.371935 0.518616 0.241736 0.066954 -0.318512 0.289272 -0.176802 -0.041167 -0.394204 0.196751 1.087210 0.426296 -0.037751 -0.474862 0.760135 0.172835 0.425832 -0.825932 -0.087711 -0.285170 -0.200618 1.005423 -0.443252 -0.289385 0.668536 -0.381187 0.211660 -0.404459 0.386230 0.192306 -0.039294 0.073678 -0.390582 -0.632992 0.959085 0.027324 0.199358 0.406663 0.065764 0.878163 0.152693 0.521457 0.331144
2148 0.099661 0.128103 -0.215648 -0.463446 0.505070 -0.541989 0.149401 -0.003948 0.756398 -0.182698 -0.191040 -0.344465 0.119244 -0.254003 0.059053 0.208059 0.146360 -0.133104 -0.286151 -0.318670 0.556049 0.336269 -0.089031 -0.058732 -0.255327 -0.143312 -0.361370 -0.536127 0.427264 -0.176756 0.354352 0.132311 0.427411 -0.293950 0.053625 0.182375 0.117370 -0.681191 -0.320097 -0.358542 0.021182 0.109613 0.029619 0.316452 0.164109 0.238053 -0.291058 0.347288 -0.127117 -0.682118 0.076788 0.300900 0.250211 -0.552118 -0.623584 -0.216038 -0.213848 0.082139 -0.469306 0.345471 -0.166837 -0.383802 -0.427222 -0.306058 0.486934 -0.223219 0.148241 -0.758143 -0.405968 -0.416766 0.667635 -0.160702 -0.166790 -0.094757 -0.137334 -0.043481 -0.082836 -0.112617 0.115155 0.081395 0.411621 -0.163657 -0.126583 0.169093 -0.527104 0.155868 -0.199694 0.662203 -0.387368 -0.324516 0.316495 -0.215402 -0.227089 0.185340 -0.077459 0.638070 -0.005012 -0.313003 0.386659 0.343427 -0.088805 -0.346087 -0.447006 -0.102853 -0.038789 -0.389563 -0.123963 -0.286648 -0.109568 -0.098337 -0.175491 0.148576 -0.012701 0.094051 -0.272171 -0.022773 0.166192 -0.203401 0.170753 0.256409 -0.543051 -0.252768 -0.057233 -0.204041 -0.228951 -0.047329 0.208766 0.207818
163 -0.036668 0.000422 -0.323249 -0.192715 0.293381 0.054572 -0.300313 0.323958 0.589907 -0.401019 -0.054347 -0.329470 -0.127241 0.630908 -0.118450 0.221449 0.073656 0.074287 0.185794 0.369953 -0.207320 0.360968 0.600709 -0.295622 -0.073241 0.195919 0.181946 0.268534 -0.128973 -0.398161 0.151129 0.624199 0.348867 -0.233023 -0.072358 -0.272058 -0.483895 -0.475355 0.357283 0.227504 0.344080 -0.120169 0.383454 0.106664 0.063574 0.287495 0.405353 0.226777 0.011809 -0.051988 0.146723 0.102805 0.203339 -0.456811 0.367769 -0.297652 0.154239 -0.102182 -0.064878 0.460570 -0.130719 -0.081273 -0.379202 0.235284 0.103089 0.538325 -0.133868 -0.019594 -0.157335 -0.212571 0.227738 0.068621 -0.082989 0.445419 0.032961 0.658288 0.180245 0.209805 -0.224855 -0.376443 -0.295735 0.400556 -0.459933 -0.635832 0.236825 0.707042 0.187455 0.505669 -0.514013 0.538456 -0.416330 0.206378 -0.204119 0.298255 0.150313 0.307245 0.564756 -0.293806 0.449220 0.296797 -0.255016 0.526637 0.057034 0.415872 -0.515746 -0.300460 -0.162332 -0.330730 -0.196405 0.545404 -0.150176 0.065730 0.235210 -0.272081 -0.217715 0.195664 0.382386 0.058001 0.079413 -0.156858 -0.225046 0.674991 0.131587 -0.150006 -0.080765 -0.167696 -0.059520 0.201144
1770 0.010843 0.394880 0.207855 0.011822 0.579216 0.030277 0.132326 -0.000647 0.051636 0.075260 -0.197584 -0.268281 0.155259 0.327607 0.156087 -0.392572 0.094974 0.342644 -0.025176 0.500407 -0.389039 -0.456331 -0.431380 -0.084963 -0.230929 -0.100557 0.082031 -0.479638 0.090890 0.261597 0.142965 0.494453 0.177485 -0.341676 -0.531298 0.256542 -0.131429 0.343738 -0.231285 0.349040 -0.149874 0.243437 -0.190153 -0.037874 -0.277226 0.195223 0.122599 -0.309032 -0.366095 -0.238907 0.635240 0.030821 -0.076018 -0.359040 -0.081001 -0.087048 0.434315 0.330588 0.135477 0.066279 -0.230407 -0.283771 0.232548 0.486143 0.386642 0.061387 -0.057794 -0.245024 0.002254 -0.614469 0.206881 0.354043 -0.377531 0.053411 0.052629 0.105831 0.465675 -0.600675 -0.116905 -0.081432 -0.142366 0.100270 0.406963 0.224919 0.075237 -0.111270 0.059423 0.466113 -0.482163 0.066011 0.118968 0.037647 -0.106408 -0.062072 0.191346 0.591125 -0.033895 -0.087564 0.512954 -0.427330 0.073847 0.305001 0.248281 -0.360770 -0.523193 -0.001199 0.228825 0.021570 -0.025027 0.205320 -0.261345 0.474195 0.135613 0.038372 -0.368482 -0.054719 -0.035022 -0.209541 -0.093579 0.079811 -0.337643 -0.388466 -0.474537 -0.201701 -0.099898 0.042506 0.429723 -0.170878
567 -0.207810 -0.005700 0.081294 0.625625 -0.623076 -0.210300 0.033796 0.283414 0.471118 0.645653 -0.065866 0.600188 -0.714067 -0.190353 0.247330 0.303430 -0.049212 -0.033877 0.082754 0.293649 0.747066 0.063835 0.020732 -0.392196 -0.368799 0.401795 0.638870 0.457408 -0.220784 -0.659277 -0.133501 0.388482 -0.458271 -0.593513 -0.703767 0.409088 0.232911 -0.244238 -0.167500 0.219384 0.028822 -0.078674 -0.180715 0.047619 0.134331 0.467440 0.038207 0.948633 -0.222862 -0.614594 0.359287 -0.217013 -0.026781 -0.025185 0.899710 0.257391 -0.304736 -0.384691 -0.337208 0.599085 -0.564885 -0.267003 -0.289008 0.080452 0.029496 0.711147 -0.420673 0.102595 0.297284 -0.316550 0.096731 0.419367 -0.981658 1.123766 -0.267875 0.387270 0.266582 0.520356 0.765918 -0.266434 0.484381 0.657793 0.429006 0.508329 0.205993 -0.649939 0.519715 0.063055 -0.091190 -0.361452 0.376727 -0.232955 -0.272340 -0.737686 0.177744 1.065006 0.305090 -0.260280 -0.551229 0.833361 0.187352 0.491066 -0.873690 -0.022542 -0.242423 -0.546479 0.840571 -0.488888 -0.088275 0.595962 -0.563220 0.265259 -0.278129 0.523106 0.099039 -0.003401 0.349999 -0.187208 -0.738155 0.881843 0.140220 0.127826 0.316357 0.028639 0.677175 -0.023408 0.619990 0.475819
1125 -0.005084 0.264859 -0.034730 0.407481 0.065520 0.070784 -0.078698 0.278367 0.057787 0.347041 0.341809 -0.325728 0.110821 0.111320 -0.143459 -0.159138 -0.382146 0.229047 0.272590 -0.212122 -0.059434 -0.050403 0.452888 -0.071212 -0.082079 -0.339881 -0.236281 0.136658 -0.165858 0.126363 0.163010 0.408540 -0.062756 0.147956 -0.248698 0.301640 0.489934 0.055554 -0.202504 0.664497 0.276570 0.167431 0.803668 -0.274433 0.145116 -0.493371 -0.195030 -0.187801 -0.008464 -0.412795 0.239345 0.276025 0.195220 -0.366662 0.074463 0.090797 -0.043125 -0.167958 -0.119695 -0.218266 -0.116775 -1.048640 -0.568801 -0.174208 -0.108853 0.017372 -0.004835 0.235671 -0.238340 0.229729 -0.005230 0.012702 -0.712558 -0.319656 0.134233 0.164721 0.275462 -0.269170 -0.163122 0.391131 0.394364 -0.142694 0.833752 0.312635 0.453095 -0.061567 -0.153194 -0.232299 0.236219 -0.351169 0.175285 0.165730 0.165875 0.430862 0.540398 0.061797 0.038072 -0.127626 0.173851 -0.058079 -0.116739 0.397975 -0.327105 -0.128465 0.076929 -0.295653 0.426221 0.150941 0.015624 0.163214 -0.092807 -0.109561 -0.229278 -0.132631 -0.806220 0.101292 0.138761 -0.391304 0.255280 0.147241 0.310501 0.186565 0.001509 -0.204852 0.417318 0.039772 -0.296249 0.037354
2125 0.173009 -0.143864 0.192272 0.045822 0.289328 0.078932 0.182021 -0.498412 0.842223 0.552496 -0.213070 0.008612 -0.111847 -0.172352 -0.171803 0.265549 -0.151344 0.100282 0.095897 0.513054 -0.522143 0.505431 -0.161211 -0.507358 -0.831486 0.528002 0.244744 0.095122 -0.524796 0.191087 -0.280900 -0.146234 0.526322 0.010056 -0.404267 0.192650 -0.353796 -0.806058 0.090776 0.584221 0.163726 0.314780 -0.030781 0.180005 -0.667017 0.066813 0.314742 0.445535 -0.397039 0.039319 -0.176590 0.124050 0.744884 -0.181871 -0.049944 -0.406345 -0.046335 0.273281 0.122484 -0.012392 -0.122954 -0.088615 0.205217 -0.303250 0.188083 0.191349 -0.260501 -0.161129 -0.397001 -0.636400 0.126615 -0.045485 -0.205241 0.222941 0.105599 -0.184888 0.488099 -0.270838 -0.338744 -0.187296 -0.129940 0.184670 0.369815 -0.381247 -0.102460 -0.732999 -0.426806 0.204874 0.142422 0.053206 0.390067 0.227511 -0.019503 0.201376 0.089649 -0.578585 0.220099 -0.034410 -0.050238 0.174016 -0.234425 0.307764 0.273552 0.357306 0.444307 -0.071141 0.665942 0.095365 -0.214966 0.225491 -0.411768 0.008398 0.469069 0.110171 -0.149987 0.077723 0.387363 -0.275793 0.524868 0.168461 -0.303386 0.463148 0.129411 -0.140529 -0.356128 0.141912 0.534287 -0.232857
611 0.326175 0.705346 0.269268 0.623790 0.078396 -0.087986 0.172595 0.487418 -0.020374 0.446047 -0.621260 -0.014959 0.362169 -0.007674 0.658076 0.446996 0.490886 0.339565 -0.498701 -0.051724 0.051576 -0.596012 0.258202 -0.612253 -0.519559 0.087797 -0.640689 0.598809 -0.550959 0.539555 0.976148 0.306919 0.627955 -0.356765 -0.371654 -0.000595 0.633151 0.484806 0.327750 0.591487 -0.067570 -0.428546 -0.029742 0.625262 0.235509 0.715039 0.230522 -0.400816 -0.597300 0.061903 -0.489145 -0.056401 0.244866 0.758721 -0.921865 -0.258242 -0.789834 -0.794804 -0.246396 0.675243 0.170405 -0.571862 -0.031097 -0.296427 0.188312 -0.335336 -0.316027 -0.784987 -0.208254 -0.074002 -0.088830 -0.034399 0.114441 -0.520491 -0.802696 0.346116 0.503725 0.042032 -0.282505 -0.689856 0.055290 0.485782 -0.166986 -0.085522 -0.142267 -0.281372 -0.469059 0.222124 -0.401654 0.112079 0.870401 0.543717 0.296253 -0.225212 1.015931 -0.163458 0.372981 0.142935 0.162933 1.045300 -0.209072 -0.028995 0.271395 1.082671 -0.077447 -0.657763 -0.064814 -0.642002 0.041913 0.805047 -0.055995 0.191450 -0.397540 0.204415 -0.256810 0.014385 0.461323 -0.542749 -0.219299 -0.163826 -0.741061 0.483093 0.176304 -0.047722 0.509013 0.480680 0.258222 0.408531
485 0.075012 0.074831 0.259514 -0.102180 0.118191 -0.462698 0.101766 -0.340078 0.475890 -0.085727 0.114282 -0.509410 -0.149245 -0.256691 0.075739 -0.318885 -0.324555 0.352596 -0.057153 0.494089 0.227190 -0.718446 0.184519 -0.017840 -0.025481 0.017338 -0.129986 -0.199228 -0.304430 0.430396 0.204801 0.867256 0.148353 -0.443094 -0.436374 0.312544 -0.007256 0.069487 0.196017 0.138852 -0.508175 -0.161936 -0.367536 -0.214910 -0.359745 0.207596 0.187273 -0.086971 0.000538 0.109339 0.214664 -0.188036 0.057320 -0.428645 -0.138815 -0.003421 0.142251 0.124892 -0.090947 0.476930 0.169453 -0.172828 -0.311409 0.050820 -0.463099 -0.172550 -0.073360 -0.921192 0.111721 -0.424601 0.318133 0.117562 -0.406525 -0.023926 -0.161902 -0.100422 0.422238 -0.023927 -0.239843 0.438888 -0.136098 0.289054 -0.194594 -0.438199 0.425541 -0.131550 0.307352 -0.027315 -0.162112 0.255494 0.179905 0.119780 -0.530033 -0.202128 -0.117782 0.575464 -0.402358 -0.230300 0.367774 0.298230 -0.349852 0.377541 0.132601 -0.031706 0.467352 -0.446615 -0.024608 -0.678986 0.377767 0.079760 0.700834 0.248795 0.105985 0.080792 0.372061 -0.182867 -0.303124 -0.272428 0.405440 -0.267920 -0.047535 0.141541 -0.179223 0.159804 0.553113 -0.350209 -0.019736 0.012464
2176 -0.354261 0.094446 0.255350 -0.281176 0.167285 -0.034399 -0.380236 0.179328 0.366012 0.133497 -0.315650 -0.057504 0.052704 0.346081 0.382303 0.296327 -0.257804 0.106230 0.235956 0.216019 -0.191356 -0.241233 -0.007615 0.295483 -0.218853 0.008255 -0.077735 -0.279522 -0.383329 0.409983 0.265593 0.429395 0.424047 -0.412734 -0.244642 -0.037095 0.059427 -0.220347 -0.414090 0.022696 0.085033 0.332016 0.055408 0.151233 -0.165738 -0.273246 -0.080421 -0.021172 -0.059697 0.175363 -0.029688 0.361573 0.398324 -0.107933 -0.324576 0.218105 -0.086304 -0.118828 0.316029 -0.056581 -0.132266 0.005927 -0.167129 0.211970 0.361069 -0.564154 0.249352 -0.115666 -0.145556 -0.324301 0.279999 0.184483 -0.347559 -0.291483 0.381055 0.328952 -0.104145 0.105222 0.022545 -0.252764 0.003773 0.045497 0.239579 0.178798 0.298742 0.052846 0.228228 -0.041424 -0.383356 -0.107622 0.162173 -0.032248 -0.593462 0.300391 -0.359973 0.272743 0.448205 0.071821 0.486853 -0.250223 0.003383 0.670681 -0.161992 -0.103234 -0.180645 -0.283082 0.174205 -0.396422 -0.118977 0.234345 -0.638122 0.217199 -0.181233 0.364921 0.010887 0.113634 -0.563737 -0.588007 0.240399 0.193404 -0.495918 -0.129670 -0.280758 0.036097 -0.131887 -0.078185 -0.060638 0.246380
2228 -0.092095 -0.002534 0.048295 0.166409 -0.231855 0.122143 -0.635793 -0.319100 0.088838 -0.063552 -0.296336 0.174781 -0.229263 0.155569 -0.226499 -0.262354 0.075683 0.174271 -0.137960 0.183835 -0.302793 -0.174290 -0.390689 -0.358965 0.219411 -0.081660 -0.204936 -0.292616 0.258315 -0.001529 -0.167812 0.033349 -0.116019 -0.393958 0.294936 0.080826 0.070066 -0.530910 -0.003444 0.021707 -0.273430 -0.005391 0.059811 -0.165079 -0.118928 0.007099 -0.372616 -0.216426 -0.449067 0.088368 -0.398771 -0.043535 0.480459 0.145251 -0.325652 0.349966 -0.041030 0.302667 -0.324258 0.122242 -0.364653 -0.348082 0.015735 -0.272175 0.066490 0.112247 0.203625 -0.127043 0.031780 -0.321504 -0.068580 0.250751 -0.173888 -0.271908 0.014292 0.506392 -0.300467 -0.536953 -0.314503 -0.155832 0.532095 0.113331 0.557073 0.288718 -0.220621 0.119808 0.222372 0.253163 -0.259390 0.029576 -0.205978 0.047496 -0.068575 0.399176 -0.209210 -0.102208 0.074356 0.045365 0.754885 0.162840 -0.236204 0.215863 -0.241750 -0.156322 0.452352 -0.204245 0.215412 -0.538830 -0.150514 0.186611 -0.347992 0.241124 0.418249 0.090563 -0.166271 0.190756 -0.177831 -0.142489 0.060127 -0.057858 0.017893 -0.383703 0.122918 0.087969 0.478288 -0.198985 0.268248 0.322679
2286 0.135381 -0.197307 0.270347 0.456195 0.168557 0.079843 0.177243 0.422201 0.212024 0.272882 0.119880 0.046280 0.181539 0.366616 -0.190473 -0.232268 -0.035668 0.028480 0.045540 -0.343625 0.206073 -0.171264 -0.059358 0.412446 -0.198421 -0.812446 -0.082500 0.155918 -0.040931 -0.321597 0.011200 0.787134 -0.306649 0.157888 -0.013281 0.216874 0.252412 -0.033845 -0.039083 0.567332 0.445714 -0.025783 0.167187 -0.000973 -0.164766 -0.329448 0.297012 -0.251992 -0.018625 -0.259179 0.406233 0.525820 0.215305 -0.268476 0.329709 0.116520 0.055663 0.206541 -0.524234 -0.111193 0.320642 -0.304578 -0.638802 -0.138414 0.005186 -0.020725 -0.174177 -0.044792 -0.075588 -0.228129 -0.041631 -0.099644 -0.441346 0.127462 0.295909 0.291356 -0.096647 0.062308 -0.397656 0.336505 0.191532 -0.381687 0.375225 0.569536 0.181364 -0.167726 0.100408 -0.512408 0.047990 -0.277584 0.326894 0.122175 0.082941 -0.077039 0.276523 0.036520 0.031426 -0.161145 0.160007 0.292182 -0.001651 0.245218 -0.098024 0.385156 -0.266471 -0.083569 0.457782 0.200384 0.143680 -0.120743 -0.151463 -0.125277 0.077349 0.406704 -0.224557 0.039284 0.510530 -0.172717 0.449469 0.069711 -0.032743 -0.022403 0.122156 0.534303 0.184809 -0.297444 0.199741 0.176118
2146 -0.004572 0.334425 -0.094022 0.273464 0.462896 -0.446437 0.022362 -0.322753 0.373598 0.307098 -0.163054 -0.336112 0.048942 0.482386 -0.330615 0.039416 -0.039782 0.746760 -0.147268 0.018574 -0.051718 0.189493 -0.317667 0.112099 0.270244 -0.007441 -0.241439 -0.083112 0.349193 0.112047 0.619777 0.066955 0.057023 -0.576327 -0.187806 -0.157208 -0.122647 -0.106975 -0.211985 0.243045 0.088221 0.277773 -0.074551 -0.042005 -0.469514 -0.004425 -0.041227 -0.146875 0.283878 0.406053 -0.170807 0.277465 0.372048 -0.173559 -0.099583 0.570622 -0.481280 -0.207978 0.277304 -0.094037 -0.442313 -0.205793 -0.375146 -0.227110 -0.093354 -0.152898 0.071774 -0.359806 0.197380 -0.463342 0.029599 -0.287786 -0.482749 -0.178640 0.338042 0.645437 -0.186407 0.394692 0.495041 -0.312899 0.342678 0.455927 0.554920 -0.220891 -0.629515 -0.096837 0.007581 -0.093948 0.127896 -0.134034 -0.173746 -0.015392 -0.375631 0.534468 -0.095820 0.121853 0.184325 0.000801 0.050430 -0.411202 0.030729 0.027553 -0.472039 -0.163414 -0.200895 -0.463257 0.239765 -0.651114 0.129347 0.087522 -0.074989 0.364609 -0.038411 0.534376 0.086553 0.023775 0.150998 -0.629616 -0.099390 0.251389 -0.314201 -0.112058 0.358685 -0.304191 0.124324 -0.572166 0.012758 -0.494188
1011 -0.162749 -0.158956 -0.304929 0.324353 -0.012824 -0.163004 -0.035996 -0.509730 0.061805 0.267330 -0.395185 0.103141 0.066122 -0.159389 -0.047582 -0.096418 0.335470 0.324213 -0.292543 0.369852 -0.228162 -0.486658 0.157799 -0.222649 0.127566 -0.329111 -0.741540 -0.219752 -0.140263 0.442608 0.385836 -0.000299 0.114646 -0.365442 -0.110087 -0.247972 -0.222482 -0.289916 -0.023706 0.168873 0.032938 0.245881 -0.700022 0.186982 0.387372 -0.059164 -0.051169 -0.437676 -0.333520 -0.388654 -0.497628 -0.102004 0.494744 0.253372 0.196902 0.088289 -0.026247 0.070778 -0.156770 0.172786 -0.744475 -0.202683 -0.553184 -0.748782 0.484460 0.295669 -0.076255 -0.402797 0.342168 0.588072 0.135669 -0.106883 -0.372561 0.415809 0.626076 0.109705 -0.102279 0.371937 0.253776 -0.403734 0.272270 -0.148722 0.321963 -0.228227 -0.065826 -0.225533 0.056619 0.073122 -0.444186 -0.388482 0.062239 -0.260828 -0.355851 0.525550 0.071497 0.191947 -0.327004 -0.119264 0.769848 0.468486 -0.854273 -0.441986 -0.562726 -0.001139 0.151364 -0.071837 -0.218999 0.436051 -0.282845 -0.202656 -0.199786 0.453211 -0.169389 -0.055428 0.257616 -0.071067 0.288326 -0.197512 0.256786 -0.102905 0.296042 0.447403 0.087867 -0.218512 0.149421 -0.181577 0.308796 -0.146295
84 -0.368954 -0.031004 0.428916 0.010920 0.323925 -0.446588 -0.628704 -0.628687 0.480980 0.110010 0.090168 0.102916 -0.289813 -0.391518 0.143585 0.217474 -0.375183 0.025547 0.216563 -0.250541 -0.016950 -0.117686 0.202519 -0.088813 -0.319124 -0.476706 -0.138118 -0.370917 -0.263860 0.228549 0.095391 0.531404 0.642935 -0.225692 0.035054 -0.073370 -0.027035 -0.071535 -0.160931 -0.327418 -0.339066 -0.084899 0.309276 0.121417 -0.259853 0.380099 -0.167655 0.159305 -0.264119 -0.327739 -0.027315 -0.267649 -0.187595 0.251823 -0.052692 -0.009745 0.100309 0.102291 0.020090 -0.083457 -0.194281 0.038386 0.160413 -0.301378 -0.009710 0.269406 -0.282548 -0.049606 0.183276 -0.060218 0.125380 0.105280 0.005309 0.432574 0.121522 0.319546 0.053233 0.095119 -0.482473 -0.041441 -0.103263 -0.096916 -0.079306 -0.159142 0.171213 -0.196771 -0.216681 -0.626701 -0.101962 -0.076180 -0.214774 -0.308582 0.247412 0.276582 0.083101 0.241301 -0.048270 -0.033639 0.079840 0.363380 0.394668 0.149974 -0.326742 0.422690 -0.276543 -0.366717 -0.171499 0.443661 0.228791 0.257783 0.035475 0.336439 0.487291 0.448440 -0.241022 0.119900 0.408415 -0.221497 -0.009100 0.029568 -0.513608 0.390255 0.260106 0.002404 0.487999 -0.109406 0.008869 0.223296
2095 -0.244850 0.201744 0.024025 -0.220061 0.103682 -0.098438 -0.227130 0.028994 1.203099 0.029731 -0.095525 -0.187786 -0.817771 0.815422 0.063536 0.345684 -0.192936 -0.521745 -0.197476 -0.015356 -0.290931 0.122525 0.056637 -0.098375 0.094299 0.096316 0.210993 -0.121619 -0.010934 -0.180317 0.103648 0.449643 0.463690 0.107559 0.256391 -0.080410 -0.051922 -0.232570 0.115505 0.242855 0.008700 -0.013191 0.453671 0.220853 0.529693 0.156466 0.469177 0.099443 -0.021396 -0.022419 0.131045 0.451645 -0.027266 -0.352478 0.632123 -0.164214 -0.119314 0.346833 -0.216012 0.332016 -0.116341 -0.028410 -0.264988 -0.141405 -0.331333 0.049397 -0.201780 0.165749 0.497423 -0.253249 0.258747 0.091386 -0.098895 0.045215 0.069698 0.384787 0.491844 -0.022941 -0.386042 -0.559637 -0.455424 -0.179410 -0.036160 -0.283373 -0.006219 0.345639 0.143642 0.724392 -0.184503 0.187764 0.262810 0.270450 0.315684 0.318768 0.501419 0.511203 0.266473 -0.027699 -0.059728 0.380034 -0.121454 0.358218 -0.200546 0.041388 -0.192052 -0.254397 -0.285349 0.057909 0.292624 0.425575 0.074271 0.042885 0.154772 -0.324489 -0.174567 0.486814 -0.000518 -0.078541 -0.326130 -0.281276 -0.215373 0.795407 0.366140 -0.328633 -0.046853 0.213214 -0.010943 0.239372
1799 -0.016793 0.817735 -0.476827 -0.319833 0.099807 -0.148124 -0.381891 0.421521 0.979292 0.843823 0.232886 0.384808 -0.311854 -0.145074 -0.076621 -0.087971 0.519965 0.243938 -0.012513 0.344105 -0.104053 0.109309 0.698468 -0.066381 0.057592 0.006764 -0.373369 -0.195129 0.454068 0.510362 0.604931 0.476183 -0.258976 -0.107627 0.276747 0.225123 -0.134183 -0.225019 -0.157702 -0.415548 0.358405 0.047567 0.079259 0.343282 0.003848 -0.179113 0.282436 -0.085598 -0.433472 -0.452554 0.440780 -0.506455 0.224646 -0.107179 0.018376 0.143421 0.008917 -0.681690 -0.637982 0.110075 0.318566 -0.786313 0.718724 0.337631 -0.461185 0.610746 -0.795184 0.285233 -0.141692 0.285040 0.342784 -0.364680 -0.545815 0.650671 0.114289 0.445264 0.209481 0.095870 0.186896 -0.137423 0.359841 0.547290 0.313411 0.426012 -0.151400 0.268852 0.460984 0.231334 -0.170880 0.470233 0.850671 0.655110 -0.030118 -0.421059 -0.455117 0.200413 -0.110222 0.196646 -0.490755 0.423223 0.382439 0.328084 -0.044904 -0.136756 -0.604299 -0.165492 1.003768 -0.037981 -0.037473 0.019192 -0.402286 0.100826 0.353336 -0.347390 0.363790 0.068696 0.137112 0.084233 0.217953 0.076956 -0.082889 0.686254 0.274995 -0.128144 0.659569 -0.057968 0.003896 0.421708
1524 0.378396 0.061764 0.187156 -0.081739 1.188479 -0.396510 0.369742 -0.019075 0.276884 0.301688 -0.232582 -0.530210 -0.489725 0.006731 -0.360593 -0.729081 -0.098382 0.764810 -0.163197 0.821545 -0.206517 0.305235 -0.438609 -0.202518 -0.047605 -0.104348 -0.012257 -0.461521 -0.141498 -0.646166 0.524945 -0.119658 0.058342 0.009610 0.552243 -0.063760 0.177509 -0.094146 0.364060 0.265881 -0.331903 0.092931 0.358008 -0.083555 0.376635 -0.802751 0.010158 -0.024609 0.342744 0.085358 0.204380 -0.237525 0.066086 -0.029459 -0.105820 0.233444 -0.958234 -0.179715 -0.150488 0.177685 -0.530746 -0.014284 -0.131098 0.050752 0.349373 -0.216755 0.489043 -0.052142 0.462990 -0.373520 0.153384 -0.248723 -0.392184 0.539200 0.501870 0.210627 -0.129113 -0.070326 0.276451 -0.166961 0.539185 0.564437 -0.009500 -0.169008 -0.776100 0.065181 -0.180601 -0.123116 -0.086055 -0.351193 0.403064 0.080574 0.056644 0.099634 0.486847 0.189286 0.292422 -0.275343 0.085912 0.123845 -0.145121 0.412419 -0.545741 -0.228119 -0.016142 -0.322426 -0.035719 -0.185887 -0.142195 0.373118 -0.342984 0.664214 0.020935 -0.142491 0.218046 -0.139212 0.584606 -0.416108 0.004979 0.155652 -0.264919 -0.401533 0.236714 -0.073540 0.209370 -0.087905 -0.140822 0.163684
1506 0.214584 0.078812 -0.204830 0.490942 0.496262 -0.458271 0.392841 -0.218822 0.404548 0.180087 -0.039721 -0.443613 -0.048853 -0.048788 0.176789 -0.404816 0.305177 0.199792 -0.139595 -0.092939 0.073570 0.057049 -0.179468 -0.014187 0.381645 0.304030 -0.049912 -0.485844 -0.266829 -0.101459 -0.043219 -0.268317 0.197781 0.090400 -0.380338 0.001515 -0.000427 -0.316060 0.043786 -0.086123 -0.289417 0.308331 -0.095929 0.095693 -0.193123 0.073739 0.262207 -0.333525 -0.445377 -0.243044 -0.031173 0.528884 -0.071449 0.108884 0.067689 0.389724 -0.199235 0.281514 -0.405132 0.215159 -0.269641 -0.120693 -0.316950 0.537771 0.259260 -0.333739 0.023761 -0.023082 -0.096807 0.056145 0.293184 -0.450838 -0.499572 0.422152 0.029011 0.051158 -0.131481 -0.006872 -0.101761 0.291988 0.148491 0.040054 0.029534 0.528533 0.071786 0.113087 0.289209 0.075665 -0.263984 -0.276536 -0.020783 -0.275111 -0.181143 0.337698 0.059220 0.120624 0.636578 -0.086645 0.376526 0.161354 -0.886708 -0.138772 0.072554 0.194203 -0.417383 -0.081616 0.000816 -0.155297 0.080335 0.330196 0.026690 0.242879 -0.071081 0.156634 -0.117751 0.075539 -0.038151 -0.702839 0.280773 0.328628 -0.316275 -0.424004 -0.162589 -0.434342 0.463153 0.029288 0.307446 -0.466507
2280 0.645746 0.873021 0.191843 0.644266 0.331602 0.040080 0.338663 0.647637 -0.332158 0.553895 -0.820888 -0.176793 0.164808 0.257582 0.877406 0.175144 0.502617 0.810987 -0.527111 -0.426784 0.144290 -0.567360 0.013511 -0.612055 -0.085536 0.188891 -0.712192 0.610928 -0.569528 0.765544 0.849567 0.312597 0.743077 -0.376504 -0.560434 -0.083609 0.166246 0.541643 0.361698 0.508431 -0.046703 -0.436594 -0.250143 0.957989 0.099195 0.542192 0.038938 -0.266127 -0.538063 -0.125830 -0.302424 0.106290 0.313667 1.092610 -0.872875 -0.028836 -0.578461 -0.726101 -0.262380 0.547469 0.382420 -0.513365 -0.126137 -0.349080 0.013012 -0.420733 -0.387105 -0.650910 -0.107816 -0.089767 -0.334148 -0.100408 0.413789 -0.548561 -0.585903 0.306082 0.456981 0.082737 -0.406370 -0.570675 -0.019994 0.434764 -0.212326 0.080766 -0.013646 -0.571290 -0.677350 0.234894 -0.401555 0.051952 0.746864 0.322121 0.208563 -0.080176 1.144157 0.070903 0.254792 -0.293403 -0.006292 0.884922 -0.129079 0.381273 0.330029 1.039638 -0.237586 -1.058101 -0.061590 -0.637097 -0.024785 0.703517 -0.199051 0.218709 -0.131144 -0.001422 -0.396340 -0.209316 0.684460 -0.884075 -0.654777 -0.208887 -0.531737 0.281363 0.090679 -0.162662 0.305313 0.353374 0.459862 0.282141
1741 -0.118121 0.949690 0.361566 0.504146 0.126014 -0.308825 -0.228029 0.537445 -0.033655 0.441572 -0.387863 0.461070 0.644212 -0.218819 0.581203 0.179475 0.723823 0.577667 -0.708175 -0.053785 0.019841 -0.481973 0.192388 -0.900929 -0.305098 0.215919 -0.560161 1.108359 -0.284616 0.337688 1.239584 0.096791 1.036846 -0.463110 -0.383962 -0.208122 0.480702 0.126882 -0.065548 0.257693 0.238798 -0.143287 0.242948 0.448210 -0.190010 0.396345 0.211854 -0.388258 -0.395965 0.152700 -0.549627 0.045075 -0.038618 0.640932 -0.471961 0.056057 -0.452041 -0.532108 -0.180057 0.440081 0.555296 -0.489113 0.052376 -0.143112 0.179355 -0.366017 -0.186628 -0.267880 0.033413 0.020578 0.210748 0.245815 0.094280 -0.108647 -0.512875 0.257850 0.783109 0.364924 -0.363825 -0.222400 0.281622 -0.188546 -0.356436 0.526412 0.168210 -0.496955 -0.219337 0.089401 -0.083160 0.267681 0.825490 0.568271 0.126196 0.129444 0.591842 0.084001 0.238128 0.064966 0.551505 0.447382 -0.224181 0.142925 0.331475 0.764355 0.078775 -0.271723 0.335802 -1.143069 -0.122642 0.774961 -0.026946 -0.140772 -0.712769 -0.330301 -0.500951 0.153914 0.410354 -0.768392 0.053378 -0.126189 -0.848375 0.248787 0.670921 0.087737 0.277462 0.728206 0.293457 0.790924
1317 -0.068963 0.003180 0.442404 0.597883 0.124605 -0.224006 0.091353 0.229024 0.214269 0.013956 0.033467 -0.343691 -0.070409 0.204506 -0.541335 -0.260325 0.008272 -0.169366 0.467548 -0.088630 -0.113027 -0.074278 0.075402 -0.269946 0.101574 -0.633724 -0.408658 0.318075 -0.001371 0.160320 0.499624 0.215676 -0.234864 0.333949 0.085115 0.001420 0.141864 -0.267527 -0.232910 -0.135756 0.010644 -0.003354 0.192637 0.109760 -0.001747 0.484372 0.280560 -0.100456 -0.189470 -0.128318 0.379432 0.468609 -0.207288 0.019944 -0.004566 0.184086 -0.136042 -0.041889 0.046846 -0.243108 0.277426 -0.165086 -0.548169 -0.848350 0.507490 0.038125 -0.285631 -0.355184 -0.316745 -0.012749 -0.153628 0.266448 -0.046933 0.046860 0.238456 0.441597 0.006093 0.145865 -0.162738 0.373059 0.204291 0.397610 0.218037 0.214427 0.115576 -0.019065 -0.050236 -0.200938 -0.120056 0.005932 0.125202 -0.124509 0.469854 -0.080179 -0.140606 -0.486011 -0.357634 -0.085311 -0.122298 0.320800 -0.177402 0.531561 -0.279601 0.076955 -0.101787 -0.130001 0.149108 0.030294 0.132894 -0.338490 0.232421 -0.175348 -0.261778 -0.090050 -0.434098 0.205192 -0.037400 -0.193482 0.015625 -0.049731 -0.058097 -0.069303 -0.393245 -0.624098 0.643800 -0.074292 0.082466 0.045514
1542 0.051010 0.147431 0.185492 0.573597 0.255789 0.264992 0.344990 0.168194 0.032036 -0.220676 0.333457 -0.351236 -0.226644 0.197587 -0.483661 0.261856 0.054319 -0.134027 0.231577 -0.419104 0.118071 0.013367 -0.000375 -0.231673 -0.053194 -0.341974 -0.081890 0.186210 0.164103 -0.159059 0.070662 0.423144 -0.169557 -0.086294 -0.262227 0.167923 0.161358 -0.422354 -0.108224 0.193463 -0.127151 -0.085853 -0.040548 0.247791 0.274234 0.252578 0.172716 -0.375926 -0.038933 -0.244921 0.398271 -0.040292 0.113666 0.093699 -0.004234 0.998920 -0.196069 -0.178067 -0.277776 -0.660701 0.263250 -0.344491 -0.154522 -0.621628 0.002847 0.157556 -0.281419 -0.001236 0.003748 -0.193910 -0.387578 0.324012 -0.279753 0.100210 0.244975 0.593352 0.285577 0.071108 0.163559 0.509439 0.236984 0.341888 -0.193819 -0.125418 0.241100 0.256101 0.356313 0.010901 0.016098 -0.127087 0.568292 -0.174523 -0.322674 -0.265273 0.409063 0.031874 0.162157 -0.340262 0.450814 0.163362 -0.104715 0.282198 0.027664 0.354802 0.082586 0.456339 0.081180 0.153793 0.077601 -0.414876 0.120530 0.073686 -0.093923 0.098128 -0.483569 0.257011 0.412230 0.230862 0.062848 0.260001 -0.101138 -0.002094 0.126181 -0.124351 -0.007554 -0.012938 -0.078293 0.324267
600 0.156757 0.328947 -0.298693 0.035253 0.049582 -0.064774 0.323310 0.352924 0.006115 0.135005 -0.439193 -0.436983 -0.096229 0.437400 -0.075315 -0.133770 0.568960 0.240697 0.179974 -0.353400 0.300327 -0.149952 0.117562 -0.165260 -0.004006 -0.770061 0.070555 -0.126295 0.164060 0.101975 0.158439 0.738370 -0.278310 0.264599 -0.304547 0.184290 -0.193525 0.270278 0.297046 -0.021210 0.502413 -0.157752 0.449080 -0.054390 0.293382 -0.114924 0.221205 0.162257 -0.418882 -0.043429 0.341681 -0.144676 -0.128584 0.051824 -0.066830 0.173018 0.136587 0.562167 0.220634 -0.081834 -0.095338 -0.618987 -0.420377 -0.396997 0.673824 0.123339 -0.272398 0.551763 -0.171752 -0.210076 0.190746 0.111111 0.144897 0.475296 -0.439639 0.267477 -0.628831 0.332885 0.127748 0.363859 -0.107154 0.006383 0.312568 0.064519 0.337675 -0.209433 0.185686 -0.589011 0.358677 -0.212130 0.733880 -0.048534 0.030418 0.485006 0.869759 -0.327025 0.115694 0.316234 0.331502 0.258890 -0.387311 0.211652 0.698917 -0.251309 -0.082808 -0.325808 -0.140019 -0.002030 -0.133326 -0.086693 0.191938 0.226614 0.627520 0.420286 -0.623689 0.467252 -0.172782 -0.871675 0.146893 -0.190861 -0.353905 0.259029 0.202531 0.459109 0.556667 -0.597407 -0.060093 0.175025
1015 -0.730945 -0.500327 -0.945905 0.474346 0.538234 -0.465049 0.154725 0.216026 -0.844628 -0.142721 -0.889733 0.445036 -0.135498 -0.540697 0.354420 -0.045960 0.072179 0.596760 -0.626003 0.272869 0.486422 -0.284902 -0.239772 0.159119 0.356006 0.266523 -0.285156 -0.147349 0.321383 0.106706 0.247162 -0.062445 -0.070750 -0.607460 -0.057517 0.736473 -0.260012 -0.460738 0.119515 0.271880 0.127763 0.120940 0.981546 0.285961 -0.556064 0.528737 0.611055 0.652830 -1.052995 0.717464 0.510989 -0.227312 -0.183482 -0.252919 0.156316 -0.015280 -0.237218 -0.731416 -0.608141 -0.613740 -0.313877 -0.051235 0.514772 -0.940789 0.366756 0.470470 0.219740 0.112914 0.132113 -1.033159 0.158042 0.591900 -0.966529 0.277958 0.064994 0.628047 0.033166 -0.800234 -0.195593 0.022982 -0.611927 0.362447 0.982790 0.030734 0.339359 -0.023835 0.504854 -0.084120 -0.264931 0.193799 0.316998 -1.018298 -0.835697 -0.059086 0.413128 -0.266630 0.164805 0.536429 0.024235 1.003777 0.043480 0.913813 -0.424840 -0.942784 0.284525 -0.440490 0.595673 0.135054 1.303457 0.664349 0.549992 -0.085840 -1.077072 0.144412 0.093831 -0.010657 -0.079942 -0.894875 -0.229066 -0.643848 -0.621996 0.481629 0.596683 -0.159105 0.034269 -0.505815 -0.357619 -0.449440
1325 0.114640 0.175234 0.069483 0.294185 0.374820 -0.270056 0.236924 -0.146016 0.582887 0.154360 0.035200 -0.531511 0.047676 -0.186277 -0.203081 -0.635548 -0.208553 0.096416 -0.372508 0.508764 0.411985 -0.851276 0.133874 0.047301 0.176816 -0.083305 0.113591 -0.334778 -0.191959 0.135798 -0.134811 0.477261 0.344833 0.004978 -0.039346 0.592652 0.175777 -0.255863 0.413295 0.022355 -0.596204 -0.292212 -0.290972 -0.007893 -0.551930 0.257386 -0.046889 -0.075493 0.105440 0.166192 0.035951 -0.368631 -0.116446 -0.304914 0.062836 0.427468 0.053039 0.460336 -0.392020 0.204100 -0.101259 -0.516001 -0.310047 0.160694 -0.653951 -0.223669 -0.102123 -0.618241 -0.013932 -0.247088 0.352250 -0.060148 -0.554054 0.082774 -0.251217 0.114173 0.595934 0.251888 -0.338116 0.314800 -0.366327 0.185601 -0.128555 -0.508586 0.100170 0.015566 -0.172774 0.222561 -0.171259 0.354211 0.149650 -0.041080 -0.393132 0.163688 -0.123840 0.295574 -0.412344 -0.134034 0.501698 0.004151 -0.338975 0.300930 -0.167852 -0.084957 0.502768 -0.490555 0.095670 -0.587751 0.198665 0.006170 0.416409 0.419947 -0.134622 0.310389 0.333252 -0.089647 -0.326668 -0.639358 0.397895 0.159429 -0.325344 0.244089 -0.467054 0.040949 0.355012 0.089427 -0.316520 0.203713
911 0.357336 0.440895 0.047662 0.361242 -0.107908 -0.329472 -0.155083 0.266181 -0.120929 -0.064929 0.152219 -0.527196 0.118774 0.595767 -0.154134 -0.115070 -0.068823 0.002044 0.306076 -0.112387 -0.186305 0.138148 0.151629 -0.516888 0.005727 -0.444423 -0.137065 -0.073378 0.374773 0.155360 0.070852 0.275637 -0.162000 0.243790 0.212072 -0.096289 0.078482 -0.139563 -0.489457 -0.436884 0.017195 0.254466 0.104855 -0.334280 -0.111975 0.292536 0.233004 -0.146239 -0.357468 0.076581 0.251636 0.226410 -0.116466 0.093056 -0.252859 0.358190 -0.139101 0.204886 -0.264792 -0.344791 -0.190036 -0.383842 -0.516451 -0.837071 0.728843 0.243005 -0.388164 -0.423878 0.317740 -0.054559 -0.011822 0.199716 0.167206 0.468066 -0.056060 0.079568 -0.181604 0.272046 -0.071401 0.115408 0.265184 0.442763 0.278797 0.253824 0.225825 0.110159 0.058744 -0.155914 0.221210 0.112481 0.137460 0.209800 0.018382 0.143876 0.603978 0.004154 -0.067211 -0.113445 -0.154679 0.197422 0.109537 0.684277 0.057780 0.027001 0.292641 -0.050756 0.275935 0.572340 0.008650 -0.098453 0.385696 0.247855 -0.050621 0.030317 -0.631703 0.376374 0.148018 -0.183221 0.034581 -0.216910 -0.140827 0.098605 -0.408262 0.098641 0.751192 -0.323975 0.056451 -0.009853
2419 0.208249 0.197439 0.239318 -0.281081 0.505461 -0.614882 0.272072 0.164992 0.191732 0.156717 0.001217 -0.357672 0.523650 0.143180 0.080070 -0.262332 -0.255584 -0.240186 0.318173 0.775874 -0.463850 -0.218298 -0.523901 0.262388 -0.298447 -0.033360 0.066308 -0.164951 -0.136447 0.176513 -0.252912 0.704581 0.252782 -0.455824 -0.435421 -0.192718 -0.209586 0.172310 0.144798 0.494407 -0.118752 0.223048 0.090117 0.354462 0.325705 0.215191 -0.061166 -0.352518 -0.262698 -0.024953 0.117210 0.011586 -0.009172 -0.173050 -0.070274 -0.250014 -0.304014 0.141177 0.269593 -0.316279 -0.124434 -0.317478 0.336670 0.254225 0.150114 0.490575 -0.093920 -0.447649 -0.387312 -0.792305 0.639338 0.535031 -0.315243 0.423367 0.066316 0.434950 -0.315626 -0.520693 0.282507 -0.269271 -0.123908 0.305860 0.266553 0.531583 -0.213519 0.194994 -0.023715 -0.018823 -0.445718 -0.231664 -0.062667 0.403682 0.016111 -0.323530 0.441013 0.333321 0.521053 0.036147 0.612362 -0.102463 -0.367891 0.420434 0.138240 -0.466322 -0.356257 0.134145 0.349459 0.026759 0.116408 -0.021620 -0.055690 -0.005799 -0.146534 0.338636 -0.006327 -0.182331 0.049494 -0.129944 0.084860 0.157768 -0.525992 -0.548620 -0.347122 -0.785096 0.137576 0.233315 0.306899 -0.423375
2278 -0.058209 0.798140 -0.435515 -0.271690 -0.115201 0.003408 -0.525442 0.238944 0.734259 1.014158 0.182015 0.428836 -0.197764 -0.031508 -0.244029 -0.277753 0.220338 0.502397 -0.148891 0.197213 -0.023477 0.022485 0.706282 -0.080654 -0.095847 0.295959 -0.280498 -0.203089 0.480178 0.498874 0.828637 0.353638 -0.133961 0.034822 0.191499 0.273457 -0.016319 -0.444034 -0.036402 -0.603676 0.171347 -0.105545 0.373440 0.640831 0.105089 -0.087274 0.276827 0.136135 -0.589935 -0.451895 0.500187 -0.653954 0.319607 -0.110361 0.298786 0.192995 0.035688 -0.530262 -0.637619 0.066336 0.445604 -0.668600 0.570657 0.118745 -0.197728 0.610329 -0.918062 0.194766 -0.019207 0.200834 0.180310 -0.130477 -0.560623 0.580842 -0.073627 0.424839 -0.173744 0.148967 0.241061 -0.186431 0.333934 0.410832 0.377629 0.515762 -0.279027 0.271696 0.540630 0.214256 -0.077111 0.135820 0.890685 0.601627 0.034482 -0.471228 -0.416415 0.293177 -0.124289 -0.099718 -0.594802 0.285455 0.534936 0.293554 -0.048177 0.080850 -0.544108 -0.412467 0.793780 -0.051785 -0.269685 -0.039257 -0.033768 0.261494 0.375616 -0.618402 0.423878 0.226688 0.207936 -0.070308 0.233799 0.191582 -0.020670 0.609702 0.120240 -0.215352 0.421300 -0.150189 -0.029241 0.160230
1871 0.515581 0.689609 -0.194882 0.043396 0.244477 0.400293 -0.042776 -0.097473 0.181806 -0.269258 -0.235194 0.194178 0.573117 0.227000 0.179427 0.135928 0.320638 0.250223 -0.284656 0.413997 0.309200 0.294274 0.474829 -0.127126 -0.435792 0.290773 0.273617 0.086631 -0.362262 -0.192535 0.207967 0.194867 1.330293 -0.573217 0.216039 -0.770015 -0.244837 0.068350 -0.462418 0.555762 0.546402 0.043298 0.210675 0.325806 -0.134642 0.208464 0.147438 -0.005887 -0.228708 0.077903 0.015818 -0.042110 0.749059 -0.099507 0.215070 0.209455 0.166789 -0.435897 -0.892782 0.119260 -0.098306 -0.488488 0.087452 -0.016682 0.318771 0.520120 0.216495 -0.173517 -0.215994 -0.122434 0.328987 -0.216676 0.025435 0.286764 -0.395100 0.528859 -0.015959 0.915066 -0.335746 0.060487 -0.023312 0.159789 -0.197034 0.200817 -0.046020 0.018351 -0.918338 -0.146656 -0.305313 0.609269 -0.134000 0.570840 -0.301378 -0.276561 0.293488 -0.097674 0.445376 -0.217478 0.303182 0.496185 -0.358047 0.731563 0.252686 0.135691 -0.187524 -0.182249 -0.190583 -0.385190 0.169300 0.904069 0.260045 -0.071271 -0.190161 -0.081983 -0.290774 -0.120235 0.345002 -0.002105 -0.154013 0.513445 0.118472 0.508614 -0.002496 -0.186702 -0.113324 0.087389 -0.115612 0.011757
602 0.228921 0.197418 0.389710 -0.115865 0.365054 -0.259241 0.149116 0.024549 0.207070 0.155149 0.401619 -0.334677 -0.077979 0.305953 0.047647 -0.068389 0.572204 -0.038010 0.381371 -0.422910 -0.092605 -0.193647 -0.073544 0.311172 0.051793 -0.571166 -0.219128 0.371110 -0.007554 -0.057958 0.489916 0.283084 0.097046 0.367479 -0.512353 -0.030483 0.123541 0.237452 0.520783 0.196792 0.119592 -0.410204 0.116882 -0.185180 -0.100864 0.183076 0.113805 -0.215993 0.107073 -0.085206 0.471890 0.058848 -0.279440 -0.122428 -0.040072 0.069838 -0.309270 0.637523 -0.537736 -0.473148 -0.046031 -0.290532 -0.383795 -0.578368 0.606681 0.046861 0.318260 0.291725 -0.782407 -0.020334 -0.348583 0.121601 -0.427360 0.395878 0.363368 0.261178 0.408739 0.185466 0.041677 0.197237 0.256294 0.598974 0.380048 0.438666 0.472522 -0.297501 -0.218676 -0.179672 -0.178084 -0.105078 0.739403 -0.001985 -0.069659 0.039555 -0.000580 -0.302700 0.201605 0.043378 0.066095 0.086616 -0.252918 0.492672 0.000622 -0.003137 -0.096200 -0.163343 0.415762 0.245192 -0.024574 -0.022993 0.030922 -0.106997 -0.070959 0.060885 -0.169038 -0.031965 -0.096472 -0.346074 0.074923 -0.310553 0.319217 0.346892 0.083381 -0.053815 0.299382 -0.368453 0.180101 0.351201
2416 0.203967 0.309432 -0.804585 0.488964 0.548845 -0.674003 0.524470 -0.938121 0.031349 0.517811 0.065068 -0.945594 -0.132743 -0.618254 0.345446 0.088235 0.503458 0.876080 -0.075782 0.277920 -0.769429 0.307568 0.769285 -0.260438 -0.397012 0.128005 0.763483 -0.013447 -0.175429 -0.071172 0.012140 0.277345 0.573841 0.230802 -0.628611 -0.261960 -0.047067 -0.203470 -0.038170 0.883605 1.244358 0.067256 -0.146519 0.068275 0.256188 -0.283889 0.151858 -0.298223 -0.351551 0.029780 0.070179 -0.295063 0.699136 0.803830 0.468214 -0.307933 -0.589292 0.162326 0.540339 -0.030533 0.320237 -0.354323 -0.575943 -1.041263 -0.587380 0.028985 -0.381507 -0.734043 -0.288079 -0.384812 -0.279936 1.053593 -0.371733 0.299608 0.366022 -0.123315 -0.054043 0.434896 0.282705 0.458479 0.264641 0.882527 0.440834 0.124023 -0.149966 -0.896370 0.637311 0.251255 -1.049511 0.393702 0.282352 -0.422501 -0.025013 -0.206795 -0.619556 1.075320 0.554217 -0.968329 -0.381093 0.143320 0.637416 0.465214 0.111831 -0.073215 0.246418 -0.787286 -0.279493 0.271865 0.035845 0.403025 -0.300174 -0.226147 -0.194005 0.620123 -0.058933 0.696516 0.069259 -0.041267 -0.680582 0.014332 -1.128875 0.996735 -0.427669 0.470627 1.171394 1.217984 -0.245325 -0.658934
2015 -0.336699 -0.160086 -0.018096 -0.142526 0.035930 0.356591 0.256387 -0.019582 -0.050523 0.034440 0.273004 -0.264236 0.603408 0.425589 -0.265385 -0.071575 -0.093081 0.564412 -0.233221 0.248768 0.032314 0.184432 -0.118283 0.281919 -0.363312 0.398466 0.109571 -0.149262 -0.088553 -0.084806 0.081577 0.783425 0.288234 -0.362999 0.242747 -0.176144 0.427252 -0.299114 -0.469814 0.051901 0.508620 -0.376815 0.212518 0.766606 0.213308 0.228550 0.049726 0.645218 -0.490562 -0.048916 0.094522 0.369810 0.168981 0.068436 0.564308 0.269177 0.187247 -0.008112 -0.144227 -0.156057 0.130184 -0.412301 -0.190211 0.119164 -0.119347 0.289275 -0.268692 0.035930 0.720299 -0.106819 -0.398032 -0.004145 -0.441944 0.244754 -0.713807 0.044928 -0.206299 -0.481974 -0.021054 -0.188755 0.160262 0.311007 0.163923 0.261814 -0.141961 0.042894 -0.275299 -0.202305 -0.531814 -0.194948 0.715362 0.016772 -0.401816 -0.096838 -0.087723 -0.257597 0.279626 -0.181105 0.205217 -0.095001 0.011375 0.438018 0.164938 0.343534 -0.048879 -0.040558 0.042908 -0.041526 0.294834 -0.251154 -0.348997 -0.130832 -0.221571 -0.344176 0.251131 -0.535711 -0.085724 -0.565287 0.366158 -0.246179 -0.170574 0.009980 -0.238035 0.051637 0.271968 -0.351384 0.871650 0.511708
680 0.060656 -0.057642 0.106020 0.472769 0.174113 0.301055 0.319355 -0.125935 0.688409 0.690000 -0.066494 -0.462659 0.215002 -0.556130 -0.126210 0.127450 -0.183980 0.096283 0.052302 0.289606 -0.421962 0.513338 0.527938 -0.921948 -0.814782 0.868689 0.580461 0.148054 -0.246700 0.013337 0.087400 -0.406087 0.785613 -0.219113 -0.394291 0.375175 -0.182599 -0.899005 0.005747 0.444012 0.028751 0.359822 0.223306 0.060489 -0.307254 -0.074681 0.754728 0.186100 -0.334263 0.498727 -0.252905 0.302350 0.496338 -0.000191 -0.061645 -0.325293 -0.503000 0.343370 0.179747 0.092830 -0.335540 0.023623 0.481288 -0.203589 0.292926 -0.156335 -0.113218 -0.341444 -0.485180 -0.747087 0.555420 -0.027581 -0.026908 0.712604 0.075233 0.396248 0.417659 -0.270509 -0.412459 -0.735180 -0.287133 0.071726 -0.012991 -0.420706 0.173130 -0.626515 -0.243710 0.275820 0.001632 -0.258753 0.804553 0.422328 0.269900 -0.218967 0.068115 -0.302476 0.440524 0.009068 0.016586 0.117162 0.020378 0.397388 0.063598 -0.022322 0.422842 -0.044067 0.717399 0.057475 0.107853 0.266590 -0.375242 -0.070910 0.154448 0.179173 -0.090689 0.074364 0.211464 -0.232137 0.679315 0.232471 -0.462833 0.291428 -0.087163 0.131387 -0.173847 -0.027294 0.271812 -0.424144
610 0.016387 0.407445 0.715027 0.662965 0.418250 0.601566 -1.037508 -0.299879 1.211383 0.141324 0.028588 0.239782 -0.049288 -0.381271 0.064983 0.156261 0.654050 -0.586134 -0.673638 0.101127 -0.630967 -1.152688 0.312598 -0.112560 0.557365 0.568309 0.557986 0.210903 -0.321114 -0.141320 0.495943 0.774632 -0.473184 -0.349830 -0.030592 -0.340385 -0.011293 -0.137452 -0.375410 0.320941 0.687574 0.048149 0.589112 0.118916 0.465412 -0.404204 0.116483 0.559649 0.075098 -0.873372 0.401124 0.328942 0.071645 0.192686 0.117980 0.344782 0.208353 0.559552 -0.397625 -0.618021 -0.477071 0.136373 0.071007 -0.749263 -0.385697 -0.026943 -0.204872 -0.807321 -0.203287 -0.784438 0.929467 0.652255 -0.153172 0.211233 -0.741929 0.777104 -0.242874 0.211530 0.778833 -0.324785 0.869942 -0.317034 0.076694 -0.024474 0.085523 0.030440 0.138444 0.142783 0.647793 0.678311 0.448480 -0.237736 0.205932 0.861252 0.153387 0.245641 0.147521 0.172210 -0.517223 0.824275 -0.406257 0.452589 0.905474 -0.274188 -0.347632 -0.386049 0.537519 0.366009 0.244374 0.184170 0.416799 0.237063 0.130480 -0.241728 0.166494 -0.908949 0.339697 -0.113078 -0.754832 0.660453 -0.354914 0.638295 -0.165439 0.188971 0.162967 0.167596 -0.037989 -0.114524
738 0.367595 0.290825 0.237892 0.186646 0.332798 0.074904 -0.283145 -0.098848 0.247703 0.081550 -0.183371 -0.288724 0.035808 -0.013542 0.599131 0.409769 -0.293254 -0.006569 0.085721 0.342244 0.455043 0.009407 -0.085554 -0.008118 0.294570 -0.755294 0.318123 -0.291975 0.098499 0.597130 -0.057225 0.520399 0.375729 -0.242730 0.103952 0.109639 -0.072574 -0.055211 -0.198329 -0.746486 -0.021657 -0.133668 0.381272 -0.253669 -0.178782 0.460552 -0.187352 -0.102101 -0.615697 -0.023576 -0.240802 0.467840 0.112677 0.197821 -0.002029 -0.437770 -0.010192 0.325900 -0.115483 -0.128967 -0.155516 0.049712 -0.312727 0.007340 0.099636 0.089269 -0.326019 0.436411 0.356787 -0.137076 -0.024606 0.226029 0.049210 0.472746 0.084202 0.413519 0.002055 0.347962 -0.071517 0.166995 0.141272 -0.180483 -0.283814 -0.284322 0.123966 -0.515917 0.287112 -0.341747 -0.162096 -0.148944 -0.040403 -0.403613 0.092531 0.559047 0.562653 -0.370334 -0.093488 -0.099955 0.133249 0.371014 0.485110 0.259169 -0.442492 0.254268 -0.104368 -0.169396 0.140334 0.599160 -0.130233 0.593834 -0.031218 0.263114 0.499177 0.262396 -0.171565 0.108506 0.280508 -0.078137 -0.202688 0.067180 -0.398067 0.055215 0.307015 -0.216394 0.695681 -0.001072 -0.114771 0.351923
1601 -0.120924 0.217460 0.103690 0.040480 0.122481 0.537213 -0.421460 -0.052102 0.518216 0.096621 -0.349163 -0.580293 -0.404608 -0.141541 0.211071 0.299038 -0.140380 0.163093 0.050155 0.274399 -0.087628 0.087533 0.291324 0.160997 -0.672699 -0.010325 0.461849 0.122425 -0.376969 0.544240 0.176946 -0.091512 0.511640 0.136534 0.214498 -0.735792 0.004437 -0.322862 0.335548 0.003201 -0.063814 -0.159778 -0.496697 -0.033973 -0.196995 0.028940 -0.028970 0.447569 -0.353879 0.154828 -0.049492 0.182399 0.175658 -0.213985 -0.092553 -0.185137 0.075921 -0.116613 -0.010168 0.114978 0.145365 0.354296 0.260395 -0.255122 0.523893 0.185895 -0.488715 -0.360778 0.191654 -0.346186 -0.122339 0.156908 -0.179741 0.052976 -0.058414 0.541214 0.367485 -0.044032 -0.635038 -0.146472 -0.167502 0.065514 -0.201254 -0.457907 0.008442 0.093369 0.641371 -0.183406 -0.153165 0.419550 0.299747 -0.089921 -0.721022 0.770015 0.123510 0.494962 0.435183 0.027476 0.592272 0.501905 0.087671 0.233412 -0.030453 0.242343 -0.387338 -0.220378 -0.256526 -0.255675 0.046531 0.571501 -0.083702 -0.144419 0.311391 0.738508 -0.168814 0.083067 0.397356 -0.131732 -0.172346 -0.317464 0.139597 0.418878 -0.554431 -0.584624 0.271766 -0.189971 -0.127525 0.431552
332 0.534695 0.831365 0.472911 0.451027 0.589832 0.388920 -0.322500 -0.130615 0.757245 0.383408 0.067297 0.030473 0.440102 -0.071132 0.255197 0.499906 1.059792 -0.201191 -0.031685 0.379303 0.247640 -0.777001 0.404672 -0.333454 -0.196997 0.512504 0.485504 0.079262 -0.092552 -0.219296 0.510785 0.723830 0.153952 -0.199671 0.344499 -0.483054 -0.101918 -0.152789 -0.252073 0.205260 0.242566 0.374361 -0.055971 0.546015 0.363892 -0.315529 -0.068690 0.751584 0.769978 -1.179264 -0.308037 -0.486951 0.790159 -0.110420 0.366794 0.352189 -0.103131 -0.039802 -1.073675 0.238116 -0.336376 0.190122 0.278934 -0.325234 0.064241 0.287958 0.413717 -0.200226 0.081000 -0.549825 0.436040 1.201331 0.349389 -0.442390 -0.617781 0.349813 -0.160702 0.657861 -0.081798 0.030520 0.023552 -0.201264 -0.307327 -0.134326 -0.085596 -0.740080 -0.477313 0.256075 -0.025494 0.120868 0.395278 -0.385332 -0.041350 0.485118 0.432417 -0.292937 0.410759 -0.223504 0.205558 0.038780 -0.623388 1.241111 0.401157 -0.172205 -0.271176 0.098290 0.637186 0.219521 0.653186 0.276123 0.496269 0.301897 -0.046138 -0.296503 0.208895 -0.408404 -0.052521 -0.362714 0.193688 0.573999 0.141136 0.028084 -0.181226 -0.860464 0.147554 -0.248725 0.233437 -0.193801
2366 -0.392436 0.200342 -0.286413 0.041076 0.504104 -0.375033 -0.079591 0.150761 0.643169 0.428947 0.265454 -0.341664 0.303979 0.143994 -0.804559 -0.154638 -0.049865 0.389636 0.218428 -0.019091 -0.228104 0.248574 -0.386252 -0.310850 0.340868 -0.286626 0.162526 -0.041569 0.397372 -0.048187 0.333928 -0.100997 0.133569 -0.401500 -0.167762 0.446051 0.064187 -0.008027 -0.702105 0.640474 0.055043 0.319921 0.101068 0.181725 -0.233783 0.115943 -0.188892 -0.446095 -0.566266 0.186026 -0.372599 0.274593 0.072201 0.004141 -0.231316 0.126273 -0.376729 -0.254977 0.172865 -0.070398 -0.365482 -0.206359 -0.224243 0.408589 0.072609 0.329594 -0.022579 -0.171140 -0.168317 -0.362972 -0.031201 -0.080090 -0.423378 0.116153 -0.610734 0.130356 0.256447 0.347996 -0.055689 -0.376109 0.372434 -0.189599 0.660446 -0.241471 -0.499365 -0.039166 0.177497 0.003571 0.167229 -0.218555 0.501054 -0.524925 -0.875822 -0.182406 0.089750 0.239515 0.106913 -0.433348 0.309249 -0.172116 0.104672 0.749220 -0.078588 -0.507134 -0.296637 -0.660106 -0.148168 -0.613968 0.204566 -0.514512 0.306879 -0.488187 0.044254 0.894529 0.390744 -0.091706 0.421379 -0.139340 -0.418877 0.329098 -0.208457 0.203047 0.309195 -0.847075 -0.351898 -0.489107 0.581397 -0.072704
596 -0.313209 0.000674 -0.117746 0.412789 0.426467 -0.028325 0.077105 -0.694809 -0.012605 0.565296 -0.018905 -0.692517 0.509332 -0.436322 0.389351 -0.657818 -0.140936 0.244381 -0.139493 0.692523 0.086883 -0.239242 0.827288 -1.154391 -1.180122 0.568133 0.023726 0.588031 0.007940 -0.177188 0.973294 -0.324574 0.747673 -0.598960 0.409650 0.113980 0.472940 0.147894 0.498036 0.297117 0.912926 1.090739 0.162942 0.440876 0.521742 -0.348405 0.060437 -0.558143 -0.572172 0.132530 0.138272 -0.668220 0.737332 -0.644399 -0.889807 -0.015439 -0.863794 -0.152986 -0.044546 0.447497 -0.118267 -0.166951 0.013312 -0.327274 0.371703 -0.524900 -0.472883 -0.106853 -0.404305 -0.248655 0.562077 0.200267 0.121644 0.009544 0.055560 1.233710 0.518928 -0.212250 -0.615677 -0.401419 -0.238912 -0.800729 -0.891663 0.096180 -0.183625 -1.030820 0.059889 0.537890 -0.556394 0.057606 1.113403 -0.235269 0.215689 -0.490603 0.404095 -0.182102 0.631212 -0.298283 -0.286453 -0.093557 0.039944 0.150208 0.684343 0.332558 0.528439 -0.709318 1.083745 -0.505505 0.096705 0.214246 0.279064 -0.495893 0.063376 -0.704530 -0.276949 -0.125843 0.260682 -0.696783 -0.061145 0.605808 -0.532131 0.944821 0.404929 0.448214 0.564717 -0.235334 -0.176139 -0.226928
1302 -0.036192 0.231675 -0.472729 -0.141375 0.490980 -0.062388 0.496023 -0.010902 0.211864 0.372127 -0.132041 -0.531020 0.019770 0.709240 -0.133472 -0.111454 0.253367 -0.315885 0.189710 0.052412 -0.101453 0.103708 -0.522276 0.128629 0.175107 -0.024423 -0.008154 -0.244635 0.280316 0.097313 0.687612 0.427969 0.059678 0.361645 -0.029069 0.758514 0.026217 -0.392988 -0.144362 0.583206 -0.558297 0.333002 -0.216758 -0.120689 0.013382 -0.103178 -0.522838 -0.035732 -0.752143 -0.235295 -0.238137 0.050614 -0.034588 0.154869 -0.459049 -0.236888 0.670623 -0.109869 0.259758 0.008244 0.032642 -0.434275 -0.047318 -0.024249 0.278163 0.223768 0.187302 -0.161281 -0.265208 0.161892 0.087491 0.453497 0.134307 -0.330864 -0.370266 0.371154 0.145575 0.716506 -0.127611 0.429554 0.470096 -0.013904 0.220796 0.459775 -0.237784 0.084979 0.330000 -0.175003 -0.181315 -0.207051 0.107279 -0.333425 0.260344 0.181216 -0.061457 0.046441 0.303260 -0.054115 0.060717 0.317471 -0.284979 0.318559 -0.093913 -0.084688 0.204827 0.323317 0.230270 0.454417 0.538629 0.044962 0.102027 0.236527 -0.292244 -0.107827 -0.119821 -0.435986 0.329549 -0.231965 0.317871 0.185586 0.345081 0.487557 -0.200391 0.278224 0.010306 0.201525 0.099610 0.173171
2476 0.400961 -0.104280 -0.265507 0.290656 -0.010440 0.346830 0.237064 0.866874 0.891166 0.627454 -0.175749 -0.753227 0.516962 -0.718204 0.010953 0.324471 0.076686 -0.285044 -0.172070 0.553127 -0.403536 0.123548 0.356068 -0.343458 -0.069899 0.529696 -0.293916 -0.055677 -0.418571 0.503990 -0.179886 -0.113745 0.472703 -0.039958 0.017013 -0.085258 0.388477 -0.623051 -0.165916 0.068763 0.361755 0.188556 0.140378 0.024869 -0.346837 -0.366766 0.676335 0.376445 0.070636 0.076271 -0.009306 0.192248 0.344836 -0.076220 -0.342503 -0.061636 -0.082571 0.296597 0.370259 -0.315060 -0.409971 0.338188 0.351001 -0.090435 0.330145 0.036943 -0.162747 0.030254 -0.165548 -0.767476 0.102074 0.119319 0.431227 0.486974 0.222189 0.465224 0.383925 -0.040444 -0.356753 -0.820449 -0.415212 0.213834 0.208631 -0.455180 0.360925 0.057538 0.576745 -0.177640 -0.167103 0.109850 0.260162 -0.117029 0.223857 -0.151552 -0.569039 0.623158 0.008746 -0.151074 0.786222 0.173110 0.038255 0.183665 -0.441351 0.041525 0.047943 -0.140147 0.720118 -0.614473 0.104103 0.227350 -0.193335 -0.209734 -0.131839 0.434306 -0.205661 -0.281810 0.758146 -0.231021 0.249440 0.125646 -0.621201 0.123595 -0.242171 0.686568 0.119301 -0.350524 0.294613 0.020078
1157 0.263152 -0.143921 -0.148074 0.291843 -0.195107 0.140882 -0.131977 0.319286 0.120362 -0.232876 0.132625 -0.475369 -0.086874 0.141331 -0.474743 0.334514 0.140887 -0.520094 0.182002 -0.587705 0.226178 0.232803 -0.748705 -0.651083 -0.254431 -0.332312 -0.079776 0.004889 -0.142059 0.190887 0.451920 0.870634 -0.001727 0.386988 -0.486272 -0.228904 -0.326205 -0.075076 0.054446 0.186409 0.131969 0.294849 0.390238 -0.225721 -0.388483 -0.223427 0.741203 -0.197683 -0.075852 -0.477678 0.326620 -0.206807 -0.350404 0.208504 -0.028360 1.009995 -0.210973 0.273004 -0.352232 -0.210553 0.275795 -0.261197 -0.620450 -0.342643 0.247622 0.232143 0.244415 -0.199403 0.092223 -0.165036 -0.328212 -0.108464 -0.576297 0.386598 -0.278857 0.474732 0.150371 0.218475 -0.184328 0.246497 0.179514 0.598271 0.066928 0.191793 0.153118 0.062871 -0.020378 -0.427910 0.064061 -0.759559 0.761630 -0.405339 -0.086670 0.174395 0.435491 -0.253329 0.473662 -0.241656 0.397234 -0.088848 0.139031 0.211779 0.291847 -0.253994 0.619667 0.085341 0.120144 0.172840 0.264525 0.085357 -0.062505 0.143432 0.413065 0.231131 -0.320196 0.684648 0.185016 -0.027695 -0.008032 0.352468 0.112091 0.458061 -0.036889 -0.184904 0.367522 -0.085210 0.455543 0.517774
1050 0.609261 0.338894 -0.225747 -0.165901 0.030310 -0.068541 0.128481 0.400275 -0.015271 -0.008209 -0.504825 -0.353922 -0.303551 0.516801 -0.199897 -0.098013 0.465974 0.347780 0.299829 -0.150277 0.383861 -0.017145 -0.105110 -0.225328 -0.023103 -0.324751 -0.096450 -0.150657 0.046292 0.159210 0.048480 0.552464 -0.247687 0.473229 -0.276659 0.271655 -0.041070 0.149062 0.145410 -0.067164 0.394532 -0.188206 0.253048 -0.073747 0.305575 -0.039622 0.283958 -0.048965 -0.251433 -0.177909 0.423520 -0.046839 -0.258768 0.045686 0.189019 0.358850 0.034720 0.670384 0.245715 -0.212945 -0.234005 -0.540506 -0.308197 -0.254685 0.681844 -0.008522 -0.397481 -0.079349 -0.186301 0.133861 -0.046335 -0.337938 0.001642 0.570393 -0.464197 0.406824 -0.916407 0.424945 0.076411 0.395051 -0.246450 -0.030280 0.364133 0.192513 0.360167 0.046033 0.227670 -0.676758 0.610276 -0.471675 0.759687 0.309062 0.069519 0.199604 0.832152 -0.080804 0.271795 0.043861 0.485025 0.325744 -0.049335 0.697200 0.674907 -0.431436 0.472912 -0.248556 -0.201289 -0.013948 -0.090272 -0.012158 0.139473 0.207175 0.791903 0.219508 -0.727280 0.605085 -0.020763 -1.091696 -0.225968 -0.159539 -0.457625 0.044211 0.302610 0.345865 0.431518 -0.533673 0.366327 0.039143
484 0.037740 0.265434 0.289203 0.118984 0.302470 -0.150444 -0.096811 -0.487407 0.306999 0.276311 -0.080272 -0.394074 0.164712 -0.131484 -0.244262 -0.068812 -0.275797 0.639792 -0.077152 0.044810 0.593994 -0.752969 -0.325354 -0.131847 0.100680 -0.168564 -0.041515 -0.131276 0.075340 0.267310 -0.443336 0.455516 -0.146248 0.103886 -0.179394 0.039752 -0.272964 -0.334508 -0.024309 0.269920 -0.559925 -0.032546 -0.063525 -0.302731 0.028769 0.013064 -0.057902 -0.357051 -0.298948 0.001571 0.093539 -0.146718 -0.593686 -0.514959 -0.439731 0.130147 0.502717 -0.230586 -0.218718 0.398338 0.214690 0.169598 0.371547 -0.170969 0.032621 0.012754 -0.224858 -0.058664 0.316259 -0.745126 0.811042 -0.116461 -0.468961 0.070655 0.342277 -0.022287 -0.364552 -0.007855 -0.511709 -0.270135 0.292929 0.465897 -0.192476 -0.112234 0.346249 -0.425127 0.168618 -0.406068 -0.274697 0.075963 0.251415 0.145194 -0.533246 0.067228 -0.643368 0.450192 0.154582 -0.242448 0.608975 -0.075045 0.157148 0.325330 0.438017 0.501122 -0.066154 -0.253171 0.216425 0.243580 -0.002219 -0.128170 0.687392 0.180239 -0.268246 -0.103282 -0.180230 0.181728 -0.230502 -0.022433 0.102422 -0.129914 -0.174135 0.312556 0.646026 -0.043988 0.220994 -0.318583 0.319292 0.318688
2165 0.197223 -0.316995 0.097514 -0.253137 0.213602 -0.396964 -0.393689 -0.080927 0.040594 -0.264082 -0.051270 -0.060411 0.172257 0.515286 0.128295 -0.440836 0.062843 -0.038034 -0.117915 0.001190 -0.232492 -0.173333 -0.166370 -0.334697 -0.289815 -0.194343 0.320649 -0.117824 -0.158210 0.566868 0.004827 0.383332 -0.072147 -0.021928 -0.306130 -0.195546 0.160533 -0.071136 0.212688 -0.581242 0.425865 0.188915 0.179423 -0.004665 0.004344 0.431795 -0.099679 -0.418424 -0.177179 -0.320276 -0.116446 0.015683 0.404024 0.252281 -0.420929 0.462069 0.355087 -0.074871 -0.355486 0.249541 -0.293706 0.210632 -0.099903 0.246316 0.143720 0.195783 -0.329931 0.009401 0.038738 -0.621423 0.684920 -0.271639 -0.609617 -0.239773 -0.340201 0.498665 0.568565 -0.237939 -0.102814 -0.558159 0.297418 0.067180 0.626998 -0.305051 -0.510239 -0.105308 0.223876 0.446622 -0.232888 -0.282145 0.427701 -0.122303 -0.010811 0.146090 -0.265549 0.351456 -0.048342 -0.109816 0.852300 0.054186 -0.103778 0.412616 -0.045734 -0.538199 -0.132332 -0.018396 -0.029310 -0.251915 0.386486 0.414126 -0.293609 0.174125 0.403639 -0.262125 -0.514787 0.290748 0.110310 -0.039517 0.235478 -0.290432 0.791715 -0.468027 0.254459 0.383186 0.065853 0.119587 0.207766 0.107654
727 0.087402 0.067131 0.101697 0.342038 0.045974 -0.237035 0.065503 0.043015 -0.112455 0.160075 -0.048662 -0.049715 -0.103333 0.325302 0.075645 -0.013354 0.034314 0.232816 0.265881 -0.107890 -0.183126 -0.376238 0.362156 -0.070442 -0.031600 -0.329351 0.065898 -0.397777 0.501811 0.296942 0.132488 0.034301 -0.489015 0.371460 -0.252697 -0.260050 0.374294 -0.244555 -0.170747 0.590947 0.170415 -0.190854 0.309283 -0.295211 0.150828 -0.423175 0.100829 0.321480 -0.461962 -0.399951 0.300688 0.052132 -0.568481 0.301388 0.189155 -0.067232 0.502949 0.251021 -0.058304 0.121771 0.054647 -1.007254 -0.555529 -0.209244 0.002990 -0.130575 0.277359 0.475352 0.213443 0.157085 -0.296222 -0.055120 -0.392791 -0.232949 0.782980 0.482424 0.068679 -0.278258 -0.087227 0.120752 0.086212 0.060008 0.042066 0.092307 0.012062 -0.424159 -0.121759 -0.187348 -0.354653 -0.243000 0.662252 0.408540 0.192607 0.404429 0.419446 0.037087 0.470786 -0.317513 0.517055 -0.072918 -0.188991 0.510486 -0.045529 0.065191 0.503670 -0.516186 0.394281 0.031781 0.388601 -0.133227 -0.124586 -0.051275 -0.076599 -0.061725 -0.493955 -0.208905 0.211840 -0.028858 0.346815 0.190728 -0.285212 -0.131696 -0.193792 0.061901 0.355206 -0.567826 0.146456 -0.020568
2509 -0.687309 0.076910 0.205820 -0.440035 0.126624 -0.428583 -0.168138 -0.136403 0.059372 -0.065235 0.103908 0.224040 -0.183837 -0.663428 -0.107185 -0.352348 -0.258258 0.142718 0.084768 -0.071240 0.288741 -0.461412 0.143332 -0.263230 0.246941 0.196927 0.098132 -0.201071 0.152150 0.275190 -0.145581 0.235708 0.397910 -0.200051 -0.291584 0.550821 -0.189996 -0.098167 -0.546463 -0.350220 0.199376 0.135121 0.051722 0.173693 -0.257457 0.182785 0.267548 0.185457 -0.210836 -0.192158 0.193813 0.029469 -0.021682 0.126309 -0.090649 -0.067938 0.231094 -0.106936 -0.351630 -0.050776 -0.249474 -0.139895 -0.091372 -0.302829 -0.121542 0.186020 -0.013340 -0.072263 0.197451 -0.122856 -0.117520 0.054355 0.140838 -0.012125 0.484518 0.204964 -0.031488 0.098123 -0.240425 -0.000256 0.460288 0.639477 0.039433 -0.190758 -0.164407 0.093930 0.029204 -0.297809 -0.504350 0.468049 0.244114 -0.334912 0.520572 0.665272 0.429641 0.048297 0.282662 0.242841 0.666091 0.463352 0.005544 0.292215 -0.213351 0.183856 -0.458233 -0.068154 -0.058307 0.285016 0.178490 0.139941 0.193502 0.298938 0.456602 0.272121 -0.070280 0.104974 0.235353 0.211661 0.336434 0.592923 -0.337479 0.416216 0.250069 0.067424 0.437067 -0.528773 -0.100357 0.471060
2249 -0.115576 0.018492 0.205183 -0.167409 0.496294 -0.281335 0.171663 0.237381 0.626853 -0.235180 -0.089708 -0.179565 0.262591 -0.130588 0.020289 -0.040965 -0.040564 0.545278 -0.030317 0.419708 0.163507 -0.157515 0.034249 0.178969 -0.487788 0.428806 -0.203082 -0.276221 -0.040854 0.192604 0.444203 0.775023 0.190761 -0.124367 0.246585 -0.131561 0.242405 -0.557222 -0.005764 -0.334286 0.415035 -0.156958 0.472700 0.504969 0.493382 0.047939 0.020010 0.149442 -0.110576 -0.295647 0.084907 0.631157 -0.428422 0.010782 -0.155915 0.015630 0.081806 0.107593 -0.023285 0.054109 0.083764 -0.115675 -0.348612 0.155088 0.045289 0.038362 0.169749 0.028814 0.070312 -0.433019 0.145137 0.252879 -0.298707 0.137778 -0.177646 0.038248 -0.008674 -0.188179 0.069737 -0.466814 0.229804 0.397276 0.801821 0.149090 0.054142 -0.004180 0.188676 -0.021307 -0.110679 -0.023925 0.587748 -0.147703 -0.474993 -0.326424 -0.243803 0.213890 0.041278 -0.149481 0.758774 0.202874 0.134552 -0.098351 0.366015 -0.049943 0.061386 0.154603 -0.361507 -0.336837 0.289683 0.164965 -0.593527 -0.325896 0.184679 0.253247 0.023097 -0.384397 0.016992 -0.282141 0.082920 -0.010697 0.050625 -0.207499 -0.168814 -0.136795 -0.206815 -0.133724 0.331549 -0.371009
519 -0.440355 -0.159102 0.036857 0.456560 0.348517 -0.150531 0.072361 0.150945 -0.234280 -0.391820 -0.163343 -0.593837 0.269521 0.293316 -0.020381 0.072698 0.116337 0.035164 0.019507 -0.337311 0.119980 0.335485 -0.040612 0.133967 -0.405344 -0.632605 0.194284 0.319414 0.186533 0.076584 -0.036000 0.470781 -0.215810 0.196079 0.216380 0.168885 0.133638 -0.591837 -0.251626 0.176287 -0.399776 0.475740 0.189426 0.097256 -0.006382 0.019691 0.206209 -0.747083 -0.216468 -0.395027 0.923476 0.205792 0.175549 -0.018796 -0.342762 0.457878 0.128206 -0.194868 0.230938 -0.055742 -0.145755 -0.531855 -0.461454 -0.718293 0.332819 0.064852 -0.388474 -0.047397 -0.132118 -0.221116 -0.356918 0.588713 -0.155105 0.336240 0.123730 0.238196 0.104899 0.184231 -0.001839 0.266628 -0.180168 0.273026 0.572369 0.171044 0.111102 -0.264785 0.274144 -0.044908 0.035622 -0.081218 0.313522 -0.065509 0.258563 0.218185 0.385513 0.022841 -0.208413 -0.318473 -0.332986 0.397899 -0.414399 0.093596 0.090206 0.155533 0.285191 -0.032347 0.317569 -0.142899 0.119831 0.320702 0.371173 -0.087978 0.249559 -0.009437 -0.515046 0.047300 -0.043688 0.105275 0.293290 0.474411 -0.060232 -0.176812 -0.214960 -0.177726 0.244616 -0.159417 0.011577 0.636146
1565 -0.046468 0.148960 -0.181655 -0.401025 0.032063 -0.491392 -0.430935 0.143901 0.929815 0.227395 -0.815666 -0.444928 -0.429207 0.716023 0.463344 -0.002778 -0.056095 -0.013285 -0.939173 -0.980904 0.586848 -0.110695 -0.292954 0.325525 -0.484433 -0.335314 0.308653 -0.653400 0.592219 -0.280636 0.159387 0.330422 0.601576 -0.590445 -0.622924 0.488244 0.000130 -0.443390 -0.176059 -0.625544 0.810991 0.382119 -0.223886 0.103774 0.108827 0.463017 -0.076704 0.363697 0.313137 -0.368660 0.257554 -0.028030 0.149568 -0.134231 -0.363273 -0.215223 -0.634331 0.349631 -0.435096 0.161358 -0.270725 -0.475148 -0.466597 -0.071217 0.285904 -0.580848 -0.028932 0.128471 0.114205 -0.394365 0.891068 -0.049261 -0.184060 -0.184935 0.253348 -0.293381 -0.114441 0.028854 -0.439952 0.250156 -0.316782 -0.108852 0.066737 0.170653 -0.503437 0.185479 0.004229 0.864348 -0.564837 0.662371 0.669873 -0.191231 -0.090561 0.011654 -0.001396 0.377067 -0.181242 -0.079404 0.179159 0.514823 -0.111463 0.470146 -0.659956 0.106928 0.399641 -0.031218 -0.016207 -0.457825 -0.062177 -0.034896 0.320665 0.319240 0.159149 0.140189 -0.322912 -0.194396 0.731394 -0.165688 0.157806 -0.021802 -0.288016 0.252642 -0.213336 -0.709533 0.259181 0.742280 -0.406471 0.169048
1329 0.688956 -0.201840 0.589252 0.385301 -0.583040 -0.018285 0.031859 -0.908892 0.222348 0.264662 -0.620605 -0.093082 -0.159999 0.594590 -0.354493 -0.870074 -0.194126 0.344569 -0.069878 -0.024422 0.215976 -0.426709 0.327014 -0.075435 0.216741 -0.201882 -0.681000 -0.420042 0.055404 0.686894 0.346361 -0.037362 0.530368 -0.454227 -0.143982 0.328795 0.010122 -0.319159 -0.500561 -0.015029 -0.209449 0.028502 0.112170 -0.075488 0.329312 0.063166 0.150239 -0.300424 -0.395434 -0.267262 0.089367 0.168436 0.300602 0.660613 -0.198368 -0.372736 0.219106 0.016888 -0.039535 -0.016679 -0.174583 -0.194989 0.143298 -0.511439 -0.486590 0.117428 0.747370 -0.416703 -0.041560 0.159326 0.241656 -0.063154 -0.150057 0.576755 -0.551201 0.777118 -0.182736 -0.088962 0.002264 -0.159285 -0.106902 -0.000119 0.436547 0.135416 -0.520788 -0.268657 0.659920 -0.023080 -0.478535 0.045170 0.315884 -0.273546 -0.000899 0.433942 0.219089 -0.469801 0.207244 -0.566186 0.786269 0.035446 -0.168978 -0.080800 -0.264161 -0.424496 0.145666 -0.222625 0.193895 0.043740 0.137805 0.525730 -0.644387 0.066535 -0.288258 0.114530 -0.114683 0.291570 0.337146 0.256498 -0.344787 0.165468 0.459050 -0.495983 0.580845 -0.056822 0.301772 0.021217 -0.482008 0.551024
1403 0.381366 -0.394952 -0.060206 -0.075514 0.612407 -0.119039 -0.147774 -0.051258 0.221613 0.235564 0.191228 0.140202 -0.398622 -0.346376 -0.155916 0.181035 -0.252882 -0.010232 0.274658 -0.188253 0.099165 0.048601 0.165575 -0.070917 0.262131 -0.279718 -0.023320 -0.060093 0.313331 -0.158869 -0.146217 0.016674 0.004728 -0.014735 -0.230567 0.238678 0.056592 -0.202655 -0.151708 -0.183205 -0.212634 -0.007453 0.078615 0.623290 0.012931 0.502891 0.099269 -0.289572 0.144350 -0.139544 -0.265647 -0.410252 0.277907 0.141939 0.214294 0.037408 0.364956 0.123053 -0.203224 0.367642 -0.019964 -0.224709 0.037679 -0.258189 -0.346000 0.307584 -0.516342 -0.225926 0.163068 -0.314902 -0.173690 0.335365 -0.049649 -0.360505 0.023509 0.074351 -0.123468 -0.070799 -0.163082 -0.371756 0.441058 0.201237 -0.039017 0.283110 0.103031 0.387921 0.334333 -0.023030 0.051185 0.295288 0.370813 -0.194056 0.364259 0.371982 0.479874 0.067242 0.452260 0.376035 0.631015 0.076608 -0.084907 0.175487 -0.220311 0.115794 0.153184 0.019361 -0.066181 -0.235512 -0.021644 0.006768 0.442791 -0.014370 0.075246 -0.000707 0.085819 0.134882 0.173322 -0.304879 -0.072753 0.212046 -0.127672 0.156798 0.334996 -0.202071 0.122988 -0.024630 0.134551 0.082298
498 0.554184 0.149091 0.166604 0.051970 0.356214 0.007939 0.080483 0.115784 0.769392 -0.162630 -0.424576 -0.360948 -0.138614 -0.323732 0.022811 -1.076835 -0.171937 0.883407 -0.083964 0.167822 0.438005 -0.990040 0.125191 -0.390947 -0.228322 -0.465163 0.386023 -0.567514 -0.025630 0.136588 0.399330 0.891690 -0.110766 -0.245569 -0.059444 0.486570 0.265154 -0.130080 0.364331 0.527604 -0.182994 0.299256 -0.300559 0.277593 -0.751900 0.664950 0.428727 0.142436 -0.483941 0.223061 0.372347 0.087467 0.031784 0.039029 0.215813 0.371591 0.318116 0.636599 -0.380257 -0.369542 -0.431868 -0.335911 -0.244003 0.343664 -0.727228 -0.092270 -0.326264 -0.238119 -0.046856 -0.142510 0.456258 0.429538 -0.388342 0.133424 0.039566 0.516494 0.413578 -0.313547 0.132650 0.210960 -0.021939 0.294338 -0.626856 -0.501062 -0.034727 0.218898 0.120925 0.139165 -0.011345 0.100013 0.156456 0.108884 -0.281950 0.263991 -0.069432 0.232301 -0.223963 -0.180604 -0.105301 0.428236 0.243633 -0.187342 -0.102031 0.008349 0.590385 -0.422385 -0.047716 -0.466874 -0.045613 -0.004302 0.120514 0.367681 -0.028908 0.137106 -0.071094 -0.342903 -0.433250 -0.855913 -0.044531 0.066345 -0.355053 0.073108 -0.355585 0.292767 -0.278672 0.130611 -0.064175 0.022872
