2708 128
70 -0.468995 -0.360273 0.607383 -0.201128 0.145583 0.181336 -0.113262 -0.219026 0.270420 0.232295 -0.487797 0.301566 -0.353017 -0.364513 0.204661 -0.120632 -0.421221 0.241604 0.005880 0.111223 0.143149 -0.553305 0.338218 -0.258861 -0.200370 -0.127982 0.466369 -0.235711 0.080156 0.134216 1.391081 -0.370542 -0.117528 -0.180863 -0.070591 -0.081246 0.079381 0.113554 0.262177 0.506102 -0.101700 0.177798 -0.244292 0.290413 -0.141745 -0.209300 -0.082352 0.291224 -0.113011 0.062132 -0.038317 0.348033 0.038025 -0.139749 -0.172101 0.373468 0.483778 0.200280 -0.035651 -0.073198 0.180130 -0.159220 -0.545660 -0.408573 -0.162436 -0.150206 -0.471181 0.071852 -0.284679 0.189800 0.264668 -0.095430 0.125106 0.107004 -0.341148 0.416917 -0.145473 0.375041 0.575274 0.401109 0.358042 0.202585 0.259109 0.293543 -0.144368 -0.011076 0.051716 -0.299503 -0.205833 -0.384003 0.518568 0.521240 -0.378842 0.369113 0.143392 -0.446377 -0.061740 -0.107764 -0.080444 0.418443 -0.059596 -0.079767 0.180729 0.380220 0.113111 -0.009392 -0.149420 -0.110862 -0.147156 -0.498564 -0.201382 -0.008172 -0.154660 -0.417818 0.048438 -0.256677 -0.319271 -0.254973 0.301691 0.142334 0.128306 -0.284017 0.106203 -0.088559 0.019611 0.212762 -0.162222 -0.100604
60 0.255657 0.114972 -0.070880 -0.012836 -0.436307 0.685705 0.122004 -0.208668 -0.091363 -0.299416 -0.145461 -0.105534 0.091900 -0.063229 -0.053336 0.186128 0.057935 0.276191 -0.240700 -0.025916 0.038767 0.120678 -0.368089 0.050559 -0.057012 0.190405 0.393011 0.360624 -0.109764 0.004831 0.339336 -0.213188 -0.177836 -0.072534 0.216476 -0.142214 -0.063234 0.267787 0.094715 0.281077 0.052826 0.256058 -0.026048 -0.148742 -0.357155 -0.347474 0.382268 -0.310673 -0.084701 -0.631408 0.109822 0.210411 -0.270637 -0.010932 -0.193840 -0.165544 -0.018103 -0.046643 -0.071106 0.364903 0.024607 -0.242126 -0.375017 -0.020052 0.553508 0.237562 0.072544 -0.386229 -0.555524 0.059390 -0.231424 -0.260353 0.195778 0.185436 0.511801 -0.252836 0.093780 -0.288259 -0.116171 0.406433 -0.096982 0.327036 -0.174762 -0.136902 -0.189076 0.744883 -0.130325 0.171921 0.103690 0.329972 0.493011 0.437749 0.063280 -0.102914 0.234002 -0.396993 0.702352 -0.413437 -0.009129 -0.262857 0.371531 -0.142722 0.289940 0.554121 -0.067911 -0.032492 -0.200603 -0.038600 0.461348 -0.489841 -0.556480 0.113057 -0.349535 0.012979 -0.371024 0.231292 -0.450364 -0.085314 0.553056 -0.130157 -0.374901 0.129460 0.743550 -0.252815 0.028318 -0.205162 -0.046664 -0.013735
92 -0.300583 0.236624 -0.142492 0.631414 0.519101 -0.322445 -0.045821 -0.399919 -0.151477 0.336033 -0.016812 -0.227709 -0.036822 -0.255244 0.153311 -0.013517 -0.002429 0.106833 -0.016661 0.166114 0.110674 -0.619357 -0.164574 -0.582544 0.421212 -0.633373 0.112568 -0.395717 -0.435106 0.624283 0.757191 0.100940 -0.184614 -0.151568 0.255773 0.025871 0.219710 0.371943 0.400989 0.583251 0.149916 0.227523 0.067637 0.043556 -0.397231 -0.520016 -0.346248 -0.216077 -0.027822 -0.399087 0.099503 0.057982 0.152992 -0.175076 -0.049053 -0.018160 0.133870 0.183121 0.210105 -0.473494 0.006946 -0.120650 -0.305299 -0.092030 0.290511 -0.009883 -0.232371 0.288354 -0.121008 0.045219 -0.177587 -0.181367 -0.230882 0.163066 -0.045666 0.128904 -0.449156 0.459277 0.638682 0.555411 0.695507 -0.115497 -0.036871 0.086255 -0.048672 0.190804 0.178414 0.123005 0.370717 -0.384490 0.125221 0.588639 0.145423 0.418257 0.036555 -0.085874 -0.480604 0.120879 -0.344928 -0.373330 -0.230326 0.096129 0.203399 0.311897 0.730866 -0.453938 0.005411 -0.428125 -0.125087 -0.158509 -0.317134 -0.335932 0.022197 0.220204 -0.499671 0.068428 -0.145486 -0.139713 0.051244 -0.017284 -0.064790 -0.239309 0.406171 0.109090 -0.085799 0.131524 0.049736 -0.261926
96 0.089358 0.028567 -0.055840 -0.083545 0.317545 0.027627 -0.268140 -0.123668 -0.309643 0.091733 0.060163 -0.262502 -0.168525 -0.135325 -0.031998 0.179339 0.251675 0.484237 -0.010308 0.558079 -0.519294 0.243854 0.130155 0.013053 -0.044495 0.615954 0.344763 -0.212645 -0.388853 0.433107 0.019648 0.151003 -0.619602 0.146838 -0.091063 0.049085 -0.339065 -0.089870 0.234178 0.594411 -0.282559 0.003481 0.303412 -0.310911 -0.516718 -0.067540 0.514930 0.005500 0.097890 0.363271 -0.382698 0.103614 0.454061 -0.011611 0.201976 -0.082584 0.165402 0.158918 -0.267931 -0.037348 0.158727 -0.560708 -0.265317 -0.302165 0.046749 0.170993 0.299265 -0.094796 -0.351615 0.317054 0.118314 -0.039637 0.227937 -0.181414 -0.026536 0.438273 0.135581 -0.005865 0.040916 -0.154214 0.776613 -0.133021 0.110277 -0.558730 0.125909 -0.080530 -0.216499 0.358495 -0.237186 -0.042098 -0.041332 0.231349 -0.477475 0.364912 -0.019750 -0.455865 -0.144898 0.157538 0.180935 0.055775 0.229820 0.429360 0.472832 0.506244 0.056553 0.369398 -0.275602 -0.221551 0.449120 0.507123 -0.443050 0.051859 0.052970 0.165632 -0.300188 0.005047 0.180039 -0.467683 0.285432 -0.105622 0.073391 0.204074 -0.399182 -0.355843 -0.149127 0.305583 0.199212 -0.000206
82 -0.104621 0.162447 -0.117590 0.346511 0.425162 -0.502975 -0.319256 -0.587306 0.058916 0.061486 0.020062 0.294165 -0.562201 0.197485 -0.111237 0.098201 -0.193819 0.306610 0.111637 0.119051 0.063270 -0.179552 0.121435 -0.317578 0.178740 0.337971 0.143642 -0.253443 -0.260928 0.116400 0.608146 0.282880 -0.019827 0.018518 0.208093 0.056052 0.406782 0.442053 0.375103 0.421080 0.222042 0.462980 -0.462173 -0.182652 0.040243 0.089106 0.130868 -0.087991 -0.081644 -0.545846 0.699028 0.637859 0.258802 -0.166505 -0.273121 0.465008 0.421993 0.356286 -0.119642 0.303997 -0.065828 -0.076992 -0.409015 0.127851 0.143560 0.132344 0.184456 0.007098 -0.332000 0.106839 -0.073940 -0.039181 0.223008 0.487375 0.216786 0.485639 -0.373654 0.370231 0.188725 -0.018689 0.413771 0.010157 0.139285 0.304149 0.135901 0.055683 -0.016766 -0.177840 0.252549 -0.647768 0.585973 0.314394 0.156918 0.530563 -0.074653 -0.141914 0.118235 0.261890 -0.053814 0.140521 -0.533215 -0.074331 -0.165519 0.492162 0.222449 -0.019735 0.409464 -0.253670 -0.488219 -0.218907 0.000295 -0.449496 0.405179 0.143197 -0.257194 -0.083080 -0.562468 -0.954569 -0.073570 0.063548 -0.192121 0.035550 -0.403724 -0.292039 -0.053093 -0.085928 -0.324620 -0.112237
163 -0.251828 0.172994 0.035374 -0.248417 -0.350604 0.281325 0.168461 -0.212443 0.237706 -0.107858 -0.468418 0.190492 -0.373603 0.106845 -0.282842 -0.076007 0.004678 0.024430 -0.685283 0.605221 -0.247789 0.448163 0.103558 0.301409 -0.102310 0.335874 -0.098088 0.036209 0.010702 0.482447 -0.125137 0.469719 -0.289597 0.488034 -0.470598 0.167430 -0.267050 0.159377 0.627869 0.081970 -0.304595 -0.185179 0.399154 -0.039568 0.107310 -0.220480 0.408512 -0.702890 0.054706 0.247674 0.471487 -0.304241 0.486456 -0.013881 -0.098682 -0.349748 0.069647 0.312468 -0.204773 0.035249 -0.310282 0.075677 -0.239690 0.143875 0.092511 0.444971 0.683688 0.172627 0.008577 0.209921 0.487871 -0.193225 0.066129 0.063525 0.141800 0.013051 -0.153993 0.057448 0.353348 0.315321 0.391916 -0.028435 -0.020723 -0.178679 0.137277 0.215481 -0.078575 -0.087793 -0.062395 -0.000774 0.302431 0.196810 -0.246238 0.362852 -0.441657 -0.129496 -0.129575 -0.159902 -0.080095 -0.076993 -0.005085 0.255158 0.543784 0.463464 -0.056727 0.131908 -0.153965 -0.584902 -0.107518 0.490950 -0.188044 -0.005457 -0.083634 0.085681 -0.437069 -0.302916 0.218534 -0.127854 0.528363 -0.015579 0.087276 0.299214 -0.379390 -0.351596 0.551820 0.014645 0.092240 -0.509349
101 0.202036 -0.187776 0.321491 -0.051505 0.102154 -0.019594 -0.045281 -0.615995 -0.145612 -0.228677 0.393275 -0.359146 -0.690159 -0.281235 0.311690 -0.125107 -0.225336 0.882586 -0.220564 0.511365 0.298677 0.230308 -0.042488 0.233202 -0.166358 -0.288618 0.701334 -0.134444 -0.000808 -0.016423 0.047501 0.063940 -0.608386 -0.354609 -0.404553 0.251891 -0.253669 0.075904 0.087270 0.072065 -0.099660 -0.097037 -0.106656 -0.282108 -0.212476 -0.279410 0.213991 -0.881801 -0.300440 -0.583910 0.334711 0.001430 0.218282 -0.159199 0.565526 0.036104 0.268702 -0.085798 0.551766 0.141301 0.023985 -0.420921 -0.487023 -0.514540 0.784947 -0.353508 0.265624 0.153726 -0.063065 -0.618935 0.002430 0.073531 -0.516579 -0.001552 -0.257214 -0.108309 0.355828 -0.275932 -0.336586 -0.257365 -0.080243 0.362615 -0.383528 0.089694 -0.649252 0.703155 -0.092942 -0.246876 0.087444 0.180813 0.721133 0.087567 0.060855 0.369912 -0.256224 -0.401285 0.865466 -0.082674 -0.233937 0.006154 -0.250849 -0.342206 -0.011053 0.156852 0.080795 -0.098333 -0.008826 0.155682 0.231762 0.098346 -0.253527 0.026325 0.138254 -0.280695 -0.209785 -0.275300 -0.716504 -0.029068 0.398016 -0.315364 0.213355 -0.145609 0.107427 -0.070651 0.126515 0.291832 -0.706959 -0.206698
23 -0.642294 0.179322 -0.242626 -0.079566 -0.126281 0.070411 -0.043418 0.029092 -0.011541 -0.260544 -0.422733 0.284327 0.063866 -0.058565 -0.474901 -0.389318 0.271264 0.261536 -0.317441 0.664257 -0.126884 0.397547 0.144171 0.100670 -0.065485 0.167655 0.054680 0.306568 -0.340499 0.357828 0.007753 0.336461 -0.386221 0.440054 -0.393028 -0.243808 -0.031641 -0.580101 0.636599 0.192005 -0.377452 0.119825 0.291615 -0.123725 -0.284972 -0.019153 0.555070 -0.716246 0.100000 0.176260 0.027128 -0.371923 0.263974 -0.268433 -0.022350 0.022321 0.105015 0.240822 -0.154857 0.231459 -0.336356 -0.333390 -0.091014 0.016199 0.135042 -0.064685 0.179062 -0.271017 0.092181 0.576272 0.198341 -0.077332 0.047012 0.170607 0.251598 0.177384 -0.058901 0.012365 0.382576 -0.014684 0.472430 -0.060890 0.365114 -0.267674 -0.053209 0.188728 -0.315777 0.527437 0.271632 -0.178467 0.322855 0.156017 -0.571973 0.096731 -0.647102 -0.303136 -0.292983 -0.266682 0.211223 -0.189097 -0.223274 0.118402 0.812881 0.099396 -0.133032 0.059046 -0.096539 -0.418217 0.125359 0.333682 -0.269624 -0.192511 -0.017196 0.074199 0.054983 0.072158 0.107972 -0.399673 0.276069 -0.141823 -0.215909 0.472725 -0.235660 -0.368871 0.185982 -0.075866 0.109406 -0.340072
9 -0.520002 -0.095242 -0.065789 0.264961 -0.308519 -0.265599 0.352839 0.137584 0.203086 0.149554 0.133350 0.281318 -0.139281 -0.374702 0.421718 -0.109072 -0.207596 0.550674 -0.474517 0.222918 -0.129646 -0.243963 -0.209456 -0.289356 0.088002 -0.458417 -0.140933 0.187408 -0.390630 0.631910 0.457343 -0.341241 0.166542 0.442563 -0.001479 -0.129712 0.440389 0.468566 0.320925 0.181715 0.228674 0.333683 -0.132089 -0.100043 -0.056550 0.091902 0.227742 0.036199 0.168290 -0.428485 0.164602 0.069415 0.045659 -0.043251 0.381811 0.045199 0.205728 0.154657 0.147267 0.090553 0.010611 -0.059989 -0.817841 -0.221770 -0.111103 0.411588 -0.017321 -0.421460 0.164993 0.252132 0.429522 0.358617 -0.122819 0.630516 0.425749 0.420622 0.098764 0.399175 0.881223 0.421239 0.508806 0.092383 0.293422 -0.031516 -0.538091 0.157294 -0.547456 -0.097496 0.116136 -0.287091 0.127880 0.253927 -0.097067 0.470723 0.019416 -0.170106 0.029278 -0.307182 -0.073782 -0.392268 -0.359519 -0.132050 0.009306 0.422821 0.561781 0.322475 0.264769 -0.415737 -0.025226 -0.376661 0.014309 -0.283774 0.016717 0.257840 -0.147944 -0.227602 -0.191819 -0.216598 -0.457028 -0.203625 0.228049 -0.448481 0.198812 -0.541018 -0.847805 0.203634 -0.245783 -0.187150
108 -0.136115 0.478275 0.088537 0.368962 -0.622575 0.326218 -0.217329 -0.212278 -0.464512 -0.117078 -0.004787 0.023798 -0.384931 -0.330986 0.132663 -0.301184 -0.451567 0.126523 -0.451677 0.697484 0.271557 -0.036851 0.364550 -0.061531 -0.099851 -0.407181 -0.226486 0.583776 0.210777 0.009607 0.072354 0.028947 -0.417020 -0.157114 -0.059443 -0.092677 -0.042644 -0.372144 -0.217807 0.556690 0.071416 0.075856 -0.375508 -0.414897 -0.407409 -0.012926 0.117136 -0.545392 -0.456889 -0.844153 0.239813 0.376241 0.014747 0.081918 0.276591 -0.436578 -0.306712 0.088640 -0.224926 -0.187942 0.186793 -0.594648 0.028449 -0.142283 0.003156 -0.154939 -0.045250 -0.536026 0.194352 0.073386 0.320868 0.287585 0.243365 0.009265 0.059864 -0.053421 0.556117 0.171729 -0.065967 -0.003099 0.072268 0.193825 -0.463149 0.105144 0.071180 0.329002 -0.283669 -0.130711 0.186595 0.155605 0.516270 0.087240 0.249714 0.697224 -0.243584 -0.085682 0.638573 0.010243 -0.323605 -0.107565 0.510024 0.514879 0.148505 0.237643 -0.547371 -0.026391 0.024255 0.157529 0.244104 -0.192893 0.073646 0.105017 -0.045355 0.343595 -0.371100 0.693246 -0.216269 -0.798034 0.339627 -0.582295 -0.300392 0.256206 0.497722 0.007617 -0.425277 -0.025480 0.472566 -0.335518
46 -0.481051 0.251125 0.229163 0.206453 -0.347867 -0.157167 -0.381574 -0.367110 -0.010529 -0.109363 -0.081993 0.089647 -0.167740 -0.265732 0.116065 -0.246659 -0.497012 0.019700 0.269568 0.359710 -0.581664 -0.229688 -0.076440 -0.214977 0.013671 0.046927 0.484628 0.327476 -0.085340 0.364254 0.421492 0.228089 0.205352 0.241993 -0.459200 0.131954 0.435954 0.514039 0.666229 0.234797 0.350959 0.053779 -0.549229 -0.406642 -0.160313 0.134448 0.094151 -0.153089 -0.037437 -0.482435 0.291415 0.053532 0.243851 -0.018419 -0.488212 0.585208 0.341039 -0.184758 -0.182205 0.017923 0.326790 -0.849971 -0.950885 0.012897 -0.585121 -0.119854 -0.290955 -0.421571 -0.153520 0.272452 0.584737 -0.003563 -0.195495 0.471716 0.202860 0.223565 0.016584 0.535924 0.994998 0.108396 0.742944 -0.163328 -0.214790 -0.266188 0.048834 0.155664 0.188943 0.361795 0.022516 -0.030407 0.170424 0.575344 -0.287893 0.181443 -0.097460 -0.115590 -0.004869 0.329267 -0.687038 0.348559 -0.531635 -0.383498 0.272896 0.094670 0.392578 -0.054356 0.348621 0.054031 0.491732 -0.625083 0.065300 0.332862 0.211875 -0.216532 -0.138425 -0.053328 0.135763 0.224838 0.069184 0.085557 0.140652 0.098137 -0.050474 0.347293 0.180137 -0.294769 -0.061494 0.378162
56 0.419749 -0.294684 0.495622 0.289304 0.336913 -0.104374 -0.235741 -0.065933 -0.445898 -0.123818 -0.168815 -0.052934 -0.455260 -0.289893 0.106695 -0.016270 -0.165170 0.506369 -0.085441 0.641267 0.156121 -0.240706 0.424248 -0.289270 -0.097597 0.163779 -0.255220 0.399733 0.309073 0.489672 0.107902 -0.150006 -0.317192 0.235874 0.428847 0.019971 0.470140 0.072522 -0.047240 -0.558825 -0.155169 0.436709 0.344578 0.288745 -0.457053 -0.522087 0.184814 -0.570339 0.078496 0.034214 0.213517 -0.160432 0.058814 0.142940 -0.185420 -0.189025 0.359803 0.148634 -0.356599 0.218937 0.027622 0.375873 0.208622 0.014456 -0.254846 0.491997 -0.344753 -0.112771 -0.453666 -0.224490 1.050148 -0.120242 0.564919 0.113663 0.151119 -0.185109 0.280304 0.178993 -0.221870 0.205209 0.014129 -0.823332 -0.083895 -0.133603 -0.290328 -0.134471 0.293183 0.376198 0.066094 0.066441 -0.435452 0.051442 -0.264963 0.309746 -0.157668 0.157393 0.528855 0.080022 -0.523473 0.109962 0.748369 -0.192440 0.640288 0.480609 0.168026 -0.101046 0.015253 -0.136680 -0.171048 -0.376428 -0.086301 -0.136165 -0.234238 0.082779 -0.986558 0.368215 -0.894330 0.029123 0.590669 -0.239295 -0.019995 -0.346739 -0.492618 0.315458 -0.013725 -0.414390 -0.045097 0.231809
116 -0.351676 0.304030 0.440461 0.027830 0.116755 -0.379062 -0.047093 -0.436760 -0.288974 0.235004 0.038133 0.334706 -0.501185 0.073261 0.298030 0.129520 0.014869 0.093808 -0.850692 -0.082683 0.103374 -0.376969 0.096335 0.046156 -0.104054 0.269489 0.411028 -0.068345 0.102241 0.237506 0.524857 0.019249 -0.276766 0.438221 -0.198142 0.164338 0.221479 0.489655 0.828027 -0.005847 0.113537 0.674124 -0.321806 -0.091577 -0.203670 0.179257 0.311587 -0.032524 0.156828 -0.333157 0.401698 0.058134 0.107761 -0.050912 0.162835 0.134361 0.430368 0.479880 0.070644 -0.231314 0.226943 0.045232 -0.370304 -0.012198 -0.008250 0.154978 -0.286256 -0.194177 -0.028846 -0.087872 0.090558 0.129790 0.372339 -0.136020 0.032286 0.014304 -0.406219 0.297975 0.648271 0.251078 0.430539 0.197104 0.310374 0.306398 -0.144732 0.324411 -0.295444 -0.242779 0.606732 -0.201292 0.435080 0.093724 -0.052160 0.471525 -0.268930 -0.218576 -0.026002 0.049562 -0.101379 -0.238707 -0.205406 0.071743 -0.129744 0.056308 0.493725 0.075738 0.075303 -0.448874 -0.193859 -0.493036 -0.003874 -0.453240 0.237375 0.150765 -0.272239 -0.099936 -0.439932 0.368745 0.308226 0.221751 0.328324 -0.141428 -0.165902 -0.702293 -0.138893 -0.297715 0.085874 0.055871
62 0.349091 0.329721 0.214879 0.076654 -0.136522 0.416603 -0.054866 0.317168 -0.228679 -0.312986 0.010181 0.466059 -0.396026 -0.071343 0.065104 -0.212050 0.280540 0.897720 0.116764 0.631728 -0.274414 0.345792 0.348128 0.210822 -0.380541 0.219587 0.071548 0.021518 -0.471593 0.294095 0.412494 0.196613 0.209732 0.392313 0.105033 -0.036401 -0.054788 -0.496341 0.456085 0.186395 0.121783 -0.150332 0.570176 -0.037733 -0.254269 -0.550301 0.291725 -0.577039 0.247003 0.042435 -0.307700 0.025604 0.628869 -0.504096 -0.179122 -0.189431 0.390671 0.592943 0.069139 -0.376301 0.413401 -0.272872 -0.251663 -0.331919 0.235283 -0.061210 0.250981 0.213842 -0.097674 0.085775 0.037734 0.256019 0.346806 0.374094 -0.071799 -0.020107 -0.020839 0.103431 -0.534187 0.010318 0.796810 -0.370747 -0.173533 -0.792725 0.455051 -0.007440 -0.113432 0.068232 -0.037696 -0.007361 0.585594 0.110819 -0.069645 -0.026052 0.032855 0.050118 -0.401774 0.263840 0.131443 0.271734 0.269859 0.256505 0.400276 0.125716 -0.052598 -0.223859 0.269259 -0.700392 -0.136122 0.435928 -0.003087 -0.553079 -0.134981 0.111481 0.119193 -0.279478 -0.542067 -0.233226 0.842453 0.074632 -0.157232 0.409428 -0.370430 -0.270016 0.155489 -0.434951 0.027629 -0.267399
52 0.072649 -0.439902 0.623956 -0.024169 0.590767 -0.205407 -0.139648 -0.366659 -0.081930 0.037357 -0.911042 -0.075601 -0.378865 -0.423424 0.274408 -0.275004 -0.093782 0.099162 -0.267340 -0.294560 -0.463927 -0.114907 0.319986 0.137924 -0.589953 0.578264 -0.157910 0.057910 -0.166258 0.154479 0.354892 -0.217572 -0.185288 0.168946 0.218215 0.132567 -0.678368 0.253161 0.342718 -0.054557 0.260292 0.235038 -0.040612 0.618193 -0.104776 0.352550 0.032231 -0.657850 0.039467 -0.696909 0.011621 0.584434 0.469979 -0.080322 0.587671 -0.476533 1.074765 -0.452385 0.042180 -0.015647 0.048175 -0.392761 -0.235102 0.080124 0.202114 0.317629 -0.181647 -0.151030 -0.449440 0.401719 0.012824 0.588396 0.188586 0.051610 0.515685 -0.389260 -0.303578 -0.097565 0.029326 0.153812 0.120915 0.331086 0.270666 -0.263225 0.468309 0.036570 0.388538 0.818345 -0.409940 0.407442 -0.566349 0.354946 0.183383 0.181392 -0.384747 -0.308700 0.835844 -0.387213 0.497577 -0.075506 0.045733 -0.239542 0.125129 0.198182 0.249711 -0.947478 0.128749 -0.439652 0.046391 0.435547 0.126823 0.158487 -0.363833 0.302839 -0.161731 0.016168 -0.288841 -0.276035 0.242647 0.268082 0.106471 0.600438 -0.320404 0.155922 -0.385404 0.365387 0.104461 0.147298
72 -0.057423 -0.187180 -0.402351 -0.058494 0.490075 0.004844 0.138361 -0.235059 0.180430 -0.162843 -0.242017 0.106719 -0.557390 -0.469348 0.733346 -0.094530 -0.517724 0.301438 -0.183033 0.273462 -0.212762 -0.035191 0.291151 -0.226342 0.325100 0.112910 0.709694 -0.162203 -0.065903 0.135794 1.083697 -0.196576 -0.338237 0.822342 0.092498 0.241641 0.301977 0.726775 0.338631 0.330162 0.087580 -0.257286 -0.001494 0.004255 -0.128663 -0.259534 0.221430 0.029306 0.158294 -0.192819 -0.628972 0.577005 0.167170 -0.052749 -0.396166 -0.622104 -0.166922 0.024799 0.286359 0.138188 0.096006 -0.394985 -0.646480 0.641652 0.279815 -0.415335 0.114272 -0.247523 -0.550048 -0.042121 0.656988 0.288038 0.406089 0.299672 0.353539 0.183133 -0.177634 0.027859 0.785956 1.186817 0.212534 -0.233870 0.004832 0.063564 -0.405864 0.496543 0.543923 -0.572401 0.578855 0.123389 0.376815 0.051183 -0.573661 0.278441 -0.298450 -0.069727 0.391670 -0.126999 0.353479 -0.020513 0.195234 0.765080 -0.203007 -0.208174 0.801891 -0.031668 -0.407139 -0.416717 -0.447855 -0.449193 0.312000 -0.501636 -0.345951 -0.276123 -0.115437 -0.278402 -0.117076 0.011584 0.139885 0.044537 0.146998 0.039383 0.256132 -0.079339 0.211491 -0.536682 -0.362321 0.169661
113 -0.011735 0.034237 0.106583 0.133228 -0.485848 0.439695 -0.026473 -0.404086 -0.036694 0.079153 -0.064374 0.484992 -0.290970 -0.344687 0.118657 0.149553 -0.548189 0.228469 0.339079 -0.214407 -0.115216 -0.014581 -0.603130 -0.066945 -0.251040 -0.078250 0.092303 0.316521 -0.081216 -0.061969 0.149163 0.032266 -0.559466 -0.101841 0.064413 0.036735 -0.078784 -0.040802 -0.037252 0.311387 -0.151490 0.454555 0.109285 0.047487 -0.330962 -0.380086 0.270789 -0.248664 -0.136314 -0.677810 0.631084 0.531795 0.265438 -0.192192 -0.125992 -0.154859 -0.346873 -0.020886 -0.236815 0.183645 0.476569 -0.188249 -0.410084 0.043679 0.510199 0.010503 0.086928 -0.349272 0.051337 0.101680 0.345040 0.043541 0.230320 -0.471747 -0.004901 -0.020430 -0.154576 -0.148533 0.010340 0.332132 -0.299173 0.190452 -0.270979 -0.168124 0.085527 0.464696 -0.185787 0.247834 -0.149774 0.180204 0.610871 0.192309 0.086253 -0.420939 -0.001792 -0.726133 0.119733 -0.324515 0.051979 -0.099181 0.411255 0.134761 0.017302 0.044138 -0.345612 -0.180952 0.388817 0.123874 0.417529 -0.033101 -0.557715 0.361175 0.109353 -0.029978 -0.250120 0.271195 -0.157578 -0.092824 0.512217 -0.037209 -0.052238 0.140997 0.075429 -0.133754 -0.471054 -0.167767 0.123635 -0.257832
32 0.321303 0.074692 0.575145 0.458179 0.023029 -0.053523 0.001327 -0.196186 -0.424871 -0.023578 -0.242778 -0.048986 -0.065863 -0.139797 0.439412 -0.489939 -0.155436 0.212890 0.258465 0.325890 0.303532 0.146295 0.636667 -0.320371 0.335621 0.328024 -0.385694 0.629624 -0.152739 0.376645 0.023830 -0.333728 -0.814572 0.126454 0.164931 -0.200818 0.191230 0.107500 0.313944 -0.726868 -0.815874 0.870862 0.019497 0.429149 -0.469682 -0.338074 0.458861 -0.455488 -0.515822 0.362786 -0.400325 -0.216215 0.283336 -0.033666 -0.019508 0.409533 0.578321 0.469002 -0.213174 0.408639 -0.112624 -0.073835 -0.197123 0.115713 -0.277577 -0.281775 -0.664165 -0.251460 -0.378788 0.007845 0.739224 -0.439984 0.238236 0.231668 0.467954 -0.010264 -0.114032 0.062522 -0.145460 0.039783 -0.028550 -0.487645 -0.587300 0.123781 0.083755 0.445533 0.282112 0.387068 0.301242 0.147228 -0.475526 0.171176 0.085669 0.103587 -0.040996 -0.379592 0.119278 0.052832 -0.437463 -0.181096 0.439345 -0.060360 0.271987 0.406257 0.178962 0.106649 -0.000178 -0.278761 -0.195580 -0.069736 -0.201641 0.624266 -0.404707 -0.256178 0.168491 0.771161 -0.378553 -0.491094 0.284296 0.030631 -0.100213 0.272043 -0.069707 -0.299937 0.107286 -0.095889 -0.805133 -0.160488
114 0.179531 0.259410 0.235284 -0.023977 -0.367426 0.276147 -0.495450 -0.148770 0.173037 -0.195837 0.352313 0.825636 -0.221171 -0.372055 0.084634 -0.083470 -0.013922 0.408889 0.010714 0.123977 -0.109813 -0.096726 0.067727 0.013703 0.165864 0.018167 -0.181565 0.503495 -0.021018 -0.039559 0.147240 -0.038203 -0.020477 -0.302177 -0.209281 -0.030341 -0.134032 0.149782 0.130643 0.075738 0.160835 0.115383 -0.208137 -0.131925 -0.434729 -0.334120 -0.207370 -0.659447 -0.129774 -0.509738 -0.165878 0.385930 0.150785 0.181221 -0.013060 0.067714 -0.265860 -0.233764 -0.193778 0.392267 -0.303215 -0.404653 -0.493487 0.126012 0.467847 0.418439 0.419485 -0.240161 -0.229065 -0.134964 -0.136490 -0.258817 0.256815 0.143581 0.109472 -0.114078 0.550453 -0.253262 -0.016170 0.067778 -0.248290 0.394997 -0.167412 0.053488 0.229928 0.426550 -0.251159 -0.022874 0.316360 0.305013 0.620323 0.911262 0.344022 0.306744 -0.055431 -0.397194 0.900821 -0.446637 -0.240191 -0.209982 0.272246 0.174646 0.367480 0.129583 -0.344951 0.063916 0.393794 0.518213 0.358144 -0.405369 -0.266891 0.080225 -0.113390 -0.153758 -0.658741 0.235619 -0.475663 -0.228142 0.310257 -0.027477 -0.140816 -0.132375 -0.155675 -0.036226 -0.216462 -0.188551 0.457137 -0.077069
50 0.651239 -0.101516 0.128940 0.560336 -0.351225 0.194980 0.098873 -0.633105 -0.422566 0.071727 -0.686040 0.125162 0.125114 -0.124952 -0.326051 0.048352 0.677786 0.547824 -0.150890 0.530794 0.418690 0.208500 0.431083 -0.071182 0.323294 -0.629821 -0.502009 -0.058933 0.035202 0.122570 0.360018 -0.170180 -0.267183 0.286223 -0.359050 -0.139991 -0.071288 0.512720 0.351223 -0.075516 -0.243099 0.125241 0.123594 -0.790764 -0.890167 -0.375688 0.484963 -0.292567 -0.241037 0.332573 0.087062 -0.063410 1.038999 -0.188012 -0.013346 -0.287522 0.101556 0.710885 -0.185404 -0.011187 0.337907 -1.102920 -0.041528 -0.308345 0.205363 0.067176 0.239211 -0.047800 -0.152542 0.142774 -0.253094 0.188417 -0.349601 0.025943 0.557325 0.531535 0.120169 0.455791 -0.115423 0.304326 0.032596 -0.016003 0.411896 -0.500538 0.149246 -0.093673 -0.165904 -0.056149 -0.354157 -0.121179 0.065767 0.453844 -0.590294 -0.342967 0.117140 0.281619 -0.036151 0.127526 -0.192629 -0.229609 -0.186939 0.203972 0.934931 0.185779 -0.238150 -0.330352 -0.035212 -0.155670 -0.333387 0.452823 0.156272 -0.194923 -0.181257 -0.134602 -0.454503 0.493211 -0.136485 0.010133 0.466967 -0.003220 0.027463 0.674902 -0.030376 -0.560915 0.396662 -0.468490 -0.255144 0.145242
90 0.103162 -0.551007 0.198138 -0.653002 0.296249 -0.029970 0.001025 -0.145815 -0.096263 0.044199 -0.540063 -0.316534 -0.302602 -0.608412 0.318063 -0.104996 -0.369664 0.558291 0.140822 0.608249 0.105328 -0.600144 0.497677 -0.297832 0.242845 0.494188 0.131538 0.705202 -0.588359 0.596736 0.130229 -0.070528 -0.246531 -0.618995 -0.115781 0.463946 0.097438 0.671442 0.122632 0.627535 -0.282558 0.662301 0.336149 0.843427 0.494500 0.312219 0.684417 -0.452778 -0.076579 -0.012745 -0.236714 -0.409087 0.712581 0.145161 0.052143 -0.256538 -0.307015 -0.089812 -0.384690 0.151758 -0.454018 -0.143649 -0.189620 -0.298082 -0.344899 -0.114065 -0.099592 0.086460 -0.307615 0.573944 0.296813 -0.349525 0.395870 0.223716 0.197307 -0.175540 -0.329648 -0.487555 -0.356677 0.170996 0.522768 -0.745956 0.172553 0.043488 -0.024991 0.174984 0.015185 0.048672 0.015662 -0.086122 0.345455 -0.127052 0.471016 -0.312302 -0.006819 0.460797 0.664896 0.507114 -0.469780 0.110974 0.064397 -0.035846 0.486599 -0.265395 0.370088 0.142412 -0.046522 0.164273 0.274982 -0.546885 -0.690947 0.203149 0.200495 0.281832 -0.034430 0.163313 -0.646231 0.160268 0.722051 0.101760 0.621526 -0.239294 -0.268212 0.276793 0.167519 -1.141108 -0.151870 -0.088677
29 -0.430086 -0.328611 0.326355 -0.169990 -0.069355 -0.385012 -0.110151 -0.281317 0.045143 0.238691 -0.141882 0.186231 -0.238132 -0.451136 0.296856 -0.118965 -0.491093 -0.121522 0.013280 0.194979 0.157475 -0.111296 0.058628 -0.386802 -0.775010 -0.098963 0.330310 -0.204183 -0.166996 0.259934 1.233003 -0.066744 0.023370 -0.221757 0.134469 0.672260 0.286962 0.524448 -0.047456 0.082218 0.043083 0.524578 -0.534571 -0.165055 0.142544 -0.148660 0.014649 -0.047976 0.209671 -0.078911 0.085233 0.404994 -0.087955 -0.023264 0.030084 0.684784 0.684432 -0.115080 -0.261183 -0.333381 -0.241551 -0.255511 -0.488504 -0.496748 0.020279 0.059010 -0.180313 0.008996 0.078531 0.349403 0.256049 -0.318748 -0.064710 0.519636 -0.050197 0.091570 0.084028 0.104275 0.535956 0.507688 0.197328 0.249952 0.103433 -0.195543 -0.319119 0.401362 -0.110216 0.070580 0.246075 -0.434586 0.370584 0.121468 -0.297707 0.286858 0.003763 -0.475156 0.081154 -0.126063 -0.272806 0.167090 -0.398552 0.450344 0.367212 -0.068476 0.299893 0.264937 0.314714 -0.025674 0.118047 -0.324085 -0.154879 -0.127078 0.122117 -0.102831 -0.088743 0.160485 -0.368065 -0.252112 0.169465 0.332414 0.101943 -0.337772 -0.558398 -0.205856 0.077999 0.423235 0.140561 -0.057059
53 -0.041794 -0.247136 0.259988 -0.108726 0.236209 -0.127096 0.262366 -0.469380 -0.256738 -0.031479 0.436803 -0.284330 -0.632386 -0.474048 0.176824 -0.115373 -0.229212 0.679361 -0.134099 0.595671 0.191857 0.539495 -0.290691 0.161331 -0.140710 -0.191101 0.939321 0.045243 -0.247421 -0.044609 0.046425 -0.365703 -0.635873 -0.202984 -0.284779 0.209288 -0.245783 0.166610 -0.068047 0.052745 -0.096686 -0.001453 -0.220154 -0.177434 -0.354880 -0.322902 0.034603 -0.844243 0.233983 -0.531741 0.303487 -0.000590 0.073610 -0.155935 0.484508 -0.059005 0.244535 0.095361 0.148139 0.105610 -0.193597 -0.533751 -0.398173 -0.533940 0.752901 0.041946 0.421022 -0.072700 0.160980 -0.356268 -0.026864 0.163429 -0.511882 -0.023040 -0.319432 -0.184482 0.105273 -0.237153 -0.335256 -0.240578 -0.199908 0.453136 -0.176990 -0.289919 -0.985648 0.509571 -0.053034 -0.126926 -0.044190 0.307069 0.675909 -0.070402 0.134306 0.335776 -0.333853 -0.342180 0.779255 -0.066301 -0.319752 0.212928 -0.112599 -0.289518 0.318475 0.316424 -0.100364 -0.111776 -0.151568 0.052946 0.248328 0.021628 -0.152730 -0.124001 0.229365 -0.003791 -0.163619 -0.244560 -0.819072 -0.041049 0.156999 -0.322507 0.118044 -0.191114 0.007218 0.128668 -0.139262 0.578796 -0.541221 -0.085450
28 -0.135681 0.078288 0.214126 -0.029335 0.359876 0.145998 0.232142 -0.039044 -0.362880 0.283675 0.084089 0.002916 -0.254240 -0.211146 -0.087954 0.333465 0.004046 0.416535 -0.061857 0.185916 -0.593621 0.132306 0.261871 0.439445 -0.156824 0.477214 0.254938 -0.113461 -0.357802 0.461250 0.149752 0.220427 -0.264893 0.161620 -0.250746 0.308235 -0.133371 0.021944 -0.011507 0.326712 -0.132168 -0.205248 0.775253 -0.148221 -0.538958 -0.125283 0.471105 -0.221111 -0.039278 0.305293 -0.239372 -0.122050 0.598004 -0.264958 0.085066 -0.003146 0.315382 0.553959 -0.390586 0.140512 -0.101275 -0.526410 -0.090154 -0.016479 0.030836 0.310709 0.325109 -0.098440 -0.242235 0.164416 0.045800 -0.197159 0.217821 -0.370024 -0.122715 0.176727 -0.017805 0.134616 -0.236849 -0.039362 0.750140 -0.146644 0.259403 -0.434890 -0.178207 -0.085856 -0.183480 0.341909 -0.264528 0.070144 0.222772 0.219863 -0.698276 0.248634 -0.044563 -0.357268 -0.240736 0.000458 0.176427 0.165635 -0.199694 0.222259 0.304552 0.331770 0.243401 0.272546 -0.271962 -0.253563 0.309132 0.513362 -0.436867 0.096634 -0.008472 -0.045904 -0.219373 0.369099 -0.008853 -0.344386 0.431713 -0.228797 -0.216250 -0.190102 -0.331760 -0.455256 0.056052 0.517730 0.421325 -0.038535
22 0.237189 -0.375373 0.143413 0.110000 -0.035095 -0.078582 -0.414599 -0.241429 -0.611700 0.147588 -0.292578 -0.142534 -0.464758 -0.280378 0.471199 -0.507938 -0.503534 0.194964 0.034693 -0.112079 0.023016 -0.418569 0.138538 0.024807 -0.138174 0.403323 -0.203053 -0.055485 0.228995 -0.011687 0.595889 -0.256632 -0.331398 -0.146738 -0.589930 0.508238 -0.495855 -0.032106 0.572801 -0.369709 0.402270 -0.054059 0.397149 0.358474 0.249607 0.409315 -0.410701 -0.320217 0.157057 -0.324411 0.549125 -0.035505 -0.131310 -0.141034 0.503411 -0.569034 0.191940 0.086949 0.216111 -0.196992 0.221453 -0.018474 -0.887451 0.501607 0.619683 -0.260929 0.351862 0.358642 -0.017768 0.223225 0.048246 0.487106 0.260560 -0.023094 0.695968 0.285255 -0.254899 -0.201698 -0.222794 0.315813 -0.086220 0.304992 0.305341 -0.059846 0.258845 -0.047665 0.092732 0.434430 -0.395312 0.287464 0.477197 0.718457 0.112685 0.070144 0.019131 -0.017516 0.147803 -0.150201 -0.201123 0.077924 -0.006974 0.013485 0.564872 0.773773 0.067247 -0.291177 0.143016 0.253226 0.148786 0.660140 0.254341 -0.095026 -0.020014 0.182971 -0.015579 0.565041 -0.370550 -0.575070 0.295311 -0.045132 0.091568 0.689548 -0.614119 -0.144802 -0.253939 -0.019348 -0.031464 0.744880
80 0.148891 -0.158622 -0.330128 0.152717 -0.241471 0.788586 0.187001 0.162987 0.330559 0.066760 0.116887 -0.301150 -0.675614 0.024298 0.557246 -0.427005 -0.552172 0.328077 -0.156038 0.211611 -0.050039 0.143457 -0.015120 0.058116 0.208925 0.297858 0.191065 0.249035 -0.122887 -0.074872 0.619987 -0.219170 -0.413379 0.183168 -0.174340 0.029014 -0.421304 0.153209 -0.186676 0.541143 -0.142562 0.116937 -0.203059 0.267251 -0.549562 -0.641924 0.662088 -0.741178 0.016971 0.006989 0.330106 0.312301 0.119944 -0.039177 -0.100157 -0.152707 -0.461134 0.161274 -0.280695 0.092982 0.331323 -0.370907 -0.464217 0.242980 0.028351 0.047489 -0.195273 0.271772 0.442729 -0.281405 0.377996 -0.064774 0.339495 -0.291680 -0.120234 -0.203357 -0.183222 -0.329130 0.273267 -0.098008 -0.307601 0.282792 0.047034 -0.052342 0.319108 0.048051 -0.293324 0.214539 0.059188 0.321898 0.673967 0.385597 0.175587 0.111906 -0.268134 -0.651019 0.496248 -0.128443 -0.035151 -0.305873 0.080251 0.233147 0.200695 -0.027535 -0.172835 -0.339022 0.093831 0.490241 0.338817 -0.435252 -0.036261 -0.027651 0.342575 -0.159724 -0.051623 0.454789 -0.087312 -0.445770 -0.049284 -0.150896 -0.067119 -0.046939 0.415220 0.271936 -0.425132 0.125592 0.020238 -0.023972
1 0.021438 -0.131594 0.216598 0.003060 -0.282505 0.578003 0.229230 -0.021634 -0.084775 0.470968 0.537770 0.526403 -0.353730 -0.459608 0.109100 -0.014317 -0.189372 0.620935 0.157568 -0.155667 0.171097 0.364031 -0.046226 0.014559 0.259112 -0.250336 0.425351 0.051118 0.486355 -0.251148 0.148581 0.020432 -0.594091 -0.054724 -0.117594 0.333730 -0.543691 -0.000317 -0.096535 0.680535 -0.455042 -0.125614 0.101655 0.408716 -0.117296 0.015363 0.183136 -0.722749 0.236098 -0.524278 -0.241843 0.566471 0.188361 -0.053834 -0.291014 -0.078085 0.027194 0.024785 -0.268950 0.158467 0.255136 -0.053120 -0.842774 -0.348996 -0.270609 -0.433146 0.119506 0.120146 0.005202 -0.313577 0.614791 -0.144698 0.559202 -0.431713 0.207853 -0.237538 0.180947 0.240906 0.115836 -0.051147 -0.330650 0.073429 -0.055784 -0.757828 0.418385 -0.000606 0.150152 -0.317815 0.164159 0.333279 0.838395 0.383325 0.351659 0.138300 -0.330594 -1.155203 0.396676 -0.482580 0.343087 -0.246033 -0.351200 0.119845 0.327929 0.065606 -0.191175 -0.343904 -0.526525 0.275822 0.432755 0.038225 -0.494982 0.195099 0.393593 0.332801 -0.595093 -0.126354 -0.741330 -0.008031 0.116708 0.298291 -0.186885 0.111298 0.648625 -0.022881 0.079870 -0.133697 0.173168 0.027345
2184 -0.357492 -0.373356 0.632238 -0.124864 0.123330 0.161355 0.005314 -0.215810 0.292901 0.295973 -0.520266 0.323409 -0.339560 -0.330845 0.223620 -0.085439 -0.494385 0.324978 0.030956 0.119612 0.197952 -0.525918 0.386316 -0.312338 -0.276402 -0.157924 0.437068 -0.252336 0.122820 0.110049 1.380768 -0.357407 -0.209605 -0.109181 -0.176322 -0.143528 0.100646 0.093088 0.306600 0.587208 0.002150 0.156228 -0.205743 0.330612 -0.171709 -0.135617 -0.213923 0.284943 -0.071679 0.139055 -0.048299 0.378549 0.116394 -0.126888 -0.218284 0.429562 0.546320 0.127115 0.034390 -0.006311 0.277933 -0.155583 -0.577277 -0.517137 -0.100938 -0.128731 -0.457921 0.172211 -0.218275 0.255956 0.318402 0.032636 0.179492 0.108813 -0.341618 0.305539 -0.056929 0.366552 0.567912 0.384554 0.378524 0.191364 0.229857 0.338482 -0.105102 0.140011 -0.030307 -0.355641 -0.182962 -0.378353 0.464889 0.522981 -0.279332 0.454071 0.144944 -0.494050 -0.131122 -0.076830 -0.189610 0.576009 0.182271 -0.120510 0.209581 0.322694 0.060791 -0.092090 -0.225415 -0.050031 -0.247083 -0.641532 -0.185884 0.098606 -0.327922 -0.553247 0.127615 -0.257920 -0.155760 -0.273446 0.374370 0.134488 0.065316 -0.304127 0.161709 -0.181997 0.035184 0.190636 -0.207217 0.013371
76 0.061426 0.191864 -0.762549 -0.157340 -0.433397 -0.016351 0.698631 -0.247729 -0.206225 0.029842 0.104300 0.343933 -0.110681 -0.422747 0.471703 0.380999 -0.157456 -0.044363 -0.790747 0.008795 -0.504773 0.487689 -0.197180 -0.202340 0.098700 -0.228022 0.597484 0.087144 -0.101857 0.202968 0.270822 -0.389057 -0.508915 -0.030804 0.161486 0.377651 0.303180 0.078983 -0.184162 0.144916 -0.442952 0.357369 -0.343200 -0.126575 -0.166506 -0.006245 0.698813 -0.293462 0.091393 -0.619513 0.552124 -0.004568 0.298950 0.523170 -0.339196 -0.546539 0.228133 0.013413 -0.153492 0.195502 -0.179583 -0.187727 -0.510786 -0.363980 0.836477 0.050469 0.118114 0.202561 -0.146025 -0.202113 -0.086359 -0.615272 0.325156 -0.214073 0.773664 0.267250 -0.349401 -0.040039 -0.827675 -0.048015 -0.004040 0.491775 -0.398476 0.015796 -0.319397 0.079019 0.157364 0.281849 -0.087913 0.095830 0.886424 0.656459 0.307840 0.381593 -0.507799 -0.656106 0.419099 0.146856 0.260590 -0.019615 0.065303 -0.061522 0.317847 0.090803 0.001159 0.138050 -0.119905 0.118984 1.024070 -0.330319 0.404499 -0.159653 0.155958 -0.189858 -0.247307 0.613434 -0.475554 -0.139733 0.111303 0.096847 -0.397312 -0.363911 0.263808 -0.226976 0.367974 0.081154 0.188813 -0.041902
42 -0.354147 0.102818 0.201068 0.260473 0.266602 0.012134 -0.270031 -0.475178 0.002987 0.344568 0.325663 -0.043581 -0.333449 0.010855 0.338819 0.256798 0.105788 0.134281 -0.642392 0.222416 0.175956 -0.434241 0.272860 -0.130493 -0.132253 -0.166096 0.456506 -0.005373 -0.222695 0.425613 0.409958 -0.065941 -0.218370 0.636866 -0.317450 0.154608 0.153666 0.385641 0.669509 -0.090476 0.028292 0.418127 -0.289078 -0.048572 -0.136338 0.130072 0.026519 -0.018582 -0.161862 -0.269255 0.144168 0.161807 -0.032909 -0.287648 0.041459 -0.060614 0.306768 0.452848 0.111103 -0.244584 0.143279 -0.136822 -0.003181 0.193391 -0.062550 0.264422 -0.260734 -0.419354 0.129206 0.045619 0.277863 0.193085 0.193083 0.052272 0.087959 0.097677 -0.417966 0.327656 0.555685 0.395632 0.445994 0.269152 0.177853 0.128428 -0.139613 0.359493 -0.231247 -0.058493 0.529540 -0.352705 0.354803 0.369847 0.026194 0.314609 -0.188645 -0.246753 -0.064732 -0.204142 -0.179220 -0.223977 -0.249254 0.005154 -0.006878 0.266705 0.469971 0.145116 0.062416 -0.251680 -0.272153 -0.551196 -0.019533 -0.351723 0.164812 0.139490 -0.343171 -0.013486 -0.325252 0.331512 0.389434 0.300577 0.235881 -0.465845 -0.015212 -0.470377 -0.279036 -0.172597 0.148362 0.058088
37 0.032829 -0.098881 -0.098137 0.529323 -0.240138 0.306909 -0.211459 0.018776 0.548395 -0.226380 -0.194359 0.522338 -0.220988 -0.218647 0.043659 -0.104929 -0.825703 0.369520 -0.237725 0.073446 0.035327 0.058565 -0.547760 -0.028618 0.359924 0.198966 0.543277 -0.073131 0.032469 -0.180609 0.176038 -0.284370 -0.522728 0.018273 -0.403664 -0.147277 -0.274215 -0.036248 -0.037621 0.431651 -0.263226 0.215920 -0.154029 -0.493869 -0.710761 -0.471615 0.802366 -0.190521 -0.207039 -0.657594 0.350114 0.363610 0.443721 -0.015532 -0.365137 -0.098601 -0.167635 -0.486024 -0.471669 0.518198 0.441068 -0.267847 -0.280210 0.041730 0.163651 0.134489 -0.007257 -0.059360 0.701506 0.054638 0.447562 0.295388 0.227858 0.202872 0.167832 -0.419812 -0.253639 -0.046321 -0.179223 0.374625 -0.517848 0.102127 0.133583 0.105516 0.088771 0.205542 -0.109873 0.112539 0.216588 0.185873 0.610535 0.186776 0.108169 0.382893 -0.532641 -0.591123 0.160247 0.016459 0.129096 -0.210831 0.031215 0.124667 0.501490 0.089508 -0.227211 -0.270236 0.690610 0.017792 0.239048 0.268096 -0.218409 0.404965 -0.053247 -0.315693 0.070922 0.768716 -0.173675 -0.032455 0.201653 -0.173994 -0.404083 -0.167224 0.275765 0.325556 -0.385296 -0.382699 0.246977 -0.465979
63 -0.285069 0.308430 -0.054074 0.112904 0.111524 0.268978 0.221237 -0.228411 0.291866 -0.260718 -0.594964 0.071427 -0.284652 -0.095201 -0.275219 0.027431 0.099643 0.100726 -0.318540 0.217909 -0.311535 0.310094 0.044715 0.415512 0.124962 0.114014 0.004538 0.152202 -0.332769 0.299834 -0.116454 0.261160 -0.567396 0.353212 -0.524337 -0.036659 -0.077600 -0.492677 0.355816 0.053126 -0.357561 -0.047617 0.143405 -0.341971 0.032667 -0.209542 0.751506 -0.875652 0.064409 0.266191 0.027396 -0.112735 0.523370 -0.046953 -0.288490 -0.159631 0.187482 0.415683 0.125997 0.119054 -0.518100 -0.159135 -0.216058 0.043568 0.224311 0.246800 0.270129 0.031548 -0.020073 0.340928 0.340361 0.212349 -0.195697 0.114036 0.130927 -0.064126 -0.159545 -0.006666 0.609785 0.411765 0.445209 -0.048383 0.222773 -0.134617 -0.021978 -0.113781 -0.160391 0.104750 0.085044 -0.092770 0.362912 0.381172 -0.570815 0.238585 -0.188621 -0.339644 -0.093776 -0.095286 -0.048541 0.056386 0.157700 0.210123 0.730070 0.357540 -0.180352 0.077843 -0.230207 -0.571379 0.085732 0.451337 -0.267601 -0.052230 0.050890 0.184591 -0.137836 -0.245752 0.170458 -0.082694 0.273039 0.023489 -0.041297 -0.024650 -0.290774 -0.005051 0.480545 0.111493 0.139565 -0.175541
723 -0.551891 -0.027381 -0.031965 0.340257 -0.223461 -0.344357 0.534713 0.156028 0.062079 0.140581 0.130258 0.445606 -0.141751 -0.417583 0.442820 -0.288833 -0.284974 0.546471 -0.600622 0.090269 -0.275936 -0.188987 -0.251155 -0.247705 0.118987 -0.631070 -0.138314 0.202861 -0.358733 0.741468 0.544826 -0.324742 0.307721 0.555953 0.022859 -0.213640 0.400716 0.380338 0.415860 0.267506 0.182315 0.368860 -0.051068 -0.155804 0.031516 0.193934 0.238304 -0.101905 0.215432 -0.358547 0.295728 0.113501 0.088902 -0.029555 0.635242 0.133730 0.102387 0.092490 0.113361 0.114269 0.024881 -0.069420 -0.975221 -0.249873 -0.172258 0.529363 -0.023018 -0.343722 0.264028 0.261419 0.385622 0.437793 -0.218422 0.782344 0.412952 0.362550 0.225950 0.412383 0.900330 0.399190 0.545352 0.049403 0.444494 -0.084366 -0.572099 0.377441 -0.649996 -0.008849 0.220394 -0.336322 0.123679 0.295065 -0.023957 0.508158 0.025126 -0.163927 0.078174 -0.266748 -0.006858 -0.482389 -0.240925 -0.138598 0.099358 0.390984 0.585665 0.329554 0.288256 -0.343691 -0.022779 -0.582832 0.088126 -0.327065 0.099190 0.382133 -0.018037 -0.175749 -0.122384 -0.285315 -0.449242 -0.317349 0.272903 -0.503300 0.207670 -0.722051 -0.932176 0.233553 -0.100308 -0.259206
104 0.341445 -0.467753 0.320316 -0.359271 0.324136 -0.039393 0.145529 0.078485 -0.383062 -0.003294 -0.196040 0.351956 -0.160641 0.130939 0.424288 -0.065287 -0.388404 0.337322 -0.550830 0.619030 0.420084 0.114136 -0.054488 -0.209188 0.606808 0.112738 0.001429 0.175735 -0.182351 0.709288 0.203072 -0.330747 0.036009 0.253617 0.503218 0.465308 0.792159 0.056073 0.140959 -0.368860 -0.038208 0.523210 0.904103 0.098608 -0.416405 -0.357504 -0.057107 -0.637913 -0.533824 -0.426199 -0.198261 -0.072440 0.210627 0.143878 -0.487350 -0.014629 0.118998 -0.210153 0.518793 0.206382 0.339716 0.251825 -0.317801 -0.063899 -0.450606 0.424320 -0.179515 0.056116 0.159744 0.040061 0.566997 0.149195 0.292926 0.001226 -0.312593 0.109516 -0.070970 -0.353925 0.171166 0.041294 0.258553 -0.154984 0.311577 -0.359119 -0.334949 0.069404 0.515024 0.426588 -0.046724 0.445747 0.097007 -0.380347 -0.329392 -0.101882 0.102238 0.295637 0.562114 -0.107182 -0.406901 0.229604 0.208174 -0.127434 0.298298 0.599076 0.426616 0.078520 -0.116159 -0.242783 0.090532 0.044617 -0.461561 0.140101 -0.048719 0.562675 -0.364734 0.264532 -0.774108 -0.269196 0.386409 -0.456074 -0.128221 0.073386 -0.050305 -0.414151 -0.035486 -0.485998 -0.498828 0.281293
98 0.119138 0.178135 -0.042590 0.404160 -0.168144 0.077434 0.726917 -0.050502 -0.125147 -0.149615 -0.093018 -0.192156 -0.506923 0.155515 -0.244238 -0.087198 -0.173566 -0.181017 0.339949 0.871681 -0.935765 -0.021559 -0.463260 0.352549 -0.664297 -0.440674 -0.556407 0.740296 -0.311854 0.605810 0.032240 0.169291 0.094744 0.127439 -0.364794 0.559192 -0.332895 -0.229235 0.153765 0.367138 -0.517248 0.454469 0.452880 -0.540913 -0.390637 0.313307 0.498768 -0.360246 -0.136533 0.450518 -0.492548 0.414833 0.545947 -0.464191 0.363319 -0.224849 -0.086569 0.182337 0.203835 0.089947 -0.442102 -0.469856 -0.335836 -0.295070 0.075170 -0.059807 0.558582 0.056594 -0.098862 0.288715 0.180942 0.071517 0.408456 0.525569 -0.311577 0.324916 -0.094786 -0.087951 0.807999 0.234912 0.422282 -0.241793 0.556999 -0.071620 -0.129777 0.092394 -0.279797 -0.022331 -0.137900 0.080037 0.443365 0.214597 0.041128 0.238467 -0.404343 0.153144 0.143088 -0.713091 0.216927 -0.229703 -0.082769 -0.183168 0.743150 0.040718 0.038893 0.577024 -0.104633 -0.057885 -0.112747 0.443179 -0.165273 0.309447 -0.201794 -0.204456 0.316583 -0.186938 -0.646866 -0.602623 0.551039 0.170050 0.139999 0.338093 0.061299 -0.384007 -0.017222 0.259850 0.148992 0.179621
85 0.143712 0.222179 -0.006346 0.539195 -0.750515 -0.116614 0.092280 -0.087416 -0.203681 -0.606592 0.099556 0.232864 -0.539382 -0.051957 -0.043731 -0.156174 -0.526458 0.214131 -0.253024 0.412555 0.026622 0.522530 -0.160021 0.058192 0.263686 -0.208716 -0.146222 -0.004157 -0.389478 0.324654 0.012422 -0.562743 -0.216586 -0.050695 0.004717 0.206377 -0.540105 0.259415 0.595626 0.498120 -0.288905 0.179408 -0.070914 -0.110170 -0.343836 -0.302128 0.154789 -0.639847 0.087914 -0.315027 0.349080 0.332275 -0.067250 0.772965 -0.107176 -0.359768 0.454517 0.148271 0.539161 0.065202 0.286261 -0.357851 -0.364137 0.129662 0.469068 0.365375 -0.214498 0.348640 0.134831 -0.240879 0.194442 0.007775 0.377152 0.096285 -0.329054 -0.433017 0.405362 -0.195003 -0.172407 0.180200 -0.016562 0.611318 0.027831 -0.118917 -0.441050 0.042955 -0.787599 0.127395 0.252566 -0.016293 0.491840 0.321581 0.076999 0.115010 -0.192502 -0.043230 0.934244 -0.453502 -0.002475 -0.476293 -0.019397 -0.062498 -0.279569 -0.172266 0.300794 0.258968 -0.085871 0.117423 0.868990 0.145104 0.024074 0.350024 -0.417030 0.376326 -0.244022 0.426907 -0.104114 -0.688225 0.239365 -0.298962 -0.295538 -0.166160 0.281496 0.274075 -0.510836 0.294107 0.042451 -0.164647
16 0.435436 -0.153929 0.563177 0.172633 -0.345217 -0.068501 0.249389 -0.182416 0.098051 0.082329 -0.111504 0.120172 -0.065804 0.430955 0.616380 -0.528107 -0.414327 -0.168163 -0.578510 0.232391 -0.061529 -0.193076 0.663236 -0.539136 0.248568 0.049583 0.499966 0.057762 -0.555933 0.172769 -0.396608 -0.236578 -0.399032 0.405342 0.897388 0.491373 0.471264 0.079441 0.026935 -0.140365 -0.544042 0.526917 0.228720 0.718884 -0.450812 -0.301198 0.019610 -0.472592 -0.540652 -0.064086 0.577346 0.183932 0.114304 -0.176095 0.066471 0.568670 -0.510495 0.081315 -0.055323 0.064613 -0.572031 -0.561519 -0.714880 0.222966 -0.116835 0.106186 -0.164842 0.419670 -0.196802 -0.445878 0.107967 -0.147372 0.522327 -0.248422 0.529965 0.207163 -0.111591 0.011891 0.278783 -0.035409 0.050515 -1.040758 -0.086599 -0.577346 -0.111476 0.094118 -0.083607 -0.262116 -0.068118 0.168940 0.481394 0.010938 -0.446276 -0.007723 -0.369805 0.076033 -0.024294 0.038357 0.329730 -0.003051 0.437149 -0.234454 0.455195 0.388015 0.094800 -0.690199 -0.291268 -0.121848 -0.174643 0.264197 0.042565 0.465575 -0.403574 0.419298 -0.303644 0.488154 -0.897578 -0.087532 0.341558 0.007220 0.436870 -0.261762 -0.428563 -0.014831 -0.017548 -0.004640 -0.032102 0.302785
58 0.273761 0.046665 0.083137 -0.157373 -0.121252 0.272071 0.317943 0.235228 -0.218647 -0.200134 -0.521377 -0.192277 0.199357 0.076419 0.131774 -0.357539 -0.003691 0.541098 0.399739 0.294456 -0.677630 -0.211008 0.162500 0.149931 0.081789 0.118123 -0.009858 -0.273692 -0.664371 0.402700 0.374849 -0.201780 -0.607338 -0.243180 -0.095901 -0.575767 -0.278454 -0.130677 0.045274 0.043065 -0.722703 0.010691 0.253404 -0.009213 -0.470781 -0.663669 0.193488 -0.144438 0.198679 0.109542 -0.272454 0.071786 0.771072 -0.146118 -0.386796 0.116744 0.218435 0.780563 0.435004 0.169983 -0.169878 -0.175637 0.017979 -0.176340 0.426040 0.226780 0.762695 -0.319219 -0.086354 0.553363 0.076343 0.426175 -0.174387 0.080846 -0.043003 0.060288 -0.304402 0.367337 0.276472 0.093749 0.631248 -0.421856 -0.167806 -0.083846 -0.106211 0.182169 0.369383 0.297585 -0.296106 0.168314 0.564798 0.047618 -0.114635 0.255816 0.059377 -0.033535 -0.433867 -0.576092 0.216372 -0.136485 -0.199418 0.145788 0.793666 0.098244 0.360597 -0.053490 -0.608103 0.000528 0.002270 1.003713 -0.658313 0.262727 -0.046798 0.152326 -0.648942 0.116366 -0.363933 -0.176573 0.219895 0.124714 0.190911 -0.065076 -0.236454 -0.422978 0.214993 0.249593 0.616164 -0.249952
86 0.241593 -0.269088 0.733578 0.185480 0.228913 -0.642983 0.075248 -0.352384 -0.221704 0.073162 -0.118377 0.326865 0.131930 -0.655939 0.681029 -0.165416 -0.022691 0.166880 -0.040239 0.355573 0.064974 -0.137916 0.193226 -0.497940 0.319302 -0.279437 -0.236159 -0.146680 -0.550947 0.105867 0.178379 -0.012743 -0.595062 0.231196 -0.109012 0.244823 0.664723 0.150236 0.333899 -0.474115 -0.226731 0.031761 0.112454 0.268997 -0.393880 -0.151427 0.390661 -0.785169 -0.191030 0.333340 0.125080 0.591579 -0.049251 0.257005 -0.549456 -0.548185 0.329539 0.150937 -0.022911 0.022769 -0.333328 -0.068829 -0.658842 -0.188093 -0.774441 0.300722 -0.256715 -0.046546 0.253035 0.164087 0.199630 -0.292755 0.144629 0.367728 0.297132 0.123412 -0.542577 -0.460874 -0.342622 0.345314 0.216911 -0.624981 -0.083702 -0.002903 -0.131483 0.086122 0.219899 0.240961 -0.248526 0.185574 -0.075008 0.250468 -0.408571 0.402313 -0.284967 0.513621 0.063066 0.613126 -0.556494 -0.235677 0.111839 -0.500469 0.377043 -0.050973 0.251861 -0.297658 -0.149275 0.352246 -0.129006 0.164232 -0.683563 0.829604 -0.160449 -0.643986 0.104154 0.483808 -0.544479 0.451467 0.669938 -0.141240 -0.331235 -0.009341 0.190225 -0.169186 -0.323805 0.210096 -0.215311 -0.282707
87 0.000695 -0.145737 -0.037583 -0.039658 -0.318416 0.546298 -0.113403 -0.355254 0.055891 0.180693 -0.111340 0.438795 -0.364547 -0.204743 0.076487 0.032661 -0.416738 0.135547 -0.186789 -0.061623 0.101270 -0.126293 -0.230689 0.009028 0.011126 0.120148 0.317746 0.454174 -0.124447 -0.321526 0.191199 -0.080715 -0.493803 -0.145548 -0.033519 -0.227463 -0.045363 -0.020691 -0.143446 0.699573 0.030755 0.054810 0.180201 0.025046 -0.565990 -0.634438 0.636054 -0.097421 -0.128981 -0.466934 0.068008 -0.029116 0.346889 -0.166487 -0.245425 -0.148665 -0.213860 0.218535 -0.028625 0.095793 0.301257 -0.269692 -0.369502 0.189075 0.424948 0.246749 -0.025753 0.037379 0.273856 -0.126490 0.351144 -0.211578 0.149088 -0.053656 -0.177340 -0.358521 -0.071544 -0.213573 0.130320 0.011334 -0.588839 0.325119 -0.064493 0.101776 0.241269 0.178953 -0.185077 0.106369 0.211136 0.253204 0.205241 0.551281 0.190385 0.227333 -0.267388 -0.516532 0.445164 -0.138978 -0.214375 -0.187353 -0.021242 -0.013670 0.245571 0.142809 -0.192269 -0.065191 0.246359 0.069266 0.412476 -0.223156 -0.336978 0.506925 -0.021156 -0.217419 -0.344299 0.525514 -0.190240 -0.140095 0.307382 -0.177741 -0.210131 0.203277 -0.031928 0.164476 -0.607445 0.088562 0.229988 -0.343678
2158 -0.859265 0.068779 -0.247126 -0.124722 -0.161411 -0.147899 0.072682 0.024672 -0.109918 -0.315182 -0.596238 0.386083 0.165329 0.030042 -0.422323 -0.436233 0.066146 0.227356 -0.457557 0.732807 -0.104212 0.344752 0.135486 0.119309 -0.049676 0.116149 0.097459 0.336180 -0.411523 0.248613 -0.013323 0.412972 -0.307267 0.491848 -0.486285 -0.313444 -0.062479 -0.762488 0.900068 0.139437 -0.320511 0.179306 0.206191 -0.090618 -0.267800 0.087977 0.660355 -0.948898 0.273394 0.181926 -0.011234 -0.416277 0.256620 -0.134890 0.131060 0.000459 0.066753 0.044846 -0.210584 0.322263 -0.237341 -0.339894 -0.160863 0.041861 0.128687 -0.034614 0.174706 -0.187908 -0.010232 0.652165 0.146549 0.055469 0.065260 0.230100 0.247114 0.193556 0.074158 0.006420 0.414443 0.040562 0.517475 -0.113340 0.476724 -0.333216 -0.205585 0.382050 -0.438621 0.582258 0.466845 -0.237387 0.177689 0.167708 -0.495979 0.030680 -0.692171 -0.505975 -0.250140 -0.350012 0.264830 -0.172878 -0.240862 0.264412 1.208275 0.072390 -0.217368 0.072035 -0.092655 -0.393239 0.135297 0.299439 -0.318626 -0.133312 0.216070 0.064503 0.181873 0.041716 0.188250 -0.472730 0.099354 -0.179874 -0.290103 0.390447 -0.346195 -0.309402 0.012168 -0.111023 0.191664 -0.516726
666 0.340850 0.129592 0.624666 0.617957 0.150765 -0.040344 0.109137 -0.154839 -0.384175 -0.011470 -0.271155 0.041645 -0.038299 -0.068761 0.499239 -0.449599 -0.264256 0.345376 0.431107 0.304911 0.300788 0.017272 0.745164 -0.314887 0.406383 0.323177 -0.457758 0.655528 -0.180682 0.494731 -0.010763 -0.377053 -0.843712 0.218526 0.225010 -0.250045 0.113832 0.114793 0.317440 -0.844138 -0.776164 0.697035 0.044457 0.494103 -0.460741 -0.253906 0.436379 -0.501686 -0.535370 0.298679 -0.365440 -0.241306 0.306717 0.010977 -0.057861 0.404583 0.810706 0.445989 -0.327588 0.429461 -0.014630 -0.193458 -0.131510 -0.066207 -0.158690 -0.168340 -0.638165 -0.258649 -0.382310 -0.019537 0.793429 -0.453553 0.197852 0.232068 0.492975 -0.012465 -0.229606 0.095530 -0.036683 0.030203 -0.117081 -0.603100 -0.765713 0.169669 0.190234 0.504897 0.191325 0.298388 0.136819 0.012658 -0.439588 0.293854 0.044785 0.106747 -0.114013 -0.407608 0.141846 0.112625 -0.575760 -0.079135 0.635512 -0.113390 0.144372 0.376816 0.133177 0.143697 -0.073748 -0.256686 -0.290734 -0.242847 -0.188589 0.817727 -0.486543 -0.329430 0.191009 0.844093 -0.428816 -0.519508 0.364526 0.097790 -0.098691 0.480350 -0.006087 -0.350401 0.078329 -0.105047 -0.879300 -0.185783
1836 -0.383939 0.395682 -0.137337 0.862876 0.561718 -0.387242 0.053253 -0.370480 -0.228598 0.373140 -0.033282 -0.269911 0.020552 -0.198541 0.243470 0.008209 -0.034198 0.024962 -0.102058 0.224639 0.163413 -0.603317 -0.175059 -0.633929 0.492587 -0.632275 0.078665 -0.363905 -0.508676 0.674711 0.801273 0.128817 -0.150758 -0.094724 0.205774 -0.088887 0.193415 0.345844 0.410466 0.720911 0.086202 0.231004 0.101988 0.067288 -0.488999 -0.548728 -0.497856 -0.238613 -0.093740 -0.496997 0.122262 0.084515 0.048166 -0.207827 -0.061202 -0.129164 0.121693 0.201043 0.163280 -0.458500 -0.083309 -0.075803 -0.372294 -0.119832 0.327129 0.086479 -0.259113 0.357591 -0.068450 -0.028063 -0.264702 -0.171530 -0.336484 0.281613 -0.124037 0.214834 -0.418171 0.430394 0.610768 0.584906 0.756410 -0.147975 0.002145 0.154546 -0.110124 0.215628 0.303473 0.198897 0.416674 -0.261130 0.155520 0.556404 0.215140 0.521623 0.070388 -0.116316 -0.521994 0.148266 -0.244506 -0.374597 -0.245873 0.166602 0.316466 0.317931 0.860373 -0.496397 -0.134863 -0.471219 -0.174631 -0.152648 -0.324399 -0.247225 -0.038642 0.303257 -0.563083 0.039025 -0.172696 -0.062179 0.067238 -0.059391 -0.025202 -0.272318 0.486196 0.058337 -0.102729 0.200911 0.030656 -0.291750
178 -0.195438 0.380929 0.069238 0.587359 0.123571 -0.076820 0.228050 -0.022436 0.135740 -0.002659 -0.418867 0.089301 -0.231227 -0.007487 -0.149589 -0.195925 0.252247 0.566650 -0.210513 0.650781 0.090437 0.272973 -0.665325 0.493020 0.539180 -0.359213 0.081880 -0.414900 -0.630479 0.806451 0.025552 -0.136482 0.072772 0.170824 0.321733 -0.046784 -0.000506 0.409550 0.051154 0.242910 -0.510582 0.213371 0.296596 -0.541654 -0.433350 -0.655030 0.141269 -0.537459 -0.456913 0.159244 -0.124930 0.006711 0.282396 -0.385881 0.102688 -0.424695 -0.137597 0.740794 0.271154 0.147680 -0.054067 -0.647657 -0.595621 -0.476993 -0.001840 0.339317 0.605806 0.189083 -0.001778 0.356291 0.065563 -0.210554 -0.173960 0.362811 0.390688 0.137637 0.513577 -0.034242 0.568142 -0.117814 0.234816 -0.075068 0.429308 -0.180810 -0.141083 -0.356548 0.212508 0.313227 0.066269 0.146899 0.325528 0.300773 -0.153944 -0.082228 0.315469 -0.130070 -0.246975 0.251365 0.059635 -0.042887 0.076989 0.093574 0.579829 0.330293 0.155300 -0.048449 -0.503461 -0.699040 0.171545 0.377115 -0.211598 -0.148634 -0.404767 -0.332928 -0.096776 0.122460 0.237857 -0.315252 0.709152 -0.166428 0.019691 0.348836 0.044466 -0.417752 0.346028 0.074707 0.487724 0.076067
64 0.534510 -0.069755 0.052843 0.194393 -0.103629 0.729574 0.062695 -0.142305 -0.181168 0.329396 -0.281952 0.032450 -0.077170 -0.129376 0.062602 0.375702 -0.015639 0.354157 -0.131259 -0.292174 0.517363 0.250613 -0.151911 -0.426763 -0.124027 0.020861 0.457777 0.191577 -0.457895 0.057184 -0.299658 -0.459132 -0.589494 -0.802399 -0.111120 -0.172278 -0.450170 -0.088759 -0.212632 -0.043191 -0.236680 0.178979 -0.181052 -0.150515 -0.742350 -0.448438 0.088473 -0.628721 0.141381 -0.399262 0.308360 0.028619 0.490597 -0.083870 -0.454264 -0.182800 -0.479405 -0.173452 -0.232834 0.007279 0.160657 -0.312592 -0.367055 -0.112424 0.598887 -0.671231 0.133575 0.097306 -0.080908 -0.012736 0.794467 0.242736 0.268609 0.122024 0.141198 0.313772 -0.643862 0.373861 0.096267 -0.149677 0.262981 0.411463 -0.182639 -0.380843 -0.056534 -0.171319 -0.288728 0.001054 -0.269846 0.867135 0.502945 0.669893 0.177312 0.200775 0.212353 -0.089785 0.332237 -0.194837 -0.948966 -0.548632 -0.458350 0.202367 0.494661 -0.101257 0.580201 -0.056570 0.091048 0.464861 0.342949 -0.552254 -0.201637 0.288921 0.091397 0.060749 -0.127615 -0.064541 -0.527833 -0.180141 0.379760 -0.498288 -0.527727 0.461310 0.701224 0.380451 -0.141724 0.336105 0.401682 0.172242
38 0.217401 -0.483584 0.262588 0.207792 -0.007429 -0.184116 -0.156592 -0.215413 -0.389025 -0.416653 -0.466139 0.178268 -0.157511 -0.033260 0.262943 -0.488647 -0.278537 -0.135213 -0.425317 0.306661 0.517787 -0.068962 0.314627 -0.292243 0.090971 -0.010939 -0.199606 0.413219 -0.132893 0.544644 -0.045479 0.175938 -0.672420 -0.146744 0.335103 0.198732 -0.023983 -0.363212 0.208412 -0.747474 -0.120358 0.400286 0.118565 0.255875 -0.418109 0.110498 0.376427 -0.324638 -0.079502 0.258608 0.013436 0.325945 0.305960 -0.057148 -0.081497 -0.225427 0.115662 0.142641 0.135231 0.431619 -0.094615 0.195051 0.146900 -0.404087 -0.441255 0.142731 -0.088357 0.215823 -0.294038 0.077211 0.963707 -0.281777 0.371959 0.414220 0.381583 -0.133018 0.473631 0.124343 -0.298912 0.120174 0.279539 -0.422040 -0.260838 -0.263614 -0.121237 0.261469 0.424496 0.466411 -0.064359 -0.538689 -0.085906 0.006577 -0.137972 -0.065778 0.237255 0.168394 0.444789 0.149444 -0.736756 -0.086352 0.197167 0.080618 0.503738 0.281751 0.490982 -0.228311 0.087205 0.241032 0.161712 -0.303581 -0.004145 -0.232000 -0.248680 -0.229412 -0.505543 0.352485 -0.851709 -0.054849 0.346101 -0.299938 -0.008144 -0.539021 -0.302504 -0.246405 -0.467633 -0.387632 -0.068361 -0.070386
49 -0.195782 -0.440386 -0.048584 0.124867 0.007046 0.623414 -0.263964 -0.739455 -0.375480 -0.694553 -0.481986 -0.019489 -0.499783 -0.473034 0.293689 -0.139025 -0.008651 0.556737 -0.217479 0.611754 0.432907 -0.404934 0.080361 -0.598933 -0.040533 0.025477 0.416386 -0.345195 -0.342356 0.123843 0.388000 0.228963 -0.053138 -0.143708 0.407133 0.180198 -0.012427 0.708561 0.153538 0.015830 0.519809 0.276104 -0.207558 0.310960 -0.435933 0.144788 -0.152818 0.387507 -0.678826 0.337575 -0.057375 -0.003537 0.278867 0.062120 -0.425831 0.032120 0.474018 0.656679 -0.514183 -0.345720 0.320445 -0.480253 -0.560744 -0.423783 0.235751 -0.347001 -0.519874 -0.211534 0.224015 0.428144 0.207568 -0.030123 -0.051035 0.457227 0.070705 -0.160799 0.082995 -0.112186 0.140472 0.578455 -0.014985 0.018313 -0.630309 -0.407478 -0.746628 -0.513981 0.517597 -0.364809 0.576249 -0.230265 0.229848 0.260407 -0.705783 0.739890 0.221672 -0.303345 -0.602039 -0.862271 -0.164117 -0.198327 -0.333793 -0.063917 0.194988 0.517102 0.634083 0.113624 0.589846 -0.262294 0.064419 -0.540538 0.193581 -0.246705 0.545780 0.302623 -0.298818 0.387478 -0.121650 -0.417020 0.134003 0.288827 -0.282744 0.467312 -0.192589 -0.429286 -0.381210 -0.399948 0.330887 -0.278026
91 0.188257 -0.312022 0.740543 0.289015 0.305702 0.099351 -0.068439 -0.379425 0.499248 -0.010729 -0.227481 -0.391895 0.053857 -0.807133 0.643238 -0.495295 -0.361431 0.588848 -0.468498 -0.275802 -0.466398 0.435373 0.081982 -0.333642 0.009552 0.040857 -0.329247 -0.289996 0.026243 0.540506 0.597929 0.363028 0.016003 0.665992 -0.042658 0.489627 -0.267275 -0.014928 0.290520 0.505727 0.594513 0.380349 0.120974 0.186419 -0.218312 0.197098 0.647729 -0.876981 0.294688 -0.385180 0.191356 0.235455 0.008307 -0.003608 0.165882 -0.178527 -0.107765 0.294570 -0.633063 0.191831 -0.138107 0.076526 0.180870 0.381473 0.626288 0.347691 0.549021 -0.984343 -0.456324 -0.436643 0.439743 -0.004466 0.938450 0.485775 0.269992 0.135518 0.246172 -0.571064 -0.139494 -0.130437 0.220261 0.948447 0.027650 -0.476649 0.085106 0.054452 -0.087595 -0.493198 -0.386495 -0.625539 0.436452 0.094001 0.688830 0.321564 0.383219 0.452625 -0.413459 0.087967 0.170775 0.105211 0.205949 -0.007295 0.921177 0.258638 0.859725 -0.412378 0.261865 -0.103749 -0.675891 -0.516111 0.022779 0.643231 0.328677 -0.244099 -1.331416 -0.209910 -0.087151 -0.169481 0.220287 -0.534241 0.254541 0.188211 -0.629153 0.643298 0.687829 -0.691205 -0.235198 -0.268837
83 0.010445 0.221009 -0.230143 0.046749 -0.098819 -0.114753 0.054445 -0.067692 0.244995 0.200134 0.009437 0.106183 -0.187119 -0.860007 0.124255 -0.146608 -0.732670 0.204379 0.114587 -0.588631 0.253336 -0.424598 0.224032 -0.027694 0.226963 -0.458501 0.297027 0.024320 -0.282823 0.537067 0.402232 0.186645 -0.339889 0.379914 -0.236826 0.460507 0.176435 0.540020 0.662138 0.181259 0.681215 0.689962 -0.181818 -0.058154 0.254506 -0.235586 0.047757 0.208514 -0.098649 -0.481210 0.443538 -0.089576 0.422540 -0.023966 0.168851 0.517478 0.241234 0.290379 -0.053944 -0.361082 0.233557 -0.404399 -0.544342 -0.062264 -0.361109 0.043646 0.177815 0.211333 -0.547711 0.097136 -0.000338 -0.237191 0.255816 0.089400 0.013351 0.053554 -0.142794 0.589164 0.394306 0.353198 0.132068 0.027926 0.222843 -0.086145 0.237871 -0.217217 0.165076 0.114901 0.560896 -0.429664 0.450507 0.100243 -0.399344 0.372157 -0.271689 -0.055159 -0.043052 -0.029561 0.050508 -0.312817 0.025543 -0.238307 0.282319 0.399594 0.863794 0.142810 0.608484 -0.279413 0.042193 -0.178350 -0.276802 -0.398320 -0.045825 0.117990 -0.355762 -0.330038 -0.035766 -0.333241 -0.385384 -0.186141 0.087505 -0.182471 0.266660 -0.528264 -0.328689 0.114129 -0.116710 -0.371232
124 0.055961 -0.782611 0.634877 0.235770 0.218356 0.115973 -0.285103 -0.465405 0.047694 -0.550453 -0.470372 -0.439268 -0.143546 0.175172 -0.309207 -0.165247 0.182944 0.136509 -0.812190 0.125425 -0.461124 -0.220791 0.235334 -0.167270 -0.489922 -0.387007 0.259667 0.048094 0.042019 -0.136572 0.425779 -0.504220 0.251896 -0.585957 -0.013676 0.343211 -0.827932 0.131869 0.284722 -0.102070 -0.036718 0.096755 0.329112 -0.014015 -0.346653 -0.009358 0.971341 -0.730353 -0.461451 -0.454301 0.542223 -0.604052 0.249448 0.056759 -0.468639 -0.705950 0.345828 0.305409 0.003630 0.165621 -0.285618 -0.304365 -0.393859 -0.168710 0.100346 -0.437180 0.091144 0.706843 0.170641 0.193497 -0.290999 0.454413 1.030529 0.055469 0.543455 0.660659 -0.213676 0.410786 0.398702 0.689031 0.181753 -0.122429 -0.100051 0.021162 -0.102269 -0.013352 0.715113 0.087808 0.407232 0.113980 0.013798 0.141677 0.896398 0.012998 -0.370241 -0.802254 0.365375 -0.200300 0.033077 0.040800 0.285285 0.181489 -0.120480 0.631627 0.845576 -0.724454 0.604544 0.222685 0.364626 0.295872 -0.038225 -0.265689 -0.155142 0.395146 -0.432708 0.328759 0.818926 -0.186171 0.264987 0.166818 -0.035311 0.587524 -0.262638 0.101844 -0.613988 -0.442958 0.064030 0.803196
813 -0.208971 0.271284 0.643903 0.108483 0.078915 -0.340705 -0.040129 -0.453031 -0.311612 0.347096 0.027943 0.475873 -0.530908 0.231466 0.274415 0.141537 0.038490 0.082230 -0.911724 -0.010271 0.046651 -0.379068 0.098166 -0.049705 -0.153083 0.342761 0.451412 -0.150376 0.178029 0.197127 0.470575 -0.021053 -0.238126 0.658282 -0.334857 0.066418 0.253218 0.612264 0.880778 0.044853 0.192593 0.690481 -0.184510 -0.012723 -0.188054 0.241547 0.346157 -0.189511 0.067224 -0.306660 0.630353 0.048670 0.047784 -0.206048 0.168839 0.131196 0.592975 0.499355 -0.077948 -0.283464 0.197344 0.071622 -0.265387 -0.089421 0.089662 0.285959 -0.416799 -0.240194 -0.084325 -0.141872 0.042317 0.230652 0.468862 -0.129919 -0.015783 0.078389 -0.446301 0.372533 0.490616 0.211866 0.414194 0.185401 0.315974 0.438677 -0.152096 0.479750 -0.216641 -0.186769 0.639404 -0.135440 0.318451 0.105015 0.018312 0.579453 -0.314772 -0.245801 0.030311 0.038796 -0.048154 -0.202093 -0.131971 0.081299 -0.090997 -0.148481 0.577744 0.075097 0.018027 -0.374787 -0.396097 -0.593614 -0.031060 -0.554511 0.259377 0.302545 -0.180299 -0.221456 -0.478525 0.277478 0.473475 0.153882 0.391997 -0.238778 -0.082799 -0.726549 -0.053232 -0.443595 0.221493 0.143235
864 0.082679 0.268607 0.133296 0.652596 -0.975966 -0.173631 0.104930 -0.039290 -0.124757 -0.655360 0.167707 0.316875 -0.521729 -0.078487 0.167889 0.021279 -0.797092 0.287071 -0.364049 0.487521 0.110594 0.516791 -0.255930 0.012474 0.374968 -0.185023 -0.370463 -0.082970 -0.362597 0.289302 0.007602 -0.631888 -0.188106 -0.067287 0.057210 0.160948 -0.647963 0.246161 0.620775 0.572960 -0.335552 0.106902 0.028561 -0.084922 -0.504947 -0.273769 0.214220 -0.674378 0.019750 -0.199886 0.263931 0.315823 -0.144700 0.815448 -0.212892 -0.572877 0.493360 0.206179 0.468653 0.055396 0.228115 -0.388631 -0.555400 0.101174 0.578280 0.367721 -0.313233 0.283029 0.106293 -0.346017 0.153508 0.061938 0.218881 0.448189 -0.413585 -0.345141 0.475202 -0.192730 -0.235102 0.177234 0.065029 0.573136 0.161620 -0.029104 -0.464825 -0.012860 -0.891899 0.165663 0.390086 0.037392 0.479225 0.230900 0.086859 0.031724 -0.196739 -0.058478 0.990785 -0.558450 0.074211 -0.509944 -0.069223 -0.173819 -0.274170 -0.218724 0.372799 0.213847 -0.205932 0.010028 0.917325 0.270551 -0.040176 0.381852 -0.419562 0.474551 -0.231142 0.388670 -0.024040 -0.739700 0.267602 -0.456181 -0.188120 -0.192429 0.375033 0.300802 -0.500671 0.424262 -0.006436 -0.124982
211 -0.070305 -0.487331 0.400003 0.123143 -0.248712 -0.192635 -0.401940 -0.638010 -0.050425 -0.078223 -0.691338 -0.180828 -0.490717 -0.317080 0.408406 -0.255291 -0.118249 0.020634 -0.540433 -0.550705 -0.163219 -0.128790 0.265616 0.293058 -0.033669 0.022880 -0.082757 0.254257 -0.400181 0.569892 0.421820 -0.364170 -0.120959 0.099640 -0.086891 0.571799 -0.198622 -0.079800 0.568030 0.340012 -0.130939 -0.105572 0.138718 0.287313 -0.257140 -0.091040 -0.146091 -0.486270 -0.252012 -0.765738 0.202094 0.359535 0.168586 -0.081944 0.231589 -0.498725 0.947665 -0.188722 0.122303 -0.014313 -0.377362 -0.215222 -0.318281 0.130699 0.018654 0.362750 -0.192795 0.247571 -0.199645 0.459396 0.347724 0.252397 -0.455904 -0.083417 0.974989 -0.055490 0.121504 -0.064048 -0.346223 -0.089097 0.089400 0.329986 0.448848 -0.124284 0.525617 -0.448348 0.022667 0.604359 0.067888 0.130081 0.081398 0.159979 0.234753 -0.004060 -0.547978 -0.298410 0.274983 0.005963 0.651476 0.040036 0.018387 0.004696 0.520268 0.567267 0.275508 -0.226368 0.699144 0.189519 0.296250 0.428319 -0.060554 -0.034787 -0.344419 0.292469 0.208339 0.039801 -0.055403 -0.187021 -0.150881 0.372772 -0.302396 0.679256 -0.166715 0.297272 -0.492464 -0.006509 -0.075651 0.258139
2 -0.372815 -0.929967 0.046934 0.587188 0.190362 -0.199432 -1.081877 -0.020324 -0.025578 0.152005 -0.862429 -0.491151 0.119518 0.183004 -0.370620 -0.454105 0.027429 0.577530 -0.728769 0.301791 -0.140116 0.061268 0.562993 0.393571 -0.432848 -0.063388 0.020546 -0.038762 0.030503 -0.125100 -0.061979 -0.441182 0.213310 -0.306851 0.328516 0.318384 -1.042881 0.013446 0.203914 0.150133 -0.103486 0.421817 0.544431 0.066627 -0.053182 0.095846 0.200823 -0.548025 -0.653563 -0.416349 0.244069 0.071181 0.337706 0.402485 -0.627258 -0.276182 0.211180 0.353400 -0.157536 0.411986 -0.689651 -0.079112 -0.778564 -0.981037 0.179903 0.015010 0.570328 0.274011 -0.139246 0.115914 0.131681 0.509792 0.298648 0.265679 0.890691 0.369256 0.082027 0.514562 0.534524 0.207075 -0.075876 -0.002331 -0.066885 -0.103458 -0.047428 0.085247 0.761708 0.628329 0.114926 -0.003843 0.518898 0.469998 0.811957 -0.344943 -0.066640 0.057692 0.057798 -0.870886 -0.609068 -0.219933 -0.010274 0.007453 0.002892 0.310582 0.831152 -0.623653 0.358326 0.189980 0.577621 0.323917 0.306462 -0.151137 -0.362833 -0.066886 -0.068656 0.832745 0.470955 -0.675731 -0.136904 -0.387359 -0.095247 -0.044831 0.041278 -0.333383 -1.084579 -0.310880 0.126036 0.289347
134 0.461494 0.016166 0.233526 0.348914 0.437378 0.229927 -0.430921 0.340105 -0.071740 -0.146928 -0.419429 -0.110394 0.118445 0.064600 -0.328871 -0.028956 -0.266408 0.153078 -0.371852 0.164297 -0.496439 0.124634 0.151429 0.358865 -0.620922 0.265646 0.069449 -0.013645 -0.513016 0.938151 0.198020 0.410429 -0.616051 -0.167067 -0.334479 -0.182240 -0.504396 -0.299581 0.187569 -0.140266 -0.236550 0.100801 0.200935 0.353746 -0.112009 -0.734967 0.475553 -0.183134 0.112150 0.287996 -0.683073 0.307732 0.986124 -0.116752 0.406101 0.265828 0.135224 0.377474 0.508470 0.168414 -0.287202 -0.709918 -0.381392 -0.506195 -0.280518 0.405204 0.310035 -0.421539 -0.301716 0.533440 0.235133 -0.409874 -0.087475 -0.012852 -0.231493 0.313414 -0.161723 0.154964 0.344636 -0.302282 0.294169 0.239444 -0.030620 -0.322755 0.460759 0.494728 -0.033359 0.177688 -0.359910 -0.002142 0.047209 0.449432 0.058274 0.334408 -0.375562 -0.251380 0.092654 -0.155427 0.306527 0.028502 -0.092055 0.157538 0.094348 -0.063693 -0.205049 -0.090629 -0.060135 -0.527865 0.305189 0.567816 -0.156430 -0.263802 0.415091 -0.091964 -0.043345 0.247516 -0.414777 -0.464408 0.465032 -0.185692 0.205209 -0.073442 -0.376018 -0.413002 0.292529 0.191544 0.558260 -0.224599
35 0.065864 0.449463 0.095452 -0.356272 -0.439523 0.408100 -0.115058 -0.302845 0.022076 0.170240 -0.235539 0.104690 -0.401179 0.025000 -0.014908 -0.100220 -0.867284 0.417602 0.014078 -0.014187 0.214921 0.286537 0.037886 0.184823 0.067122 -0.089368 -0.092242 0.159855 -0.380845 -0.010047 0.237771 -0.255831 -0.254431 -0.060634 0.223367 -0.075838 -0.552090 -0.400802 -0.209455 0.555435 -0.258315 -0.108094 0.097434 0.044230 0.081977 -0.602067 0.296938 -0.385212 -0.170018 -0.449821 0.227267 0.372011 0.169045 -0.074982 0.250250 -0.371093 -0.000303 -0.191086 0.113224 0.076847 -0.071321 -0.577700 -0.292742 -0.131320 0.147012 -0.094148 -0.181829 -0.320283 0.297250 -0.417016 0.152941 -0.183003 0.537473 -0.063068 0.048421 -0.105979 0.071118 0.378473 -0.119795 0.204810 0.065591 0.604263 0.123558 -0.049962 -0.148027 0.671018 -0.144677 -0.078856 -0.111811 0.359022 0.185531 0.326994 -0.144493 0.210008 -0.151980 -0.521304 0.208494 -0.279194 -0.004688 -0.481376 0.471836 -0.100900 0.179364 -0.094390 -0.029642 0.192659 0.356658 0.454218 0.446769 -0.232923 0.010010 0.225746 0.173513 -0.082579 -0.556494 0.522251 -0.495642 -0.183012 0.290163 -0.216730 0.018665 -0.130073 0.474741 0.090794 -0.414584 -0.097302 -0.102092 -0.218913
772 0.025180 0.215615 -0.053699 0.691302 -0.321082 -0.062701 0.878952 0.096047 0.048721 -0.238982 -0.133596 -0.174417 -0.500184 0.287344 -0.018641 0.033122 -0.344291 -0.284287 0.389875 1.037202 -1.003622 -0.232884 -0.581846 0.408665 -0.763134 -0.306592 -0.795868 0.842228 -0.293674 0.610979 -0.009666 0.065468 0.268685 0.188549 -0.343334 0.607565 -0.485320 -0.230634 0.338589 0.373776 -0.626509 0.412473 0.480640 -0.533269 -0.687236 0.414343 0.538235 -0.320927 -0.179817 0.423535 -0.702608 0.475545 0.420024 -0.450895 0.317288 -0.180900 -0.156903 -0.004477 0.176798 0.059190 -0.485324 -0.533287 -0.459250 -0.453313 0.087965 -0.163908 0.581536 0.126323 -0.118397 0.202824 0.239591 0.148742 0.500379 0.671940 -0.498734 0.551945 -0.048419 -0.170422 0.914739 0.298568 0.415114 -0.179429 0.555111 0.059168 -0.267574 0.143494 -0.448857 0.001784 -0.089706 0.323103 0.493053 0.307302 0.106933 0.241381 -0.440727 0.071275 0.173246 -1.049533 0.253513 -0.165093 -0.170787 -0.259002 0.941499 0.155367 0.214302 0.665807 -0.495917 -0.132344 -0.187964 0.552803 -0.189488 0.381602 -0.075864 -0.241258 0.353630 -0.247562 -0.723133 -0.579043 0.554306 0.211249 0.273391 0.372088 0.131473 -0.436538 -0.173442 0.407420 -0.121370 0.153143
2400 -0.496982 -0.411152 0.443236 -0.233718 -0.013147 -0.455854 -0.086898 -0.226090 0.035322 0.345114 -0.162357 0.168003 -0.163809 -0.385993 0.332359 0.080419 -0.730445 -0.024019 0.085862 0.172264 0.197813 -0.147519 0.183525 -0.288339 -0.877794 -0.125933 0.376352 -0.246667 -0.152161 0.253313 1.302170 -0.007379 0.027649 -0.255941 0.098724 0.769059 0.411084 0.537370 -0.162928 0.143467 0.026702 0.630780 -0.549843 -0.138624 0.114574 -0.123856 0.107500 -0.228413 0.334267 -0.102823 0.084558 0.457765 -0.104750 -0.029057 0.166318 0.758064 0.855896 -0.268994 -0.341611 -0.615130 -0.328772 -0.284120 -0.464060 -0.543675 0.102187 0.068818 -0.226156 0.140637 -0.033448 0.546404 0.213199 -0.360746 -0.029996 0.571002 -0.092738 0.166504 0.115798 0.086382 0.475348 0.442444 0.246250 0.287854 0.249271 -0.074843 -0.315104 0.597495 -0.066429 0.202871 0.240794 -0.342438 0.361751 0.061679 -0.301309 0.495541 -0.046090 -0.541135 -0.019453 -0.147081 -0.411359 0.280783 -0.341890 0.546004 0.399849 -0.204337 0.246749 0.235862 0.241157 0.136903 0.103643 -0.277380 -0.186534 -0.173602 0.076239 -0.034578 -0.248016 0.168287 -0.293890 -0.162355 0.173511 0.303806 0.070130 -0.451005 -0.569653 -0.324224 0.169041 0.540763 0.070509 -0.000967
13 0.097497 0.152083 -0.112346 -0.298770 -0.153712 0.118331 -0.395491 -0.539259 0.215790 -0.343714 -0.337034 -0.556301 -0.083748 -0.639917 0.215478 -0.050149 -0.455003 -0.094110 -0.441766 0.137414 -0.028565 -0.593691 0.308989 -0.472366 -0.181275 0.145778 0.735881 -0.095126 -0.410598 0.117521 1.188244 0.484973 0.113686 0.293405 0.080917 0.232411 -0.219455 0.694952 0.621836 0.030414 0.609437 0.580610 0.717910 0.488175 -0.284644 0.068991 0.036079 0.133082 -0.086628 -0.180040 -0.372973 0.847945 -0.073272 0.677458 -0.407268 0.281341 0.294627 0.293552 0.082779 -0.480705 -0.187842 0.073198 -0.490231 0.025095 0.190145 0.049659 0.069458 0.199063 0.491713 -0.453623 0.340533 0.482282 0.202616 -0.080639 0.033078 0.260607 -0.306146 0.837975 0.260482 0.045745 0.437278 -0.756299 -0.308635 0.393638 -0.895743 0.360152 0.086609 -0.137336 0.354912 0.063494 0.725417 0.628772 -1.230787 0.050815 -0.058897 -0.739338 0.153578 0.026968 -0.251604 0.069877 -0.197749 0.457561 0.029756 -0.051685 0.150084 0.061721 0.503132 -0.353123 -0.399819 0.023412 0.039856 0.025139 -0.128006 0.054823 -0.365510 -0.590485 -0.707763 0.089219 0.424091 0.066198 0.509755 0.490316 0.874918 0.164310 0.407799 -0.640430 -0.137681 0.176692
71 0.440487 0.268306 -0.085625 0.279667 0.131522 0.463380 -0.212938 0.036761 -0.010805 0.419593 0.015547 -0.312902 0.167701 -0.798883 0.567651 0.175393 -0.349861 0.448851 0.461510 0.296652 0.496993 0.702221 -0.416359 -0.234830 -0.528429 0.121700 0.513201 0.335663 -0.220133 -0.034809 -0.092093 -0.059082 -0.216016 -0.122549 0.505432 0.700875 -0.806769 -0.740886 0.322039 0.346237 -0.225786 0.108505 0.378014 0.102347 0.586512 -0.362486 0.483931 -1.158450 0.336987 -0.722025 0.466324 0.287692 0.524978 -0.377007 -0.373092 -0.279619 0.125931 0.419852 -0.646495 -0.258046 0.774650 -0.243072 -0.382574 -0.095978 0.388268 0.342809 -0.334413 -0.141758 -0.614567 -0.843567 0.808996 0.295967 0.559409 -0.223632 -0.322651 -0.262596 -0.108222 -0.145155 -0.129646 -0.445652 0.090471 -0.118833 -0.607710 0.197937 -0.186526 0.235931 -0.034902 -0.680930 -0.110673 0.638432 0.610296 0.911266 0.446172 0.191113 -0.323012 0.139544 0.431602 -0.501319 0.209871 0.163381 -0.143630 -0.320739 0.136214 0.592276 -0.278331 -0.285688 0.396892 0.484318 -0.173082 -0.039781 0.036218 -0.361477 0.130251 0.399368 -0.633779 0.393017 -0.188488 0.186128 0.332465 0.398628 -0.383179 0.094053 0.104419 -0.612082 0.053447 -0.361968 -0.037716 0.034963
5 -0.108897 -0.121534 0.137142 -0.010315 -0.485289 0.345191 0.023324 0.027934 -0.162592 0.094316 0.117816 0.105954 -0.539001 -0.508273 0.249464 0.105092 -0.701174 -0.123314 -0.452309 0.394237 -0.217876 0.481331 0.126828 -0.088735 0.151210 -0.186276 0.160745 0.273060 -0.562256 0.052315 -0.051236 0.171051 -0.078035 0.006088 -0.132703 -0.078203 -0.206144 -0.089166 -0.241380 0.210070 0.140590 0.313483 0.000947 -0.087152 -0.236880 -0.215565 0.057230 -0.618910 0.213212 -0.785904 0.069821 0.436540 0.511076 0.239806 -0.094557 -0.318009 0.659268 0.232369 0.148447 0.274739 0.435426 -0.164538 0.038295 -0.071702 0.460533 -0.059275 -0.037280 -0.165555 0.110905 -0.133287 0.042121 -0.095646 0.883827 -0.434217 0.200858 -0.429154 0.152912 -0.378162 -0.703568 -0.020516 0.230344 0.482648 -0.062795 -0.347834 -0.417076 0.107138 -0.584478 0.341472 0.565646 0.550248 0.394753 0.356571 -0.071602 0.649109 -0.058506 -0.469734 0.506962 0.276963 -0.461047 -0.278937 -0.327065 -0.045840 -0.439952 -0.336940 -0.072210 -0.208048 -0.131553 0.112325 -0.166649 -0.044490 -0.084255 0.029246 0.258414 -0.202688 -0.542898 0.614745 -0.567919 -0.479213 0.717772 0.214579 -0.022870 0.033621 0.452187 0.039916 -0.260253 0.378220 -0.174968 -0.055016
2527 0.304435 0.385572 0.327029 0.100001 -0.320341 0.397666 0.036137 0.374511 -0.245966 -0.298445 0.076195 0.369805 -0.371054 0.061792 0.160837 -0.198052 0.257731 0.985216 0.063849 0.616112 -0.268046 0.360211 0.389281 0.070709 -0.455994 0.345699 0.110944 -0.007787 -0.531396 0.211768 0.387498 0.348072 0.336110 0.413327 0.109769 0.028103 -0.027347 -0.464007 0.517001 0.167998 0.109733 -0.100706 0.572815 0.167095 -0.280751 -0.736488 0.219771 -0.612665 0.474760 -0.009932 -0.246048 0.043633 0.654423 -0.503431 -0.143297 -0.307997 0.455669 0.628272 0.123715 -0.306979 0.565493 -0.544660 -0.121074 -0.409396 0.341206 0.028835 0.244870 0.237719 -0.129469 0.095318 0.145013 0.307582 0.540186 0.465916 -0.301101 0.201252 0.064752 0.119692 -0.773821 0.089914 0.830380 -0.471403 -0.355247 -0.638840 0.618425 -0.014492 -0.069772 0.077769 -0.135103 0.103569 0.516192 0.049769 -0.007102 -0.070990 0.042263 -0.080033 -0.372528 0.202799 0.072968 0.328397 0.291680 0.326605 0.514913 0.244838 -0.000477 -0.271617 0.297388 -0.752217 -0.192518 0.432527 -0.027911 -0.651851 -0.121457 0.241849 0.247192 -0.397909 -0.644462 -0.173547 0.935358 0.044928 -0.244252 0.478278 -0.382445 -0.232162 0.096955 -0.623127 0.022685 -0.319167
2123 0.244156 -0.203413 0.790007 0.286692 0.345742 0.060571 -0.180627 -0.378301 0.423633 -0.035903 -0.159539 -0.440540 0.146619 -0.813068 0.582022 -0.648893 -0.482547 0.645585 -0.532809 -0.329759 -0.484707 0.452223 0.044194 -0.238446 -0.047859 -0.075405 -0.369543 -0.318057 -0.084930 0.597021 0.735866 0.572644 0.102130 0.687499 0.003662 0.553773 -0.374425 0.004272 0.303797 0.544086 0.669869 0.536947 0.053374 0.067055 -0.240570 0.296408 0.679691 -0.809134 0.323142 -0.310925 0.411425 0.254946 0.026307 0.084554 0.238927 -0.272543 -0.229250 0.245183 -0.734360 0.297713 -0.278776 0.152306 0.103283 0.513609 0.662527 0.433089 0.599636 -0.863789 -0.452435 -0.486361 0.519108 -0.020634 1.055905 0.556249 0.284812 0.152572 0.218084 -0.572312 -0.147593 -0.131317 0.015612 0.997857 -0.147205 -0.411894 0.202207 0.096015 -0.096297 -0.506574 -0.249338 -0.619286 0.529984 0.085445 0.659232 0.132919 0.335987 0.420936 -0.378454 0.082609 0.312101 0.077742 0.211025 -0.195614 0.854099 0.286499 0.936242 -0.376237 0.256735 -0.137768 -0.563485 -0.315719 0.029345 0.655931 0.395465 -0.272272 -1.396003 -0.335519 -0.100731 -0.262387 0.076032 -0.629104 0.286882 0.174274 -0.700230 0.531336 0.700611 -0.761384 -0.257771 -0.281871
447 0.463395 -0.242515 0.616986 0.340571 0.361139 -0.030696 -0.273798 -0.063711 -0.567304 -0.124257 -0.289276 0.038198 -0.473932 -0.251692 0.055213 0.112961 -0.234115 0.643582 -0.134516 0.682493 0.033561 -0.331224 0.395924 -0.378131 -0.188604 0.224634 -0.180237 0.292892 0.391531 0.469642 0.073229 -0.182817 -0.187041 0.305612 0.473076 -0.091448 0.455778 0.038066 -0.106100 -0.660859 -0.085021 0.374747 0.409199 0.296276 -0.577802 -0.479089 0.179101 -0.648731 0.185738 -0.019384 0.323884 -0.233542 0.078859 0.118054 -0.162414 -0.142149 0.491731 0.251007 -0.459375 0.205764 -0.014650 0.439250 0.217254 -0.002790 -0.271330 0.527197 -0.387320 -0.064579 -0.467709 -0.165565 1.073326 -0.086262 0.611548 0.090258 0.117208 -0.239332 0.358897 0.243258 -0.265255 0.155327 -0.034111 -0.818012 -0.077945 -0.034313 -0.318602 -0.042244 0.261376 0.353776 0.056065 0.085088 -0.527746 -0.012320 -0.201856 0.351060 -0.264509 0.165289 0.524753 0.075919 -0.639569 0.148085 0.808510 -0.255762 0.702570 0.469304 0.196252 -0.118040 -0.220763 -0.244344 -0.286082 -0.416004 -0.075947 -0.198916 -0.260245 0.136130 -1.012730 0.250802 -0.980002 -0.080091 0.757607 -0.127121 0.030403 -0.402385 -0.325406 0.286561 -0.106003 -0.561672 0.062140 0.303821
57 0.604397 0.084475 0.282713 0.146423 0.365465 0.095826 0.192801 0.250908 0.388242 0.000083 -0.004935 -0.142053 -0.419462 -0.142763 0.417627 -0.038428 0.148414 0.460369 0.072847 1.115959 -0.234422 0.663253 0.280756 0.061998 -0.192794 0.040320 0.388975 -0.283498 -0.336368 0.178840 0.202021 0.246820 -0.013728 0.439118 -0.015057 -0.113346 -0.480470 -0.172323 0.501271 0.629392 0.066648 -0.209068 0.092281 -0.231956 -0.153218 -0.205474 0.561912 -0.188801 -0.003920 0.362798 -0.216354 0.014944 0.313577 0.019818 0.170049 -0.171317 -0.185910 0.519578 0.038073 0.070947 0.358157 -0.485096 -0.017435 -0.084487 0.218415 0.208119 -0.077763 0.390076 -0.300708 0.471607 0.175632 0.058946 0.173282 -0.071482 0.404488 0.079058 0.323092 0.296122 0.212040 0.021048 0.512802 -0.188868 0.313160 -0.523670 0.347240 0.205266 0.138034 0.597983 -0.424090 0.010436 0.399704 0.402586 -0.583440 0.129386 -0.183755 -0.213605 0.197395 0.004470 0.169448 -0.412732 -0.046704 0.212928 0.443870 0.437124 -0.341507 0.602930 -0.168121 -0.401165 -0.017770 0.214651 -0.032974 -0.104638 -0.253516 -0.198841 -0.013639 -0.076208 0.220665 -0.130413 0.549065 -0.150350 0.325572 0.018866 -0.511166 -0.138090 0.011361 -0.276325 0.369717 0.048339
2172 -0.017551 -0.560814 0.683662 0.140412 0.686891 -0.069788 0.008703 -0.280105 0.039574 0.002011 -0.666349 -0.014992 -0.518281 -0.339393 0.251456 -0.457443 -0.197665 0.056397 -0.277515 -0.136869 -0.461047 -0.081768 0.401929 0.135907 -0.465153 0.583215 -0.184226 0.108086 -0.256484 0.238612 0.376630 0.058237 -0.301960 0.241396 0.085874 0.267531 -0.720172 0.203749 0.504319 -0.026123 0.162139 0.129033 -0.126629 0.664344 -0.011350 0.496241 -0.017042 -0.606113 0.049673 -0.739693 0.065528 0.726814 0.482222 0.159107 0.721710 -0.479687 0.970457 -0.475530 0.023482 -0.151028 0.195779 -0.450011 -0.128500 0.095074 0.158105 0.349512 -0.338874 -0.040317 -0.357871 0.410070 0.016861 0.539645 0.238853 0.147129 0.617434 -0.350659 -0.136377 -0.009067 -0.092555 0.317035 0.182901 0.430702 0.425497 -0.233195 0.438292 -0.022858 0.512465 0.837276 -0.413269 0.290862 -0.544355 0.364203 0.202281 -0.037674 -0.267309 -0.241630 0.969054 -0.511576 0.545651 -0.034834 0.030353 -0.220091 0.042732 0.315387 0.266259 -0.675631 0.184921 -0.370161 0.045610 0.387058 0.088791 0.175391 -0.453583 0.236257 -0.142987 0.125124 -0.380870 -0.213192 0.212926 0.391620 0.150074 0.744901 -0.150299 0.280945 -0.286618 0.507811 0.111396 0.056486
136 -0.016466 -0.238180 0.493777 0.179848 -0.085101 0.310412 0.328584 -0.111252 -0.186546 -0.408164 -0.821387 0.274088 -0.098644 -0.144170 -0.337409 0.132106 0.534306 0.884669 0.302547 0.396850 -0.656688 0.198897 0.223366 0.020286 -0.010783 -0.688076 -0.279944 0.270621 0.060536 0.543473 0.052974 0.884838 -0.166117 0.042448 -0.224380 -0.215435 0.085353 0.364397 0.551105 0.308778 -0.314438 0.435814 0.203702 -0.408898 -0.057030 -0.682154 0.446787 0.060776 -0.069703 0.320737 -0.342200 -0.504661 0.088567 -0.174634 -0.085509 -0.273184 -0.132294 0.322156 -0.155282 0.467856 0.479343 -0.927012 0.236652 -0.434232 0.405716 0.210839 0.035451 0.292765 0.078764 0.278117 0.446027 0.409164 0.183842 0.513359 0.424401 -0.222800 -0.187898 0.187437 0.054232 -0.074172 1.123383 -0.107454 0.105842 -0.476239 -0.083734 0.126639 0.310870 -0.130682 -0.234864 -0.307058 0.653654 -0.031799 -0.182811 0.058553 0.094178 -0.039962 -0.209969 -0.292089 -0.201541 0.001659 0.239935 -0.184834 0.580425 0.177169 -0.217332 -0.195765 -0.059355 -0.034064 -0.439677 0.391522 -0.176389 0.243147 -0.278861 -0.335997 -0.426151 0.577496 -0.139914 -0.275052 0.617159 0.427418 0.066682 0.486334 -0.164265 -0.493003 0.183462 0.360211 0.709431 0.527613
27 0.630293 -0.769251 0.610444 -0.087892 0.514465 -0.220650 0.237093 -0.211411 -0.300674 0.317656 -0.437707 0.213470 -0.123102 -0.374475 0.592230 -0.004420 -0.223211 0.128023 -0.172071 0.011338 0.302525 -0.316543 0.343539 -0.485943 0.489303 -0.496134 -0.441306 0.308044 0.014758 0.138092 0.120297 -0.043651 -0.554617 -0.173249 -0.005703 0.406947 0.292433 -0.065595 0.393399 -0.325262 -0.171449 0.161925 -0.233613 -0.023135 -0.320915 -0.148834 0.457269 -0.348069 -0.210221 0.430998 0.035586 0.576630 -0.137522 0.359732 -0.325021 -0.129996 0.251170 0.268141 0.152565 0.093782 -0.130559 -0.264375 -0.368636 -0.013095 -0.612150 0.361707 -0.480461 0.238517 0.243766 -0.104146 0.356981 0.027639 0.291249 0.361777 0.630310 0.341561 -0.042882 -0.794916 -0.558301 0.625203 0.241452 -0.276220 -0.693908 0.078992 -0.296574 0.633657 -0.029290 0.583353 -0.477863 -0.209916 0.134650 0.444975 -0.077309 0.542226 0.014535 -0.011486 -0.176424 0.807314 -0.215628 -0.009327 0.135051 -0.371414 0.426491 0.025216 0.556673 0.183375 0.015571 0.030997 0.057659 0.526969 -0.655881 0.161763 -0.199671 -0.379971 -0.132009 -0.216247 -0.892022 0.407293 0.657334 -0.295976 -0.522289 -0.104320 -0.289056 -0.211535 0.160623 -0.359242 -0.298126 0.258543
105 0.090067 -0.237209 0.795517 0.091836 -0.150573 -0.316602 0.071255 -0.256150 0.330549 0.009192 -0.239389 -0.047586 -0.364286 0.345392 0.640489 -0.299058 -0.210256 -0.040883 -0.221133 0.270278 -0.020619 -0.143101 0.703734 -0.485783 0.296059 -0.034352 -0.105082 0.464953 -0.648477 0.062193 -0.242926 -0.044556 -0.341255 -0.230990 0.663570 0.395768 0.639120 -0.134703 0.066812 -0.134085 -0.530308 0.756967 0.416610 0.395184 -0.459034 -0.217437 0.167212 -0.439613 -0.228635 -0.336113 0.178901 0.322227 -0.097133 -0.056483 0.292129 0.336400 -0.466641 0.007114 -0.179574 -0.077784 -0.202447 -0.580390 -0.587445 0.273896 -0.046291 0.204977 -0.118880 0.197568 -0.149397 -0.376597 0.201432 -0.129796 0.703398 0.079763 0.599037 0.006438 -0.174007 -0.193091 0.300740 -0.162687 0.124764 -0.808113 -0.381301 -0.416374 -0.249745 0.008313 -0.149747 -0.088480 0.025828 0.210534 0.020247 0.011256 -0.508119 -0.099397 -0.134629 0.272382 0.244852 0.165492 0.270173 -0.128290 0.728068 -0.376064 0.500661 0.385415 0.286312 -0.928053 -0.078982 -0.113508 -0.136460 0.078114 0.063434 0.304757 -0.436353 0.090671 -0.225761 0.181493 -0.826815 -0.311337 0.242621 0.199437 0.036016 -0.326005 -0.384158 -0.315008 0.294704 -0.043613 -0.106391 0.116544
100 -0.122797 0.212601 0.077225 0.025766 0.450809 -0.206766 -0.102560 0.058226 0.234759 0.270122 -0.258848 -0.068460 -0.436815 -0.396516 0.088815 -0.015626 -0.930978 0.039514 0.154271 0.510968 0.231155 -0.567145 0.089715 -0.267065 -0.947704 0.255496 -0.088423 -0.408719 -0.447617 0.288668 0.657812 -0.485914 -0.569800 -0.090762 -0.185242 0.612738 0.218014 0.776673 0.395963 0.005860 -0.017048 0.284965 -0.151368 0.008572 0.381308 -0.096830 0.295946 0.130648 0.241421 0.137294 0.049498 0.138967 0.151962 -0.225581 -0.468551 0.496026 0.216073 0.535427 -0.062858 0.062564 0.143756 -0.420672 -0.470640 0.383645 0.141856 -0.449343 -0.249065 -0.128282 -0.173937 -0.010141 0.316698 -0.100065 -0.200008 0.306011 0.299771 0.165490 0.205969 0.491656 0.061298 0.325234 0.168685 0.247578 0.122097 0.116646 -0.012818 0.046277 -0.120281 -0.448122 -0.118347 -0.288247 0.128385 0.464495 0.043109 0.278267 -0.119197 0.406707 -0.189836 -0.337088 -0.349259 0.056361 -0.192053 0.117316 0.139535 0.290783 0.055477 -0.418750 0.434101 -0.024975 0.208191 -0.364935 0.248898 -0.166078 0.248159 -0.154049 -0.514493 -0.681151 -0.664867 -0.630458 0.336438 0.125453 -0.633789 0.228324 -0.168668 -0.162155 -0.546311 0.025846 -0.023336 0.084980
1906 0.334108 -0.395465 0.094307 0.230108 -0.019701 0.062815 -0.471395 -0.323709 -0.734119 0.244837 -0.234204 -0.162038 -0.475187 -0.279396 0.516175 -0.572747 -0.763549 0.206526 0.182068 -0.067465 -0.009753 -0.410959 0.180145 -0.001240 0.031356 0.477000 -0.128795 0.004262 0.087230 -0.091419 0.531582 -0.316272 -0.442924 -0.144035 -0.610921 0.565452 -0.558232 -0.038337 0.672983 -0.462511 0.260785 -0.095514 0.320079 0.278349 0.269491 0.398098 -0.433480 -0.427847 0.240516 -0.270354 0.636452 -0.072486 -0.175708 -0.082921 0.644660 -0.526280 0.175986 0.124587 0.133498 -0.293861 0.358868 0.027441 -0.892191 0.546439 0.677722 -0.330516 0.182751 0.345122 -0.164199 0.283728 0.203781 0.541364 0.252002 0.176802 0.501204 0.402033 -0.494373 -0.260700 -0.271707 0.189628 -0.189904 0.323073 0.375306 0.022938 0.291046 0.023147 0.280982 0.550309 -0.512939 0.359252 0.506694 0.844666 0.149847 -0.056129 0.013055 -0.071613 -0.037604 -0.144670 -0.296367 0.078581 0.025257 0.018299 0.501110 0.738646 0.034286 -0.254722 -0.004351 0.091524 0.196977 0.783545 0.287869 -0.199871 0.081198 0.356690 0.002739 0.404758 -0.431201 -0.521958 0.298766 -0.112618 0.053265 0.713773 -0.662737 -0.098039 -0.340069 0.081125 0.072707 0.920455
401 0.387602 0.143606 0.772526 0.527905 -0.320799 -0.279492 0.471320 -0.654951 -0.113179 -0.697978 0.149337 -0.328903 -0.048187 -0.697662 0.470883 -0.098676 -0.086195 0.871401 -0.552411 -0.151709 0.326608 -0.271221 0.686132 -1.033201 0.175001 -0.020043 0.119449 -0.091311 0.453348 0.301078 0.470429 0.377789 -0.211460 0.589508 -0.479184 0.899607 0.406530 0.055545 0.226100 0.176941 0.099726 -0.047664 0.009123 -0.449903 -1.183152 0.289303 0.702845 -0.559437 -0.333155 -0.160438 -0.182005 0.294668 -0.054736 0.032982 0.091611 0.042391 0.082433 0.947822 -0.456401 0.774093 0.271032 -0.364659 -0.519631 -0.456201 -0.328534 -0.334227 0.538154 -1.132006 0.031238 -0.116575 -0.395908 0.075153 0.167587 0.249851 0.359379 0.568628 0.306198 -0.547928 -0.341440 -0.103226 0.103107 0.834629 0.601400 -0.578534 -0.019048 -0.093859 -0.601699 0.625282 -0.363877 0.521118 0.021247 0.734945 0.041861 0.433717 -0.019679 0.801692 -0.541010 -0.296795 -0.399732 0.357774 0.048812 0.516309 0.638770 -0.044142 0.206790 -0.193527 0.139009 -0.033348 -0.597833 -0.192767 -0.154622 0.799483 -0.627763 -0.575491 -0.597434 0.004074 0.054151 -0.299828 0.187198 -0.255564 -0.380035 0.391805 -0.114336 0.421015 0.006969 -0.294249 -0.503450 0.378154
1504 -0.417358 0.418242 -0.092293 0.865162 0.619621 -0.399751 0.155094 -0.343082 -0.194150 0.365995 -0.068827 -0.207244 0.008278 -0.203792 0.273202 0.002937 -0.031885 0.043583 -0.048472 0.179739 0.176095 -0.608644 -0.229571 -0.579283 0.588427 -0.603511 0.098635 -0.415754 -0.459234 0.582558 0.832230 0.181289 -0.173456 -0.130119 0.120594 -0.129003 0.149981 0.325031 0.487538 0.715399 0.102003 0.284665 0.129331 0.052299 -0.455544 -0.542957 -0.449372 -0.254607 -0.034677 -0.520995 0.068189 0.037326 0.097236 -0.204438 -0.050542 -0.150276 0.077730 0.151088 0.092414 -0.459360 -0.117214 -0.146593 -0.447807 -0.062346 0.386240 0.156443 -0.194091 0.431812 -0.070509 -0.019910 -0.247705 -0.263798 -0.405294 0.185571 -0.073500 0.211238 -0.413092 0.447917 0.531700 0.662510 0.760553 -0.114566 -0.028006 0.143585 -0.102965 0.214395 0.308886 0.219995 0.369920 -0.288126 0.136638 0.479576 0.248718 0.481814 0.123306 -0.080708 -0.550785 0.154118 -0.293143 -0.347439 -0.275781 0.072793 0.311195 0.320729 0.810173 -0.495843 -0.051951 -0.484274 -0.131197 -0.255586 -0.363507 -0.345011 0.015883 0.300651 -0.561657 0.068263 -0.072081 -0.147333 0.109160 -0.106519 0.000837 -0.261814 0.476020 0.022526 -0.051934 0.214369 0.017043 -0.208383
129 -0.447241 -0.406975 0.673210 -0.106449 0.084022 0.088192 0.028940 -0.251863 0.337685 0.281577 -0.579653 0.351762 -0.329833 -0.389071 0.293963 -0.081034 -0.503932 0.267284 0.006821 0.144532 0.210506 -0.516898 0.373374 -0.384625 -0.270718 -0.090366 0.358533 -0.157488 0.152629 0.107682 1.473595 -0.304349 -0.107172 -0.123041 -0.079816 -0.081103 0.112140 0.211927 0.088999 0.500690 -0.053773 0.227072 -0.203911 0.382004 -0.102130 -0.069813 -0.187275 0.267273 -0.061524 0.122240 0.012765 0.366093 -0.011674 -0.150976 -0.094276 0.515895 0.599131 0.165028 -0.030070 -0.095488 0.188143 -0.192894 -0.490099 -0.619770 -0.073364 -0.140049 -0.427728 0.221394 -0.235355 0.307864 0.298300 -0.029754 0.103802 0.219552 -0.337420 0.272142 -0.081835 0.336057 0.535507 0.469729 0.402337 0.346616 0.193789 0.161330 -0.202473 0.112065 0.016515 -0.340885 -0.186482 -0.436250 0.547444 0.499667 -0.311467 0.459281 0.100473 -0.481961 -0.020741 -0.142674 -0.188653 0.608302 0.038919 -0.043730 0.270742 0.311857 -0.033291 0.048996 -0.123025 -0.127134 -0.161885 -0.425303 -0.157811 0.085348 -0.211859 -0.525770 0.097900 -0.252164 -0.223803 -0.250041 0.433378 0.109707 0.117894 -0.367118 0.072704 -0.170377 0.039970 0.246398 -0.172577 0.057821
137 0.337825 0.071598 0.278604 0.221607 0.132700 0.428536 0.231457 0.054764 -0.353696 0.339505 0.125365 -0.081410 -0.364872 -0.521977 0.314095 -0.054894 -0.052083 0.234985 -0.420019 0.046438 0.293142 -0.243839 0.226580 -0.560355 0.065952 -0.497882 -0.228700 -0.075949 -0.833912 0.326757 -0.005280 -0.048362 -0.550940 -0.400165 0.236091 0.462752 0.271019 0.139475 -0.118282 0.216291 -0.100160 0.109630 0.140055 0.267707 -0.198228 -0.309552 0.455358 -0.138998 -0.446930 -0.184826 -0.049731 -0.333271 -0.224159 0.294776 -0.364047 -0.179512 0.382789 -0.492178 -0.016898 -0.316032 -0.040143 -0.029729 0.138549 -0.150260 -0.761385 0.528750 0.001780 0.190043 -0.344041 0.171847 0.900042 -0.432452 -0.151783 -0.225819 -0.185123 0.196704 0.165136 0.259553 -0.013583 0.266480 0.414610 -0.831529 0.685433 -0.607848 -0.629007 0.730788 0.360306 0.693048 0.040072 0.237725 0.237254 0.109099 0.469580 -0.072980 0.061780 -0.237026 0.289037 -0.243435 -0.224106 -0.677479 0.794035 -0.593054 0.180939 0.411636 0.505442 -0.807707 -0.189788 -0.210410 -0.212634 0.346589 -0.028664 0.166898 0.043539 -0.233729 -0.554601 0.167662 -0.444326 -0.377232 0.041638 -0.127053 -0.113175 -0.035045 -0.667888 -0.120778 0.245210 -1.240329 -0.478801 -0.283880
112 0.412939 -0.150002 0.351009 0.341329 -0.343670 -0.115873 0.342082 0.002938 -0.309910 0.047427 0.032086 -0.193167 -0.080409 -0.463448 1.082845 0.030358 0.066139 0.376342 0.284231 0.480175 0.182980 -0.279360 0.065643 -0.308030 0.097065 -0.327652 -0.392148 -0.412849 -0.661917 -0.330903 0.323897 -0.184832 -0.796418 -0.425216 -0.470808 0.466527 0.491790 0.657949 0.109516 -0.512248 -0.112284 0.220262 0.576510 1.201393 -0.311641 -0.215854 0.575896 -0.232609 -0.110475 0.130821 -0.345200 0.283197 0.029809 0.266553 0.155639 -0.129355 0.326224 -0.261983 0.038220 0.460320 -0.247642 -0.173870 -1.061202 0.391531 -0.716689 -0.160349 -0.491618 0.105055 0.363943 0.194579 0.420912 -0.089338 0.529322 0.150284 -0.135361 0.448459 -0.273880 -0.465708 0.227046 -0.313422 0.699924 -0.421123 0.192284 -0.014226 -0.008672 0.387258 0.581419 0.258388 -0.373734 0.355729 0.459769 -0.245909 -0.114569 0.392886 0.094169 0.332780 0.447864 -0.124515 0.388208 0.021958 0.077045 -0.408575 0.253042 0.165711 0.469378 0.103833 -0.639023 -0.345849 0.294897 0.392460 -0.824438 0.013119 -0.356086 0.018649 -0.423411 0.944351 -0.513659 0.292750 0.586882 -0.659519 0.429738 -0.532393 0.226070 0.226843 -0.138458 0.127838 -0.431293 -0.846451
54 -0.405377 -0.294235 0.210712 -0.120899 -0.037570 -0.265957 0.021216 -0.374985 0.109007 0.052164 0.079407 -0.010283 0.067434 -0.206521 0.514958 0.461911 -0.069847 0.193017 0.306793 0.105042 -0.043998 -0.439817 -0.117591 -0.495690 -0.398735 -0.071812 0.067253 -0.496922 -0.310861 -0.324388 0.903907 0.517361 0.103707 -0.247944 0.059398 0.502478 0.195960 0.455488 1.153523 0.391782 0.220972 0.004776 0.192554 -0.134780 0.451803 -0.400504 -0.011555 -0.129344 -0.028953 -0.631387 0.158954 -0.116642 0.781407 -0.027862 0.137777 -0.090084 0.847916 0.207829 -0.123595 -0.364567 0.268479 -0.174257 -0.059315 0.211208 -0.531621 0.262085 -0.022316 -0.610574 0.105932 0.161358 1.058132 -0.580360 0.023367 -0.025497 0.056840 -0.249488 -0.293068 0.461641 0.359939 0.504283 0.099203 -0.052508 -0.228067 -0.319535 -0.058413 0.332815 0.072676 -0.086975 -0.045731 -0.051367 0.750184 0.098586 -0.295042 0.289764 -0.026362 0.014772 -0.209284 -0.374346 -0.392436 -0.286036 -0.154878 0.074784 0.168458 0.367677 0.485373 -0.412636 -0.076456 -0.199282 0.071931 -0.369696 0.200091 -0.439247 0.116209 0.151405 -0.693440 -0.431455 -0.160465 -0.326563 0.092176 0.196076 0.149438 -0.152758 -0.180498 -0.016161 0.258799 0.048041 -0.224003 -0.096006
81 0.369021 -0.460634 0.080744 -0.180849 0.533803 -0.484264 -0.103413 -0.156875 -0.654267 0.359778 0.039118 0.309242 -0.465513 -0.013797 0.086481 0.029943 -0.376014 0.068813 -0.794670 -0.499335 -0.124984 -0.450228 0.242674 -0.272862 0.141557 0.077197 0.001409 0.232880 -0.628901 0.440379 -0.511671 -0.168838 -0.137894 -0.119205 -0.010505 0.753811 0.472359 0.028026 0.133965 0.514016 -0.314031 0.972615 0.523703 -0.253263 -0.174576 -0.167851 0.022796 -0.561796 0.019816 0.118178 -0.081001 -0.086814 0.149896 0.251850 -0.270906 -0.344570 -0.025868 -0.183522 -0.049336 -0.627505 -0.467714 0.144248 -0.349759 0.726644 -0.411072 0.054726 0.053172 0.317726 -0.292527 -0.200157 0.252978 0.169958 0.296429 -0.058540 0.195716 0.319989 0.167538 -0.122630 0.012724 -0.690236 -0.050445 -0.051942 -0.231178 -0.534134 -0.044216 0.388053 0.548277 0.595672 -0.140698 0.124880 0.506116 -0.164315 -0.198596 -0.173117 -1.034748 -0.203945 0.186554 -0.403317 -0.687317 0.204982 0.116496 -0.316574 0.135633 1.085082 0.075790 -0.093810 -0.254682 -0.095679 0.037573 -0.534390 -0.613469 0.087462 -0.282997 -0.122124 -0.012710 0.702607 -1.021347 -0.099184 0.327596 0.043737 -0.169309 -0.977797 -0.844094 -0.241835 -0.088697 -0.268544 -0.355517 -0.081055
203 0.181959 -0.277804 0.875875 0.084339 -0.095162 -0.596784 0.159235 0.024654 -0.467030 0.207173 -0.080471 -0.596293 -0.469423 -0.111295 0.188362 0.056398 -0.255701 0.688213 -0.108859 -0.721835 -0.064607 -0.428055 0.281920 0.445898 -0.544706 0.080753 0.327819 0.252698 -0.171952 0.150717 0.656100 -0.020501 -0.330499 -0.279589 0.053522 0.425421 -0.145161 -0.013603 0.371477 -0.309079 0.050714 -0.197175 0.550783 0.585138 0.386535 -0.019613 0.117220 -0.313364 -0.187777 -0.351734 0.205338 0.067677 0.088315 -0.398537 0.023528 -0.148369 0.807750 -0.103111 -0.066221 -0.133801 -0.085622 -0.054133 -0.254349 -0.098141 1.028528 0.243214 -0.139343 0.250155 -0.075419 0.390217 0.178381 0.261023 -0.016538 -0.629172 0.790648 0.526611 -0.119284 -0.296496 0.151132 0.341502 -0.478968 0.171743 0.880479 -0.333669 0.362922 0.084840 0.280832 0.456154 0.219387 0.196684 0.410736 0.804015 -0.068380 0.397950 0.123597 -0.055685 0.299449 0.076934 -0.272117 0.367920 -0.174551 -0.178603 0.283022 0.651987 0.157863 -0.132307 -0.202985 0.320977 0.140116 0.682055 0.029915 -0.083134 -0.358366 0.029303 0.118634 0.198191 -0.266986 -0.347177 0.040878 0.080008 -0.072090 0.598526 -0.305517 0.462993 -0.749601 0.115788 -0.156471 -0.031428
1629 0.690994 -0.214136 0.052543 0.270427 -0.159826 0.797473 0.001294 -0.037474 -0.260826 0.291795 -0.365361 0.016313 -0.023733 0.055137 0.093324 0.366874 -0.103005 0.531772 -0.180023 -0.297369 0.564356 0.045949 -0.265991 -0.523900 -0.126472 -0.117407 0.370593 0.159151 -0.522869 -0.007758 -0.293610 -0.366178 -0.788734 -0.942760 -0.002178 -0.440523 -0.524216 0.101671 -0.192571 -0.083081 -0.149361 0.091999 -0.243879 -0.253673 -1.056957 -0.367669 0.119378 -0.541669 0.008076 -0.280172 0.279518 -0.071522 0.570280 -0.145586 -0.550648 -0.148280 -0.649412 -0.191942 -0.488341 0.034093 0.015768 -0.293127 -0.503071 -0.216643 0.696209 -0.742017 0.164106 0.160554 -0.035664 -0.021615 0.940125 0.299831 0.256972 0.359428 0.287159 0.224011 -0.789854 0.651970 -0.048884 -0.235691 0.343789 0.395078 -0.197739 -0.455400 -0.111302 -0.483229 -0.210344 0.209674 -0.086319 0.973636 0.642469 0.938943 0.283646 0.122489 0.237728 -0.042562 0.259476 -0.223554 -0.992060 -0.548817 -0.645907 0.169789 0.670771 -0.077517 0.688117 -0.091673 0.068096 0.366252 0.407071 -0.513301 -0.215727 0.300064 -0.016779 0.069648 -0.064989 -0.139974 -0.369236 -0.088269 0.402383 -0.664797 -0.644502 0.488228 0.817256 0.399458 -0.085905 0.413114 0.283170 0.180031
194 -0.882450 0.094405 0.145851 0.311314 0.166776 -0.466245 -0.202475 -0.538036 -0.218388 0.581790 -0.098592 -0.308860 0.388074 -0.140924 0.305307 -0.493069 -0.618661 0.197132 -0.226460 0.097235 -0.462038 -0.100232 0.053797 0.254783 -0.153715 0.189230 0.093820 0.312684 0.366827 0.128911 0.814226 -0.437568 -0.528095 -0.207415 0.302050 0.429577 -0.843194 -0.264885 -0.215801 0.070107 -0.269889 0.557631 0.330091 0.695978 -0.093451 0.131061 -0.074162 -0.955228 0.082637 -0.518263 -0.120139 -0.039253 -0.102431 0.200010 -0.275687 -0.146522 -0.035070 -0.290069 0.207536 -0.488689 -0.697443 -0.373729 -0.405856 0.142033 0.132751 0.293174 0.462775 -0.062694 0.265696 0.916122 0.402391 -0.035685 -0.419254 0.601360 0.215115 0.108514 0.345883 -0.514724 0.076765 0.836261 0.805166 0.249278 0.406299 -0.220034 -0.090530 0.069315 0.275046 -0.752865 -0.150866 0.492811 0.299679 0.191866 0.319460 0.301305 -0.534447 -0.275251 0.442163 -0.120118 -0.140839 -0.047920 -0.244979 -0.318697 0.753293 -0.045356 0.171153 -0.341395 0.154576 0.352803 -0.012187 0.550556 -0.065355 -0.636832 -0.273796 0.233016 0.381992 0.218317 -0.600307 -0.532917 -0.147894 0.208184 0.572973 0.200917 -0.707971 0.215896 -0.464396 0.750344 0.195004 0.713794
19 0.285744 0.448862 0.334111 0.401647 -0.020558 0.669417 0.602392 -0.033967 0.052251 0.016043 -0.063344 -0.205937 -0.304265 0.064262 -0.417803 -0.253635 -0.255610 0.143117 0.405036 0.653708 -0.658960 -0.163151 -0.120021 0.407491 -0.280042 0.015606 -0.175942 0.605452 -0.293909 0.372830 -0.233826 0.242099 0.021663 0.219991 -0.180455 0.288253 -0.396850 -0.013289 0.096999 0.211708 -0.336006 -0.027962 0.525356 -0.391739 -0.228034 -0.069598 0.435179 -0.268869 0.006154 0.384943 -0.257303 0.227706 0.654102 -0.697806 0.000002 -0.118560 0.274629 0.299235 0.263381 -0.124745 -0.514917 -0.287158 -0.190678 -0.457407 -0.075933 -0.098500 0.258160 0.169677 -0.206518 0.369450 0.212399 0.067600 0.588271 0.377426 -0.373789 0.347721 -0.367913 -0.116558 0.656158 0.039392 0.469705 -0.097037 -0.024360 -0.085114 0.184521 0.201810 -0.102924 -0.053959 -0.313663 0.033402 0.500187 0.385668 -0.069787 -0.024655 -0.438196 0.135926 -0.278915 -0.331609 0.152805 -0.166142 -0.135767 0.100061 0.552412 0.204066 -0.014839 0.359476 -0.206477 0.017819 -0.290955 0.464964 0.064419 0.271710 -0.052185 -0.102730 0.024586 -0.080099 -0.755075 -0.522653 0.686449 -0.021497 0.092723 0.509445 0.030437 -0.461679 0.071098 0.312581 -0.079919 0.115577
