2708 128
1358 -0.044269 0.094922 -0.169351 -0.090960 0.066525 -0.287635 0.081983 -0.242135 -0.042060 0.134125 0.037463 0.174054 -0.102976 0.135336 0.185789 -0.280036 -0.058877 -0.037945 -0.091541 -0.049135 0.118363 -0.180492 -0.230326 0.219672 0.004964 0.095053 0.022036 0.106536 -0.137188 0.021503 0.148928 -0.273723 0.256907 0.222067 0.105820 0.035904 0.131141 0.065216 0.065415 0.078668 -0.062872 -0.213840 -0.174331 0.259329 -0.135327 -0.119590 0.012227 0.147596 0.020878 0.055765 -0.141930 0.033310 0.023019 -0.066412 0.083225 -0.452876 -0.312842 0.380652 0.016737 0.026056 0.047251 0.109964 0.127136 -0.041300 0.216307 0.069779 0.175778 0.054877 0.291604 0.159108 -0.342213 -0.596047 -0.243244 -0.372406 0.001083 0.174666 -0.412938 0.076962 0.145787 0.344846 0.059757 0.021841 -0.377694 -0.231206 0.306586 0.182153 0.344293 -0.077844 -0.032556 -0.038720 0.021156 0.213362 0.233497 -0.230391 -0.064567 0.088215 -0.027890 -0.054430 -0.262500 0.057703 0.128263 -0.111447 -0.177404 -0.260533 0.035783 0.042361 0.190925 -0.202893 0.096253 -0.002456 0.360289 -0.256184 0.296407 0.132372 -0.091072 0.271678 0.006209 0.060461 0.418069 0.070902 -0.154169 0.130038 0.128551 0.036246 0.005542 -0.031373 0.134379 -0.015605
1701 -0.424912 -0.225585 -0.241369 -0.212690 0.169640 -0.140344 -0.217609 -0.367490 0.291893 0.079746 0.236496 0.381434 0.096214 -0.124389 0.286831 0.042731 -0.107890 -0.198142 -0.036506 0.106030 0.115118 0.119736 -0.257315 -0.311965 0.140774 0.398508 0.124689 0.103683 0.081102 0.356980 0.051235 0.035778 -0.090751 -0.133814 0.604085 -0.281219 -0.135919 -0.007564 -0.161161 0.145005 0.191654 0.350995 -0.130964 0.094482 0.105530 0.151265 0.313384 0.026771 0.062155 -0.459951 -0.131602 -0.364485 0.036845 -0.006536 -0.312966 -0.208169 0.035498 0.151140 -0.103960 -0.375856 0.153360 -0.035350 -0.136860 0.035763 0.446447 0.249699 -0.289830 0.422734 -0.157318 0.082873 -0.244062 0.104737 -0.156201 0.345076 -0.094929 -0.235887 0.150811 0.049169 0.164699 0.300414 0.219939 0.277044 -0.153115 0.282065 0.042755 -0.253373 0.045471 0.291133 -0.228546 0.160342 -0.126578 0.361040 0.295538 -0.001118 0.127118 0.259938 0.146602 -0.336668 -0.084837 -0.296661 0.147135 -0.123011 -0.243683 0.247158 0.528529 0.206342 0.035922 -0.211061 -0.023021 0.206054 -0.049051 -0.246802 0.231520 -0.210173 -0.050146 -0.162081 0.180289 0.276678 0.135186 0.265101 -0.096099 0.481750 -0.255676 0.045897 0.004066 -0.141257 -0.077012 0.018165
306 -0.159213 0.051570 -0.513210 0.408287 -0.060793 -0.585249 -0.061958 0.223769 0.227314 0.185473 0.162514 -0.180647 0.004215 -0.443794 0.233430 0.088235 -0.317135 -0.203797 0.065903 0.007728 0.381420 0.175472 -0.328464 0.189144 0.116839 -0.001787 -0.251720 -0.264114 -0.286577 0.252584 0.061680 -0.051772 -0.023599 0.081140 0.673476 -0.205895 -0.204194 -0.147468 0.006052 -0.037164 -0.223114 0.009682 -0.001252 0.267942 -0.340792 -0.176868 -0.096345 0.379315 0.051243 -0.288314 0.079182 -0.139048 0.182518 -0.027053 -0.024048 -0.236484 -0.329938 0.186830 -0.255603 -0.051262 -0.109654 -0.306219 0.249787 -0.034902 0.317180 0.195436 -0.031059 0.247687 0.281047 0.175798 -0.023063 0.043428 0.369369 -0.233898 -0.082105 0.056152 -0.116224 0.119167 0.095462 0.009280 -0.118544 0.094332 -0.152758 -0.071530 0.072941 -0.268799 -0.400447 0.242114 0.427711 0.231465 -0.372093 0.169415 0.185846 -0.206960 -0.038623 0.173709 0.128656 -0.200477 -0.150711 -0.245001 0.008164 -0.075322 -0.198824 -0.064991 -0.162692 0.116234 0.316940 -0.253405 0.392461 -0.254432 0.134040 0.178351 0.010543 -0.026237 -0.112155 -0.197487 0.098617 0.101887 0.276622 -0.120826 0.147038 -0.097528 -0.342308 0.211127 0.081329 0.185212 -0.264630 -0.102127
1986 0.065781 0.374059 -0.589003 -0.007789 -0.005782 0.130792 -0.343277 0.053451 0.111381 0.036349 0.239916 0.461207 0.011717 -0.091831 0.081882 -0.129877 0.037763 -0.079285 0.199415 0.147074 -0.052251 -0.053964 -0.278403 0.207964 0.026512 0.615569 -0.356174 0.170870 0.063923 0.340469 0.146465 -0.038481 0.018170 -0.057030 0.187481 -0.076287 -0.177671 0.338269 -0.081722 0.274986 0.055975 -0.055180 0.018059 0.258714 0.141090 0.105613 0.174764 -0.255174 -0.103618 -0.252881 0.085594 0.018431 0.157697 0.075847 -0.147783 -0.370453 0.259727 0.077886 0.279250 -0.039096 0.114729 -0.208413 -0.268395 -0.147440 0.259934 -0.074206 0.125390 -0.063106 -0.269264 0.149560 -0.175810 0.233453 -0.046425 0.278783 0.032185 0.212013 0.101133 -0.054125 0.221191 0.415721 0.290160 0.263631 -0.154139 -0.047349 -0.120751 -0.198789 0.453128 0.105774 0.301752 -0.122778 -0.077138 0.236720 0.350488 0.146237 0.166469 -0.047345 0.238456 -0.263611 -0.163880 -0.012506 -0.466127 -0.132758 -0.014867 -0.248614 0.361357 0.085420 0.201410 -0.009608 0.061108 0.151558 0.009644 0.139065 -0.084332 -0.231423 0.042017 -0.183646 0.374417 -0.113363 0.434631 0.214950 0.147843 0.548176 0.191005 0.241807 0.272332 -0.166682 -0.186280 0.215882
1810 -0.431721 -0.204307 -0.336336 0.108241 0.049087 -0.108737 -0.109363 -0.289013 0.030622 0.056040 0.050708 0.210803 -0.138523 -0.060194 0.106221 0.025585 0.168026 -0.385010 -0.074043 0.101518 -0.055521 0.186156 -0.378188 0.224082 0.125977 0.004999 -0.231087 0.211027 -0.406414 0.144635 -0.004572 0.527373 0.170501 0.088896 -0.171129 -0.199733 0.006248 -0.094171 -0.621070 0.113227 -0.017082 0.362467 -0.204474 0.022807 0.161449 -0.308217 -0.096295 0.215602 -0.023091 -0.207522 -0.222187 0.443760 0.100687 -0.163759 0.242613 0.294083 0.503054 -0.237203 0.138731 0.225058 0.166377 -0.260730 -0.276608 -0.399835 0.274214 0.370392 -0.133742 0.213644 0.278166 -0.318643 -0.072767 -0.244189 -0.068762 0.340984 -0.155722 0.035963 0.241725 -0.201365 0.248338 -0.050853 0.089741 0.033536 -0.038535 -0.172087 0.406298 -0.178351 0.079526 -0.005264 0.006642 0.284850 -0.287735 0.674278 -0.216125 0.131339 -0.061050 -0.008732 0.181284 -0.355191 0.031482 -0.289330 -0.121252 -0.096688 -0.109937 -0.047651 0.106131 0.124512 0.325643 -0.326758 0.110878 0.334451 0.517154 -0.078626 0.103657 -0.682350 -0.024132 -0.045829 -0.193682 0.028816 0.264069 -0.313034 0.127145 0.517566 -0.362960 0.277614 0.845389 -0.086361 -0.072836 0.011432
2034 0.179627 0.205346 0.095214 -0.067457 -0.059294 -0.448875 -0.158476 -0.007775 0.051877 -0.179874 0.214500 0.046894 -0.054057 0.117586 0.215607 -0.126103 -0.243544 -0.228362 0.038774 0.136798 0.089612 0.120618 -0.039834 0.367121 0.268914 -0.203750 -0.102608 0.151508 -0.159150 0.414390 0.017826 0.515936 0.147887 0.141463 0.455664 0.240154 0.039582 -0.166798 -0.157649 0.045610 -0.200060 0.385064 -0.320130 0.233976 0.040615 0.332384 -0.139785 -0.169804 -0.095547 -0.261083 -0.409910 0.515031 0.084411 -0.020864 -0.011045 -0.073824 0.258665 -0.272371 -0.162238 -0.099751 0.196919 0.351664 -0.164654 -0.367934 -0.312998 0.338402 -0.094659 0.314002 -0.146764 -0.342991 0.295319 -0.095837 -0.168277 -0.059990 0.109201 0.467100 -0.267084 0.102613 -0.212549 0.395744 -0.002325 -0.037860 0.074422 0.338952 0.188555 -0.127181 0.324710 0.291287 -0.079165 -0.301632 -0.581733 0.401010 0.625419 -0.070191 -0.058994 0.046676 0.268572 -0.238522 -0.028914 -0.258290 -0.630056 -0.201002 -0.255533 0.039967 0.087078 0.182409 0.196296 0.203147 0.420663 0.073342 0.072657 0.037360 0.064915 -0.353131 0.135497 0.141563 -0.042517 0.035825 -0.004529 0.088941 0.570657 -0.141159 0.004311 -0.195330 0.158183 -0.070401 -0.226330 -0.123869
1623 -0.027059 -0.255625 -0.458272 0.684015 -0.366439 -0.484354 -0.027555 0.254760 0.219468 -0.025690 -0.057933 -0.176879 -0.188528 -0.204611 0.317065 0.150347 0.025090 0.038175 0.137368 0.196432 0.271636 -0.071187 -0.557428 0.029932 -0.072949 0.271108 -0.092057 -0.206077 0.155471 0.349103 0.225881 0.001490 -0.116359 0.021802 0.333037 -0.146280 -0.136572 0.042311 0.070175 0.071713 -0.214107 -0.049312 0.096941 0.173117 -0.226643 -0.355224 -0.196499 0.481613 0.278766 -0.214901 -0.134074 0.087175 0.276152 0.246943 0.331828 -0.035812 -0.651661 0.099007 -0.273659 -0.144347 -0.047918 -0.062311 0.262196 0.064906 0.257820 0.323396 -0.245447 0.043417 0.203420 0.306766 -0.077566 0.119808 0.456329 -0.360198 0.279858 0.059388 -0.058673 0.117854 0.199830 0.034549 0.382632 0.477521 0.010320 -0.011251 0.230411 -0.285115 -0.350559 0.367514 -0.009649 0.082544 -0.915199 0.105161 0.100916 -0.131829 -0.154773 -0.226988 0.079117 -0.132240 -0.137065 -0.017274 -0.021215 -0.114257 -0.379851 -0.362439 0.084445 0.147736 0.475016 -0.453549 0.145548 -0.159149 0.201068 0.411356 -0.104758 -0.069128 0.202753 -0.551787 0.270220 -0.104027 0.051077 -0.059843 0.170496 0.161053 -0.116396 0.086690 -0.003542 0.258055 -0.082636 -0.161446
88 0.008552 0.370230 -0.746225 0.069817 -0.092274 0.082313 -0.198057 0.083789 0.157362 -0.003120 -0.115386 0.226131 0.474064 0.460946 0.449670 -0.254902 0.297606 -0.171670 -0.212097 0.279550 0.512050 0.198008 -0.364508 0.391852 -0.041892 -0.137198 -0.378364 0.378426 -0.064932 -0.262005 0.292370 -0.022641 0.281705 0.099188 0.081859 0.325979 -0.136426 0.147877 -0.227649 0.219405 -0.269445 0.169660 -0.189601 -0.263558 -0.342282 -0.310884 0.222479 -0.121697 -0.075396 0.097261 -0.314132 0.084696 -0.198483 0.001740 -0.041260 -0.126650 -0.169738 -0.012862 -0.166012 -0.448849 -0.165970 0.094218 -0.072057 -0.107290 -0.087938 -0.065897 0.105310 -0.226351 0.299956 -0.177022 0.000719 -0.141150 -0.039402 0.360124 0.334888 0.313414 -0.368180 -0.118000 0.076824 -0.056300 0.013880 -0.155649 0.065160 -0.256371 -0.150695 0.261934 0.090947 0.106222 -0.383452 0.352063 -0.138648 0.190852 0.236483 -0.472142 0.282962 0.103745 -0.013507 -0.070784 -0.180698 0.334615 -0.180181 -0.331146 -0.110911 0.334860 -0.147343 0.379889 0.014154 -0.579327 0.403216 0.070854 -0.041153 -0.412027 0.012967 0.218537 0.376776 -0.156368 0.106410 0.250513 0.146462 -0.269477 0.028198 -0.137663 0.153077 -0.281023 -0.041252 0.271728 -0.233682 -0.005600
598 -0.231641 -0.130011 -0.000334 0.052845 0.164691 0.224820 -0.249167 0.142351 0.068954 0.328599 0.071213 0.374110 0.161113 0.097742 0.409947 0.064825 -0.091690 -0.439080 0.246452 0.461891 0.027535 0.420997 -0.309935 -0.490808 -0.123744 -0.000574 -0.183639 0.067631 -0.112984 0.604550 0.279353 0.228002 0.091709 -0.077925 0.784007 -0.225694 -0.261299 0.209833 0.025829 0.212564 0.293255 -0.000287 0.019208 0.084312 0.225860 0.033356 0.299350 -0.218970 0.028770 -0.162129 0.166391 -0.153865 0.088942 -0.112147 -0.259986 0.317026 0.311584 0.000852 -0.003355 -0.048650 0.112015 0.059360 -0.081808 -0.095914 0.255183 0.090776 -0.359159 0.455208 0.343929 -0.055353 -0.352362 -0.084417 -0.358610 0.248227 0.112146 -0.128568 0.097623 -0.075167 0.480306 0.409310 0.670803 -0.067231 -0.505188 0.109451 0.562116 -0.299037 -0.156733 0.149024 0.001412 0.244634 0.035200 0.520316 0.215585 -0.108877 -0.578463 0.417710 0.160224 -0.121767 -0.299087 -0.341444 -0.070189 -0.443260 -0.094117 -0.063564 0.233319 0.106148 -0.059737 -0.382965 0.102460 0.205886 0.203928 -0.114532 0.217376 -0.525963 -0.151890 0.026821 0.112242 -0.363571 0.303800 0.349578 -0.030227 0.496684 0.195028 0.021940 0.015874 -0.099356 -0.507896 -0.146262
1013 0.382142 0.391458 -0.694576 0.231233 0.008880 -0.449587 0.324108 0.127623 0.144590 -0.080982 -0.223533 -0.185509 -0.066092 0.381683 0.204395 0.132898 -0.107561 0.252130 -0.363322 0.334871 0.319161 0.238441 -0.110121 -0.077646 -0.203696 0.342150 0.030236 0.208782 0.195089 0.001219 0.211402 0.072091 -0.098432 -0.010314 -0.026417 -0.428231 0.346575 0.063017 -0.391224 -0.055201 -0.340811 0.190436 -0.021055 -0.128713 0.036179 -0.087542 0.297436 -0.201544 -0.137166 -0.105612 -0.471314 -0.153871 0.078785 -0.461334 -0.009338 -0.040607 -0.229739 0.191301 -0.327422 -0.082987 -0.266201 0.148922 -0.410591 0.018776 -0.173051 -0.028235 0.084888 0.068369 0.236386 -0.271332 0.028696 -0.277742 0.247668 0.102567 0.116324 -0.173748 0.207871 0.300556 0.248067 0.243287 -0.080749 -0.146399 -0.012750 -0.038131 -0.140302 -0.264406 -0.196316 0.368032 0.421913 -0.548712 0.260419 0.105991 -0.079544 0.219539 0.006462 0.472450 -0.095462 -0.002919 0.199482 -0.146651 0.228739 -0.103317 -0.041608 0.176719 0.075638 0.277383 0.031640 -0.641476 0.118301 0.116294 0.056510 0.069277 0.175421 0.323346 -0.137951 0.148471 0.334793 0.503731 0.563559 0.110908 -0.151647 0.249648 0.257891 -0.276535 -0.158635 0.192527 -0.204974 -0.077460
1914 0.558403 0.058758 -0.292179 0.094168 -0.173470 -0.474591 0.285346 0.265929 0.293862 0.055050 -0.008740 -0.199609 -0.111677 -0.165508 -0.588886 -0.285747 0.314013 0.451461 -0.073174 0.398752 0.197511 -0.617039 -0.317837 0.054175 -0.414277 -0.051039 0.098874 0.096049 -0.002501 0.301889 0.198029 -0.094214 -0.039206 0.165710 -0.106687 -0.585251 0.168783 -0.100628 -0.210640 0.027246 -0.082082 0.157423 -0.101617 0.567995 -0.147646 0.143829 0.236817 -0.275308 -0.411084 -0.049140 -0.108395 0.105588 0.039840 -0.596697 -0.188909 0.281050 0.212044 -0.104339 -0.236295 -0.581416 -0.075215 0.405170 -0.095122 0.450172 0.403752 -0.399086 0.227407 -0.088906 0.312970 -0.251514 0.146381 -0.325307 0.069418 0.315943 -0.144832 -0.140881 0.006355 0.507403 0.023114 0.142565 -0.312249 0.256267 0.168821 0.319960 0.048768 0.328394 -0.313141 0.493837 -0.071344 -0.152889 -0.323664 0.033043 0.320475 0.027791 0.039801 0.656150 0.163257 -0.123711 -0.505030 -0.001442 0.248470 -0.307102 -0.396914 -0.162250 -0.390473 0.248015 0.092488 -0.201394 0.164276 0.330534 0.163642 -0.403112 0.048320 0.194936 0.019200 -0.020391 -0.156466 0.263984 0.340544 -0.739572 -0.202810 0.491049 0.173687 -0.255171 -0.320552 -0.349333 -0.324312 0.055445
109 -0.168694 0.036617 -0.320212 0.476010 0.032528 -0.576638 0.234652 -0.247932 -0.062363 0.173914 0.151332 -0.194558 0.079973 -0.247682 -0.073757 0.200963 -0.528940 -0.372905 0.193770 0.243038 0.124925 -0.007973 -0.282072 0.061600 -0.067661 0.148193 -0.168004 -0.221691 -0.126819 0.141156 0.317556 0.087450 0.147854 0.089501 0.238129 -0.270961 -0.012466 0.003365 0.133861 0.425912 0.331292 -0.379228 -0.090676 -0.036857 -0.136477 0.139115 -0.148275 -0.062371 0.067692 -0.263288 -0.214842 0.073391 0.320208 0.206331 -0.035478 0.142790 -0.377871 0.374054 -0.144740 -0.015453 0.366249 -0.093260 0.145485 -0.042584 0.235407 0.214745 -0.123598 0.181809 0.129630 0.267470 -0.085677 0.152480 -0.002105 -0.132646 0.085778 0.166055 0.086157 0.129201 0.008382 0.135796 0.198953 0.503578 0.387385 0.110909 0.145478 0.038880 -0.297016 0.107668 0.013121 0.225643 -0.483061 0.096242 0.206113 -0.208346 0.245319 0.128426 0.335091 -0.404584 0.003166 -0.136684 -0.012457 -0.152835 -0.291695 0.213362 -0.246683 0.303009 0.028437 -0.496290 0.115490 0.016828 -0.070021 0.200033 0.168093 0.229645 -0.277240 -0.176929 0.363719 -0.164946 0.208752 0.010376 -0.240468 0.355079 -0.144267 -0.109698 0.027507 0.161642 0.069648 -0.459759
2045 -0.323872 0.074942 -0.528092 0.176954 -0.124085 -0.358524 -0.048278 -0.110322 -0.148601 0.348949 -0.169447 -0.026631 0.343035 -0.132656 0.321177 0.402250 -0.280471 -0.228841 0.058054 0.085993 0.091816 0.219140 -0.334068 -0.013870 -0.144459 0.076774 0.166792 -0.159419 -0.270862 0.054910 0.177779 0.128620 -0.307431 -0.055933 0.221637 -0.331807 -0.149956 -0.183714 0.068515 0.141123 0.295401 -0.061992 -0.007610 0.215452 -0.036248 -0.333211 -0.119189 0.036727 -0.006331 -0.231505 -0.101942 0.067571 0.266802 0.010305 0.011461 -0.307618 -0.416088 0.365431 -0.492679 0.032667 0.176802 -0.092264 -0.030898 -0.293097 0.130351 0.302655 -0.094685 0.416060 0.312668 0.058899 -0.196018 0.271218 0.021069 -0.059146 -0.024416 0.174826 0.162271 0.341044 0.202534 0.159528 0.092116 0.428016 0.133744 0.041814 -0.090788 -0.429010 -0.201304 0.150992 0.388187 0.174828 -0.480975 0.176869 0.323875 -0.132707 -0.007923 0.285309 0.216770 -0.509704 -0.261127 -0.410575 0.439540 -0.145282 -0.053920 -0.019892 -0.043417 0.225335 0.086490 -0.131857 0.291068 -0.014122 -0.002545 0.145099 0.163853 -0.086623 0.078228 -0.035832 0.111886 0.085951 0.344058 -0.026707 -0.152017 0.235478 -0.329768 0.101330 0.194002 -0.177064 0.016475 0.213309
733 0.203074 0.068825 -0.613624 -0.142183 0.149905 -0.162316 -0.220767 -0.350481 -0.035344 0.224526 -0.062936 0.268468 0.300154 -0.510394 0.332390 -0.114722 -0.238374 -0.347137 -0.314920 0.364708 0.282259 -0.175671 0.557503 0.224087 0.366843 -0.092328 0.135908 0.469127 -0.454361 0.451658 0.082737 0.382166 -0.023086 0.139156 -0.530794 -0.113460 -0.106294 0.725310 -0.662940 -0.113539 -0.304394 -0.201940 -0.129182 0.120674 0.088622 0.081550 0.011106 -0.101669 -0.062583 -0.173961 -0.683858 0.011545 0.441537 0.213665 0.132889 0.194872 0.247301 -0.184674 0.020275 0.095019 0.037426 0.312732 -0.089143 -0.769173 0.289946 -0.019689 0.322076 -0.023961 -0.067234 -0.067997 0.525630 0.105671 0.217422 0.154322 0.017435 0.006783 0.083756 -0.365782 0.206557 -0.071574 0.186522 0.387021 -0.243290 0.221680 0.561150 -0.074879 0.304175 0.127003 -0.171921 0.094868 -0.241584 0.570844 -0.056685 0.014277 0.044188 -0.333201 -0.215650 -0.130563 -0.289976 0.089548 -0.114650 -0.022431 -0.063070 -0.014056 0.262428 -0.097520 0.116228 -0.189036 0.059547 0.115560 0.107996 0.316840 0.297038 0.032505 0.074877 -0.103027 -0.051327 0.308261 0.390365 -0.356368 0.182073 0.390838 -0.265154 0.166323 0.075754 0.530849 -0.427723 0.066347
1072 -0.128099 0.047406 -0.550863 0.266073 0.122342 -0.635357 0.233953 -0.349948 0.435698 0.061643 0.243928 -0.117115 -0.035777 -0.342550 -0.004599 0.001436 0.151108 0.145968 -0.049817 -0.093498 0.153781 -0.039338 -0.028033 -0.059656 0.112933 -0.161832 -0.162653 -0.037231 -0.505000 0.039075 0.080942 -0.157886 0.196177 0.231627 0.463441 0.070968 0.323624 0.005649 0.264924 0.040192 -0.543871 -0.285710 -0.034124 0.200542 -0.093358 -0.047384 0.218493 0.284153 0.068859 -0.312396 0.065602 -0.084374 0.132138 -0.096272 -0.115540 -0.224191 0.233078 0.320860 -0.159959 0.269931 -0.001280 -0.255229 0.204225 -0.044621 0.308918 0.053715 0.080112 0.287288 0.340406 -0.114125 -0.232926 0.192756 -0.193968 -0.318564 -0.080350 -0.123122 0.060702 0.021962 0.266628 0.022199 -0.124787 0.239457 -0.363319 -0.217279 0.373276 -0.384171 -0.126278 0.000060 -0.223837 -0.034584 0.095674 0.067250 0.455292 -0.416808 0.189666 0.048288 0.390991 0.075757 -0.052756 -0.338937 0.197932 -0.466759 -0.216298 -0.302704 -0.135575 0.040730 0.266856 -0.139934 0.001248 -0.173090 -0.195744 -0.014732 -0.472481 0.208630 -0.253171 -0.205647 -0.013355 0.113858 0.327201 0.177698 0.173716 -0.158494 -0.045678 0.003745 -0.052961 0.183928 -0.059400 0.257791
1542 0.255479 -0.370046 -0.651304 -0.357398 0.080807 -0.909261 -0.652159 -0.125291 0.426061 0.593923 -0.272020 0.275836 0.424934 0.048643 0.527054 0.643082 0.224666 -0.049614 0.248997 0.405822 -0.582129 0.093127 0.350210 -0.005670 -0.469428 0.509565 0.067853 0.089724 -0.761646 0.501273 -0.040874 0.233286 0.534152 -0.027747 0.565954 0.073000 -0.267534 0.135739 -0.616322 0.434981 -0.393072 0.145580 0.271530 0.588654 0.257522 0.306791 0.028940 -0.059211 0.665606 -0.485932 -0.235502 -0.209617 -0.308843 0.147611 -0.302352 0.454104 0.333030 0.079849 0.072001 -0.450495 0.466572 -0.054233 -0.267920 -0.379749 0.299952 0.235395 -0.047104 -0.423652 0.059885 0.518470 -0.396208 -0.573750 -0.302457 -0.340539 0.570594 -0.337826 0.306544 0.116480 -0.075774 0.111470 -0.087804 0.225484 -0.559491 0.345641 0.080599 -0.677306 0.153425 -0.139725 -0.285657 -0.130378 -0.334675 0.152376 -0.129844 0.158975 -0.048680 0.531074 0.235487 -0.153575 -0.344317 0.286368 -0.035634 0.148191 0.057323 0.428879 0.359165 -0.009423 -0.336752 -0.712021 -0.191116 0.426789 0.261713 -0.042732 0.351850 -0.343395 -0.234278 -0.166271 0.230412 -0.253360 -0.587723 0.084869 -0.089895 0.074759 0.145592 0.046342 0.033555 0.002763 -0.037841 -0.173493
1224 0.229594 0.029813 -0.056639 -0.186192 -0.025503 0.038028 0.357645 0.272453 0.119360 0.032640 0.307985 -0.125875 -0.082714 -0.204655 -0.214842 0.000771 0.225151 0.156331 0.108570 0.374099 0.261677 -0.246128 -0.234202 0.374767 -0.082108 -0.082507 0.420271 0.563127 -0.250026 0.014751 0.313032 0.259351 0.375470 0.189837 -0.155352 -0.072928 -0.368832 0.253781 0.060608 0.393440 -0.082695 0.619778 -0.080714 0.262257 -0.066008 -0.113654 0.279596 -0.054305 0.130823 -0.663487 -0.022463 0.105772 -0.277251 0.094801 0.028082 0.373405 -0.291266 0.264774 -0.405405 -0.441023 -0.154282 0.067332 0.261297 0.137406 -0.484322 -0.235625 0.293364 0.268016 0.426537 -0.077414 0.004185 0.091056 -0.172274 0.242269 0.183695 -0.414978 -0.022445 0.317851 0.463450 0.093298 -0.205647 -0.168277 0.195212 -0.013191 0.050897 0.222418 0.047182 0.231112 0.021452 -0.185551 0.130824 -0.036899 0.097275 -0.096085 0.092127 -0.021923 0.042907 -0.134489 -0.334963 0.465541 -0.205017 -0.286170 -0.024245 0.161305 -0.141352 0.663494 0.626715 -0.334590 0.158306 0.013280 0.316375 0.202339 0.147263 0.039067 -0.032672 0.387128 -0.091802 0.368590 0.565802 -0.306850 -0.077651 0.335261 0.039387 -0.057228 -0.163602 0.148915 -0.189448 0.338680
1441 0.512314 0.724013 -0.406766 -0.231103 0.570011 -0.582025 0.360225 0.924743 0.755502 0.009273 0.188906 -0.930502 -0.271194 -0.267686 -0.128755 -0.063561 0.664733 0.484614 -0.314113 0.520383 -0.224795 0.072548 -0.065682 0.474794 0.226499 0.224398 -0.073971 0.308548 -0.355733 0.445468 0.012373 -0.001289 0.315172 0.080024 0.335586 -0.158674 -0.236560 -0.288142 0.075363 0.482524 0.045928 -0.023512 0.243411 0.006202 -0.174763 -0.017346 0.013841 -0.338360 -0.127826 -0.355740 -0.256966 -0.170345 0.517494 0.139146 0.116255 -0.194190 0.319384 -0.449554 -0.508883 -0.152425 -0.444884 0.286096 0.688991 0.025044 -0.062639 0.377354 -0.034176 0.383266 0.595087 -0.481453 -0.575617 -0.161742 -0.517243 0.027155 -0.090981 0.763578 -0.010828 -0.142578 0.067942 -0.184979 0.247431 0.164734 -0.023254 -0.498564 0.251341 -0.186775 -0.179858 -0.032234 0.273518 0.055655 0.361661 -0.547595 0.391577 -0.335510 -0.011646 -0.083268 -0.581698 -0.367234 -0.105842 0.234884 0.069466 0.284164 -0.957544 0.323040 -0.491892 0.421670 -0.204239 -0.517789 0.068628 0.900973 -0.042228 -0.495699 0.158131 0.364844 0.565793 0.420474 -0.226595 -0.577555 -0.302156 0.236802 -0.061279 0.462556 0.121067 0.589383 0.128758 -0.108350 -0.484448 0.032122
1169 -0.038683 -0.042300 -0.383369 -0.182225 0.195589 -0.239058 0.344076 -0.285675 -0.165629 0.266070 -0.395152 -0.302226 -0.199116 -0.340693 0.101382 -0.244967 -0.361831 -0.344590 -0.292357 0.420209 0.210268 -0.043452 -0.259107 0.159620 -0.673834 -0.138400 0.108170 0.062923 -0.438802 0.394719 -0.289807 0.049818 0.530696 -0.137954 0.152618 0.417179 -0.008073 0.389161 -0.051625 0.241779 -0.228769 0.032421 -0.096290 0.242017 -0.232697 -0.110412 0.080036 0.263947 0.003994 0.015314 -0.121775 -0.170392 -0.122709 -0.225222 0.564987 -0.324522 -0.530817 0.328762 0.175572 0.188783 -0.167735 0.132571 0.081029 0.223696 -0.258557 -0.034859 0.213281 -0.074344 0.091567 -0.201350 -0.327614 -0.655101 -0.445710 -0.192873 -0.454979 0.049048 -0.489787 -0.235668 -0.293824 0.381354 -0.090675 0.128381 -0.571884 -0.417408 0.441348 0.230748 0.503088 -0.295017 0.074433 -0.488885 -0.075611 0.282641 0.277366 -0.063135 -0.168526 0.015065 0.110303 -0.089518 0.123706 0.172885 0.383286 0.024207 -0.284462 -0.414997 0.316944 0.181339 0.356738 -0.266257 0.036185 0.114541 0.181523 -0.392239 0.175045 0.440473 0.163130 0.038941 0.059849 -0.015490 0.344532 -0.135019 -0.121350 0.172605 0.307801 0.188495 -0.057705 -0.249221 0.292920 0.093028
1042 0.056647 0.015584 0.130675 0.333698 -0.657745 -0.804104 -0.151087 0.336003 -0.112536 -0.523544 0.298023 -0.062447 -0.295743 -0.425608 -0.017226 -0.034215 -0.016330 0.085410 0.663602 0.091738 0.115813 0.032847 -0.045961 0.030399 -0.177018 -0.360411 0.500832 0.085428 0.194493 0.226900 0.069921 0.129387 -0.048627 -0.073484 -0.246802 -0.091804 -0.098331 -0.106158 -0.255748 0.762475 -0.538782 0.097493 0.490225 0.198037 -0.178410 0.298837 -0.060327 -0.317886 0.278790 -0.969580 -0.222468 -0.117471 0.375158 0.239924 -0.250275 0.229181 -0.026511 0.168397 -0.011184 -0.455706 -0.438415 -0.131329 0.025518 -0.378600 -0.235477 0.284063 0.438641 0.081291 -0.169098 -0.269023 -0.293876 -0.280828 0.010117 0.355639 -0.141635 0.142198 0.477591 -0.149879 0.447201 0.226216 -0.446276 0.010718 -0.236903 -0.603526 0.340156 0.304670 0.051316 0.222828 0.032072 0.249838 -0.085527 0.249407 -0.037299 0.125727 -0.470630 0.232485 -0.245986 0.105897 -0.191086 0.391407 -0.418287 0.428894 -0.307524 -0.605070 0.299138 0.250703 -0.481460 -0.097281 0.570910 0.017084 0.378465 -0.351527 -0.397359 0.638116 0.190775 -0.717533 0.056280 0.471805 0.377035 0.376305 -0.373666 -0.129947 0.066254 -0.425183 0.258119 -0.285620 -0.244545 -0.505555
415 0.111095 0.422139 -0.474102 -0.056418 -0.009991 -0.240580 -0.008151 0.107669 0.038301 0.032556 -0.070569 -0.162876 0.171220 0.119535 0.505011 -0.077610 0.145955 -0.016855 0.078550 0.672877 0.237679 0.313432 -0.481745 -0.083138 0.170873 -0.012660 -0.125546 0.397665 -0.370413 -0.117168 0.278048 0.133070 0.346730 0.391846 -0.053235 -0.080335 -0.045362 0.088141 -0.329523 -0.110858 -0.145536 0.254454 0.152249 -0.464740 -0.396925 -0.385765 0.025418 -0.204062 -0.617333 0.198143 -0.213002 0.016620 0.212131 -0.158385 -0.342037 -0.187599 -0.491364 0.127182 0.076968 -0.625343 0.111967 0.034710 -0.183109 -0.260476 -0.078380 0.016751 0.077744 -0.333890 0.203391 -0.233032 0.195161 0.155921 -0.096240 0.335296 0.460160 0.357247 -0.088750 -0.090238 0.027771 0.223284 -0.068499 -0.102481 -0.000504 -0.287813 0.103559 -0.256378 -0.055558 -0.032564 -0.077685 -0.054413 -0.106783 0.155486 -0.236480 -0.175731 0.081855 0.211462 0.001019 0.382534 -0.047345 0.254382 0.007457 -0.125454 0.422021 0.247754 -0.064805 0.206540 -0.253822 -0.726460 0.364344 0.244127 0.133752 -0.530329 -0.199357 0.143517 0.717900 -0.376665 0.178081 0.691503 0.234445 -0.340766 -0.018302 0.080163 0.325332 -0.371537 -0.068310 0.195596 -0.025070 0.278653
1131 0.188326 -0.149373 -0.203363 0.469976 0.067885 0.049243 -0.116260 -0.002711 0.295544 0.092705 -0.014005 -0.000754 0.083936 0.115995 0.216124 0.061687 -0.130363 -0.020279 0.013619 0.429171 0.087867 0.081624 0.112532 0.179583 0.115181 -0.032670 -0.112616 0.371465 -0.175372 0.585078 -0.080692 0.052181 0.387827 0.094616 0.153053 -0.293983 -0.233644 -0.377747 -0.378781 0.434696 -0.140398 0.176316 -0.105237 0.008305 0.243197 0.132484 -0.217495 0.400485 -0.479417 -0.205653 -0.317949 0.354836 0.382611 -0.190509 0.405955 -0.205510 0.041943 -0.083581 -0.427995 -0.343673 0.009722 0.174621 0.370028 0.824950 -0.075732 0.342377 0.209052 -0.267527 0.298472 -0.348763 0.098813 0.104588 -0.154598 0.444232 0.279457 -0.627589 0.235202 -0.061635 0.146218 0.170239 -0.347538 -0.521552 0.040574 -0.348045 0.201746 0.064206 0.218620 -0.050696 -0.341050 -0.020269 -0.107738 -0.079418 0.054344 0.345452 0.034908 0.286941 -0.363738 -0.359041 -0.322677 0.310135 -0.123195 -0.297470 -0.170525 -0.012378 -0.077702 0.277851 -0.106222 0.077783 -0.025006 0.169128 0.075516 0.362236 0.062767 0.401510 -0.123032 0.231979 0.664610 0.248320 0.564388 -0.152280 -0.418884 0.045529 0.031096 -0.256454 0.218144 -0.024579 -0.093878 0.212082
118 0.398495 -0.517272 -0.531382 0.257211 -0.442815 -0.379711 0.183319 0.101750 0.584371 0.554345 0.010096 -0.178040 -0.014472 -0.113116 0.108577 -0.533203 0.085114 0.250044 0.036624 0.222310 0.717297 0.234385 -0.284407 0.077338 0.503517 0.102764 -0.267669 0.382174 0.216328 -0.165022 -0.146935 0.010917 0.005645 0.029328 0.013506 -0.426096 0.155506 0.156297 0.231025 0.193318 -0.550192 -0.516456 -0.206894 0.160879 -0.355430 -0.222584 -0.073727 -0.009929 -0.223275 -0.699607 -0.459990 0.373573 -0.050156 0.103897 0.374260 -0.116804 0.099799 -0.175579 -0.542283 0.072872 0.125724 -0.062326 0.335643 0.135320 -0.068642 0.150673 0.171991 0.495173 0.433261 -0.115271 0.271894 -0.163867 -0.262107 0.160113 -0.318117 0.003925 0.336402 0.053245 0.425585 0.072790 -0.024074 -0.227907 -0.037576 0.429337 0.021706 0.175497 -0.186089 0.169229 0.024911 0.312171 -0.067363 -0.187664 -0.233075 -0.238627 -0.254768 0.344888 0.073165 -0.323871 0.569888 0.282028 -0.208484 0.376127 -0.371843 0.346742 -0.387543 0.228748 0.092752 -0.241642 0.328810 0.335710 0.367100 0.203880 0.384300 0.354508 0.408620 0.104353 0.869687 0.028238 -0.051224 0.010496 -0.129093 0.532300 -0.029842 -0.407498 0.052640 -0.224206 0.107737 0.439750
95 0.410267 0.048170 0.059554 0.608294 -0.104897 -0.534486 0.590991 -0.011835 -0.158851 0.075061 0.071362 -0.356959 -0.204446 0.019782 0.140812 0.164365 -0.055654 -0.062084 0.237951 0.190560 -0.022358 0.204872 -0.309728 0.243914 0.109723 -0.338335 0.306617 -0.263303 0.190650 0.439262 0.314138 -0.094870 0.179536 0.008157 -0.444585 0.276695 -0.046410 -0.219539 -0.063367 0.282129 -0.681771 0.423336 0.564694 0.146962 0.241061 0.011935 0.230064 -0.169152 -0.403588 -0.755093 -0.003205 -0.449346 0.547264 -0.333669 0.089780 -0.119019 -0.049442 0.097416 -0.469909 -0.051650 -0.161315 0.238286 -0.232901 -0.258101 -0.474402 -0.193593 -0.356797 0.167668 0.250828 0.130187 -0.371967 -0.041088 -0.170699 0.325010 -0.360438 0.133873 -0.189327 -0.043236 0.273563 0.205530 -0.315365 0.469600 0.028049 -0.436799 -0.075734 0.162793 0.140435 -0.162216 -0.114240 0.269089 -0.555860 0.541679 -0.380387 0.116043 -0.009189 0.045356 -0.023276 0.128209 -0.084411 0.315049 -0.122003 -0.068528 -0.039478 -0.261242 0.610589 -0.133068 -0.281187 -0.525444 0.246630 0.223117 0.409327 -0.140468 -0.201290 0.312045 0.232913 -0.098657 0.093814 -0.070528 0.260290 -0.134617 -0.041949 0.299266 0.198623 -0.123595 -0.171228 0.193002 0.034138 -0.176276
1483 -0.085731 0.197080 -0.446529 0.462708 -0.412579 -0.572388 0.271935 -0.009877 0.102854 0.314659 0.033206 0.034985 0.320107 -0.243375 0.617348 0.138439 -0.011744 -0.039896 0.019090 0.010200 -0.150002 -0.350733 -0.343605 0.496174 0.605012 0.113343 -0.190738 0.066315 0.047518 0.215219 0.133159 -0.355261 0.399470 0.145675 0.425803 0.187876 0.402212 0.049730 0.299871 0.021804 -0.025224 -0.175046 -0.248318 -0.050806 -0.041182 -0.032745 0.139501 0.397359 0.201769 -0.125613 -0.261491 -0.244001 -0.014369 -0.301294 0.091763 -0.648716 -0.085414 0.411472 -0.222242 -0.077444 0.064324 -0.040092 0.318469 0.241734 0.901854 0.044537 -0.002153 0.348381 0.104267 0.162261 0.003901 -0.392235 -0.435274 -0.405100 -0.060826 0.244471 0.242746 -0.203092 0.192648 0.044592 -0.171443 0.147883 -0.028941 -0.227713 0.267959 0.324910 0.214924 -0.161081 0.299433 -0.451741 0.140641 0.303232 0.125316 0.059179 -0.255936 0.665961 0.400333 0.431239 -0.281200 0.144973 0.332534 0.121964 -0.132566 -0.283402 -0.033874 0.018777 0.282604 -0.331722 0.367170 -0.152156 -0.238522 -0.039916 0.140239 0.017374 0.184053 0.023448 -0.748416 0.349039 0.164903 -0.014815 0.126553 0.109676 0.063391 0.284242 0.030135 0.071073 0.197427 -0.492017
1692 0.035989 0.199783 -0.065735 0.211580 -0.131989 0.026968 -0.362052 -0.066047 -0.152650 -0.198370 0.321887 0.225971 -0.491887 -0.168167 -0.009097 -0.442904 -0.076044 -0.495854 0.439332 0.439814 -0.752496 -0.071007 -0.485057 -0.223541 0.226411 0.254572 -0.526403 0.144250 -0.248227 0.707688 0.245808 0.127305 0.049964 0.131618 -0.163538 0.053996 -0.155134 0.742349 0.071846 -0.131631 -0.649554 0.074794 -0.087561 -0.139814 -0.024185 0.073671 0.102169 0.723013 -0.375960 -0.761980 -1.031027 0.186171 0.024467 -0.340632 -0.441438 0.791696 -0.127295 0.164421 -0.497832 0.249781 -0.151358 0.302400 0.381841 -0.710670 0.290391 -0.102868 0.402600 -0.328667 0.162201 -0.004672 0.547564 0.323218 -0.655107 -0.084455 -0.318798 0.023779 0.934814 0.382605 -0.227722 -0.852182 -0.246876 -0.035478 -0.638339 -0.055430 -0.002431 -0.118776 0.340211 -0.289979 -0.383265 -0.014406 0.030845 0.462297 0.589112 0.367564 0.540565 0.264558 -0.294152 0.356514 -0.207073 -0.195530 0.126270 0.086376 -0.249854 -0.479198 0.385635 0.295723 -0.112159 -0.391416 0.135359 -0.042271 0.510412 0.286092 0.043518 -0.095079 0.298482 -0.617841 0.667928 -0.077115 0.049246 -0.051043 0.291036 0.415392 0.176801 -0.144641 0.349180 -0.031616 -0.425100 -0.147182
2182 0.084800 0.064428 -0.467092 0.464431 -0.558358 -0.282946 0.035302 -0.201647 0.130900 -0.087414 0.152474 -0.910823 -0.031715 -0.025407 0.104446 -0.262159 0.093998 0.039332 0.263167 0.326066 0.520225 -0.216599 0.006946 0.206047 0.131715 -0.221115 0.413462 0.643004 0.176861 -0.154477 0.513522 0.132496 0.289222 0.098968 -0.082678 -0.405700 -0.004661 0.207744 -0.064180 0.421221 -0.442132 0.856677 0.513670 -0.104772 0.216915 -0.152413 0.218424 -0.219907 -0.527922 -0.364035 -0.075297 -0.410335 0.587352 -0.091092 -0.444075 -0.236666 -0.705936 -0.062125 -0.310192 -0.365022 -0.068169 0.591714 -0.024911 -0.238092 0.444491 0.137036 0.025934 0.117274 -0.041908 -0.210583 0.046700 -0.026467 0.096699 0.223902 0.050676 0.406713 0.289616 -0.300632 0.000156 0.047422 -0.258076 -0.031805 -0.292481 -0.053181 0.307423 0.125571 0.063940 -0.146205 -0.074242 0.439943 -0.338199 0.336933 -0.394027 0.085003 -0.389556 -0.043888 0.069837 0.272201 -0.525794 0.297014 -0.059561 -0.138555 0.372792 -0.131875 0.461444 -0.302516 -0.356328 -0.481488 0.339069 0.218188 0.734054 -0.374588 -0.488425 0.189737 0.347016 0.301105 0.539452 -0.082330 0.018457 0.053247 -0.001957 -0.147733 0.217576 0.034210 0.243296 -0.012542 -0.153011 -0.111369
1416 0.261866 0.497163 -0.083152 0.127263 -0.476343 -0.463946 0.141602 0.235317 0.211328 -0.297885 0.045585 0.352877 -0.458176 -0.435372 0.015156 0.144324 -0.224904 -0.082300 -0.254400 0.269358 0.277270 0.113952 0.566153 -0.182756 -0.028228 -0.440148 0.146700 0.441697 -0.075294 0.154264 0.164478 0.086117 0.008745 0.399793 0.005484 0.159664 0.125064 -0.250946 -0.222121 0.397210 -0.500869 0.453829 0.241610 0.383269 -0.466806 0.179244 -0.075037 -0.622170 0.208902 -0.109656 -0.110939 -0.182402 0.186154 0.380120 0.122439 0.330138 -0.430170 -0.215640 0.077624 -0.376196 -0.279187 0.011542 0.101589 0.006393 -0.129603 0.437900 0.036914 0.055656 -0.491375 -0.024850 -0.219164 0.004594 0.101596 0.069003 -0.223787 0.300795 0.307414 0.022879 0.422388 0.444840 -0.567289 -0.111093 -0.117386 -0.314090 -0.097306 0.263004 0.260389 -0.204730 -0.423895 0.613970 0.108154 -0.175784 0.403010 0.107466 -0.170436 0.702776 -0.046935 0.044036 -0.230796 -0.072503 0.026354 0.479139 -0.203163 -0.536205 0.184202 0.315556 -0.367978 -0.265497 0.558753 -0.348880 0.313128 0.028872 0.132238 0.060229 0.431475 -0.307511 0.224985 0.304166 0.766471 -0.143891 0.038206 0.512243 0.180288 -0.339355 0.004388 -0.374271 0.141307 -0.066881
436 -0.373197 0.148264 -0.300007 0.756261 -0.387482 0.230801 -0.166035 0.181249 0.306883 -0.021410 -0.086289 0.204888 0.541143 -0.447879 0.534798 -0.201102 -0.004494 -0.023984 0.086541 -0.207068 0.325117 0.817647 -0.125840 0.438386 0.228669 -0.062522 -0.313070 0.090634 -0.239645 0.331550 0.067401 -0.060388 0.660619 0.212628 -0.333281 -0.378460 -0.204910 -0.109291 -0.320777 0.639729 0.086546 0.178517 0.360761 0.127992 0.056535 0.592896 0.148393 -0.064965 -0.124479 -0.248387 -0.477628 -0.113430 0.143279 -0.218031 -0.009211 0.399222 -0.086330 -0.232732 -0.310488 -0.353419 -0.320654 -0.148425 0.401718 0.146435 -0.056286 -0.035772 0.259768 -0.190146 0.801798 -0.479711 0.215244 -0.033764 -0.473803 0.433177 0.194588 -0.256792 -0.125021 0.517572 -0.199164 0.342607 -0.308156 -0.443051 -0.458121 -0.164173 -0.116269 -0.151797 0.302212 0.010686 -0.409644 -0.334697 -0.359700 -0.343399 0.594024 0.385873 0.252052 0.162304 -0.179556 0.096534 -0.305380 0.389936 -0.460623 -0.399209 0.120176 -0.045530 -0.297524 0.131790 -0.312638 -0.178372 0.237161 -0.376403 0.338460 -0.167430 0.276124 0.332780 0.301712 0.420738 0.282333 0.271787 0.461613 -0.028086 0.086458 0.360202 0.369697 0.008696 0.327708 -0.033408 0.190502 -0.367421
963 0.332096 0.417504 -0.013799 0.549550 -0.154287 0.113276 -0.008159 -0.039503 -0.078932 -0.011489 0.282003 0.125691 -0.201598 -0.457795 -0.550857 0.631827 0.033028 0.017133 -0.001568 0.174651 0.150798 0.082305 0.123848 0.396358 0.033291 0.845114 -0.029999 -0.042528 -0.140255 -0.247372 -0.006870 0.059180 -0.004768 0.174853 0.518788 -0.302489 -0.025743 -0.039595 -0.562603 0.436369 0.153265 -0.502645 -0.033041 -0.249424 -0.160008 0.548417 -0.347944 0.225022 -0.435673 -0.059710 -0.458129 -0.463088 -0.329958 -0.106834 -0.126029 0.645292 -0.006354 0.442756 0.358689 0.452526 0.376569 -0.161232 0.062609 -0.030678 0.080854 0.546052 0.101781 0.708340 0.394230 -0.287963 -0.108265 0.304039 -0.047650 -0.261583 0.005649 0.248826 0.082528 -0.182015 0.100801 0.583394 -0.273032 0.351265 -0.005186 0.217583 0.451004 -0.168610 0.468275 1.073663 -0.388617 0.080728 -0.087523 0.517787 0.341882 0.343220 -0.221868 -0.140533 -0.013385 0.380955 -0.657173 0.411108 -0.021127 -0.458268 0.008949 0.147792 0.278575 0.326961 -0.125161 -0.802531 0.279530 0.104792 0.264050 0.552561 -0.028268 0.067037 0.750396 0.070520 0.180757 0.050767 0.092359 -0.234645 -0.018847 0.165594 -0.778804 0.051232 -0.715389 -0.339805 0.121237 0.363785
973 -0.046785 0.742503 -0.354253 0.489496 0.078198 -0.242908 -0.156191 -0.063521 0.619852 0.445533 0.033205 -0.010176 0.340518 -0.365622 -0.423588 -0.292346 0.107414 0.006275 0.252244 0.303818 0.417898 -0.308495 -0.340357 0.074362 0.086130 0.093542 -0.090569 -0.098571 -0.316225 -0.030807 -0.014787 0.127073 0.051224 0.323709 -0.298826 -0.144814 0.120429 0.046596 0.217029 0.050788 -0.541147 0.341481 -0.011211 0.169555 -0.406988 -0.140970 0.013262 -0.031503 0.085630 -0.576136 -0.095433 -0.183249 0.052005 -0.131810 0.165739 0.130007 -0.122417 0.205654 0.094693 -0.179903 -0.058077 -0.201905 0.224220 0.450230 0.064492 -0.066460 0.021589 0.684615 0.741437 -0.027612 -0.022645 0.442639 0.068808 0.105014 0.386485 -0.087570 -0.183914 0.218353 -0.082445 -0.133863 -0.095629 -0.104157 0.258147 0.438305 -0.003648 0.087635 0.017494 0.183169 -0.007662 -0.003201 0.270979 0.375213 0.359842 -0.374243 -0.198651 0.022341 0.040178 -0.543439 0.338154 -0.065973 -0.058670 -0.225142 -0.307976 -0.297447 -0.156731 0.440288 0.033755 -0.589814 0.344909 0.271095 0.273190 0.114892 -0.163373 0.125434 -0.144914 0.082842 -0.110654 0.179045 0.015017 0.053941 -0.065782 0.067722 0.433449 -0.040029 -0.085184 0.037538 -0.363439 0.127177
1103 0.235491 -0.101515 -0.231394 -0.039109 -0.195716 -0.263259 0.173840 -0.022788 -0.095153 0.277107 -0.046965 0.389067 -0.098515 0.272215 0.535183 0.156749 -0.136263 0.744335 -0.057848 -0.031976 0.356645 -0.149202 -0.030432 -0.005075 -0.288072 0.279278 -0.076422 0.070665 -0.628261 0.202932 -0.033410 -0.171825 0.511131 -0.269916 0.086165 -0.097399 0.782525 0.235041 -0.041322 -0.046845 0.134488 0.132037 -0.573524 0.116222 -0.407605 0.090198 -0.272075 0.183011 0.091062 -0.102053 -0.411292 0.095988 0.251293 0.206483 0.304236 -0.309757 -0.507576 0.534778 0.264271 0.005605 0.007335 0.051411 0.468150 -0.114343 0.071581 -0.420154 -0.051687 -0.261300 0.611459 -0.281424 -0.649159 -0.619974 -0.342547 -0.171123 0.000424 0.302815 -0.597308 0.266553 0.189232 0.385176 -0.311794 0.246220 -0.424539 0.008443 0.306587 0.573588 0.377111 -0.182503 -0.002766 0.024569 0.279921 0.200731 0.187426 -0.425638 -0.270416 -0.042452 0.392016 -0.041855 -0.327684 0.330987 0.128298 -0.068583 -0.231401 -0.333217 0.387484 -0.237154 0.189919 -0.098076 0.046421 0.044865 0.213815 -0.154943 0.340598 0.021356 0.027687 0.006851 0.245518 0.073802 0.807197 0.031148 -0.382171 0.133330 0.260358 -0.026369 -0.055378 -0.160345 0.140087 0.074113
1413 0.369361 -0.301826 -0.782116 -0.348372 0.049065 -1.067863 -0.884020 -0.007207 0.570622 0.305747 -0.525107 0.363298 0.672116 -0.247531 0.564233 0.845171 0.387814 0.128711 0.332337 0.608745 -0.789712 -0.271811 0.393522 0.099758 -0.563205 0.486210 0.240727 0.160781 -1.064171 0.643766 0.128248 -0.055582 0.642967 0.007036 0.469422 0.422136 -0.248815 -0.178352 -0.392399 0.374299 -0.736164 0.277097 0.024190 0.543512 0.210547 0.618225 -0.168066 -0.035974 0.469739 -0.530680 -0.149496 -0.354271 -0.187214 0.190399 -0.271525 0.643697 0.324532 0.186751 0.123807 -0.668491 0.705821 0.193607 -0.056264 -0.560817 0.408446 0.306898 0.021666 -0.632454 0.342511 0.775083 -0.452774 -0.919983 -0.291856 -0.289658 0.778844 -0.433364 0.537485 0.255498 0.079823 0.279825 -0.199151 0.178957 -0.517937 0.386982 0.101983 -0.773210 0.129208 -0.286196 -0.371137 0.032874 -0.394151 0.002486 -0.458634 0.336179 0.031121 0.391199 0.276669 -0.152411 -0.308747 -0.030274 0.001614 0.326042 -0.236639 0.373305 0.446736 -0.231974 -0.345078 -1.027219 0.072177 0.435811 0.587980 -0.115719 0.435850 -0.508562 -0.158661 -0.088328 0.097074 -0.295245 -0.823022 0.091566 -0.179513 -0.318806 0.271035 0.169210 0.080088 -0.158948 0.152200 -0.218663
1765 -0.118714 -0.083194 -0.120728 -0.212562 0.117120 -0.575789 0.023721 -0.050010 -0.323756 0.194156 -0.196959 -0.115397 0.228331 0.347922 0.126636 -0.282165 -0.407516 -0.400196 -0.216639 0.460586 0.244681 -0.087775 -0.271190 0.217399 -0.268197 0.159218 -0.007781 0.123548 -0.575237 -0.330169 0.194800 -0.042506 0.435646 0.104246 0.165639 0.142743 0.121794 0.217662 0.015732 -0.041076 -0.270588 -0.061129 -0.380967 0.107232 -0.235991 0.157580 -0.196135 0.310487 -0.247871 -0.201981 0.007117 -0.246639 0.043806 -0.270907 0.472502 -0.355062 -0.431573 0.231988 0.290286 0.001167 0.099611 0.370667 0.033753 0.231201 0.023278 -0.182311 0.116463 -0.082267 0.067332 0.166635 -0.269387 -0.482095 -0.397473 -0.208833 -0.580662 0.129773 -0.495886 -0.003569 0.117240 0.541178 0.012362 -0.002294 -0.367758 -0.379803 0.384578 -0.226932 0.684591 0.097193 -0.106145 -0.287834 0.030568 -0.163221 0.119985 -0.250011 0.055230 -0.056298 0.172422 0.133922 -0.094301 0.009192 0.520903 -0.047840 -0.302877 -0.343131 0.532989 -0.017317 0.148936 -0.071854 0.174905 0.089977 0.308417 -0.226063 0.482810 0.237622 0.310773 -0.013791 -0.028724 -0.183996 0.775436 0.252959 -0.555461 0.149702 0.463518 0.257011 0.167701 -0.541636 -0.080681 -0.206000
661 -0.262403 -0.102112 -0.301194 0.083141 -0.502188 -0.431228 0.400993 -0.225857 -0.128784 -0.071538 0.453044 -0.454375 0.485450 -0.447616 -0.094141 0.427968 0.580887 0.490577 0.137656 0.129065 0.437986 0.174166 -0.237064 0.473562 -0.160766 0.081288 -0.094485 0.615169 0.036546 0.257440 0.680237 0.538854 0.210393 -0.005054 0.086235 0.404323 0.057375 0.031550 0.149771 0.144432 -0.087502 0.070596 0.059727 -0.153419 0.000414 0.270226 0.216467 0.656179 -0.429643 0.089581 0.050557 0.575067 0.768126 0.115562 0.350141 0.379498 -0.234616 0.154068 0.245362 0.108942 -0.083888 0.024047 0.270114 0.451930 0.796184 -0.414195 0.009296 -0.100624 0.218352 0.635041 -0.269662 0.085793 -0.176555 0.247924 0.232927 0.378973 -0.182458 0.456740 -0.534859 0.338310 -0.116394 -0.224402 -0.145245 0.033769 0.202854 -0.232621 -0.217868 0.741673 0.172655 -0.024644 0.137866 0.114761 0.290616 0.291652 0.111751 0.140547 -0.126451 -0.636518 -0.085331 0.022197 0.058645 -0.231772 -0.329402 0.483347 -0.472127 0.378739 -0.257491 -0.279205 0.974669 0.459917 -0.035712 0.131000 0.211859 0.296206 -0.035710 -0.207255 -0.238551 0.116426 -0.139676 0.187718 0.003488 0.600132 0.299927 0.116565 -0.003284 -0.060473 0.001995 0.125455
2155 0.244544 -0.027252 0.325444 -0.159025 -0.462897 -0.225862 0.294645 0.083280 0.093718 -0.260873 -0.050014 0.095217 -0.242248 -0.286145 -0.171590 -0.193936 0.151023 0.462282 0.130029 0.504786 0.242210 -0.269446 -0.561781 0.539573 -0.209567 -0.004749 0.136018 0.211694 -0.499322 0.446427 0.102649 -0.040432 0.076853 0.098444 -0.236340 -0.025084 -0.542751 -0.185207 -0.395909 0.701027 -0.459792 0.282592 0.340929 -0.063893 -0.155969 0.090811 0.086602 0.219428 0.199960 -0.562517 -0.259964 0.201175 -0.383940 0.095311 0.172997 0.056184 -0.165242 0.075962 0.194280 -0.232538 0.320145 0.005422 0.452516 0.247240 -0.401792 0.345070 -0.203578 -0.160483 0.010236 -0.490341 0.231475 0.074429 0.083104 0.342276 0.121422 -0.038438 0.073670 -0.011204 0.384535 0.220310 -0.342116 -0.335523 0.319673 -0.133184 0.356056 0.380161 0.073816 0.011882 0.127717 -0.266384 -0.246255 0.277083 0.171531 0.319222 0.133834 0.978600 0.091897 0.118567 -0.215361 0.028469 -0.220822 -0.250005 -0.017395 -0.305431 0.019600 0.457951 -0.155238 0.134332 0.236322 -0.099874 0.164045 0.352445 0.017064 0.409074 0.054967 -0.064755 0.120617 -0.023485 0.623399 -0.042821 -0.264726 0.284957 -0.209636 -0.179828 -0.163306 0.270182 0.007330 0.155014
2001 0.000295 0.163744 -0.330737 -0.359269 0.044968 0.145415 0.002361 -0.031875 0.008261 -0.266590 0.307222 0.595272 0.128827 0.111897 0.364924 -0.257715 0.228790 -0.247405 0.531758 0.480345 0.018143 -0.340791 0.014593 0.206457 0.194098 0.225954 -0.289262 -0.326903 -0.218697 0.339532 0.161563 0.076638 0.232907 0.067683 0.203893 0.315056 -0.053072 0.502280 -0.018099 0.327058 -0.189367 -0.307345 0.195883 0.172731 -0.208480 0.285383 0.182525 0.235413 -0.281331 -0.526599 0.319001 0.440636 0.129390 -0.112709 -0.429547 0.547905 -0.119322 0.204094 -0.507536 0.490609 0.348986 -0.059561 -0.590333 -0.234877 0.203485 0.383422 -0.307011 0.003362 -0.268456 -0.183279 -0.079557 0.016921 -0.230628 0.533366 -0.408466 0.073668 0.383360 0.613696 -0.095055 -0.021548 -0.096828 0.358633 -0.214333 -0.047936 0.136646 -0.129066 0.279450 0.007336 0.074825 -0.446876 0.117214 0.534881 0.030397 -0.112887 0.052794 -0.014334 -0.369775 -0.241311 -0.220295 -0.214819 -0.612860 -0.086454 -0.061619 -0.563248 0.098699 -0.292185 0.111449 -0.113113 0.297608 0.075077 0.193568 0.286082 0.644892 -0.126767 0.273734 -0.504301 0.700909 0.022396 0.442233 -0.271635 0.457132 0.160734 0.021225 0.306789 0.526770 0.310274 -0.651766 -0.071090
1703 0.328514 -0.166014 -0.220852 -0.042564 -0.003448 0.300170 -0.327177 -0.401052 -0.286204 -0.127797 0.506453 -0.234356 0.257694 -0.342640 -0.586997 0.163120 -0.032801 -0.395215 -0.443509 0.459301 -0.149718 0.165401 0.062703 0.136592 0.455120 0.330080 -0.053541 -0.385210 0.028872 0.255997 -0.308102 -0.109119 0.148811 0.043196 0.194421 -0.149926 0.006925 0.137823 -0.759128 -0.038631 0.110855 -0.708641 -0.369034 -0.111407 0.222997 0.416913 -0.697531 0.072770 -0.018826 -0.306521 -0.214206 -0.000079 -0.285069 0.030342 -0.062250 0.631108 -0.316333 0.238265 0.023125 0.056670 -0.289648 0.625588 -0.124969 -0.299574 0.232940 0.356067 0.295325 0.064535 -0.260770 -0.448637 -0.019973 0.432965 0.301030 0.399831 0.270468 0.471301 -0.179171 0.163980 0.042623 0.696606 -0.768708 0.152084 0.006233 -0.149498 0.670091 -0.317476 0.471885 0.398078 -0.140158 0.119027 -0.217164 0.543196 0.341740 -0.057403 0.332002 0.304195 0.068717 0.070473 -0.345977 0.604225 -0.201986 0.170535 -0.006648 -0.166066 0.155207 0.263054 0.120640 -0.384884 0.544447 0.542761 0.355572 -0.294135 -0.325730 -0.262991 0.195566 -0.115480 -0.029359 0.160589 -0.006966 -0.439712 -0.080348 0.167040 -0.407523 0.003443 -0.404649 -0.072953 -0.273592 0.322361
1257 -0.898133 -0.440406 -0.779222 0.474015 -0.165578 -0.313092 -1.077410 0.272491 -0.281432 0.434725 0.724884 0.114663 -0.211396 -0.125226 0.103773 0.368682 -0.462600 0.450045 0.459688 0.409275 -0.380132 -0.428130 0.151912 -0.154993 0.578764 -0.064499 0.027132 0.590846 0.141852 0.260773 -0.044564 0.154406 -0.134353 0.479933 -0.601357 0.505775 0.385990 0.135860 -0.785997 0.097940 -0.577062 0.788929 -0.483986 0.074705 -0.793983 0.798893 -0.244938 -0.007805 -0.169871 -0.348446 -0.271519 -0.392614 -0.767485 -0.413792 0.479371 -0.404452 0.609366 0.160656 0.365629 -0.019688 -0.081161 0.373646 0.030508 -0.465355 -0.450826 0.841206 -0.328045 -0.134213 -0.352532 -0.133920 -0.483216 -0.123122 -0.385929 -0.046604 -0.242156 0.396545 0.467633 0.229226 -0.177113 0.706820 -0.350004 0.178299 0.223003 -0.361602 0.425625 -0.628909 0.090371 -0.218822 0.202783 -0.578150 -0.731039 0.132677 0.429207 -0.151826 -0.172400 0.052047 -0.605251 0.251341 -0.714974 0.416975 -0.439874 -0.559780 -0.274367 -0.183961 -1.026792 0.075936 0.169833 -0.781709 0.703640 0.239418 -0.319211 -0.166024 -0.005990 -0.071170 -0.147872 0.112221 0.162548 -0.736111 0.053474 -0.380599 0.074947 0.194079 -0.076417 -0.145769 -0.708834 -0.154849 -0.799573 0.540424
1628 0.471115 -0.027902 0.079141 0.544412 -0.648373 -0.742402 0.145105 0.094222 0.312340 -0.249140 0.258860 -0.270290 -0.153440 -0.163852 -0.123775 -0.174771 -0.096324 0.047218 0.563582 0.619698 -0.194346 0.341516 -0.023763 0.343211 0.001004 -0.066190 0.545482 0.233894 -0.159029 0.107102 0.247281 0.111243 0.532946 -0.005554 -0.107459 -0.293906 0.111247 0.024485 0.147827 0.279211 -0.235204 0.219492 0.612454 0.190898 -0.300575 0.071644 -0.059886 -0.168366 0.220672 -0.203029 -0.006659 -0.178154 0.697993 -0.271344 -0.598178 0.069333 -0.342368 0.290343 0.002431 0.135293 -0.655172 0.149938 0.093562 -0.509361 -0.282476 0.021420 -0.266320 0.178019 -0.124436 0.128370 0.103260 -0.083541 0.154601 0.134743 -0.254326 0.359285 0.325661 0.011757 0.436979 0.268312 -0.803936 -0.141440 0.109615 -0.340424 -0.102302 0.310584 0.015442 -0.036834 -0.067523 0.373426 -0.719742 0.704756 -0.005747 0.252403 -0.349423 -0.016006 0.171598 0.143742 -0.060891 0.376629 -0.175607 -0.275323 0.450082 -0.095067 0.174594 -0.383548 0.027219 -0.081164 0.188448 0.384216 0.755573 -0.409780 -0.184798 0.510630 0.192161 -0.053427 0.561900 -0.032115 0.350173 0.082569 -0.394721 -0.034848 0.312795 0.069093 0.226993 -0.082363 -0.392959 -0.143203
507 0.261169 -0.239943 -0.896166 -0.410456 0.028559 -1.004156 -0.818481 -0.082309 0.691363 0.326682 -0.442749 0.427860 0.482959 -0.146512 0.365123 0.908833 0.331889 0.261329 0.494583 0.575372 -0.695021 -0.359447 0.128391 0.301388 -0.394869 0.388925 0.046507 -0.019843 -0.797101 0.660019 0.113095 -0.243172 0.562111 -0.006479 0.169468 0.334796 0.036035 -0.029106 -0.479372 0.468689 -1.106248 0.066611 0.194292 0.423319 0.529667 0.965037 -0.153725 -0.007188 0.450697 -0.628871 0.006444 -0.445036 -0.113472 0.191077 -0.169574 0.517254 0.222495 0.222219 0.193588 -0.681723 0.669845 0.616998 0.020682 -0.485005 0.281183 0.360409 0.061292 -0.367534 0.310252 0.761569 -0.420372 -1.090822 -0.405772 -0.156868 0.635104 -0.517308 0.477194 0.298501 0.121872 0.205468 -0.198951 0.193093 -0.660013 0.508381 -0.202840 -0.570340 0.109865 0.148944 -0.195764 0.292281 -0.395049 -0.022324 -0.542780 0.375974 -0.088423 0.511542 0.514236 -0.316594 -0.388157 -0.049285 0.021501 0.411782 0.029445 0.187379 0.525177 -0.092610 -0.339614 -1.197787 -0.277340 0.596990 0.626903 -0.024616 0.444592 -0.316599 -0.090740 0.086994 0.085086 -0.270655 -1.012827 -0.024344 -0.002673 -0.412462 0.300412 0.095731 0.233695 -0.055929 0.024369 0.075045
1624 -0.041521 -0.186318 -0.017145 1.017533 -0.380331 -0.675302 0.155508 -0.127582 0.000536 -0.153340 -0.121337 -0.056902 -0.765050 -0.347631 0.166941 0.045108 -0.470978 -0.323701 -0.008402 0.155064 0.066664 -0.011039 -0.552068 0.169556 -0.111894 0.566116 0.104608 0.148732 -0.453382 0.227474 -0.109980 0.236954 0.265100 0.092383 0.024411 -0.558564 -0.141564 0.023953 -0.317766 0.299130 -0.029214 -0.488408 -0.165590 -0.161120 0.052573 0.128644 -0.194912 0.137788 0.254420 -0.101801 0.055019 0.244286 -0.161751 0.064614 -0.158763 -0.046517 -0.067987 0.196891 -0.479757 -0.260365 0.190564 -0.639387 0.175082 0.231913 0.143139 0.043115 -0.134997 -0.153201 0.129572 -0.016957 -0.372595 0.365494 0.367478 -0.295883 0.240313 0.453590 -0.222162 0.157649 0.205392 0.206287 -0.107537 0.761110 0.063320 0.020410 0.292390 -0.125972 -0.359942 0.420743 0.059646 0.203110 -0.348157 -0.026129 0.079578 -0.164957 -0.080355 0.040637 0.280869 -0.048483 -0.174637 0.106453 0.087801 -0.319137 -0.336218 -0.095070 -0.115155 -0.075562 0.209246 -0.625592 0.073239 -0.237487 0.013094 0.466370 0.144569 0.234398 0.130227 -0.250868 0.356388 -0.151693 -0.096775 -0.123872 0.097936 0.301396 -0.220082 0.557394 0.131281 0.351546 -0.382527 -0.236995
310 -0.585078 -0.341900 -0.231739 -0.339687 -0.033076 -0.944726 -0.763027 -0.123567 0.605772 0.312689 0.068018 0.390232 -0.293461 0.049639 0.359171 0.353106 0.452191 0.165137 0.459318 0.243459 -0.097719 0.724156 0.228798 0.556631 -0.272409 0.393831 -0.352580 0.495602 -0.082350 0.278122 -0.076497 0.501906 0.825714 0.527854 0.220943 -0.212823 -0.042817 0.486613 -0.838106 -0.145849 -0.441234 0.098209 -0.454268 0.803872 0.350469 -0.210424 0.189541 0.084141 0.642779 -0.240719 -0.437521 0.542205 0.077263 -0.297257 0.118109 0.291087 -0.116398 -0.380236 0.164835 0.149861 0.035858 -0.279598 -0.078343 -0.714380 0.365616 0.752120 -0.797457 0.415491 -0.080271 -0.265117 -0.128276 0.318230 -0.161214 0.301241 -0.523674 -0.363973 0.021931 -0.367052 -0.077854 -0.189659 0.013967 0.212930 -0.457346 0.001210 0.339795 -0.353378 0.834040 -0.048164 0.084131 0.235985 -0.317004 0.319175 -0.416774 0.322652 0.249665 0.650623 0.138458 -0.652278 -0.115866 0.435450 0.643919 -0.213327 -0.134310 -0.030040 0.327739 0.200932 -0.111766 -0.303512 -0.007958 0.802901 -0.158713 -0.219853 0.039263 -0.244506 -0.091473 0.024051 -0.089516 -0.484453 -0.214394 -0.313450 -0.199522 0.558346 -0.437474 0.188724 -0.075187 0.087934 -0.038822 -0.454008
2671 -1.161600 -0.181051 -0.466078 0.604424 -0.241057 -0.280869 -0.819413 0.413145 -0.401920 0.395417 0.822834 0.186381 -0.203479 -0.229679 0.250337 0.332835 -0.591743 0.650046 0.246844 0.408640 -0.232642 -0.471485 -0.080884 -0.025624 0.392261 -0.000116 -0.122615 0.507951 0.005713 0.305419 -0.012863 -0.001213 0.022293 0.439898 -0.420141 0.441556 0.257713 0.054663 -1.062787 0.339433 -0.826578 0.960891 -0.334287 0.075854 -0.805190 0.903102 -0.390232 -0.035982 -0.149363 -0.328256 -0.694548 -0.402720 -0.677781 -0.708422 0.372043 -0.465415 0.608223 0.053587 0.533873 0.396287 -0.395166 0.408976 0.029991 -0.516596 -0.512794 1.009982 -0.620967 0.390021 -0.371209 0.093933 -0.373101 -0.119630 -0.378156 -0.142530 -0.182694 0.086882 0.375425 0.488306 -0.190535 0.600741 -0.402572 0.237613 0.011135 0.003485 0.341238 -0.326794 -0.072791 -0.358857 0.190506 -0.660313 -0.838620 0.168336 0.383970 -0.059610 -0.197231 0.309656 -0.741550 0.298134 -0.976466 0.560598 -0.160871 -0.639686 -0.268126 -0.306329 -0.985276 -0.051972 0.433104 -0.901345 0.532233 0.115627 -0.474467 -0.057662 -0.073071 -0.254142 -0.113770 0.315607 0.032281 -0.679368 -0.044595 -0.240339 -0.052050 0.317309 -0.095264 -0.301223 -0.712304 -0.219148 -0.767029 0.690754
2248 -0.941632 -0.523497 -0.832282 0.722527 0.013291 -0.170762 -0.613510 0.201090 -0.641581 -0.029885 0.581515 -0.165967 -0.181435 -0.102769 0.302834 0.147671 -0.401936 0.656127 0.325400 0.188739 -0.389352 -0.509931 0.109957 -0.035850 0.460396 0.060185 0.019066 0.703263 -0.390628 0.481267 -0.285315 0.080788 -0.248765 0.575240 -0.270373 0.249180 0.400071 0.252669 -0.729172 0.131439 -0.635785 0.479981 -0.442245 0.093189 -0.708089 0.584668 0.177328 0.245149 -0.692523 -0.572118 -0.231079 0.197332 -0.879486 -0.031097 0.131464 -0.338499 0.480506 0.133383 0.253602 -0.083090 -0.086011 0.647635 -0.579976 -0.835611 -0.282875 0.691180 0.051067 0.266972 -0.626181 0.296693 -0.417826 -0.100031 -0.640535 -0.445332 0.256559 0.296466 0.400329 0.401353 0.113953 0.883402 -0.470554 -0.153714 0.113711 -0.307295 0.342959 -0.360391 -0.000602 0.069721 0.115324 -0.401581 -0.751722 -0.060847 0.308753 -0.082092 0.066928 -0.032382 -0.451009 -0.262289 -0.285407 0.472542 -0.200447 -0.002996 -0.060146 0.049683 -0.616116 -0.043006 0.037804 -0.524302 0.978985 -0.376012 -0.139587 -0.673540 -0.028269 -0.007408 -0.114014 0.578397 0.155074 -0.722960 -0.201475 -0.687057 -0.053921 0.281843 -0.424958 -0.131547 -0.676335 -0.294990 -1.089602 0.531239
1309 -0.024666 0.423247 -0.557070 0.397701 -0.387885 -0.032252 0.045499 0.031865 0.454056 -0.027450 0.039266 0.467218 0.546289 0.143043 -0.085298 0.064522 -0.272720 -0.123162 -0.099629 0.301650 0.296616 0.531273 -0.572591 -0.015092 -0.093661 -0.167697 -0.496072 0.653633 -0.042808 0.076266 0.405829 0.327220 0.369397 0.651899 -0.490772 0.337247 -0.234337 -0.016641 -0.266217 -0.138209 -0.266168 0.258743 -0.261711 -0.332715 -0.101607 0.085291 -0.310447 -0.314547 -0.094575 0.274483 -0.143254 0.526697 0.234999 0.122834 -0.032611 -0.051103 -0.643296 0.090535 -0.280153 -0.125485 0.269735 0.213743 0.079578 -0.040350 -0.141737 -0.028569 0.282194 -0.333627 0.165636 0.306611 0.126395 -0.341276 -0.074156 0.293381 0.344452 0.344906 -0.461289 0.070093 0.180227 0.214840 -0.039263 0.059127 -0.253018 -0.684912 0.206280 -0.108295 -0.024489 0.070347 -0.310948 0.051778 0.076568 0.177422 0.213228 -0.130270 0.237959 0.346468 0.051131 0.108180 -0.237685 0.152592 0.288406 0.058725 -0.021991 0.438027 0.010512 0.443198 -0.123899 -0.509121 0.201401 -0.060164 -0.177919 -0.444793 -0.008529 0.325871 0.353492 0.081448 0.346277 0.716314 -0.160311 -0.364656 -0.027912 0.175200 0.138532 -0.057215 0.079101 0.100549 -0.062017 0.385673
1725 -0.240517 -0.204550 -0.338572 -0.463893 0.324437 -0.463789 0.254207 -0.228277 0.074386 0.191730 -0.263741 0.340413 -0.030255 -0.227958 0.074080 -0.145342 0.055548 0.229558 -0.133143 -0.096358 0.079934 0.126517 -0.207291 -0.170498 -0.259748 0.029613 -0.108998 0.288110 -0.032219 -0.111001 -0.211207 -0.423589 0.627895 0.364294 0.403633 0.245363 0.317279 -0.195915 0.035512 0.142914 -0.218646 -0.226918 0.000940 0.470047 0.050360 -0.254239 0.077350 0.133951 0.009707 -0.033258 -0.045356 0.059784 0.305816 -0.328688 0.045003 -0.328326 0.039350 -0.011656 -0.164868 0.017745 -0.457245 -0.035246 0.342741 0.121969 0.457610 -0.036402 0.018839 0.120526 0.598980 0.269365 0.075152 -0.164736 0.164802 -0.492072 -0.079652 -0.168538 0.212281 -0.236560 -0.332542 0.603260 0.373520 0.415139 -0.085591 -0.380486 0.728145 0.214167 0.434983 -0.193145 -0.129385 -0.151887 -0.039669 0.215704 0.196127 -0.289487 0.174209 0.139333 0.140774 0.214904 -0.029986 0.136988 0.431344 -0.026719 -0.246938 -0.291781 -0.123063 0.073055 0.349670 -0.310046 0.356959 -0.142109 0.077892 -0.279075 -0.150702 0.371124 -0.083913 0.172418 0.319349 -0.146311 0.685617 0.263442 -0.107573 0.087272 0.122044 0.114221 -0.104955 -0.178331 -0.343595 0.135643
429 -0.202273 0.068599 0.290922 -0.434103 -0.068840 -0.754942 -0.010740 -0.415397 -0.128123 -0.416734 0.037313 0.090277 0.379767 -0.149705 -0.017919 -0.278112 -0.036808 -0.256613 0.332520 0.492070 0.059042 0.053831 -0.064796 0.414783 0.224052 0.018288 0.329083 0.170908 -0.276014 0.474864 -0.006049 0.233427 0.115964 0.137150 0.285011 0.027893 -0.040613 0.123208 -0.306092 0.032595 -0.002564 0.208475 0.431290 0.291602 -0.058285 0.645634 0.042570 -0.034524 -0.333992 -0.541328 -0.678026 0.342664 -0.187864 0.168314 0.016064 0.343351 -0.213993 0.041688 -0.403305 0.343270 0.593820 0.034993 -0.310185 -0.565746 0.171203 0.528608 -0.023399 0.060576 -0.078288 -0.005049 0.367396 -0.304995 0.112144 0.409548 -0.364763 0.307290 0.096542 0.219629 -0.399955 0.337739 0.118129 -0.174803 0.370466 -0.107543 0.445695 0.144597 0.469659 0.027039 -0.084826 -0.033796 -0.110041 0.455081 -0.047055 -0.214086 -0.044820 0.020858 -0.325283 -0.108491 0.038657 -0.143995 -0.826923 -0.187819 0.021263 -0.509934 -0.070807 0.031196 0.593801 -0.185185 0.080518 -0.041231 -0.278266 0.289585 0.487503 -0.318115 0.195105 -0.589946 0.505442 0.143670 0.181134 0.137908 0.499918 0.240434 0.057406 -0.026920 -0.067746 0.213566 -0.973356 0.205542
1973 0.479379 0.163539 -0.295341 -0.291229 -0.169347 -0.611963 0.129255 0.458674 0.242817 -0.104527 -0.152787 0.029106 0.131431 -0.254714 0.107674 -0.065626 0.283682 0.665910 0.089090 0.494855 0.107397 -0.173025 -0.630983 -0.115052 -0.143534 -0.633132 -0.073769 0.214379 0.293626 -0.025375 0.220195 0.356216 0.299039 0.264588 -0.131063 -0.342051 -0.274189 -0.123496 0.143410 0.249658 -0.236337 0.208259 -0.018190 0.011848 -0.153714 0.259973 0.275175 -0.229269 -0.496985 0.292614 -0.117628 -0.206364 -0.209612 -0.047085 -0.108358 0.079805 -0.304317 0.164751 0.088297 -0.528390 0.275262 -0.225756 0.107220 -0.129696 0.123434 0.272703 0.081569 0.355653 0.710323 -0.066580 -0.399816 -0.226912 -0.335720 0.397737 0.512929 -0.162546 0.242174 0.380402 -0.006222 0.082065 -0.125127 -0.261943 0.228131 -0.063045 0.265839 -0.238705 0.025158 -0.036169 -0.172086 -0.244454 0.104259 0.339719 -0.092020 0.210130 0.371332 0.443300 0.009837 0.188815 -0.582894 0.311216 -0.050456 -0.189233 -0.338336 0.387796 -0.086407 0.450515 0.743642 0.061054 0.374324 0.181114 0.382983 0.070653 -0.360333 0.672514 0.089534 0.271874 0.403319 0.132379 0.126756 -0.728605 -0.012891 0.704665 0.211733 0.249571 -0.184025 0.069312 -0.138792 -0.096454
1742 -0.305680 -0.155804 0.262577 -0.246907 -0.043056 -0.033932 0.255435 -0.082501 -0.074130 -0.109339 -0.402348 0.366809 0.229510 0.138099 -0.080789 -0.049203 -0.201352 -0.425385 -0.346465 -0.168778 0.102549 -0.479040 0.046146 0.074365 -0.366079 0.269906 0.010999 0.176097 -0.196618 -0.108014 -0.130006 -0.264860 0.605905 0.543470 0.458207 0.161901 0.130882 -0.234431 0.095554 -0.065891 -0.444614 0.039726 -0.320704 0.214330 -0.514851 -0.278583 -0.124638 0.142473 -0.027567 -0.385092 -0.279978 0.003712 0.363061 -0.381896 0.621009 -0.512782 -0.240020 -0.220737 -0.179168 -0.117669 -0.248256 -0.037654 -0.300471 -0.398064 0.333196 -0.440735 0.054030 -0.015410 0.303329 0.291600 -0.780101 -0.130537 -0.419363 -0.331204 0.199488 0.380166 -0.050086 -0.329745 0.319833 0.207206 -0.027157 0.118389 -0.617190 -0.045416 0.515204 0.242567 0.371560 0.252905 -0.169568 -0.393211 -0.277353 -0.092496 -0.050030 -0.417562 0.533426 0.235273 -0.141884 0.041704 -0.479980 0.158574 0.177704 -0.224758 -0.150256 -0.328661 -0.423034 -0.035067 0.180163 -0.093505 -0.121268 0.360461 0.634825 0.039425 0.234029 0.410149 0.107863 0.122442 0.159051 -0.230654 0.664997 0.034489 -0.197286 0.467037 -0.045018 0.269961 0.257872 -0.233526 -0.536084 -0.145839
1950 -0.538823 -0.092834 -0.163006 -0.272161 -0.043788 -1.089628 -0.924310 -0.450450 0.683687 0.426255 -0.056547 0.367557 -0.407473 0.285001 0.376603 0.207803 0.404441 0.198409 0.661521 0.277966 -0.059410 0.392840 0.263247 0.490545 -0.127850 0.332798 -0.398108 0.491122 -0.157090 0.360148 -0.252047 0.370517 0.725068 0.361248 0.390764 -0.435764 -0.200018 0.406344 -0.765108 -0.114407 -0.293430 0.063819 -0.383793 0.949679 0.458596 -0.216901 0.313772 0.102842 0.371809 -0.469084 -0.502988 0.524189 -0.226267 -0.176836 0.062627 0.327002 -0.214452 -0.301779 0.222955 0.125082 0.214764 0.073974 -0.062682 -0.754803 0.390109 0.491702 -0.699928 0.547492 -0.162965 -0.229106 -0.262498 0.120007 -0.221112 0.187850 -0.404079 -0.353320 -0.132586 -0.279554 -0.222650 -0.162642 -0.097692 0.139457 -0.446389 0.123730 -0.034866 -0.501334 0.666023 0.084652 0.083307 0.356621 -0.240151 0.217054 -0.389258 0.393931 0.278642 0.953238 0.271070 -0.692977 0.090079 0.387871 0.672563 -0.342039 0.111504 -0.033812 0.456176 0.335766 -0.139625 -0.280236 -0.139501 0.780132 -0.197420 -0.144434 0.165020 -0.195586 0.006333 0.018124 -0.049603 -0.613028 -0.290714 -0.186614 -0.140838 0.492658 -0.138506 0.261851 -0.245746 -0.064872 -0.089966 -0.457468
687 0.083363 -0.148184 -0.163504 -0.146881 0.037531 -0.039811 0.069234 0.200274 -0.218204 0.177297 0.181733 0.538482 -0.037052 0.176597 0.617736 0.028670 0.090874 -0.012035 0.087937 0.248153 0.248195 -0.202769 -0.117197 -0.134931 -0.124132 -0.240614 0.221452 -0.090027 -0.087209 -0.128452 0.113709 0.027987 0.187363 0.564029 0.538131 0.401008 0.199820 -0.029564 -0.092236 0.427472 -0.098082 -0.200454 -0.588150 0.386569 0.160930 0.179921 -0.231124 0.018268 0.187594 -0.383223 -0.204622 0.190985 0.415803 -0.020442 -0.091903 -0.456448 -0.075070 0.353878 0.056265 0.037209 -0.191469 -0.158212 0.270785 0.198769 0.087234 0.099491 0.236501 0.081987 0.349751 0.273281 0.237453 0.296432 -0.184598 -0.510476 -0.016706 -0.116830 0.022721 -0.112030 -0.017775 0.358372 0.121735 -0.036300 -0.329602 -0.414116 0.439202 -0.020574 0.112338 -0.094298 0.182400 -0.174055 -0.037532 0.000117 0.060044 -0.516644 -0.071989 0.255883 -0.155102 0.134621 0.170620 -0.267359 0.463027 -0.210696 -0.234760 -0.169468 0.270406 -0.157753 0.295519 -0.583012 -0.211823 0.295355 0.274576 -0.552254 0.314146 0.251530 -0.004452 0.272601 0.016367 -0.510787 0.745581 0.215457 0.238992 0.366087 0.330463 0.452982 -0.063975 -0.131066 0.108509 -0.044751
1894 -0.290051 0.263310 -0.059344 -0.412471 -0.044046 -0.186441 0.049913 -0.287530 0.118859 -0.002584 0.082557 0.146510 -0.536762 0.351395 0.674467 -0.252746 -0.118535 -0.073748 -0.207402 -0.029344 -0.072658 -0.244779 -0.111376 0.456257 0.467858 0.017352 -0.354246 0.428421 -0.272036 -0.278667 -0.160107 -0.036983 0.086401 -0.039014 0.094506 -0.005650 -0.130330 -0.208059 0.134984 0.125472 0.278656 0.490142 -0.263909 -0.030532 0.359645 0.677698 -0.168349 0.008612 0.361966 -0.220078 -0.114047 -0.356874 0.332062 -0.190609 0.227269 -0.028165 -0.080949 0.099872 0.019651 -0.041197 0.079968 0.864857 0.428865 -0.014367 -0.431195 0.404679 -0.088348 0.284419 0.271644 0.273970 -0.074432 0.036725 0.180235 0.401086 0.447863 0.007821 0.276692 -0.046132 0.092195 0.514384 -0.246507 0.073763 -0.809378 0.361929 -0.037971 -0.525629 0.443541 0.280863 -0.322484 0.073898 -0.173146 0.024907 0.433387 0.410768 -0.343337 0.443777 0.382467 -0.476093 0.034795 -0.410707 -0.123523 -0.152531 -0.026893 -0.194346 0.009254 0.471855 0.249735 0.137329 -0.239254 0.726776 -0.258318 0.013952 -0.004025 0.571427 -0.364940 -0.173523 0.408111 0.233066 0.448095 -0.430959 0.584819 0.097669 0.030040 0.054904 -0.305040 -0.127677 -0.445184 -0.111078
2367 0.125516 0.224316 0.300944 -0.278630 -0.294016 -0.307510 -0.275026 0.093802 0.197592 0.247693 0.480028 0.056613 0.071459 0.975786 -0.023389 0.449765 -0.339618 -0.183780 -0.933303 0.522233 -0.028364 0.101718 -0.046428 -0.120968 0.347850 -0.179606 0.634447 0.055739 -0.082409 0.938205 -0.475929 0.263828 0.327728 -0.152623 -0.411555 -0.421634 -0.323485 -0.338683 0.451357 0.903088 -0.240102 0.130174 -0.091425 0.398647 -0.612158 -0.060493 0.135304 0.596674 0.374884 -1.032684 -0.438079 -0.217504 -0.132147 0.097832 -0.236254 -0.312127 -0.414727 -0.480743 0.993555 -0.830450 -0.440402 0.177547 -0.391349 -0.311505 1.249737 0.478414 -0.053702 -0.595416 1.062419 -0.449340 0.015517 -0.281356 0.066462 -0.465385 -1.314472 0.473314 1.044573 1.087337 0.509243 0.562878 -0.211786 0.610319 -0.488795 0.620630 0.052450 -0.489519 -0.752792 0.819813 0.113516 -0.948781 0.005593 1.296698 -0.153310 0.035865 0.609507 0.562331 -0.036383 -1.055787 -0.441318 0.516963 0.063398 -0.186093 0.612894 0.106972 0.171359 0.529573 -0.243443 -0.558162 -0.185766 -0.739215 -0.113748 -0.168937 -0.345917 0.610686 0.707335 0.271888 0.803109 0.637875 -0.003119 -0.117611 0.076977 0.527642 0.368812 -0.080666 -0.069410 -0.649179 -0.238473 -0.029296
1229 -0.265231 0.109142 -0.237880 -0.021736 0.375388 -0.278547 0.001539 0.002034 0.140009 -0.178873 0.163460 0.234888 -0.595954 0.495849 -0.353651 -0.342936 -0.154343 -0.264637 0.075171 -0.211960 -0.029708 -0.394356 -0.123883 0.414954 0.163747 -0.389719 0.192757 0.326841 0.048682 0.189312 0.018828 -0.191986 0.662466 -0.146486 0.095333 0.137489 0.799679 0.222380 0.072970 0.356578 0.008374 0.116084 -0.061737 0.465933 -0.085212 0.250892 -0.024335 -0.086203 -0.173093 -0.242436 -0.234568 0.104025 -0.297068 0.130723 0.543074 -0.558808 -0.291728 0.577693 -0.284218 0.300929 0.006825 -0.609200 0.233457 -0.381209 0.262899 -0.279884 0.507940 -0.000533 0.597308 -0.049127 -0.378235 -0.072942 0.092395 -0.747790 0.392665 0.057444 -0.355439 -0.191586 0.083472 0.414807 0.205430 0.065568 -0.782467 -0.162444 0.284305 -0.096309 0.204088 0.462287 -0.282232 -0.316758 -0.436380 0.342369 -0.290712 -0.141140 0.232849 0.526178 0.081598 0.105802 -0.457325 0.316812 1.002298 0.305621 -0.051576 -0.056043 -0.704967 0.004692 -0.070320 -0.152185 0.052821 0.497343 0.659458 -0.361186 0.364399 -0.430607 0.252094 -0.181456 0.635469 0.561360 0.386964 0.388604 -0.206660 -0.016649 0.395628 0.058385 -0.107583 -0.028879 -0.154173 0.105260
2394 0.604314 0.058891 -0.777316 0.229978 -0.306293 -0.469339 -0.446440 0.433596 -0.014645 0.044866 -0.257604 0.163675 0.472434 0.091997 -0.270115 0.200704 0.498541 0.003990 -0.590702 0.494576 0.545130 0.351224 -0.423857 0.547109 -0.104482 -0.187061 0.129637 0.830922 -0.065889 0.027621 -0.105253 0.346531 0.020611 -0.224264 0.059231 0.136361 -0.039336 0.236665 0.125055 0.526810 0.062699 0.283422 -0.370395 -0.317415 -0.239812 0.008728 -0.104829 -0.189558 -0.421910 -0.160290 -0.110849 -0.051028 -0.813002 0.282429 -0.647854 -0.342905 0.139714 0.104155 0.187412 -0.513524 -0.098000 -0.104301 -0.067944 -0.508104 -0.110438 -0.370819 0.592351 0.321602 0.600807 -0.452626 -0.322813 -0.205177 -0.359632 0.249026 0.215720 0.237100 -0.036973 0.086394 -0.453306 -0.371153 0.235710 -0.119845 -0.173218 -0.383366 -0.283525 -0.246799 0.371180 0.215268 -0.418426 0.107847 -0.666496 0.588346 0.088737 -0.175922 0.084281 0.485757 0.010294 0.274732 -0.457065 -0.506613 0.149435 -0.158064 0.023916 0.338497 0.209750 0.748898 0.136226 -0.328055 0.290439 0.150248 -0.362365 -0.047164 -0.267595 0.773901 -0.035127 0.126371 0.150383 0.088883 0.125126 -0.456319 -0.069829 0.121685 0.677909 -0.156503 -0.126895 0.578278 -0.582887 -0.078579
525 0.236761 0.165702 -0.033012 0.571700 -0.485220 -0.466955 0.207983 -0.041830 -0.235687 0.095670 0.085142 -0.620225 -0.131506 -0.044813 0.046672 -0.263818 -0.387805 0.086862 0.390261 0.300601 0.043989 0.649326 -0.246193 0.223994 0.151285 0.227855 0.317202 0.190175 0.020098 0.328847 0.204571 0.064361 0.398273 0.080937 0.047218 -0.279605 -0.034724 -0.109285 0.207772 0.262844 -0.662361 0.472766 0.768260 -0.007963 -0.190244 0.072526 0.238816 -0.204825 -0.339589 -0.012671 -0.168118 -0.139593 0.728916 -0.376260 -0.376669 0.108298 -0.358752 0.182243 0.304834 -0.250319 -0.170240 0.331079 0.000736 -0.662707 -0.211990 -0.340863 -0.155410 0.091101 0.162795 0.042359 0.200221 0.060519 -0.191881 0.084058 -0.092016 0.434608 0.345987 -0.124106 -0.044305 -0.027767 -0.629787 -0.244590 -0.161946 -0.327143 -0.283710 0.071147 0.169809 -0.278007 -0.259069 0.439971 -0.727720 0.725769 -0.268046 -0.231657 -0.178662 0.316316 -0.074939 0.443749 -0.137350 0.259866 -0.091010 -0.177371 0.468988 -0.056682 0.241920 -0.148868 -0.433247 -0.683626 0.250538 0.491299 0.573295 -0.475408 -0.113063 0.353712 0.530273 -0.014581 0.438269 0.236103 0.258315 -0.149202 -0.193685 0.199895 0.170898 -0.047918 0.285672 0.130400 -0.210483 0.058899
2130 0.140394 -0.108197 0.128003 0.326128 -0.194507 -0.246549 -0.508209 0.039555 -0.342024 -0.165855 0.014480 0.125263 -0.057896 0.392305 0.203748 -0.046003 -0.273930 -0.066854 0.118044 0.017907 -0.440547 0.036687 0.280388 0.597952 0.876895 -0.293977 -0.324791 0.477762 -0.358759 0.943880 -0.542160 0.504893 0.056217 0.254524 0.564252 0.151760 0.250175 -0.225187 -0.406060 0.000581 -0.059756 0.716081 -0.229729 0.165886 0.195075 0.251942 -0.335114 -0.268190 -0.490282 -0.390699 -0.431878 0.325855 0.115693 0.114037 0.072260 -0.311315 0.350707 -0.524963 -0.226628 0.042388 0.320317 0.550067 -0.139745 -0.288182 -0.402099 0.434035 -0.187272 0.249167 -0.178287 0.344747 0.253598 -0.491358 -0.555810 0.021914 -0.031953 0.271761 -0.247972 0.446689 -0.151218 0.683815 -0.529645 0.477227 -0.213455 0.357602 -0.176869 0.399436 0.462887 0.070206 0.134810 -0.652748 -0.933176 0.576100 0.534198 -0.033677 0.052091 -0.004946 0.119682 0.104624 0.065771 0.121662 -0.439152 -0.387938 -0.409768 -0.003416 -0.796732 0.072027 0.572868 -0.070411 0.809396 -0.123833 -0.185989 0.060032 -0.165850 0.053759 -0.090597 -0.196709 0.149922 -0.300471 -0.188638 0.054976 0.434801 -0.121791 0.021248 -0.166884 -0.127011 -0.167907 -0.530285 0.032183
1740 0.098479 -0.244761 -0.419524 -0.258850 0.409604 -0.547879 0.331481 0.123809 0.028542 0.362273 -0.166453 0.471655 -0.425009 -0.150119 -0.286902 -0.300049 0.120603 0.218973 -0.008264 0.295713 -0.077106 -0.175832 -0.008125 -0.308929 -0.004730 -0.070571 -0.169660 -0.117253 0.000542 -0.076574 -0.080974 0.049673 0.594968 0.290828 0.123021 0.052223 0.352416 0.129463 0.062698 0.150552 -0.123395 -0.378997 0.061240 0.280534 -0.158900 0.290553 0.342372 0.399802 -0.238145 -0.242439 -0.039445 -0.012671 0.181741 0.005195 0.291952 -0.642500 0.040318 0.462480 -0.461792 0.279176 -0.255807 0.074877 0.149388 -0.105104 0.357947 0.085863 -0.139023 -0.122318 0.627384 -0.143198 -0.094191 -0.073073 0.432985 -0.745733 0.191453 0.388224 -0.058961 -0.208335 0.021913 0.464581 -0.217308 0.007816 -0.409665 -0.262183 0.363803 -0.092013 0.237229 0.008526 -0.410785 0.017674 -0.097795 0.299066 0.118820 -0.370773 0.316981 0.341719 0.412629 0.229574 0.009058 -0.099802 0.489183 -0.211032 -0.489348 -0.456793 -0.229651 -0.111500 -0.059799 -0.417221 0.424088 -0.403831 0.110937 -0.225157 -0.049085 0.142092 -0.541746 0.303069 0.007252 0.278582 0.486793 0.471452 -0.162108 0.078598 0.229035 0.361878 0.291471 -0.143532 -0.231076 0.069366
350 -0.042935 -0.199810 -0.469832 0.521573 -0.259202 -0.437831 -0.089191 0.485248 0.231519 0.116589 0.161282 -0.316456 -0.171375 -0.631054 0.449946 0.027798 -0.217903 0.085328 0.225728 -0.007595 0.548318 0.058870 -0.338944 0.294990 -0.247114 0.070346 -0.254075 -0.168682 -0.150862 0.228105 -0.064263 0.114170 0.122919 0.120888 0.677213 -0.470901 -0.153863 -0.135031 -0.243125 0.299765 0.031291 -0.014276 0.122653 0.431429 -0.229980 -0.303987 -0.493114 0.711846 -0.230848 -0.182422 -0.012488 -0.063787 -0.107413 0.234397 -0.036122 -0.261509 -0.424914 0.050818 -0.483621 -0.286477 -0.090044 -0.090255 0.270759 -0.314217 0.495976 0.250824 -0.334945 -0.394454 0.244503 0.283958 -0.021384 0.059716 0.494389 -0.358030 -0.129797 -0.001854 -0.164323 -0.084246 0.238183 -0.175397 -0.229534 0.262618 -0.389748 0.061538 -0.292013 -0.328016 -0.305943 0.190016 0.349963 0.149000 -0.714155 0.007202 0.157298 -0.481667 -0.010612 0.230178 0.209277 -0.304995 -0.215061 -0.254014 -0.173342 0.010071 -0.198343 -0.609546 -0.245218 0.141374 0.509074 -0.405721 0.473985 -0.045796 0.228147 0.360681 -0.033858 -0.316379 0.055958 -0.269966 -0.102167 0.196614 -0.131451 -0.046470 0.048526 -0.014295 -0.106223 0.296663 0.262587 0.195851 -0.196855 -0.223338
1927 0.109785 0.234719 -0.153727 0.250323 -0.575758 -0.398720 0.209892 0.123582 0.440433 0.375401 -0.334975 0.043765 -0.138848 0.163268 -0.283746 -0.206864 0.037145 -0.503810 -0.618712 0.658844 0.259556 0.147249 0.309598 0.078915 0.355488 -0.396661 0.088633 0.500015 0.310440 0.284924 0.456674 0.110818 0.222990 0.413482 -0.055273 0.366688 -0.128902 -0.593542 -0.930712 0.811070 -0.662023 -0.014815 0.157678 0.045172 -0.151623 -0.011580 -0.334160 -0.177074 0.258897 -0.317967 0.231156 -0.016553 -0.049655 0.394261 0.426657 0.213532 -0.011487 -0.317556 0.158742 -0.385885 0.072869 0.184649 -0.243175 -0.010151 0.001589 0.197048 -0.344411 0.141429 -0.190143 -0.024905 -0.043501 0.352097 -0.026928 0.176029 -0.071319 0.017906 -0.110268 0.385672 0.346479 0.271062 -0.299705 -0.353870 0.106585 -0.287791 0.061857 0.164558 0.271279 -0.183373 -0.758457 0.307294 0.133287 -0.079432 0.868248 0.199523 -0.184787 0.525474 -0.093776 -0.177984 -0.468332 -0.134222 -0.049097 0.346298 0.008750 -0.662040 0.006664 0.281350 0.004986 0.181406 0.591035 0.028818 -0.019463 0.336589 0.258707 0.214453 0.143505 0.031866 0.077036 0.255685 0.606440 -0.295606 0.046046 0.693562 0.175142 -0.266086 0.033606 -0.114506 -0.196441 0.101242
1119 -0.050084 0.061147 0.238870 0.367718 -0.018363 -0.496978 0.129254 0.382660 0.121542 0.017976 0.390627 0.296309 0.738426 0.942309 0.036446 -0.089359 -0.122065 -0.108975 0.221328 0.319015 -0.101569 0.345610 0.115516 0.465659 0.025185 0.418409 0.140894 0.534617 -0.192100 0.895846 -0.872561 0.915034 -0.305178 0.337097 0.632178 0.260519 0.260679 0.733301 0.019116 0.283149 -0.991483 -0.031717 -0.412430 0.068662 0.221393 0.097087 -0.481544 -0.164628 -0.500659 -0.313054 -0.022769 0.025598 -0.231955 0.131205 -0.480558 0.251763 0.276153 -0.650958 -0.407386 -0.076477 0.461823 0.702587 0.092641 -0.806136 0.425958 0.547866 0.034944 0.432233 0.095864 0.283267 -0.766867 0.168314 -0.036209 0.122051 0.386608 -0.040483 0.252671 -0.267629 -0.187102 0.645975 -0.035894 0.429302 -0.271977 1.030814 -0.263995 0.069470 0.207368 0.186221 0.297295 -0.066498 -0.701230 0.299058 0.508852 0.793096 0.442541 -0.837818 -0.297390 0.713799 0.096949 0.000960 -0.789729 -0.195217 -0.416986 -0.410366 -0.306790 0.594306 0.239936 -0.434458 0.636406 0.095225 -0.315275 -0.595650 0.248559 0.197886 -0.059323 -0.039581 -0.144330 -0.330691 1.135710 -0.255642 -0.738578 0.119348 -0.187680 0.519031 0.535512 -0.308727 0.238182 0.468970
2464 0.322587 0.074826 -1.000890 -0.315432 -0.420752 -0.249795 0.278674 -0.378688 0.499759 0.975390 -0.303754 0.590535 -0.546520 0.316762 -0.258423 0.105794 0.581503 -0.750634 0.528465 0.513361 0.317453 -0.299090 0.092728 0.195929 -0.145621 1.085445 -0.576388 0.653752 0.027520 0.334641 0.130978 0.604766 -0.257908 -0.916152 -0.123494 -0.063106 0.270600 -0.085704 -0.520732 0.314526 0.637810 -0.136478 0.722884 0.059669 -1.039757 0.740016 -0.688343 0.152087 -0.631734 -0.370981 -0.134752 0.070906 0.036044 0.464637 -0.763218 0.260764 -0.570645 0.707471 0.586595 0.060634 -0.792948 0.001142 0.347177 -0.345031 0.457870 0.039924 -0.998019 0.377068 1.266302 0.018096 -0.343331 0.136593 -0.430952 -0.589587 -0.470007 -0.239927 -0.033675 -0.516302 0.009004 0.392458 -0.549299 -0.128654 -0.827125 -0.319311 0.296457 0.676391 0.636362 0.736484 0.024653 0.140437 -0.559168 0.148219 -0.123442 0.153467 0.363974 0.938725 -0.992185 0.333189 -0.304381 0.335654 -1.138140 0.074122 -0.416602 0.420034 0.657809 0.468856 -0.328799 -0.274966 0.412895 0.378981 -0.228469 -0.556994 0.151553 0.716015 0.392262 -0.208149 -0.256223 -0.288127 -0.219811 -0.592583 0.560016 -0.421554 -1.406859 0.545579 -0.485445 -0.985721 -0.537865 0.511175
1050 -0.673157 -0.889037 -0.733363 0.665376 0.097405 0.155685 -0.536331 0.708488 0.186351 -0.061395 0.090088 0.394475 0.486328 0.205642 0.217201 0.134115 -0.288547 0.350277 0.347797 -0.016805 -0.118601 -0.194538 0.999876 0.296009 0.830551 0.112625 0.567969 0.770921 -0.166158 0.357403 -0.967899 -0.192896 0.218937 -0.053145 -0.009131 0.076726 -0.291909 0.225144 -0.121600 -0.346485 -0.692710 -0.169307 0.388599 -0.216477 -0.401607 0.616905 -0.310927 0.032505 -0.665721 -0.936380 0.298759 -0.132757 -1.206408 -0.476741 -0.104374 0.535010 -1.039678 0.683319 -0.495659 -0.231977 -0.295102 0.455633 -0.805788 -0.487649 0.153832 0.523684 -0.462133 -0.656791 -0.246891 -0.431924 -0.369320 0.536100 -0.092029 -0.359663 0.352967 0.503337 0.375106 -0.323942 0.492190 0.758639 -0.170934 0.273709 -0.146260 -0.111489 0.763145 -0.458818 0.175376 0.089562 -0.059442 -0.015681 -0.444626 -0.246660 0.490569 -0.224605 -0.273510 0.285504 -0.267584 -0.101017 -0.009451 -0.033021 0.151442 0.786163 -1.043894 -0.188001 -0.302836 -0.294173 0.288153 -0.617334 1.008162 0.481543 0.197873 -0.985000 -0.134694 0.314394 0.334398 0.728124 -0.478665 -0.808317 0.371544 -0.972221 0.261767 0.983106 -0.273409 -0.050575 -0.666508 0.113257 -0.370724 0.375480
1966 0.341864 -0.408412 -0.138780 0.204206 0.147781 0.244293 -0.367734 -0.619883 -0.144760 -0.173298 0.242575 -0.046008 0.291751 -0.300938 -0.340503 0.310353 0.080127 -0.291407 -0.337047 0.179103 -0.341800 -0.055628 0.158585 0.396404 0.795922 0.043176 -0.033140 -0.439214 -0.095188 0.294137 -0.983662 -0.132561 -0.063707 0.072751 0.111793 -0.298267 -0.052287 0.183498 -0.573217 0.135743 -0.039127 -0.170944 0.342970 0.079464 0.417713 0.195383 -0.278936 0.128402 0.124260 -0.713359 -0.312424 -0.102771 -0.360017 0.039259 -0.043809 0.628128 -0.347517 0.191152 0.086283 -0.386835 -0.817383 0.865817 -0.191990 -0.316098 -0.307023 0.346273 0.391370 -0.445340 -0.567547 -0.642441 0.219450 0.406169 0.072940 0.215730 0.279671 0.609312 0.418395 0.221731 -0.071580 0.720535 -0.948824 0.314822 -0.046883 -0.206484 0.588223 0.092636 0.185747 0.409064 -0.107458 0.360685 -0.191781 0.464491 0.364902 -0.567472 0.268918 0.408012 -0.157216 0.242607 -0.096869 0.063859 -0.028408 0.077373 -0.630641 -0.299586 -0.066017 0.057164 0.518708 -0.595637 0.541398 0.710379 0.366149 -0.548185 -0.324886 -0.092322 0.337909 -0.023563 -0.117171 -0.009877 0.336180 -0.467416 -0.057488 0.509674 -0.791220 0.519008 -0.690425 0.176481 -0.229226 0.551996
1015 -0.356824 0.453633 0.161585 0.170147 -0.901426 -0.795345 -0.259556 -0.185126 0.123501 -0.279320 0.087852 -0.041222 -0.457001 -0.329888 -0.378316 0.656549 -0.454086 -0.114366 -0.100805 0.362475 0.397852 -0.434724 -0.276614 -0.059253 0.097035 0.268279 0.298619 0.116190 -0.381864 -0.109486 -0.366238 -0.026248 0.193590 0.039171 0.175927 0.130640 0.251585 -0.350015 0.073802 0.305608 0.051328 -0.332615 0.506591 -0.262351 0.260888 0.642376 0.456567 -0.068881 -0.040695 -0.693009 -0.148183 0.355696 0.036109 0.426321 -0.430110 0.432334 0.109815 0.152038 -0.395697 -0.310086 0.271111 0.154964 0.198909 -0.259212 -0.035693 0.099657 -0.002061 0.289693 -0.023313 -0.420519 0.177280 -0.141823 -0.178006 0.100912 0.012685 0.404998 -0.252247 -0.221645 -0.197060 0.391907 -0.426637 0.146182 0.057735 -0.239792 0.268007 -0.119684 0.082411 0.356386 0.291798 0.224474 -0.385411 0.243035 -0.087270 -0.094804 0.203401 0.229720 -0.322184 -0.115531 -0.189336 0.392946 -0.306047 -0.222947 -0.375302 -0.478386 -0.067915 -0.365358 0.234963 -0.312460 0.259242 -0.064283 -0.420308 0.149243 0.636829 -0.200750 -0.048660 -0.363306 0.844123 0.281822 0.038960 0.071086 0.341791 0.298292 0.182126 0.126046 -0.457158 0.813629 0.021838 0.209164
454 0.243708 0.292248 -0.550332 0.160300 -0.125456 -0.352930 -0.024179 -0.050641 0.629479 0.299918 0.192466 -0.745285 -0.137886 -0.227700 -0.422995 -0.050047 0.425626 0.061113 0.366755 0.528945 0.604944 -0.118559 0.022496 0.034632 0.015111 -0.152761 -0.071594 0.025081 -0.048622 0.132948 0.055731 -0.190097 -0.160965 0.118739 -0.048362 -0.563370 0.351006 -0.008628 0.013733 0.220649 -0.491951 0.247119 -0.008387 -0.092410 -0.330975 -0.088665 0.326383 -0.288890 -0.067689 -0.442222 -0.166595 0.002585 0.083199 0.074466 0.092691 -0.156786 0.051366 -0.398776 -0.576145 -0.146870 0.118361 0.083645 0.291158 -0.117750 0.541646 0.362977 -0.089674 0.584671 0.406470 -0.249565 0.291345 0.104981 0.114799 -0.195977 -0.026283 0.145391 -0.008072 0.239528 0.270777 -0.040784 0.267040 0.045019 0.100161 0.224487 -0.211186 0.032244 -0.029793 0.348835 0.238684 0.146360 0.257054 -0.230904 0.405615 -0.115494 -0.319559 -0.169958 -0.200779 -0.351044 0.426127 0.591365 0.135240 0.238015 -0.656625 0.016156 -0.404107 0.692806 -0.129317 -0.430358 0.158150 0.533654 0.377394 -0.185656 0.449346 0.416525 -0.104807 -0.060811 0.039387 -0.244026 -0.073649 -0.237313 0.114263 0.315619 0.659141 -0.033332 0.090414 -0.175276 -0.137582 0.071553
2025 0.329512 0.315806 -0.503462 0.391621 -0.439049 -0.059718 -0.245604 -0.023071 0.007825 -0.068398 0.143761 0.179316 0.243172 -0.032057 0.125307 -0.122012 -0.327943 -0.317419 0.283263 0.232732 -0.157600 -0.158433 0.044699 -0.071959 -0.096430 0.343351 -0.243818 0.131477 -0.546604 0.438775 0.404634 -0.248857 0.045020 0.094363 -0.196795 -0.428281 0.343334 -0.045829 -0.028094 -0.004439 -0.105965 0.509162 -0.665576 -0.007909 -0.607795 -0.221207 0.755988 -0.326362 -0.109185 -0.496658 -0.256126 -0.212402 0.221414 0.646600 -0.070690 0.444320 -0.518563 -0.225876 -0.158752 0.010005 -0.468386 0.031712 0.151103 0.077853 -0.461392 0.187719 0.175654 0.612057 0.489405 0.068665 -0.554849 0.492881 0.202458 0.148600 -0.106169 0.337340 0.465735 0.269391 -0.064498 -0.015249 -0.170019 -0.128506 0.231797 -0.104171 -0.113232 -0.174499 0.596828 -0.035784 0.077221 0.057938 0.301451 0.336776 0.141080 0.332038 0.082121 0.569988 -0.220673 -0.559654 0.054909 -0.104169 0.552696 0.280933 -0.216022 -0.454559 -0.218182 0.120113 0.310807 -0.423863 0.265839 -0.214560 0.441829 0.469465 0.045092 -0.348572 0.042397 -0.069376 0.194774 0.318857 0.055436 0.215745 -0.062185 0.311270 0.324556 -0.389556 0.276203 -0.070917 -0.068841 0.517009
55 -0.062441 -0.039077 -0.340328 -0.220280 -0.781387 -0.409392 -0.008883 -0.127376 0.455470 -0.269768 -0.181181 -0.287042 -0.218326 0.177930 -0.145998 0.270853 0.368779 -0.138802 -0.171723 0.414926 0.158041 -0.108101 -0.044439 0.587806 0.049484 -0.258039 -0.174262 0.129635 -0.126104 0.707344 0.233836 -0.081975 0.317048 0.197852 0.083679 -0.053362 0.079899 0.331180 -0.689482 -0.187634 -0.076512 0.294781 -0.029694 0.220790 -0.249402 0.258367 -0.137222 -0.218210 -0.045771 -0.251450 0.319224 -0.319095 0.389202 -0.257787 -0.223116 0.478622 0.165468 -0.035088 -0.164696 -0.331466 -0.205531 -0.326737 -0.150247 0.016169 0.114599 -0.204379 0.390171 0.205819 0.022179 -0.263807 0.089771 0.360902 0.334823 -0.165661 0.430025 0.672858 -0.034341 0.247554 0.312007 0.177031 -0.102500 -0.353376 0.201079 0.222945 0.056681 -0.051501 0.004763 -0.326228 -0.231988 0.192371 -0.382666 0.035131 0.770125 0.001934 0.012584 0.366552 0.175433 0.117398 -0.128336 0.408735 -0.423635 -0.461844 0.050522 0.125256 -0.239788 0.091877 0.317629 -0.097603 0.379573 0.286859 0.054541 -0.440472 0.782121 0.751392 0.868308 0.178076 -0.201515 0.235101 0.144872 -0.026747 0.069142 0.097693 0.512159 -0.559099 0.340005 -0.086809 -0.071391 0.517401
1505 0.176966 0.676714 -0.083842 0.550091 -0.206536 -0.800747 0.466412 -0.646929 0.031427 0.171333 -0.038179 0.107874 -0.766947 -0.167517 0.251488 0.147253 -0.397641 0.032220 0.036773 -0.084773 0.079191 0.068403 0.024754 0.203488 0.282660 0.085808 0.148838 -0.010398 -0.279677 0.418301 -0.139997 0.286515 0.469360 0.063977 0.158882 -0.056194 0.289317 0.237784 -0.066486 0.386483 -0.202011 -0.468787 0.230560 -0.180017 -0.269381 0.363376 0.500796 0.444086 0.254014 -0.149389 0.324929 0.162543 -0.069631 -0.466595 -0.313094 -0.320932 -0.167493 0.368525 -0.836335 0.158437 -0.121766 -0.291911 -0.210858 -0.024061 0.224816 0.079127 0.239019 -0.034385 0.156884 -0.052912 -0.310843 0.256454 0.054852 -0.415305 0.192717 -0.159821 -0.283263 0.229876 0.381057 0.024197 0.118405 0.247192 0.043658 -0.266763 0.085637 -0.687274 -0.100758 0.462973 -0.184332 0.148746 -0.096692 0.168215 -0.079989 -0.693550 0.054172 0.117558 -0.036146 0.116439 -0.317145 -0.155568 0.205256 -0.256170 -0.272521 -0.295802 -0.478242 0.278424 0.152061 -0.400903 0.027897 -0.178189 -0.089187 0.119364 -0.074142 0.083751 -0.132722 -0.563567 0.147014 -0.056990 0.003201 0.028337 -0.008309 0.268888 0.020145 0.111825 0.352302 0.603991 -0.223296 -0.058275
577 -0.119142 0.229229 -0.292289 0.560965 -0.552984 -0.304883 -0.557707 0.037763 0.080437 0.135435 0.500357 -0.588209 -0.315288 1.005967 0.609438 0.005423 0.519481 -0.288385 0.633471 -0.086487 -0.456533 0.439292 0.565265 -0.097911 -0.719433 0.768651 -0.446257 0.210222 -0.462397 0.861588 -0.915034 0.986049 -0.092636 0.465752 -0.447887 0.164371 0.653406 -0.129874 -0.784574 0.255202 -0.935156 -0.252733 0.025676 -0.171779 0.097283 0.042834 -0.247613 -0.333251 -0.187748 -0.850582 0.097168 0.360740 0.241191 0.286608 -0.071370 0.582897 0.409129 0.012116 0.347169 -0.729257 0.395908 0.158001 -0.161617 0.128604 0.643926 1.210017 0.379814 0.774958 -0.007724 0.120093 -0.663327 -0.025621 -0.102480 0.100596 -0.012204 0.201447 -0.136133 -0.550647 -0.117609 0.321935 0.075635 0.222831 -0.821431 -0.041666 -0.354644 0.486409 0.508818 0.098816 0.199268 -0.382613 -0.009608 0.053129 -0.038493 0.579370 0.939149 -0.630526 0.212027 -0.075822 -0.165852 -0.611302 -0.412882 -0.338392 0.008885 -0.197680 -0.199737 0.758666 0.630842 -0.435751 0.374247 0.061004 0.357055 -0.730535 -0.266334 -0.724557 0.274815 0.147491 -0.037623 0.125990 0.498634 -1.012332 -0.241546 0.634997 0.005024 0.625122 0.682980 -0.175300 -0.156845 0.341409
279 0.572336 -0.180694 -0.098041 -0.066100 0.392778 -0.853625 -0.168543 -0.204053 0.293528 0.121469 -0.115688 0.418196 0.018178 -0.116899 0.438994 -0.310020 0.447128 0.024473 -0.004518 0.542504 0.161830 0.031536 -0.021096 -0.327876 0.349389 -0.911537 -0.197448 0.702730 0.241183 0.287252 -0.198642 0.244348 0.175320 0.041764 0.060046 -0.707637 -0.525012 -0.446466 0.080550 0.275082 0.037736 -0.059220 -0.668604 0.140207 -0.042842 0.082835 0.077881 0.485512 -0.270207 -0.063426 0.073342 -0.212529 0.028269 -0.233040 -0.294355 0.156526 -0.214053 0.060504 -0.238091 -0.425808 0.427963 -0.085969 0.062468 0.445997 -0.216160 0.679966 -0.098321 0.024018 0.583892 0.135212 -0.376189 -0.133600 -0.202826 0.637778 0.053337 -0.069105 0.090373 -0.254013 0.252026 0.265917 -0.372547 -0.582920 0.084536 -0.128938 0.014559 -0.487557 0.093196 -0.420268 -0.051748 -0.110201 -0.034938 -0.290638 -0.207277 -0.042756 0.236700 0.024487 0.016893 -0.533904 -0.405571 -0.093107 -0.410943 0.446817 -0.470392 -0.169838 -0.310580 0.273908 0.235576 -0.472175 0.203839 0.560476 0.346483 0.522971 0.184691 0.453844 0.754483 0.515399 0.576472 0.733867 0.567335 -0.262225 -0.459616 0.466648 0.255270 -0.271739 -0.519508 0.419146 -0.095030 0.190588
565 -0.196742 -0.176595 0.163545 0.180078 0.163155 -0.412025 -0.117670 -0.322322 -0.297065 0.018084 0.292775 0.304198 0.377165 0.019881 0.134908 -0.123822 0.769006 0.075013 -0.436102 0.130976 -0.300389 -0.556107 -0.472864 -0.033472 -0.098558 0.013966 -0.003888 -0.221201 -0.371131 0.142419 -0.050562 -0.059006 0.201813 0.733163 0.766119 0.138395 0.525215 0.044807 0.198815 0.242132 -0.971501 -0.220247 -0.377627 0.135771 -0.199131 0.439915 -0.295868 0.098448 -0.253015 -0.384512 -0.517522 0.280490 0.100367 0.170439 0.260913 -0.865709 -0.337011 0.399078 -0.478467 0.069151 -0.027141 -0.112511 -0.330283 -0.257136 0.198835 -0.214859 -0.124067 0.079838 0.709594 0.234787 -0.404863 0.018324 -0.074498 -0.390067 0.097425 -0.203670 0.367013 -0.282873 0.371656 0.239155 0.124697 -0.294911 -0.283299 -0.470482 0.737554 0.255630 0.486861 0.147326 -0.115755 0.251592 -0.040516 -0.240569 0.314246 -0.307191 0.141651 0.396564 -0.118220 -0.146554 0.031159 -0.401539 0.763876 -0.340854 0.194185 -0.117256 0.008188 -0.096518 -0.024003 -0.223246 -0.259918 -0.065946 0.318487 -0.333692 0.139405 0.417528 -0.153386 0.196046 0.430101 -0.083559 0.378067 0.102241 -0.273602 0.127797 0.486615 1.047891 -0.171007 -0.283163 -0.213273 0.114834
748 0.097436 -0.287406 -0.323544 -0.041557 -0.180086 -0.065807 0.454173 -0.189951 -0.021103 0.053954 -0.066784 0.332639 0.000965 -0.056366 0.457228 -0.334519 -0.022421 0.124188 -0.071650 0.323078 -0.003313 -0.140145 -0.166697 0.037991 -0.649738 -0.233118 -0.244327 0.271636 -0.665640 0.095370 0.285107 0.332526 0.772277 -0.134623 -0.026029 0.470706 0.042037 0.198269 -0.067131 0.313647 -0.366615 0.118605 0.255038 0.072737 -0.409892 -0.099434 -0.025178 -0.146555 0.012010 -0.183971 -0.304503 0.106550 -0.229471 -0.147898 0.121555 -0.705684 -0.407582 0.626969 -0.072623 0.064598 -0.326705 0.000230 0.309106 0.012475 0.104940 -0.162424 -0.413585 -0.042687 0.417559 -0.401922 -0.052053 -0.644893 -0.391306 -0.104676 -0.050014 0.405721 -0.139822 -0.033487 0.104909 0.207542 -0.198566 0.319056 -0.249718 0.068063 -0.085565 0.619584 0.431906 0.152143 -0.027561 -0.338702 0.196831 0.117325 0.092670 -0.378355 -0.118391 -0.168521 0.206478 -0.275802 -0.303158 0.102455 0.355908 0.063029 -0.277223 -0.349821 0.192772 0.547165 0.245008 0.170894 -0.169772 -0.162969 0.410053 0.048428 0.177447 0.171637 -0.320357 0.231267 -0.037545 -0.059216 0.654058 -0.243393 -0.067313 0.074361 0.357966 0.159244 -0.672746 0.150215 0.425632 0.224199
239 0.028299 -0.127635 -0.681388 0.144638 -0.959580 -0.446688 -0.212452 0.332815 0.615867 -0.142914 -0.052619 -0.401933 -0.262390 -0.012300 0.039886 0.188403 0.080538 -0.556402 -0.063894 0.074983 0.419919 -0.324326 0.352607 0.335596 -0.379605 -0.141192 0.106693 0.317992 0.007059 0.266619 0.484852 -0.037461 0.517037 0.753465 0.202683 -0.137770 -0.086429 0.061093 -0.568548 0.034747 0.254947 0.321475 -0.086086 -0.042986 -0.096855 0.063941 -0.080254 0.403560 -0.195694 -0.486994 -0.142428 -0.214137 0.512401 0.100232 -0.476474 -0.303556 -0.304578 0.139934 -0.655698 0.072739 -0.147625 0.232393 0.182820 -0.070139 0.002136 -0.231393 -0.042387 -0.076558 -0.009331 -0.184042 -0.256549 0.282159 0.557673 -0.104555 0.023308 0.026374 0.250393 -0.023461 -0.050778 0.221934 -0.111735 0.233577 0.115550 -0.432864 -0.139338 0.077906 0.055259 0.127167 -0.008333 0.267408 -0.264459 0.505557 -0.077081 0.303751 -0.761245 -0.101635 -0.091475 0.149804 0.144882 -0.341537 -0.190906 -0.309458 -0.096078 0.409394 -0.135689 -0.361955 0.805760 -0.033483 0.028477 -0.265930 0.766578 0.162426 0.203915 0.190832 0.498170 0.312223 0.587117 -0.018981 0.278226 0.168139 -0.457559 -0.356668 0.693264 -0.090382 -0.093843 -0.444272 0.131516 -0.175370
441 0.383853 0.586987 -0.664756 0.669325 -0.132470 -0.279662 0.569603 -0.451237 0.536691 0.088716 0.519193 -0.116936 0.053036 -0.244489 0.142388 0.220564 0.367211 -0.230588 -0.106219 0.152177 0.529444 -0.010568 -0.050068 -0.136865 -0.030243 0.189807 -0.133726 -0.241729 -0.405782 0.055635 -0.291905 0.032896 0.452635 -0.328393 -0.876399 -0.478330 0.365913 0.080815 0.082811 0.333765 -0.310211 0.413718 -0.071283 0.405626 -0.226532 0.098071 0.124436 0.238575 0.184373 -0.195339 -0.118016 0.229720 -0.031873 0.420296 -0.012862 0.007601 -0.210098 -0.082305 -0.277631 -0.473123 -0.024438 -0.101333 0.184641 -0.013389 0.853120 0.235114 -0.645385 0.433441 0.262331 0.152128 0.205964 -0.146400 0.098374 -0.475072 0.020988 0.742915 0.361187 0.568021 0.307033 -0.253636 0.256683 -0.281683 0.136504 -0.436628 -0.270573 -0.258410 -0.021582 0.471372 0.302566 0.001822 0.480220 -0.083119 0.060841 -0.098610 -0.326633 -0.201822 -0.266269 -0.154601 0.056205 0.399249 0.274236 -0.279507 -0.700476 0.105197 -0.594511 0.693145 0.212625 0.088465 0.626133 0.809078 0.350801 -0.187663 0.087630 0.196248 0.045891 -0.463011 -0.164023 -0.652332 -0.074599 0.151641 -0.266817 0.713796 0.621117 -0.497042 -0.275068 -0.101961 -0.412971 -0.191005
519 -0.103395 0.448981 -0.592615 0.138351 0.055764 -0.107664 -0.394999 -0.034747 0.212364 0.292910 0.157229 -0.175308 0.467650 0.015794 0.204914 0.143052 -0.185412 -0.212553 0.132753 0.231745 0.505352 -0.041921 -0.406796 -0.118989 0.111939 0.275185 -0.121308 -0.109707 -0.031952 0.346445 0.363439 0.213322 -0.128338 -0.388335 0.712542 -0.288583 -0.205649 -0.367751 0.000434 0.350062 0.553333 -0.156257 -0.067693 -0.008278 0.128597 0.152155 -0.180033 -0.199556 0.061537 -0.205227 -0.184713 -0.178357 0.068621 0.179214 -0.051583 0.066164 -0.290625 0.268671 -0.199254 0.127152 0.017564 -0.351800 -0.337737 -0.180397 0.105416 0.197650 0.041825 0.185687 0.363836 0.280942 0.016180 0.140604 -0.119769 0.106033 0.153281 -0.177731 0.306888 -0.056201 0.102735 0.417298 -0.033749 0.348204 -0.047280 -0.145716 0.125431 -0.057433 -0.212588 -0.110521 0.378830 0.011175 -0.224388 0.069908 0.107685 -0.118344 0.181357 0.080223 0.384204 -0.471910 0.065125 -0.213860 -0.142091 -0.237729 0.013614 -0.034349 -0.148494 0.185997 0.102024 -0.180887 0.245531 0.008810 0.135841 0.015671 -0.079039 -0.148536 -0.124980 -0.181602 0.324121 -0.392347 0.440247 0.188974 -0.350762 0.476453 0.054273 -0.146213 0.389074 -0.055024 -0.197941 -0.255306
218 0.001856 -0.334168 -0.517964 0.180944 0.044029 -0.254158 -0.483747 -0.395365 0.510610 0.190977 0.160510 0.293330 0.171707 -0.164039 -0.308091 0.316843 -0.532921 -0.527799 0.003217 0.539457 -0.215650 0.016869 -0.161701 -0.016049 -0.006036 0.227431 0.231292 0.177618 -0.241335 -0.218202 -0.607574 0.013085 0.840439 -0.120982 0.004609 -0.166427 -0.358937 -0.296552 -0.349208 -0.396860 -0.160116 0.010388 -0.178552 0.333222 -0.149361 0.088667 -0.084275 0.295789 -0.691699 -0.206488 -0.434185 -0.218016 0.685209 0.455918 -0.079737 -0.143365 0.488830 -0.160354 -0.021504 0.323151 0.204819 0.065381 0.004683 -0.499611 0.220057 -0.051552 0.517584 0.085964 0.075342 0.037375 0.031141 -0.260404 0.029103 0.168277 -0.301052 -0.226285 -0.237012 -0.084251 0.327097 0.303159 -0.005054 0.295099 -0.065745 0.012890 0.223804 -0.079081 0.070350 -0.326674 0.290267 -0.016152 -0.131591 0.410562 0.181705 0.014227 0.063918 0.102970 -0.528122 0.055997 0.149145 0.163295 -0.374926 -0.088893 -0.230040 -0.195554 0.160098 -0.005108 -0.315127 0.201378 0.023393 0.174041 0.191052 0.371318 -0.102945 -0.267885 0.174531 -0.033508 -0.285679 0.292077 0.629268 -0.775247 0.538261 0.247814 0.049388 0.022524 0.373098 0.328955 -0.716399 -0.187311
94 -0.094030 0.036370 -0.412275 -0.214163 -0.787778 -0.221603 -0.412778 -0.325504 -0.134043 0.004602 0.112263 0.332317 -0.128766 -0.496594 -0.254608 -0.001021 -0.112734 0.164824 -0.215335 0.000704 0.081020 -0.414253 -0.079125 0.681869 0.162696 0.413059 0.179031 -0.003748 -0.343652 0.186445 -0.756814 0.240609 0.110278 0.206243 0.335683 -0.098484 -0.336976 0.032037 -0.371748 0.223460 -0.108904 -0.046952 0.263718 -0.091496 0.233717 0.284010 0.174624 -0.494778 -0.240703 -0.641168 -0.449345 -0.264894 0.004172 0.284785 0.204094 0.772708 -0.067262 -0.178987 0.016857 -0.153254 -0.479437 0.937915 -0.085566 -0.638189 -0.131893 0.240028 -0.078668 -0.222888 -0.529341 -0.299137 0.329776 0.165149 0.235037 -0.170275 0.187468 -0.227613 0.712059 0.040770 0.049174 0.277083 -0.346583 0.118318 0.382827 -0.376299 0.719204 0.353385 0.185876 -0.038946 0.415851 0.353916 -0.310468 0.108970 0.259493 -0.154315 0.185385 -0.083894 -0.370499 0.057753 -0.283703 -0.204784 0.384979 -0.308693 -0.607796 0.030006 0.277573 -0.156234 0.006313 0.164919 0.273526 0.619942 0.095450 -0.160496 0.241916 -0.220409 -0.031666 0.200497 0.146364 0.658073 0.655841 -0.584077 -0.243585 0.578870 -0.369883 0.274142 -0.589894 1.374756 -0.235845 0.196323
1655 -0.135821 0.046272 -0.077102 0.356216 -0.085946 0.102172 0.111294 0.340530 0.318095 0.240466 0.038623 0.231235 -0.503761 0.110804 0.257931 0.373163 -0.038367 -0.142969 -0.127921 0.257431 -0.001595 -0.096110 -0.214903 0.528668 -0.025458 -0.252806 -0.195846 0.217305 -0.651882 0.250832 0.199099 0.145958 0.033158 -0.292520 0.152380 -0.363468 0.061795 -0.377568 0.154484 0.050395 -0.267280 0.341686 -0.195640 0.242944 -0.178146 0.256128 0.204909 0.204888 -0.031615 -0.278752 -0.288158 -0.089206 0.524115 -0.005691 0.282908 0.021992 -0.024433 -0.155055 -0.369446 -0.445337 -0.305941 0.570506 0.079262 0.321975 -0.065141 0.670449 0.148004 -0.034095 0.019868 -0.327996 -0.049362 0.205393 0.147949 0.633468 0.439260 0.022226 0.139592 0.071715 -0.050970 0.481767 -0.297371 -0.415752 -0.018733 -0.056047 0.603984 -0.005081 0.594171 -0.237083 -0.697230 -0.137538 -0.259785 -0.049033 0.217611 0.660159 0.084325 0.597043 -0.257789 -0.318734 0.192021 -0.030556 -0.165385 -0.010653 0.369583 -0.362095 -0.113505 0.157756 0.083743 0.213480 -0.127640 0.588107 0.183624 0.366669 0.155444 0.273293 -0.270998 0.260729 0.385077 0.382181 0.435465 -0.298648 0.331751 0.125329 -0.066076 -0.513746 0.208048 -0.034544 -0.350002 0.380603
645 0.137697 0.474743 -0.439081 0.072794 -0.186956 0.095215 -0.189792 -0.376208 0.021778 0.064253 -0.096725 -0.049122 0.198581 -0.080703 -0.195643 -0.052954 -0.125072 0.547117 -0.508013 -0.387688 0.235802 -0.314362 -0.097478 -0.333285 -0.027534 -0.167349 0.009338 0.312136 0.083482 0.050170 0.262397 -0.193899 0.576447 0.154050 0.228861 -0.041209 0.524232 0.294759 0.517229 0.098371 -0.118977 -0.370533 0.181778 0.293889 -0.354005 0.170195 0.263345 -0.254300 -0.213075 -0.624657 0.042581 0.728059 -0.124624 -0.181115 -0.019820 -0.394870 0.531686 0.378680 0.036408 0.139846 -0.112819 0.134419 0.625071 0.024645 -0.321236 0.352523 -0.018229 -0.271040 0.250639 0.318533 -0.198985 -0.419937 -0.130370 0.024766 -0.327865 0.005503 -0.378348 0.499114 0.722544 -0.113200 -0.132904 0.044454 -0.066982 0.483677 0.319956 0.392181 0.663406 0.009346 -0.304498 0.070433 -0.317014 -0.596520 0.128461 0.358768 -0.138750 0.411498 -0.006716 -0.536935 -0.302165 0.011006 0.121953 0.067606 0.134917 0.326812 -0.266249 0.398514 0.511085 -0.463876 0.329349 0.608565 0.644874 -0.715289 0.461471 0.213951 0.636742 0.202397 -0.385260 0.006708 0.481622 0.266331 -0.208652 -0.300925 -0.021851 0.141845 -0.263731 0.320787 -0.211286 -0.352206
487 -0.285113 -0.298807 -0.532568 0.577926 -0.101765 -0.359006 0.114856 0.042068 0.128592 0.041137 -0.139700 -0.349473 0.014513 -0.185446 0.189097 -0.135127 -0.739658 0.009925 0.096528 0.120836 0.271296 0.176788 -0.198333 0.303069 0.070942 0.273398 -0.379041 -0.049471 -0.397509 0.462942 -0.144093 -0.182061 -0.027697 0.596766 0.478673 -0.249113 -0.005078 -0.048639 0.143835 -0.183304 -0.052999 0.204557 0.266252 0.582685 -0.300384 -0.257279 0.074457 0.315109 0.146253 -0.329177 -0.116087 0.010332 0.152094 0.285588 -0.502398 0.041503 -0.455665 0.288960 0.010445 -0.005930 -0.103517 -0.272564 0.273689 0.050883 0.067656 0.204852 -0.133719 0.007277 0.476432 0.006906 -0.185067 0.078310 0.473931 -0.018536 0.011360 0.274829 0.290106 0.548921 -0.071045 0.030726 0.325027 -0.134263 0.255746 -0.307863 0.510668 -0.337965 -0.007851 0.462217 0.343686 0.294744 -0.627793 -0.125690 0.169046 0.016831 -0.087163 -0.004101 0.618515 -0.148902 -0.231049 -0.046653 0.273889 0.275970 -0.368064 -0.043419 -0.347299 0.349149 0.104931 -0.111937 0.515224 -0.123515 -0.017793 0.404673 0.148847 -0.521159 0.076667 -0.652941 0.313352 0.232126 0.270992 -0.029625 0.198277 -0.070890 -0.208224 0.529737 -0.251084 0.123060 -0.360917 -0.073124
