3327 128
1422 -0.061928 -0.221819 -0.098029 -0.083495 0.055035 -0.287134 0.118614 -0.083183 -0.457907 -0.178875 0.651019 0.028308 0.025886 0.041417 -0.321859 -0.056765 0.210170 0.148167 -0.118207 0.089080 -0.112629 -0.043289 0.212960 0.028569 0.217038 -0.274161 -0.112183 -0.216854 -0.022865 0.319317 -0.199998 0.118872 -0.260323 -0.370826 0.078911 -0.325803 -0.057128 0.029890 0.219496 -0.451305 0.450259 0.143275 0.034021 0.140674 -0.028571 -0.037823 -0.253897 0.035288 0.076910 0.027300 0.279234 0.150952 0.309005 0.028517 -0.225007 -0.127126 0.767694 0.077861 -0.145175 0.461737 0.356330 -0.006052 0.119544 0.118535 -0.016287 0.297678 -0.048147 -0.305386 -0.026036 0.424169 -0.274256 0.216541 -0.055254 -0.103291 0.037540 -0.469787 0.080970 -0.127675 -0.177286 0.092081 0.163613 0.037764 0.126952 -0.112715 -0.140707 -0.064427 0.184638 0.423017 -0.341052 0.141318 0.069578 0.534942 0.347779 0.028873 0.072055 -0.043603 0.025068 -0.083136 -0.231109 0.029743 0.365669 0.133451 0.109961 -0.174952 0.249137 -0.002764 0.059212 0.372398 -0.166706 -0.199483 -0.026032 0.125426 0.070607 -0.031784 0.521506 -0.046223 -0.224038 -0.088301 0.185500 0.131725 0.072224 0.059184 -0.259900 -0.089025 0.202315 -0.100184 0.032766 0.313884
582 0.141539 -0.355056 0.518895 0.197749 0.638448 -0.173647 -0.041998 -0.192137 0.216963 0.601408 0.297997 0.470564 0.087869 0.081350 -0.025121 -0.247703 -0.004584 -0.674758 -0.076980 -0.324345 -0.218106 -0.308989 -0.433754 -0.034836 -0.089423 0.263983 -0.050467 0.118975 0.035825 0.243648 0.255192 -0.026752 -0.400695 -0.316406 0.308964 0.053462 0.075602 -0.226462 -0.006124 -0.224880 -0.112274 -0.140142 0.276541 0.516942 -0.008384 -0.309005 -0.243048 0.352048 -0.575282 -0.149185 0.450683 -0.173227 0.161753 -0.018695 0.361441 0.227915 -0.016892 -0.036874 -0.609619 0.050512 -0.396818 0.132540 -0.407392 -0.488161 0.157738 -0.102914 -0.238370 -0.300945 -0.404239 -0.013661 0.247241 0.252153 0.189379 0.358134 0.277533 -0.081256 -0.205807 0.220553 -0.032164 -0.032482 -0.192653 -0.036734 -0.173098 0.023906 -0.076823 0.067544 0.285437 -0.166190 -0.016235 0.065663 0.157342 0.425692 -0.071734 -0.193196 -0.002270 0.087581 -0.318778 0.297003 -0.260168 -0.713032 0.363792 -0.257616 0.189399 -0.133208 0.350458 -0.014488 -0.128405 0.007721 0.003645 0.034968 -0.236021 0.155290 0.144168 0.096622 -0.215080 -0.285589 0.110654 0.119811 -0.211947 0.209856 0.139104 0.218544 -0.434477 -0.077368 -0.192133 -0.033239 0.028311 -0.137987
1214 -0.098889 -0.283747 -0.166905 -0.215709 0.329638 -0.324407 -0.119146 -0.229707 -0.554018 0.194930 0.547728 0.509258 -0.139126 0.179708 -0.415074 -0.369820 0.211348 0.258871 -0.050993 -0.011885 -0.061343 0.268709 0.390219 -0.084000 0.077518 -0.163623 -0.333651 -0.344594 0.033165 0.438103 -0.485907 -0.037774 -0.297785 -0.355093 0.116873 -0.133990 0.166402 -0.094245 0.193402 -0.027665 0.305396 0.223808 0.054982 0.316572 0.252231 0.278249 -0.462756 0.068888 -0.066000 -0.162984 0.431160 0.014081 0.074077 -0.091994 -0.396074 -0.090987 0.754643 -0.130168 0.307063 0.396075 0.347473 0.209653 -0.077609 -0.036796 0.056318 0.282327 -0.085063 -0.378120 -0.030661 -0.017078 -0.487343 0.116664 -0.133758 -0.084442 0.092085 -0.308553 0.140288 -0.179628 0.089106 -0.142994 0.007758 0.044340 0.065401 -0.170726 -0.207242 -0.130448 0.117196 0.023279 -0.483754 -0.187195 -0.129251 0.331312 0.448010 0.153008 0.120145 -0.526606 -0.208066 0.087043 -0.111813 0.133810 0.262370 -0.035186 0.077196 0.241543 0.104951 0.062905 -0.052308 0.466865 0.247753 -0.076088 -0.220229 -0.041195 -0.005016 0.109255 0.510376 0.080056 -0.240530 0.049835 0.016061 0.232158 -0.080764 0.050825 0.138241 0.142708 -0.043864 0.097829 0.357137 0.179372
2782 -0.133240 -0.122887 -0.366798 -0.095254 0.165212 -0.421559 -0.014172 -0.169404 -0.376368 -0.034496 0.455800 0.244615 -0.327440 -0.094744 -0.284392 -0.500155 0.061068 0.116293 0.073355 -0.019368 -0.062203 0.054361 0.359472 -0.041151 -0.083142 -0.201624 -0.267176 -0.330862 -0.101655 0.437155 -0.195808 -0.143073 -0.391047 -0.298782 0.043951 -0.251793 -0.103543 -0.077853 0.456296 -0.280003 0.497176 -0.013851 0.256350 0.332857 0.250154 0.265438 -0.572095 0.223846 0.007366 0.085190 0.203773 0.006671 0.022179 0.033420 -0.269591 0.069937 0.811447 0.010422 0.054626 0.274814 0.251224 0.065274 0.086622 -0.017144 -0.103740 0.140589 -0.092652 -0.376275 0.031982 0.240476 -0.463091 0.068652 -0.232534 0.069051 0.081748 -0.333913 0.296446 -0.061717 0.164848 0.007709 0.177639 -0.105262 0.199650 -0.546970 0.031889 0.049583 0.213765 0.335188 -0.016314 -0.049306 0.047803 0.225448 0.293590 -0.017310 0.109222 -0.195664 -0.031955 0.082420 -0.154789 0.034234 0.386807 0.073112 0.024549 0.181566 0.094301 0.289577 -0.050404 0.272402 -0.036133 -0.363189 0.213094 0.026705 -0.174207 -0.033099 0.498818 0.203051 -0.188339 0.096039 -0.159611 0.250447 0.144495 0.030883 0.093009 0.220713 -0.040998 0.223176 0.351520 0.139530
1625 0.136060 -0.322349 -0.002473 0.342816 0.151492 -0.295056 0.407820 -0.239697 -0.218968 -0.009217 0.035006 -0.079419 0.048156 0.465118 -0.122127 -0.362148 0.116488 0.057093 -0.226605 0.013977 0.117879 -0.331049 0.134223 0.108064 0.099398 -0.346220 -0.135132 -0.142271 -0.066642 0.737483 -0.372429 -0.437839 0.244046 -0.150275 0.339880 0.203848 0.101610 -0.020770 0.206229 -0.316741 0.233964 0.122818 -0.048889 0.029808 0.363661 0.061206 -0.336374 -0.233020 -0.014291 0.145990 0.020250 0.101718 0.276410 0.190519 -0.097164 -0.290625 0.502617 -0.019411 0.108575 0.148821 0.123935 0.326604 0.096327 -0.088716 -0.177494 0.492534 0.009632 -0.041881 -0.263209 -0.006518 -0.132908 0.266737 -0.358904 -0.237195 0.017154 -0.353285 -0.150373 0.033743 0.110877 -0.530217 0.070674 -0.183490 0.092026 0.155452 -0.363544 -0.021754 -0.292210 0.352518 -0.217296 0.058179 0.067572 0.239869 0.017552 0.272277 0.274664 -0.221941 0.274205 -0.147522 0.043737 -0.528128 0.331391 -0.364487 -0.075480 0.239478 -0.006662 0.413290 -0.239850 -0.017476 -0.224436 -0.349823 -0.685251 -0.006657 -0.231031 -0.123761 0.373850 0.244133 -0.158881 -0.289094 -0.214716 -0.056799 0.014646 0.194953 -0.291973 0.100047 -0.093805 0.186257 0.054412 0.036793
1620 -0.010514 -0.182870 -0.042754 -0.070646 -0.259665 -0.039525 -0.116777 0.390222 0.232974 0.193263 -0.352977 -0.192967 -0.152674 0.208292 0.711900 -0.236881 -0.039719 -0.283384 0.014027 -0.058555 -0.002726 -0.460607 -0.266485 -0.005399 -0.022684 0.029614 0.150333 0.114489 0.205647 0.736433 0.028351 -0.278943 -0.702681 -0.501439 0.297039 0.318655 -0.213917 0.160421 0.253433 -0.458645 0.053025 0.488492 0.578013 0.354969 -0.330243 0.292536 -0.327448 0.412800 -0.260317 -0.160389 0.319845 0.439062 -0.053277 0.208334 -0.192351 0.355713 0.045776 0.054206 -0.401021 0.228953 -0.183741 0.049083 -0.381192 -0.162001 -0.293545 -0.012388 -0.224691 -0.142665 -0.278162 -0.183461 0.366329 0.097978 -0.078666 0.078327 -0.034402 -0.209512 -0.651106 -0.047493 -0.045391 -0.220459 -0.182671 -0.191140 0.001153 -0.069441 -0.020023 0.073382 0.283814 -0.259495 -0.338422 0.113674 0.512111 0.276223 0.276134 -0.358828 0.258851 0.136572 -0.598281 0.103414 0.220452 -0.359088 0.485088 -0.471994 0.378830 -0.257962 0.496881 0.066591 0.235693 -0.174068 0.089441 0.258981 -0.288055 0.059224 -0.042465 -0.496949 -0.052441 -0.414049 -0.458051 -0.258611 -0.041823 0.065449 -0.146953 -0.173190 0.061131 -0.420285 -0.703441 0.053264 0.437049 -0.227128
3193 -0.236093 0.145999 -0.218415 0.906502 -0.098450 -0.576894 0.245003 0.113364 -0.503694 0.705145 0.755598 0.198272 -0.010063 0.136060 0.946422 0.057858 0.110895 0.033988 0.068768 0.602130 -0.843887 0.073008 -0.842563 0.297742 -0.223343 -0.534891 -0.040542 -0.092831 0.243793 -0.150626 -0.032656 -0.320793 -0.022716 -0.028247 -0.446862 -0.691819 -0.062163 0.261696 -0.467375 -0.396447 0.511530 0.031680 -0.231805 0.167799 0.141112 0.523932 -0.240881 0.552130 -0.474043 -0.433995 -0.024800 0.421876 -0.149692 0.399322 -0.274368 -0.175791 0.237473 0.168674 -0.228641 0.329828 0.085741 0.023828 0.394633 -0.476398 0.303408 -0.041220 -0.016439 0.546213 0.077408 -0.188037 0.506145 0.030341 -0.129885 0.029989 0.203181 -0.665311 -0.263938 -0.207548 -0.107881 0.119056 -0.251515 0.347511 0.507676 -0.217780 -0.218336 -0.017993 0.281337 -0.268717 0.540234 0.372750 -0.271976 0.266557 0.434196 -0.437700 0.318995 -0.474684 -0.260477 -0.570052 0.451773 -0.059346 0.426544 -0.864427 -0.388236 0.375584 -0.432556 0.382048 -0.386020 0.506797 -0.097784 -0.515265 -0.421925 0.247399 0.010233 -0.038908 -0.136843 0.415262 0.357153 -0.042400 -0.094566 0.352817 0.043689 0.484593 0.127346 0.303729 -0.397526 -0.069384 0.493135 -0.730754
541 -0.368428 -0.275193 0.098747 0.421237 0.017111 -0.439641 0.238119 0.223299 -0.038023 0.324981 -0.463271 0.247896 0.240610 0.288796 0.919042 -0.182958 -0.278439 -0.334980 0.005809 0.021660 -0.282062 -0.089793 0.113675 -0.076066 -0.325750 0.103863 0.462090 0.169078 -0.272131 0.232568 -0.015893 -0.170931 -0.490111 -0.367103 0.579814 -0.327793 0.097608 -0.245577 0.653203 -0.521128 -0.313346 -0.243636 0.431805 0.682421 0.113892 0.210530 -0.185620 0.771025 -0.157110 -0.070841 0.722717 0.331540 -0.109241 -0.865225 0.102952 -0.002952 0.344991 -0.317773 -0.462355 0.015289 0.200930 -0.192415 -0.216123 -0.091082 -0.188458 -0.094884 -0.196095 0.114172 0.212543 -0.104129 0.212014 0.374543 -0.359395 0.050004 0.044498 -0.025106 0.039334 0.067837 -0.055987 -0.272888 -0.142679 -0.555072 0.125487 0.334704 0.054968 -0.187086 0.450636 -0.314295 0.020545 0.190005 -0.428372 0.598481 -0.033362 -0.245075 -0.090106 0.318745 -0.523580 0.495138 -0.004963 -0.719406 0.215920 -0.595950 0.378449 0.175698 0.378075 -0.334694 -0.040681 0.192938 0.137320 0.587977 -0.459490 0.033512 -0.024664 -0.281710 -0.118462 -0.312400 -0.283762 -0.261793 -0.734427 0.082796 -0.307666 -0.246552 0.016632 -0.937489 -0.259205 -0.054461 0.040503 -0.330362
755 -0.240402 -0.373284 -0.388095 0.170940 0.317301 -0.270117 0.427288 0.233342 -0.443407 0.196366 0.409655 -0.155370 -0.011454 0.320163 -0.519566 -0.407598 0.271406 0.067674 0.212512 -0.201414 0.250219 -0.215391 0.276923 -0.315120 0.148977 -0.176438 -0.185483 -0.020676 -0.074944 0.280052 -0.043540 0.041002 -0.391877 -0.329846 -0.158639 -0.221970 0.103199 0.216281 0.324873 -0.452717 0.047359 -0.074928 0.129041 0.123637 0.172624 0.122976 -0.238077 0.352450 -0.078757 -0.098039 0.499401 0.232305 0.071832 0.021836 0.065308 0.013427 0.556713 -0.269666 -0.036478 0.380689 0.033081 0.196038 0.185369 0.093459 -0.370523 0.577418 -0.119198 -0.025118 0.276163 0.302066 -0.286886 0.038067 -0.346584 -0.117054 0.056342 -0.042873 0.438369 -0.174924 0.065619 0.027604 0.104732 -0.420499 -0.112840 -0.131886 0.122567 0.060571 0.336634 0.234620 -0.437111 -0.132235 0.383134 -0.119147 0.307645 -0.015924 -0.175355 -0.296701 0.184398 -0.200071 -0.061631 0.071398 0.367729 0.333152 0.387186 -0.187769 -0.169713 0.205500 -0.240925 0.248904 0.036076 -0.185574 -0.163258 0.029627 0.054690 0.198851 0.595424 0.301263 -0.175823 0.006264 -0.150712 0.159491 0.468688 0.160898 -0.171561 -0.044836 0.020297 0.128028 0.078539 0.129549
1943 -0.290024 -0.061253 -0.287693 -0.020234 0.031555 -0.603057 0.068063 -0.226513 -0.602622 -0.033870 0.417586 0.302090 -0.394847 0.276019 -0.324700 0.028861 0.249911 0.056538 0.209685 -0.254171 -0.207118 -0.174827 0.217520 -0.478994 0.232190 -0.441893 -0.220601 -0.470751 -0.173154 0.168089 -0.285248 0.070477 -0.100210 -0.310828 0.314391 0.023693 0.123805 0.075646 0.173777 -0.244835 0.007689 -0.119171 -0.183482 0.111190 0.063882 0.013345 -0.322552 0.273662 0.098111 -0.201393 0.460098 0.250241 0.458901 0.276618 -0.289979 0.078838 0.464581 -0.015369 0.075173 0.457335 0.097947 0.023424 -0.073515 -0.202263 0.027775 0.167831 0.267727 0.020157 -0.089760 0.141159 -0.457592 0.358664 -0.125950 -0.219017 -0.130610 -0.580836 0.031553 -0.039542 0.334065 -0.124947 0.160838 -0.147985 0.043700 -0.097561 -0.069807 -0.226885 0.359093 0.014854 -0.344655 0.130696 -0.104787 0.255843 0.668741 0.362329 0.242967 0.075282 0.064797 -0.190278 -0.095847 0.102352 0.496685 -0.020251 0.084192 -0.366158 0.350155 0.038967 -0.259471 0.118988 -0.225275 -0.138735 0.027648 0.242879 -0.211244 0.024609 0.323332 0.062602 0.014970 -0.030421 -0.108645 0.224979 -0.243951 -0.053139 -0.101601 0.210319 0.205414 -0.138893 0.373375 0.216821
968 -0.218787 -0.214396 -0.158639 -0.140568 0.340604 -0.160761 0.099942 -0.194881 -0.664275 0.080819 0.356534 0.170109 -0.072271 0.175758 -0.251550 -0.296978 0.184392 -0.000524 -0.006432 -0.052773 -0.261831 -0.058006 0.254290 -0.320903 -0.021457 -0.208252 -0.056344 -0.040451 -0.052520 0.539652 -0.076494 -0.117058 0.014573 -0.295929 0.189427 -0.032577 0.044439 0.150848 0.064644 -0.394606 0.221098 -0.070970 -0.045653 -0.165382 -0.248656 0.019538 -0.379875 -0.145918 -0.090778 -0.010142 0.484806 0.178161 0.301499 0.142747 -0.208254 -0.012899 0.586263 0.054564 0.185578 0.384695 0.084764 -0.005415 -0.058095 0.011515 -0.227230 0.204970 0.181443 -0.073421 -0.439082 0.190598 0.031492 0.130890 -0.046929 0.075763 -0.314914 -0.446294 0.274590 0.004275 0.196311 -0.392645 -0.124202 -0.113178 0.257197 -0.289341 -0.031555 0.160834 0.193266 0.239651 -0.321366 0.145703 -0.136960 0.055123 0.499647 0.448710 -0.010460 -0.352539 -0.125326 0.022994 0.102784 0.037135 0.529397 -0.164583 0.170072 -0.100257 -0.125982 0.030898 0.062435 0.161220 -0.190766 -0.267861 -0.044660 0.024484 -0.251316 0.229068 0.718074 0.246701 -0.171527 -0.216002 -0.167574 0.074353 0.028373 -0.191770 0.123922 0.361908 0.247979 0.110232 0.253481 -0.009032
468 0.223433 -0.180130 -0.179177 -0.050781 -0.167592 -0.265890 0.341574 0.162565 -0.261744 0.362776 0.273058 0.211965 0.083043 -0.020511 -0.235947 -0.266666 0.011931 0.114913 0.113597 0.105221 0.118884 -0.533564 -0.147429 0.005496 0.122454 -0.106792 -0.047252 0.162651 -0.128862 0.653860 0.208567 -0.200263 -0.066386 -0.235840 0.398203 -0.111829 -0.040409 -0.202831 0.267823 -0.511335 -0.106946 0.014968 -0.215022 -0.242237 0.078288 0.373098 -0.234709 0.317916 0.036878 -0.146394 0.311585 0.457599 0.385427 0.163644 -0.193529 -0.208945 0.148154 0.063829 0.411693 0.367725 0.360212 -0.030118 -0.107555 0.157252 -0.087434 0.420867 0.031538 -0.041814 -0.036688 0.587098 -0.001464 -0.159296 -0.175076 0.106416 -0.138740 -0.377538 0.097500 0.070538 0.068829 -0.023659 -0.149493 -0.383444 0.537267 0.125815 -0.020328 0.145944 -0.249508 0.094845 -0.325412 -0.084503 0.189480 0.164481 0.400436 0.742374 -0.160559 -0.531170 -0.335537 0.083723 -0.305292 0.050035 0.228382 -0.197322 -0.297016 -0.320046 -0.074431 0.228366 0.122256 0.148205 0.010495 -0.039852 -0.406671 -0.099129 -0.160167 -0.108851 0.576025 0.157803 0.176671 -0.367701 -0.317086 0.253389 0.044718 0.402385 -0.307722 0.470285 0.059777 0.213731 0.054510 -0.010725
83 -0.146880 0.386669 0.533808 0.452852 0.024089 -0.491349 0.285985 -0.515178 0.051147 -0.264994 0.556065 0.272231 -0.265128 0.084946 0.181730 -0.326598 -0.473331 0.057714 -0.132038 -0.453279 -0.225304 -0.355569 -0.503320 0.529013 -0.201675 0.116817 0.224359 -0.379378 0.165993 0.589081 0.329814 -0.462285 -0.234502 -0.192480 -0.210221 0.274812 -0.046152 -0.314896 0.284364 -0.291948 -0.411068 0.066024 0.092168 0.636900 -0.328025 -0.181307 -0.029552 0.560144 -0.038665 0.017647 0.356203 -0.059621 0.044623 -0.036891 0.299394 0.308844 0.070055 -0.631459 0.654757 -0.356377 -0.146486 0.207338 -0.534264 -0.530035 0.185607 0.207753 -0.366881 -0.082264 -0.471454 0.149101 0.375524 0.287449 0.008745 -0.303155 0.178816 -0.371222 0.378817 0.429902 -0.351914 0.391354 -0.230734 -0.538496 0.086187 -0.062314 0.193173 -0.011369 0.331498 0.227325 -0.427763 -0.000466 -0.052843 0.864223 0.018101 -0.164942 0.101648 0.169014 -0.529335 0.294012 -0.025168 -0.749581 0.117690 -0.781265 0.738829 -0.083315 0.043828 -0.476178 -0.208260 0.281608 0.075944 -0.017881 0.265264 0.403084 0.231112 0.238509 0.090157 -0.144423 0.522952 0.328943 0.182472 -0.103407 0.247259 0.029496 0.310487 0.059880 -0.352207 -0.017369 0.058723 -0.369402
2646 -0.471982 -0.010654 0.490111 -0.080216 0.119326 -0.409301 0.399687 -0.497160 -0.367778 -0.277713 0.064109 0.340561 -0.158202 0.213851 0.157235 0.119448 0.098505 -0.205525 -0.381424 -0.128587 -0.252204 -0.590625 -0.223094 0.477265 -0.282971 -0.265434 0.242275 0.048593 0.075230 0.564110 0.123546 -0.381499 0.155804 -0.180228 -0.188524 0.264357 0.114786 -0.391005 0.334288 -0.245245 -0.635174 -0.189755 0.052981 0.722554 -0.556355 -0.111904 -0.133828 0.647534 -0.219605 -0.362824 0.546750 0.156012 0.119714 -0.003296 0.514870 0.371807 -0.019170 -0.661203 0.296055 -0.139255 -0.081353 0.141573 -0.054502 -0.304406 0.415089 0.224185 -0.021863 0.113479 -0.386463 0.120868 0.113838 0.596479 -0.345591 0.529583 0.062954 0.119218 -0.016456 0.520666 -0.543350 0.140717 -0.262721 -0.299495 0.037107 -0.076328 0.426995 -0.218557 0.546663 -0.353733 -0.276043 -0.025381 0.086957 0.649009 -0.377642 -0.437325 -0.094762 0.121666 -0.199376 0.345481 -0.123988 -0.485970 0.061183 -0.465848 0.161692 -0.253110 0.086035 -0.527394 0.079976 -0.065351 0.163813 -0.298474 -0.006672 0.252728 0.198233 0.286074 0.343243 -0.239626 0.603852 -0.037690 0.349315 -0.170740 0.229700 0.329590 0.036867 -0.449564 -0.285675 -0.133866 -0.045200 -0.119693
1896 -0.054581 -0.263537 0.273041 0.167365 0.247039 -0.646922 0.054880 -0.803852 -0.268517 0.097210 0.445783 0.093056 -0.476058 0.047407 0.291960 0.458709 0.210948 -0.329369 -0.142847 0.594897 -0.062186 0.197206 -1.151695 -0.542796 0.092534 0.195281 0.081767 -0.508472 0.190535 0.411734 -0.049127 -0.812362 -0.207213 0.508055 0.195337 -0.014884 0.563244 0.026903 0.954893 -0.628725 -0.523384 -0.285837 -0.337147 -0.648407 0.134103 0.212702 -0.468474 0.202663 -0.068460 -0.323786 0.280248 -0.069398 0.074272 -0.367289 0.526834 -0.422416 -0.060918 0.124397 -0.193492 0.683949 -0.468103 0.245856 0.590517 0.401890 -0.214248 -0.210474 -0.549607 -0.325252 -0.556670 0.513533 0.203984 0.061942 0.047073 -0.332546 0.034305 -0.981274 -0.466620 0.015926 0.437969 0.883100 -0.432150 -0.690228 0.149177 0.038791 0.032334 0.194062 -0.555319 -0.301256 -0.395582 -0.370246 0.120379 -0.445162 -0.120388 -0.655008 0.328754 -0.611432 -0.258183 0.027563 0.418619 -0.154369 0.414166 -0.116698 0.550987 0.102393 -0.066246 -0.404287 0.292255 1.184329 -0.211331 -0.319492 -0.691116 -0.281057 -0.038099 0.001550 0.170902 -0.241077 0.125521 0.300096 0.227665 -0.285344 -0.208880 0.321515 -0.062703 -0.618955 -0.808158 -0.072017 -0.788301 0.011984
1097 0.234486 -0.200640 0.233999 -0.004197 -0.041068 -0.116775 0.645436 -0.261276 -0.307423 0.100366 0.426170 0.130073 0.055448 0.501144 -0.145175 -0.072616 0.389138 0.043593 0.000217 0.041440 0.059074 -0.200941 -0.055872 -0.137362 0.501845 -0.026444 0.139853 -0.146571 0.036047 0.880737 -0.021660 -0.270709 0.229473 0.389268 0.365107 -0.262016 0.007796 -0.522982 0.556752 -0.054243 0.039841 0.353271 -0.153705 -0.251624 0.233422 0.159169 -0.081557 0.397588 -0.092700 -0.077364 -0.076776 -0.187532 0.351786 0.221538 0.067626 0.016499 0.254444 0.094858 0.172800 0.246017 0.221825 0.215330 -0.128836 0.310606 -0.389851 0.333758 -0.151619 0.298207 -0.233069 0.240814 -0.047167 -0.116849 -0.591908 -0.017387 0.070473 -0.177007 -0.087162 0.207261 0.409414 -0.113129 0.087719 -0.329848 0.294131 0.029664 0.037719 0.573338 -0.290904 -0.016447 0.141623 -0.132389 0.216008 0.199149 0.338325 0.693125 0.122066 -0.187719 0.014637 -0.354562 -0.070920 -0.128778 0.304586 -0.412079 0.214797 -0.195693 -0.121100 -0.224984 0.299183 -0.070687 -0.317435 -0.335873 -0.454000 0.110372 0.008246 -0.229859 0.118506 0.109181 0.196123 -0.457201 -0.215686 0.402494 -0.257228 0.461468 -0.016352 -0.139970 0.073412 0.190882 0.251722 -0.178741
2174 -0.136889 -0.175988 0.305609 0.708350 -0.251960 -0.225270 0.309043 -0.156939 -0.448148 0.068789 0.217187 -0.374396 0.040275 -0.160700 -0.035941 -0.079709 1.033003 -0.408334 0.081539 0.462223 0.055083 -0.268447 -0.286088 0.407829 -0.031322 -0.030798 0.181434 0.238617 -0.550535 0.196360 -0.269031 -0.169892 -0.599548 0.139573 0.370176 0.315681 0.012521 0.443918 -0.367007 -0.493932 0.433565 0.057934 -0.359523 0.002608 0.444539 0.066013 -0.113739 -0.161880 0.488496 -0.237173 0.177825 0.085849 -0.261188 0.174043 -0.273089 -0.201208 0.292829 0.007621 0.560248 -0.028626 0.064858 -0.314675 -0.707066 0.613247 -0.280410 0.521892 -0.280277 -0.947547 -0.197918 0.100163 0.205323 0.421713 -0.138910 0.093882 -0.307043 -0.723142 0.150306 0.079073 0.200030 0.059718 0.128051 -0.205482 -0.154645 -0.270972 0.623557 -0.381445 0.379140 0.188974 0.059014 -0.255473 0.010341 0.354945 0.247094 -0.212576 0.209739 -0.096760 0.072024 0.276244 -0.403819 -0.409436 0.598302 0.576863 -0.168442 0.046784 0.512731 -0.436817 0.364529 0.094430 -0.283991 -0.103366 0.068333 -0.216501 0.494966 -0.309634 0.156713 -0.015160 0.207156 0.112309 0.017393 0.442226 0.289595 0.119165 -0.095230 -0.442516 0.082504 0.410843 0.412470 -0.592330
3046 -0.331033 0.287274 0.503368 0.090347 0.236702 -0.556824 0.342882 -0.267148 -0.391083 -0.062447 0.148799 0.391087 0.015798 -0.027846 0.195829 -0.205524 0.056974 -0.105391 -0.287754 -0.211000 -0.481847 -0.640841 -0.397201 0.307172 -0.510841 0.353306 0.153876 -0.027643 -0.012981 0.450967 0.366149 -0.684406 -0.427339 0.024026 -0.139163 0.284014 -0.105779 -0.448840 0.502716 -0.092125 -0.646290 0.203885 0.034923 0.681364 -0.264823 -0.231819 0.008703 0.328324 -0.191734 -0.046929 0.641073 -0.020295 0.091621 0.016938 0.335088 0.437425 0.042905 -0.637835 -0.079553 -0.203135 -0.027094 -0.195535 -0.212800 -0.522731 0.203972 0.060537 0.109944 -0.112070 -0.236605 -0.023383 -0.044151 0.669136 -0.140010 0.416552 0.104209 0.011685 0.508400 0.409884 -0.242642 0.228094 -0.374409 -0.242402 -0.277019 0.002710 0.161461 0.138268 0.492962 0.026642 0.010619 0.010145 0.128829 0.718809 -0.189461 -0.412945 -0.128146 -0.051289 -0.747089 0.418134 -0.021016 -0.466469 0.192596 -0.451269 0.481428 0.071353 0.198367 -0.344029 -0.322182 -0.033935 0.062878 -0.378482 0.092849 0.186027 0.125638 -0.291075 0.126106 -0.358655 0.280514 0.252066 -0.077095 -0.172593 0.084790 -0.005932 0.057806 -0.230929 -0.000830 -0.079667 -0.048082 -0.367257
1822 -0.360950 0.475392 0.080900 0.330934 0.183290 -0.527647 -0.140185 -0.122038 -0.603592 0.796852 -0.011242 -0.196909 0.470390 0.639334 0.471782 0.057353 0.253256 -0.305015 -0.348045 0.376908 -0.086906 -0.010444 -0.429375 0.578906 0.485891 0.016790 -0.019931 -0.060606 0.088643 -0.113207 0.424698 0.026894 -0.112947 -0.029784 -0.056512 -0.163676 -0.002086 0.221250 0.418335 -0.074045 0.220537 0.388635 -0.216426 -0.367982 0.334622 0.373793 0.066927 0.324218 -0.427135 -0.056073 0.030080 0.456391 0.098923 0.023451 0.200582 -0.019227 0.477012 0.252905 -0.301084 0.073650 0.018002 0.094711 0.139830 -0.923622 0.781673 0.331650 -0.174269 0.419151 -0.525055 -0.205196 0.418410 0.208048 0.079204 -0.394307 0.259529 -0.361671 0.057970 0.296535 0.462190 0.530496 0.232769 -0.087082 0.440117 -0.104617 -0.353216 -0.427030 0.655168 -0.353851 0.603179 -0.204512 0.237105 0.025993 0.372399 -0.208665 0.226944 -0.177617 -0.083856 -0.152375 0.292442 -0.073985 0.179024 -0.411923 -0.472236 -0.224667 -0.660947 -0.075122 0.049141 0.344495 0.179217 -0.679558 0.096153 0.770719 0.279249 0.180462 0.069562 0.246314 0.365392 0.275160 -0.549860 0.174725 0.040217 0.484074 -0.062092 -0.220564 -0.101284 0.154201 0.634869 -0.795925
2899 0.126895 0.163242 0.165342 0.258353 -0.215281 -0.362229 0.157838 0.080417 0.309763 0.344704 0.340816 0.116977 0.545175 -0.073765 -0.282064 -0.140026 -0.187124 -0.825944 0.103683 0.459712 0.324685 -0.307477 -0.147362 -0.481167 0.216102 0.231677 -0.275689 0.105578 -0.173581 0.584004 -0.058546 -0.201113 -0.082699 0.211469 -0.074526 -0.098781 0.036057 0.044689 0.209611 0.130704 -0.170707 -0.190388 0.613743 -0.267483 -0.338311 0.604292 -0.376996 0.708943 -0.570423 -1.049978 0.678403 -0.045120 0.282323 -0.205816 -0.555864 0.477479 0.397877 0.147492 0.207593 0.389819 -0.719860 -0.554956 -0.361912 -0.141357 -0.400898 0.263506 -0.937692 -0.535638 -0.022315 -0.682671 0.529466 0.235239 -0.373877 -0.208535 0.025524 -0.184567 -0.252735 0.307999 -0.532865 0.430794 -0.445407 -0.485045 -0.133296 0.144779 0.202123 -0.495042 -0.170548 0.027977 0.538183 0.165841 0.276573 0.427294 0.586165 -0.303760 0.062123 0.552346 -0.189392 -0.246809 0.279747 -0.482236 0.861384 -0.903148 0.192362 -0.002955 0.183931 -0.351094 -0.007118 -0.353951 0.034464 -0.110154 -0.310224 0.071362 0.534075 -0.708546 0.285362 -0.506306 -0.203768 -0.309751 0.253064 0.611051 0.057126 0.204001 0.691131 -0.128239 -0.380123 -0.363025 0.574893 0.095453
624 -0.734000 -0.565431 0.457723 0.350151 -0.153906 -0.353985 -0.542801 -0.062947 -0.328516 0.477943 0.550881 1.085551 -0.270221 0.388384 0.030863 -0.309003 0.183344 -0.695542 -0.388919 -0.212527 -0.239153 -0.433758 0.298816 0.089460 -0.556745 0.150375 0.205346 -0.136254 -0.037306 0.622766 0.507699 0.129393 -0.080987 -0.273798 -0.186552 0.413902 0.044062 -0.111689 0.544930 -0.173201 -0.067352 -0.255574 -0.460154 0.136704 0.447989 0.296930 0.366516 0.260585 -0.513532 -0.243685 0.456280 -0.152826 0.247333 -0.055839 0.012029 0.528901 -0.309346 -0.002986 -0.239304 0.477791 -0.258346 -0.119753 -0.412603 -0.183758 0.153645 0.061648 0.055641 -0.513394 -0.240666 -0.125195 0.020821 0.175819 -0.039067 0.427755 0.021087 0.287132 0.110704 -0.289863 -0.675856 0.341217 0.182015 0.094134 0.311129 -0.359450 -0.214762 0.255892 0.219840 0.471449 -0.278041 -0.617938 0.440575 0.265904 -0.221224 -0.605737 0.065513 0.047610 -0.037086 0.435602 0.258555 -0.380216 0.061058 -0.531509 0.774566 -0.415986 -0.033624 -0.236075 -0.103135 -0.231924 0.141606 -0.162306 -0.225462 -0.017455 0.005488 0.160157 -0.203533 -0.167945 0.154929 0.217460 0.018894 -0.075643 -0.240461 0.330383 -0.006701 0.001569 -0.637129 0.367178 -0.084245 -0.603474
667 -0.377385 0.016057 -0.480596 0.312747 0.339397 -0.886400 0.771368 0.283899 -0.559989 0.659349 0.101199 -0.297624 0.842871 0.371048 1.054865 -0.695781 0.601964 -0.119512 0.421176 0.058357 -0.084152 -0.402264 -0.238669 0.187464 0.167492 0.142867 -0.909335 0.261048 0.019035 -0.240755 -0.774472 -0.204414 0.549646 -0.521954 -1.342360 0.278409 0.351633 -0.211308 0.678175 -0.477298 0.272419 0.627759 -0.187924 -1.078587 0.113565 -0.352511 -1.303477 1.289224 -0.104838 -0.943526 0.087026 -0.658252 -0.405420 1.135834 0.178880 0.928587 0.537340 0.696540 0.126916 0.164682 0.733503 0.042182 -1.246550 -0.090568 -0.011536 -0.789130 0.652433 0.131018 0.228483 0.475888 0.193359 0.538584 -0.464474 0.188109 0.215768 -0.382222 -0.190827 0.599205 -0.344983 -0.258402 -0.187772 0.619482 0.122932 -0.260114 -0.182790 -0.865293 -0.488510 0.469920 -0.227115 -0.753369 0.828345 0.490416 0.388451 -0.115989 0.751136 0.104165 -0.224369 0.333392 0.439474 -0.807934 0.176691 0.031253 0.564045 -0.219043 0.453891 -0.291585 -0.129622 0.614263 -0.138962 0.036484 -0.320946 -0.023545 0.058878 0.839255 -0.119271 -0.343644 0.095128 -1.049872 0.241735 0.568941 0.461894 0.221992 0.047311 -0.544316 -0.012091 0.172642 1.401442 0.376953
2339 -0.055294 0.065274 -0.079382 -0.063085 -0.537424 -0.866582 -0.191530 0.026868 -0.438145 -0.195390 0.301415 0.409026 0.097930 0.185385 0.412950 -0.594970 0.304802 -0.210120 -0.115677 0.555848 -0.386103 -0.246170 -0.708665 -0.231093 0.194136 -0.242683 -0.158687 -0.050199 -0.657615 0.420739 0.134974 0.403712 -0.238887 -0.108518 0.643324 0.309909 -0.077743 0.084705 0.495275 -0.415667 0.206210 -0.043298 0.406074 -0.556435 -0.161016 0.690509 0.036132 0.237701 -0.309666 0.422167 0.664606 -0.188829 -0.176511 0.317175 -0.114934 0.676981 0.350875 -0.659417 0.140615 -0.066212 0.348681 -0.609743 0.554444 -0.243300 -0.066205 0.389835 -0.762832 -0.321112 -0.001759 -0.888786 0.221295 0.563121 0.183532 -0.156769 -0.298084 -0.778187 -0.406816 0.331045 0.312196 -0.138638 0.418998 0.129905 -0.419366 0.109682 0.106195 0.149418 -0.061983 -0.037832 -0.153885 -0.336791 0.345176 -0.248678 -0.366841 0.260908 0.089123 0.170081 -0.611931 0.655414 -0.105667 -0.669840 -0.530263 0.005657 0.690096 -0.724568 0.036721 -0.329058 -0.185871 0.318722 -0.124391 0.489370 -0.888952 -0.079204 0.185179 1.471540 -0.353399 0.381236 0.548912 -0.057708 0.441190 0.132113 0.611086 0.122397 -0.079609 -0.215115 0.115235 0.023366 0.176547 -0.027767
1429 0.329417 -0.233075 -0.031040 0.481179 0.185505 -0.327969 0.657804 0.084674 -0.232938 0.035680 0.301833 0.118649 -0.164795 0.035708 0.240639 -0.264939 0.233323 -0.032103 -0.180555 0.227595 -0.080794 -0.314966 -0.001753 -0.203148 0.709206 -0.423625 -0.141088 -0.208238 0.065701 0.686105 -0.263729 -0.470706 0.097302 0.104924 0.350183 -0.234537 0.227359 -0.106564 -0.008597 0.126806 0.149043 0.118600 -0.428338 -0.199035 0.514418 0.065153 -0.270868 -0.106814 -0.159459 0.117781 0.045129 0.327878 0.138263 0.263916 -0.230249 -0.223236 0.643346 0.185884 0.048455 0.431214 -0.041438 0.373695 0.113639 -0.219713 -0.166982 0.381812 -0.084112 0.244509 -0.096949 0.025753 -0.261815 0.044849 -0.328366 0.069438 -0.096459 0.006088 0.305024 -0.042764 0.002888 -0.237383 0.247950 -0.055148 0.469584 0.116406 -0.345907 0.379968 -0.065973 -0.117320 -0.260504 0.197483 0.434077 0.100582 -0.120642 0.233384 0.249963 0.001661 0.094871 0.073335 0.206939 -0.017394 0.446605 -0.342961 -0.064944 -0.242717 -0.206524 0.049169 -0.322491 -0.049799 -0.110129 -0.233304 -0.532391 0.111901 -0.102007 -0.258743 0.000817 0.277415 0.144634 0.177304 -0.130151 0.296477 0.117615 0.410134 -0.287011 -0.097427 -0.196082 0.079890 0.348275 -0.122436
2458 -0.256265 0.014381 -0.004966 -0.294429 0.208102 0.254160 0.617572 -0.423775 -0.113526 0.062136 -0.104750 -0.216038 0.309377 0.477740 1.510212 -0.525045 0.045364 0.673105 0.314525 0.372313 -0.430631 -0.204619 -0.039476 0.757086 0.473816 0.129118 -0.279148 0.454441 -1.095505 -0.687947 0.922028 -0.183822 -0.788800 0.351453 0.081952 -0.005162 0.474202 -0.253378 0.740134 -0.579573 0.045863 -0.516225 0.067457 -0.318462 0.321761 0.529558 -0.112522 0.652950 0.440954 -0.273342 0.435385 -0.887944 -0.058426 0.124206 -0.011001 -0.407954 0.566495 1.031531 0.193042 0.638606 -0.260446 0.545162 -0.051565 -1.187192 -0.748072 0.480390 -0.487218 -0.409366 -0.671247 0.670219 -0.992848 0.015321 -0.551421 -0.044033 0.388822 -0.139136 0.410293 0.816377 0.082104 0.231445 -0.165688 0.445866 -0.604990 -0.294056 -0.647140 -0.084214 0.218200 0.075307 0.232537 -0.053493 0.241637 0.363239 1.112492 -0.130854 0.568841 -0.850343 0.320490 0.312038 0.498400 -0.420586 -0.181158 -0.656888 0.029667 -0.606617 0.465137 0.005503 -0.391438 0.289321 -0.039958 0.079934 -0.598737 -0.328127 0.319782 0.491439 -0.067772 0.564420 0.318672 -0.042604 0.283682 -0.401290 -0.039274 0.046693 -0.707738 -0.176651 0.021578 0.400543 0.448840 -0.147833
637 0.154349 -0.377660 0.117190 0.015959 0.110218 -0.002864 0.025409 0.037182 0.261481 0.309028 -0.099077 0.175948 -0.167899 -0.101631 0.371984 -0.198358 0.152919 -0.382148 -0.375621 -0.226393 -0.362634 -0.244846 -0.210721 -0.139173 -0.063979 0.220056 -0.287533 0.354461 0.377299 0.682752 0.320453 -0.027118 -0.678410 -0.174274 0.150919 -0.004152 -0.274603 0.017202 -0.120765 -0.449206 -0.069668 0.492412 0.212182 0.477900 -0.181529 -0.178952 -0.298899 0.388088 -0.264321 -0.629412 0.209150 0.163596 -0.149319 0.185608 0.149256 0.651406 0.433186 -0.137530 -0.563316 0.302334 -0.310002 -0.035849 -0.457641 -0.219283 0.007125 -0.294667 -0.277291 -0.409194 -0.420220 -0.399519 0.395970 -0.104528 0.026633 -0.196574 -0.060484 -0.003989 -0.317984 -0.070987 0.041265 -0.058873 -0.566549 0.087531 0.016031 -0.161430 0.097458 0.073636 0.290135 -0.263746 -0.407776 -0.174378 0.323372 0.342012 0.347799 -0.324039 0.039558 -0.352214 -0.231424 0.540004 -0.281204 -0.638101 0.788967 -0.753553 0.307471 -0.125878 0.365292 0.179035 0.127312 0.104834 0.061501 0.477771 -0.447416 -0.026332 -0.100548 0.110746 -0.249610 -0.330248 0.175669 -0.101039 -0.006095 0.120843 0.136740 -0.147847 -0.120501 -0.487466 -0.571873 0.217029 0.181387 -0.456771
1875 0.257263 -0.357649 0.001662 0.161120 0.063985 -0.565029 0.258485 -0.109724 -0.424708 -0.191270 0.119378 0.011142 -0.268638 0.564127 0.260337 -0.269271 0.094859 -0.023254 0.013523 0.241566 -0.222867 -0.240479 0.064155 0.132850 0.405672 -0.367150 -0.089346 0.011572 0.320661 0.720928 -0.104406 -0.313057 0.072046 0.134082 0.177680 -0.076570 0.292599 -0.302697 -0.034440 -0.221123 0.087991 0.377521 0.017935 -0.366087 0.473025 -0.317580 0.163105 -0.102113 -0.159903 0.190321 -0.166513 -0.193582 0.574662 0.030581 -0.388054 -0.256898 0.682909 0.096946 0.169463 0.372724 -0.297977 0.155558 -0.106694 0.009858 -0.224643 0.337234 -0.286713 -0.064834 -0.073415 0.341119 -0.313560 0.132802 -0.724768 0.058909 -0.077780 -0.360030 -0.017035 0.055870 -0.062106 -0.173319 0.145995 -0.162653 0.047249 -0.074267 0.344819 0.048237 -0.447513 -0.211371 0.127812 -0.227226 -0.273132 0.288106 -0.186064 0.366246 0.073325 -0.292358 0.041823 -0.479285 -0.063391 -0.599563 0.413135 -0.233496 0.030631 0.380340 -0.027849 0.017710 0.002464 0.136549 -0.293121 -0.325440 -0.661049 0.400148 -0.000681 -0.156587 0.188038 0.130531 0.281491 -0.035004 -0.018077 -0.057639 0.244423 -0.061465 0.169977 -0.022895 0.049116 0.261348 0.037152 -0.079597
2829 -0.306671 -0.620313 -0.214540 0.039935 0.130112 -0.466571 0.009854 0.000506 -0.674212 -0.409374 0.612007 0.104519 -0.301389 0.207150 -0.234456 -0.241373 0.241929 0.166272 0.109788 0.022277 -0.030741 -0.027403 0.279734 -0.109884 0.089140 -0.160404 -0.212992 0.242353 -0.112880 0.399365 0.060875 -0.028037 -0.074323 -0.145574 0.328465 -0.309448 -0.197109 0.016309 0.078338 -0.411518 0.229218 -0.154614 -0.303279 0.286201 -0.377904 -0.040363 -0.233816 0.269217 -0.320188 -0.032658 0.450312 0.032463 0.161023 0.008360 -0.406990 0.093748 0.432593 0.189136 0.351777 0.121519 -0.089984 -0.241197 -0.162256 -0.033319 0.128456 0.321370 0.058668 0.097066 -0.378143 0.159615 -0.377412 0.158750 -0.143774 0.164901 -0.079189 -0.566012 0.104956 -0.355000 0.385753 -0.419530 0.165750 -0.133484 0.150580 -0.183325 -0.184924 0.034194 0.164573 0.289779 -0.194184 0.340442 0.186789 0.249290 0.690288 0.176883 0.139491 -0.145544 -0.076372 -0.069137 -0.065139 0.229817 0.583383 -0.007884 0.048887 0.102446 -0.121531 0.011230 -0.364523 0.530062 -0.229830 -0.269957 -0.090896 0.034921 -0.057572 0.188952 0.379907 0.094185 -0.176911 -0.289876 -0.063172 0.207987 -0.036817 -0.028365 0.028093 0.007589 0.093417 -0.235874 0.341857 0.350096
2925 -0.281835 -0.575488 -0.029234 0.042227 0.232406 -0.397425 0.332800 -0.041898 -0.460122 -0.044873 0.392721 0.205076 -0.311348 0.448158 -0.415805 -0.242852 -0.001354 0.321133 0.391910 -0.019850 0.269589 0.128275 -0.055545 -0.491777 0.039425 -0.160887 0.067782 0.281967 -0.340107 0.218317 0.043461 0.033310 -0.017129 -0.064395 0.247766 -0.348881 -0.211997 0.180162 0.333404 -0.462627 -0.065166 -0.125029 -0.275021 0.188648 -0.025716 0.179745 -0.102153 -0.213047 -0.292542 -0.068453 0.512025 0.127642 0.075479 0.175374 -0.255905 -0.007538 0.615529 -0.220405 0.391005 0.358987 0.076160 0.094997 -0.249921 -0.237151 0.092753 -0.097893 0.175367 0.003551 -0.173296 0.176227 -0.446897 -0.081622 0.023901 0.059095 -0.235372 -0.491030 0.208418 0.241242 0.408021 -0.272300 0.289594 -0.490191 0.078888 -0.380505 0.098473 -0.303881 0.294180 0.116570 0.085962 0.103503 0.119303 0.100923 0.479699 0.185383 0.007858 -0.340608 -0.147462 0.193845 0.087950 0.164390 0.611756 -0.077920 0.095510 -0.206121 -0.013299 0.086701 -0.377780 0.405500 -0.235877 -0.201026 0.078648 0.244949 -0.026767 0.287293 0.417089 0.166990 -0.191679 -0.448549 0.095998 0.203147 -0.032700 0.324596 0.268012 -0.245551 0.179445 -0.016133 0.138901 0.378018
2703 -0.134786 -0.303245 0.321651 0.138020 0.325315 -1.051119 -0.078494 -0.912049 -0.195256 0.057962 0.528174 0.192740 -0.570686 -0.289624 0.332705 0.496710 0.041213 -0.366933 0.280653 0.495570 -0.041533 0.140664 -1.028784 -0.622613 -0.262326 -0.030188 0.157197 -0.722733 0.008549 0.150302 -0.207959 -0.856651 -0.253471 0.727767 0.485845 -0.077003 0.433550 -0.044043 1.243250 -1.147353 -0.327137 -0.123095 -0.538136 -0.512863 0.063459 -0.067267 -0.140559 0.254254 0.032898 -0.262342 0.194662 -0.102199 0.002054 -0.381301 0.106591 -0.432479 0.090529 0.165678 -0.093150 0.539003 -0.512987 0.083862 0.715962 0.348829 -0.344117 -0.229302 -0.656850 -0.383553 -0.461586 0.214695 -0.101618 0.313253 0.094091 -0.268113 0.118188 -1.039434 -0.369538 0.009811 0.431789 0.780715 -0.564647 -0.696444 0.201522 0.176288 -0.248935 0.079117 -0.135786 -0.519772 -0.222871 -0.453636 0.315138 -0.244186 0.053145 -0.857208 0.506318 -0.447179 -0.119005 -0.295720 0.683532 -0.227557 0.019621 0.023052 0.420426 0.245537 -0.239308 -0.430372 0.228184 1.007402 -0.039463 -0.212721 -0.777338 -0.204879 0.037396 0.115942 0.213996 -0.008933 0.212404 0.445786 0.136166 -0.044922 -0.316790 0.131540 -0.011381 -0.623986 -0.978234 0.023673 -0.501456 -0.013637
453 -0.028114 -0.453809 -0.392350 -0.160217 0.372667 -0.339379 0.010844 0.111904 -0.514701 0.055667 0.672409 0.271572 -0.159514 0.095674 -0.365544 -0.446476 0.201983 0.195109 0.012367 0.150599 -0.238024 0.264966 0.161146 0.077623 0.102664 -0.121243 -0.274583 -0.368649 0.117048 0.514099 -0.204490 -0.140438 -0.324180 -0.305116 -0.041627 -0.129235 0.074722 -0.065040 0.253954 -0.238041 0.255939 0.360983 0.090626 0.481471 0.035937 0.315164 -0.473502 0.179986 -0.096595 0.183289 0.177604 -0.267196 0.140389 0.031170 -0.395633 0.177793 0.915554 0.047966 0.034350 0.408333 0.413612 0.151815 -0.064337 -0.102228 -0.183857 0.454553 -0.100002 -0.346032 -0.165846 0.386349 -0.573068 0.219360 0.006861 -0.054856 0.092556 -0.286516 0.390363 -0.097250 -0.072060 0.026616 0.210200 0.054145 0.137036 -0.161391 -0.294942 -0.066917 0.194369 0.129131 -0.248269 0.029284 -0.033283 0.305773 0.523928 -0.154173 -0.011425 -0.000260 -0.005284 0.232046 -0.195504 0.125391 0.375091 0.370862 -0.056706 -0.025755 0.268815 0.181542 0.073867 0.101925 0.002461 -0.139073 -0.217543 0.007031 0.214025 -0.002454 0.530771 0.202269 -0.207663 -0.025891 0.025763 0.085945 0.045188 0.156567 0.011484 -0.075897 -0.072806 0.345906 -0.010214 0.159289
254 -0.458726 0.644942 -0.059084 0.366547 -0.284090 -0.022749 -0.532462 -0.061886 -0.634166 0.322802 -0.273722 -0.365265 0.376984 0.454329 0.322536 -0.089612 -0.348720 -0.686921 -0.157957 0.024252 0.022972 -0.281183 -0.365370 0.517296 0.550577 -0.047274 -0.359151 -0.083286 -0.049528 0.181529 0.100580 0.221360 -0.336543 0.149536 0.081931 0.158865 0.091257 0.123782 0.540496 -0.205307 0.170541 0.320769 0.011126 -0.445533 0.061662 0.195201 0.155299 0.150247 -0.785876 -0.384149 -0.103804 -0.026469 -0.120831 -0.372502 0.157597 0.052457 0.879749 0.083023 -0.007760 0.353625 0.303728 0.354378 -0.067965 -0.482933 0.570159 0.700431 -0.307683 0.530412 -0.604133 -0.063343 0.379963 0.118126 0.269349 -0.187676 0.215729 -0.510280 0.142676 0.160359 0.035882 0.462482 0.136923 -0.190975 0.292491 -0.153893 0.006316 -0.158267 0.611399 -0.653679 0.425515 -0.180149 -0.003167 0.330493 0.155431 -0.363061 0.073717 0.022461 -0.053918 0.269572 0.159008 -0.189620 -0.023944 -0.194361 -0.510283 -0.223258 -0.443446 -0.118141 -0.323111 -0.082005 -0.276129 -0.428544 -0.119153 0.331279 -0.130848 0.258779 0.155631 -0.117580 0.486147 0.172771 -1.087933 -0.048571 -0.064481 0.591288 0.176445 -0.198834 -0.594490 0.161245 0.198556 -0.511370
1585 -0.896305 -0.638601 0.451817 0.453735 -0.466874 -0.974460 -0.250114 0.059815 -0.376106 -0.397536 0.277812 0.438633 -0.646041 -0.404266 0.202898 -0.614530 0.527080 -0.432962 0.142928 -0.618282 0.193784 -0.190829 -0.167948 0.613061 0.308377 0.515203 -0.124015 1.079024 -1.008424 0.372292 0.735086 -0.255843 -0.055154 -0.439199 0.042591 0.050083 0.838832 0.431298 0.718058 -0.613948 -0.116529 0.281364 0.068431 -0.102111 -0.284239 0.345576 -0.576506 0.423588 0.229550 -0.527795 0.478122 0.233539 0.521754 -0.316423 -0.685175 -0.007228 -0.084371 0.362122 -0.059072 0.708123 -0.029470 0.464046 -0.056115 -0.117821 -0.125030 -0.401043 -0.062965 -0.328406 -0.328094 -0.842370 -0.056230 -0.317581 0.009718 -0.645746 -0.195619 -0.204256 0.584801 0.286812 -0.000790 -0.259201 -0.270420 0.296546 0.030573 -0.237884 0.397942 0.230719 0.390182 -0.098511 0.332114 -0.197214 -0.052610 0.165050 -0.820842 -0.322848 0.070038 -0.431875 -0.517291 -0.169271 -0.292991 -0.439585 0.739411 -0.173847 0.335019 -0.317055 -0.183891 -0.739491 0.231486 0.246569 -0.076883 -0.029428 0.564971 -0.322838 0.520496 0.003000 -0.089867 -0.306764 0.494233 -0.294464 0.256203 0.230779 -0.512182 0.192331 0.083694 0.401139 -0.579487 -0.098435 -0.311595 -0.549876
887 -0.117141 -0.472869 -0.283069 -0.153165 0.036262 -0.397859 0.209121 -0.045235 -0.356765 -0.118039 0.609636 0.007008 0.004225 0.351611 -0.556415 -0.230107 0.212356 0.165699 0.032214 -0.095400 -0.142113 -0.238303 0.081976 0.047581 0.021961 -0.303194 -0.116085 -0.253305 0.289132 0.458711 -0.272612 -0.414616 -0.319909 -0.142162 -0.116678 -0.101070 -0.053915 -0.103134 0.443522 -0.212341 0.452525 0.034127 0.026974 0.203184 0.237243 0.349960 -0.646891 0.311878 -0.016934 -0.056802 0.227704 0.147154 0.190683 0.289948 -0.177079 -0.146954 0.730201 0.123191 -0.189360 0.800048 0.044923 -0.089149 0.026506 -0.113623 -0.041782 0.206646 -0.048182 -0.343836 -0.015428 -0.121860 -0.597780 0.529498 0.146708 0.117379 0.209554 -0.272504 0.402958 -0.259501 0.271339 0.172591 0.060499 0.149641 0.038656 0.003353 -0.232096 -0.009178 0.306282 -0.028698 -0.416191 -0.290377 0.114184 0.386897 0.203760 0.188526 -0.007689 -0.205488 0.051623 0.101970 -0.218068 0.319513 0.465718 -0.156444 0.004532 0.111372 0.253716 0.105432 -0.238768 -0.011726 0.027220 -0.143933 -0.287524 0.117718 0.092760 0.100018 0.284927 0.435152 0.033993 -0.206002 -0.149021 0.206146 -0.201206 -0.080710 0.319835 0.195648 0.080989 0.156665 -0.034753 0.354620
450 0.211442 -0.225134 -0.288126 -0.306777 -0.198288 -0.155255 -0.092169 -0.141940 0.108025 0.014984 0.506756 -0.281210 -0.282976 -0.129886 0.688048 -0.162908 0.105081 -0.792687 0.007920 0.054903 -0.187390 -0.096288 -0.204836 -0.313009 -0.158947 -0.303054 -0.419696 -0.213973 -0.388126 1.031389 0.356556 -0.324466 -0.740152 -0.154585 -0.221205 0.140045 0.038624 0.003655 -0.253333 -0.458941 0.074092 0.184195 0.008647 -0.174410 -0.020224 0.452567 -0.471557 0.173264 -0.166423 -0.131974 0.014423 0.446164 0.206262 0.058093 0.042478 -0.349362 0.005575 -0.290632 0.238861 0.229809 0.416988 -0.035577 0.123851 -0.632354 -0.113935 0.035310 0.244026 0.110468 -0.396333 0.119163 -0.051419 0.059134 -0.553376 -0.105766 -0.184723 -0.448501 -0.234231 0.246016 0.016562 -0.439789 0.243499 -0.420181 -0.062030 -0.316404 -0.437898 -0.252201 -0.085122 0.726101 -0.407214 -0.222328 0.244450 0.238810 -0.131078 0.444271 0.088072 -0.465124 -0.056549 -0.137107 -0.273995 -0.121064 0.235275 -0.151558 -0.196884 -0.178504 0.036758 0.274243 0.100920 -0.019526 -0.145335 0.030606 -0.676112 -0.290927 0.381263 -0.282587 0.367331 0.316629 -0.418480 -0.541353 -0.576342 0.131515 0.006098 -0.020905 -0.054023 0.070519 -0.048473 0.688181 -0.101189 0.217745
1992 -0.339133 0.020586 -0.037334 0.208149 -0.100696 0.117723 -0.217907 -0.655325 -0.229523 0.598055 0.313237 -0.182473 0.493542 0.632912 0.044643 -0.350546 -0.204165 -0.130237 -0.192043 -0.303855 -0.248987 -0.173951 -0.375689 0.088216 0.229813 0.362305 0.391997 -0.210098 -0.089225 0.370106 -0.102444 0.094388 0.021765 -0.262034 -0.316517 0.350623 0.075214 0.216532 0.714107 0.465863 -0.098177 0.461064 -0.059843 0.044638 -0.002290 -0.499140 0.207790 0.275756 -0.280145 0.302608 0.765605 -0.131345 0.067733 -0.101556 -0.146008 0.025532 0.261708 -0.191498 0.180931 -0.870357 -0.125176 -0.229251 -0.007274 -0.574908 0.366675 -0.039545 -0.289236 0.162075 -0.841904 -0.336589 0.153632 0.000407 0.009787 -0.246925 -0.123994 -0.730667 0.515481 0.280789 -0.141252 0.561470 0.281074 -0.066349 0.521514 -0.035407 -0.011872 -0.049348 0.664063 -0.127729 -0.299787 0.001365 0.395875 0.542852 -0.155045 -1.026951 0.302039 -0.403022 -0.302922 0.067146 -0.193130 0.128301 -0.045002 -0.619830 -0.383784 -0.308298 0.385816 -0.424799 -0.189062 -0.060130 -0.086720 0.147724 -0.043425 0.287271 0.142328 0.630899 0.494353 -0.470578 0.028224 0.241995 -0.895743 -0.009487 0.649859 0.430965 -0.369113 0.061185 -0.700195 0.038747 0.193912 -0.317281
1112 -0.116570 -0.661668 -0.334600 -0.124344 0.056865 -0.279062 0.170996 -0.155873 -0.220433 -0.188794 0.404921 -0.141013 -0.038504 0.004234 -0.282830 -0.239276 0.259640 -0.027926 -0.114151 -0.012239 0.228441 -0.184346 0.031962 0.142671 0.268996 -0.097207 -0.389981 -0.328985 0.036645 0.455181 0.027037 -0.229742 -0.121124 0.217280 0.098148 0.077340 0.111321 0.111590 0.056614 -0.039103 0.240759 -0.011080 0.079542 0.352977 0.375470 0.530727 -0.257597 0.592244 -0.551909 0.055170 0.392155 -0.100608 0.327904 0.162248 -0.154548 -0.148648 0.367509 -0.017571 0.162870 0.503807 0.211708 -0.224494 -0.096742 -0.127819 0.120222 0.421391 0.317609 -0.352453 -0.146460 0.095074 -0.395927 0.107195 -0.108101 -0.025936 0.006224 -0.350281 -0.239223 -0.163389 0.374632 -0.216311 0.205003 -0.310861 0.022304 -0.160278 -0.243978 -0.304085 -0.092071 -0.326936 -0.212609 -0.351223 -0.006364 0.074927 0.138836 0.207421 0.336374 -0.280409 0.003157 0.268534 -0.039495 -0.006471 0.719015 -0.393795 0.261237 0.463385 0.587309 0.091031 -0.413451 0.201379 -0.227082 -0.146316 -0.106916 -0.392070 -0.095774 0.258748 0.540888 0.498157 -0.417287 0.015237 -0.223212 0.098275 0.107688 0.029183 -0.106457 0.074460 0.526277 0.003996 0.039625 0.543883
2911 -0.624241 0.240658 0.525753 0.200636 0.083868 -0.246858 0.266807 -0.311229 -0.250918 0.049687 0.197069 0.827731 -0.218498 -0.120380 0.123014 -0.261575 -0.091772 -0.042138 -0.130874 -0.333186 -0.480705 -0.387018 -0.544471 0.062785 -0.250264 0.106641 -0.164291 -0.155669 0.101567 0.781498 0.026544 -0.374013 0.031434 -0.142837 -0.224768 0.474203 0.001362 -0.398935 0.150211 -0.235104 -0.254441 -0.037573 -0.109948 0.516954 -0.211292 -0.187963 -0.325305 0.423302 -0.464619 -0.129485 0.511634 0.072967 0.307820 -0.027877 0.285815 0.612528 0.236608 -0.565901 0.051503 -0.412630 0.099588 -0.299856 -0.173109 -0.295340 0.428307 0.325756 0.042815 -0.175152 -0.274597 0.226173 0.145007 0.460809 -0.063871 0.327894 0.214565 -0.225477 0.154759 0.433571 -0.454935 0.116655 -0.496480 -0.237023 0.202581 -0.327550 0.198195 -0.032669 0.626816 0.034798 -0.283322 -0.193845 0.144974 0.642992 -0.435403 -0.429347 0.007874 0.059930 -0.182288 0.423689 0.257636 -0.551055 0.239023 -0.683171 0.257920 -0.025310 0.077752 -0.508710 0.223204 -0.102949 0.258413 -0.087314 0.097767 0.124994 0.178519 -0.148081 -0.164298 -0.339311 0.244012 0.473599 0.029923 -0.378513 0.246219 0.038474 -0.099138 -0.192824 -0.222225 0.016712 -0.050051 -0.419538
1605 -0.348838 -0.094058 -0.006945 -0.150962 0.237948 -0.566204 0.459360 0.046075 -0.385324 -0.006367 0.582195 0.117635 -0.445775 0.614629 -0.316977 -0.097768 -0.099141 0.165920 0.246078 -0.188269 -0.258996 -0.201914 -0.087910 -0.510512 -0.075602 -0.362929 -0.214955 -0.133014 -0.466030 0.106392 -0.250009 0.001565 -0.257043 -0.048209 0.042972 0.066856 0.195926 0.407999 0.183256 -0.537145 -0.105460 -0.199126 -0.244728 -0.082256 0.157186 -0.057625 -0.061115 0.051771 -0.002742 -0.356528 0.244041 -0.048358 0.179965 0.197611 -0.285644 0.137535 0.476330 -0.208277 0.187711 0.397779 0.261551 0.357976 -0.024380 -0.077177 0.094616 0.108669 0.079974 -0.099589 -0.170509 0.168628 -0.274434 0.106332 0.062266 -0.222423 -0.256555 -0.635445 0.012052 0.008453 0.093656 -0.176581 0.231470 -0.370156 0.138670 -0.397958 0.512206 -0.159286 0.388632 0.093006 -0.350004 0.089302 -0.058408 0.208837 0.465190 0.427029 0.168057 0.123667 -0.006851 0.093507 -0.128241 0.119678 0.795356 0.000891 0.133595 -0.589482 -0.148032 0.144726 -0.162284 -0.078978 -0.158930 -0.197065 0.089748 0.311967 -0.116362 0.271788 0.532652 0.142396 -0.252650 -0.081672 -0.235969 0.319486 -0.198490 0.127551 -0.213343 -0.111921 0.382411 0.021755 0.499436 0.209001
1567 -0.280283 -0.266651 0.060085 0.179366 0.094076 -0.308053 0.467308 0.130095 -0.167119 -0.043327 0.623079 0.209925 -0.380972 0.360258 -0.390777 0.168012 0.121421 0.284198 0.232903 -0.094720 -0.295779 -0.199730 0.045428 -0.254974 -0.074109 -0.296522 -0.276556 -0.082198 -0.533779 0.098194 -0.121004 -0.298140 -0.270856 0.063518 0.120473 -0.193862 0.162797 0.283003 0.111029 -0.439215 -0.177874 -0.191608 -0.357003 -0.289195 0.363981 0.062866 -0.197834 -0.006065 -0.276433 -0.298431 0.222457 -0.054055 0.135403 0.226308 -0.255674 0.324888 0.493790 -0.040839 0.254570 0.216466 0.194659 0.141748 -0.144683 -0.071091 0.250729 0.112118 0.027876 -0.157648 -0.126842 0.147945 -0.243562 -0.093740 0.147541 -0.188837 -0.072444 -0.693139 0.111125 0.085507 0.213207 -0.324370 0.331909 -0.272642 0.169266 -0.311840 0.422166 -0.063572 0.343532 -0.007444 -0.642814 0.118294 -0.176339 0.253815 0.391052 0.368207 0.232429 0.211153 -0.303073 0.175388 -0.096725 0.219559 0.707321 -0.179800 0.148084 -0.357040 -0.153934 0.196730 -0.156011 0.027134 -0.327969 -0.277724 -0.071698 0.241097 -0.128179 0.262620 0.709117 0.039717 -0.255050 -0.111066 -0.355457 0.263645 -0.105510 -0.103750 -0.148330 -0.180643 0.433549 -0.163561 0.490200 0.105911
2316 0.056778 0.493510 0.059080 0.103866 0.038089 -0.441413 0.127795 0.060154 0.062593 0.078218 0.568641 0.465502 -0.079307 0.512557 0.450291 -0.127649 -0.305756 -0.265901 -0.083777 -0.198613 0.155490 -0.294624 -0.007387 0.061574 0.064156 0.128917 0.130655 -0.002225 0.450737 0.660343 0.082910 -0.097371 -0.145434 0.205847 0.040178 0.547340 0.229324 -0.076633 0.263990 -0.612694 0.067552 -0.073026 0.059867 0.770078 0.046709 0.078005 -0.064604 0.227882 -0.597811 -0.162964 0.368990 0.311881 0.190781 0.148261 0.138140 -0.027552 0.076345 -1.037746 -0.083143 0.057114 -0.158296 -0.390589 -0.290922 -0.136380 0.039261 -0.445769 -0.631021 -0.559141 -0.188593 -0.672563 0.262564 0.437949 -0.046336 -0.805647 0.365451 -0.086542 -0.049043 0.348126 -0.058856 0.151920 -0.806819 0.150578 -0.271965 0.042333 0.188210 0.162296 0.303124 0.260034 0.102361 0.410166 0.270411 0.395841 0.069379 -0.329719 0.022416 -0.121496 -0.242549 0.284324 -0.042414 -0.330282 0.268574 -0.703449 0.372713 -0.292618 0.051054 -0.193844 -0.162179 -0.340259 -0.035404 0.197997 -0.141443 -0.117223 0.357100 0.000273 0.199643 -0.182551 0.517457 0.133329 -0.266329 -0.047311 0.481164 0.327613 -0.252635 0.250102 0.096413 -0.210807 -0.008025 -0.237871
2622 0.117577 -0.093127 -0.111850 -0.180389 0.031132 -0.531601 0.334694 0.106459 -0.307361 0.507927 -0.032217 0.082370 0.105295 0.059430 -0.498913 -0.410228 0.213768 0.433036 -0.038597 0.168213 0.370320 -0.292229 0.224728 0.108075 -0.068933 -0.375036 -0.158232 0.317219 0.038343 0.298398 0.012868 -0.134982 -0.375495 -0.086916 0.298209 -0.326012 0.126970 0.069494 0.286183 -0.486746 0.239505 -0.067400 -0.041378 0.199967 0.299512 0.353094 -0.189364 0.231074 -0.043008 -0.126716 0.651893 0.344948 0.350729 0.035550 -0.106757 0.180948 0.406669 0.071977 0.073505 0.651407 0.311559 0.278469 0.214165 -0.056247 0.114696 0.409010 -0.046929 -0.436829 0.114890 0.346560 -0.052969 -0.158313 -0.541934 -0.040749 -0.064086 -0.615762 0.333774 0.151958 0.056590 0.163797 0.003239 -0.495064 0.472255 -0.492848 -0.259711 -0.023583 -0.130470 0.399533 -0.579403 0.067415 0.461899 0.382202 0.043528 0.186028 -0.211959 -0.303073 -0.017414 0.412184 -0.578837 0.174148 0.179155 -0.253442 -0.077815 0.126092 -0.089143 0.218263 -0.080444 0.143216 -0.167991 -0.199206 0.114471 0.099383 0.020541 -0.017972 0.395066 0.380594 -0.248506 -0.170797 -0.247688 0.270725 0.057808 -0.053849 -0.224422 0.258827 0.013967 0.200451 0.181147 0.108940
2196 0.116828 0.080408 -0.112971 0.202104 -0.022317 -0.038804 0.126401 -0.036167 -0.142559 0.019333 0.494569 0.049443 -0.130569 -0.060049 0.113563 -0.322549 -0.134681 -0.298617 -0.073084 0.236322 -0.356128 -0.064705 -0.128071 -0.323155 -0.111137 -0.450866 -0.219396 -0.038755 -0.196584 0.699020 0.405161 -0.252108 -0.351958 -0.417657 0.289172 0.310828 0.235478 -0.137261 0.034292 -0.622570 0.122274 0.142802 0.072054 -0.229667 -0.160114 0.428918 -0.422476 -0.042743 -0.069842 -0.056576 -0.003658 0.543904 0.293756 0.305670 -0.029574 -0.160158 0.209973 -0.137777 -0.045862 0.345689 0.346061 0.100207 -0.108714 0.254703 -0.048518 0.179540 0.324325 0.019089 -0.495768 0.271113 -0.123958 0.018286 0.015799 0.169929 -0.400515 -0.243897 0.256692 0.232412 -0.023288 -0.584213 -0.064822 -0.225785 0.212522 0.017698 -0.067428 0.277688 -0.023016 0.326082 -0.145954 -0.105946 0.186236 0.074815 0.342966 0.615454 -0.193838 -0.749812 -0.051370 0.012130 -0.132566 -0.101535 0.473098 -0.098064 -0.433104 -0.248435 0.001558 -0.056539 0.363736 -0.012670 -0.026849 -0.048273 -0.347276 -0.031099 0.153664 0.299599 0.625321 0.145662 -0.082961 -0.436104 -0.258999 0.100356 0.297400 0.240040 0.186609 0.233500 0.013837 0.561725 -0.233170 0.101535
28 0.396064 0.254257 0.043323 0.279970 0.066082 -0.452730 -0.129214 0.385103 0.135694 0.121829 0.073932 0.330851 -0.155501 0.371941 0.519616 -0.457573 -0.146430 -0.073246 0.196438 -0.043487 0.313007 0.083473 -0.061767 0.179958 0.415714 -0.405356 -0.409484 0.121066 -0.075073 0.941374 0.013772 0.203992 -0.505091 0.278140 0.143769 -0.241804 0.215443 0.103178 0.175893 -0.447176 -0.039313 0.028674 -0.034349 0.106165 -0.090948 -0.135355 0.252639 0.641964 -0.392581 0.094892 0.581665 0.520856 0.213996 0.607606 0.189764 0.073321 0.280111 -0.723770 -0.145831 -0.022929 -0.205387 -0.125618 -0.220373 0.435890 0.055697 0.346921 -0.377358 -0.238232 -0.155130 -0.785154 0.268656 0.519878 -0.014715 -0.366776 0.361811 -0.386377 -0.326024 0.234467 0.072192 0.049082 -0.599712 0.507913 -0.385476 0.352045 0.185365 0.403486 -0.140701 0.528792 -0.230539 0.266060 0.144642 0.107082 -0.004924 -0.639372 0.020051 -0.099708 0.058542 0.628018 0.117587 -0.037709 0.420482 -0.238890 0.485523 -0.592914 -0.029525 -0.174393 0.200912 -0.687599 -0.216883 0.059581 0.049085 -0.101809 0.256820 0.220250 0.569240 0.145269 0.770960 -0.284352 -0.246747 -0.066773 -0.154370 0.120356 0.082808 0.019129 -0.134937 0.309442 0.071240 0.199135
1410 -0.202639 -0.038804 0.702393 -0.221216 0.246960 0.187505 0.093433 -0.396174 -0.401997 0.019016 0.514842 0.115459 0.176488 0.241471 0.297396 0.007193 -0.348442 0.167374 -0.151169 -0.435481 -0.579209 -0.277065 -0.083208 -0.404801 -0.493979 0.241617 -0.433263 0.065218 -0.508719 0.146060 0.529399 0.337025 -0.374860 -0.506975 0.322088 0.131930 0.558041 0.223546 0.175512 0.304297 -0.457660 -0.436983 -0.403802 0.577064 0.306893 0.138972 0.284674 0.289930 -0.883244 -0.150145 0.299254 -0.222342 0.665145 0.000215 0.366097 0.262225 0.414571 -0.165981 -0.510535 -0.099179 -0.521245 -0.169764 -0.550881 -0.083134 -0.346241 -0.349139 -0.530868 -0.084862 -0.317940 -0.028743 0.371620 0.273091 0.407345 0.337811 0.104584 -0.510753 0.470602 -0.032034 -0.203286 -0.037177 0.068141 -0.004478 -0.187884 0.011912 -0.172237 0.262277 0.251893 0.253387 -0.471416 0.393088 0.328645 0.195901 -0.260945 -0.853091 -0.075120 -0.222888 -0.772305 0.107755 0.014172 -1.022320 0.268544 -0.065601 0.332991 0.003378 0.415542 -0.181427 0.169091 -0.302806 -0.228362 -0.029755 -0.097392 -0.024286 0.190295 -0.033068 -0.171858 0.257274 0.382012 0.165899 -0.731264 0.135923 -0.198022 0.700890 -0.110367 0.333733 -0.530275 -0.181802 0.441775 -0.270047
2067 -0.586737 0.325965 -0.179370 0.310066 -0.317300 -0.085228 -0.791148 0.420729 -0.408299 0.267788 -0.252153 -0.361726 0.297247 0.520470 0.364817 0.026720 -0.417095 -0.518668 -0.162738 -0.224200 -0.163770 -0.174319 -0.395524 0.507039 0.562315 -0.392892 -0.260195 -0.289884 -0.421386 0.015157 0.291157 0.228578 -0.257373 0.257427 -0.021806 0.369094 0.098906 0.081544 0.330487 -0.367496 0.374841 0.227864 -0.050444 -0.511800 0.207395 0.121777 0.228349 -0.009051 -0.959176 -0.496550 -0.041737 0.057871 -0.142237 -0.343449 0.275931 0.070642 1.100241 0.246892 0.139980 0.536937 0.377923 0.350426 -0.100597 -0.384545 0.502183 0.770966 -0.507413 0.623333 -0.479180 0.116699 0.442893 0.054115 0.301292 -0.294450 0.199166 -0.236401 0.025885 0.590003 0.088911 0.313419 0.095849 -0.143102 0.154165 -0.133781 -0.112200 0.078183 0.499508 -0.406444 0.495368 -0.452938 0.010417 0.241591 0.184966 -0.235107 0.230516 -0.055409 -0.016602 0.269772 0.055809 -0.119493 0.153593 -0.184478 -0.204261 -0.138631 -0.229659 -0.297822 -0.369681 0.222364 -0.252124 -0.570186 -0.162389 0.384112 0.110520 0.022814 0.217605 -0.157145 0.470679 0.172062 -0.884891 0.009099 -0.286784 0.518861 0.014101 0.003007 -0.555295 0.201726 0.160195 -0.901114
2861 0.044005 -0.439206 0.165987 0.175107 -0.523370 -0.632627 0.153969 -0.357267 -0.385800 0.018448 0.149368 -0.342113 0.496034 -0.008206 -0.214663 -0.276379 1.141162 -0.186262 0.302358 0.312152 -0.214086 0.381107 0.151449 0.270867 -0.076257 -0.174399 -0.207626 0.105138 -0.258087 0.804278 0.361889 -0.293055 -0.289890 -0.107865 0.651355 0.104153 -0.049860 0.268233 -0.269591 -0.565839 0.558318 -0.038288 -0.509581 -0.534125 0.325479 -0.096547 0.007371 -0.335835 0.225689 0.071191 0.306561 -0.170427 0.080970 -0.221241 0.120040 -0.204100 0.361978 0.055244 0.638451 -0.066045 -0.268536 0.144349 -0.205121 0.303064 -0.137323 0.443616 -0.031294 -0.738494 -0.078772 0.305757 -0.028995 0.350322 -0.141304 -0.239640 -0.359122 -0.308670 -0.098029 -0.131878 -0.197358 0.080021 -0.053038 -0.100508 -0.223122 -0.088930 0.050135 -0.207566 0.564752 -0.094284 0.279557 0.368188 -0.171367 0.363449 0.095100 -0.184218 -0.110424 -0.237677 -0.228365 -0.072316 -0.054575 -0.556142 0.412191 0.180046 -0.041508 0.119996 0.598269 -0.026807 0.359903 0.286100 -0.075990 -0.447195 -0.234675 -0.274427 0.079739 -0.138972 0.091627 0.029138 0.157389 0.148849 -0.202855 0.366752 0.348249 -0.000902 0.147470 -0.641693 0.585826 0.222477 0.167412 -0.270416
2189 0.456305 -0.288952 0.384239 0.084910 0.425010 -0.310030 0.159618 -0.057714 -0.152016 0.028137 0.177209 0.325347 -0.467877 -0.172450 0.165763 -0.385341 -0.204334 -0.647139 0.071822 0.062558 -0.075559 -0.221598 -0.245807 -0.243243 -0.496974 0.296214 -0.196286 0.318483 -0.264479 0.666893 0.125648 -0.145753 -0.437350 -0.287292 -0.161480 -0.066643 -0.059318 -0.177887 0.199476 -0.251895 0.051697 0.384864 0.288822 0.719675 -0.277478 -0.190452 0.162417 0.385658 -0.391771 -0.723005 0.093692 0.027954 0.105690 -0.477763 0.339914 0.475676 0.154025 -0.040770 -0.199851 -0.288719 -0.232681 0.374648 -0.178354 -0.043987 0.386197 -0.215065 -0.285217 -0.105509 -0.420112 -0.402581 0.179428 0.195439 0.234726 0.413764 0.395911 -0.200091 -0.392840 0.250656 -0.142111 0.086990 -0.332033 -0.086842 -0.053954 -0.044809 -0.146390 -0.015999 0.356942 -0.448176 -0.192136 -0.117222 0.697639 0.308550 0.123409 -0.186714 0.091713 -0.505959 -0.265684 0.638679 -0.061231 -0.858685 0.547777 -0.139796 0.056078 -0.187045 0.504359 0.004674 -0.047099 0.233103 0.141582 0.576512 -0.103092 0.433764 0.112713 0.297122 -0.099937 0.069615 0.062823 0.327718 -0.029917 0.184269 0.274593 -0.074248 0.270682 0.041353 -0.058980 0.163130 0.187986 -0.426416
670 -0.692314 -0.249963 0.581583 0.462183 -0.218977 -0.629993 -0.466628 -0.370076 -0.473064 -0.177070 0.567475 0.876777 -0.261281 0.423897 0.181771 -0.458839 0.131356 -0.471472 -0.060177 -0.276307 -0.212194 -0.397830 0.293154 0.160266 -0.349288 0.396124 -0.036697 0.062413 -0.019241 0.668495 0.489124 -0.411515 -0.118688 -0.190607 -0.084677 0.611414 0.486293 -0.087818 0.663273 -0.351367 -0.263537 -0.187206 -0.268831 0.245170 0.205388 0.477568 0.182468 0.310890 -0.397441 -0.229430 0.220031 0.398101 0.102868 0.088667 -0.160186 0.194292 -0.294722 -0.518685 -0.159205 0.549011 0.093664 -0.012102 -0.273543 -0.010257 -0.013371 0.010390 0.435125 -0.210433 -0.433016 -0.427279 -0.256316 0.000042 0.269141 -0.186574 0.109079 0.204738 0.066436 -0.191057 -0.585719 0.250192 -0.245238 -0.034030 0.088709 -0.150076 0.009658 0.291465 0.182192 0.138247 0.265297 -0.231488 0.470284 0.453890 0.034149 -1.029078 0.339664 -0.084851 -0.086439 0.161430 -0.559132 -0.208146 0.090556 -0.294699 0.599997 -0.175470 -0.226813 -0.351940 -0.173250 -0.353878 -0.268315 0.031907 0.076225 -0.246675 0.248375 -0.326315 -0.263899 -0.193153 0.390991 0.322123 0.180270 0.008834 -0.124780 0.215461 -0.410735 0.150092 -0.205022 -0.002956 -0.422171 -0.746553
1034 0.050844 -0.470920 -0.396881 0.014001 0.254812 -0.218129 0.179809 -0.272640 -0.409403 0.003554 0.528439 0.407558 -0.009349 0.170679 -0.357432 -0.136284 0.351092 0.121846 0.189901 -0.251849 0.201658 -0.031873 -0.013091 -0.130801 0.063447 -0.178104 -0.116743 -0.328886 0.013739 0.358935 -0.306464 -0.057007 -0.139838 -0.278235 0.048950 -0.332523 -0.174892 0.012386 0.318412 -0.192319 0.469610 0.072250 0.198548 0.138978 0.163878 0.255057 -0.546260 0.399665 -0.250054 0.130352 0.291997 0.002384 0.002413 -0.010274 -0.435071 -0.166941 0.866619 -0.293366 0.091330 0.433265 0.276429 0.086418 -0.021999 0.004711 -0.138019 0.198322 -0.074123 -0.259841 -0.160923 0.319173 -0.638327 0.109530 0.067322 -0.075502 0.112901 -0.365312 0.165410 -0.340010 0.218937 -0.131720 0.160244 -0.015089 -0.111415 -0.175667 -0.046583 -0.076873 0.304501 0.087663 -0.169866 -0.215024 0.072778 0.499044 0.202501 -0.159283 -0.181555 -0.420966 -0.121447 0.146890 -0.229312 0.254473 0.392725 0.068083 0.075279 -0.051016 0.341326 0.081631 -0.073948 0.152601 0.057540 -0.165000 -0.239918 0.123940 0.013426 0.133381 0.586479 0.472146 -0.056496 -0.009660 0.060949 0.186147 -0.156055 0.035507 0.161680 0.015049 -0.005770 -0.092032 0.137097 0.339371
12 0.834697 -0.031541 0.043697 -0.145615 -0.404529 -0.167607 0.389376 -0.053057 -0.854369 -0.235139 0.661263 0.111722 0.034845 0.385654 -0.213082 0.238943 0.121863 -0.321801 0.097497 -0.037732 -0.009201 -0.085212 -0.049302 -0.371731 0.493452 0.021701 0.128551 -0.203174 0.124024 1.110783 -0.273045 -0.088022 0.259584 0.566972 0.304367 0.084252 -0.168366 -0.184621 0.550899 -0.579439 -0.630750 0.183306 0.266857 -0.033636 0.416270 0.451274 -0.008504 0.521888 0.219486 -0.116638 0.260279 0.058850 0.327908 0.326706 -0.433478 0.485896 0.436091 0.565956 0.111694 0.062399 -0.344402 0.399253 0.006910 0.308284 -0.351303 0.043024 0.386550 0.077140 -0.109709 0.446479 -0.424580 -0.226259 -0.480964 0.076280 0.183334 -0.421967 0.028148 0.181872 -0.200304 -0.070129 -0.021867 -0.126388 -0.155175 -0.172466 -0.010376 0.625031 -0.147838 0.055748 -0.012631 -0.181970 -0.296449 0.297342 0.138288 0.696761 0.386855 -0.200831 -0.154427 -0.052031 -0.036852 -0.512350 -0.033581 -0.102737 0.499473 0.351210 -0.107153 -0.169869 0.253099 0.563034 -0.131100 -0.374993 -0.513355 -0.084658 0.452935 0.192913 0.262251 0.649492 0.240470 -0.080038 -0.843597 0.209395 0.222469 0.432572 0.020265 0.038668 -0.384465 0.046420 0.568607 -0.145218
540 -0.306167 0.477146 0.467482 0.267382 0.162842 -0.576819 0.240276 -0.402896 -0.068699 -0.337541 0.405768 0.711664 -0.319179 -0.018870 -0.098771 -0.222533 -0.063361 0.031799 -0.137080 -0.254312 -0.509780 -0.533079 -0.558747 0.338278 -0.372075 0.111246 0.119789 0.044136 0.074520 0.779020 0.055284 -0.617937 -0.043318 -0.085864 0.040316 0.352563 0.099979 -0.405511 0.136655 0.017713 -0.386128 0.307562 -0.101836 0.751994 -0.156331 0.009448 -0.299491 0.428772 -0.320441 -0.090270 0.382432 -0.017523 0.228671 -0.054376 0.066141 0.599612 0.357429 -0.606502 0.278286 -0.372258 -0.088920 -0.193342 -0.105935 -0.338822 0.296546 0.541148 0.046891 0.079219 -0.235468 0.096291 0.239330 0.481074 0.170841 -0.192462 0.225395 -0.231024 0.425954 0.373085 -0.387068 0.186782 -0.461479 -0.375102 0.055107 -0.101932 0.222593 0.101957 0.597534 0.052543 -0.344485 -0.090887 0.076161 0.813883 -0.192632 -0.337042 -0.192390 0.188186 -0.418902 0.451526 0.399258 -0.517748 -0.035868 -0.700433 0.400113 -0.133339 0.072584 -0.719533 -0.006931 0.190699 0.243806 -0.327494 0.326771 0.288237 0.210681 -0.178410 -0.134904 -0.386172 0.213369 0.206330 0.108494 -0.447623 0.391108 0.126808 0.073341 -0.331106 -0.455398 0.001783 0.020237 -0.364905
3274 -0.278332 -0.112037 0.084636 0.370918 0.189742 -0.480822 -0.134721 0.238138 -0.348197 0.706331 -0.212935 0.240818 0.245148 0.244767 0.639678 -0.093586 -0.259002 -0.422357 0.026384 -0.095469 -0.525164 0.100100 0.080866 -0.149248 -0.176393 -0.143259 0.703169 -0.020626 -0.206486 0.178276 0.019084 -0.460983 -0.451843 -0.357448 0.525376 -0.277363 0.419376 -0.275861 0.439364 -0.457307 -0.125144 -0.709920 0.264564 0.452819 -0.174642 -0.505648 -0.552767 0.821314 0.083119 -0.034945 0.999739 0.145963 -0.117348 -0.783594 0.554254 -0.013443 0.416763 -0.144438 -0.430975 0.244721 0.478506 -0.334589 -0.212161 0.304467 -0.138990 -0.023394 -0.145733 -0.019657 -0.122829 -0.069977 0.325233 0.393835 -0.134211 0.336407 -0.060846 0.499747 -0.281896 -0.110894 -0.033104 -0.146343 -0.081125 -0.663646 -0.174516 0.294395 0.328251 -0.253003 0.342886 -0.559528 -0.176138 -0.039389 -0.118533 0.614661 -0.289637 -0.223331 0.220666 0.372296 -0.151703 0.548087 0.253768 -0.849320 0.162764 -0.839469 -0.024248 0.079036 -0.012225 -0.434053 -0.152913 0.385395 0.217371 0.285986 -0.132793 -0.164128 0.373350 -0.166890 -0.174078 0.033169 0.048273 -0.194198 -0.841017 0.145485 -0.173350 0.181203 -0.195898 -0.587199 -0.274901 -0.200996 0.526428 -0.002794
1879 0.117773 0.043392 -0.034346 0.413743 0.423966 -0.336172 0.977115 -0.522933 -0.179276 0.185548 0.535044 0.019176 -0.176065 0.485544 -0.177109 0.107255 0.106346 0.096246 0.271482 0.479885 -0.237824 -0.188347 -0.718815 -0.353357 0.481250 -0.254994 0.170569 -0.139421 0.367982 0.536092 -0.256772 0.288629 -0.226052 -0.283322 0.351664 0.072385 -0.253427 -0.406624 0.898897 0.396972 0.551875 0.390954 0.047875 -0.002428 -0.080520 -0.490269 -0.077481 0.237204 -0.326651 -0.350327 0.236185 0.000313 0.360627 -0.162287 -0.407787 -0.362417 0.154975 -0.162461 0.276453 0.257053 -0.019216 0.126250 -0.072324 0.173474 -0.283115 0.700080 -0.548384 0.088641 -0.184817 0.526733 0.035815 0.044723 -0.560178 -0.324720 0.033556 -0.395021 -0.399387 0.243180 0.113505 -0.293223 0.619123 -0.128213 0.202860 -0.380403 0.109613 0.731248 -0.423098 0.220630 -0.248908 -0.469573 -0.111814 0.104883 0.200208 0.373542 0.001118 -0.646573 -0.027458 0.041758 -0.262639 0.074414 0.492361 -0.474600 0.112159 -0.015859 -0.008096 -0.372006 -0.032931 -0.014490 -0.318814 -0.291252 -0.616699 -0.328943 0.509460 -0.884973 -0.572113 0.116420 0.409093 -0.062548 -0.760955 -0.074543 -0.484700 0.157658 0.313044 0.143559 0.314442 0.635612 0.240396 -0.338846
98 -0.208235 -0.269467 0.824405 0.780788 -0.219297 -0.418573 0.310539 0.374123 -1.228970 -0.425733 -0.047031 0.013153 0.025619 0.028322 0.305762 0.173613 0.792319 -0.484287 -0.073515 0.364984 0.214925 -0.197183 -0.503948 0.884932 0.292181 0.071549 0.368872 0.171445 -0.794317 0.313861 -0.388284 0.162998 -0.579940 0.035513 0.199192 0.682083 0.034181 0.473249 -0.003867 -0.123888 0.191552 -0.218185 -0.273162 0.262414 0.389981 0.115466 -0.261364 -0.126820 0.329294 -0.661064 0.303583 -0.241938 -0.299230 0.105938 -0.543322 -0.310908 0.157337 -0.037764 -0.150387 -0.069737 0.039175 0.279935 -0.449763 0.747118 -0.189365 0.209502 -0.124064 -0.790972 0.083461 -0.106296 0.370894 0.239767 -0.093228 -0.088378 -0.354924 -0.405131 0.220175 0.339715 0.238539 -0.272173 -0.040788 -0.039907 0.247809 0.015516 0.461746 -0.422322 0.352570 0.268698 0.234102 0.098749 0.093087 0.564177 0.158594 -0.008758 -0.054150 -0.327295 -0.059126 0.412171 -0.538987 -0.414046 0.366442 0.413987 -0.506752 -0.264643 0.795209 -0.227096 0.161903 0.154008 -0.134068 -0.419813 -0.265920 -0.267927 0.694206 -0.514051 -0.104588 0.036796 -0.138593 0.172478 0.232810 0.280949 0.651438 -0.232541 -0.022929 -0.177314 -0.370447 0.435916 0.570330 -0.354858
616 -0.187844 -0.080182 0.047419 0.055641 0.222448 -0.454412 0.422675 0.127461 -0.349682 0.021294 0.505291 0.187772 -0.315771 0.527631 -0.405638 0.061210 0.011373 0.168474 0.049537 -0.199624 -0.141129 -0.329011 -0.015399 -0.386633 0.063402 -0.327057 -0.135947 -0.232545 -0.271076 -0.059881 -0.013421 -0.101550 -0.447046 -0.154703 0.026578 -0.150220 0.107622 0.369426 0.239294 -0.433136 -0.100301 -0.165765 -0.111687 -0.224798 0.285425 -0.045365 0.152651 0.071898 -0.005134 -0.287372 0.459858 0.028090 -0.020700 0.196845 -0.353919 0.076439 0.540569 -0.135810 -0.159753 0.245889 0.306984 0.253553 -0.037752 -0.034357 -0.027488 0.322531 0.144738 0.066605 -0.018611 0.297129 -0.261201 0.303675 0.108902 -0.291883 -0.223594 -0.392989 0.070341 -0.084677 -0.124639 -0.222936 0.109458 -0.365616 0.104228 -0.222771 0.382521 -0.072307 0.429110 0.088855 -0.375346 -0.043636 0.016341 0.269316 0.316073 0.270992 0.196834 0.086849 -0.013336 -0.144902 -0.111890 0.233557 0.975580 0.215953 0.189045 -0.373432 -0.159665 0.115945 0.006514 0.080516 -0.169044 -0.082594 -0.047273 0.293491 0.147567 0.317594 0.614830 -0.033033 -0.295332 0.025891 -0.165449 0.202146 -0.021412 0.062531 -0.319664 -0.169446 0.469514 0.037482 0.394148 0.276978
1033 -0.803715 0.495581 -0.379388 -0.229702 -0.105467 -0.023730 -0.312085 -0.353727 -0.216753 -0.022442 0.695209 0.840095 0.483625 -0.082143 -0.193322 -0.248342 0.060254 -0.199677 -0.078355 -0.042641 -0.521798 -1.143790 -0.364433 0.006000 -0.306057 0.558339 0.438323 -0.121295 -0.050052 0.039439 0.428306 0.298597 -0.243402 -0.498875 -0.524871 0.267893 0.627689 -0.032069 0.344381 0.105356 -0.474866 -0.332656 -0.154017 0.517584 0.686329 -0.293165 0.644249 0.104709 -0.420236 0.128233 -0.084706 -0.170756 0.492091 -0.010950 0.202895 0.180930 0.415594 0.161237 -0.165877 0.045381 -0.153644 -0.352977 -0.296250 -0.622305 0.134872 0.573224 -0.542876 -0.011086 -0.595127 -0.092700 0.142536 -0.144605 -0.541078 0.294204 -0.580575 -0.815449 -0.157004 0.242842 -0.780537 0.007170 0.434093 -0.296356 -0.333138 0.609642 -0.402134 0.349115 0.282111 0.340660 -0.303377 -0.088271 -0.343613 -0.218866 -0.158505 -1.289760 -0.309203 -0.073294 -0.801043 0.304989 0.003627 -0.602672 0.887979 -0.396248 0.178354 -0.238942 0.782043 -0.177894 -0.246180 0.109733 0.101838 0.152108 0.213772 0.607398 -0.172871 0.424372 0.168355 0.300046 0.232647 -0.032984 -0.226192 0.395254 -0.228148 0.471385 -0.125595 -0.068596 -0.632112 0.241276 -0.048062 -1.053641
2361 0.176175 -0.256758 -0.647821 0.113309 -0.003719 -0.410791 0.026516 -0.606489 -1.035923 -0.186641 0.205643 -0.012165 -0.250089 0.439631 0.060472 -0.199097 0.157761 0.117634 -0.106406 0.018667 -0.178310 0.251743 -0.113537 0.098560 0.355551 -0.557293 -0.253314 0.238403 0.203933 0.392721 0.059222 0.138277 -0.143150 -0.498315 0.311547 -0.117902 0.292987 -0.298075 0.658226 -0.063075 -0.246675 -0.196419 0.201550 -0.017050 0.635716 -0.015752 -0.027797 0.129182 -0.150013 0.222310 -0.024012 0.318621 0.601906 0.437246 -0.309950 0.249128 0.630129 -0.214287 0.141935 0.334908 -0.248703 0.059237 0.016775 0.240309 -0.104587 0.193755 -0.189261 -0.070371 -0.159180 0.565644 -0.296938 0.086440 -0.475060 -0.056524 -0.302177 -0.031893 0.002036 0.010223 -0.344925 0.181405 -0.127198 0.058571 -0.101801 -0.214732 0.034651 -0.177174 -0.141501 -0.068327 -0.172326 0.140823 0.100798 0.451580 0.225195 0.769321 -0.351503 -0.063781 0.441095 -0.106550 0.019214 0.034636 0.676752 0.144782 -0.095732 -0.051084 0.109493 0.056187 0.142888 0.896257 -0.042673 -0.475031 -0.529799 0.151582 -0.078543 0.249098 0.092614 0.064782 -0.003374 0.132473 -0.333480 -0.090900 0.177626 -0.639854 -0.002861 0.013280 -0.218581 -0.040981 0.276738 -0.429357
47 -1.141805 -0.874685 -0.202955 -0.120695 0.790070 -0.912651 1.123942 -0.006950 -1.717766 0.138093 0.640400 -0.720116 1.125835 0.265743 -0.370623 -0.633161 -0.096355 -0.380622 -0.633873 0.139681 -0.881283 0.089332 -0.265317 0.759246 0.665510 0.071366 -0.318683 -0.464118 -0.875117 -0.310405 0.283024 0.093590 -0.603911 -0.927558 -0.080892 -0.483982 0.712181 -0.354371 0.327613 0.006074 -0.798676 -0.563649 -0.433202 -0.336107 0.346557 0.614803 -0.387282 -0.566797 0.051311 -0.843862 -0.005202 -0.405778 -0.008558 0.317900 0.372767 0.094049 -0.042487 0.093363 0.317097 -0.474718 -0.179354 -0.067981 0.183543 -0.133723 0.087340 0.143663 -0.859019 0.435295 0.031295 -0.168367 -0.340648 -0.061666 -0.211480 -0.426981 0.000232 0.026460 -1.398272 0.317966 -0.682347 0.681409 -0.920737 0.424289 -0.489541 -0.471615 0.091847 -0.018443 0.444556 -0.126453 0.440024 -1.852440 0.075849 0.301872 0.956622 -1.124219 -0.294754 0.020441 -0.967634 -0.134628 0.853175 -1.307467 1.445802 0.160696 -0.124791 -0.888737 0.754123 0.067055 -0.219462 -0.576785 -0.339825 -0.453661 -0.112232 0.316856 0.531207 -0.339574 -0.671979 -0.131702 -0.710776 -0.050016 0.243353 1.410421 0.645041 -0.561769 -0.297051 0.465903 -0.915413 -0.147589 0.411445 0.944043
2597 -0.166282 0.028623 0.069260 -0.007146 0.114642 -0.486968 0.433086 0.018132 -0.248075 0.136778 0.564160 0.276867 -0.396545 0.328949 -0.444626 0.200276 0.112358 0.371015 -0.280633 -0.361902 -0.280537 -0.201680 -0.067794 -0.396442 0.165384 -0.567055 -0.433896 -0.206068 -0.486233 -0.098643 -0.089885 -0.119450 -0.526848 -0.149601 0.270188 -0.182155 -0.015517 0.084372 0.128861 -0.294751 -0.252001 -0.250005 -0.170626 -0.269079 0.371816 -0.157551 0.381886 -0.122159 0.016549 -0.644455 0.544186 -0.185645 0.047106 0.016051 -0.291562 0.173320 0.550446 -0.276080 0.009160 0.299274 0.389438 0.013119 -0.182136 -0.036435 0.210812 0.172592 0.242322 0.014283 -0.181443 -0.010779 -0.194230 0.324654 0.066714 -0.378691 -0.148813 -0.424453 0.015075 0.108042 0.137589 0.072931 -0.027340 -0.509955 0.269305 -0.323332 0.420800 0.206251 0.384849 0.127502 -0.577719 -0.103417 0.276166 0.099194 0.609001 0.283821 0.178133 0.087368 0.101144 -0.114638 0.041957 -0.146986 1.002328 0.305319 0.307180 -0.258591 -0.156610 0.111837 -0.023407 0.032288 -0.340283 -0.170482 -0.372414 0.180805 0.113968 0.409931 0.664218 0.073576 -0.292043 0.100672 -0.291943 0.047131 -0.129266 0.053198 -0.003825 -0.186889 0.620774 0.092453 0.565326 0.381852
2447 -0.310117 -0.588984 0.407997 0.085200 0.760346 -0.353066 -0.382973 -0.385027 -0.490678 -0.193314 0.496441 0.410100 -0.182504 -0.233898 0.268794 -0.711910 0.276589 -0.222254 -0.050032 0.193441 -0.195813 -0.657005 0.036467 0.587395 -0.394304 0.030560 0.153783 0.005941 0.261815 0.202324 0.569752 0.136062 -0.070440 -0.193069 0.370942 -0.015688 0.210984 -0.743830 -0.087520 -0.543849 -0.763765 -0.144187 0.045917 0.402072 0.235475 0.219580 -0.221833 0.217545 -0.553789 -0.312763 0.309559 -0.072909 -0.106616 0.040241 0.615099 0.104575 0.038354 -0.463439 -0.106380 0.158871 -0.179629 0.297177 -0.159950 -0.158995 0.072432 0.128481 -0.103367 -0.485551 -0.520749 -0.302036 -0.007513 0.390900 -0.196776 0.365790 0.011398 0.065149 -0.158002 0.233558 -0.191521 0.329129 -0.240688 -0.240063 -0.034779 -0.151362 0.551665 0.063813 0.370595 -0.060008 -0.356998 -0.204886 0.222094 0.577944 -0.090034 -0.618472 0.111116 0.287372 -0.431434 -0.046938 -0.541653 -0.613845 -0.236653 -0.511869 0.418302 -0.498975 0.055339 -0.476780 0.356768 -0.123342 0.297566 -0.347688 -0.299686 0.141641 0.106671 -0.216457 -0.141220 -0.530406 0.149528 0.677846 -0.125431 0.054973 -0.124306 0.193279 -0.081151 0.298441 -0.346662 0.192512 0.245994 -0.359560
622 -0.298874 -0.041826 -0.079191 -0.030090 0.297187 -0.532463 0.441592 0.037409 -0.400516 0.004740 0.531958 0.356908 -0.415895 0.570423 -0.304533 -0.034502 0.086491 0.302556 0.218238 -0.304035 -0.186229 -0.217742 -0.051367 -0.644452 0.047950 -0.501126 -0.211302 -0.034796 -0.453908 0.003513 -0.221308 -0.090396 -0.331613 -0.087901 0.069556 0.017565 0.116256 0.256893 0.210430 -0.491657 -0.095005 -0.132069 -0.372355 -0.264654 0.221086 -0.103980 0.016115 -0.092446 -0.074300 -0.307065 0.553418 0.038971 0.230421 0.241351 -0.147429 0.093580 0.516091 -0.271386 0.142268 0.348890 0.180567 0.295277 -0.066323 -0.098441 0.143686 0.128802 0.065749 0.100688 -0.249725 0.170953 -0.358623 0.174116 0.001922 -0.291769 -0.153358 -0.428272 0.010968 -0.023084 0.210857 -0.078167 0.248710 -0.430837 0.048939 -0.419017 0.351199 -0.134692 0.418494 0.032151 -0.286546 0.068527 0.099600 0.281435 0.486353 0.401810 0.166189 0.204492 -0.021657 -0.003442 -0.096961 0.008282 0.822745 0.128451 0.143454 -0.421573 0.018822 0.054394 -0.075198 0.104119 -0.313811 -0.180088 0.051825 0.307970 0.182003 0.382779 0.482473 0.157313 -0.335488 -0.102801 -0.161076 0.176064 -0.233088 0.168525 -0.207367 -0.033263 0.375564 -0.176788 0.393284 0.266611
2519 0.232737 -0.210872 -0.197317 0.129486 -0.295051 -0.180272 0.166042 0.157737 -0.156656 0.374392 0.358963 0.021222 -0.246859 -0.354603 -0.215598 -0.329003 0.261154 -0.253923 -0.118933 0.047238 0.192666 -0.235536 -0.035269 -0.264880 -0.189905 -0.173759 -0.420350 -0.035712 -0.659337 0.594855 0.484525 -0.316587 -0.783418 -0.227362 -0.042376 -0.093475 0.040903 -0.301632 0.221647 -0.193327 -0.117838 0.072664 0.068943 -0.475384 -0.024176 0.383936 -0.185597 0.119054 -0.039661 -0.272789 0.422881 0.641140 -0.212094 0.557235 0.054249 -0.474657 0.112180 -0.500949 0.156650 0.386575 0.408634 0.062430 -0.166006 -0.105380 0.137643 0.135014 0.180696 0.042403 -0.141291 0.251963 -0.232584 0.224524 -0.202368 -0.003225 -0.258843 -0.513786 0.213655 0.444809 0.004240 -0.280678 0.121328 -0.394004 -0.035309 -0.186707 -0.349942 -0.045813 -0.440164 0.121659 -0.453657 -0.035721 0.361922 0.323544 0.118053 0.455545 -0.277729 -0.599408 -0.293174 -0.054673 -0.187343 -0.016172 0.294218 -0.205170 -0.434303 -0.252171 -0.214924 0.180190 0.448147 0.021613 -0.047044 0.030816 -0.565727 -0.051543 0.254256 0.069714 0.516624 0.247624 0.115055 -0.619639 -0.399831 0.059858 0.369610 0.037199 -0.075459 -0.052127 0.120954 0.780419 -0.170240 -0.269875
1933 -0.390668 -0.331543 0.124889 -0.770946 0.252137 -0.194676 0.774758 -0.597449 0.360683 -0.198067 -0.698944 0.164934 1.208124 0.627007 0.883186 -0.152994 0.718957 0.240885 0.220263 -0.383063 -0.259770 -1.003766 -0.646815 0.275164 0.878692 -0.301711 -0.779518 -0.570626 -1.041726 0.284705 0.455401 -0.483547 -0.358251 -1.115932 0.351084 -0.058991 0.094387 0.135714 0.847988 -0.602423 -0.869903 0.685186 -0.739358 0.245533 0.312358 -0.483025 -0.497133 1.315468 0.278430 -0.280932 -0.351735 -0.733462 -1.007277 0.381524 -0.320151 0.429298 1.070929 -0.456766 0.580875 1.250148 0.562379 0.883784 -0.295143 -0.596176 0.221906 -0.217284 -1.391068 -0.497465 -0.314781 -0.163319 -0.526437 0.987827 -0.071144 -0.380285 -1.395841 -0.347987 0.017311 0.568509 -0.303770 0.977721 -0.111300 -0.696243 0.680561 0.534263 0.089747 -0.793821 -0.014333 -0.163748 -0.157285 0.119478 -0.151705 -0.549568 0.273508 -0.074085 0.078148 0.423536 0.323787 0.451886 0.375822 -0.027391 -0.914519 -0.467601 0.765034 1.095080 0.844758 -1.350656 0.334030 0.867488 -0.165891 0.602665 -0.027593 -0.232803 0.520744 0.943667 -0.547468 -0.052127 0.325775 -0.155817 0.283364 -0.476190 0.377790 0.672896 -0.469372 -0.029251 0.198241 0.516615 1.198860 -0.423484
1944 0.169101 0.275492 0.402161 -0.144704 0.589221 0.342375 0.464490 -0.053176 -1.210905 0.469435 0.360026 0.153602 -0.372159 -0.114266 0.207298 -0.593188 0.852118 -0.254408 -0.443276 0.484992 0.385818 -1.214207 0.177750 0.232677 0.665814 -0.085667 0.432687 -0.209066 -0.182456 0.610066 0.200282 0.003782 -0.377812 -0.988713 0.184906 0.155232 -0.187789 0.259012 0.311856 -0.084733 0.098188 0.086131 -0.524862 0.216141 -0.301427 0.457212 -0.110872 0.013534 -0.034610 -0.391074 -0.285571 -0.196045 0.167682 -0.342772 0.210022 0.925597 0.737302 -0.233688 0.026481 0.432380 0.156565 0.028940 0.322054 0.707713 -0.540297 -0.138669 0.194790 -0.031002 0.102698 0.418349 -0.126404 -0.069519 -0.075637 0.236756 -0.101707 0.010747 -0.563646 0.057999 0.186421 0.071279 -0.388562 -0.522327 -0.135975 0.246545 -0.494758 0.284525 0.294806 -0.443139 0.118489 0.468068 -0.328770 0.462785 0.287463 -0.259886 0.694114 0.745406 -0.027049 -0.319892 0.066051 0.564583 0.514026 -0.458240 -0.079895 0.363888 0.097254 0.154531 0.094696 0.788843 -0.274570 -0.388877 -0.009024 0.038586 0.547264 0.664620 0.311287 -0.019750 0.217074 -0.816170 -0.115625 0.227139 -0.387188 0.227670 -0.072220 -0.115001 0.376036 0.371060 -0.359316 0.416035
1981 -0.307685 -0.006155 0.051909 -0.060239 -0.684552 -0.952276 -0.158828 0.673604 -0.055629 0.086477 0.545115 0.678882 0.230827 0.192567 0.149441 -0.872874 0.478604 0.070789 -0.478533 0.278891 -0.582609 -0.161730 -1.140747 -0.270747 0.283815 -0.720172 -0.049079 0.029778 -0.463642 0.872776 0.550687 0.745632 -0.333280 0.365986 0.903359 0.540060 -0.240150 0.045102 0.478372 -0.353997 0.043206 -0.343533 0.230423 -0.516004 -0.135993 0.712133 0.317024 0.098096 -0.563739 0.308152 0.286093 -0.462629 0.246421 0.434891 0.303749 0.475542 0.806717 -0.147815 0.256701 0.371760 0.585346 -0.643759 0.376587 -0.635175 -0.141383 0.163734 -0.689648 -0.269123 -0.113265 -0.677094 0.066855 0.861261 0.047248 -0.150227 -0.621195 -0.818257 -0.283338 0.110306 0.784391 -0.019385 0.517357 -0.317449 -0.387861 0.142808 0.084584 0.319874 -0.069112 -0.439993 0.130438 -0.252538 -0.043726 -0.026847 -0.448282 -0.166031 -0.075900 -0.083471 -0.693250 0.890512 -0.021586 -0.248498 -0.949440 -0.168085 0.951053 -0.291613 0.049496 -0.062173 -0.453216 0.367969 0.277466 0.540453 -0.280481 -0.159850 0.471599 1.754642 -0.143232 0.214654 0.667061 -0.218256 0.622832 0.359094 0.346227 0.023302 -0.398656 0.050590 -0.125611 0.097588 0.444299 -0.083070
114 -0.140321 0.106315 -0.046149 0.255797 -0.102011 -0.721053 -0.253899 -1.265099 -0.294905 -0.200256 0.478328 0.561455 0.344270 0.285807 0.592414 -0.555609 0.788477 0.016532 0.565988 0.704835 -0.467714 -0.913142 -0.516488 0.340654 0.252367 0.662833 -0.081824 0.422404 -0.686015 -0.148544 0.031948 0.781420 -0.400650 0.344313 0.478341 0.050947 0.032531 -0.457055 0.447948 -0.996929 0.204790 -0.425285 0.037780 -0.717420 -0.004639 0.183810 -0.530910 -0.059032 -0.186722 0.318192 1.322790 -0.284663 -0.635305 0.686199 -0.719427 1.067991 0.421018 -0.825593 -0.131181 0.033849 0.571013 -0.154010 0.145563 -0.109611 0.131852 0.384325 -0.423179 -0.517954 0.361508 -1.864234 -0.601066 0.354153 -0.003910 -0.016056 -0.110983 -0.510559 0.065389 0.112711 -0.114313 -0.130068 0.452801 -0.297254 -0.029352 -1.070493 0.154072 -0.408962 -0.672872 -0.468796 -0.115776 -0.134686 0.975465 -1.285426 -0.660875 0.465226 0.586862 -0.411099 -0.474808 0.169859 0.487331 -0.459540 -0.642297 -0.191240 0.278067 -0.196548 0.582237 -0.442961 -0.100382 0.669095 -0.274298 0.018392 -0.572669 0.063455 -0.080340 0.477805 0.094179 0.738388 0.366036 -0.653050 -0.124430 -0.518586 0.807945 0.158949 -0.506358 -0.532406 0.285483 0.092044 0.167343 -0.466196
1708 -0.337575 -0.031128 -0.093541 -0.089402 0.283120 -0.448626 0.400758 0.055856 -0.425546 -0.024601 0.583923 0.226313 -0.444417 0.658316 -0.284749 -0.001760 0.078258 0.250446 0.315441 -0.167207 -0.188609 -0.148091 -0.160421 -0.484555 0.001584 -0.492780 -0.218703 0.038002 -0.497076 -0.097929 -0.109728 -0.114204 -0.297633 0.014936 0.136421 -0.050343 0.060851 0.262258 0.262771 -0.536985 -0.093552 -0.181569 -0.349014 -0.146090 0.213423 -0.078625 0.053351 -0.053374 -0.090069 -0.395399 0.466139 -0.038326 0.055179 0.300717 -0.222232 0.152308 0.514216 -0.216498 0.181040 0.363143 0.260727 0.280666 -0.061941 -0.198030 0.158017 0.095471 0.087621 -0.040813 -0.251248 0.266531 -0.324819 0.182459 0.131418 -0.252475 -0.332537 -0.627290 0.024764 -0.026260 0.106550 -0.124762 0.264493 -0.408186 0.134008 -0.378050 0.559487 -0.173401 0.426242 0.172757 -0.299449 0.226463 -0.018894 0.264121 0.372131 0.402110 0.071341 0.141561 -0.064495 0.015297 -0.152086 0.060404 0.798864 -0.069721 0.052962 -0.398334 -0.033741 0.117472 -0.143389 0.112499 -0.241821 -0.122117 0.071625 0.275987 0.050502 0.225656 0.510568 0.143971 -0.390308 -0.148107 -0.235656 0.166825 -0.199631 0.138584 -0.145991 -0.177271 0.334176 -0.085655 0.422734 0.262811
2348 -0.201254 -0.692100 -0.904594 0.971552 -1.124972 -1.179157 -0.251568 0.802780 0.036091 1.175168 0.875726 -0.076844 0.473176 0.551811 0.374386 -0.765322 0.205816 -0.823636 -0.021810 0.464987 -0.367901 -1.339716 -0.068697 0.104162 0.414183 0.136301 0.260159 0.294543 -0.042665 0.023265 -0.348567 0.614711 -0.007584 0.652505 0.109366 0.349827 0.949828 -0.179311 0.568560 0.741432 0.509336 -0.561948 -0.408247 0.616368 -0.075897 0.124730 -1.267961 -0.344924 0.040994 -0.052891 0.576393 -0.383454 0.903738 -0.845043 -0.088252 0.106548 0.650530 0.444187 -0.555607 -0.757749 0.444043 0.692953 -0.715930 1.193844 -0.402507 0.272452 0.459450 0.419008 0.531144 -0.050654 0.417662 1.340557 0.248278 -0.948745 -0.046154 -0.857100 0.153833 0.075702 -0.052920 -0.622508 0.970499 -1.082908 -0.152337 0.307608 -0.105699 -0.305953 0.535456 0.333727 0.199907 -0.204351 -0.396740 0.081630 -0.044399 -1.095409 0.467762 -0.867312 -0.913697 0.766247 0.233687 0.258638 -0.350676 -0.345597 -0.472404 0.333726 0.984089 -0.622982 0.443434 1.145228 0.792236 -1.366716 -0.750243 0.605329 -1.107067 0.186510 0.591763 -0.046353 0.349517 -0.543766 -0.264741 0.067778 0.353054 -0.366093 0.357857 -0.147801 0.671966 -0.160946 0.478588 -0.121443
567 -0.556849 0.154664 0.603133 0.175963 -0.211700 -0.717885 0.156464 -0.054481 0.381601 -0.189423 -0.079028 0.040921 -0.007333 0.213125 0.483516 -0.699568 0.538588 -0.535973 -0.638795 0.441485 -0.045933 0.207650 -0.502695 0.234222 -0.217695 -0.113847 0.191166 -0.483624 0.618980 0.414511 -0.409108 -0.409857 -0.151447 -0.685870 -0.060697 -0.339708 -0.405570 -0.776263 -0.514947 -0.066862 -0.423811 0.349232 0.218742 -0.193423 -0.662024 0.088534 -0.351862 0.325313 -0.550027 -0.147342 0.814687 -0.120103 0.607906 0.257106 -0.841983 -0.130104 0.226477 0.375590 -0.542686 0.148782 0.066090 0.246672 -0.580145 -0.227288 -0.170699 -0.068782 -1.019119 0.268305 -0.575733 0.288671 -0.552432 0.168157 0.632485 0.339982 -0.020881 -0.345302 -0.513670 -0.110530 0.204003 -0.019122 0.238988 -1.042564 -0.490537 -0.072462 0.372544 -0.026732 0.296139 0.352341 0.359435 0.082599 0.136933 -0.202776 0.015241 -0.548812 0.178428 -0.269587 0.046734 0.105263 -0.136371 -0.207193 -0.075183 -0.354935 0.129645 -0.062987 0.529264 0.133275 -0.220574 0.077696 0.582609 -0.391631 -0.047144 -0.383218 0.211580 0.521026 -0.179637 0.322024 -0.126733 -0.101785 -0.938891 0.012995 0.469495 0.144382 -0.550041 -0.453424 -0.263395 -0.367136 0.628336 -1.215293
1894 0.638014 -0.168022 0.136481 0.325635 0.012658 -0.270313 0.074249 -0.168552 -0.014301 -0.238881 0.363172 0.299827 0.091101 0.220824 0.243056 0.118171 0.454094 0.301336 -0.379350 0.473393 -0.255722 -0.222863 -0.416568 -0.629724 0.429322 0.688875 0.209762 0.035068 0.079205 0.683259 0.499071 -0.190188 0.058496 0.054321 -0.685116 -0.305855 0.026358 -0.081302 0.398421 -0.025497 0.284963 0.253724 -0.261783 0.156888 0.307187 0.265502 -0.724864 0.222785 -0.278996 -0.361540 0.405752 -0.688714 0.520768 -0.224728 -0.014669 0.323640 0.384147 0.103428 0.081096 0.234275 0.169860 0.408714 -0.499825 0.717973 -0.544011 0.435224 -0.673201 0.030676 -0.126879 -0.051382 -0.283967 -0.016350 -0.484043 -0.176656 -0.201082 -0.217282 -0.397196 0.350205 0.387178 0.048649 -0.216200 -0.542739 0.186144 0.212147 -0.147932 -0.124086 -0.456082 0.224927 0.037541 -0.412896 0.166960 -0.319030 0.097103 0.445151 0.099517 0.141096 -0.316474 -0.319736 0.194487 0.138803 0.178205 -0.335291 -0.044026 -0.340800 -0.127868 0.228557 0.330172 0.191451 -0.361929 -0.561529 -0.503572 0.017680 0.677697 -0.162202 -0.284678 -0.586368 0.267860 -0.021615 -0.200465 0.207371 -0.608915 0.463377 0.155404 -0.217601 -0.070152 0.546038 0.374860 0.236451
1143 -0.423583 -0.106763 0.000564 0.332096 -0.186092 -0.639467 0.468608 -0.188076 0.214275 0.761872 0.579503 0.218378 -0.362349 -0.113671 0.658512 0.245214 0.233849 -0.253459 0.234373 0.402954 -0.277560 0.711435 -0.418039 0.897911 -0.087963 -0.810313 0.522269 0.099936 -0.280291 -0.089901 -0.062677 -0.067722 -0.048489 -0.180033 -0.851519 -0.673151 -0.225383 0.489708 -0.024117 0.023706 0.013010 0.080025 0.095079 0.552824 0.118668 0.431767 -0.463417 0.479330 -0.210871 -0.392978 -0.168717 0.175640 0.578693 0.396790 -0.217216 0.551846 0.128289 0.251446 -0.059675 0.299085 0.010716 0.428788 0.646763 -0.345536 -0.168051 0.324796 -0.117295 -0.010544 0.250805 0.020550 -0.269258 0.465600 -0.106661 0.161505 0.174652 -0.694271 -0.319484 0.163930 -0.495589 -0.539269 -0.040673 -0.236426 0.534816 -0.035852 -0.022626 -0.065554 0.494981 -0.097723 0.231448 0.276527 0.456654 -0.024677 0.720649 -0.316017 0.467098 -0.095959 -1.327992 -0.207919 1.060758 -0.305343 0.369159 -0.835145 -0.697466 0.627992 -0.407813 0.015256 -0.111930 0.616316 -0.416086 -0.760230 -0.799320 0.160614 -0.113160 -0.234112 0.025758 -0.179169 0.507400 -0.248256 -0.529163 0.006874 0.081303 -0.039441 0.206246 0.546184 -0.171682 -0.141900 0.470054 -0.667162
16 -0.253075 -0.002361 0.036716 -0.010907 0.054636 -0.545027 0.500098 0.139576 -0.390335 0.022238 0.652879 0.217135 -0.412967 0.565626 -0.242129 0.166969 0.029487 0.309938 0.021929 -0.180553 -0.135088 -0.076546 -0.074130 -0.259056 -0.003908 -0.366104 -0.270308 -0.193813 -0.505923 0.058586 -0.068391 -0.160434 -0.345702 -0.139506 0.194296 0.051188 0.022582 0.252823 0.149065 -0.321052 0.013128 -0.258482 -0.238900 -0.205150 0.237396 -0.005242 0.065464 -0.166314 -0.017247 -0.308234 0.469318 -0.113162 0.086508 0.257863 -0.196209 0.176487 0.475939 -0.193987 0.014247 0.323462 0.299129 0.355247 -0.090136 0.088206 0.108252 0.139150 0.028999 -0.103737 -0.280212 0.262516 -0.305260 0.119115 0.041581 -0.324586 -0.065143 -0.654411 0.077138 -0.009044 -0.064435 -0.067518 0.139225 -0.350592 0.211867 -0.395289 0.467305 0.062818 0.368382 0.151770 -0.476278 0.084206 0.093591 0.331035 0.452266 0.362962 0.145609 0.262850 -0.020814 -0.104169 -0.179232 -0.010705 0.848271 0.084531 -0.029381 -0.425355 -0.043013 0.009239 -0.146863 0.259814 -0.233769 -0.235667 -0.019549 0.285799 -0.091413 0.270750 0.517531 -0.024964 -0.363324 0.036555 -0.062914 0.269847 -0.147533 0.121487 -0.236177 -0.104463 0.459749 -0.137423 0.429100 0.343036
1259 -0.432126 -0.214089 1.239655 1.027551 -0.515791 -0.200147 0.572268 0.657514 -1.308471 -0.532561 0.062269 0.612761 -0.060089 -0.525169 0.941188 -0.055140 0.648099 -0.619102 -0.202309 -0.501474 0.580223 0.034197 -0.509438 0.354952 0.087286 0.369271 0.450502 0.373328 -0.402836 0.103857 -0.251548 0.054200 -0.484404 0.357007 0.029414 0.296147 0.584457 0.363574 0.024721 -0.216837 0.848754 -0.453488 -0.221432 0.044931 -0.141907 0.072001 -0.381164 0.154722 0.281845 -0.751117 0.837736 -0.110369 -0.349165 -0.044199 -0.594456 0.544666 -0.193685 0.143461 -0.398904 0.671175 0.098924 0.120519 -0.402664 0.035930 -0.493724 -0.534229 0.156268 -0.346143 -0.182973 -0.196868 -0.082776 0.161276 -0.337184 -0.853084 -0.440294 -0.534871 0.570224 0.212190 -0.095561 -0.689395 0.223480 -0.171294 0.413069 -0.047927 0.329604 -0.407981 0.391947 0.094497 0.126490 0.428166 -0.262449 0.425719 -0.056516 -0.198160 0.262414 -0.856231 0.123852 0.753314 -0.332510 -0.829144 0.544092 0.412618 -0.402775 -0.584141 0.693595 -0.083902 0.763739 0.261044 -0.367663 -0.875710 -0.492648 0.152644 0.909227 -0.194099 0.267521 0.359195 0.341128 -0.221255 -0.040344 -0.107650 0.116537 0.041338 0.576105 0.355217 -0.090158 0.088174 0.802688 -0.127959
1666 0.386990 -0.251778 -0.070663 0.426203 0.350415 -0.568892 0.426071 0.046623 -0.354973 -0.043972 0.157881 0.394272 0.142453 0.243495 0.301929 -0.309772 0.184640 0.139468 -0.028711 0.080786 -0.051322 -0.157485 -0.080991 0.058641 0.407540 -0.478524 -0.377251 0.117956 0.125573 0.805037 -0.491397 -0.318801 0.011069 0.280483 0.224878 0.001708 0.205727 -0.075054 -0.018219 -0.016826 0.120960 0.164787 -0.411252 -0.036521 0.542776 0.084620 -0.434905 -0.340944 0.056609 0.395881 0.071050 0.129956 0.232029 0.072682 -0.226493 -0.071163 0.735372 0.066425 0.263106 0.691733 -0.088022 0.052307 -0.016702 -0.017821 -0.052235 0.256343 -0.083265 0.148853 -0.402483 -0.019545 -0.401860 0.476513 -0.166959 -0.098943 0.015131 -0.226355 0.331013 0.116722 0.202343 -0.238235 0.416337 -0.207918 0.182096 -0.068512 -0.179309 0.346669 -0.328249 -0.134423 -0.108582 0.248525 0.396151 0.126958 -0.034086 0.349403 0.049854 -0.043285 0.042885 0.004153 0.092575 -0.096963 0.463076 -0.310257 -0.102117 0.048734 0.009893 0.141294 -0.290077 0.104789 -0.311467 -0.384606 -0.399302 -0.040679 -0.190500 -0.271823 0.372232 0.134114 -0.070939 0.058852 -0.142026 0.446750 0.066912 -0.111065 -0.165287 -0.026244 -0.365633 0.088494 0.051508 0.111172
2596 -0.350456 0.024719 0.351070 0.046158 0.593165 -0.436945 0.366797 -0.067684 -0.436475 -0.061702 0.440187 0.154176 -0.263554 0.465222 -0.409341 0.061768 0.189875 0.180366 0.153703 -0.221073 -0.288830 -0.309481 -0.107084 -0.645913 0.093965 -0.387843 -0.243324 0.109313 -0.373987 -0.064998 -0.189063 -0.112719 -0.664790 0.202531 0.121338 -0.242042 0.278507 0.116334 0.008718 -0.562983 -0.274767 -0.042182 -0.204307 -0.618392 0.420301 -0.107661 -0.205856 0.046857 -0.241421 -0.291196 0.379357 0.196563 0.174239 0.181545 -0.345348 0.065578 0.415158 -0.063921 0.125138 0.184058 0.187694 0.034320 -0.183054 -0.046634 0.122909 0.234924 0.201980 0.060417 -0.248676 -0.079292 -0.245026 0.307513 0.288310 -0.274204 -0.197055 -0.254887 0.248736 0.130056 -0.244350 -0.362792 0.127942 -0.063520 -0.011575 -0.013495 0.363382 0.094308 0.437074 0.283044 -0.336538 0.078477 -0.071624 0.277080 0.568332 0.196572 0.143785 0.217189 -0.212051 0.081947 -0.088083 0.275687 0.821360 0.164375 0.055840 -0.030534 -0.324048 0.497316 0.081387 -0.093469 -0.217312 -0.157020 -0.265696 0.367424 0.254998 0.543826 0.734274 0.054612 -0.159481 -0.194092 -0.478394 -0.040977 -0.016831 -0.040715 -0.179595 -0.304408 0.442057 0.195238 0.307127 0.120713
1366 0.155691 -0.075277 0.638742 0.483496 0.336139 -0.412069 -0.078839 -0.009292 -1.104884 -0.793078 -0.421267 0.727568 0.165232 -0.007399 -0.182875 -0.488990 0.699451 -1.101082 0.022080 0.504090 0.230970 -0.139478 -0.585258 0.319130 0.151165 0.204621 0.114968 0.078328 -0.462546 0.459378 0.624296 -0.176466 -0.321153 -0.219242 -0.322361 0.517696 0.127990 0.416419 0.518123 -0.368651 0.359570 0.488324 0.042830 0.571888 -0.376569 -0.322538 0.224264 0.472668 -0.277396 -0.361459 -0.209357 0.556637 -0.101605 -0.565871 0.262622 0.075018 0.315663 0.099170 -0.014319 -0.273889 -0.052299 0.132351 -0.573316 -0.236415 0.375711 -0.223941 -0.189042 0.429241 0.329188 -0.014554 -0.495257 0.405714 0.524119 -0.330481 -0.308740 -0.214542 0.205151 -0.116268 -0.225205 0.011124 -0.176649 0.188303 0.341940 -0.179071 -0.013145 -0.078343 -0.296889 -0.148281 -0.660232 -0.781777 0.362979 0.145077 0.350337 -0.172299 0.393613 -0.673157 0.018076 0.321185 -0.090036 -1.082847 0.488748 0.058285 -0.035995 -0.437840 0.488466 -0.471712 0.113120 0.353256 0.081364 0.040423 -0.794075 0.242054 0.052775 -0.046744 0.328753 -0.245902 -0.099468 -0.341000 -0.574633 0.882631 -0.159892 0.123424 -0.177302 0.641008 -0.047573 -0.656632 0.592286 -0.145911
150 0.727946 0.079923 0.149638 -0.188832 -0.430903 -0.078107 0.360880 -0.158795 -0.785424 -0.172184 0.826292 0.136664 0.078921 0.391509 -0.179496 0.231025 0.178968 -0.253937 0.233755 0.054141 -0.048507 -0.175492 -0.137233 -0.388767 0.559488 -0.037414 0.185926 -0.063273 0.258079 1.133238 -0.136265 -0.064736 0.240849 0.586842 0.298753 0.036996 -0.114716 -0.197123 0.580624 -0.564458 -0.590417 0.062956 0.106698 -0.091033 0.298772 0.454256 0.177739 0.562969 0.152109 -0.086307 0.292446 0.193226 0.365058 0.274951 -0.265135 0.410217 0.523580 0.642411 -0.030918 0.051996 -0.359739 0.552560 0.133771 0.243190 -0.296284 0.122818 0.454592 0.048288 -0.176577 0.459173 -0.434703 -0.177386 -0.434602 -0.009107 0.172571 -0.338777 -0.058626 0.051174 -0.245341 -0.204166 0.106151 0.085242 -0.177433 -0.234155 0.046469 0.506797 -0.253173 0.121826 0.050282 -0.291926 -0.131874 0.269115 0.135839 0.673512 0.270867 -0.222086 -0.107113 -0.067398 0.070322 -0.414512 0.162744 0.037362 0.428832 0.381746 0.183770 -0.203663 0.129424 0.463328 0.069600 -0.402495 -0.476512 -0.081172 0.488515 0.286723 0.230751 0.479904 0.079868 -0.117468 -0.823217 0.150265 0.021503 0.182293 0.174549 -0.063706 -0.353656 0.127830 0.474073 -0.156091
620 -0.096170 -0.129186 0.252788 1.073726 -0.320052 -0.104338 0.414062 -0.278806 -0.161293 0.363588 0.611542 -0.061042 -0.073041 0.192574 0.337649 -0.172646 0.886775 -0.506055 0.196902 0.351550 -0.014200 -0.423701 -0.370361 0.306849 0.049982 -0.063390 -0.011842 0.074489 -0.754807 -0.094849 -0.128107 -0.397689 -0.606448 0.066522 0.427483 0.465795 -0.139141 0.538362 -0.199056 -0.629530 0.861917 0.294507 -0.508796 0.103994 0.267066 0.041366 -0.077765 -0.250470 0.457558 -0.403924 0.192698 0.293452 -0.077122 -0.026796 -0.256856 -0.127873 0.480212 0.478545 0.693196 -0.238372 0.276163 -0.493632 -0.593095 0.527396 -0.448256 0.691711 -0.397545 -1.440050 -0.638598 -0.116124 -0.291465 0.642795 -0.147223 0.389975 -0.487166 -0.551601 -0.058969 -0.036221 0.220468 0.302879 0.140772 -0.034366 -0.068683 -0.314152 1.036430 -0.585352 0.198519 0.106697 -0.106657 -0.179552 -0.145999 0.344254 0.383856 -0.663944 0.361661 0.145221 0.144300 0.303628 -0.465471 -0.350320 0.397153 0.886873 0.516657 -0.134716 0.150745 -0.847947 0.360012 0.269748 -0.484150 0.162667 -0.145270 -0.184102 0.379816 -0.420950 0.359660 0.229448 0.548294 0.146318 -0.344736 0.398588 0.488230 0.172212 0.149075 -0.399847 -0.005625 0.159743 0.343557 -0.591170
661 -0.000979 -0.229227 -0.378091 0.240494 0.116432 -0.272258 0.561733 -0.162607 0.143275 -0.054219 0.488454 -0.321029 -0.132444 0.575314 -0.272836 -0.269403 0.341721 -0.117178 -0.466432 -0.354647 0.116531 -0.220380 -0.232108 0.229566 -0.367365 0.227273 -0.236931 -0.374588 0.125261 0.482746 -0.348270 -0.523316 0.076988 0.028739 0.438622 -0.102102 0.060408 0.163268 0.658404 -0.086929 0.327923 -0.145189 -0.484772 -0.096725 0.330070 0.411627 -0.363068 0.397878 -0.270782 -0.045538 0.493553 -0.000005 0.180913 0.397491 -0.115771 -0.286287 0.945160 -0.266539 -0.045938 0.227946 0.162093 0.043619 0.407661 -0.063155 -0.331614 0.307726 0.458242 -0.081640 -0.001063 -0.088338 -0.183951 0.550747 -0.469572 -0.361094 -0.220577 -0.151582 -0.112507 -0.418300 0.258230 -0.116490 0.145475 -0.100858 -0.025983 0.173503 -0.241309 0.294431 -0.493120 0.074387 -0.485237 -0.489298 0.025107 0.206993 0.227499 0.085043 0.188324 -0.132070 0.507993 -0.055893 -0.035146 -0.670899 0.474694 -0.466654 0.001499 0.769188 0.634063 0.018855 -0.031236 0.092322 -0.214438 -0.130524 0.194877 0.300385 -0.073083 0.175254 0.234311 -0.045304 -0.338821 -0.504131 -0.501589 0.021450 0.009737 -0.102928 -0.209672 0.238655 0.146727 0.447651 0.493400 0.082461
3249 -0.360567 0.828010 -0.051110 0.211488 -0.121746 -0.356839 -0.489993 -0.450312 -0.302195 0.185827 -0.648558 -0.177195 0.434364 0.409330 0.165387 -0.292242 -0.780222 -0.760719 -0.429362 0.355158 0.051506 -0.195039 0.020010 0.841208 0.381312 0.169066 -0.220178 0.146907 0.052839 0.188537 -0.197312 0.310226 -0.380563 0.050091 0.336809 0.506003 0.071176 0.051122 0.549206 -0.512343 -0.007820 0.122083 -0.383195 -0.653518 -0.335067 0.144319 -0.339672 0.309089 -1.175361 -0.508634 0.165419 -0.208702 -0.571362 -0.685964 0.064388 -0.048696 0.761500 0.081168 -0.107652 0.331371 0.266482 0.217563 -0.324403 -0.057843 -0.053636 0.930394 -0.241428 0.640946 -0.706061 -0.107985 0.045133 -0.133561 0.285357 -0.252267 0.082717 -0.799175 0.414417 -0.203451 0.024704 0.580477 0.311748 -0.098581 0.150272 -0.353791 0.115696 -0.222186 0.479060 -0.892836 0.327056 -0.125441 -0.358739 0.401497 0.049926 -0.065058 -0.164993 -0.193703 -0.245149 0.438608 0.228018 -0.255281 0.288415 -0.060471 -0.397579 0.071737 -0.323238 -0.237351 -0.527677 -0.258626 -0.790913 -0.270686 -0.612403 0.331283 -0.092634 0.295957 -0.115803 -0.320744 0.300117 -0.037914 -0.574317 -0.074246 0.452271 0.395825 0.154622 -0.179372 -0.732388 -0.130058 0.007217 -0.519813
