3327 128
24 0.296733 -0.032050 -0.033274 -0.070407 0.203068 0.147113 -0.053740 -0.195957 0.132769 0.142150 0.222907 -0.037234 -0.251480 -0.059488 0.071559 -0.274078 -0.167722 -0.286315 -0.361856 0.084073 -0.160508 -0.225466 0.087342 0.301843 -0.111193 -0.251632 0.094242 -0.058314 -0.425961 -0.092044 -0.317448 0.636845 0.152971 0.015782 0.013371 -0.285629 0.079755 0.139319 -0.013792 0.176686 -0.128997 -0.065769 0.084340 0.179808 0.145166 0.149646 0.092789 -0.100072 0.032285 -0.090255 -0.016163 0.256606 -0.177226 0.117380 0.334238 -0.078196 0.131823 -0.234959 -0.388628 -0.013215 0.169633 0.033161 -0.091585 0.277584 -0.396891 -0.182588 -0.017678 -0.104643 -0.086796 0.090013 0.131278 0.272835 0.332333 -0.096854 0.252643 0.062306 -0.113621 -0.312786 0.111343 0.049888 0.474942 0.358344 -0.117305 0.190013 -0.475330 -0.012398 0.026289 -0.082401 0.082939 0.589143 0.040458 0.148108 0.155667 -0.275671 -0.214352 0.333061 0.194655 0.073793 -0.200373 -0.253328 -0.127845 0.020361 0.060148 -0.102861 -0.423745 0.160503 0.258723 0.148097 0.151406 -0.099922 -0.024183 -0.075184 0.013020 0.108769 0.021487 -0.186153 -0.243692 0.359930 0.010491 -0.203280 -0.390219 0.273998 0.126452 -0.147027 -0.141298 0.065861 0.109766 -0.133125
77 0.421069 -0.024201 0.015449 -0.084715 -0.134075 -0.184703 -0.053905 -0.131865 0.196574 0.015811 -0.069682 -0.012637 -0.212614 -0.072856 -0.063321 -0.454671 -0.098525 -0.127778 -0.216121 0.050541 -0.130704 0.164036 -0.090850 0.169521 0.106102 -0.318321 0.001530 -0.025655 -0.160149 -0.075276 -0.239531 0.520066 -0.034652 0.000742 0.024017 0.024454 0.101141 0.234139 0.005923 -0.074128 -0.098367 -0.001163 0.287133 -0.214599 -0.029570 0.090171 -0.005934 -0.136311 -0.096997 -0.058525 -0.182475 0.148738 -0.243705 0.242289 0.377273 0.116367 -0.059441 0.075001 -0.172689 0.176741 0.123745 0.070095 -0.107904 0.374735 -0.440510 0.223515 -0.172602 0.057181 0.228122 0.163519 -0.115857 0.181111 0.478591 0.238199 0.456704 0.179712 0.209866 -0.180960 -0.101598 0.189896 0.302231 0.254283 -0.055186 0.070383 0.059285 0.345616 -0.201915 -0.117289 0.315732 0.767240 -0.210830 0.250537 0.267897 0.062651 -0.419607 0.197766 -0.075269 -0.142268 -0.135987 -0.372707 0.043521 0.075956 0.048898 0.074077 -0.307265 0.194528 0.390551 0.268412 0.340090 0.139062 0.070771 -0.284780 -0.015377 -0.040361 0.123789 -0.118081 -0.269894 0.312013 0.006852 -0.139521 -0.209378 0.155106 0.065210 -0.163014 -0.066960 0.123627 -0.020536 -0.000757
60 0.539009 -0.084433 0.171761 0.006011 -0.168412 0.035329 -0.197529 0.027101 -0.096877 0.106818 -0.228084 0.251290 -0.056637 -0.183013 -0.099753 0.018244 -0.455310 -0.219656 -0.162325 -0.367368 0.230037 0.192235 -0.085546 0.114507 -0.043398 -0.211571 -0.358418 0.030197 -0.310095 -0.109226 -0.447240 0.115711 -0.182827 0.064552 0.192622 0.249646 0.116672 0.297145 -0.036849 0.473934 -0.027164 0.116604 -0.008096 0.443251 -0.135574 0.435256 0.000244 0.003690 0.136252 -0.000134 -0.018279 0.081580 -0.437828 0.024857 0.571995 -0.385546 0.033339 0.217840 0.075628 0.366109 0.300572 0.063547 -0.245636 -0.207939 0.100437 0.585410 -0.102871 -0.081077 -0.315726 -0.190471 0.270659 -0.209909 0.188438 0.128418 0.169735 0.276695 -0.003354 -0.178923 0.287648 0.149299 0.278676 0.442412 -0.289859 -0.396535 0.166960 0.258834 -0.137675 -0.306019 -0.018175 0.126824 -0.022445 -0.075726 0.184012 0.175121 -0.754981 -0.037636 0.130503 -0.277744 -0.362697 0.005373 0.024078 0.019614 0.214462 -0.403855 -0.236555 -0.197687 0.393402 0.195763 0.191649 0.162610 0.136036 0.042587 0.266139 0.359927 0.384234 0.074968 0.009065 0.390362 -0.185645 -0.438149 -0.480839 -0.008328 0.359790 -0.417072 -0.349160 0.212015 -0.073778 0.183485
62 0.429071 -0.140472 0.195052 -0.080665 0.103441 0.042010 -0.165316 -0.293536 0.038260 -0.115256 0.148234 0.115193 -0.170564 -0.046391 -0.181353 0.164051 -0.338069 -0.360317 -0.162728 -0.241988 0.008417 0.369905 0.064655 0.121859 0.076122 -0.043858 -0.572056 0.086398 -0.175457 0.039049 -0.529328 0.280699 0.065263 -0.111176 0.111326 0.099469 0.282855 0.136314 0.136838 0.233148 -0.456046 -0.057966 0.137897 -0.012974 0.156933 0.366946 -0.065209 -0.040516 -0.039393 -0.074434 0.001738 0.170547 -0.417717 0.117913 0.459291 -0.293832 0.044921 0.144648 0.041684 -0.104829 0.100717 -0.004559 -0.385437 0.361998 -0.061325 0.330163 -0.141907 0.053906 -0.224961 -0.050471 0.292607 -0.051134 0.285740 -0.356318 0.082289 0.075375 0.293444 -0.031408 0.012148 0.197424 0.344858 0.102422 -0.023147 0.000202 0.017145 0.302616 -0.016309 -0.161545 0.445639 0.195517 -0.100721 0.034154 0.360943 0.288492 -0.851189 -0.054201 -0.056265 -0.422149 0.043870 -0.003140 -0.044886 0.044657 0.278177 -0.328583 -0.114779 -0.189470 0.442484 0.124170 0.209719 0.111327 -0.138124 -0.097801 0.036456 0.043353 0.135681 -0.046781 -0.340193 0.193561 -0.094276 -0.244802 -0.498814 -0.202728 0.218954 -0.236013 -0.008543 -0.093332 0.107040 0.232884
100 -0.354486 -0.247421 -0.190520 -0.005723 -0.116704 -0.396759 0.809628 0.521149 0.244037 0.144715 0.383597 0.023866 0.054336 -0.455722 -0.139821 -0.047251 0.426587 -0.257580 -0.484906 0.438934 0.182311 -0.008481 0.480688 0.466903 -0.270477 -0.206062 -0.438177 -0.368404 -0.199231 -0.332669 -0.197486 -0.140470 -0.305680 -0.042378 0.025452 -0.070795 0.390152 0.018204 0.542224 -0.282143 -0.165990 0.004702 0.039260 0.208376 0.203268 0.073391 0.359656 -0.113022 0.231897 -0.169110 -0.227031 0.215242 0.260530 -0.351646 -0.455318 -0.394243 0.178925 0.291494 0.080012 0.195616 -0.065665 -0.111731 -0.005943 -0.305921 0.434965 0.036919 0.265380 -0.439768 -0.041481 0.068192 -0.263137 0.077255 -0.098193 -0.422914 0.090911 -0.024113 -0.190933 -0.052481 -0.328057 0.505528 -0.064417 0.530457 0.055734 -0.035259 0.111289 -0.030736 -0.475015 0.192456 -0.078241 0.479694 0.289611 -0.527692 0.086406 -0.085511 -0.499960 -0.270996 -0.206849 -0.397667 0.020912 -0.007666 -0.217928 0.040263 -0.183623 -0.016997 0.088021 0.260376 0.170911 0.236794 -0.129881 0.351316 0.501929 0.113563 0.053994 -0.428810 0.070933 0.145099 -0.308069 0.190442 0.183993 0.376497 -0.122826 -0.251993 0.051928 -0.237021 -0.102541 0.350219 0.273745 -0.438900
110 -0.466035 -0.833972 0.105270 -0.542144 -0.037427 -0.337026 0.247073 0.564431 0.780622 -0.053757 -0.163716 -0.321874 0.557519 -0.207725 -0.508901 -0.088964 0.417365 -0.047348 -0.233195 0.148095 -0.095355 0.005340 0.585756 -0.094947 -0.329168 -0.200928 -0.447756 -0.100204 -0.003040 -0.080957 -0.161571 0.289164 -0.358037 -0.141488 0.008164 -0.079005 -0.357215 0.049243 0.425696 -0.186174 -0.725277 0.441907 -0.324596 -0.059970 0.222073 0.306111 0.469497 -0.089886 0.025757 0.009491 -0.181586 0.060538 0.315371 0.013411 -0.483609 -0.204599 0.412049 -0.323522 -0.100567 0.401364 -0.039920 -0.346232 -0.061922 -0.329462 0.409568 -0.012052 0.084928 0.294982 -0.123536 0.394086 0.036537 0.273016 -0.020292 -0.128561 0.204165 -0.390478 0.066243 -0.397213 -0.244806 0.279133 -0.129870 0.713591 -0.397027 -0.121899 0.146600 0.362308 -0.540758 0.165361 -0.069888 -0.034697 -0.156758 0.253678 0.222451 0.025448 0.012781 0.023185 0.273413 0.387104 0.119130 0.277531 -0.736227 -0.077997 -0.258895 -0.127341 0.183307 -0.199527 0.259532 0.213814 0.319897 -0.082572 0.347953 0.043117 -0.089661 -0.388191 0.048913 -0.142645 0.221759 0.738935 0.345186 0.222093 -0.450237 0.099466 -0.039972 -0.208675 -0.377698 0.181229 0.306546 0.139667
109 -0.552204 -0.766670 0.146721 -0.511965 -0.029725 -0.305526 0.212212 0.607013 0.743794 -0.058532 -0.201030 -0.340882 0.459453 -0.221952 -0.528258 -0.229477 0.317569 -0.088589 -0.285657 0.168817 -0.158317 0.033389 0.597981 -0.092760 -0.270333 -0.220616 -0.470478 -0.009156 -0.008007 0.002581 -0.229857 0.275533 -0.489818 -0.284388 -0.060209 -0.022470 -0.391849 -0.062243 0.454392 -0.173286 -0.625237 0.532872 -0.367862 -0.005842 0.255774 0.343551 0.420452 -0.092196 0.140688 0.011972 -0.162509 0.097481 0.284604 -0.100204 -0.499685 -0.236188 0.453575 -0.356101 -0.040573 0.401175 0.031211 -0.355240 -0.130098 -0.295290 0.444993 -0.028506 0.059657 0.386507 0.007608 0.308123 0.078259 0.161543 -0.016307 -0.175185 0.330572 -0.402825 0.129266 -0.452674 -0.251348 0.284988 -0.164145 0.659141 -0.425352 -0.122016 0.182414 0.377193 -0.555937 0.136186 -0.065908 -0.091638 -0.118104 0.202391 0.198432 -0.000136 0.015819 0.027403 0.253156 0.300617 0.099330 0.327015 -0.685963 -0.232256 -0.288028 -0.053410 0.241301 -0.121036 0.242269 0.214548 0.231457 -0.108991 0.275104 0.002905 0.070186 -0.413878 0.088339 -0.225889 0.192507 0.635729 0.364245 0.148465 -0.517415 0.184136 -0.038008 -0.105962 -0.377882 0.182445 0.287246 0.097461
2 -0.049607 -0.113130 -0.041040 -0.181650 0.090178 -0.091213 0.477780 -0.108336 0.224442 0.059147 0.253396 0.261594 -0.109174 -0.037803 -0.176916 0.170930 -0.554969 -0.316890 -0.009793 0.014812 0.355161 0.626299 0.296803 -0.131138 0.111621 -0.140845 0.026705 0.141118 -0.097985 -0.154823 -0.245179 0.215093 -0.039933 0.052922 0.175633 0.105147 0.179755 0.241039 0.501202 0.393106 -0.236543 0.368143 -0.148065 0.023283 -0.327107 0.082736 -0.410032 -0.043144 0.080831 -0.174776 0.639915 0.124120 0.213944 0.338606 -0.024715 -0.042828 0.561416 -0.229586 -0.275977 -0.266395 0.100584 0.158615 -0.193564 0.248362 -0.233150 0.279226 -0.465105 -0.005572 0.092428 0.300473 0.138885 -0.054912 0.666355 -0.014463 0.596362 -0.003878 0.276311 -0.344115 0.020782 -0.359554 -0.229064 0.330529 -0.315501 0.053013 0.055827 0.130366 0.148096 -0.645274 0.499717 -0.003865 -0.132279 0.337019 0.536151 -0.474351 -0.945964 0.271442 0.210945 -0.359519 -0.323304 -0.062298 -0.170764 -0.214531 0.137300 -0.522505 -0.076782 0.097506 0.163009 -0.008391 -0.033892 -0.050994 0.393966 -0.060921 -0.075080 0.297131 0.275248 0.364049 0.146991 0.513583 0.093729 -0.140747 -0.248664 0.082960 0.408801 -0.242309 -0.202100 0.220934 0.345340 -0.027780
54 0.034336 -0.117139 0.110763 -0.185684 0.064910 -0.216666 0.085183 -0.013905 0.311891 -0.074075 0.105753 0.266263 -0.280633 0.301994 0.205327 -0.258344 -0.407520 -0.406349 -0.191038 -0.198176 0.189505 -0.109976 -0.195283 0.355575 -0.141168 -0.311407 -0.112973 -0.248889 0.039896 0.007244 -0.751601 0.501138 0.324960 -0.117537 0.156972 0.144057 0.206251 0.100763 0.255698 0.345525 -0.258978 -0.209258 0.118538 0.093617 0.196426 0.221834 -0.084566 0.053186 -0.359388 0.049350 -0.282881 -0.118703 -0.120544 0.252516 0.090791 -0.194005 0.244619 -0.173156 -0.287355 0.000702 -0.438872 0.192050 -0.178739 0.074962 -0.082098 0.257628 -0.326984 0.142553 0.227125 0.125986 0.004814 -0.059957 0.057029 -0.084516 0.706302 0.161619 0.211465 -0.106811 0.055863 -0.145888 0.392734 -0.111521 -0.318728 0.302042 -0.079411 0.045538 -0.434863 -0.245209 0.404203 -0.075592 -0.020203 0.463309 0.170396 -0.167166 -0.060803 0.273315 -0.035528 -0.436367 0.174185 -0.226048 0.084644 0.379611 -0.093936 0.154743 -0.350703 -0.043141 -0.098532 0.252744 0.209146 0.013330 0.088914 0.306692 0.141975 -0.220194 0.437163 -0.121524 -0.107771 0.099224 0.354730 -0.163423 -0.486471 0.022429 0.257815 -0.415975 -0.046950 0.238137 -0.115990 0.283846
49 0.450866 -0.261456 0.115989 0.104199 -0.242362 0.361897 -0.270858 0.198893 0.207317 0.072409 0.357794 0.314834 -0.067568 0.075069 0.192790 -0.123524 -0.199461 -0.142166 -0.071824 -0.216103 0.203875 0.265589 0.370337 0.107836 -0.180132 -0.559318 -0.432329 0.270940 -0.129537 -0.229039 -0.094810 0.442706 0.230883 0.284789 0.091468 -0.076631 0.341607 -0.067846 0.104472 0.204391 -0.027292 0.031108 -0.152944 0.476033 0.146248 -0.010076 -0.303457 -0.280493 -0.086041 0.179539 -0.046623 0.030283 -0.751430 0.300166 -0.533298 -0.100699 -0.181555 -0.419495 0.073169 0.072836 -0.065546 0.347904 -0.238965 0.030862 -0.177099 0.343735 -0.119445 -0.163540 -0.094841 0.107098 0.087913 -0.229760 0.623036 0.265770 0.253776 0.381173 0.045543 0.202570 0.312777 0.093603 0.464942 0.138692 -0.365971 -0.263450 -0.105510 0.554099 -0.268964 -0.138430 0.090279 -0.092459 0.087043 0.231137 0.131345 -0.162450 -1.009934 0.148256 -0.021937 -0.282232 -0.081771 -0.328536 -0.375653 -0.227347 0.030432 -0.095554 -0.182721 0.319504 -0.061343 -0.019231 0.139953 -0.075596 0.143084 0.216527 0.099625 0.117331 0.144351 0.048192 -0.460774 0.502144 -0.538079 -0.282663 -0.177203 0.191513 0.228153 -0.457775 -0.290454 0.012338 -0.203331 -0.109147
9 -0.070527 0.259922 0.435609 0.077476 0.167976 -0.165165 0.244143 0.940894 -0.094434 0.030858 -0.232004 0.047144 0.439695 -0.449396 -0.175474 -0.586601 0.207200 0.087442 0.476625 0.028344 0.007779 -0.077800 -0.325922 0.090174 -0.390401 -0.223248 -0.412820 -0.398747 0.459716 -0.299629 -0.138715 0.128309 -0.224605 0.104501 0.333369 -0.274760 -0.315461 0.081018 0.195653 -0.284622 -0.176321 0.296119 0.055905 0.114124 0.389504 -0.559001 0.143097 0.565326 0.059516 -0.162380 -0.003136 0.529524 0.010747 -0.226290 -0.043937 -0.414158 0.339790 0.044179 0.032089 -0.043760 -0.349156 -0.079369 -0.242235 -0.481793 0.280521 0.294532 0.446262 0.155005 -0.202202 0.322523 0.679114 -0.005666 -0.105961 -0.111796 0.169756 -0.489702 0.418330 -0.289209 -0.033241 0.200907 -0.207458 0.528634 0.106937 0.118738 0.185428 0.390362 0.058579 0.516080 -0.009141 0.338489 -0.121995 -0.181130 0.132784 -0.376212 -0.603808 -0.203046 -0.196944 -0.207559 0.257315 -0.361692 -0.464698 -0.173336 -0.077381 -0.094711 0.129980 -0.038486 0.091717 -0.057635 0.553313 0.095871 0.334585 -0.006191 0.353819 0.454328 0.665579 -0.421899 -0.235989 0.256985 -0.176721 0.782970 -0.457236 -0.009359 -0.497137 -0.528929 0.115880 0.231451 0.292462 -0.250932
4 -0.035953 0.053354 0.355492 0.153191 0.213498 -0.020639 0.259418 0.857852 -0.184127 -0.035447 -0.219376 0.065503 0.415779 -0.477266 -0.168595 -0.537578 0.295993 0.057110 0.477876 0.016190 0.134056 -0.095543 -0.310000 0.116609 -0.333282 -0.302372 -0.280518 -0.508149 0.480878 -0.123000 -0.128686 0.095328 -0.363745 0.133026 0.127741 -0.054166 -0.201455 0.105445 0.244855 -0.354524 -0.281646 0.310173 -0.072060 0.121641 0.493378 -0.577534 0.042132 0.464709 0.076955 -0.201609 0.162281 0.420078 -0.037684 -0.337567 -0.137562 -0.329158 0.282188 -0.025758 0.067999 -0.037120 -0.323017 -0.110840 -0.332350 -0.525291 0.266501 0.298247 0.379126 0.172923 -0.095490 0.260176 0.666545 -0.017567 0.027927 -0.216477 0.218095 -0.390530 0.264371 -0.395390 -0.067227 0.186083 -0.265065 0.356454 0.076980 0.081802 0.032628 0.381690 0.036591 0.490891 -0.001510 0.450957 -0.003513 -0.202155 0.097594 -0.300979 -0.557730 -0.321194 -0.125384 -0.085548 0.295158 -0.533541 -0.352584 -0.078849 -0.063064 -0.025468 0.091104 0.032588 -0.043934 0.004647 0.606753 0.191825 0.288624 0.097332 0.296460 0.330399 0.567234 -0.483814 -0.170850 0.140921 -0.170809 0.712197 -0.568313 0.014346 -0.459281 -0.455483 0.090990 0.287550 0.185807 -0.289216
95 0.031312 0.301892 0.532531 0.189625 -0.014665 -0.304324 0.398795 0.591985 -0.094572 0.346056 0.182101 -0.131076 -0.070313 -0.400122 -0.396924 -0.311368 0.549739 -0.269494 0.022854 -0.077605 -0.108319 -0.078773 -0.107837 0.435225 -0.569628 -0.110291 -0.550857 -0.272646 -0.011255 0.010300 0.129472 -0.210722 0.080519 0.234962 0.110089 0.047839 -0.052598 0.219340 0.200413 -0.302825 -0.130337 0.386762 -0.529906 -0.263703 0.307778 0.079438 0.204043 0.219558 0.045908 0.146473 0.312824 0.293007 0.148472 -0.347211 -0.004962 -0.790550 0.268756 -0.014349 -0.185928 -0.228799 -0.426487 -0.446190 -0.368498 -0.772239 -0.123447 -0.027114 0.222406 -0.120279 0.273082 -0.019499 0.125458 0.310865 0.431543 -0.391493 0.303908 -0.098427 -0.036213 -0.435428 -0.442656 0.071479 -0.584724 0.521624 0.045399 -0.071731 0.171375 0.429141 -0.095692 0.268974 -0.220071 0.275453 -0.110803 -0.068176 0.157836 0.178428 -0.414745 -0.322160 0.084294 -0.263815 0.423735 -0.639579 0.028357 -0.322511 -0.013447 0.489674 0.351190 -0.159264 0.197216 0.226380 0.106432 0.182322 0.415008 0.470099 0.486532 0.377326 0.468526 -0.349521 0.257028 0.243153 0.037082 0.689704 -0.570601 0.355414 0.037141 -0.462264 -0.142775 0.263480 0.037898 -0.520858
1197 0.545130 -0.154081 0.174153 0.053908 0.117041 0.083013 -0.294750 -0.434829 0.106308 -0.003153 0.204546 0.117869 -0.223661 -0.068148 -0.119566 0.245585 -0.345449 -0.333432 -0.210173 -0.289166 -0.043374 0.466606 0.101940 0.106576 0.047195 0.029203 -0.648073 0.097875 -0.272273 0.022586 -0.653256 0.374213 0.125675 -0.104151 0.265162 0.221326 0.156384 0.197148 0.161690 0.351357 -0.441128 -0.012318 0.093296 -0.026219 0.269248 0.397269 0.012319 0.091764 0.000773 -0.103070 0.061781 0.161634 -0.316191 -0.019233 0.496987 -0.378928 -0.036644 0.027775 0.102849 -0.013393 0.156159 0.159822 -0.349098 0.314125 -0.107234 0.280564 -0.098954 0.020037 -0.339000 -0.224695 0.352024 -0.179862 0.276558 -0.440763 0.162079 0.139447 0.432830 -0.080171 0.088380 0.232795 0.309715 0.093454 -0.033256 0.039173 0.089353 0.354089 -0.030979 -0.197164 0.442929 0.226812 0.016769 0.005793 0.321939 0.511026 -0.913132 -0.030965 -0.028414 -0.519316 0.087483 0.085412 -0.194945 0.151224 0.247394 -0.450551 -0.074712 -0.262746 0.351221 0.191185 0.235109 0.246843 -0.216228 -0.266302 0.041369 0.091867 0.216003 -0.109543 -0.301385 0.239339 -0.164203 -0.321889 -0.525974 -0.209633 0.088423 -0.320747 -0.075403 -0.004647 0.097737 0.148388
84 0.063604 -0.024990 -0.036077 0.171258 0.226440 -0.142825 -0.097376 -0.024880 0.273249 -0.211713 0.208239 0.271580 -0.093096 0.397766 0.001780 -0.067393 -0.049180 -0.283583 -0.218995 -0.163424 -0.153464 0.099032 0.134492 0.254340 0.056429 0.006258 -0.234569 -0.032468 -0.058009 -0.256683 -0.298163 0.511548 -0.134786 -0.111178 -0.003757 -0.085204 0.086574 0.169295 0.022604 -0.004637 -0.023381 -0.291560 0.281152 0.060369 -0.166500 0.254681 -0.410085 -0.144590 -0.212749 0.312255 -0.026615 0.093475 -0.290591 0.035333 0.222036 -0.021327 0.151702 -0.133751 -0.266486 0.075089 -0.070960 -0.070349 -0.210948 0.223485 -0.018134 0.204779 -0.320666 0.276575 0.183066 0.125969 0.020061 -0.053162 0.352511 0.044120 0.398045 0.190719 0.070326 -0.044194 0.233131 -0.063209 0.258703 0.432655 -0.056411 0.093434 -0.405277 0.066944 -0.106808 -0.056527 0.286823 0.388786 -0.044458 0.122651 0.014015 -0.247168 -0.220243 0.027933 0.066164 -0.116250 -0.056488 -0.285578 0.218943 0.099797 -0.150777 0.008401 -0.336023 0.128157 0.261706 -0.206157 0.202718 0.209435 0.185881 -0.216697 0.037368 0.166889 0.288870 0.062969 -0.299904 0.330182 0.112261 -0.168707 -0.436751 0.364458 -0.001516 -0.240989 0.217379 0.099810 0.242938 0.007152
75 0.110924 0.073101 -0.104149 -0.613458 -0.350602 -0.517479 0.449979 0.671163 0.540345 0.228055 0.007475 -0.229060 -0.039906 -0.508661 0.081075 -0.328681 0.664331 0.125351 -0.260503 -0.348905 0.229410 -0.665677 0.099071 -0.258532 -0.130560 0.403982 0.070406 0.280972 0.564952 -0.128980 -0.692100 0.073964 -0.513858 0.013152 -0.035977 -0.184089 -0.150083 -0.124333 0.273362 -0.373392 -0.413512 0.404790 -0.415866 0.190864 0.916477 -0.077968 -0.064220 0.227337 0.286671 0.153786 0.378985 0.305044 0.340074 -0.129399 0.004677 0.082324 0.122862 -0.100566 -0.587230 0.146995 -0.239446 -0.280849 -0.904574 -0.656048 0.459899 -0.049537 0.193871 0.033535 0.166014 -0.082551 0.456354 0.178867 0.011867 -0.129602 0.006048 0.589479 -0.474158 -0.370748 0.162699 0.343518 0.281996 0.566676 -0.268425 0.051749 -0.151282 0.430214 -0.727849 0.375082 0.014906 0.149186 -0.215249 0.125337 0.310161 0.300227 -0.663459 0.064261 -0.186833 -0.441236 0.258048 -0.652928 -0.337397 -0.195052 0.319526 0.127558 0.323920 -0.254539 0.022728 -0.201463 0.234204 -0.078066 0.263331 0.011395 0.401792 0.425325 0.073362 -0.104637 -0.758807 0.069339 -0.252921 0.370476 0.289046 -0.324332 -0.598749 -0.650370 0.120287 0.173202 0.098948 -0.827097
133 0.278217 0.007023 -0.377347 -0.203511 0.420325 0.237820 0.066178 -0.105550 -0.099564 -0.348878 0.687359 0.021873 -0.192943 -0.460605 -0.270468 -0.693100 -0.004535 -0.313141 -0.084178 0.616050 0.024094 -0.161703 0.008538 -0.052579 -0.603820 0.214099 0.214200 -0.190387 0.183311 -0.146382 0.166539 0.657806 -0.701540 0.180523 0.161794 0.088615 0.344142 0.014656 0.141719 -0.673400 0.499853 0.518869 -0.262827 0.401341 -0.087931 0.071775 0.018221 -0.510577 0.715709 0.164588 0.023988 -0.444527 0.431137 0.900091 -0.638792 -0.479503 0.099132 0.154714 -0.113209 0.194917 -0.747716 0.150533 -0.589500 -0.433521 0.013143 0.001684 -0.114185 -0.132840 -0.645504 -0.557281 -0.231659 1.095191 0.070466 -0.343873 0.247362 0.056623 0.276250 -0.085182 0.239993 0.133661 0.092882 0.427234 0.076667 -0.308545 -0.383563 0.013353 -0.062191 -0.038144 0.161595 -0.302897 -0.189824 1.260110 -0.108067 0.227147 -0.347925 -0.595061 -0.505888 0.096870 -0.251827 0.051973 -0.980690 -0.192781 0.225082 -0.810528 -0.113537 0.478533 0.236918 0.108331 -0.368666 0.210064 -0.370375 -0.296054 -0.249800 -0.364467 0.794289 0.395369 -0.366698 1.050539 0.436331 -0.227626 -0.072505 -0.152319 0.043439 -0.650704 0.102855 -0.085079 -0.277557 -0.582622
157 0.331282 0.015824 -0.416822 -0.186454 0.343537 0.210490 0.028826 -0.111631 -0.032146 -0.353745 0.746923 0.007840 -0.170215 -0.485475 -0.253493 -0.675979 -0.004139 -0.224422 -0.135894 0.621006 0.057645 -0.203404 0.019344 -0.089559 -0.614506 0.161538 0.267520 -0.169016 0.262686 -0.127733 0.224535 0.640417 -0.714531 0.241293 0.081397 0.000332 0.400616 0.022227 0.112225 -0.673436 0.407990 0.509980 -0.214517 0.426766 -0.056113 0.105047 0.118423 -0.493475 0.689962 0.213860 -0.013189 -0.436287 0.331725 0.994498 -0.685610 -0.540029 0.007574 0.253655 -0.252933 0.236675 -0.739527 0.162285 -0.645976 -0.538833 0.000911 -0.014154 -0.023202 -0.101747 -0.591217 -0.561139 -0.294327 1.062045 0.081526 -0.354678 0.330383 -0.029970 0.328784 -0.117040 0.298658 0.109700 0.120830 0.391763 0.075764 -0.208009 -0.414517 -0.025120 -0.008975 -0.107014 0.133946 -0.256054 -0.186431 1.226100 -0.031889 0.212333 -0.416656 -0.606885 -0.439365 0.018317 -0.231805 0.111248 -1.027963 -0.199000 0.303307 -0.835894 -0.095717 0.437997 0.112377 0.122503 -0.373693 0.249135 -0.410132 -0.229126 -0.215008 -0.474398 0.722010 0.422690 -0.343644 1.035288 0.462614 -0.172415 -0.038890 -0.051628 0.060928 -0.641953 0.026074 0.011988 -0.262336 -0.627088
11 0.052742 0.345604 -0.168429 0.316930 0.749042 -0.048489 0.602367 0.217566 0.040139 -0.058149 0.400249 0.290928 -0.316408 -0.035198 0.280228 -0.319486 0.231434 -0.348876 -0.488704 -0.450100 -0.171645 -0.443956 -0.069554 -0.180212 0.189780 -0.058626 -0.554201 -0.301224 -0.433597 -0.197433 0.646521 -0.068403 -0.280658 0.022371 -0.091837 -0.026028 0.365559 -0.288648 0.325816 -0.459598 0.012300 -0.130633 0.058014 0.112190 0.138726 0.157270 0.383063 -0.314411 0.016259 -0.056364 0.018253 0.591711 0.320656 0.418695 -0.125055 -0.030730 0.307946 0.116682 -0.219945 -0.556084 0.655787 -0.106417 -0.559728 -0.342515 -0.302999 0.467782 -0.468347 -0.040004 -0.010718 -0.304752 0.146344 -0.285379 0.175103 0.040692 0.943400 -0.723685 -0.131047 -0.133494 -0.117128 -0.039266 -0.104949 0.295991 -0.337140 -0.395125 0.129463 0.014281 -0.812202 0.201232 0.044944 0.028428 0.177853 0.240509 0.975432 0.162112 0.046407 -0.148152 -0.256187 -0.077315 -0.383994 0.218908 -0.278858 -0.079657 -0.088096 -0.335784 0.073639 0.076702 0.131357 0.142542 0.037734 0.301801 0.052576 -0.157283 -0.244504 0.449490 0.334645 -0.541643 0.367606 0.231886 -0.070619 0.101152 0.371911 -0.220382 -0.206210 -0.015154 -0.202796 -0.366980 -0.089620 -0.244667
57 -0.111725 -0.090762 -0.213291 -0.069636 -0.110784 -0.196817 0.473185 1.017625 0.358422 0.240667 0.023261 -0.141855 0.259442 -0.442262 -0.209623 0.085700 0.096570 -0.212918 -0.559451 0.723086 0.046787 -0.029948 0.070858 0.280167 -0.152658 -0.059146 -0.151739 -0.157618 0.010530 -0.017557 -0.722621 0.007380 0.018707 0.347891 -0.011742 -0.008738 0.074581 0.083401 0.371256 -0.656033 0.134141 0.175970 -0.114644 -0.090295 0.185888 0.062652 -0.238497 0.022255 0.093113 -0.082289 -0.244607 0.428135 0.036091 -0.030693 -0.253425 -0.528186 0.685739 0.255783 0.259272 -0.087566 -0.183087 0.292466 -0.095504 -0.478199 0.233917 -0.151766 0.002601 -0.082347 -0.185488 0.001478 0.155177 0.236317 -0.095635 -0.531294 0.229833 -0.292633 -0.174255 0.143960 -0.619214 0.781252 -0.377311 0.534518 -0.231871 0.006277 0.062764 0.037430 -0.817749 0.031884 0.023814 0.028997 0.233611 -0.156372 -0.243446 0.307630 -0.271596 -0.186905 0.349442 0.123459 -0.134808 -0.155050 -0.181587 0.057335 -0.038336 -0.281219 0.218171 0.303720 -0.229065 0.181784 0.291243 0.302721 1.102193 0.166165 -0.126555 -0.173034 0.168296 -0.075955 0.360867 0.313580 0.444680 0.131290 -0.614173 0.020872 -0.198399 -0.267071 0.020471 -0.102467 -0.057371 -0.131179
78 0.490625 0.116507 -0.754109 0.434192 0.392862 -0.591826 0.126289 0.357793 -0.386964 -0.165180 0.313536 -0.062737 0.077294 0.273136 0.601887 -0.211267 0.646715 0.057931 -1.084297 -0.328213 -0.272991 -0.498394 0.229803 0.293531 0.479407 -0.003852 -0.176666 -0.448057 -0.397675 0.083724 0.368212 0.730277 -0.356702 0.183724 -0.025086 0.152696 0.004961 -0.318448 0.833928 0.468817 -0.066619 0.918946 0.148703 0.185840 -0.011742 -0.308370 0.187309 0.550169 -0.116240 -0.110847 -0.079132 0.267204 -0.306945 0.372992 -0.120081 -0.287651 0.063283 -0.427938 -0.047182 0.266490 -0.092875 -0.040090 0.159465 -0.591103 0.802800 0.036124 -1.223869 0.530908 -0.668660 0.279796 0.155131 -0.101139 0.152176 0.015815 0.346179 -0.267364 0.312439 -0.409590 -0.381337 0.491202 -0.010914 0.062741 -0.054876 -0.263271 -0.341291 -0.130653 -0.408938 -0.009323 0.077711 -0.307169 -0.101505 -0.360310 0.425970 0.380180 0.012744 0.260759 -0.164015 0.189853 0.083398 -0.052903 -0.565123 0.228378 0.130383 -0.292893 -0.011109 0.330874 -0.013633 0.240771 -0.219974 0.473139 0.232962 0.216544 0.606798 0.719119 1.119937 0.323976 -0.187791 -0.022583 0.477409 -0.049363 0.025627 -0.258819 0.595202 0.046962 -0.006525 -0.498039 -0.263304 -0.282197
98 -0.021104 0.124248 0.076508 0.091951 0.437886 0.029939 0.311427 0.340837 -0.085857 -0.209285 0.418138 0.297869 0.059836 -0.013849 0.171888 0.054479 0.595395 0.408705 -0.589940 -0.272691 -0.131634 -0.330847 -0.170529 0.124109 0.399627 -0.127806 -0.467038 -0.291973 -0.439387 0.324581 0.294754 0.457932 -0.201372 0.189371 -0.299311 -0.264381 0.258994 -0.425506 -0.094390 -0.276712 0.101555 0.384678 -0.197395 0.486910 0.032604 0.066669 0.227394 -0.154439 -0.051400 -0.322780 0.030162 0.789485 0.271050 0.475560 -0.128811 -0.131230 0.554798 -0.030022 0.222379 0.000373 -0.004614 0.069373 -0.162852 -0.449815 0.034317 0.443112 -0.779738 -0.212483 0.142124 -0.198872 0.506337 -0.240258 0.084126 0.324388 0.435888 -0.571127 -0.267391 -0.308346 -0.262344 0.307812 0.303842 0.125869 0.069315 -0.024345 0.260899 -0.162409 -0.348604 0.112757 -0.043586 -0.045734 -0.358076 0.226460 0.770400 0.448112 -0.187002 -0.288757 -0.300474 -0.033978 0.228120 -0.325463 -0.313596 0.046025 -0.228016 -0.021470 0.121303 0.276440 0.195288 0.105917 -0.309945 0.095726 0.120678 -0.424610 0.061171 0.335951 0.172827 -0.199292 0.028481 0.308801 -0.025150 -0.272134 0.058196 -0.206297 -0.059984 -0.074448 -0.642546 -0.413334 0.123389 0.260128
120 -0.587807 -0.114491 0.129794 0.047696 -0.027658 -0.246818 0.515689 0.773058 0.232864 -0.023893 -0.203671 0.258039 -0.400867 -0.980013 -0.478664 -0.114910 0.187631 0.048720 -0.449839 0.328717 -0.088531 -0.353481 -0.007227 0.316618 -0.231915 -0.164372 -0.493200 -0.337504 0.099892 -0.341130 -0.013642 -0.213572 -0.413306 -0.148731 0.113637 0.274229 0.046956 0.015042 0.142148 -0.459228 -0.035183 0.266542 -0.261184 0.230035 0.220559 -0.115738 0.519765 0.572266 -0.211472 -0.323877 0.345944 0.003929 -0.121900 -0.170487 -0.114358 -0.414989 0.400624 0.119479 0.147794 -0.250993 -0.398009 0.499755 -0.687558 -0.000607 0.045163 0.147653 0.180115 0.125791 -0.294061 0.438738 -0.097260 -0.212481 0.031467 -0.325353 0.165855 -0.279140 -0.166872 -0.150542 -0.398269 -0.075934 -0.202915 0.352490 0.190300 -0.158326 0.036545 -0.139987 -0.505616 0.440076 -0.130456 0.351051 0.224600 -0.059269 0.166052 0.015930 -0.248412 0.045831 -0.131031 0.333732 0.587584 -0.176385 -0.656334 -0.088312 -0.163159 0.164504 0.175429 -0.044888 -0.031329 0.063345 0.163960 0.015046 0.561491 -0.189766 0.066416 0.210618 0.000824 0.126540 -0.141276 0.401514 0.208704 0.202636 -0.751779 0.000405 0.043058 -0.524851 0.325228 0.191479 0.200749 -0.468918
2767 0.002644 -0.009392 0.178739 -0.052194 0.146699 -0.326818 -0.064708 0.065884 0.291078 -0.033598 0.055920 0.348704 -0.392272 0.317295 0.249580 -0.356993 -0.477275 -0.571647 -0.203834 -0.245461 0.191410 -0.261534 -0.141020 0.395317 -0.225492 -0.370522 0.018924 -0.462072 0.084256 -0.001082 -0.969532 0.580363 0.444323 -0.170273 0.234399 0.305572 0.124566 -0.123208 0.303483 0.581840 -0.305912 -0.285968 0.157891 0.169623 0.193704 0.362483 -0.032956 0.205280 -0.494982 -0.193635 -0.294682 -0.203493 0.011735 0.237862 0.000775 -0.217958 0.339555 -0.408541 -0.396003 -0.085846 -0.681811 0.098044 -0.065694 0.058625 -0.067563 0.269644 -0.335362 0.169852 0.483082 -0.089406 0.021569 -0.022613 0.081525 -0.119970 0.787073 0.212323 0.168401 -0.093577 0.011429 -0.040377 0.476961 -0.392951 -0.374207 0.296892 -0.034824 0.096386 -0.866802 -0.195195 0.402463 -0.195416 0.021910 0.743388 0.166221 -0.259016 0.043526 0.277900 -0.103257 -0.668221 0.384721 -0.381295 0.120582 0.547872 -0.051614 0.143054 -0.475603 -0.194104 -0.191981 0.280781 0.142150 -0.000725 0.137280 0.370261 0.161282 -0.406618 0.423487 -0.230611 -0.078131 0.203915 0.491515 -0.181773 -0.668377 -0.086541 0.173615 -0.582779 -0.120121 0.287880 -0.080590 0.302758
97 -0.063340 -0.101986 0.086571 -0.143748 0.330977 -0.380884 0.098603 0.278123 -0.007194 0.218073 0.689782 0.042574 -0.016163 -0.031772 0.099144 -0.328856 0.748060 0.199856 -0.379819 -0.067057 -0.398532 -0.229190 0.015775 -0.123892 0.584962 -0.510059 -0.373194 -0.289658 -0.066121 0.262845 0.297078 0.388884 -0.523121 -0.038208 -0.109388 -0.368977 0.262281 -0.101331 0.257227 -0.402843 0.045375 0.009634 0.180835 0.342770 -0.010763 0.216449 0.136356 -0.244517 -0.164219 -0.005165 0.473557 0.740154 -0.005341 0.992354 -0.118285 -0.218087 0.430319 -0.306378 -0.167802 -0.029641 -0.194261 0.496060 -0.260336 -0.890349 0.295057 0.488110 -0.765244 0.368478 -0.152159 -0.718331 0.450521 -0.141951 0.469688 0.055306 0.513024 -0.443742 0.109815 -0.165449 0.209573 0.296092 0.176379 0.062625 0.512165 -0.096545 -0.019319 -0.170610 -0.015579 0.531769 0.084067 -0.037045 0.099229 -0.271786 0.610183 0.164665 0.123904 0.123808 -0.626772 -0.073531 0.071422 -0.142475 -0.573749 0.098606 0.013568 0.350366 0.209697 0.220469 0.479652 0.002730 -0.139350 0.469552 -0.089267 -0.351225 0.060965 0.421151 0.096842 -0.381230 0.029097 0.101469 0.087338 -0.358787 0.314648 -0.094232 -0.326459 -0.000898 -0.396752 -0.020347 0.040568 0.107261
118 -0.565615 -0.179841 -0.014028 0.044974 0.051242 -0.143437 0.389581 0.673637 0.350895 0.006429 -0.217712 0.307031 -0.357856 -0.937651 -0.360622 -0.157915 0.277846 0.207740 -0.357676 0.439903 -0.074404 -0.311244 0.096443 0.467560 -0.107898 0.114617 -0.596334 -0.391335 0.163020 -0.347143 -0.017758 -0.371782 -0.607241 -0.133658 0.101129 0.177028 0.084213 0.175381 0.056793 -0.462139 -0.130583 0.295578 -0.383524 0.168104 0.351552 -0.153884 0.502047 0.422953 -0.260030 -0.441110 0.422532 0.044689 -0.041200 -0.209426 -0.050114 -0.375106 0.367519 0.178306 0.164682 -0.252505 -0.303592 0.327974 -0.619143 -0.078144 0.046800 0.178968 0.074146 0.284311 -0.117519 0.456549 -0.138150 -0.300871 0.154695 -0.435979 0.155274 -0.336041 -0.119157 -0.098170 -0.378280 -0.043250 -0.105889 0.276205 -0.087538 0.078508 0.048783 -0.239912 -0.450517 0.457890 -0.157691 0.319025 0.341434 -0.180718 0.240442 -0.045208 -0.415148 -0.040495 -0.323094 0.152943 0.676635 0.013455 -0.626715 -0.060648 -0.234844 0.211413 0.040995 0.118344 -0.128479 0.140105 0.139412 0.019070 0.549749 0.018961 0.106025 0.155749 0.026577 0.119988 -0.141604 0.469562 0.283688 0.164236 -0.844406 0.123100 0.109242 -0.492824 0.191856 0.262718 0.144634 -0.415370
1302 0.032181 0.339922 0.604507 0.315010 0.056358 -0.301527 0.380773 0.637194 -0.236427 0.426303 0.176998 -0.042042 -0.150041 -0.378741 -0.335131 -0.354005 0.659010 -0.239494 0.036967 0.153920 -0.177456 -0.080076 -0.102323 0.425501 -0.636049 -0.058984 -0.583895 -0.286780 -0.103685 -0.022382 0.009247 -0.329307 0.156711 0.357765 0.152966 0.060860 -0.050949 0.192267 0.178305 -0.236750 -0.115784 0.384181 -0.613158 -0.288895 0.242372 0.051597 0.253582 0.246001 0.033547 0.242490 0.348357 0.396088 0.153008 -0.174379 0.130422 -0.971592 0.325118 0.140552 -0.161924 -0.186299 -0.435150 -0.533489 -0.339179 -0.825992 -0.159377 -0.092535 0.208319 -0.251264 0.315861 -0.111237 0.244257 0.282989 0.347182 -0.423638 0.351201 -0.175405 0.010921 -0.471549 -0.512726 0.017673 -0.607382 0.566734 0.018592 -0.160673 0.288848 0.446044 -0.171354 0.182391 -0.318686 0.390950 -0.170480 -0.055058 -0.001742 0.227484 -0.571303 -0.324395 0.152621 -0.382346 0.425177 -0.659644 -0.090491 -0.337442 -0.083278 0.549395 0.307122 -0.242701 0.207340 0.163757 -0.009603 0.250177 0.398484 0.504170 0.540849 0.384355 0.446147 -0.285129 0.417268 0.274214 0.077285 0.701611 -0.601560 0.465039 0.168594 -0.590822 -0.108524 0.416718 0.010880 -0.478820
42 -0.196999 -0.211742 0.231035 -0.098237 0.407971 -0.145774 0.213724 0.057521 -0.225555 0.178044 0.386258 0.106048 -0.185684 -0.462310 0.276082 0.093352 0.596589 0.177936 -0.485339 -0.117896 -0.063611 -0.048904 0.095535 0.082546 0.158589 0.006127 -0.318178 -0.722329 -0.588395 0.108571 0.134205 0.290446 -0.241996 0.037877 -0.290370 -0.036886 0.139320 -0.676625 0.283006 -0.315087 -0.198279 0.070677 0.011670 0.445033 0.257146 0.087468 0.091491 0.096133 -0.083653 -0.237076 0.113923 0.463527 0.394384 0.501549 0.083204 -0.301941 0.539915 -0.274333 -0.083053 0.185527 -0.026809 0.040655 -0.220825 -0.280876 0.241164 0.876108 -0.911516 -0.211211 -0.010401 -0.294607 0.751657 -0.146587 -0.041492 0.381442 0.658160 -0.426774 0.090967 0.040720 -0.197881 0.513094 0.432785 0.206481 0.532237 0.493292 0.154679 -0.169811 -0.188200 0.342416 0.051068 -0.131900 0.294367 0.270708 0.888121 0.811736 -0.235089 -0.036955 -0.386773 -0.106653 -0.091777 -0.371200 -0.340808 -0.078401 -0.061833 0.400913 0.081729 -0.206671 0.131356 0.036039 -0.227081 -0.147351 -0.094566 -0.474367 -0.284650 0.239433 0.415032 -0.634065 -0.077026 0.319542 -0.114341 -0.039212 0.192220 -0.180556 -0.048377 0.087796 -0.701618 -0.291444 -0.181961 0.086345
47 -0.031681 -0.081581 0.116506 0.023516 0.124327 0.005525 0.116773 0.054683 0.400087 -0.090049 0.296241 0.076341 -0.009909 0.144995 0.045656 -0.048306 -0.014531 -0.138639 -0.435696 0.064455 0.071776 0.082271 -0.129767 0.218053 0.202981 -0.323130 -0.092299 -0.117533 -0.037425 -0.071667 -0.342406 0.493956 0.021606 -0.419140 0.089099 -0.129839 0.168249 0.248415 -0.098429 0.033687 -0.048373 -0.081956 0.215902 0.027087 -0.061261 0.184244 -0.061319 -0.120375 -0.055583 0.094707 -0.146481 -0.155954 -0.231373 -0.074769 0.202825 0.036933 0.229491 -0.123133 -0.309671 -0.165058 -0.114728 -0.076800 -0.287909 0.225531 0.058929 0.181622 -0.263840 0.220461 0.076840 0.087875 0.035349 -0.102257 0.335957 -0.099274 0.243183 -0.007029 0.076314 0.072080 0.163199 -0.175927 0.421662 0.262861 -0.166028 -0.102308 -0.103961 0.067542 0.103973 -0.138537 0.198216 0.308235 0.030748 0.034793 0.118651 -0.239613 -0.276595 0.065978 -0.008865 -0.310399 -0.264485 -0.302784 -0.057459 0.016414 0.011876 -0.104237 -0.332518 0.174915 0.226140 -0.097259 0.322534 0.132303 0.025852 0.146964 -0.082998 0.172027 0.224491 0.022109 -0.056467 0.263610 0.149936 -0.314559 -0.333275 0.100782 0.263041 -0.310111 0.110191 -0.002689 -0.070432 0.188150
92 -0.052770 -0.048434 0.055186 0.016212 0.099997 0.035725 0.169605 0.036366 0.411503 -0.065291 0.279452 0.089463 -0.041241 0.134174 0.043137 -0.036241 0.034420 -0.101364 -0.427665 0.042368 0.082826 0.090015 -0.029755 0.246545 0.262011 -0.297475 -0.050573 -0.090404 -0.044655 -0.076661 -0.356116 0.535595 0.005113 -0.390160 0.097856 -0.116047 0.147157 0.304155 -0.100458 0.139722 -0.034885 -0.115454 0.197773 0.078075 -0.032891 0.159778 -0.065202 -0.122635 -0.098938 0.155773 -0.119729 -0.148723 -0.172615 -0.018869 0.283565 0.061409 0.214572 -0.105232 -0.254650 -0.114588 -0.096209 -0.094567 -0.246085 0.235791 -0.006827 0.216419 -0.188170 0.249952 0.077308 0.094357 0.048406 -0.075488 0.269742 -0.070432 0.209022 -0.031223 0.095835 -0.014640 0.200892 -0.118974 0.399891 0.216648 -0.146438 -0.036637 -0.075458 0.119168 0.070121 -0.169281 0.161674 0.316076 0.025093 0.147365 0.093467 -0.253152 -0.299218 0.066100 -0.026412 -0.260286 -0.290599 -0.268423 0.013893 0.010027 -0.024126 -0.171868 -0.300219 0.233990 0.212297 -0.071861 0.289745 0.149828 0.030134 0.153177 -0.097795 0.207086 0.205606 -0.083793 -0.035879 0.252509 0.151696 -0.322850 -0.392346 0.151360 0.275877 -0.288863 0.152707 -0.026562 -0.095899 0.188740
91 -0.039864 -0.033018 0.155676 0.002407 0.136231 0.078349 0.152482 0.090977 0.366232 -0.096608 0.295158 0.043549 0.000268 0.136517 0.024473 -0.051812 0.013935 -0.164730 -0.454431 0.066479 0.124108 0.081231 -0.064113 0.247708 0.234833 -0.267329 -0.135723 -0.101524 -0.037270 -0.109621 -0.327651 0.537224 0.033508 -0.412330 0.107057 -0.136543 0.175894 0.286463 -0.071174 0.061793 -0.037610 -0.120167 0.197615 0.063393 -0.007967 0.124402 -0.062579 -0.057929 -0.099399 0.123333 -0.156330 -0.182185 -0.250750 -0.104500 0.237640 0.056511 0.234969 -0.127560 -0.260566 -0.105108 -0.063871 -0.105215 -0.283050 0.174647 0.032738 0.217163 -0.227761 0.228210 0.076798 0.050297 0.013723 -0.076377 0.322053 -0.068903 0.274168 0.018399 0.079725 0.069589 0.188594 -0.205300 0.379254 0.215706 -0.187177 -0.121958 -0.074713 0.101634 0.106087 -0.186172 0.197125 0.278435 -0.020211 0.085011 0.056659 -0.219563 -0.290855 0.092790 0.049290 -0.218519 -0.231918 -0.325018 -0.043050 -0.061263 0.017842 -0.085206 -0.304010 0.131511 0.281362 -0.061862 0.316674 0.115322 0.030797 0.160833 -0.113394 0.175056 0.262206 -0.065436 -0.002985 0.222032 0.156446 -0.331906 -0.296628 0.103602 0.302133 -0.278364 0.080878 -0.055472 -0.008075 0.172892
88 -0.092095 -0.118070 0.073053 0.071684 0.146270 0.069435 0.157657 0.042793 0.421654 -0.074350 0.272082 0.040430 -0.028622 0.110723 0.032360 -0.039353 -0.075352 -0.137117 -0.418274 0.056396 0.112593 0.093549 -0.087324 0.267504 0.255433 -0.251863 -0.095976 -0.089210 -0.049678 -0.090087 -0.311188 0.524179 0.016732 -0.399096 0.112155 -0.151507 0.165999 0.264083 -0.066327 0.057397 -0.015804 -0.107185 0.145024 0.020969 0.019909 0.181729 -0.045571 -0.087621 -0.041279 0.188554 -0.138679 -0.187056 -0.222301 -0.081491 0.225068 0.063884 0.206065 -0.116768 -0.295103 -0.076148 -0.075602 -0.081361 -0.268614 0.203985 0.031737 0.211598 -0.279292 0.278373 0.069728 0.068865 0.043783 -0.112260 0.260319 -0.020133 0.285624 0.033020 0.140915 0.021996 0.147478 -0.122189 0.382178 0.156983 -0.161668 -0.055973 -0.117670 0.083160 0.103699 -0.140567 0.203385 0.346593 0.076363 0.091586 0.048537 -0.244030 -0.316146 0.106844 -0.018267 -0.265371 -0.257985 -0.322493 0.015012 -0.043115 -0.015440 -0.153099 -0.312123 0.209739 0.198549 -0.077376 0.292453 0.109647 -0.008530 0.162444 -0.095625 0.227366 0.257360 0.002207 0.022505 0.216823 0.130097 -0.241938 -0.346225 0.094062 0.200228 -0.322403 0.076592 -0.012470 -0.083923 0.189564
2224 -0.269453 -0.264200 -0.138502 0.100296 -0.128284 -0.493672 0.773140 0.596137 0.325391 0.217806 0.589527 -0.055878 -0.037680 -0.462748 -0.227377 -0.008652 0.413343 -0.257187 -0.392536 0.513754 0.283679 -0.083332 0.575243 0.314694 -0.330026 -0.179075 -0.643466 -0.342706 -0.340057 -0.300781 -0.165780 -0.115178 -0.261537 0.093676 0.026090 -0.034347 0.305620 -0.084620 0.554474 -0.353210 -0.063784 -0.067799 -0.101794 0.239627 0.133708 0.076701 0.319363 -0.193915 0.290208 -0.222122 -0.325833 0.356754 0.178652 -0.299688 -0.546812 -0.293409 0.103999 0.245112 0.133184 0.224377 -0.099371 -0.162256 -0.009874 -0.386699 0.433600 0.048765 0.246783 -0.383431 0.047123 0.242930 -0.349514 0.096782 -0.057846 -0.517530 0.083317 -0.054737 -0.093324 -0.006058 -0.396638 0.585265 0.078570 0.583606 0.081601 -0.101607 0.174675 -0.084094 -0.340202 0.079808 -0.192975 0.459848 0.226396 -0.503748 0.076883 -0.115383 -0.536305 -0.217797 -0.261234 -0.369681 0.053774 -0.042416 -0.255762 0.005838 -0.213365 -0.132163 -0.089818 0.243184 0.076938 0.265183 -0.197739 0.401364 0.487393 0.098091 0.049381 -0.427806 0.178980 0.266671 -0.250999 0.158008 0.014355 0.304259 -0.268788 -0.319787 0.059392 -0.113929 -0.087291 0.415948 0.211334 -0.448065
1766 0.620934 -0.087000 0.147525 0.084528 -0.100833 0.063313 -0.338631 0.024937 -0.093419 0.120349 -0.192447 0.367626 -0.007203 -0.369634 -0.035096 -0.028357 -0.455244 -0.166723 -0.096518 -0.336580 0.163525 0.257746 -0.057364 0.185540 -0.035730 -0.128381 -0.487037 0.080356 -0.329327 0.022211 -0.529666 -0.048348 -0.154312 0.052261 0.243731 0.264906 0.138983 0.284542 -0.057160 0.511652 -0.094722 -0.056254 -0.122451 0.456733 -0.160390 0.573397 0.013555 0.203402 0.094870 -0.051589 0.085237 0.204060 -0.393720 -0.013012 0.515499 -0.444734 -0.135713 0.119771 0.077081 0.536030 0.401922 -0.056550 -0.252039 -0.186466 0.015451 0.577759 -0.093512 -0.116066 -0.430022 -0.262080 0.438559 -0.258803 0.056296 0.008068 0.226232 0.337628 0.069335 -0.164764 0.241915 0.147537 0.241695 0.396211 -0.289503 -0.493775 0.245665 0.383051 -0.281307 -0.540420 -0.061920 0.066868 0.136954 -0.090669 0.094158 0.234808 -0.754249 -0.068625 0.112155 -0.289729 -0.302577 -0.161837 -0.169633 0.102028 0.366913 -0.436888 -0.238187 -0.292421 0.545312 0.317861 0.133306 0.297429 0.119678 -0.007879 0.306944 0.351723 0.274498 0.012315 -0.021370 0.462565 -0.074328 -0.472698 -0.531814 -0.029758 0.353002 -0.399381 -0.409145 0.113939 0.011169 0.198051
1765 0.655478 -0.058714 0.186435 0.022175 -0.096305 0.073423 -0.334676 0.025514 -0.108011 0.123892 -0.190829 0.378195 0.038923 -0.393068 -0.052461 0.069068 -0.415986 -0.192420 -0.078669 -0.319039 0.159459 0.253456 -0.022825 0.126159 -0.026545 -0.142001 -0.410173 -0.000768 -0.363294 0.030423 -0.501975 -0.076411 -0.052381 0.071760 0.187549 0.219096 0.167466 0.300871 -0.023270 0.538703 -0.042259 -0.006887 -0.045033 0.516718 -0.178378 0.591213 0.019271 0.154862 0.098479 -0.086245 0.068831 0.148576 -0.366972 -0.014624 0.449569 -0.441784 -0.087009 0.147388 0.185311 0.502404 0.382856 0.007767 -0.257575 -0.219288 -0.008581 0.510098 -0.148375 -0.089515 -0.366989 -0.189090 0.402331 -0.340895 -0.016929 0.012031 0.287152 0.335130 0.036875 -0.243068 0.278722 0.142691 0.320740 0.382317 -0.354605 -0.436762 0.176432 0.378369 -0.257254 -0.506279 -0.025003 0.054666 0.036382 -0.147835 0.177828 0.276974 -0.692506 -0.106489 0.136805 -0.322432 -0.338610 -0.081570 -0.147450 0.116740 0.401956 -0.414329 -0.319077 -0.272977 0.523131 0.317105 0.130955 0.305310 0.135220 0.068509 0.266561 0.322477 0.286301 0.052390 -0.005020 0.515053 -0.128485 -0.562740 -0.539972 0.015328 0.311937 -0.379172 -0.394143 0.182410 0.029673 0.066486
2337 0.357290 -0.002073 0.032589 -0.061439 0.210691 0.187632 -0.109034 -0.217370 0.229639 0.169199 0.211502 0.061345 -0.235127 -0.080225 0.166374 -0.428879 -0.187438 -0.480307 -0.354093 0.175850 -0.131172 -0.297327 0.046287 0.315340 -0.111129 -0.260457 0.239210 -0.062436 -0.527886 -0.082994 -0.280213 0.497415 0.094051 -0.037041 0.043823 -0.285317 0.007106 0.073113 -0.105120 0.250427 -0.048241 0.026071 0.023763 0.318234 0.235350 0.153493 0.103621 0.001322 0.101707 -0.087040 -0.041873 0.262030 -0.109365 0.060503 0.359532 -0.164991 0.259202 -0.153695 -0.402573 0.056643 0.129421 -0.035664 -0.011572 0.225195 -0.492740 -0.300392 0.010018 -0.037039 -0.067928 0.074164 0.149634 0.314353 0.324456 -0.082723 0.407034 0.010211 -0.073701 -0.397336 0.090960 0.137439 0.486061 0.317670 -0.164074 0.073044 -0.488160 -0.004295 -0.001301 -0.206923 0.014074 0.610298 0.089780 0.091113 0.088360 -0.281562 -0.344168 0.375764 0.284647 -0.068650 -0.200782 -0.225066 -0.099892 0.052170 -0.003036 -0.071554 -0.515933 0.293580 0.414605 0.211249 0.025959 -0.024398 -0.079723 -0.081331 0.037805 -0.014830 -0.097225 -0.230826 -0.199022 0.360763 0.071698 -0.243286 -0.312589 0.230097 0.125558 -0.121028 -0.137163 0.069610 0.068717 -0.170995
25 -0.256510 -0.478965 -0.164105 -0.419539 -0.215002 -0.019242 0.333259 0.257694 0.484921 0.016302 -0.243485 -0.288224 0.405608 -0.498934 0.168474 -0.242895 0.075750 0.022640 -0.182592 0.336089 -0.023316 -0.272178 0.549250 0.146653 0.007271 -0.237079 -0.509582 -0.299111 0.032464 0.207626 0.100582 0.142716 -0.007057 -0.174871 -0.437318 -0.019115 0.061462 0.149085 -0.121853 -0.504883 -0.397136 0.127407 -0.073813 0.056965 0.186215 0.234583 0.375929 0.286602 0.341683 -0.270441 0.005614 0.198000 0.547902 0.034005 -0.515690 -0.250983 0.503934 -0.378680 0.182798 0.261300 -0.171031 -0.365781 -0.288181 -0.141397 0.408124 -0.028205 0.206541 -0.012535 -0.055048 0.236015 -0.176735 0.058423 -0.225578 -0.254720 0.241997 -0.093681 0.019729 -0.230953 0.040331 0.264681 -0.415267 0.486940 -0.008222 -0.304643 -0.101353 0.075262 -0.478330 0.293183 -0.299441 0.290402 0.012675 -0.034409 0.300351 -0.043050 -0.621448 -0.256847 0.234408 -0.061687 0.098179 0.137614 -0.436387 -0.207890 -0.580750 0.339078 0.464034 -0.044577 0.116380 0.290988 0.340625 0.086603 0.457357 0.399540 -0.137326 0.139463 0.416738 -0.125057 -0.201578 0.339792 0.151234 -0.099157 -0.456497 -0.232042 -0.259434 -0.234661 0.379313 0.110765 0.419982 -0.144512
985 -0.336990 -0.081335 0.247581 -0.221907 0.350486 -0.071391 0.077509 0.227024 -0.263315 0.274237 0.282782 0.151701 -0.234954 -0.344613 0.313993 0.226201 0.609128 0.278162 -0.616561 -0.085844 0.064026 -0.118850 -0.050428 -0.117737 0.160122 -0.074098 -0.349013 -0.716404 -0.753661 0.019487 -0.080516 0.423650 -0.349424 0.044313 -0.503593 -0.093693 0.079547 -0.722989 0.255907 -0.197732 -0.199903 0.083089 -0.075709 0.508838 0.135445 0.113445 0.093366 0.188688 -0.097276 -0.345148 0.204220 0.558735 0.416547 0.365291 0.126152 -0.344924 0.527795 -0.303905 0.013346 0.092378 -0.026623 -0.068045 -0.244748 -0.306968 0.245141 0.939930 -0.955275 -0.068246 0.123237 -0.388509 0.753773 -0.162670 -0.075234 0.461487 0.616823 -0.470037 0.222724 0.058998 -0.253864 0.571103 0.579017 0.312916 0.559894 0.451970 0.187109 -0.098346 -0.406974 0.448599 -0.130077 -0.107688 0.191600 0.548189 0.914418 0.895000 -0.271760 -0.094763 -0.457003 -0.206328 0.111309 -0.625928 -0.352461 -0.063102 -0.042100 0.611231 0.031949 -0.219503 0.323580 -0.014190 -0.513265 -0.188246 -0.044032 -0.530769 -0.286915 0.042237 0.374990 -0.557399 -0.051777 0.319162 -0.043647 0.131083 0.188504 -0.321521 -0.166448 -0.035677 -0.657918 -0.424665 -0.032068 0.050596
10 -0.246127 0.500613 0.027411 0.324995 0.646232 -0.074620 -0.072647 0.105074 0.374845 -0.066732 0.446275 0.160643 -0.048973 0.145616 0.176083 -0.054982 0.411500 -0.030788 -0.391831 -0.176396 0.158255 -0.131602 -0.163484 0.069117 0.174634 -0.161530 -0.507977 -0.388429 -0.476962 -0.226836 0.456017 0.121704 -0.123755 0.178809 -0.248794 -0.053179 0.092648 -0.480900 0.330640 -0.088496 0.075372 0.111678 -0.075664 0.148446 0.348640 0.323465 0.489835 -0.209637 0.257296 -0.542146 0.073966 0.297036 0.460092 0.560032 -0.214894 -0.040806 0.714876 -0.115632 -0.212734 -0.319155 0.558772 -0.018338 -0.503653 -0.411482 -0.030446 0.396500 -0.600020 -0.350486 -0.043734 -0.335596 0.445731 -0.000080 -0.036867 0.024301 0.957082 -0.630654 -0.185795 -0.330543 0.016387 0.055776 0.213986 0.345050 -0.163303 0.178251 -0.155544 -0.252385 -0.716610 0.441025 0.363289 0.068500 -0.084646 -0.038121 0.892368 0.496457 -0.123119 -0.353430 -0.616273 0.171586 -0.270892 -0.191532 -0.288353 -0.121631 -0.073050 -0.308985 0.204985 -0.105388 0.260154 -0.118003 -0.091163 0.082150 0.003939 -0.301698 0.018998 0.322044 0.368301 -0.486399 0.273280 -0.099752 -0.019532 -0.151913 0.160907 -0.312899 -0.178189 -0.113914 -0.428205 -0.428565 -0.052153 0.205721
26 -0.184545 -0.373028 -0.087364 -0.320613 -0.077365 -0.316907 0.368469 0.557212 0.536532 0.103477 0.087116 -0.321969 0.079344 -0.557784 -0.415382 0.045883 0.276859 0.018194 -0.569881 0.297725 0.169472 -0.237657 0.779824 0.350327 -0.463202 -0.025080 -0.292051 0.033525 0.087661 -0.041309 0.205577 0.332214 -0.011808 0.120535 0.064404 -0.233308 0.293012 -0.393201 0.503856 -0.246623 -0.256093 0.383848 -0.346730 -0.036172 -0.036184 0.202071 0.080077 0.031399 -0.011973 -0.104956 0.060053 0.037572 0.171457 0.028649 -0.269653 -0.348581 0.367459 0.005655 0.017889 0.205241 -0.113643 -0.411398 -0.367945 -0.392013 -0.030737 -0.159556 0.346041 0.097663 -0.060909 0.395368 0.359111 0.050847 -0.098059 -0.238084 -0.066763 -0.053874 -0.017002 -0.283835 -0.126476 0.482561 -0.025449 0.284045 0.085108 -0.421671 0.031788 0.264831 -0.315804 0.323697 -0.059176 0.077686 -0.122455 -0.469331 0.382820 -0.095761 -0.239617 -0.034427 0.126285 0.056579 0.164660 -0.008898 -0.411444 0.211021 -0.305448 0.245062 0.360157 0.289477 -0.136760 0.100087 0.353832 0.422992 0.096415 0.175956 0.030556 -0.377415 0.334785 -0.366739 -0.174899 0.509737 0.103795 0.147987 -0.246970 0.008975 -0.352566 -0.316982 -0.011738 0.182788 0.136282 -0.012547
44 -0.288464 0.108843 -0.092842 0.429906 -0.179116 -0.182122 0.225374 0.164396 0.222105 0.175484 0.421040 -0.299924 -0.399774 0.037591 -0.360590 0.062383 0.213156 -0.142011 -0.463137 -0.071167 0.137692 0.122546 -0.375500 0.375672 0.168051 0.034649 -0.036713 -0.325551 0.421983 -0.190790 -0.210195 0.388374 -0.598315 0.539286 0.328342 -0.153431 0.036968 0.047104 0.235490 -0.367872 -0.598394 0.490107 -0.246910 0.216427 0.396212 0.054918 0.643792 0.340140 -0.291060 -0.892571 -0.089965 0.270469 0.497226 -0.275884 -0.740130 -0.662029 -0.162143 -0.245579 0.044858 -0.371889 -0.089791 -0.408145 -0.402189 -0.924969 0.519589 0.184634 -0.130480 0.338484 0.008551 0.759563 0.168786 0.066191 -0.238516 -0.700733 0.182968 0.157703 0.025566 -0.221291 -0.619313 0.641322 0.103432 0.569490 -0.421882 -0.199292 0.313736 0.165750 -0.714492 0.302797 0.232350 -0.173972 0.211911 -0.188545 -0.057526 -0.548232 -0.645709 0.031350 0.294601 0.846129 -0.062486 0.173043 -0.338166 -0.022327 -0.311439 0.455278 0.323842 0.107312 0.026246 -0.144362 0.177990 0.118380 0.179492 0.192196 0.117666 0.131199 -0.376845 -0.057531 -0.623214 0.599805 -0.009691 -0.064393 -0.418252 0.491250 -0.424310 -0.188901 0.286533 -0.161786 -0.074589 -0.492157
2766 0.347972 -0.031738 0.031841 -0.051872 0.159529 0.152416 -0.108329 -0.260107 0.179756 0.172895 0.187397 0.012889 -0.310993 -0.033030 0.105287 -0.476915 -0.233504 -0.385086 -0.392128 0.170645 -0.227229 -0.196801 0.080824 0.300381 -0.140079 -0.180584 0.172952 0.031435 -0.595176 -0.118458 -0.277352 0.480913 0.164833 -0.081725 0.080589 -0.303922 0.047215 0.010882 -0.061658 0.202728 -0.071449 0.007251 -0.031905 0.335087 0.186340 0.124104 0.159067 -0.017619 0.039475 -0.060179 -0.074594 0.353363 -0.197819 0.073352 0.320804 -0.132511 0.278014 -0.165371 -0.329228 0.080725 0.107464 -0.000622 -0.030473 0.168996 -0.438921 -0.247995 0.037402 -0.082296 -0.113697 0.082960 0.151786 0.275834 0.289826 -0.055625 0.451162 0.088067 -0.145473 -0.345096 0.056699 0.156269 0.465319 0.353589 -0.138458 0.151291 -0.516911 0.024485 0.036628 -0.251546 0.051636 0.598590 0.008018 0.070164 0.059286 -0.314847 -0.303054 0.334716 0.226716 -0.025650 -0.196202 -0.191870 -0.157365 0.052744 0.080336 -0.131689 -0.555906 0.258613 0.408237 0.173522 0.019145 -0.104295 -0.084652 -0.117595 0.047226 0.018983 -0.076890 -0.290777 -0.197456 0.355046 0.057232 -0.163574 -0.420787 0.212787 0.096198 -0.094956 -0.109798 0.104381 0.006189 -0.182654
191 0.738215 -0.351354 -0.366067 -0.042278 -0.236655 -0.862076 0.574601 -0.232825 0.517643 -0.488526 0.943444 -0.812586 0.150102 0.477446 -0.001584 0.045717 0.008871 -0.175119 -0.916308 0.443288 0.347882 -0.980575 0.450256 0.351113 0.515522 -0.203417 0.416865 -0.546486 0.286133 0.113927 -0.096124 -0.030425 0.445787 0.345579 0.643256 -0.275569 0.233551 0.178576 0.174656 -0.877670 0.162986 -0.567322 -0.615325 0.589915 0.390065 -0.115636 0.250310 -0.075786 0.979506 0.298562 0.759474 0.696601 -0.377096 0.907135 -0.023862 -0.536245 -0.123817 -0.581106 0.236733 -0.284264 -0.050139 0.309311 0.555018 -1.333455 -0.019579 0.564847 -0.614920 0.217528 -0.743483 0.195445 -0.306599 0.118742 0.748093 0.360320 0.406255 -0.243874 0.637954 0.172759 0.522968 0.106928 -0.112653 0.120311 0.338790 -0.402660 -0.278123 0.526449 -1.064283 -0.657176 0.537247 0.446025 0.240318 0.106823 -0.246168 -0.237900 -0.922404 -0.201189 -0.570578 0.004857 -0.273550 0.348215 -1.083577 0.102102 0.091084 0.152401 0.249403 -0.156839 -0.502477 -0.042145 0.020899 0.409412 -0.471875 -0.268173 1.508908 -0.238228 0.589476 -0.228056 -0.547665 0.157303 0.002743 0.451641 -0.116781 0.412978 0.303036 -0.282932 0.108071 -0.718522 0.734334 -0.913780
192 0.704910 -0.316741 -0.276001 0.036731 -0.281490 -0.836520 0.607033 -0.144575 0.543180 -0.517275 0.988136 -0.843966 0.241657 0.429296 -0.052140 0.108163 0.042258 -0.186174 -0.930691 0.388783 0.248881 -1.009819 0.503418 0.419684 0.426507 -0.143231 0.469303 -0.478530 0.276448 0.072697 -0.141127 -0.027024 0.466972 0.379364 0.592292 -0.209664 0.202482 0.093680 0.156368 -0.857021 0.182756 -0.607933 -0.628599 0.692330 0.354677 -0.090362 0.252125 0.014475 0.915326 0.244868 0.680950 0.670094 -0.302658 0.914628 -0.046525 -0.528267 -0.153228 -0.634062 0.319274 -0.233410 -0.075311 0.308141 0.620689 -1.252208 0.054986 0.575363 -0.661375 0.236504 -0.721335 0.263854 -0.320681 0.101354 0.831986 0.342356 0.329914 -0.323677 0.711411 0.170887 0.557864 0.154546 -0.144744 0.101969 0.351119 -0.462637 -0.253832 0.514570 -1.137123 -0.706180 0.546205 0.464384 0.212251 0.084272 -0.141120 -0.181988 -0.962541 -0.210266 -0.566269 0.022706 -0.364034 0.351117 -1.056634 -0.000814 0.113879 0.194473 0.105627 -0.233444 -0.515106 -0.013336 0.029476 0.340774 -0.495551 -0.266230 1.469813 -0.229461 0.572097 -0.238842 -0.575840 0.221952 0.066159 0.522457 -0.139182 0.519748 0.251723 -0.314043 0.192606 -0.788358 0.769675 -0.841894
122 -0.246402 -0.398015 -0.193938 -0.148822 -0.071430 -0.284874 0.573679 0.391234 0.586354 0.242048 0.057053 -0.167772 0.412366 -0.478110 -0.129145 -0.136578 -0.000579 -0.242477 -0.332140 0.142651 0.208331 -0.060860 0.465542 0.402091 -0.465703 -0.171618 -0.309871 -0.170526 -0.100200 -0.232933 0.045395 0.138795 -0.078724 -0.109973 -0.205090 -0.044557 0.131093 -0.383707 0.324581 -0.206419 -0.315212 0.261056 -0.084663 -0.122953 0.122459 0.146342 0.261996 -0.042379 0.010024 -0.138728 0.084080 -0.059324 0.425515 0.050521 -0.366739 -0.480318 0.354792 -0.014440 -0.031970 0.349899 -0.174372 -0.133169 -0.260592 -0.291142 0.245752 0.011398 0.231464 -0.022466 -0.252333 0.090846 0.063286 0.074010 0.001798 -0.369951 -0.199929 -0.167274 0.058039 -0.236342 -0.299112 0.367375 0.048830 0.371308 -0.054474 -0.127228 -0.044504 0.345411 -0.528955 0.108974 -0.148309 0.259841 0.272992 -0.655760 0.206212 0.189243 -0.389078 -0.433163 -0.021342 0.070009 0.061929 -0.112747 -0.268654 0.189965 -0.423866 0.245587 0.417501 0.338761 -0.199290 0.122730 0.133222 0.264973 0.304361 -0.041633 0.078906 -0.131253 0.089016 -0.124878 -0.257922 0.412086 0.270155 0.097840 -0.102771 -0.015465 -0.176456 -0.400182 0.163079 0.342266 0.170921 -0.076701
27 0.418644 0.497417 -0.447738 -0.360640 0.356679 -0.306610 0.197034 0.711707 -0.487401 0.092393 -0.003946 -0.088078 0.107098 0.374433 0.178017 -0.205232 0.415120 -0.286373 -0.454237 -0.806255 -0.311423 -0.281950 0.317243 0.787085 0.092206 -0.007126 -0.227947 -0.000743 -0.671998 -0.354049 -0.126994 -0.073410 -0.410228 -0.105988 0.073589 0.071840 0.099542 -0.152566 0.189939 -0.013235 -0.201402 0.504691 0.058401 0.053494 0.448282 0.032857 0.302327 0.239176 -0.289656 -0.289095 0.445220 0.040274 0.307729 0.692037 0.302871 -0.224904 0.495214 -0.583906 0.078896 0.394778 0.048326 0.083997 0.000553 -1.022967 0.170949 0.375870 -1.433395 0.597968 -0.728619 -0.057136 0.211343 0.186153 -0.442684 0.251684 0.142160 -0.576930 0.557120 -0.547678 0.003219 0.277540 -0.344766 0.281336 -0.099129 -0.386004 -0.198946 -0.511246 -0.135498 0.602384 -0.291963 0.023591 -0.159060 -0.102413 0.177681 0.326560 -0.282331 0.214129 -0.424569 -0.033512 -0.474186 -0.459025 -0.546530 -0.045110 0.463702 -0.901726 0.128563 0.502214 0.244399 0.600938 0.105143 0.285106 0.196133 0.233522 0.210360 0.371887 0.653788 0.092962 -0.337474 -0.336899 -0.053851 -0.819436 0.189137 -0.138324 -0.034482 0.258709 -0.505571 -0.325211 -0.465500 -0.245667
81 -0.627138 -0.818023 -0.866110 -0.933439 0.627206 -0.708693 -0.067266 0.551317 0.528719 -1.304420 0.393566 0.739745 0.819718 -0.015926 -0.759143 -0.419696 0.007426 0.478388 -1.156052 0.382948 0.205176 -0.771667 0.216213 0.275528 -0.276625 0.283721 -0.417316 -0.991313 0.009333 0.571702 0.076176 1.344867 -0.615548 1.026643 0.080164 -0.871386 0.040945 -0.260723 0.693221 -0.184463 -0.529298 -0.278114 -0.341707 -0.475973 0.085976 -0.251137 -0.391145 -0.184904 -0.336174 -0.087106 -0.506362 0.384390 0.236652 -0.274742 0.706918 -0.186658 0.086799 -0.182019 -0.045102 -0.251786 0.177335 -0.118940 -0.404655 -0.768231 -0.504115 -0.282992 -0.309137 -0.602679 -0.291406 0.078265 0.944994 -0.405752 0.933429 -0.290803 0.650983 0.684916 0.342004 -1.050366 0.704427 0.487275 0.208230 -0.560523 0.462102 -1.550530 -0.159613 0.632111 0.003694 -0.260369 -1.101714 0.669004 0.116868 0.509173 0.617423 0.456391 -0.396507 -0.367726 -0.391990 0.593573 0.320941 0.252791 -0.212637 -0.286432 0.137341 0.421499 -0.184054 0.808354 0.539979 -1.081014 -1.104182 0.136598 0.013332 0.561360 0.255398 0.230188 0.438758 -0.096144 0.242454 0.097874 0.240380 0.018752 -0.698642 -0.063321 -0.755765 -0.229197 -0.604120 0.346453 -0.986312 -0.610560
80 -0.678575 -0.826762 -0.858124 -0.933303 0.527058 -0.723703 -0.051274 0.516603 0.492465 -1.302674 0.416564 0.717706 0.771310 -0.091983 -0.699592 -0.410895 -0.016886 0.528565 -1.153333 0.394272 0.184317 -0.745425 0.243311 0.252557 -0.280033 0.251275 -0.348976 -0.891073 0.035835 0.494548 0.076562 1.345334 -0.587540 1.050932 0.103008 -0.921078 0.123558 -0.258848 0.719604 -0.252311 -0.549008 -0.235442 -0.302253 -0.444122 0.098780 -0.345505 -0.441048 -0.166859 -0.446746 -0.005551 -0.507352 0.339988 0.219732 -0.278833 0.747703 -0.221079 0.130383 -0.178351 -0.057508 -0.259467 0.192964 -0.211589 -0.454201 -0.881424 -0.464056 -0.229580 -0.262363 -0.619889 -0.181657 0.131612 0.977871 -0.374352 0.925294 -0.251050 0.701064 0.660671 0.275800 -0.989628 0.600990 0.444547 0.201038 -0.543427 0.415823 -1.573481 -0.155744 0.579983 -0.015073 -0.308017 -1.171110 0.632171 0.067796 0.445131 0.649374 0.461226 -0.467864 -0.350696 -0.404770 0.571237 0.327557 0.324279 -0.199152 -0.271025 0.054916 0.400270 -0.292782 0.742382 0.595894 -0.966770 -1.092614 0.145451 -0.012549 0.589488 0.237827 0.195154 0.423171 -0.128416 0.212845 0.057214 0.210821 0.029081 -0.678987 -0.069676 -0.767819 -0.181783 -0.516351 0.312259 -0.982581 -0.638844
20 -0.088447 -0.086769 -0.057828 -0.556268 -0.025986 -0.320943 0.301511 0.495537 0.484396 -0.200285 0.065748 0.004804 0.355538 -0.568504 -0.291151 -0.141602 0.193823 -0.245210 -0.555629 -0.267392 0.069583 -0.081041 0.160402 0.096581 -0.288666 -0.165546 -0.209877 -0.081621 0.104822 0.025082 0.182003 -0.151254 -0.230216 -0.146193 -0.265825 0.012209 0.134076 0.186559 0.613657 -0.259047 0.019057 0.442329 -0.214719 -0.086725 0.336351 -0.010572 0.428801 -0.286879 0.195977 -0.234597 -0.150901 0.227554 0.552173 -0.007021 -0.145487 -0.095303 0.649523 -0.100449 -0.006726 0.128266 -0.155181 -0.042756 -0.053985 -0.147990 0.136267 -0.026989 0.118532 -0.002575 -0.186416 0.150206 0.091567 -0.094028 -0.193511 -0.104434 -0.058131 -0.134305 0.263198 -0.259244 0.023200 0.546749 -0.071287 0.458279 0.001266 -0.124938 0.130262 0.260940 -0.425577 0.425029 -0.101512 0.289224 0.308398 -0.231581 -0.107801 -0.048672 -0.308686 -0.403383 0.441185 0.114863 0.303975 0.001826 -0.294800 -0.046939 -0.318744 0.278105 0.227438 0.091098 -0.025562 -0.079077 0.336410 0.273280 0.315542 0.257995 -0.017928 0.226721 -0.005306 -0.241789 -0.398965 0.395741 0.407654 0.202972 -0.535045 -0.023199 -0.191063 -0.529620 0.162222 0.390073 0.182994 -0.023434
21 -0.067018 -0.070288 0.013137 -0.574476 -0.047931 -0.243598 0.346684 0.591197 0.516027 -0.217635 0.001168 0.018001 0.299020 -0.518474 -0.229286 -0.206869 0.101915 -0.216652 -0.574832 -0.210844 0.150440 -0.132515 0.142012 0.129442 -0.268655 -0.032702 -0.292512 -0.106403 0.136540 0.023425 0.219181 -0.054952 -0.202692 -0.099637 -0.234279 0.022439 0.213513 0.132169 0.668621 -0.302686 -0.068954 0.398904 -0.265780 -0.200635 0.303039 0.018912 0.451504 -0.190451 0.229227 -0.236035 -0.230170 0.187337 0.514165 0.044420 -0.105430 -0.070965 0.578009 -0.081691 -0.022611 0.143283 -0.048725 -0.037690 0.006024 -0.181829 0.223919 -0.130198 0.136782 0.017878 -0.284148 0.230994 0.074267 -0.107824 -0.145995 -0.090166 -0.072910 -0.193388 0.226691 -0.250401 0.115957 0.512188 -0.078108 0.430115 0.030730 -0.022167 0.058871 0.229984 -0.443117 0.380681 -0.064906 0.308681 0.267178 -0.219783 -0.086066 -0.100781 -0.304834 -0.459206 0.479659 0.174415 0.335285 -0.089183 -0.328379 -0.111365 -0.338042 0.307928 0.381029 0.058211 0.038110 -0.092793 0.258160 0.278791 0.281628 0.274070 -0.021990 0.229665 -0.006173 -0.192432 -0.340714 0.359535 0.366248 0.192021 -0.524931 -0.072258 -0.131589 -0.643388 0.092084 0.367594 0.167356 -0.041050
7 0.077794 0.145452 -0.098313 0.143736 0.663722 -0.009881 0.849801 -0.173199 -0.013664 0.081049 0.498850 0.421043 0.474692 -0.109293 0.121013 -0.607124 0.519840 -0.158336 -0.633555 -0.688426 -0.132392 -0.516584 -0.250809 -0.219555 0.428542 -0.098023 -0.461819 -0.262386 -0.328228 -0.347052 0.440852 0.114418 -0.640220 0.253118 -0.141939 0.353868 -0.164078 -0.425816 0.327287 -0.715567 -0.294378 -0.082437 0.295257 0.084693 -0.094759 -0.456653 0.000323 -0.452941 -0.114946 0.014926 -0.245652 0.686846 0.356150 0.330639 0.130614 -0.256058 0.355293 -0.181237 -0.239009 -0.520551 0.596675 0.126259 -0.317162 -0.554553 -0.480369 0.692243 -0.105213 0.293246 0.069743 -0.340189 -0.291912 -0.004364 -0.089132 0.053293 0.982713 -0.640409 -0.383747 -0.060538 -0.185188 -0.160032 0.086724 0.147252 -0.679475 -0.067270 -0.140519 -0.457512 -0.807182 -0.189257 0.036414 -0.306633 0.580996 0.303493 0.832420 0.137588 0.044666 -0.402990 -0.264839 -0.489873 -0.313272 0.262027 -0.590739 0.204756 -0.344050 -0.302991 -0.077641 0.169555 0.426447 0.069176 0.291454 0.321991 -0.172351 0.311910 -0.105974 0.164530 0.174769 -0.536572 0.181367 -0.017081 -0.061477 0.209428 -0.195570 -0.162910 -0.168473 -0.130363 -0.496132 -0.427961 -0.047154 -0.433860
79 0.031844 -0.093746 -0.432485 0.112940 0.500400 0.038701 0.579139 0.037278 0.499580 -0.748088 0.290250 -0.119543 -0.025608 -0.280505 -0.839911 -0.696908 0.039512 -0.156501 -0.210586 -0.021537 -0.228921 -0.332008 -0.285653 -0.570165 0.338420 0.385854 0.205485 -0.256260 -0.400884 0.195084 -0.388481 0.258003 0.080702 -0.061989 -0.203500 0.945016 0.483792 -0.131955 0.362455 -0.259474 0.237852 0.358767 0.190629 0.280871 -0.189898 0.019034 0.638829 -0.115427 0.157449 -0.271206 0.149209 -1.334833 0.312680 0.480985 -0.127943 -0.404414 0.050427 0.287763 0.440609 0.200929 0.017712 -0.072969 -0.173463 -0.698483 -0.150165 -0.267912 -0.362747 -0.410879 0.241166 -0.725245 0.457405 0.970857 0.356946 -0.227478 0.611495 0.055429 0.784357 -0.446643 0.194813 0.130083 -0.172613 0.500638 0.077340 0.110281 -0.422967 0.072531 0.448499 0.026593 0.337847 0.250819 -0.114204 0.530434 0.199041 -0.638142 -0.187576 -0.907108 -0.291584 -0.544478 0.398774 0.233914 -0.900926 -0.375112 -0.192888 -0.294532 0.075555 -0.445353 0.218392 -0.153556 -0.139193 -0.357829 0.303671 -0.384638 -0.207183 0.237692 0.660836 0.191505 -0.496639 0.952523 0.208413 -0.137128 -0.480983 -0.397895 -0.655192 -0.860018 -0.010378 -0.567623 -0.100533 -0.586628
31 0.049534 -0.188396 -0.335547 0.312817 0.492456 -0.207075 0.331609 0.285193 0.041078 -0.407359 0.654663 0.289176 0.369928 -0.533980 0.106927 -0.484117 0.115211 0.265725 -0.413754 -0.503016 -0.379544 -0.766475 0.067263 0.397143 -0.052495 -0.109834 -0.462031 -0.306860 -0.657508 0.333330 0.277542 0.111821 -0.102738 0.108167 0.153934 0.204377 0.771534 -0.520929 0.221283 0.139846 0.088718 0.595460 0.202966 0.129044 0.585748 0.022196 -0.443303 -0.229678 -0.228271 -0.608466 0.637559 0.143301 -0.203848 0.751792 -0.089551 -0.102941 -0.018210 -0.478699 0.000112 -0.443382 -0.493473 -0.106529 -0.104150 -0.751481 0.153336 0.175787 -1.072453 -0.036146 0.608924 0.079089 0.192628 -0.691350 -0.031391 0.405820 0.218076 -0.688299 0.077436 -0.069769 -0.017464 -0.012446 0.121918 0.393633 0.224465 0.481493 0.116140 0.096996 -0.415614 0.689842 -0.389022 0.143536 -0.322107 0.464338 0.120388 0.060525 -0.209524 -0.214134 0.032095 -0.064868 0.354144 -0.447951 -0.612555 0.004800 -0.632481 -0.588943 0.166215 0.269240 0.837140 0.379157 -0.107429 0.285940 0.271492 -0.248193 -0.047956 0.505171 0.307000 0.056414 0.246045 0.123818 -0.651368 -0.174526 0.232328 0.235913 -0.280409 -0.032055 -0.697085 -0.394103 0.064742 -0.014615
2425 0.207465 0.022407 0.032117 -0.534548 -0.325143 -0.508261 0.433845 0.470881 0.768037 0.277986 0.196894 -0.183529 -0.142595 -0.536547 0.194552 -0.233648 0.747349 0.082049 -0.163262 -0.382715 0.257420 -0.794051 0.077519 -0.252023 -0.145646 0.460342 0.026123 0.341155 0.577885 -0.297601 -0.669227 0.126558 -0.450068 -0.026643 0.081713 -0.344248 -0.146604 -0.203231 0.235067 -0.484178 -0.394634 0.479124 -0.476438 0.296800 0.945265 -0.186665 -0.051937 0.160567 0.427517 0.209687 0.450845 0.410335 0.143880 0.129344 -0.044269 0.149986 0.084768 -0.102322 -0.691161 0.265978 -0.248369 -0.168768 -0.888604 -0.721140 0.406508 0.007470 0.266686 -0.114097 0.111942 -0.262377 0.481240 0.334473 -0.050764 -0.197491 -0.054088 0.569393 -0.468880 -0.406290 0.212786 0.389505 0.313023 0.513259 -0.266869 0.087254 -0.179660 0.528086 -0.678406 0.329577 0.004211 0.226712 -0.408742 0.251883 0.198101 0.311114 -0.853438 0.110667 -0.290228 -0.609146 0.279617 -0.536774 -0.531696 -0.172059 0.396124 0.097973 0.378551 -0.266630 -0.169821 -0.236448 0.283356 0.076682 0.400058 0.065203 0.521827 0.563664 0.054705 0.040466 -0.784375 0.079326 -0.232059 0.428334 0.407120 -0.319319 -0.628713 -0.579354 0.030685 0.340885 -0.025734 -0.957917
2324 0.311355 0.049115 -0.042924 -0.114216 0.037201 -0.208748 -0.139044 -0.158508 0.110742 0.096768 0.138287 -0.017151 -0.249723 -0.071576 0.087612 -0.620777 -0.178831 -0.255546 -0.246614 0.263214 -0.261127 -0.018957 0.016945 0.181623 0.029094 -0.382553 0.134211 -0.031976 -0.301770 -0.123505 -0.225818 0.471129 0.020978 -0.129460 0.066171 -0.035147 0.108474 0.206681 -0.104020 0.069633 0.051043 0.058445 0.262414 0.107474 0.051525 0.146018 0.035224 -0.117267 -0.048238 -0.184161 -0.168485 0.246980 -0.083870 0.120377 0.428076 -0.051286 0.054688 -0.052251 -0.232121 0.154120 0.286724 0.036624 -0.057516 0.244457 -0.517948 -0.085725 0.010284 0.132546 0.174151 0.071606 -0.009410 0.248488 0.450566 0.366827 0.384883 0.248874 0.210722 -0.354202 -0.236379 0.178572 0.395009 0.331611 -0.079848 0.092460 -0.159854 0.348257 -0.166508 -0.118661 0.169871 0.642959 -0.103531 0.142039 0.241406 -0.004610 -0.379302 0.282236 -0.079091 -0.149050 -0.074733 -0.307069 -0.046571 0.098726 -0.009499 0.004840 -0.439142 0.162628 0.397476 0.044800 0.163655 0.191299 -0.064809 -0.133329 -0.081281 -0.095818 -0.133931 -0.216569 -0.230754 0.430253 -0.020355 -0.235007 -0.323043 0.180910 -0.060090 -0.140615 -0.108726 0.183575 -0.095187 0.030379
45 0.334996 -0.170301 0.225573 -0.187550 0.625990 -0.219871 0.588597 0.658916 -0.282979 0.005917 0.142079 0.362319 0.259277 0.159296 -0.097374 -0.537034 0.483712 0.137859 -0.297751 -0.323015 -0.315097 -0.992493 0.248961 0.212131 0.101363 -0.340328 -0.142051 -0.329123 -0.361979 0.194577 0.348849 0.518454 -0.664990 0.487928 -0.316820 -0.088132 -0.171216 -0.418468 -0.047247 0.173763 0.807318 0.002761 0.080507 -0.523695 -0.141224 0.155036 -0.666946 0.253064 -0.593977 -0.004836 0.619753 0.669368 0.180888 0.056532 -0.208833 -0.428958 0.748371 -0.081396 -0.330420 -0.040856 0.489483 -0.116621 -0.368241 -0.833188 -0.084582 0.315816 -1.043284 -0.656983 -0.407403 -0.023131 0.091559 0.235836 -0.089297 -0.356794 0.781278 -0.180173 0.210429 -0.078276 -0.073234 0.281291 0.380195 -0.331466 -0.773242 0.373801 0.154881 0.232640 -0.534268 0.813484 0.202052 0.515893 0.612225 0.261447 0.354634 -0.148166 -0.389701 -0.127235 -0.230697 -0.105876 0.021142 0.032738 -0.492400 0.052764 -0.182908 -0.453541 0.282803 -0.176699 0.466210 -0.033645 0.306163 0.126300 -0.704656 0.341405 -0.272273 0.492360 0.114412 0.002547 0.124777 0.022387 -0.132155 0.067273 -0.104263 -0.474732 0.472015 0.502442 -0.167455 -0.142813 0.192836 -0.520420
189 -0.016864 -0.015970 -0.422458 -0.235322 0.838133 -0.220732 0.401732 0.059530 0.360695 -0.329386 0.340129 0.743251 -0.277307 -0.536637 0.367646 -0.635507 0.064238 0.292422 0.369503 -0.133368 -0.598459 0.450039 0.759255 -0.205757 0.276663 -0.276831 -0.229908 -0.502836 -0.446364 -0.185036 -0.897626 0.210632 0.321355 1.094636 -0.140555 -0.310900 0.055828 -0.208769 -0.012945 -0.598188 0.177041 -0.040586 0.266865 0.182405 -0.257606 -0.005794 -0.108911 0.088112 0.460711 -0.236575 -0.584771 0.290410 0.834944 -0.805686 0.601551 -0.973556 -0.080024 0.152863 -1.017227 -0.202281 -0.172147 -0.106529 -0.840879 -0.951540 -0.445812 -0.342279 -0.807608 -0.398966 -0.377807 -0.473991 0.883024 -0.177686 0.487839 0.651345 0.762181 -0.715240 -0.347795 0.351802 0.315797 0.629114 0.082739 0.416056 -0.523073 -0.810005 0.528564 1.128980 -0.342104 -0.525131 -0.617783 0.515155 -0.002980 0.107360 -0.442645 0.611837 -0.563977 -0.595207 -0.338054 0.436769 0.736286 0.108130 0.007437 -0.512527 0.828124 -0.504720 0.298913 0.820651 0.552491 -0.674340 0.304888 0.047556 0.091928 0.182218 0.648172 0.310379 0.638117 0.107797 -0.240186 -0.235249 0.473057 0.226393 -0.906600 0.012048 -0.244751 0.216633 -0.085017 0.067964 0.004564 -0.155463
360 0.863603 -0.308663 0.727502 -0.593794 1.528008 -1.048282 0.003855 -0.336952 0.360618 -0.413227 0.462662 -0.547723 -0.140190 -0.718659 0.202366 -0.133828 0.074681 -0.213563 -0.202168 0.086417 0.754589 0.083919 -0.139301 1.295998 0.622244 0.270748 0.416564 -0.870598 -1.110591 -0.197084 -0.344330 -0.046265 -0.074817 -0.409606 0.153839 -0.585177 0.350316 -0.103566 0.084992 -0.604955 -0.331132 -0.641029 -0.613341 0.604491 0.594656 0.211095 -0.127835 0.277371 0.399389 0.834070 -0.478326 0.622483 0.989271 -0.489429 1.123677 0.290730 0.284988 -0.109472 1.005709 -0.637498 -0.206015 -0.422970 -0.113759 -0.600061 0.958737 0.173952 -0.288864 -0.181773 -0.560252 0.032986 -0.671180 -0.313449 0.036536 -0.064420 0.284222 -0.422024 0.301996 -0.241778 -0.269268 -0.271205 -0.644208 -0.094570 -0.815310 0.183517 0.540224 -0.067213 -0.554512 0.552458 0.474675 0.059049 0.368143 0.059928 0.293116 -0.161754 -0.983932 -0.573493 -1.146803 0.402312 -0.207687 0.397994 -0.786183 -0.376764 -0.223451 0.092202 -0.022706 0.649480 0.339886 -0.999942 0.784222 -0.236229 -0.182519 -0.875815 -0.107611 -0.345358 0.719058 0.048933 -0.197993 0.413802 0.540146 -0.062395 -0.143949 -0.307558 0.717411 -1.189089 -0.361725 -0.408762 0.300855 -0.613503
46 0.250452 -0.267951 0.596201 0.426622 0.930015 -0.217064 0.877932 0.143151 -0.212543 0.381335 0.014547 0.020751 0.380727 -0.050989 0.024531 -0.689715 0.141800 0.268686 -0.548392 0.017376 -0.028535 -0.532668 0.081405 0.275347 0.158468 -0.149214 -0.144115 -0.191744 -0.256703 -0.155170 0.444132 0.241354 -0.679071 0.220983 -0.116305 0.036145 -0.236999 -0.243193 0.089644 0.143591 0.347365 -0.059657 -0.014503 -0.445041 0.043722 0.043945 -0.056249 -0.113255 -0.837999 -0.538021 0.112196 0.873390 0.120632 0.229067 -0.255493 -0.314122 0.434580 0.092492 -0.077352 -0.047536 0.371551 -0.415058 -0.510123 -0.692477 0.076801 -0.092110 -1.063448 -0.347580 -0.476938 -0.072889 0.010806 0.032574 0.254051 0.273306 0.757141 -1.034228 -0.126904 0.152779 0.054148 0.337449 0.171142 -0.629216 -0.427122 0.172115 0.285991 0.007736 -0.368450 0.077748 0.328164 0.184825 0.372186 0.358422 0.560685 0.515236 -0.283395 -0.151478 0.270246 -0.163400 0.258767 0.044711 -0.533683 -0.049721 -0.159035 -0.605884 0.321058 -0.123554 0.369901 0.187173 0.138130 0.093087 -0.156135 0.190511 0.106351 0.665265 0.079140 -0.077672 -0.046482 -0.003465 0.136172 -0.342839 0.162319 -0.168266 0.182902 -0.235048 -0.442109 -0.004592 -0.062532 -0.561020
67 -0.358493 -0.151753 -0.640238 -0.354468 0.654888 -0.362881 0.469730 -0.673425 0.705639 -0.048350 0.387178 -0.433834 -1.052861 -0.415627 -0.404370 -1.280442 0.701646 0.122033 -0.894223 0.226451 -0.303073 -0.571417 -0.648921 0.230295 0.297465 0.364050 0.155839 -0.612878 0.590168 -0.240391 0.347078 0.383993 -0.052042 0.820785 0.277922 0.453435 -0.781961 -0.113530 0.148859 0.317199 0.056805 -0.195344 -0.677328 0.410488 0.118139 0.060490 0.190091 -1.138524 0.091520 -0.057459 0.126686 0.312477 0.204737 0.167140 -0.039048 -0.981983 0.240669 0.638017 0.397938 0.503822 0.411586 -0.260072 -0.612687 -0.844881 -0.113667 0.446918 -0.946657 -0.159453 -0.436658 0.008080 0.033199 0.439808 0.703685 -0.156173 -0.076081 -0.205810 -0.372093 0.217356 0.264915 -0.480926 -1.416919 0.515229 0.209869 -0.027971 0.494920 0.694337 0.224780 -0.133504 0.155348 -0.580977 -0.140229 -0.186483 0.402759 -0.190011 0.020658 -0.612829 0.150651 -0.664045 0.350220 -0.165865 -0.102569 0.020400 0.538448 -0.052732 0.285099 0.131205 0.280139 -0.198370 -0.145500 -0.156237 -0.414357 -0.119332 -0.298431 -0.140462 0.291552 0.030016 -0.105457 0.301278 0.774640 -1.238587 -1.889834 0.166677 0.060640 -1.125801 -0.346112 0.120611 -0.029017 -0.866779
1009 -0.135311 -0.281124 -0.187655 0.123412 -0.123575 -0.104431 0.454674 1.106024 0.431252 0.173309 0.000413 -0.123446 0.249332 -0.556486 -0.287290 0.154320 0.102106 -0.283199 -0.627962 0.914038 -0.046175 -0.119768 0.116261 0.155879 -0.056457 -0.166600 -0.155337 -0.256597 0.047270 -0.099683 -0.865981 0.114560 0.044298 0.512547 0.045070 -0.129241 0.043049 0.114696 0.472954 -0.617091 0.369137 0.152661 -0.103832 -0.134100 0.092209 0.171285 -0.417665 -0.021879 0.276544 -0.092204 -0.423472 0.558144 0.033273 0.074211 -0.299791 -0.607176 0.683990 0.390595 0.323918 -0.065912 -0.248922 0.317136 -0.126108 -0.409424 0.253107 -0.092542 -0.027916 -0.030029 -0.005471 -0.150003 0.116427 0.135347 -0.171850 -0.600203 0.009313 -0.454533 -0.093299 0.200409 -0.685452 0.928117 -0.438905 0.581154 -0.229441 0.179900 -0.114975 -0.035192 -0.917075 -0.062541 0.079600 0.116834 0.318323 -0.164150 -0.155595 0.336601 -0.150802 -0.223599 0.182780 0.127866 -0.300519 -0.190061 -0.441924 -0.015842 0.052325 -0.360160 0.129499 0.290501 -0.163138 0.137771 0.368713 0.359381 1.179755 0.442308 -0.095709 -0.161733 0.280185 0.033501 0.435015 0.397870 0.571183 0.034626 -0.510843 0.102954 -0.091508 -0.219965 0.186103 -0.046828 -0.102958 -0.144175
184 0.137608 -0.028983 -0.243359 -0.274509 0.780100 -0.216291 0.376249 0.128690 0.412467 -0.475955 0.280163 0.600525 -0.082761 -0.324282 0.357945 -0.667142 -0.085943 0.308015 0.468710 -0.272886 -0.401015 0.484730 0.844714 -0.220292 0.297589 -0.267703 -0.208537 -0.469889 -0.439657 -0.140429 -1.127907 0.355677 0.143156 1.093108 -0.130273 -0.426430 -0.110698 -0.317990 0.081341 -0.667759 0.141050 0.111938 0.377384 0.200295 -0.016947 0.015748 -0.078480 0.268269 0.383655 -0.345685 -0.477143 0.130351 0.873242 -0.734767 0.517804 -0.971645 -0.074589 0.109696 -1.108091 -0.238590 -0.145393 -0.063575 -1.029282 -0.878030 -0.392635 -0.275189 -0.538728 -0.376502 -0.315408 -0.398944 0.663674 -0.202414 0.579376 0.641378 0.877768 -0.735066 -0.229283 0.341167 0.315538 0.581510 -0.006693 0.406458 -0.437707 -0.591059 0.558369 1.234300 -0.371246 -0.397495 -0.680019 0.557180 0.088860 0.294658 -0.469568 0.557731 -0.434083 -0.519328 -0.459087 0.622852 0.710975 0.055712 0.003044 -0.501098 0.754827 -0.563002 0.390607 0.874172 0.511410 -0.496429 0.276578 -0.260044 0.014121 0.204449 0.624136 0.398020 0.613858 0.126234 -0.248205 -0.320816 0.576216 0.125007 -0.780877 0.070149 -0.157333 0.088861 -0.147126 0.018667 0.038372 -0.298526
355 0.211721 0.138412 -0.788756 -0.005523 0.305977 0.868657 0.583216 0.749024 0.739074 -0.073385 -0.357270 0.336488 -0.460850 -0.756403 -0.234745 -0.694147 0.758051 -0.347738 -1.645197 0.031157 0.791095 -0.106061 0.161077 0.080910 0.329069 0.006484 0.316011 -0.414789 -0.317082 -0.318347 -0.601589 0.575936 1.225130 0.212406 0.040732 0.503573 0.571198 0.122212 -0.214105 0.067304 0.734177 -0.437399 0.193474 0.083735 -0.003123 0.138218 -0.008562 -0.131835 -1.003929 -0.697976 0.898739 1.060973 1.013446 -0.054852 -0.133857 -1.752060 -0.468927 -0.476643 0.613645 -0.464906 -0.740532 -0.764492 -0.157658 -0.418051 0.910750 0.211704 0.100812 0.693704 -0.095799 -0.660463 -0.563018 -0.041541 0.162608 -0.754741 1.393298 -1.186634 0.045297 -0.273068 -0.359092 0.988606 -0.486120 0.518733 -0.618671 -0.650778 -0.360172 0.288784 -0.097841 -0.468748 0.607015 0.224984 -0.196989 0.758975 -0.408312 0.834168 -0.455727 0.214599 -0.884579 0.247445 -0.113482 0.181552 -0.124673 -0.347588 1.072783 -0.059658 -0.707257 -0.296465 -0.009822 -0.787672 -0.183955 0.103411 0.930863 0.138908 0.321562 0.313143 0.414011 -0.106648 -0.075842 0.618849 -0.509569 0.269067 0.093768 -0.133691 0.610414 -0.499667 -0.168769 0.617199 -0.729309 0.334360
22 -0.054553 -0.137914 -0.083190 -0.195573 0.128411 0.075299 0.315064 -0.020213 0.250873 -0.115547 0.098053 0.136638 0.015503 0.086161 0.044005 -0.104350 -0.112057 -0.341231 -0.283041 0.095767 0.228178 0.008924 -0.103134 0.162788 0.076757 -0.493341 -0.321016 -0.028407 -0.145569 -0.225417 -0.342823 0.405926 0.051527 -0.174012 0.066493 -0.426036 0.213239 0.409320 0.094245 0.063764 -0.144890 -0.072291 0.204613 0.061981 -0.147009 -0.004500 -0.080001 0.009401 -0.140632 0.068945 -0.071596 -0.151121 -0.235354 0.072253 0.177941 0.130776 0.184517 -0.104732 0.081063 -0.143463 0.124414 -0.028132 -0.285637 0.041344 0.061789 0.164113 -0.268614 0.360703 -0.032569 0.020930 0.002172 0.008453 0.274700 -0.034042 0.068748 0.187613 -0.014286 0.002891 0.153664 -0.275237 0.356573 0.147178 -0.037820 -0.031773 -0.135365 -0.075037 0.014797 -0.045128 0.367709 0.198489 -0.172988 0.186931 0.126119 -0.162649 -0.398799 -0.046894 0.187128 -0.193501 -0.281436 -0.244064 -0.064952 0.117247 0.151359 -0.107790 -0.116280 0.116783 0.192641 -0.085024 0.158998 -0.060594 -0.031208 -0.053171 0.029581 0.268344 0.374671 -0.038204 -0.039701 0.302414 0.054737 -0.241103 -0.401263 0.159498 0.248944 -0.277283 0.119524 0.070347 -0.120084 0.329251
2511 0.583842 -0.041664 0.162413 0.044888 -0.089697 0.071698 -0.391812 0.022143 -0.091150 0.172888 -0.278995 0.347666 0.005018 -0.389229 -0.076424 0.022280 -0.441273 -0.232498 -0.097285 -0.297019 0.110507 0.244792 -0.011016 0.134280 0.027661 -0.262411 -0.335917 0.023998 -0.315548 -0.032400 -0.533211 -0.037164 -0.160312 0.097692 0.182802 0.144404 0.210265 0.260616 -0.051335 0.515431 -0.008413 -0.041025 -0.037281 0.533087 -0.234605 0.610428 0.008191 0.084782 0.089403 0.014803 0.084456 0.089996 -0.344077 0.029356 0.477753 -0.491794 -0.181890 0.210843 0.077061 0.477127 0.287120 0.071322 -0.242832 -0.199071 -0.002445 0.544384 -0.122590 -0.063052 -0.266683 -0.121095 0.397050 -0.303584 0.016033 0.058767 0.209839 0.401167 0.062226 -0.199613 0.221603 0.163039 0.331920 0.400694 -0.374128 -0.475308 0.212488 0.322962 -0.264830 -0.467895 -0.077427 0.067064 0.019114 -0.089530 0.191160 0.217356 -0.712874 -0.099109 0.120662 -0.242986 -0.360062 -0.205953 -0.143469 0.113145 0.306900 -0.403046 -0.303313 -0.300600 0.486948 0.259999 0.126618 0.300011 0.148585 0.077584 0.186383 0.360565 0.340892 0.030868 -0.075107 0.441306 -0.170009 -0.502816 -0.544914 -0.056876 0.347731 -0.395383 -0.415915 0.170702 0.029205 0.056898
2510 0.622560 -0.088444 0.051543 -0.010110 -0.106498 0.040431 -0.381326 0.033283 -0.101040 0.184771 -0.190578 0.410912 0.085276 -0.405959 -0.042779 0.066162 -0.459817 -0.271295 -0.111571 -0.322951 0.174712 0.215321 -0.018407 0.128000 -0.004987 -0.111834 -0.372800 0.067857 -0.379153 -0.002770 -0.521555 -0.006209 -0.169889 0.054816 0.216579 0.201311 0.150967 0.295451 -0.063867 0.490603 -0.053963 -0.014488 -0.070006 0.489035 -0.146425 0.539368 0.023058 0.130315 0.109201 0.037955 0.052051 0.128198 -0.311127 -0.049268 0.473647 -0.473304 -0.165569 0.106246 0.200008 0.504438 0.324964 0.012308 -0.221787 -0.165505 0.040250 0.569698 -0.160911 -0.160940 -0.343824 -0.137721 0.355526 -0.264784 -0.021560 0.096034 0.270720 0.346278 -0.001956 -0.184573 0.199982 0.176033 0.328062 0.359921 -0.335700 -0.565420 0.216690 0.447737 -0.208424 -0.482090 -0.063503 0.080612 0.072865 -0.092409 0.108182 0.138956 -0.699024 -0.069179 0.212142 -0.337604 -0.302263 -0.225671 -0.103900 0.033924 0.441294 -0.366870 -0.247465 -0.233695 0.449885 0.335999 0.101399 0.260640 0.159592 0.059743 0.233922 0.302592 0.321790 -0.039062 0.023654 0.466223 -0.112775 -0.576856 -0.494993 -0.029254 0.378221 -0.421724 -0.430060 0.105026 -0.009626 0.094181
83 -0.069829 -0.264074 -0.081643 -0.203792 0.072997 0.071140 0.260559 -0.091450 0.291255 -0.098982 0.012239 0.181765 -0.030418 0.055626 0.010399 -0.138765 -0.124638 -0.304114 -0.300174 0.021640 0.146963 0.019826 -0.103856 0.115659 0.053509 -0.476799 -0.347996 -0.067501 -0.155056 -0.137091 -0.441633 0.421926 -0.015464 -0.143772 0.085406 -0.359312 0.251317 0.474679 0.007717 0.039567 -0.101093 -0.029260 0.147828 -0.026492 -0.095071 0.008298 -0.072924 -0.011244 -0.157178 0.064245 -0.062715 -0.145852 -0.224841 0.078535 0.142020 0.069468 0.178618 -0.055827 0.026697 -0.244175 0.058835 -0.072448 -0.273547 0.044874 0.113747 0.205340 -0.300669 0.272205 -0.045509 0.045302 -0.019741 0.038569 0.267497 -0.008603 0.047594 0.181222 0.023997 0.097119 0.145583 -0.217874 0.329800 0.155600 -0.115326 -0.028757 -0.116317 -0.032228 0.053709 -0.072787 0.372457 0.284460 -0.182961 0.100828 0.168285 -0.120132 -0.308565 0.025567 0.134627 -0.206471 -0.380379 -0.278758 -0.127225 0.148906 0.119103 -0.030542 -0.226971 0.104211 0.205878 -0.110011 0.116288 0.038940 -0.009559 0.000719 0.052497 0.359277 0.279823 -0.076579 -0.077299 0.239859 0.055759 -0.159542 -0.418265 0.180565 0.189711 -0.159193 0.108542 0.049755 -0.146571 0.248845
70 -0.080153 -0.196951 -0.029074 -0.171836 0.124327 0.042451 0.264248 -0.057337 0.263401 -0.096082 0.077550 0.160985 -0.033140 0.084139 -0.015991 -0.144318 -0.145653 -0.329299 -0.345908 0.068647 0.190222 0.108781 -0.042449 0.069494 0.057845 -0.504441 -0.340452 0.019956 -0.111664 -0.101718 -0.416247 0.338838 0.010515 -0.044836 0.037761 -0.310758 0.260141 0.479822 -0.054868 0.025773 -0.129872 -0.026860 0.238182 0.067250 -0.092587 -0.009182 -0.079651 -0.061022 -0.111168 0.120914 0.013673 -0.183420 -0.265490 0.125180 0.198572 0.122407 0.172328 -0.093479 0.003517 -0.117201 0.066348 -0.135488 -0.236856 -0.005291 0.094135 0.245720 -0.292749 0.290278 -0.025215 0.141310 0.047813 0.040786 0.244237 -0.127467 0.046357 0.131723 -0.039812 0.013758 0.059357 -0.228633 0.383925 0.079796 -0.133141 -0.000852 -0.083131 0.026608 0.034157 -0.079617 0.378041 0.305197 -0.142685 0.110752 0.207961 -0.124636 -0.358005 -0.002267 0.142298 -0.186322 -0.285224 -0.266852 -0.035866 0.102644 0.085209 -0.140508 -0.234983 0.152270 0.198371 -0.128632 0.089925 -0.066151 -0.006321 -0.031401 0.041402 0.389037 0.339692 0.001302 -0.058025 0.179169 0.096070 -0.178501 -0.414295 0.140187 0.263269 -0.314431 0.095633 0.030811 -0.112494 0.281396
2356 0.515561 0.586567 -0.489753 -0.481228 0.538784 -0.273207 0.117168 0.806399 -0.688767 0.145847 0.025156 -0.465611 0.205093 0.456931 0.246855 -0.061607 0.530678 -0.662164 -0.424002 -0.687204 -0.173082 -0.379673 0.133736 0.907915 0.059943 -0.040193 -0.195092 0.077113 -0.569922 -0.494706 -0.269579 -0.024869 -0.412460 0.075710 0.204718 0.037150 0.270292 -0.055339 0.245395 0.241143 -0.070212 0.606958 0.062420 0.271470 0.338080 0.180374 0.183631 0.148056 -0.153555 -0.436408 0.672660 -0.272477 0.441328 0.881136 0.439981 -0.254919 0.564077 -0.723984 0.107022 0.298720 0.038081 0.130731 -0.032079 -0.953018 0.322763 0.410617 -1.475659 0.536029 -0.873559 -0.014588 0.169298 0.317833 -0.522773 0.283019 -0.010137 -0.660666 0.752727 -0.632062 -0.096979 0.307281 -0.385175 0.452883 -0.151468 -0.487040 -0.119996 -0.630272 -0.411488 0.669924 -0.337318 0.084846 -0.207295 -0.080406 0.123222 0.290428 -0.302532 0.243708 -0.441886 0.057409 -0.463493 -0.469251 -0.581167 -0.374135 0.413401 -0.949468 -0.021785 0.551963 0.418684 0.749461 0.056756 0.338822 0.218948 0.284329 0.259009 0.492264 0.878411 0.021448 -0.524730 -0.274351 0.030734 -0.711496 0.334799 -0.032835 -0.004601 0.393241 -0.543742 -0.321127 -0.590821 -0.198215
64 -0.121538 -0.175836 -0.079393 -0.185983 0.062201 0.020579 0.195178 -0.103682 0.242978 -0.067198 0.037281 0.179337 0.003072 0.045961 -0.014313 -0.147649 -0.151693 -0.288807 -0.302267 0.087394 0.213671 0.002296 -0.091026 0.103808 0.085002 -0.469754 -0.295696 0.061635 -0.187211 -0.124261 -0.381346 0.448566 0.022092 -0.162147 0.012070 -0.434482 0.298990 0.400863 0.042572 0.133976 -0.091905 -0.052958 0.183210 -0.045207 -0.164374 -0.084124 -0.080167 -0.030073 -0.119211 0.112860 -0.053472 -0.190332 -0.187855 0.029976 0.186597 0.068233 0.138034 -0.068380 0.084726 -0.236555 0.027345 -0.079429 -0.313139 0.073517 0.056613 0.248920 -0.304849 0.326814 -0.040029 0.067691 0.039893 0.001926 0.191840 -0.032251 0.042169 0.132797 0.064326 -0.001280 0.172459 -0.249662 0.344932 0.197217 -0.143152 0.006711 -0.024007 -0.019348 -0.000816 -0.050260 0.349605 0.272369 -0.122836 0.084751 0.120710 -0.091962 -0.326351 -0.010120 0.123296 -0.249710 -0.405502 -0.245024 -0.030104 0.162943 0.020677 -0.084328 -0.161216 0.153015 0.227245 -0.079607 0.026007 -0.005190 0.019691 -0.017673 0.083579 0.389563 0.357804 -0.138370 -0.095664 0.300520 0.138941 -0.147402 -0.478818 0.150325 0.302761 -0.203343 0.054886 0.086827 -0.161760 0.195706
82 -0.033168 -0.118404 -0.079283 -0.132499 0.101577 0.006546 0.298380 -0.042029 0.326308 -0.098272 0.008266 0.165357 -0.010417 0.095654 -0.048466 -0.116730 -0.205148 -0.349323 -0.385665 0.052203 0.259941 0.047656 -0.057874 0.063441 0.138371 -0.499106 -0.334454 -0.064747 -0.100455 -0.143727 -0.403097 0.383036 -0.051721 -0.136670 -0.005850 -0.363521 0.272122 0.416527 0.034402 0.055181 -0.082462 -0.043556 0.174953 0.011453 -0.080283 -0.026443 -0.077494 -0.037699 -0.030864 0.085664 -0.044271 -0.129611 -0.284806 0.085857 0.175985 0.164314 0.159411 -0.167388 0.034722 -0.151751 0.008517 -0.026017 -0.227648 0.038820 0.052422 0.189500 -0.304867 0.269102 -0.061092 0.064722 0.011032 0.090666 0.143442 -0.007776 0.079731 0.179846 0.030338 -0.012020 0.125868 -0.260751 0.278677 0.153095 -0.160405 -0.022470 -0.014436 -0.005284 0.165998 -0.074204 0.343129 0.274893 -0.193226 0.089761 0.174516 -0.068766 -0.378065 0.058044 0.185943 -0.159035 -0.312736 -0.337914 -0.126173 0.148787 0.069872 -0.059761 -0.162562 0.126300 0.220569 -0.102937 0.089246 0.026720 -0.046817 -0.021502 0.021382 0.361923 0.338413 -0.063040 -0.030624 0.295673 0.103796 -0.233978 -0.416526 0.174718 0.251096 -0.223336 0.093285 0.012523 -0.216942 0.325736
16 -0.046123 -0.221536 -0.083253 -0.188913 0.072816 0.097518 0.211865 -0.122464 0.286208 -0.029450 0.068998 0.128962 -0.052105 0.095114 0.059212 -0.144201 -0.115196 -0.326734 -0.275107 0.038072 0.260717 0.062479 -0.012606 0.145575 0.076837 -0.464715 -0.365719 -0.090376 -0.156212 -0.140483 -0.412686 0.445019 -0.035535 -0.173386 0.111270 -0.321875 0.305059 0.478195 0.020126 -0.006971 -0.012726 -0.039330 0.120905 0.002157 -0.100718 -0.101950 -0.154647 0.014132 -0.105686 0.090343 -0.063308 -0.170471 -0.327438 0.082946 0.161701 0.085401 0.198883 -0.089840 -0.015028 -0.139531 0.093095 -0.158135 -0.214631 -0.022274 0.114441 0.213386 -0.323369 0.265258 0.043946 0.081208 0.049129 0.014790 0.248350 -0.005416 0.080530 0.166278 0.023628 -0.005753 0.100920 -0.193241 0.273520 0.137526 -0.114806 -0.058297 -0.015261 -0.043345 0.053114 0.026864 0.385568 0.321732 -0.153582 0.179699 0.160664 -0.141799 -0.294330 0.039855 0.149637 -0.169697 -0.282207 -0.255916 -0.017052 0.156153 0.078798 -0.159044 -0.138209 0.172117 0.077363 -0.136488 0.078302 0.019304 -0.041721 -0.052159 0.076085 0.408025 0.241766 -0.089089 -0.123828 0.282316 0.064477 -0.228085 -0.464246 0.149874 0.255496 -0.255359 0.067341 0.099093 -0.115380 0.261832
23 -0.106710 -0.205956 -0.044328 -0.198263 0.043984 0.090128 0.241134 -0.027956 0.262307 -0.074922 0.095483 0.114831 -0.068619 0.035672 -0.024586 -0.124001 -0.095345 -0.354493 -0.255968 0.042169 0.175763 0.071902 -0.067309 0.133933 0.044309 -0.512174 -0.296632 0.011207 -0.216772 -0.137773 -0.367758 0.422379 0.012191 -0.141113 0.028198 -0.393748 0.276089 0.412634 -0.019126 0.137083 -0.136725 0.001248 0.159400 0.042489 -0.147601 -0.098006 -0.122954 -0.016743 -0.080559 0.099849 -0.078127 -0.105882 -0.262051 0.040583 0.203882 0.097069 0.113272 -0.061552 0.002666 -0.115849 0.116014 -0.028153 -0.278495 0.028506 0.114006 0.227023 -0.374715 0.286889 0.042566 0.065750 0.019039 0.066349 0.220397 -0.072595 0.130818 0.179691 0.061038 0.065582 0.186092 -0.179139 0.323431 0.099979 -0.181782 -0.070037 0.002124 -0.075788 0.004667 -0.013912 0.397328 0.292285 -0.118479 0.121922 0.167359 -0.135573 -0.326716 0.050209 0.173322 -0.154791 -0.302238 -0.240551 -0.065104 0.110716 0.073914 -0.072987 -0.171572 0.125913 0.157394 -0.138194 0.056974 -0.055428 0.004856 -0.135568 0.073719 0.341019 0.401792 -0.145148 -0.098198 0.239627 0.166087 -0.217718 -0.419042 0.140581 0.290991 -0.278627 0.123135 0.091125 -0.132388 0.299266
65 -0.059189 -0.139291 -0.017786 -0.167151 0.081533 0.082951 0.339126 -0.010219 0.239355 -0.051699 0.050668 0.167284 0.034947 0.094661 0.020070 -0.189399 -0.153374 -0.291321 -0.317590 0.031400 0.188489 0.007762 -0.032778 0.262404 0.076710 -0.456295 -0.326874 -0.013001 -0.075092 -0.112822 -0.378126 0.411588 0.038015 -0.211860 -0.014652 -0.349184 0.211788 0.480936 0.017492 0.079052 -0.117498 -0.059706 0.160406 0.023236 -0.133285 -0.053710 -0.067299 0.000361 -0.133648 0.102771 -0.083725 -0.114408 -0.278688 0.063656 0.214243 0.117967 0.202060 -0.087022 -0.005940 -0.176302 0.123601 -0.101033 -0.272013 0.027546 0.068538 0.218642 -0.244283 0.208167 -0.022472 -0.058904 -0.012198 -0.049918 0.250786 -0.005233 0.116678 0.240690 0.047417 0.020830 0.016498 -0.171924 0.338468 0.184424 -0.044748 -0.049987 -0.125634 -0.000678 0.091984 -0.073778 0.390197 0.151464 -0.145403 0.144525 0.200917 -0.129130 -0.392225 -0.016943 0.120272 -0.160735 -0.346046 -0.207329 -0.076976 0.148935 0.067150 -0.131023 -0.126029 0.249767 0.127072 -0.088454 0.069293 -0.050121 0.025267 -0.146345 0.066891 0.423676 0.254596 -0.056364 -0.112178 0.250353 0.072555 -0.232666 -0.475305 0.178997 0.294994 -0.181313 0.169885 0.047257 -0.144818 0.297806
87 -0.069592 -0.171593 -0.046846 -0.199597 0.103609 0.040947 0.219829 -0.020916 0.243065 -0.031427 0.087400 0.108715 -0.037684 0.114125 0.029611 -0.116122 -0.148121 -0.290339 -0.312123 0.072151 0.151666 0.045524 -0.047128 0.109624 0.036764 -0.459462 -0.431603 -0.035219 -0.161676 -0.110192 -0.428883 0.487006 -0.059085 -0.145124 -0.053628 -0.366179 0.232282 0.526283 0.084003 0.090689 -0.053652 -0.081432 0.132388 0.068048 -0.178260 -0.160545 -0.020582 -0.041879 -0.145611 0.112187 -0.043630 -0.152695 -0.231093 0.069359 0.207781 0.074703 0.114067 -0.058716 -0.015777 -0.216540 0.052933 -0.097487 -0.259023 0.012733 0.048544 0.250251 -0.249152 0.255022 -0.109147 -0.006444 -0.005200 -0.010101 0.262083 -0.017475 0.037407 0.195942 0.035239 -0.011534 0.100357 -0.290417 0.270260 0.156874 -0.095359 -0.023023 -0.075710 -0.028743 0.032723 -0.002440 0.367753 0.250634 -0.218593 0.115024 0.174538 -0.088351 -0.323036 0.029323 0.235129 -0.158279 -0.393292 -0.278965 -0.108673 0.131410 0.076318 -0.057275 -0.191674 0.056408 0.186469 -0.088129 0.133350 -0.024550 0.010323 -0.076164 0.077778 0.356493 0.345901 -0.025557 -0.110287 0.231056 0.157756 -0.206690 -0.360179 0.146775 0.227225 -0.285153 0.057180 0.052713 -0.138896 0.273899
86 -0.058270 -0.180499 -0.081403 -0.211970 0.157257 0.082058 0.239677 -0.049197 0.210042 -0.144700 0.019768 0.132297 -0.011885 0.074503 0.072472 -0.082532 -0.055164 -0.315998 -0.283907 0.157129 0.266563 0.032115 0.041592 0.138008 0.061759 -0.476835 -0.412424 0.017396 -0.175177 -0.131196 -0.421873 0.433142 0.078727 -0.117978 0.026047 -0.301430 0.179886 0.512680 0.056619 0.029470 -0.138848 0.070311 0.132146 0.069912 -0.157006 0.020306 -0.106274 -0.014854 -0.162098 0.099701 -0.063570 -0.148228 -0.228822 0.093266 0.206332 0.096721 0.162174 -0.046890 0.015581 -0.187353 0.096109 -0.147416 -0.288031 -0.044555 0.071000 0.202247 -0.318227 0.278809 -0.053404 0.060244 -0.000473 -0.014889 0.316312 -0.038408 0.066533 0.173921 0.077578 0.050082 0.117734 -0.308413 0.383987 0.178796 -0.144211 0.002157 -0.069658 -0.019881 -0.013639 -0.029608 0.308816 0.285695 -0.085697 0.150882 0.101020 -0.204103 -0.255395 -0.015275 0.096500 -0.254273 -0.282131 -0.317806 -0.058460 0.124064 0.031509 -0.092861 -0.211272 0.132832 0.120217 -0.083987 0.068049 0.054875 -0.048215 -0.115192 0.031659 0.430112 0.277994 -0.081736 -0.147639 0.267416 0.124944 -0.192613 -0.386199 0.202318 0.224489 -0.205571 0.121688 0.063864 -0.150537 0.341459
69 -0.026345 -0.177837 -0.023515 -0.138326 0.116203 0.019797 0.277161 0.027942 0.215962 -0.087065 0.043171 0.149317 -0.051904 0.082099 -0.016150 -0.116366 -0.066762 -0.317568 -0.337705 0.074542 0.188000 0.107762 -0.064139 0.131064 0.057056 -0.459448 -0.313216 -0.052876 -0.163356 -0.166906 -0.446780 0.460121 0.029959 -0.160212 0.028480 -0.354513 0.293658 0.404318 0.000133 0.082564 -0.110151 -0.026646 0.118787 -0.041499 -0.145174 -0.002202 -0.099142 -0.051052 -0.171035 0.003127 -0.049926 -0.157566 -0.210623 0.053161 0.138748 0.149461 0.231975 -0.193553 0.082561 -0.108755 0.076162 -0.065850 -0.307736 0.020875 0.056222 0.272540 -0.245277 0.273566 -0.023712 0.058322 -0.019903 -0.021948 0.212821 0.036024 0.005293 0.202396 -0.000081 0.070082 0.149947 -0.235436 0.288958 0.078611 0.000922 -0.000314 -0.059563 0.052135 0.002789 -0.128655 0.335442 0.291160 -0.156955 0.122084 0.210296 -0.169396 -0.312608 -0.026985 0.184778 -0.149690 -0.379614 -0.282765 -0.101135 0.045793 0.072677 -0.102846 -0.151574 0.108999 0.158197 -0.074936 0.056557 -0.006274 -0.034761 -0.090178 0.074157 0.372747 0.359996 -0.090768 -0.177538 0.229003 0.072966 -0.258141 -0.412600 0.166189 0.278131 -0.204820 0.086349 0.112019 -0.143824 0.240491
17 -0.065479 -0.210929 -0.009622 -0.187601 0.064033 0.022422 0.308211 -0.040613 0.190990 -0.101403 0.039096 0.200194 0.011800 0.040183 0.007540 -0.185829 -0.178661 -0.289380 -0.333299 0.048983 0.197061 0.037618 -0.098061 0.048315 0.125187 -0.487108 -0.357843 -0.072446 -0.193732 -0.162873 -0.372709 0.429140 0.027627 -0.147869 -0.011501 -0.352395 0.231716 0.419624 0.019214 0.021556 -0.089333 -0.056399 0.070057 0.023177 -0.049610 -0.033999 -0.126160 -0.015287 -0.131492 0.052681 -0.001514 -0.219845 -0.264921 0.129442 0.172099 0.080034 0.159083 -0.085864 0.029308 -0.204729 0.102676 -0.104121 -0.280752 0.040722 0.089825 0.198780 -0.298132 0.315043 -0.058860 0.090142 -0.001130 0.027113 0.245099 -0.097441 0.020761 0.239973 0.000562 0.082105 0.060120 -0.255482 0.331591 0.194720 -0.115513 -0.085788 -0.141319 0.007286 0.093209 -0.097238 0.358135 0.262653 -0.149651 0.086654 0.177807 -0.153813 -0.384089 0.006482 0.173534 -0.185961 -0.359345 -0.342618 -0.052560 0.101510 0.124486 -0.066605 -0.159301 0.176950 0.254809 -0.091057 0.127439 -0.058120 -0.002982 -0.033284 0.010557 0.389645 0.336981 -0.087423 -0.128272 0.174889 0.115410 -0.247407 -0.420176 0.138295 0.269989 -0.207229 0.057779 0.132285 -0.105692 0.311452
108 0.505113 0.204679 -0.479242 -0.688040 0.215533 0.214751 0.342982 -0.078915 -0.386138 -0.351883 0.490355 0.119988 -0.252958 -0.276600 -0.504918 -0.396858 0.056650 0.150242 -0.519574 0.941719 0.146823 -0.290865 0.349274 0.048411 -0.722553 0.333038 -0.587853 -0.647117 0.510266 0.127847 -0.287129 0.671917 -0.684120 -0.044739 0.198529 0.372649 0.255423 0.423006 -0.312700 -0.403721 0.256270 0.486832 0.180642 0.206313 -0.255224 -0.464516 0.330168 -0.574990 0.239591 0.187110 -0.556684 -0.263801 0.678550 0.803411 -0.536818 -0.719645 0.297423 0.170157 0.008596 0.362645 -0.565592 -0.600858 -0.384605 0.099320 -0.516668 -0.097473 -0.526425 0.151571 -0.338400 -0.815212 0.532963 0.584003 -0.135414 -0.355345 0.095624 0.162324 0.250910 -0.180966 0.388573 0.136206 -0.144856 0.267451 0.038598 -0.104279 -0.157632 0.138660 -0.265105 0.252526 0.312735 -0.514788 0.015700 0.556489 0.036036 -0.101899 -0.461705 -0.457237 -0.532253 0.568710 0.177665 -0.284018 -0.514592 0.025471 0.164270 -0.335275 0.001919 0.158910 0.625797 0.436169 -0.368741 0.156838 -0.400996 -0.457165 0.082390 0.071582 1.036921 0.071720 0.213928 0.507357 -0.154852 -0.402421 -0.073438 -0.265393 0.372285 -0.412479 0.218170 -0.505961 -0.310918 -0.636457
56 0.009722 0.077203 0.022118 -0.006969 0.492920 -0.326382 0.195646 0.312485 -0.379310 0.008496 0.305767 0.283798 -0.140027 0.348441 0.411788 -0.201710 0.691351 0.299485 -0.880458 -0.650272 -0.159979 -0.346758 -0.210970 0.300494 -0.088421 -0.327316 -0.367459 -0.366724 -0.136073 0.519392 0.314072 0.263826 -0.188542 -0.146609 -0.123037 -0.654335 0.273989 -0.411836 0.012405 -0.258355 0.064694 0.782526 -0.051717 0.074403 0.141754 0.094313 -0.035866 -0.092662 -0.211357 -0.278891 0.525771 0.231994 0.222357 0.160348 -0.197753 -0.307365 0.242702 -0.107425 -0.170772 0.149849 -0.274091 0.197601 -0.146478 -0.696813 0.310832 -0.004031 -0.770960 0.085643 -0.182817 -0.592103 0.657968 -0.124628 -0.089295 0.284494 0.325850 -0.562924 0.031257 -0.256043 -0.024247 0.438387 0.055913 -0.084389 0.012088 0.025142 -0.003773 -0.195925 -0.102181 -0.040935 -0.043321 0.533825 -0.203148 0.225031 0.979130 0.344538 -0.338312 -0.319854 -0.334214 -0.237882 0.041810 -0.214960 -0.501776 0.458561 -0.195280 0.141066 0.273605 0.292944 0.278472 0.260062 -0.229843 0.001598 0.111286 -0.211100 -0.271827 0.089020 0.449283 0.106634 0.149004 0.263461 -0.065661 -0.264745 -0.073581 -0.120771 0.203245 0.325754 -0.491128 -0.314648 0.171383 0.089521
117 -0.230456 0.181782 0.153225 -0.240381 0.002683 -0.177568 0.227019 0.520391 0.232483 0.068435 -0.151462 -0.120770 -0.063975 -1.066334 -0.213322 -0.214297 0.478869 0.103392 -0.106159 -0.271875 0.048075 -0.172137 0.141379 0.037500 -0.447080 0.118879 -0.241374 -0.006163 0.084029 -0.420526 -0.201353 -0.082983 -0.252834 -0.215376 0.366589 -0.201601 -0.074098 0.341717 0.106588 -0.284776 -0.236737 0.307097 -0.426718 -0.040524 0.699210 0.072758 0.131534 0.482975 0.026863 -0.305703 0.018806 0.605992 0.109667 -0.080806 -0.191817 -0.408144 -0.011161 -0.203196 -0.408692 0.129389 -0.081883 -0.069633 -0.687167 -0.608414 0.361283 -0.081386 -0.001536 0.222804 -0.312572 0.274958 0.236970 0.219748 -0.272364 -0.079047 -0.065769 0.090384 -0.080995 -0.333133 0.043050 0.413875 0.139782 0.600001 -0.174786 0.191447 0.290287 0.057041 -0.386381 -0.023439 0.238430 -0.015701 -0.096422 0.210371 0.332662 -0.026031 -0.487588 -0.537338 -0.028946 -0.423574 0.479500 -0.521528 -0.202724 -0.086108 -0.011240 0.262690 0.416626 -0.098894 -0.120387 -0.240139 0.446282 0.084817 0.400513 -0.038324 0.456857 0.149581 0.266956 -0.125109 -0.241268 0.235856 0.158124 0.231940 0.131657 0.044286 -0.441402 -0.288844 0.428937 0.186014 0.147701 -0.544342
830 0.585994 -0.165773 0.151832 0.217021 -0.132739 0.614731 -0.360573 0.435558 0.320377 0.110375 0.263388 0.353862 -0.061163 0.148379 0.270248 -0.219076 -0.178857 -0.168331 0.035861 -0.242931 0.110650 0.222934 0.599244 -0.045173 -0.174213 -0.699028 -0.457525 0.222081 -0.185670 -0.174302 -0.235631 0.490468 0.266180 0.272430 0.246213 0.034701 0.275112 -0.077013 0.274768 0.356548 -0.108743 0.053109 -0.467796 0.654173 0.208928 -0.051585 -0.242782 -0.225736 -0.101724 0.122785 0.179471 0.062197 -0.763138 0.337751 -0.631971 -0.027302 -0.360020 -0.548917 0.088422 0.085358 -0.082496 0.285220 -0.046591 0.155367 -0.221578 0.363746 -0.100425 -0.220429 -0.034818 0.007418 0.218557 -0.312005 0.651863 0.301309 0.438304 0.532872 0.138147 0.281649 0.317685 0.068477 0.546623 -0.063229 -0.411555 -0.161491 -0.049300 0.805505 -0.390404 0.157751 -0.109144 -0.236951 0.286518 0.391272 0.010069 -0.165511 -1.212894 0.111013 -0.083688 -0.235628 0.050329 -0.475820 -0.442550 -0.274382 0.076465 -0.068287 -0.319966 0.379451 0.062236 -0.012475 0.117230 -0.106259 0.128555 0.303119 0.084172 -0.097553 0.085115 0.049695 -0.513245 0.530593 -0.525657 -0.306429 -0.159487 0.178948 0.130911 -0.483997 -0.315688 -0.033382 -0.051365 -0.281078
