3327 128
9 -0.240729 0.330994 -0.006270 -0.046943 -0.273383 0.171100 -0.324192 -0.180282 0.088715 0.156701 0.315249 0.248202 0.084133 -0.360087 -0.037790 -0.194341 0.010409 0.572619 -0.023781 0.078832 -0.138754 0.065859 0.063001 -0.198909 -0.208471 -0.244922 0.001406 -0.428434 0.175085 0.103708 0.182217 0.122623 0.081539 -0.021519 0.177191 0.143506 0.184833 -0.197898 -0.044545 0.382539 0.036781 -0.216836 0.387534 -0.075637 -0.294640 0.079930 0.373319 -0.320909 0.083103 -0.399107 -0.151478 0.055559 -0.202866 -0.087789 -0.066120 -0.508884 -0.340959 0.034355 -0.412357 0.161745 0.196755 0.116332 -0.082644 0.096365 0.048528 0.057980 0.106631 -0.219114 0.027486 -0.055624 -0.030551 0.041769 0.154850 0.018818 0.317386 -0.155599 0.160512 0.452309 0.046465 0.035627 0.529161 -0.239639 0.003453 -0.186527 -0.016435 0.205513 0.202876 0.006803 0.010984 -0.096747 0.146105 0.133778 -0.115625 0.131002 -0.436605 -0.366391 0.183829 0.136208 -0.218147 0.066739 0.042007 -0.464304 0.048678 -0.252897 -0.151079 -0.318261 -0.276196 0.201436 -0.380005 -0.073036 -0.225096 0.302465 0.033253 -0.105945 -0.152090 -0.238835 -0.041392 0.111309 -0.417671 0.259081 -0.131440 0.004795 -0.063400 -0.252377 -0.022950 0.037898 0.062070 0.200957
8 0.195745 -0.037428 0.053498 0.325544 0.171945 -0.322692 -0.377223 -0.229525 -0.087207 -0.175935 0.223935 -0.155386 -0.014388 0.290924 -0.474680 0.086530 -0.083186 0.076283 0.176568 0.188571 0.445603 0.591167 0.402440 0.101652 -0.434964 0.187445 0.009501 0.308776 0.278397 -0.050921 -0.465149 -0.383936 -0.362267 -0.077413 0.195867 0.160410 -0.008785 -0.002058 -0.481904 -0.532327 0.026973 0.170121 -0.048701 0.016286 -0.206879 0.934645 0.036073 0.177166 0.285029 -0.224905 -0.322208 0.111164 -0.083551 -0.224950 0.256813 0.089112 0.124271 -0.177005 -0.102098 -0.014860 0.159558 -0.453146 -0.103368 -0.329724 -0.668617 0.156384 0.304318 0.609503 -0.224487 0.358136 -0.081040 0.274345 -0.284566 -0.564274 -0.164874 -0.460845 -0.293402 0.321622 0.392083 0.202508 -0.014662 -0.115646 0.072354 -0.149151 -0.401078 0.065809 0.410659 -0.339460 -0.409861 -0.048275 0.254157 -0.200982 0.006126 -0.020588 -0.746916 0.190949 -0.191255 -0.322351 -0.317343 -0.489729 0.205342 0.261263 0.059240 -0.110216 -0.407272 -0.178961 0.165722 -0.108185 0.135856 -0.134988 0.262696 0.374776 0.378264 -0.128210 -0.295461 -0.203985 -0.267103 -0.199264 -0.266471 0.292921 0.494061 -0.084852 -0.379367 0.182692 -0.247316 0.235920 -0.487532 -0.035198
23 -0.353046 0.259147 0.295594 0.226195 -0.058197 -0.033444 0.083883 -0.060388 -0.125518 -0.107233 0.260267 0.276511 0.326837 0.022091 -0.155887 -0.055296 -0.479575 0.670554 0.091658 0.075025 -0.032519 -0.045693 -0.066297 0.388443 -0.035738 -0.059572 -0.133928 -0.325479 0.060303 0.088161 0.212764 0.084208 0.215017 0.016393 0.050592 -0.053972 -0.059108 0.066293 -0.023762 0.221247 -0.145286 -0.178436 0.456995 0.042502 -0.040553 0.334030 0.314096 -0.246398 0.110904 -0.356388 0.208551 -0.241036 -0.026180 -0.086340 -0.038357 -0.496821 -0.552943 -0.069181 -0.226937 0.038473 -0.099190 0.013149 -0.281179 0.182938 -0.407849 0.112204 -0.066013 -0.108917 -0.082798 0.055331 -0.049308 0.124127 0.190065 -0.151080 0.306510 -0.338928 0.388034 0.261383 0.025278 0.110323 0.225440 0.108305 0.245456 -0.411656 -0.291638 0.173485 0.058272 -0.241287 -0.343648 0.115240 0.189233 0.254809 -0.177965 0.300830 -0.373572 -0.068586 0.017971 -0.052502 -0.078880 0.271426 0.271081 -0.150225 0.003241 -0.331677 -0.031748 -0.058370 -0.086476 -0.174575 -0.110102 0.054089 -0.072272 0.419626 0.182209 -0.484551 -0.313407 -0.110204 -0.208076 0.127206 -0.335027 0.334541 -0.211539 -0.091500 -0.142380 -0.195282 -0.068833 -0.064648 0.299719 0.111953
20 -0.094792 -0.259312 0.140177 0.020526 -0.490215 0.042547 -0.187791 -0.035529 0.022403 -0.122757 -0.087377 0.225823 0.069376 -0.092556 0.042491 0.017742 -0.503191 0.177824 0.283727 -0.107379 0.147857 0.172876 -0.076306 -0.098485 -0.071765 -0.214186 -0.247062 0.036324 -0.086392 -0.232746 0.189859 0.060182 0.154101 -0.210165 0.069465 -0.242800 0.389464 -0.024574 -0.424681 0.558030 -0.495952 0.356809 0.390077 0.072783 -0.415318 0.288423 0.376996 -0.293491 -0.387200 -0.057977 0.244057 -0.078450 -0.051219 -0.291968 -0.024788 -0.205209 -0.234648 -0.451616 -0.341705 0.080193 -0.064723 0.331859 0.086506 0.043416 -0.176732 0.238438 0.078950 -0.003464 -0.377601 0.591526 -0.057880 0.285236 0.061910 0.245374 0.120876 -0.119946 0.283285 0.046518 0.129883 0.085044 -0.239793 -0.018249 0.134707 -0.241104 -0.375154 0.221256 0.493678 0.138221 -0.025050 -0.256135 0.099046 0.389382 -0.507083 0.454189 -0.591379 -0.478959 0.136416 -0.017964 -0.304560 0.272228 -0.172310 0.124346 -0.228578 0.088513 0.053617 -0.069993 -0.400557 0.007295 -0.281290 0.151618 -0.354980 0.134705 -0.034688 0.066700 -0.509155 0.025850 0.283371 0.008079 -0.258014 -0.028068 0.075782 0.017324 0.148711 -0.057497 -0.141417 0.158767 0.061038 -0.202592
34 -0.044603 -0.015749 0.261698 -0.024427 -0.154375 0.017665 -0.192464 0.078696 0.234548 0.068765 -0.080444 0.526811 0.345301 0.050620 0.058087 -0.182448 -0.344961 0.600377 0.012860 -0.221716 0.296313 -0.074957 0.019713 -0.201813 -0.178102 -0.185500 -0.211308 -0.105324 0.000799 -0.358949 0.215257 -0.049206 -0.115527 -0.012208 -0.312392 0.087815 0.118294 0.152564 -0.050060 0.683922 -0.061399 -0.062427 0.664277 0.161260 -0.285865 0.457674 0.387533 -0.463138 -0.206972 0.233868 -0.097125 0.128586 0.198008 -0.387505 0.240604 -0.634910 -0.066790 0.156890 0.093485 -0.156673 0.288706 0.416663 0.186938 -0.136487 0.006666 -0.185719 0.116159 0.352524 0.426623 -0.312864 0.335891 -0.126715 0.128560 0.099955 0.163684 -0.110218 0.077584 0.100385 -0.058649 0.435250 -0.385254 0.213185 0.262604 -0.010868 -0.099419 0.349998 -0.161390 0.047538 -0.242703 -0.222037 0.010957 -0.129521 -0.368298 0.610790 -0.334635 -0.337531 -0.194689 -0.114875 -0.077346 0.066738 -0.086871 0.027999 -0.337558 0.361378 0.125954 -0.268414 0.015616 -0.017999 -0.227337 0.041813 -0.479519 0.362624 -0.004692 -0.011048 -0.543609 0.166644 -0.162792 0.207063 -0.407926 0.237125 0.258560 -0.236292 -0.479079 -0.272762 -0.300158 0.064687 0.433566 -0.063191
5 -0.108248 -0.220523 -0.025745 -0.122209 -0.173866 -0.119004 -0.112134 -0.022521 0.404068 -0.171931 0.012220 0.374668 -0.009502 0.134477 -0.386149 0.102209 -0.380534 0.028028 0.466159 -0.172142 0.130268 0.125310 -0.073834 0.281539 0.012860 -0.035788 0.054079 0.005862 0.092962 -0.373882 0.151290 0.006674 -0.214138 -0.083133 0.108887 -0.317771 0.045764 -0.427132 -0.035431 0.568275 0.109761 0.286656 0.301716 -0.311587 -0.669822 0.216618 0.336447 -0.253285 -0.326892 0.177184 0.060921 0.014004 0.316131 -0.080032 -0.217459 -0.360355 -0.448286 -0.160887 -0.247145 0.056869 -0.197634 0.162833 0.207180 0.220087 -0.187482 0.301360 -0.101729 0.103989 -0.149021 -0.088882 0.005131 0.086004 0.066651 0.168487 0.216185 -0.241906 0.112692 -0.026117 -0.004376 0.212929 -0.028755 -0.211794 0.484661 -0.010575 0.151049 -0.048445 0.164634 0.026361 -0.043887 -0.476414 0.240048 0.079464 -0.526656 0.532585 -0.541577 -0.827651 0.615259 0.102159 -0.373451 -0.003833 -0.267425 -0.291154 -0.287809 -0.115296 -0.025809 0.044275 -0.110905 0.009107 0.070283 0.238567 -0.311035 0.310451 0.080745 0.056159 -0.409109 -0.100382 0.349951 0.133020 -0.233828 -0.063662 -0.022745 -0.110776 0.012118 -0.053607 -0.209286 -0.090602 0.035652 0.011114
57 0.456551 -0.271783 -0.074257 -0.015680 0.459139 -0.295081 -0.479551 -0.166515 0.776719 0.164744 0.611240 -0.119817 0.154973 -0.335419 -0.096735 -0.151347 -0.233706 0.220890 0.207717 0.153753 -0.629872 0.260705 -0.142558 0.167255 -0.358868 0.322794 -0.183740 0.329019 -0.048076 -0.096012 -0.305214 0.287155 -0.100463 -0.003336 0.075104 0.143279 -0.382064 -0.555598 -0.446315 -0.515872 -0.270982 0.047032 -0.541526 0.186115 0.250375 0.713837 0.428723 -0.164705 -0.012298 0.284765 -0.253924 -0.093506 -0.065833 -0.333247 -0.141273 0.328851 0.019934 0.022341 0.029561 -0.114127 -0.015414 -0.062460 -0.233538 -0.042464 0.323717 -0.224850 0.243311 0.182757 -0.061745 0.704062 -0.060519 0.278097 -0.133894 -0.905089 -0.037320 -0.493450 0.059238 0.051822 0.390403 0.180633 0.154611 -0.412504 0.265090 0.132131 -0.107466 0.083233 0.473483 -0.112388 -0.530411 -0.218427 0.048733 -0.057763 -0.212540 -0.232521 -0.906801 0.026308 0.343283 -0.168668 0.193647 -0.057216 -0.282117 -0.120925 -0.058239 0.147799 -0.084918 0.217201 0.324320 0.238406 -0.145948 -0.304451 0.232522 -0.037097 0.027820 0.342940 -0.288774 0.201742 -0.245090 -0.217193 -0.621676 -0.024323 -0.173784 0.367629 -0.527656 0.016042 0.045268 0.338943 -0.142120 -0.098012
53 0.017584 0.039474 0.131389 -0.344014 -0.067647 0.408036 -0.101359 -0.478417 0.363373 -0.043386 -0.114629 0.404318 0.325518 0.210005 -0.240979 0.138877 -0.214460 0.286119 0.192779 0.023742 0.287062 0.190153 -0.398306 -0.226942 -0.237021 -0.137947 0.011220 -0.112024 -0.019875 -0.154623 0.266028 -0.135562 0.017115 -0.119336 0.240857 0.103314 0.030715 -0.188034 -0.037461 0.477662 0.089490 0.104357 0.119704 -0.094660 -0.057580 0.437167 0.343245 -0.246740 -0.035992 0.087271 0.411481 -0.331899 0.225153 -0.320263 -0.032944 -0.631780 -0.165975 -0.015146 -0.318278 -0.025403 -0.347969 0.540188 -0.238728 0.200453 0.035767 0.322951 0.059975 0.051236 -0.147572 0.003943 -0.082809 0.167555 -0.054335 0.042772 0.273793 -0.427559 0.558546 0.161295 0.188845 0.067231 -0.166560 0.307612 0.391454 0.281433 -0.125379 0.288879 0.165258 0.297877 0.030005 -0.035552 0.103565 0.182674 0.038556 0.255255 -0.548116 -0.282336 -0.089512 0.229055 -0.122102 0.160730 -0.273775 0.154628 -0.119009 -0.142892 -0.160245 0.077513 -0.009083 -0.145497 -0.013780 0.178154 -0.295422 0.077154 0.104877 0.057284 -0.812956 0.379792 0.259341 -0.290223 -0.004510 0.534488 0.054253 -0.175799 0.413413 -0.021292 -0.223734 0.035066 -0.103850 -0.084876
56 0.537313 0.200079 -0.032758 0.372056 -0.038818 -0.831648 -0.865834 -0.345918 0.085700 -0.253262 0.459458 -0.349089 -0.176274 0.100763 -0.205802 0.018412 0.058129 0.174297 0.421402 0.827309 0.603286 0.403448 0.214706 -0.161122 -0.787957 0.043822 -0.257888 -0.121878 -0.268377 -0.273939 -0.093205 0.261628 -0.201126 0.235710 -0.264548 -0.112226 -0.483342 -0.229075 -0.374165 -0.509973 -0.231627 0.371407 0.225499 0.076671 0.051027 -0.026461 -0.149640 -0.160422 0.017285 -0.210776 -0.228334 0.102383 -0.199374 -0.046945 -0.131167 -0.035703 0.428614 -0.371812 -0.196857 -0.345168 -0.496947 -0.419917 -0.066144 -0.114297 -0.350565 -0.421152 -0.213815 0.395869 0.057410 -0.042584 0.086083 0.461698 -0.240715 -0.347988 -0.166958 -0.826462 0.053675 0.349433 0.828011 0.057381 0.150260 0.216664 0.115287 0.250952 -0.109504 0.312771 -0.078352 -0.451729 -0.062910 0.349060 0.219656 -0.127821 0.280570 0.128537 -0.708883 0.060201 0.407426 0.011279 0.061634 -0.197700 -0.404698 0.152981 -0.270214 0.011409 -0.004977 -0.277551 -0.417431 0.340150 -0.069808 -0.362058 0.152586 -0.032239 0.286876 0.325105 0.012235 0.149981 -0.242003 0.278290 -0.121080 -0.037014 0.905245 -0.127359 -0.167961 -0.025174 -0.059844 0.115969 -0.347063 -0.373797
64 -0.137409 0.010273 0.224227 -0.114446 -0.234417 0.123226 -0.153638 -0.270456 0.122066 -0.017323 0.330770 0.230308 0.383845 -0.157299 0.095340 -0.132680 -0.218804 0.187649 -0.061257 0.028034 -0.154808 0.197122 0.100872 -0.122805 -0.103555 -0.265751 -0.123236 -0.556606 0.093781 -0.173053 0.088821 -0.100638 0.194037 0.031490 0.049203 -0.050805 -0.053112 0.138067 -0.066515 0.347597 -0.165099 0.053948 0.378956 0.168794 -0.462998 -0.041189 0.375103 -0.189620 0.043598 -0.144088 0.248355 -0.215739 -0.066218 0.081356 -0.101746 -0.291452 -0.409955 -0.014681 -0.414349 0.063220 0.178649 0.246368 -0.118725 0.096644 -0.039641 0.131901 -0.197170 -0.083100 -0.055887 -0.239706 -0.075540 -0.143550 0.161158 -0.066932 0.279243 0.077922 0.154842 0.172587 0.261790 0.115297 0.143922 0.105737 0.084213 -0.088170 -0.071129 0.166573 0.026533 -0.121664 -0.156320 0.069869 0.044381 -0.099565 -0.246749 0.120953 -0.275904 -0.185416 0.309167 -0.349150 -0.241955 0.233097 0.225287 -0.227304 -0.237406 0.014160 0.125159 -0.448551 -0.044089 0.012275 -0.132273 -0.224389 -0.286667 0.334048 0.374487 -0.051017 -0.593110 -0.019067 0.135989 -0.120833 -0.469624 0.426625 -0.149273 -0.162081 0.101946 -0.093899 -0.084001 0.010208 -0.202843 -0.155473
42 -0.444455 0.058519 -0.372316 0.018341 -0.262518 0.095732 0.040348 -0.134815 0.348931 -0.244637 0.509971 -0.248002 0.476497 0.040275 -0.206422 -0.373585 -0.233164 0.302446 -0.032469 -0.081008 0.286286 0.082234 0.562517 0.192990 0.041989 -0.044664 0.172432 -0.314452 0.106114 -0.137130 0.311904 -0.013164 -0.302725 -0.281262 -0.518278 -0.153880 0.086526 0.030788 0.048933 0.460531 -0.011983 0.247306 0.345236 -0.397326 -0.295748 0.726853 0.253011 0.048270 -0.009076 0.094361 0.066219 -0.301538 0.224445 -0.408857 -0.022418 0.142796 -0.576059 -0.219550 -0.645063 -0.001652 0.125612 0.202967 -0.147106 0.560762 0.130750 -0.178499 0.444491 0.003498 -0.102558 0.040217 -0.379409 -0.117103 -0.112563 -0.028707 -0.062436 -0.186764 -0.076823 0.356811 -0.014789 0.043378 0.212778 -0.098968 0.048068 0.177035 -0.016191 0.050756 0.391528 -0.063204 -0.138405 0.142224 0.726954 0.056225 -0.224331 0.236342 -0.355929 -0.493266 -0.038817 -0.194395 0.395833 -0.176188 0.188224 0.362064 -0.396794 -0.423736 -0.191937 -0.053571 -0.058878 -0.108793 0.071346 0.618330 -0.222420 0.456525 0.049089 -0.276341 -0.699422 0.088576 0.310432 0.021548 -0.744300 -0.031470 0.286400 -0.790231 0.142873 -0.387356 0.327746 -0.218911 -0.139610 0.010289
1581 -0.357958 0.280170 0.393690 0.195360 -0.085704 -0.103072 0.165379 -0.000344 -0.241303 -0.237516 0.279311 0.189292 0.487719 -0.054308 -0.173953 -0.074880 -0.606688 0.788798 0.113084 0.223326 -0.085017 -0.001248 -0.126934 0.547798 0.008511 -0.209702 -0.167084 -0.334131 0.161100 0.166023 0.164392 0.202926 0.294386 0.011316 0.117421 -0.043589 0.002724 0.161572 0.058898 0.192284 -0.107461 -0.157587 0.515103 -0.028967 -0.056287 0.439143 0.407654 -0.208934 0.047558 -0.535665 0.252064 -0.337700 -0.022883 -0.128862 0.146029 -0.657355 -0.599057 -0.156377 -0.088703 0.010058 -0.082016 -0.020439 -0.317955 0.239764 -0.532722 0.136130 -0.071791 -0.140270 -0.047978 0.110234 -0.034696 0.050083 0.102696 -0.198262 0.298493 -0.541848 0.577339 0.237750 -0.053534 0.103774 0.307971 0.086148 0.172174 -0.531656 -0.403566 0.315976 0.011165 -0.350196 -0.433355 0.036025 0.248145 0.298124 -0.254755 0.370425 -0.440973 0.122812 -0.022545 -0.029360 -0.043492 0.147403 0.299722 -0.103894 0.069606 -0.360888 -0.175382 0.171177 -0.122401 -0.171800 -0.128274 0.001550 -0.043586 0.379293 0.216176 -0.627139 -0.315919 -0.019073 -0.258131 0.246876 -0.301898 0.422564 -0.350978 -0.037497 -0.127103 -0.132024 0.052147 -0.040285 0.348710 0.099439
80 0.768204 -0.043776 -0.794301 -0.004753 0.191314 -0.087213 -0.017497 0.687945 -0.104776 -0.149410 -0.193144 0.776859 0.160516 0.227073 -0.499564 0.317187 0.397669 0.438197 0.030855 -0.308033 0.278655 -0.425274 0.077113 -0.626257 -0.264429 -0.301083 -0.133937 -0.129917 0.342351 0.310858 0.467006 0.502923 -0.456908 -0.521137 -0.037079 0.118057 -0.232111 -0.235002 -0.097706 -0.590878 0.239916 0.091686 -0.135526 0.695848 0.185314 -0.041218 0.591878 0.177457 0.323987 -0.222776 -0.123449 -0.302160 -0.313056 -0.245142 0.252615 -0.565322 -0.265756 -0.145181 0.428212 0.130216 -0.257362 0.231777 0.264401 0.113658 -0.009600 0.020356 -0.025156 -0.021359 -0.153598 -0.527293 -0.191208 0.317519 0.185420 -0.183588 -0.004631 -0.552640 -0.207748 0.075979 0.503629 0.132081 0.083590 0.384526 -0.043034 -0.533079 -0.127575 -0.443000 0.211030 -0.305182 -0.030302 -0.783788 0.310348 0.570346 0.261347 0.051806 -0.380289 -0.244145 -0.160709 -0.671004 -0.097073 0.006610 -0.120822 0.234223 -0.896316 -0.079894 -0.523748 -0.106046 -0.132750 0.423252 -0.433455 -0.326503 -0.138230 0.131463 0.755409 -0.572705 -0.047777 0.050134 0.294648 -0.041770 -0.464157 -0.514129 0.187837 0.533751 0.131144 -0.521174 -0.112066 0.780168 -0.520263 -0.472834
65 -0.225893 0.088434 0.194078 -0.347304 -0.129541 -0.127269 0.417687 -0.106813 0.201078 -0.160052 0.153541 0.270820 -0.175837 -0.146748 -0.006427 -0.388751 -0.233171 0.004979 0.304393 -0.166206 0.262102 0.036874 0.010847 0.098137 -0.358716 0.060754 -0.445623 -0.219990 0.137019 -0.536393 0.376629 0.320917 -0.403284 -0.240935 0.105759 -0.153714 0.181545 -0.446298 0.022335 0.510322 -0.234385 0.169544 0.061711 0.103265 -0.349961 0.145065 0.411601 -0.039622 0.354477 0.026564 0.067623 -0.103057 0.024156 -0.151780 -0.271449 -0.124587 -0.477395 -0.483945 -0.347542 0.030050 -0.059032 0.307609 0.109869 0.441934 -0.029871 -0.020292 0.166758 0.312120 0.052765 -0.031191 -0.293545 -0.148194 0.228339 0.055647 -0.273207 -0.317206 0.319714 0.092934 -0.113576 -0.185685 0.029880 0.123599 0.086889 0.000050 0.339037 0.432141 0.406898 0.436980 -0.011053 -0.081467 0.159234 -0.003515 -0.204431 0.212061 -0.182317 -0.469406 0.193786 0.015671 0.160478 0.132491 0.527809 -0.133557 0.009365 -0.414098 -0.100540 -0.596173 0.016077 0.208104 -0.391438 -0.097203 -0.328441 0.345352 -0.145795 0.089864 -0.998466 0.159962 0.196506 -0.010641 -0.195609 0.111091 0.311399 -0.107581 -0.056219 -0.316451 -0.188180 -0.056701 0.132903 -0.079479
177 0.584608 0.335023 -0.105849 -0.249866 0.340305 -0.019424 0.317830 0.285952 0.671911 0.394978 -0.450468 -0.021932 0.234007 -0.201292 -0.185931 0.064104 0.117392 0.622726 -0.250245 0.630478 0.060917 -0.179094 0.432236 -0.322952 -0.301889 -0.371366 -0.435950 -0.190245 0.081887 -0.174189 -0.015516 0.371609 -0.520475 -0.413026 -0.115641 -0.027402 0.017278 -0.356300 -0.009022 -0.237243 -0.302456 -0.052692 -0.099396 -0.253196 0.004991 -0.179135 0.016204 0.279686 0.380399 -0.524172 -0.058554 0.135490 0.176254 0.046363 0.826924 -0.434441 -0.322212 -0.606660 -0.468047 -0.006532 -0.195391 -0.333323 0.492124 -0.365685 0.265259 -0.291526 -0.240168 0.347179 -0.303582 0.026561 -0.222486 0.142300 0.573625 -0.165927 -0.435406 -0.540344 0.186312 0.339321 0.214194 -0.253273 -0.662410 -0.078474 -0.218180 -0.094046 0.068490 -0.098894 0.396805 -0.161655 0.049519 -0.192049 0.590665 0.023885 0.243765 0.185033 -0.377141 -0.046940 0.172482 -0.948086 0.146614 -0.244110 -0.034037 0.005375 -0.449418 -0.057200 -0.472456 0.149821 -0.291395 0.576895 0.253021 0.423298 -0.574268 0.190416 0.480709 -0.262572 -0.031468 0.494813 0.350804 -0.071180 -0.786334 -0.096153 0.007940 0.618297 -0.044709 0.090313 -0.208807 0.770753 -0.254965 0.040389
2138 -0.276398 0.307116 -0.034221 -0.089983 -0.305838 0.245262 -0.413043 -0.183459 0.094654 0.099087 0.387756 0.200056 0.152240 -0.465976 -0.115138 -0.141415 0.038333 0.522390 -0.003764 0.104180 -0.247171 0.144750 0.105671 -0.160518 -0.297263 -0.269663 -0.020853 -0.437215 0.190521 0.146015 0.124320 0.120759 0.101101 -0.047040 0.294577 0.208409 0.263207 -0.246988 0.012002 0.373174 0.015544 -0.217328 0.477657 -0.093606 -0.311865 0.093205 0.361117 -0.368158 0.048797 -0.463000 -0.180883 -0.002364 -0.229181 -0.118256 -0.041856 -0.586087 -0.316403 0.072370 -0.439215 0.036326 0.262108 0.080685 -0.092462 0.081823 0.045805 0.077478 0.201633 -0.258527 0.100107 -0.065388 -0.080170 0.062433 0.209435 -0.011991 0.278670 -0.201881 0.248958 0.487991 0.045237 -0.007530 0.533856 -0.273408 -0.117300 -0.148917 0.120461 0.179861 0.171102 -0.041031 0.009645 -0.292170 0.139048 0.217910 -0.172922 0.137237 -0.367845 -0.424511 0.263260 0.128750 -0.305120 0.012872 -0.018684 -0.470237 0.103657 -0.237908 -0.181946 -0.179336 -0.303887 0.077565 -0.404465 -0.088399 -0.139265 0.251927 -0.018483 -0.081935 -0.132348 -0.234391 -0.014566 0.096518 -0.369078 0.335477 -0.087678 0.060003 -0.136856 -0.200094 0.058449 0.026115 -0.014380 0.219746
1040 -0.259634 0.291325 -0.008795 -0.045300 -0.345747 0.212851 -0.412818 -0.186130 0.115266 0.137713 0.342869 0.190408 0.165802 -0.441571 -0.100814 -0.138017 0.003481 0.524963 -0.047688 0.129873 -0.244358 0.128479 0.093662 -0.114572 -0.278630 -0.281742 -0.054283 -0.450556 0.178600 0.153107 0.163996 0.172731 0.100840 -0.109225 0.270113 0.208285 0.310558 -0.288101 0.049421 0.422644 0.072708 -0.139912 0.451819 -0.080582 -0.337138 0.073340 0.368792 -0.303282 -0.012480 -0.486188 -0.156310 -0.017385 -0.238512 -0.039719 -0.057826 -0.583417 -0.332291 0.121211 -0.402874 0.098436 0.201414 0.102229 -0.053022 0.072022 0.022230 0.051905 0.156900 -0.205715 0.071637 -0.015139 -0.107830 0.093753 0.147593 -0.046762 0.280593 -0.204320 0.189487 0.500614 0.018509 -0.079567 0.540625 -0.302565 -0.118445 -0.203668 0.154531 0.225578 0.159381 -0.038603 -0.019855 -0.227757 0.143427 0.227321 -0.150669 0.061230 -0.417185 -0.410783 0.214038 0.126165 -0.209414 0.026292 -0.031484 -0.453363 0.068290 -0.172049 -0.164206 -0.231267 -0.299467 0.102681 -0.397407 -0.022500 -0.155391 0.320041 0.008087 -0.060518 -0.153699 -0.250865 -0.067761 0.170395 -0.380083 0.297399 -0.089536 0.077187 -0.114522 -0.270773 0.058765 0.063223 -0.033534 0.225676
3140 -0.289404 0.257115 -0.037281 -0.094804 -0.346786 0.153479 -0.428074 -0.183853 0.107633 0.204273 0.374669 0.255334 0.108697 -0.484694 -0.069577 -0.167180 0.038601 0.455213 0.030082 0.099566 -0.182691 0.115884 0.089436 -0.132568 -0.256286 -0.275376 -0.058718 -0.456455 0.182418 0.159878 0.154430 0.213960 0.042090 -0.084814 0.243301 0.219141 0.275826 -0.259675 0.047651 0.383280 0.075620 -0.184052 0.492071 -0.088085 -0.353779 0.072575 0.380561 -0.424557 0.023671 -0.448629 -0.125893 -0.002933 -0.201646 -0.049043 -0.031918 -0.545492 -0.291609 0.086352 -0.402545 0.108326 0.218944 0.110993 -0.068240 0.098828 0.005071 0.046602 0.191586 -0.207545 0.141759 -0.049778 -0.108554 0.065710 0.182761 -0.063091 0.272901 -0.230044 0.176886 0.526910 0.051777 -0.041664 0.566264 -0.263801 -0.086347 -0.144574 0.068759 0.205409 0.169496 -0.053082 0.047887 -0.213378 0.133208 0.182702 -0.135243 0.120208 -0.361829 -0.390564 0.190473 0.137886 -0.276949 0.027723 -0.026670 -0.459202 0.088292 -0.235325 -0.176854 -0.223087 -0.229906 0.110089 -0.373052 0.003566 -0.084735 0.287768 0.043162 -0.101209 -0.132290 -0.257316 -0.016852 0.111632 -0.399142 0.287355 -0.142265 0.094141 -0.152330 -0.190960 0.071152 0.025196 0.005218 0.246806
651 -0.038379 -0.249792 -0.071016 -0.220801 -0.212538 -0.158104 -0.149182 0.008656 0.481819 -0.198304 0.066852 0.456623 -0.066410 0.007445 -0.531431 0.149202 -0.304732 -0.108833 0.570325 -0.241709 0.186870 0.215883 -0.049661 0.255038 0.103876 -0.054645 0.047027 0.003775 0.136036 -0.451169 -0.004533 0.127478 -0.260294 -0.047633 0.130044 -0.279348 0.025359 -0.690519 0.020922 0.628467 0.077806 0.319831 0.474939 -0.287764 -0.770161 0.279443 0.357525 -0.227062 -0.498482 0.122246 0.155826 -0.114036 0.430343 0.051300 -0.203594 -0.537316 -0.581281 -0.021748 -0.202547 -0.009061 -0.304905 0.117566 0.348401 0.160000 -0.352912 0.389090 0.020435 0.054101 -0.079510 -0.000088 0.189527 0.039802 0.100958 0.154851 0.159490 -0.350887 0.160511 -0.060765 -0.061913 0.212592 -0.164851 -0.310240 0.497992 0.123054 0.236794 -0.089633 0.155084 0.058336 -0.171917 -0.638210 0.318420 0.125076 -0.640394 0.539870 -0.634884 -1.038994 0.861431 0.119069 -0.528030 -0.085704 -0.449693 -0.405294 -0.100513 -0.096961 -0.041999 0.200826 -0.138336 -0.123322 0.112959 0.294897 -0.131383 0.172920 0.062876 0.013498 -0.427658 -0.156590 0.397348 0.186389 -0.165802 -0.131283 -0.027073 0.045448 0.013935 -0.068681 -0.163282 0.043514 -0.065597 0.136520
44 0.588217 -0.015913 -0.064100 -0.029316 0.058604 -0.055212 -0.656862 -0.343136 0.838330 -0.073536 0.771918 -0.052894 -0.093593 -0.200727 -0.275030 0.385709 0.032224 0.577200 0.493004 0.157967 0.046203 0.261270 0.051117 0.262530 -0.451499 0.076180 0.114949 0.194782 0.273253 0.002270 -0.446074 -0.094709 -0.523112 -0.243757 0.391913 0.005782 -0.428029 -0.357244 -0.173004 -0.404852 0.398413 -0.218589 -0.327049 0.257889 -0.083015 0.498672 0.089275 -0.175843 0.138649 0.066318 -0.405235 -0.362179 -0.324356 -0.133038 0.256920 0.220029 0.174922 0.141335 0.052104 -0.172660 0.008980 -0.079592 0.333640 -0.157731 -0.191437 0.659403 -0.371688 -0.055173 -0.473649 0.351065 0.212919 0.335079 -0.469576 -0.512400 -0.156761 -0.508618 0.025596 0.004495 0.111406 0.390646 0.038585 -0.241666 0.217120 0.219800 -0.070250 -0.083803 0.371725 -0.072550 -0.435929 -0.378150 -0.219482 -0.176853 -0.330255 -0.136781 -0.651962 0.092959 0.197088 -0.475938 0.323881 0.052739 -0.103332 -0.237945 0.178518 -0.065135 0.353147 0.011766 0.354398 0.371875 -0.152850 -0.129446 0.166599 0.138311 0.047406 0.362740 -0.478037 0.534448 -0.255823 0.096367 -0.189185 0.108966 0.216574 0.036963 0.283968 0.417603 -0.073377 0.157078 0.182967 -0.198664
50 0.194020 -0.227273 -0.206880 -0.165301 0.299836 -0.449950 -0.595284 -0.167336 0.798180 -0.062828 0.404675 -0.136220 -0.044481 -0.227036 -0.049749 0.249533 -0.312640 0.260662 0.486322 0.130792 -0.078280 0.208758 -0.356726 0.097937 -0.248334 0.356980 0.003176 0.092261 -0.509223 -0.627207 -0.168396 0.336763 -0.614486 -0.018891 -0.203890 0.001678 -0.412751 -0.482338 0.123343 -0.351474 0.405946 -0.092845 -0.215016 0.233798 0.393648 0.413911 0.693587 -0.098216 0.376639 -0.237864 0.158510 0.130245 -0.476463 -0.570972 -0.309263 0.279586 0.205346 0.248023 0.327197 0.130559 0.389924 -0.444276 -0.205012 -0.669375 0.189268 0.182201 0.348749 0.035046 -0.455035 0.491445 -0.040968 0.206504 0.513630 -0.360053 -0.029767 -0.160746 0.286142 0.019174 0.445715 0.360608 -0.083717 0.158709 0.083304 0.379652 -0.327087 0.372338 0.049348 -0.129140 -0.645331 -0.351419 0.284465 -0.023301 -0.499081 -0.147734 -0.423293 -0.262058 -0.128826 -0.440328 0.279757 -0.286504 -0.202917 -0.048229 -0.192691 0.167973 -0.021319 -0.044879 0.501915 0.571895 0.164884 -0.549520 0.096651 -0.048848 0.221352 0.263870 -0.040559 -0.266354 -0.394212 0.060033 -0.254016 0.245178 0.259412 -0.178942 -0.173252 -0.081360 -0.204374 0.194428 -0.341634 -0.167872
100 0.421599 0.169235 -0.610765 -0.452111 0.411430 -0.331030 -0.293618 0.188539 0.138630 -0.148900 -0.748384 -0.150179 0.052922 0.194785 -0.398735 0.335487 -0.010651 0.024302 0.328598 0.441984 -0.283542 -0.406003 0.425489 -0.023351 -0.587928 0.194200 -0.187114 0.232311 -0.319773 0.086822 0.187446 0.046272 0.099144 -0.777381 0.156145 0.211808 -0.142381 -0.014038 -0.126824 -0.034657 -0.462815 -0.071045 0.290606 0.019871 0.070801 0.901622 0.023840 -0.003094 0.377147 -0.243232 -0.154769 0.004612 0.222784 0.286881 0.385008 -0.410066 -0.230605 -0.614851 -0.005149 0.540167 0.109945 0.173472 0.248293 -0.223120 -0.099519 -0.407605 -0.417080 -0.081482 -0.192505 0.133444 -0.289975 -0.005174 0.731311 0.136947 0.439777 -0.326309 0.131816 0.149243 0.018120 0.171407 0.323618 -0.348436 0.347129 -0.045131 0.059946 -0.377795 0.200417 -0.039755 -0.446831 -0.120159 -0.082838 0.025350 -0.028928 -0.321275 -0.186064 0.157532 0.324372 -0.706541 0.508351 0.089114 -0.291117 0.195257 -0.153714 0.043298 -0.405987 -0.036734 0.085162 0.052031 0.201985 -0.095826 0.146303 -0.313546 0.709443 -0.656127 -0.454097 -0.111449 0.405298 0.671992 -0.314904 0.110186 0.202600 0.222686 0.350178 -0.065634 -0.720191 1.033037 0.255969 0.037156
62 -0.107358 -0.191049 -0.083910 -0.340769 -0.367046 -0.240509 0.084866 0.457571 0.756180 -0.113481 0.294180 0.182897 0.327423 -0.254931 -0.885858 -0.086561 -0.452156 0.281627 0.068549 0.055978 0.029995 0.203553 0.286537 -0.210531 -0.247938 -0.066585 0.058675 -0.102101 -0.211758 0.002292 0.468672 -0.087610 -0.147266 -0.161842 -0.133127 -0.293305 0.298140 -0.356782 -0.109657 0.645929 -0.656023 0.223821 0.697896 -0.196720 0.130101 -0.011781 0.435084 0.034719 0.341700 -0.195001 -0.159681 -0.002432 -0.093250 0.148999 0.101967 0.024142 0.050903 0.082645 -0.343472 0.078147 0.017956 0.103719 -0.214051 0.906576 0.144572 -0.467107 0.382340 -0.097798 0.025736 -0.327161 0.128839 0.257578 0.398387 -0.294275 -0.324147 -0.506296 0.060316 0.410909 -0.197698 0.216843 -0.152775 0.496182 0.252419 -0.109887 -0.301931 0.105055 0.112866 0.260550 0.147542 -0.011658 0.485554 -0.576410 -0.251982 0.223341 0.176158 -0.421489 0.589355 0.483156 0.001006 0.006427 0.660754 -0.139422 -0.081767 0.119361 0.228798 -0.214816 -0.027166 -0.028893 -0.180282 0.064646 -0.556822 0.449043 0.110998 -0.192631 -0.527580 0.401972 -0.227173 0.065080 -0.453777 0.279961 0.139917 -0.688140 0.207374 -0.079191 -0.393839 0.200601 -0.087581 -0.336689
2608 0.673902 0.073696 0.020285 0.413114 -0.085395 -0.887295 -0.992595 -0.278487 -0.008697 -0.273617 0.509411 -0.291310 -0.213643 0.197057 -0.249505 0.003606 0.028288 0.259288 0.419249 0.811359 0.615039 0.505412 0.168152 -0.279879 -0.837425 0.005043 -0.342451 -0.030222 -0.142045 -0.423643 -0.194031 0.286615 -0.103384 0.063864 -0.344746 -0.076052 -0.502906 -0.187442 -0.325452 -0.500748 -0.202704 0.365662 0.193491 -0.046963 0.059529 -0.179909 -0.246607 -0.173853 -0.087413 -0.263339 -0.195386 0.102536 -0.238770 -0.119059 -0.018070 -0.131930 0.559616 -0.469684 -0.239571 -0.381095 -0.459284 -0.449736 -0.156040 -0.093864 -0.456851 -0.365338 -0.176049 0.303614 0.181680 -0.068915 0.043342 0.565255 -0.249990 -0.339181 -0.107160 -0.908102 0.093368 0.446745 0.975584 0.012424 0.127335 0.252234 0.243434 0.316738 -0.117861 0.219970 -0.012098 -0.577073 -0.018256 0.442658 0.260112 0.062448 0.397246 0.191331 -0.756498 0.140961 0.545322 -0.014864 0.160276 -0.215835 -0.489614 0.202107 -0.325450 -0.154112 -0.104847 -0.304943 -0.524986 0.427298 -0.054893 -0.358435 0.077384 -0.043205 0.285895 0.492673 -0.052873 0.118358 -0.317946 0.233814 -0.195687 -0.122553 0.897641 -0.067180 -0.266673 -0.070325 -0.115130 0.152013 -0.325539 -0.504138
46 -0.024673 0.072689 -0.138915 0.070239 -0.139418 0.154386 -0.254222 -0.191856 0.194791 0.051353 -0.038118 0.352007 0.146593 -0.023090 -0.043537 -0.239220 -0.060387 0.208317 0.025850 -0.063315 0.013523 0.015381 -0.151553 -0.046849 -0.242093 -0.140955 -0.155428 -0.301462 -0.025386 -0.291732 0.020626 -0.061726 0.079605 -0.116126 0.098471 -0.019219 0.005266 0.095520 -0.084659 0.535739 -0.104503 -0.154296 0.352511 0.062461 -0.280337 0.093073 0.351250 -0.234665 0.315260 -0.220323 0.120238 -0.106418 -0.233873 -0.175242 -0.099532 -0.143058 -0.224721 -0.035484 -0.384548 0.240054 -0.130758 -0.004569 -0.158411 0.220897 0.037778 0.081780 0.119997 -0.177508 -0.167142 -0.346626 0.020926 -0.219495 0.227166 -0.137234 0.190770 -0.069599 0.200992 0.178343 0.220501 -0.065461 -0.108038 0.003152 0.351782 -0.270416 -0.178132 -0.110018 0.197608 -0.099538 -0.210416 0.334106 0.171867 0.068276 -0.009260 0.370577 -0.346608 -0.150932 0.191243 -0.066880 -0.073393 0.281440 0.075903 -0.000097 -0.112684 0.038281 0.255191 -0.134494 -0.187226 0.105433 -0.125762 -0.064103 -0.158393 0.516758 0.447322 0.014193 -0.538221 -0.104772 -0.016445 0.050914 -0.270988 0.237156 -0.193061 -0.189630 -0.149340 -0.271888 0.027553 -0.207581 0.222468 0.106191
84 0.393760 0.123385 -0.189968 -0.379004 0.553814 -0.906483 0.202285 -0.256647 -0.053191 -0.478758 -0.282845 0.814935 -0.544143 -0.134116 -0.283401 0.369558 -0.284093 0.326356 1.079429 0.707386 0.124689 0.072509 -0.122655 0.047532 -0.248907 0.019131 -0.438762 0.262012 -0.583400 -0.653838 -0.279899 0.065336 -0.229710 -0.724927 -0.092114 0.092856 0.089960 0.201701 -0.465763 -0.266053 -0.089933 0.614685 0.278007 -0.192325 0.118791 0.141592 0.162311 -0.124107 0.545343 -0.037368 -0.269276 0.068781 -0.143506 -0.424855 -0.115771 -0.913256 0.575487 0.294395 0.189733 -0.069896 0.256718 -0.727286 -0.581230 0.386194 0.296882 0.173827 -0.084867 0.097848 -0.347721 -0.164037 0.506769 -0.136935 -0.165659 -0.247531 -1.024046 -0.157277 -0.769625 0.275210 0.332068 0.374681 0.523233 0.403397 -0.154445 0.146578 0.473181 0.482067 0.106235 -0.462385 -0.236991 0.153324 -0.156539 0.038468 -0.834255 -0.755562 -0.769500 0.534051 -0.486042 -0.138678 -0.231734 -0.296403 0.132797 -0.357423 0.067308 -0.144800 -0.007565 -0.170940 0.008627 -0.291925 -0.442015 -0.119176 -0.099115 0.116679 0.281901 -0.051199 -0.456905 0.174337 -0.510140 0.796299 -0.506888 0.638575 0.354674 0.100936 -0.552442 -0.422869 -0.296722 0.339595 -0.285306 -0.356768
21 -0.063339 0.032030 -0.152734 0.072206 -0.166207 0.078053 -0.279083 -0.181283 0.151988 0.033238 -0.045634 0.314341 0.122577 -0.066271 -0.106500 -0.207431 -0.058298 0.190931 0.030573 -0.113744 -0.027620 -0.002937 -0.118359 -0.091911 -0.230390 -0.237781 -0.177044 -0.313647 0.054077 -0.310644 0.072497 -0.094101 0.079187 -0.105587 0.059346 -0.002420 0.001373 0.040303 -0.084755 0.565432 -0.127829 -0.125095 0.331858 0.109529 -0.315069 0.110514 0.323955 -0.189982 0.312055 -0.205761 0.150898 -0.141835 -0.218500 -0.209911 -0.105850 -0.180667 -0.169704 -0.017179 -0.365965 0.233238 -0.137429 -0.002700 -0.130193 0.218763 0.064132 0.055988 0.096624 -0.125269 -0.143515 -0.328303 0.032473 -0.174439 0.232938 -0.162957 0.259277 -0.100639 0.184913 0.145615 0.213645 -0.122424 -0.113460 0.026408 0.375231 -0.222666 -0.230104 -0.137888 0.208842 -0.139963 -0.237542 0.328884 0.208068 0.056838 -0.039621 0.358347 -0.413112 -0.165841 0.143817 -0.064153 -0.104510 0.301901 0.156202 -0.024188 -0.090830 -0.005555 0.269173 -0.169572 -0.189849 0.089759 -0.134045 -0.023524 -0.142519 0.514899 0.379816 -0.036221 -0.539413 -0.058146 -0.067165 -0.008564 -0.227678 0.237753 -0.215760 -0.126308 -0.171128 -0.330569 0.014484 -0.211779 0.240005 0.080953
48 -0.155608 -0.062710 -0.083509 -0.208930 0.189421 0.079415 -0.178715 -0.301142 0.213309 -0.278983 0.114687 0.816782 0.177953 0.439026 -0.314511 -0.270729 -0.164327 -0.166507 0.141078 0.140662 -0.356454 -0.092765 0.025685 0.140465 0.188336 0.095972 -0.303127 -0.101925 -0.072913 -0.293796 -0.008089 0.059447 -0.035545 -0.006005 -0.439937 0.324010 0.174570 -0.190656 -0.002193 0.425864 -0.227364 0.088685 0.398280 -0.031086 -0.073082 0.194558 0.448385 0.032637 -0.103230 -0.225895 0.340717 -0.109647 -0.117790 -0.000039 -0.639788 0.048083 -0.244525 0.086759 -0.419063 0.178383 -0.100972 0.313089 0.179432 0.552404 0.000333 -0.082419 0.404087 0.005575 -0.155795 -0.363924 -0.216737 -0.043715 -0.007473 -0.044569 0.468662 -0.550539 0.302275 0.134830 -0.098765 -0.026428 -0.015163 -0.022562 0.251051 -0.015187 0.090395 0.204625 0.495024 0.026752 -0.014901 -0.473370 0.037477 -0.096885 -0.218586 0.283559 -0.316232 -0.477821 0.098859 -0.423035 -0.315457 0.242758 0.090813 0.175607 0.073443 -0.070359 -0.043549 -0.068023 -0.135069 0.048621 -0.382316 0.184940 -0.141739 0.329242 -0.003356 0.477400 -0.332474 0.043061 0.345409 0.144549 -0.198335 0.278253 -0.045947 -0.400393 -0.017788 -0.232961 -0.472373 0.014140 -0.022186 0.007135
66 0.556067 -0.081580 -0.726202 -0.397218 0.461410 -0.293967 -0.259508 -0.059322 0.318610 0.063944 -0.344806 0.098076 0.246659 0.484485 -0.326904 0.311905 0.195299 0.413528 0.120064 0.486821 -0.173334 -0.290526 0.668458 -0.201156 -0.383554 -0.092800 0.087535 0.220451 -0.221938 -0.573130 0.019293 0.040917 -0.372862 -0.332111 0.091842 0.262897 -0.155655 -0.042030 -0.240242 -0.149700 -0.284936 -0.291710 -0.082513 -0.336305 0.013049 0.312507 0.359224 0.225436 0.234167 0.040769 0.207733 0.203465 0.063126 0.537126 0.620371 -0.915648 -0.407463 -0.480280 -0.376520 0.124900 0.064117 -0.035506 0.385924 -0.520650 0.199723 -0.388147 0.200850 -0.059234 -0.146255 0.240740 -0.002981 0.270216 0.240656 0.516660 -0.138217 -0.486169 0.065108 0.050210 0.184874 -0.061594 -0.154791 -0.097091 -0.666413 -0.775824 0.174399 -0.104403 0.483828 -0.257594 -0.533939 0.064512 0.134182 0.007675 0.716069 0.047300 -0.182610 -0.101377 0.410366 -0.568600 0.053770 0.022040 -0.102129 -0.247883 -0.528362 -0.314565 -0.619931 0.073199 0.045546 0.229200 -0.190824 0.303167 -0.438333 0.214638 0.893937 -0.496085 0.095224 0.236249 0.072265 0.429819 0.040479 0.314869 0.376526 0.779740 0.390955 0.013779 -0.532363 0.305930 0.192045 0.267757
79 0.406658 0.437480 -0.012604 -0.326740 -0.086365 -0.356062 -0.356568 -0.383969 -0.269976 0.096038 0.724572 -0.001691 -0.187852 -0.557064 -0.430101 -0.276419 0.164976 0.564724 0.403166 0.323038 0.026786 0.230994 -0.102443 -0.231814 -0.782118 0.365206 0.240976 0.479183 -0.403678 -0.065577 -0.356829 -0.268390 -0.386315 0.021121 0.065937 0.033108 -0.086737 -0.129520 -0.552570 -0.380960 0.426882 0.483578 0.118514 0.172362 -0.101090 -0.110286 0.127990 -0.151128 -0.016030 -0.259599 -0.128684 -0.258829 0.324046 0.065603 -0.072752 -0.283382 0.151116 -0.315389 -0.248326 -0.567932 0.283315 0.115770 -0.060618 -0.244341 -0.508133 0.082984 -0.006074 0.501547 -0.094267 0.241442 0.363729 0.259377 -0.281846 -0.361227 -0.035000 -0.331329 -0.271397 0.429961 0.717640 -0.325941 0.551530 0.041889 -0.017205 0.158698 0.057650 -0.229052 0.026895 -0.339794 -0.599835 0.297117 0.008144 -0.503224 -0.209879 -0.453811 -0.738346 -0.380323 -0.097632 -0.147131 0.254277 -0.205544 -0.092216 -0.607155 -0.368437 0.151184 -0.085841 0.559721 0.484952 0.492502 -0.345814 0.214351 0.124971 -0.006440 0.551874 0.228667 0.057331 -0.018384 -0.061407 0.394629 -0.299759 -0.275306 0.492809 -0.203609 -0.396184 -0.206208 -0.443170 0.131346 0.268437 -0.386048
24 0.637363 -0.299237 -0.084435 0.104045 0.044569 -0.180528 -0.518379 -0.419744 0.892274 0.083370 0.647007 0.029434 -0.126929 -0.263243 -0.312205 0.338108 0.115104 0.446838 0.456116 0.026976 0.050431 0.172167 0.142278 0.319676 -0.278359 0.143232 -0.016832 0.080166 0.027744 -0.016927 -0.392888 0.017678 -0.584690 -0.148562 0.228781 0.156811 -0.452434 -0.103909 -0.298690 -0.400592 0.428113 -0.150849 -0.265246 0.261487 -0.052103 0.436082 0.269676 -0.133996 -0.100185 0.121582 -0.407074 -0.253538 -0.031093 -0.234051 0.149533 0.159132 0.184580 0.001743 -0.053581 -0.294790 0.033712 -0.120429 0.271542 -0.155883 -0.077748 0.400705 -0.193254 0.239777 -0.413566 0.375507 -0.016959 0.449963 -0.435687 -0.688151 -0.058733 -0.525256 0.020318 0.080076 0.149970 0.384469 0.104511 -0.147911 0.190583 0.164617 -0.355962 0.108625 0.256924 0.027358 -0.266330 -0.485205 -0.308436 -0.205192 -0.374098 -0.247275 -0.553795 0.120619 0.275283 -0.262413 0.235498 0.025088 0.027793 -0.285692 0.039099 -0.023833 0.144102 -0.033114 0.385417 0.326258 -0.072232 -0.108855 0.343324 0.148105 0.347138 0.327593 -0.406075 0.418532 -0.255484 0.046054 -0.324672 0.179679 0.209069 0.113988 0.056888 0.398192 0.034991 0.141148 0.358012 -0.075879
338 0.797969 -0.163651 -0.016997 -0.137953 0.022117 -0.114145 -0.638063 -0.309643 0.977291 0.082909 0.923411 -0.040309 -0.070835 -0.202648 -0.393227 0.388257 -0.044192 0.702255 0.515981 -0.021806 -0.038092 0.225771 0.098083 0.394529 -0.419392 0.058703 0.217209 0.259723 0.268465 0.020873 -0.442212 -0.045784 -0.622270 -0.286129 0.305404 0.061131 -0.543764 -0.237736 -0.263242 -0.294771 0.730582 -0.227430 -0.333166 0.224565 -0.268478 0.539099 0.022831 -0.221400 0.126925 0.054985 -0.578912 -0.402707 -0.058632 -0.251187 0.275041 0.243367 0.128645 0.208171 0.047026 -0.423287 0.087749 -0.088313 0.420682 -0.093673 -0.141879 0.780176 -0.571093 -0.018167 -0.575716 0.316609 0.126736 0.371701 -0.488052 -0.652837 -0.077904 -0.638565 0.031372 0.027736 0.102904 0.451995 -0.043882 -0.326729 0.260471 0.239637 -0.076045 -0.087333 0.375539 -0.002403 -0.423976 -0.491841 -0.305186 -0.232019 -0.389851 -0.101489 -0.796770 -0.030875 0.394288 -0.352507 0.399731 -0.032519 -0.099317 -0.221457 0.170316 -0.283067 0.509974 0.001430 0.360976 0.415649 -0.208521 -0.168372 0.260792 0.124763 0.195581 0.388138 -0.578231 0.609359 -0.186477 0.143049 -0.068528 0.059597 0.196436 0.169759 0.337097 0.492570 -0.013021 0.097455 0.293773 -0.096582
96 0.228529 0.132760 0.207154 0.701316 -0.076162 -0.249874 0.197757 -0.377378 0.124328 -0.053754 -0.192033 0.131563 -0.269949 0.246617 -0.734458 0.817996 0.572975 0.611138 0.456455 -0.321601 -0.440602 -0.562389 0.061655 -0.015054 -0.794621 0.438551 0.575010 0.230960 -0.361414 -0.318351 -0.275776 0.650855 0.388311 0.301536 -0.207538 -0.214351 -0.167474 0.061968 0.279753 -0.079808 -0.495468 0.062062 0.068667 0.327841 0.185525 -0.335078 0.375372 -0.618263 0.041332 0.358737 -0.108346 -0.297490 -0.550248 -0.051756 0.379554 -0.432660 0.182423 0.283860 -0.485685 0.177599 0.422318 0.020399 0.190642 -0.125216 0.056425 -0.388130 0.067136 0.295738 -0.045198 -0.202642 0.007444 -0.430464 0.051422 -0.413115 -0.424944 -0.012362 0.876717 -0.302111 0.410770 -0.636200 -0.087069 -0.517681 0.071609 0.287222 -0.212313 -0.220741 0.647536 -0.421756 0.004804 0.053076 0.153080 -0.208555 -0.352942 -0.570472 -1.025392 -0.466524 0.261640 -0.332192 -0.065437 -0.416010 -0.083287 0.156667 0.217209 -0.741141 -0.653034 0.014793 -0.042676 -0.130064 -0.042038 0.132482 -0.552070 -0.229056 0.558822 -0.118982 -0.892663 0.166235 0.123475 -0.096684 0.205936 -0.008575 0.413619 -0.391804 -0.264868 0.454669 -0.107019 0.626981 -0.041476 -0.139435
837 0.621825 -0.379669 -0.089539 -0.103412 0.549932 -0.364285 -0.504144 -0.027567 0.770033 0.269779 0.658911 -0.145941 0.330183 -0.308672 -0.161478 -0.095697 -0.238324 0.169734 0.284600 0.072477 -0.749863 0.370428 -0.173533 0.194241 -0.338597 0.345933 -0.298849 0.299157 0.060533 -0.077092 -0.285479 0.313711 -0.064690 -0.016448 0.149220 0.222894 -0.458199 -0.604117 -0.352269 -0.440049 -0.229390 0.018122 -0.531807 0.330654 0.199732 0.766698 0.374478 -0.287474 -0.069686 0.195449 -0.278040 -0.161572 -0.104870 -0.256951 -0.120852 0.339346 0.031710 0.052392 0.055245 -0.179632 -0.094888 -0.061616 -0.257983 0.002497 0.482320 -0.199463 0.281434 0.180294 -0.037763 0.703963 0.029095 0.136393 -0.118813 -0.949436 -0.012719 -0.578379 0.120683 0.126367 0.371749 0.095070 0.043421 -0.645124 0.262541 0.185306 -0.084105 0.055396 0.599681 -0.143882 -0.588739 -0.336489 0.162199 -0.015741 -0.118519 -0.307447 -0.871793 0.004091 0.380051 -0.145724 0.142621 -0.055645 -0.375877 -0.134389 0.019119 0.103116 -0.110594 0.348117 0.375203 0.154751 -0.139438 -0.336202 0.345506 -0.062656 -0.062847 0.320259 -0.394016 0.213993 -0.256781 -0.069124 -0.551246 -0.081166 -0.214483 0.462024 -0.677690 0.006559 0.122460 0.254343 -0.158295 0.011253
3081 -0.057499 -0.242540 0.261205 -0.102258 -0.650353 0.085658 -0.205805 0.030143 0.083256 -0.144345 -0.154841 0.325372 0.078004 -0.182936 -0.058490 0.038810 -0.514460 0.120627 0.314974 -0.275778 0.266399 0.169281 -0.094505 -0.134167 -0.068337 -0.200120 -0.224347 0.039409 -0.032009 -0.260751 0.222590 0.225147 0.142183 -0.375835 0.138136 -0.287258 0.447979 -0.044668 -0.546362 0.536221 -0.493620 0.470076 0.497581 -0.044963 -0.408920 0.368221 0.441967 -0.274847 -0.516393 -0.051303 0.216008 -0.110616 -0.033606 -0.216974 0.114508 -0.224798 -0.375128 -0.505144 -0.392883 -0.010974 -0.017144 0.307492 0.144125 0.059246 -0.265733 0.205318 0.038633 0.075359 -0.322684 0.615020 -0.081831 0.395964 0.092463 0.294377 0.122515 -0.141596 0.269972 0.000750 0.158915 0.104476 -0.363827 -0.074700 0.035689 -0.247351 -0.525636 0.279170 0.556660 0.177254 0.059603 -0.388676 0.153381 0.369666 -0.532573 0.457548 -0.689153 -0.586823 0.165134 0.041062 -0.237012 0.220529 -0.380370 0.196516 -0.152201 0.073657 0.109139 0.058943 -0.363617 -0.051572 -0.365688 0.225433 -0.239239 -0.019669 -0.104598 0.023883 -0.497118 0.076689 0.267896 0.164364 -0.215873 -0.012458 0.092777 -0.012955 0.067394 0.022007 -0.208732 0.090554 0.086729 -0.175505
1514 0.081887 -0.060057 0.164059 -0.481321 -0.123527 0.452387 -0.164007 -0.498182 0.496681 0.078688 0.017823 0.513299 0.224640 0.180272 -0.285456 0.092770 -0.220335 0.296501 0.265368 0.008335 0.347563 0.287424 -0.392293 -0.368977 -0.264890 -0.256817 -0.018323 0.053439 0.064942 -0.170533 0.199880 -0.119173 0.092525 0.051333 0.380506 0.221559 0.042982 -0.236325 0.119846 0.514234 0.206128 -0.045152 0.281930 -0.038116 -0.158187 0.601797 0.334324 -0.224207 -0.057093 0.012339 0.558027 -0.470485 0.296154 -0.276531 -0.033775 -0.918712 -0.162135 0.043646 -0.218764 -0.061347 -0.452562 0.673818 -0.297439 0.212988 -0.015759 0.461961 0.136663 0.097579 -0.111013 0.067847 0.059731 0.171830 -0.109902 0.056583 0.184186 -0.633026 0.657174 0.247155 0.250744 0.111928 -0.337820 0.292070 0.467366 0.364550 -0.162907 0.275379 0.217672 0.267771 0.111275 -0.126139 0.022756 0.165446 0.044148 0.319817 -0.692215 -0.249713 -0.134173 0.145718 -0.075668 0.237146 -0.398023 0.248783 -0.080783 -0.442390 -0.130512 0.217897 0.031789 -0.379983 -0.023918 0.166907 -0.198745 -0.136308 -0.010026 0.022436 -0.992235 0.520910 0.450253 -0.358060 0.175366 0.561965 0.085729 -0.092525 0.551747 -0.010069 -0.297712 0.172233 -0.213077 0.007728
989 0.265795 -0.072347 0.084111 0.303554 0.097412 -0.261606 -0.317195 -0.225263 -0.145184 -0.259911 0.234801 -0.078217 -0.011089 0.288542 -0.632546 0.062341 -0.030649 0.059221 0.241841 0.281504 0.406048 0.739900 0.318415 0.118039 -0.462211 0.262821 0.076879 0.401252 0.371946 -0.083484 -0.459101 -0.353966 -0.297745 -0.156804 0.117956 0.138681 0.004563 -0.022415 -0.504602 -0.481543 0.031988 0.141083 0.103870 -0.132591 -0.268047 0.898402 -0.024134 0.124506 0.363732 -0.263214 -0.219172 0.161325 -0.063346 -0.208824 0.346857 0.038372 0.149721 -0.214156 -0.051467 -0.163075 0.134755 -0.378622 -0.184320 -0.336435 -0.738184 0.161502 0.211278 0.634817 -0.191221 0.411118 -0.047497 0.225038 -0.338074 -0.571724 -0.155482 -0.493510 -0.152711 0.277098 0.199038 0.223021 -0.034065 -0.180376 0.021429 -0.203325 -0.416232 0.171646 0.372956 -0.425848 -0.375958 -0.055004 0.237093 -0.131585 0.059480 -0.122708 -0.838016 0.137068 -0.202628 -0.364095 -0.232804 -0.588223 0.271959 0.371344 0.122659 -0.159544 -0.234457 -0.188394 0.152057 -0.099004 0.162561 -0.112011 0.231690 0.434936 0.368174 -0.064814 -0.329285 -0.374491 -0.280581 -0.090524 -0.270802 0.287407 0.555436 -0.038847 -0.389767 0.231079 -0.248929 0.215521 -0.526225 -0.084378
383 0.223698 -0.123061 0.085539 0.394432 0.167908 -0.268859 -0.329517 -0.219688 -0.185490 -0.150377 0.212266 -0.192368 0.029203 0.293805 -0.563620 0.071008 -0.034822 0.110868 0.206877 0.328993 0.419764 0.715774 0.339498 0.139689 -0.490497 0.253193 0.048850 0.341231 0.336234 -0.037633 -0.491153 -0.397044 -0.303757 -0.145053 0.170412 0.187002 -0.003454 -0.013256 -0.540881 -0.507553 0.092087 0.123265 -0.000948 -0.123859 -0.223490 0.958882 -0.003294 0.136212 0.351452 -0.315017 -0.180726 0.209898 -0.103380 -0.169761 0.337564 0.022597 0.081628 -0.260108 -0.009683 -0.087750 0.105005 -0.374139 -0.159812 -0.283078 -0.718138 0.131992 0.256284 0.604711 -0.195021 0.333396 -0.083908 0.319541 -0.412324 -0.520478 -0.180925 -0.556326 -0.184562 0.262085 0.251714 0.182201 -0.041257 -0.147067 -0.004599 -0.196794 -0.431754 0.139281 0.472867 -0.327508 -0.381975 -0.096792 0.296701 -0.191082 0.027964 -0.111554 -0.789296 0.163704 -0.192513 -0.265353 -0.256704 -0.496167 0.183350 0.374666 0.053448 -0.156052 -0.369135 -0.229379 0.172106 -0.111401 0.111258 -0.117012 0.266374 0.477855 0.334862 -0.094469 -0.375021 -0.357928 -0.317788 -0.044706 -0.261231 0.237722 0.553061 -0.077292 -0.378139 0.280840 -0.265232 0.239160 -0.515375 -0.117844
178 0.269037 -0.050155 0.065498 0.328037 0.096946 -0.210913 -0.267172 -0.175047 -0.202350 -0.276069 0.191864 -0.173316 0.027231 0.261535 -0.657694 0.118977 -0.057081 0.096349 0.279787 0.301668 0.438471 0.700141 0.364161 0.102396 -0.463789 0.304065 -0.006391 0.383703 0.344074 -0.069504 -0.463937 -0.350350 -0.285460 -0.181945 0.120821 0.173289 0.002626 -0.015520 -0.542844 -0.496515 0.042196 0.125351 0.045973 -0.133289 -0.196375 0.954223 0.001654 0.124285 0.393759 -0.277705 -0.197142 0.214137 -0.135639 -0.123081 0.293449 0.054939 0.096304 -0.222285 -0.055157 -0.106570 0.183897 -0.348601 -0.159637 -0.346670 -0.722488 0.211711 0.306311 0.573454 -0.154845 0.356595 -0.072966 0.237516 -0.391480 -0.568983 -0.099099 -0.583477 -0.288179 0.259759 0.238825 0.223813 -0.079290 -0.166859 0.077402 -0.189485 -0.386106 0.106163 0.434107 -0.323434 -0.382251 -0.001565 0.267249 -0.146939 0.029230 -0.100983 -0.781967 0.212126 -0.165704 -0.352876 -0.283865 -0.463012 0.238631 0.371773 0.083151 -0.160291 -0.363691 -0.215324 0.190563 -0.132006 0.033439 -0.088524 0.150725 0.460049 0.370002 -0.078583 -0.311898 -0.327008 -0.312412 -0.084097 -0.269472 0.253724 0.536031 -0.078201 -0.321552 0.290777 -0.271936 0.180774 -0.501191 -0.030417
30 0.274250 -0.463909 -0.174310 -0.182988 -0.002009 -0.439742 0.332028 -0.099316 0.286205 0.195941 0.415043 0.500019 -0.834962 -0.614122 -0.202033 -0.225945 -0.227389 0.185339 0.367343 0.739615 -0.112367 0.432602 -0.136648 0.139623 0.081188 0.289680 0.311764 -0.117389 -0.389493 0.087534 -0.822993 -0.063024 -0.210968 -0.130734 -0.314659 -0.020642 -0.148777 0.074255 -0.238199 -0.822206 0.331572 0.159361 -0.103875 -0.325465 -0.001031 0.675647 0.200523 -0.253013 -0.056559 -0.457720 -0.396936 0.058651 -0.250557 -0.212551 -0.711762 0.654104 -0.028360 -0.268367 -0.320487 0.291969 0.327744 -0.870287 0.572702 0.240953 0.134379 0.417232 0.147873 0.385746 0.224590 -0.496913 0.484939 0.264897 -0.430500 0.012948 -0.124381 -0.094238 0.118267 -0.040903 0.369668 0.622683 0.384435 -0.331206 0.646348 -0.536581 0.678763 0.300613 0.182812 -0.471643 -0.878928 -0.701741 0.247599 0.003877 -0.283412 -0.506046 -0.662086 -0.396038 -0.324514 -0.553337 -0.299501 -0.684917 -0.128792 0.141267 -0.052125 -0.474290 -0.337873 0.431883 0.164024 -0.010749 -0.222604 0.071248 -0.035156 0.155586 0.908181 -0.159370 -0.187733 -0.041273 -0.041630 0.382692 -0.360193 0.699476 0.356189 -0.346941 0.199111 -0.215037 0.279812 0.554375 -0.200487 0.154657
38 0.146416 -0.063598 -0.094478 -0.167787 -0.045706 -0.376743 -0.299324 -0.215103 -0.016478 -0.183033 0.282437 0.038302 0.004972 -0.285179 -0.198513 0.245878 0.041801 -0.171898 0.448083 0.370710 -0.015874 0.435786 0.302549 -0.003984 -0.593535 0.003955 0.259354 0.281601 0.179062 -0.304219 -0.341618 -0.310831 -0.095622 -0.105185 0.056350 -0.166168 -0.202009 -0.036064 -0.281571 -0.766853 -0.112277 0.078682 0.213237 -0.272558 -0.039708 0.615355 0.144791 -0.086977 0.362516 0.154887 -0.228800 0.071007 -0.077182 -0.191364 -0.022404 -0.240080 0.185042 -0.127514 -0.139718 -0.162251 -0.196554 -0.465874 0.102175 -0.320361 -0.625207 0.274701 0.309926 0.525501 -0.381888 0.297678 0.093971 0.409411 -0.183541 -0.304463 -0.206069 -0.553696 -0.528522 0.131865 0.216820 0.096183 0.088665 0.009100 -0.005957 -0.010447 -0.173383 0.048214 0.361508 -0.169017 -0.322623 0.066037 -0.219559 -0.347646 -0.098483 0.215306 -0.544487 0.425333 -0.621929 -0.169927 0.010647 -0.102947 0.313168 -0.084527 0.228786 -0.068512 -0.695703 0.010674 0.174825 0.110144 -0.401682 -0.293879 -0.024626 0.335388 0.427987 0.000016 -0.463991 -0.154094 -0.239702 -0.057411 -0.309588 0.107189 0.550104 -0.107167 -0.750981 0.122543 -0.279717 0.085828 -0.579514 0.058165
52 0.711356 -0.096080 -0.348975 0.083545 -0.114146 -0.504111 -0.081793 0.032910 0.201634 -0.404239 0.145578 0.156487 -0.233118 -0.731524 -0.008118 0.122589 0.060272 0.297556 0.381435 0.364106 0.365944 -0.033519 -0.164599 -0.133594 -0.325464 0.508554 0.186982 0.055501 -0.443244 -0.642899 -0.071950 0.158620 0.039273 0.138783 0.202871 -0.107333 -0.420615 0.058852 -0.602271 -0.758301 0.408538 0.510934 0.111398 0.098615 -0.146194 0.204266 -0.499534 -0.132532 0.200496 -0.496937 -0.299753 -0.202228 -0.186010 -0.335818 -0.215990 -0.023183 -0.114195 -0.408759 -0.085262 -0.592436 -0.015306 -0.251758 0.233700 -0.067517 -0.223891 0.074732 0.093994 0.639138 -0.315224 0.208388 0.282452 -0.517533 -0.108709 -0.079219 0.315297 -0.539866 -0.309203 0.253176 0.354092 0.467943 0.207426 -0.596774 -0.727665 -0.214509 -0.330866 -0.682806 -0.206667 -0.747777 -0.049926 -0.216810 -0.015683 0.309271 -0.913503 -0.016521 -0.607211 -0.379688 -0.052134 0.031515 0.082752 -0.282130 0.017226 -0.260333 -0.539229 0.438659 -0.176480 -0.229438 0.272630 0.154270 -0.572565 -0.004758 0.371719 0.124393 0.181088 0.134860 -0.223182 0.196575 -0.520954 -0.851031 -0.502931 0.344385 0.344212 -0.457876 -0.023317 0.317619 -0.523737 0.200283 -0.246864 0.064693
25 0.774453 0.170126 0.146740 0.032038 -0.434287 -0.196257 -0.029641 -0.224259 -0.109065 0.291286 0.634170 -0.289067 0.022399 -0.345705 -0.275859 -0.074512 0.417729 0.232252 0.364427 0.188450 0.474911 0.225430 0.104424 -0.248842 -0.522582 0.268302 -0.001797 0.377290 -0.446834 -0.278697 -0.320247 -0.302312 -0.316666 -0.149061 0.098134 0.178965 -0.019884 -0.045851 -0.419853 -0.472559 0.064066 0.520417 0.230097 -0.139458 0.255295 0.301106 0.712634 0.023163 0.448374 -0.048770 -0.173285 0.063183 0.023480 0.149914 -0.137694 0.496281 0.307337 -0.353577 0.058728 0.320719 0.037914 -0.199754 0.073593 -0.370939 -0.672509 -0.068286 0.073984 0.491565 -0.147397 0.141145 0.246867 0.320371 -0.059895 -0.142486 -0.136496 -0.634699 -0.201689 0.288056 0.242028 0.023795 0.781937 -0.075176 -0.460793 0.108084 -0.287132 -0.135668 0.013339 -0.704026 -0.057364 -0.346063 -0.330802 -0.094385 -0.572433 0.207575 -0.648515 -0.235642 0.025613 0.083606 -0.050663 -0.289374 -0.047682 -0.169930 -0.505405 0.189858 -0.209420 -0.292620 0.238469 0.147845 -0.555329 -0.280441 -0.044185 -0.182272 -0.109070 0.062553 -0.292887 0.495298 -0.451150 0.215932 -0.478580 -0.020359 0.316619 -0.292458 -0.541767 -0.103786 0.041736 0.390309 -0.117680 -0.176798
22 0.615509 0.030613 -0.429269 -0.386305 -0.113059 -0.522811 -0.019346 -0.049715 0.097140 -0.517090 -0.637870 0.025464 0.344041 -0.133970 -0.012699 0.092957 -0.111238 0.224985 0.376372 0.524992 0.092059 0.012869 0.342832 -0.131469 -0.820697 -0.007004 0.287237 -0.418885 -0.253804 0.101329 0.023953 0.029401 -0.070254 -0.578398 -0.071874 0.253153 -0.462846 0.193491 -0.009315 -0.020657 -0.582742 -0.067352 0.476777 -0.167232 0.111724 0.382673 0.075624 -0.048596 0.754515 0.335113 -0.118667 -0.373457 0.163169 0.134039 0.568922 -0.248172 -0.270841 -0.696048 0.047304 0.642015 0.114325 -0.013155 0.138003 -0.009682 0.043987 -0.353408 -0.255009 -0.226861 0.214582 0.202983 -0.459321 0.344777 0.776741 -0.049459 0.338238 0.208231 -0.309634 0.425986 -0.219916 -0.107627 0.010376 -0.599089 -0.188768 -0.007980 0.058979 -0.636256 0.174290 -0.227879 -0.403833 -0.823906 -0.018491 0.020670 -0.343449 -0.099957 0.038215 -0.220490 0.172940 -0.505233 0.226731 0.063619 -0.532182 -0.068911 -0.022391 -0.179460 -0.047392 0.426248 0.182148 0.046672 0.077281 0.054104 0.283189 0.003295 0.658094 -0.270555 -0.342362 -0.026798 0.436107 0.056837 -0.076619 0.275090 0.698682 0.475647 -0.100076 -0.050816 -0.676231 1.083971 0.591945 0.287795
1697 -0.078424 -0.020322 0.294736 -0.130283 -0.085412 -0.101598 -0.269585 0.162745 0.387434 -0.179197 -0.070695 0.501084 0.265587 0.086734 0.069635 -0.168568 -0.538118 0.658827 -0.030006 -0.222394 0.474672 -0.080249 0.015890 -0.382739 -0.091581 -0.254069 -0.220076 -0.180738 -0.116473 -0.537142 0.230921 0.113439 -0.251989 0.015757 -0.395675 0.195143 0.216905 0.033242 0.051523 0.664223 -0.037909 -0.208652 0.792128 0.347887 -0.359393 0.490104 0.419679 -0.482299 -0.294912 0.255590 -0.069972 0.041374 0.118918 -0.389873 0.297010 -0.824829 -0.074060 0.334913 0.184625 -0.239116 0.381562 0.514698 0.321915 -0.184519 -0.123687 -0.171130 0.244650 0.317737 0.556009 -0.274342 0.484992 -0.141090 0.133586 0.196798 0.170681 -0.102095 0.146772 0.100550 0.068089 0.456424 -0.482351 0.248536 0.113473 0.119954 -0.083489 0.413846 -0.283719 0.092376 -0.316424 -0.415377 0.010487 -0.239045 -0.550675 0.757414 -0.386674 -0.335522 -0.249357 -0.081758 -0.072928 -0.076962 -0.124405 0.007145 -0.235512 0.466589 0.077348 -0.218814 -0.006980 -0.064194 -0.125220 -0.066067 -0.399457 0.366786 -0.148364 -0.113187 -0.533459 0.342368 -0.069044 0.312018 -0.369590 0.316232 0.441244 -0.177771 -0.705485 -0.225644 -0.355522 0.126603 0.437461 -0.100638
1300 -0.064455 -0.074052 0.291486 -0.068478 -0.121662 -0.054834 -0.302562 0.160557 0.342406 -0.162371 -0.042329 0.470658 0.233508 -0.023004 0.054085 -0.198757 -0.525645 0.686230 -0.040437 -0.245722 0.454034 0.009844 0.026568 -0.329634 -0.073827 -0.209837 -0.216172 -0.164908 -0.081884 -0.484823 0.148390 0.103037 -0.234862 -0.088959 -0.357438 0.202131 0.264784 0.074759 0.086562 0.690559 -0.020414 -0.137961 0.745004 0.357797 -0.332857 0.526659 0.367139 -0.519387 -0.288430 0.282310 -0.109215 0.015011 0.136261 -0.465563 0.308259 -0.880303 -0.060528 0.203782 0.258568 -0.161543 0.321708 0.518402 0.303591 -0.279160 -0.048619 -0.158794 0.202102 0.304958 0.513685 -0.393085 0.484662 -0.043026 0.177094 0.184192 0.257599 -0.106065 0.134280 0.124966 0.040757 0.516986 -0.569562 0.236467 0.153573 0.184604 -0.096749 0.411781 -0.228763 0.076200 -0.192483 -0.390057 -0.007330 -0.269541 -0.557585 0.722036 -0.334510 -0.358052 -0.239693 -0.109684 -0.055850 -0.045916 -0.210672 0.013170 -0.231992 0.391168 0.105344 -0.262368 0.073865 -0.106460 -0.148771 -0.050728 -0.357927 0.425580 -0.126291 -0.147329 -0.513020 0.337631 -0.068600 0.377889 -0.328705 0.332714 0.355394 -0.226958 -0.676340 -0.274988 -0.344069 0.094681 0.417096 -0.156605
331 -0.083272 0.118468 -0.037873 0.098601 -0.014414 -0.526913 -0.050127 -0.379300 -0.068626 0.063594 -0.471305 0.075078 0.263163 0.212237 0.032587 0.364552 0.578344 0.159534 0.283995 -0.662811 -0.581146 -0.849098 0.503745 0.123885 -1.170943 -0.197883 -0.126736 0.168437 -0.805384 0.354075 -0.154581 0.533527 0.462077 -0.498432 0.021489 0.104307 -0.130321 -0.909315 0.013590 -0.372445 0.141293 -0.493184 0.291643 0.051899 -0.006942 0.194703 0.243082 -0.484063 0.230898 0.449819 0.156331 -0.228828 0.194261 0.326875 0.413651 -0.593571 0.273322 0.076527 0.017300 0.039052 0.646866 0.073139 0.958932 -0.346430 -0.272651 0.444169 0.448038 0.447028 -0.185729 -0.035760 -0.099397 -0.512191 0.031250 -0.098034 -0.724625 -0.199918 0.411612 0.654184 0.074410 -0.308095 -0.930720 0.010071 0.326990 0.235835 -0.570028 -0.107571 0.144532 -0.723743 -0.045195 -0.051677 0.075650 -0.155958 -0.545467 -0.767809 -0.782257 -1.172828 0.583767 -0.419183 -0.755889 -0.423422 -0.027871 0.412707 0.103325 -0.529396 -0.228765 0.319715 -0.038601 -0.046277 -0.168220 0.140491 -0.507930 0.331908 0.247010 0.100910 -0.486021 0.447159 -0.396835 0.384734 -0.711075 -0.011571 0.430933 -0.370830 -0.413892 0.584170 0.201578 0.336178 -0.371475 -0.045627
26 0.809258 0.208318 0.126789 -0.537579 0.139797 -0.591149 -0.116093 -0.386320 0.252989 -0.020153 0.310001 -0.069018 0.356589 -0.776073 -0.520557 -0.034213 -0.251481 -0.005158 0.182822 0.379776 0.615688 0.174352 0.132262 -0.165029 -0.788607 0.410053 -0.576896 0.173924 -0.035706 0.167329 -0.855359 0.016756 0.079885 -0.536127 0.011732 -0.600992 -0.460748 -0.368007 -0.382785 0.032170 0.176323 -0.230229 -0.440836 0.152551 0.015748 0.514961 0.148165 -0.210109 0.146213 0.011454 0.030042 0.204673 -0.103011 -0.188249 -0.065235 -0.376908 0.132308 -0.197025 -0.363283 0.115446 -0.114743 -0.569659 -0.201700 0.399469 -0.223411 0.539333 0.526495 0.491351 -0.521570 0.050376 0.342643 0.471108 -0.212199 -0.434614 -0.338565 -0.481121 0.136380 0.093491 0.072698 0.050122 0.025860 -0.338599 -0.210745 0.027889 -0.068325 0.183618 0.256844 -0.292257 -0.246504 -0.012890 -0.453586 -0.300133 0.174382 -0.009262 -0.578558 -0.452007 -0.363220 -0.298579 0.187252 0.283106 -0.068366 -0.166508 0.120690 0.495016 -0.402290 -0.014249 1.037949 -0.431564 -0.420387 -0.354343 -0.318449 0.250659 -0.027810 -0.064635 0.187470 0.094733 -0.386419 -0.326788 0.176972 0.300483 0.805378 0.123087 -0.176694 0.173366 -0.088396 0.459858 -0.056042 -0.169412
2535 -0.250659 0.173269 0.357184 -0.449119 -0.314579 -0.151090 0.485724 -0.146628 0.244569 -0.170263 0.130515 0.217875 -0.323804 -0.421430 -0.096335 -0.542286 -0.229957 -0.005250 0.389939 -0.371285 0.314145 0.247266 0.037483 0.155737 -0.383949 0.095347 -0.503112 -0.397859 0.359981 -0.832746 0.428945 0.526312 -0.396934 -0.405981 0.024254 -0.113194 0.285123 -0.536509 0.273547 0.542366 -0.222512 0.136258 0.183828 0.053269 -0.530224 0.270643 0.448750 0.038670 0.404874 -0.153111 0.028738 -0.038258 -0.026387 -0.121541 -0.239614 -0.059555 -0.524946 -0.672134 -0.322679 -0.106658 -0.010769 0.376086 0.344730 0.449215 -0.134050 -0.063050 0.190545 0.305558 0.026346 -0.038410 -0.413586 -0.247612 0.317859 0.084206 -0.456368 -0.484422 0.339535 0.146632 -0.081056 -0.346828 0.025927 0.176237 -0.029817 0.060715 0.480074 0.509569 0.509667 0.549573 -0.031106 -0.278384 0.298448 0.151052 -0.148416 -0.050975 -0.259548 -0.672369 0.140844 0.075065 0.364305 0.183161 0.592041 -0.163745 -0.168974 -0.625059 -0.190694 -0.524501 -0.043168 0.288761 -0.434056 -0.112346 -0.345939 0.213996 -0.406086 0.036975 -1.266080 0.202886 0.201451 0.132149 -0.048769 0.159475 0.363972 -0.120342 -0.144360 -0.349903 -0.123441 0.066829 0.130030 -0.080824
39 0.599024 0.348369 -0.357136 -0.244876 -0.166900 -0.805338 -0.506364 -0.508617 0.177418 -0.333676 0.111614 0.187182 0.107485 -0.678832 -0.508110 0.131569 0.028101 0.344269 -0.249461 0.378908 0.019355 0.393620 0.137695 0.164899 -0.641142 0.406740 -0.130940 0.205341 -0.234838 0.035961 -0.090217 -0.367972 -0.584871 0.156222 0.189563 -0.265198 -0.427378 -0.131551 -0.474552 -0.508955 -0.103581 0.538292 0.056382 0.231601 0.179321 -0.014001 -0.123567 -0.178756 0.361708 -0.223120 -0.038275 0.126286 0.198422 -0.407422 -0.237852 0.290968 -0.292666 0.146022 0.104883 0.062677 0.093989 -0.569152 0.019863 -0.344274 -0.267477 0.354251 0.274997 0.517820 -0.034040 0.214452 0.176024 0.349857 -0.074796 -0.388594 -0.065544 -0.341730 0.240035 0.294511 0.339754 -0.078103 0.152505 -0.208002 -0.015279 0.140953 -0.027188 -0.192116 0.514559 -0.109656 0.073738 -0.221531 -0.041488 -0.059646 -0.047246 -0.009072 -0.721890 0.455758 0.094707 -0.160067 0.044423 0.085270 -0.194510 0.149149 -0.193185 -0.147109 0.208992 -0.181375 0.193897 0.001258 -0.018012 -0.112762 -0.005028 0.056566 -0.213925 0.086548 -0.316524 0.367617 -0.592603 0.149467 -0.268864 -0.182225 0.587952 -0.097860 -0.057634 0.050585 -0.078172 0.283019 -0.201327 -0.426387
1826 -0.027026 -0.256718 -0.118100 -0.462814 -0.451314 -0.368644 0.128336 0.645913 0.995336 -0.346956 0.431833 -0.124503 0.294990 -0.280254 -1.125159 -0.109952 -0.609104 0.401338 0.199363 0.195058 -0.021000 0.420342 0.509193 -0.315476 -0.188057 -0.182443 0.240637 -0.264343 -0.490387 -0.084345 0.709869 0.000625 -0.155798 -0.202899 -0.223400 -0.118924 0.372935 -0.505077 -0.186915 0.799620 -0.718802 0.179701 0.977674 -0.053496 0.172834 -0.056010 0.647702 0.041198 0.388021 -0.205856 -0.281829 0.081360 -0.202172 0.171172 0.069215 -0.017671 0.122076 0.058708 -0.338193 -0.012959 -0.129523 0.141217 -0.169874 1.117448 0.029686 -0.615641 0.615897 -0.297115 -0.055500 -0.477908 0.347376 0.505298 0.511843 -0.234767 -0.485280 -0.738195 0.132145 0.559669 -0.133575 0.221836 -0.230905 0.598636 0.229713 -0.096358 -0.383178 0.213109 0.007638 0.348247 0.261282 -0.060852 0.637577 -0.742568 -0.317870 0.051719 0.401884 -0.441569 0.802296 0.663702 -0.036060 -0.256501 0.710857 -0.184143 -0.068660 0.320820 0.252611 -0.220898 -0.070962 -0.095824 -0.260868 0.044103 -0.488747 0.451696 0.023907 -0.327329 -0.593614 0.569687 -0.149246 0.102071 -0.366192 0.318943 0.269406 -0.744508 0.128689 0.094309 -0.303670 0.373920 -0.269680 -0.420863
3 0.028179 -0.064039 -0.276662 -0.169837 0.065455 -0.254688 -0.424675 -0.324292 0.509301 0.009390 0.357484 0.125524 -0.049669 -0.687297 -0.024196 0.167365 0.168754 0.289129 0.461872 0.177897 -0.018200 0.141724 -0.138579 0.151163 -0.094670 0.272651 -0.183430 0.264800 -0.169869 -0.088229 -0.583378 -0.087803 -0.575000 0.305252 -0.016952 0.066853 -0.640902 -0.251171 -0.252521 -0.486083 0.041578 0.209908 -0.013230 0.153369 0.184182 0.143407 0.397162 -0.003928 0.304606 0.015677 0.004885 -0.052715 -0.163786 -0.251549 0.074504 0.183847 0.142809 -0.137401 -0.122030 -0.165381 0.032208 -0.581652 0.201896 -0.201617 0.075976 -0.018690 0.376253 0.219486 -0.312050 0.322647 -0.020498 0.254508 0.245102 -0.233550 -0.146476 -0.297948 -0.059555 0.133519 0.528140 0.096649 0.106910 0.043432 0.163376 0.203217 -0.493927 0.373108 0.176077 -0.094827 -0.489699 -0.208490 0.049189 0.160958 -0.386602 -0.164744 -0.602360 0.002927 0.144840 -0.430014 0.473834 -0.179058 -0.119376 0.135731 -0.185319 -0.028824 -0.053345 -0.251106 0.429669 0.313633 -0.105469 -0.257650 0.141516 0.101258 -0.035750 0.291175 0.077718 -0.264839 -0.289273 -0.173472 -0.270711 0.308439 0.301918 -0.313532 -0.114552 0.031562 -0.076006 0.413854 0.098546 -0.046808
135 0.258991 0.339208 -0.169643 0.260762 0.092132 -0.107721 -0.311147 0.927314 0.022042 -0.158935 -0.661713 0.300120 0.089505 0.121225 -0.193363 0.099805 -0.155683 0.942747 0.305945 0.084136 -0.443587 -0.255725 0.337257 -0.340538 0.219026 -0.012554 -0.050822 -0.086040 0.009882 0.091718 -0.120558 0.099512 -0.143903 -0.233224 -0.318482 -0.130347 -0.266105 0.105423 -0.337862 -0.399006 0.122597 0.123070 0.129463 0.169020 0.161566 0.558941 0.284370 -0.044645 0.827167 -0.163584 -0.024329 -0.583794 -0.232348 0.004403 0.251926 -0.491807 -0.024461 -0.365849 0.108656 0.003587 -0.498723 -0.124478 -0.412192 -0.160247 -0.314598 0.191286 -0.228855 -0.039882 0.042292 -0.031807 -0.055406 -0.067592 0.121007 0.077530 0.324982 -0.385562 -0.036234 0.308028 0.243804 -0.229299 -0.083321 -0.073086 -0.589355 0.388325 -0.273058 0.243781 0.276582 0.037470 -0.146185 -0.848071 0.469670 -0.030923 0.370761 -0.102547 0.002056 -0.499992 0.442781 -0.565004 0.432631 0.201661 -0.226346 0.552426 -0.499539 0.084031 -0.070606 -0.107459 0.309592 0.589250 0.050349 0.154284 -0.443845 0.285250 0.993713 -0.617280 0.073060 0.047288 0.224257 0.120207 -0.412474 -0.149578 0.047815 0.840204 -0.190310 -0.041697 -0.088794 0.748894 -0.386961 -0.025765
118 -0.015719 0.367988 -0.495993 -0.362278 0.142155 -0.052620 -0.505064 0.611658 0.468134 0.081330 -0.422019 0.055042 0.066507 0.184574 -0.377501 0.023170 -0.127420 0.841072 -0.122702 0.318167 -0.194660 -0.471143 0.421416 -0.379069 -0.138690 -0.123667 0.231477 0.037202 -0.221091 -0.204106 -0.242147 0.355632 -0.202140 -0.467016 -0.320146 0.262877 -0.215806 0.022701 -0.074135 -0.678422 -0.092929 -0.033594 -0.269235 0.288678 -0.233737 0.206065 0.071113 -0.114552 0.845162 -0.308599 -0.128704 -0.161881 0.021636 -0.054786 0.414575 -0.296531 -0.220395 -0.450670 -0.419165 0.438200 -0.311603 -0.069743 0.070274 -0.460914 -0.011276 -0.003627 -0.330130 0.211823 -0.025917 -0.135274 0.173928 0.253499 0.233435 0.078123 0.044741 -0.301804 0.106430 -0.083810 -0.096665 -0.190816 -0.218409 -0.100076 -0.409163 0.256976 0.017106 -0.023425 0.127618 -0.007249 -0.172878 -0.385571 0.173641 0.088656 0.291910 -0.028171 0.113748 -0.387404 0.308852 -0.426673 0.415248 -0.399243 -0.329839 0.240783 -0.495174 0.023368 -0.272857 0.158893 -0.076178 0.265605 -0.139432 0.260630 -0.588778 0.375551 0.684368 -0.559318 -0.121169 0.295016 0.255787 0.027763 -0.500577 0.248408 0.154259 0.708879 0.090583 -0.173782 -0.422536 0.669627 -0.071913 -0.140004
10 0.312164 0.085053 -0.457551 0.460309 0.146538 -0.817791 0.086884 -0.528166 0.273885 -0.716528 0.280979 0.407251 0.525635 -0.402549 0.186880 0.637125 0.027369 -0.043830 -0.052224 0.731130 0.247990 0.583121 -0.335149 0.332550 -0.506647 -0.013821 0.259387 0.614993 0.000684 -0.993212 -0.331926 -0.125456 -0.414485 0.493977 -0.291041 0.000541 0.289309 -0.354963 -1.151954 -1.126280 -0.130460 0.123536 0.543633 0.679270 0.241889 0.308279 0.619110 0.191197 0.168220 -0.029954 -0.219001 0.363754 -0.161533 -0.286664 0.053565 -0.503743 0.331874 0.045795 -0.035335 0.606559 -0.232505 -0.092935 -0.180780 0.484899 -0.121866 0.461239 0.185620 0.259824 -0.463185 -0.259325 0.302552 0.034153 -0.498812 -0.675642 0.217574 0.055991 -0.272967 0.594350 0.273081 0.137291 0.356117 -0.091863 0.019940 -0.023326 -0.228237 -0.042836 0.085978 -0.312556 -0.259810 -0.556368 -0.066468 0.281168 0.018216 0.028279 0.157987 0.208057 -0.040024 -0.506153 0.450523 -0.070243 -0.328894 -0.144718 0.090472 -0.620452 -0.391439 0.127251 0.280545 0.521114 -0.698594 -0.334956 0.371516 -0.321971 0.471802 0.111654 -0.337422 -0.018847 -0.385212 0.235602 -0.289328 0.353465 -0.057663 0.231524 -0.146143 0.064906 -0.169013 0.346165 -0.312295 -0.065719
29 0.269907 -0.256999 -0.104351 -0.188254 0.041770 -0.395480 0.330726 -0.182006 0.328303 0.211319 0.358189 0.357046 -0.840765 -0.539023 -0.137569 -0.198712 -0.166100 0.110717 0.168740 0.730154 -0.166410 0.435613 -0.154190 0.044266 -0.092899 0.314103 0.398266 -0.100875 -0.363037 0.157577 -0.704043 0.010553 -0.390115 -0.150550 -0.237787 -0.140479 -0.154641 -0.047593 -0.398662 -0.836954 0.402160 0.219837 -0.039717 -0.370616 -0.028322 0.695828 0.153696 -0.237210 -0.024690 -0.388995 -0.495823 -0.019799 -0.224785 -0.078084 -0.688784 0.565470 -0.020334 -0.342218 -0.350777 0.279357 0.376896 -0.921821 0.535433 0.148954 0.156101 0.325568 0.216935 0.411090 0.124614 -0.420984 0.467708 0.228070 -0.492191 0.177719 -0.030757 -0.260070 0.010065 -0.177879 0.399767 0.649422 0.425595 -0.125885 0.611464 -0.487610 0.553703 0.319356 0.068652 -0.457403 -0.687564 -0.769193 0.227948 -0.113903 -0.282312 -0.448792 -0.763973 -0.387495 -0.390129 -0.525041 -0.137658 -0.577831 -0.190407 0.142171 0.057190 -0.443976 -0.135868 0.349229 0.041639 0.252964 -0.257389 0.225512 0.030953 0.158811 0.825671 -0.039258 -0.239181 -0.175592 -0.027796 0.289267 -0.516304 0.684422 0.377218 -0.411259 0.263821 -0.143142 0.495526 0.574712 -0.209080 0.171996
3149 -0.046868 -0.191830 -0.040978 -0.295842 0.221553 -0.065637 -0.298768 -0.249760 0.317715 -0.397377 0.083077 0.947605 0.311481 0.507921 -0.641162 -0.365714 0.008799 -0.339487 0.235154 0.275895 -0.438927 0.038011 0.130997 0.151777 0.312063 0.153493 -0.290412 -0.126984 -0.139275 -0.177334 -0.118753 0.123408 -0.014153 -0.051942 -0.633650 0.712786 0.196880 -0.389371 0.105083 0.459200 -0.076172 0.107907 0.612896 -0.059819 -0.071568 0.280755 0.588642 0.108945 -0.248981 -0.564705 0.564281 -0.207657 -0.206500 0.128638 -0.816096 -0.009378 -0.262882 0.137322 -0.193474 0.010064 -0.280921 0.376878 0.310036 0.649703 0.151233 -0.147074 0.701719 -0.031709 -0.174206 -0.502335 -0.214811 -0.041572 -0.066685 -0.124628 0.563599 -0.691045 0.459988 0.247059 -0.286075 -0.224932 -0.159415 -0.224421 0.226347 0.181657 0.300590 0.272566 0.754392 -0.046215 0.027533 -0.868421 0.036470 -0.090674 -0.337468 0.268238 -0.359562 -0.581546 0.366773 -0.571120 -0.348778 0.288518 -0.034068 0.300421 0.284916 -0.205174 -0.089282 0.230092 -0.217324 -0.064717 -0.635466 0.240041 0.185560 0.234773 -0.216298 0.580922 -0.414484 0.005528 0.486720 0.311788 -0.056681 0.321061 -0.188773 -0.325325 -0.189573 -0.307841 -0.556306 -0.014579 -0.280044 0.088576
158 0.367110 -0.251829 -0.612555 0.249786 0.509102 0.438391 -0.152695 0.759262 0.274332 -0.585107 0.073200 0.466977 -0.038831 -0.435392 0.000926 -0.091108 -0.522185 0.359407 0.357006 0.091059 -0.242492 -0.721934 0.139837 0.155139 -0.527234 -0.347331 -0.082746 -0.417066 -0.596466 0.138933 0.520204 -0.037162 -0.468060 -0.496275 -0.426859 0.014787 -0.473356 -0.430901 -0.349850 -0.222583 0.186021 -0.276222 0.162456 0.235974 -0.033233 -0.300401 0.549731 0.106597 0.568686 -0.053564 -0.877259 -0.010084 0.333670 -0.104707 0.224656 -0.279126 -0.041732 -0.325910 0.408322 0.083701 -0.476259 0.199802 0.148924 -0.600262 0.454523 0.111037 0.380504 -0.072341 0.112630 -0.360237 0.415868 -0.250628 -0.163037 -0.477373 0.633423 -0.128609 0.281019 -0.180251 -0.005794 0.085995 0.075806 -0.147912 -0.015660 -0.058777 -0.144867 -0.955602 0.632156 -0.016072 0.443866 -0.660196 -0.073126 0.612806 0.222476 -0.414575 -0.661927 -0.166666 0.174508 -0.945945 0.423845 0.098986 0.230478 0.279194 -0.654943 -0.016768 -0.687231 0.274876 0.007308 0.117634 -0.279536 -0.258165 0.080391 0.456583 1.268885 0.100015 0.295864 -0.032214 1.072401 0.078739 -0.152148 0.642215 0.449781 0.151011 0.442254 0.188110 -0.088399 0.948365 -0.555492 -0.483388
273 0.287430 -0.290710 -0.112778 0.242305 0.381226 -0.643223 -0.872628 -0.327714 0.519052 -0.588232 0.281758 0.638723 0.906951 -0.222390 -0.622946 -0.057032 -0.650331 0.095820 0.177323 0.412133 -0.040621 -0.509346 -0.011380 0.182228 -0.045911 0.334980 0.080951 -1.013383 -0.685803 -0.325631 0.449297 0.754508 0.721870 0.174038 -0.395943 0.252261 0.865998 0.224505 -0.108611 -0.722364 -0.592718 0.138592 0.232840 -0.135940 0.134604 0.697261 1.266356 0.305643 0.191464 0.051273 -0.752309 0.322042 0.336330 1.352973 -0.317716 -0.432949 0.390086 -0.313148 0.705187 0.000656 -0.465162 0.503953 0.429819 0.034297 0.466723 -0.421027 0.160655 0.313031 0.175071 -0.339522 0.875331 -0.543858 0.299437 -0.081641 0.018000 0.692784 -0.058405 -0.286410 0.919244 -0.026889 0.775838 -0.161333 0.370968 -0.152309 -1.146763 -0.126548 0.504405 -0.508826 0.477292 0.194387 0.396303 0.451506 -0.527169 -0.001233 -0.594711 -0.308791 0.173729 -0.658488 0.424760 -0.870396 0.147075 0.090476 -0.015456 -0.082579 -0.075135 0.072967 0.473533 0.972766 -0.338530 -0.459342 0.230889 0.096435 0.061486 -0.667670 -0.678016 0.421134 -0.117206 0.233068 0.458374 -0.165580 1.241330 -0.113776 -0.045853 -0.084325 -0.257896 0.955295 0.198325 0.266616
227 0.779810 0.229771 0.566511 0.769961 0.397521 -0.665429 -0.485655 -0.093031 0.466322 -0.064477 -0.140168 0.166889 -0.063289 0.295359 -0.656934 0.499880 0.282867 0.261278 0.196230 0.054963 0.145987 -0.306120 0.194384 -0.400459 -0.828209 0.359965 0.185229 0.227555 0.194034 -0.437653 0.030003 0.347205 0.713115 0.358391 0.381469 -0.285304 -0.105132 -0.112821 0.013672 0.211569 -0.267106 -0.124618 0.523907 0.038114 0.233999 -0.695698 -0.091316 -0.551557 0.859508 -0.008028 -0.478938 -0.451479 -0.470926 -0.036711 -0.288100 -0.456708 -0.232758 0.502578 -0.338583 0.050442 0.266878 0.293768 0.947037 0.216574 0.515984 -0.896247 0.071896 0.364067 -0.264527 -0.585637 0.290688 -0.025465 0.464971 -0.714091 -0.567360 -0.274470 0.599062 0.181112 -0.221341 0.070085 0.136684 -0.160731 0.187263 0.470125 -0.439408 -0.183746 0.596191 -0.257958 0.346199 -0.363117 -0.108244 -0.159588 -0.322386 -0.328935 -0.836859 -0.564709 -0.167070 -0.211988 0.002446 -0.729819 -0.207159 0.417157 0.527931 -0.368867 -0.547189 -0.083285 0.500395 -0.531684 -0.421416 0.187396 -0.961758 -0.325519 0.633091 -0.236747 -0.450175 0.180160 -0.033669 0.397425 0.556162 0.274506 -0.170785 -0.402422 -0.208271 0.093791 -0.358269 0.566375 -0.426519 -0.177054
2552 0.358628 -0.331910 -0.026668 -0.254232 0.434554 -0.458245 -0.799332 -0.049208 0.920086 -0.094643 0.420233 -0.011201 -0.096710 -0.231039 0.005161 0.213853 -0.455360 0.177892 0.593157 0.058173 -0.280437 0.310291 -0.464881 0.221545 -0.060437 0.546635 0.155292 0.144450 -0.550234 -0.714049 -0.128247 0.301290 -0.477741 -0.086332 -0.168882 0.262201 -0.405478 -0.604872 0.211992 -0.295586 0.504013 0.128815 -0.316447 0.331682 0.405930 0.439878 0.825571 -0.008112 0.366972 -0.426780 0.286202 0.168391 -0.472063 -0.579481 -0.326549 0.262367 0.286759 0.455543 0.329391 0.112064 0.514744 -0.355735 -0.310850 -0.660477 0.380959 0.330741 0.453416 -0.099101 -0.432602 0.351110 -0.248704 0.196945 0.549007 -0.565521 0.056258 -0.195547 0.414443 0.039654 0.456810 0.211179 -0.275173 0.016205 0.027311 0.298907 -0.327945 0.494372 0.088419 -0.233439 -0.750967 -0.449968 0.397352 -0.002781 -0.539933 -0.071590 -0.313791 -0.347631 -0.022176 -0.623186 0.480753 -0.462502 -0.129346 0.249864 -0.219231 0.137202 0.002418 -0.076716 0.342894 0.682842 0.092710 -0.976820 0.094691 -0.059612 0.119003 0.287421 -0.016935 -0.349465 -0.442079 0.335075 -0.186748 0.289267 0.281939 -0.202467 -0.307421 -0.225284 -0.298748 0.286531 -0.400144 -0.231359
300 0.405957 -0.288662 -0.372371 -0.462223 -0.506944 -0.692679 0.089098 0.860907 0.803510 0.750739 0.184842 0.262594 1.060971 -0.236284 -0.339937 -0.082501 -0.379239 -0.391285 0.053742 0.539683 0.478196 -0.875774 0.139884 -0.074214 -0.804494 0.458733 -0.192846 0.017576 0.145537 -0.003396 -0.157020 0.067375 0.613465 -0.029795 0.108531 0.529693 0.629143 -0.099603 0.198524 0.505524 -0.697770 0.210594 -0.338991 0.113304 0.066616 0.323123 0.881816 -0.095881 0.363458 -0.641591 -0.756325 -1.172017 0.935580 0.506668 -0.392395 -0.672868 0.272506 -0.534276 0.280694 0.236322 0.251598 -0.377434 0.169110 -0.052974 -0.246152 0.610488 0.229935 0.584966 0.302834 -0.433956 0.416352 -0.128975 0.762280 -0.623778 -1.008979 -0.073205 0.091894 0.207834 -0.070480 0.427573 0.266184 -0.119217 -0.185655 -0.267682 0.456608 0.185640 1.135173 0.126096 0.377661 -0.181406 0.491366 0.437281 -0.403345 -0.481284 -0.870296 -0.328823 0.771888 -0.564619 -0.074648 -1.071827 0.097963 -0.889003 0.933985 -0.379315 -0.236172 -0.528298 0.770801 0.497081 -0.577609 0.401511 -0.237227 -0.167942 0.238498 0.165880 -0.228407 0.148165 -0.466903 0.592221 -0.119265 -0.041862 0.433640 0.298572 -0.381753 0.165457 0.025937 -0.081113 -0.172761 -0.043811
31 0.725886 -0.629024 0.320643 0.007547 -0.575963 -0.657321 -0.349501 -0.398915 -0.487965 -0.029801 -0.014422 0.410823 1.244335 -0.111937 0.065544 -0.199020 -0.891881 0.605087 0.518075 0.340790 -0.217926 -0.621080 -0.003280 -0.537475 -0.532589 0.260054 0.395882 0.506628 -0.095222 -0.627585 -0.417056 -0.164102 -0.446168 0.212255 0.135283 -0.056128 0.191221 -0.885732 0.215265 0.237508 -0.068871 -0.187462 0.853387 0.419188 -0.111946 0.005068 0.367426 -0.322279 0.445442 0.193390 0.171633 0.213359 0.062548 -0.024591 -0.096893 -0.396569 0.191612 -0.265567 -0.068919 -0.470848 0.216701 -0.663872 0.631724 -0.846397 0.341655 -0.079555 0.262427 -0.170353 -0.179226 0.232743 -0.780149 -0.363803 -0.280418 -0.586253 -0.948708 -0.110740 0.928681 -0.077947 0.426025 -0.104423 0.147888 0.075046 0.828163 0.396574 -0.695422 -0.712843 0.460850 -0.301835 0.121398 -0.244089 0.172989 -0.758841 0.278134 -0.397317 0.005650 -0.148542 0.424630 -0.389061 0.254719 -0.146012 -0.431566 0.574744 0.391070 -0.357365 -0.246066 0.004027 -0.050774 -0.824264 -0.194583 0.315346 -0.866450 0.030608 0.702300 -1.055130 0.160498 0.481241 -0.301641 0.354365 -0.180030 0.649015 0.571320 -0.481000 0.208928 0.041664 0.594398 0.967534 -0.205472 0.316121
18 0.218506 0.275705 -0.656484 0.410298 0.253528 -0.145471 -0.220404 0.796786 0.693961 -0.017973 -0.072255 0.683874 0.829923 -0.155643 -0.079759 0.037692 -0.124169 0.320226 0.560950 -0.225918 0.230958 -0.990695 0.597544 -0.359124 -0.428003 0.374411 -0.430494 -0.176538 0.334619 -0.223337 0.420713 0.261140 0.092640 0.202950 -0.505366 0.608600 -0.834348 -0.246786 0.039502 -0.073324 0.602726 0.276061 0.457535 0.511896 -0.310324 -0.146714 0.584408 0.280061 0.923912 0.101157 0.334094 -0.894360 0.154480 -0.067359 0.316150 -0.359567 -0.106526 -0.171920 -0.329335 0.278628 -0.321564 -0.604481 0.367422 0.089880 -0.097908 0.302764 0.103650 0.064712 0.299914 0.028562 0.747365 0.385085 0.366723 -0.566872 -0.000885 -0.410350 0.635568 0.905343 -0.094285 0.060462 0.083388 -0.313240 -0.074070 -0.242074 0.402856 -0.729710 0.523295 -0.084286 -0.004134 -0.465699 0.344552 -0.029209 0.034032 -0.600553 -0.269091 0.378899 -0.064493 -0.197067 0.037353 0.400847 -1.135300 0.339689 -0.159732 0.024977 0.017591 0.418546 0.062973 0.174934 -0.770084 -0.183550 -0.033801 -0.524001 0.973162 -0.112478 0.082116 -0.534346 0.893663 -0.025990 0.101742 -0.327452 0.471437 0.349128 0.673346 0.633829 -0.721711 0.675135 -0.625628 -0.118111
148 0.261991 0.031508 -0.590703 -0.226142 0.473467 0.386727 0.215078 0.411538 -0.113266 0.186792 -0.451868 0.259862 0.012489 -0.050509 -0.364959 0.501326 -0.231699 0.471625 -0.048023 0.111302 -0.242744 -0.491008 0.417924 -0.221450 -0.424076 -0.357805 -0.221520 -0.353581 0.245621 0.149260 -0.135990 0.383573 -0.304019 -0.214212 0.146874 0.071472 -0.299625 -0.171068 -0.491369 -0.367784 -0.034363 0.122682 0.282572 0.024093 0.178914 0.233627 0.296197 -0.067957 0.495336 -0.120546 0.044075 -0.176438 -0.089834 0.114570 0.551426 -0.418518 -0.082086 -0.491776 -0.054095 0.061395 -0.288387 -0.497163 0.276258 -0.259321 -0.064117 0.079448 -0.254885 0.458520 -0.053678 -0.163493 -0.091104 0.144869 0.237895 -0.257310 0.065711 -0.403373 0.304201 0.427783 -0.093839 -0.065410 -0.207294 -0.035264 -0.239348 0.196555 0.264898 0.150505 0.485399 -0.329560 0.030240 -0.508059 0.734051 0.039685 0.376256 0.025125 -0.109583 -0.470243 0.081687 -0.479601 0.070386 -0.362786 -0.185815 0.373695 -0.622315 0.207624 -0.239933 -0.012255 0.077530 0.666370 0.092600 0.326606 -0.171417 0.178427 0.549290 -0.574327 -0.025355 0.230329 0.197830 0.235199 -0.233424 -0.059569 0.189430 0.675938 -0.236977 -0.158427 -0.187339 0.654932 -0.032379 0.020756
2501 0.498457 -0.189848 -0.739380 -0.453542 0.423481 -0.485010 -0.291503 0.031973 0.451254 0.307898 -0.282421 0.165192 0.225495 0.379435 -0.408263 0.344938 0.165530 0.391905 0.158709 0.499948 -0.249359 -0.327370 0.809785 -0.276130 -0.395845 0.004535 -0.050934 0.326184 -0.333171 -0.544301 -0.051213 0.006762 -0.533692 -0.370160 0.095996 0.376396 -0.257545 -0.100298 -0.106647 -0.142105 -0.192987 -0.418591 0.011543 -0.256857 0.086001 0.351482 0.190729 0.303124 0.265236 -0.068060 0.428023 0.291646 0.112555 0.679361 0.580465 -1.035441 -0.421437 -0.483341 -0.561298 0.177141 -0.064986 0.019508 0.337519 -0.546831 0.205277 -0.439428 0.290160 0.024409 -0.222821 0.291239 -0.027897 0.255161 0.196927 0.689199 -0.099173 -0.312106 0.018147 0.151703 0.309757 -0.119715 -0.187528 -0.197465 -0.626455 -0.748479 0.365397 -0.171676 0.503328 -0.267316 -0.519749 0.232425 0.235271 -0.005335 0.681613 0.180273 -0.206063 -0.239228 0.414419 -0.647958 -0.047105 0.016687 0.184210 -0.076765 -0.592826 -0.344899 -0.642410 0.179245 0.183389 -0.099506 -0.435477 0.192050 -0.463634 0.199962 0.965137 -0.528621 -0.001450 0.187519 0.091662 0.422041 0.248464 0.285313 0.409649 0.882316 0.243608 0.227956 -0.440029 0.444023 0.333452 0.344811
2547 0.820900 0.052404 -0.780861 -0.085330 0.171784 -0.182646 0.137739 0.921815 0.021519 0.003113 -0.131674 0.767210 0.282707 0.044786 -0.567499 0.389564 0.469880 0.474895 0.011103 -0.376974 0.267297 -0.322230 0.066321 -0.638576 -0.319950 -0.202521 -0.075930 -0.178715 0.357370 0.352022 0.600663 0.442910 -0.427400 -0.711076 0.005797 0.235994 -0.138784 -0.161067 -0.120527 -0.642253 0.290827 0.179839 -0.027316 0.875896 0.323814 -0.004345 0.697197 0.248042 0.396959 -0.163400 -0.138491 -0.409774 -0.270353 -0.460823 0.228701 -0.467822 -0.255045 -0.120930 0.548100 0.014375 -0.222345 0.217322 0.309603 0.188461 0.014515 0.022319 -0.082299 0.030980 -0.132469 -0.596275 -0.309251 0.310887 0.168940 -0.062098 0.011032 -0.583732 -0.109741 0.047324 0.577058 0.134298 0.142077 0.366389 -0.231882 -0.727346 -0.146946 -0.310817 0.111452 -0.376799 0.006546 -0.821922 0.330735 0.435251 0.243784 0.110552 -0.461389 -0.250381 -0.151944 -0.554542 -0.180136 0.012139 -0.037296 0.267254 -0.966561 -0.137446 -0.600027 -0.270037 -0.187238 0.497127 -0.560039 -0.410623 -0.246537 0.066955 0.624951 -0.619254 -0.147671 0.063628 0.356175 0.056941 -0.417921 -0.572748 0.206580 0.530779 0.077764 -0.467786 -0.109281 0.808452 -0.502590 -0.530178
2330 -0.048080 -0.281001 0.238112 -0.090897 -0.596438 0.097568 -0.113316 0.018096 0.134699 -0.147526 -0.173554 0.371097 0.132432 -0.103699 -0.039962 -0.055561 -0.519895 0.244497 0.287678 -0.188635 0.278951 0.071650 -0.082975 -0.088629 -0.104867 -0.276675 -0.161898 -0.017545 -0.065579 -0.184927 0.085281 0.215276 0.237441 -0.326212 0.041654 -0.262833 0.367617 -0.023777 -0.567053 0.474372 -0.469660 0.437722 0.476575 -0.035764 -0.419875 0.344355 0.428438 -0.222153 -0.458859 0.008325 0.243039 -0.151520 -0.044569 -0.237060 0.031941 -0.229584 -0.390435 -0.459666 -0.301686 0.049018 -0.068893 0.366133 0.199828 -0.005559 -0.279531 0.167498 0.075229 0.043942 -0.304692 0.604162 -0.103774 0.427045 0.051779 0.300683 0.097991 -0.144845 0.254711 -0.057863 0.096624 0.139455 -0.328352 -0.027814 0.097086 -0.246261 -0.453241 0.243228 0.594068 0.177713 0.028295 -0.395012 0.161000 0.326975 -0.525415 0.550799 -0.684267 -0.565824 0.211727 0.091810 -0.276220 0.273529 -0.302308 0.116956 -0.042893 -0.001826 0.139393 0.051321 -0.437149 -0.031295 -0.322613 0.177571 -0.245992 -0.059173 -0.087123 0.081497 -0.535790 0.042500 0.288872 0.214201 -0.249396 -0.018044 0.085327 0.001003 0.078154 -0.016940 -0.248462 0.072568 0.081486 -0.152258
69 0.065358 0.123728 -0.850482 -0.340177 -0.224988 0.004708 0.053782 0.277362 -0.070644 0.084083 -0.125694 0.408881 0.317579 -0.264781 -0.309675 0.319439 -0.045103 0.461398 0.110236 -0.111180 -0.032401 0.041067 0.810361 -0.094666 -0.330396 0.155262 -0.393436 -0.530291 -0.281176 -0.109971 -0.223604 0.677773 -0.377821 0.156496 -0.025995 0.679562 -0.149376 -0.602198 -1.169475 -0.143830 -0.203624 0.002106 -0.323720 -0.476736 -0.234593 -0.085688 -0.032417 -0.061417 0.934869 -0.193372 -0.615033 -0.175478 -0.261801 -0.145632 -0.318015 -0.376293 0.024365 -0.778610 -0.093344 0.326100 -0.341390 0.129507 0.345216 -0.155624 0.423035 0.311993 0.028177 0.179691 0.347396 -0.046427 -0.694075 0.070870 0.751602 -0.184878 0.143268 -0.207866 0.351369 -0.341409 0.192165 0.017693 -0.365701 -0.338603 -0.590843 0.166712 -0.058158 0.189248 0.332630 -0.182252 -0.446873 -0.021988 0.275843 0.028661 -0.147074 -0.144408 -0.177515 0.248446 -0.245520 -0.627211 0.524611 -0.079101 -0.373638 0.455877 -0.418469 0.083037 -0.511584 0.412683 -0.239720 0.275372 0.327460 0.015873 -0.731146 0.166202 0.985123 -0.558642 0.029358 0.336553 0.407073 0.056311 -0.751070 -0.290625 0.118032 0.297231 0.204237 -0.294289 -0.075176 0.586266 0.179310 0.222424
2148 -0.031497 -0.319467 0.273864 -0.064698 -0.675266 0.102830 -0.124103 -0.012241 0.092972 -0.192255 -0.116950 0.337640 0.066118 -0.129061 0.001754 -0.055158 -0.441964 0.166986 0.302189 -0.249497 0.273593 0.152097 -0.062697 -0.134556 -0.090326 -0.253707 -0.227374 0.021724 -0.075927 -0.238892 0.127255 0.154063 0.215169 -0.356547 0.136997 -0.295942 0.520353 -0.092993 -0.498863 0.522284 -0.425946 0.457660 0.409287 0.010373 -0.340835 0.405055 0.407234 -0.269085 -0.480139 -0.072163 0.160532 -0.085572 -0.024650 -0.240760 0.062650 -0.267809 -0.338054 -0.484747 -0.422887 0.056105 -0.052970 0.321953 0.172879 0.096779 -0.278235 0.129125 0.114225 0.040666 -0.312372 0.596410 -0.080292 0.373261 0.069845 0.257244 0.140057 -0.113220 0.247017 0.012731 0.192702 0.138358 -0.422823 -0.054488 0.040029 -0.247526 -0.443217 0.201481 0.546814 0.198713 0.079256 -0.375690 0.063503 0.420867 -0.576450 0.461871 -0.670313 -0.519985 0.193501 0.049518 -0.219254 0.296114 -0.386533 0.172729 -0.150474 0.033390 0.092072 0.046618 -0.364447 -0.050688 -0.295256 0.220933 -0.266153 -0.032531 -0.120594 -0.017357 -0.443071 0.073490 0.228741 0.182884 -0.304872 -0.015573 0.137843 0.034762 0.067631 0.079556 -0.220957 0.144356 0.023128 -0.185217
287 -0.067547 -0.260442 0.207992 -0.123335 -0.588452 0.095793 -0.085270 -0.020694 0.135644 -0.128193 -0.208700 0.326978 0.056395 -0.137057 -0.040546 -0.062686 -0.542571 0.122192 0.319869 -0.196458 0.334881 0.167237 -0.038564 -0.204432 -0.111328 -0.287456 -0.269638 -0.032752 -0.052770 -0.156155 0.168282 0.192545 0.176162 -0.228182 0.059134 -0.301156 0.372380 0.002409 -0.574690 0.484641 -0.449008 0.380736 0.459721 -0.012080 -0.443258 0.372902 0.490167 -0.237276 -0.496348 0.026688 0.196360 -0.092953 -0.015260 -0.274904 0.032487 -0.221065 -0.321613 -0.465216 -0.294229 0.055608 -0.001682 0.361563 0.170297 0.048339 -0.224074 0.175564 0.062441 0.039138 -0.382085 0.637613 -0.108027 0.325768 0.070985 0.243480 0.154160 -0.138276 0.268934 0.009431 0.083123 0.159459 -0.346546 0.001252 0.021289 -0.205000 -0.464541 0.256136 0.534676 0.113191 0.021498 -0.377555 0.135942 0.299554 -0.576421 0.483155 -0.741635 -0.555848 0.242460 0.038015 -0.350631 0.223308 -0.312832 0.104073 -0.173884 0.014083 0.092134 0.026689 -0.372603 0.032406 -0.332940 0.205140 -0.283335 -0.077943 -0.150984 -0.021628 -0.439494 0.022844 0.269679 0.134862 -0.239089 -0.022111 0.111647 0.011417 0.069790 0.043215 -0.230757 0.114607 0.064608 -0.097012
75 1.227088 -0.608932 -0.296741 0.392371 -0.162839 -0.537555 -0.659847 -0.220892 0.630486 0.303654 -0.244192 -0.324299 0.333074 0.749287 -0.003070 1.299243 0.089918 -0.108647 1.033658 0.145218 0.191956 -0.171146 -0.196318 -0.114951 -0.843933 -0.293592 0.076028 0.244628 0.314178 -0.127332 -0.284580 0.611285 -0.068685 0.311001 0.050448 -0.227526 -0.192511 0.328164 0.196196 -0.219660 0.348766 -0.336988 0.047618 0.847609 -0.218678 0.110877 0.730435 -0.338456 0.257501 -0.520652 0.147897 -1.103801 -0.886410 -0.031657 0.487767 -0.752023 0.432284 0.096030 -0.864260 -0.244757 0.082964 0.488662 0.541797 -0.223465 0.088839 -0.392737 0.113189 0.467947 -0.294936 0.212457 -0.580520 -0.464936 -0.532080 -0.141038 -0.030130 -0.013588 0.877410 0.008712 0.006089 -0.108595 0.027888 0.021353 0.281891 0.127006 0.356858 -0.541624 0.615689 -0.423436 0.207491 -0.039269 -0.278169 0.009834 0.156751 -0.534341 -1.080131 -0.952915 -0.118156 -0.674873 -0.091620 0.373440 0.393099 0.932729 0.648807 -0.258737 -0.291896 0.400288 -0.346814 -0.057438 -0.259779 -0.430413 -0.829550 -0.306034 0.601691 -0.199201 -0.044112 -0.099295 -0.277854 0.186648 -0.257507 -0.163586 -0.519792 -0.535190 0.279358 -0.108116 0.012929 0.482523 -0.060228 -0.532244
45 -0.340666 0.036182 0.005413 0.070512 -0.104907 0.058650 -0.018146 -0.115739 0.173195 -0.034061 0.100229 0.295206 0.244105 0.129842 -0.152925 0.098255 -0.215206 0.328510 0.085219 -0.058788 -0.019917 0.002946 -0.075379 -0.151448 -0.127212 0.113659 0.036131 -0.111295 -0.193304 -0.282747 0.165235 -0.099867 0.137979 -0.133207 -0.028519 -0.047015 0.073400 -0.063160 0.078861 0.298424 -0.150947 -0.144417 0.201994 0.033324 -0.254703 0.120204 -0.022580 -0.137010 0.033790 0.113714 0.158784 -0.010507 -0.195311 -0.055901 -0.193218 -0.310438 -0.134617 -0.006275 -0.413961 0.198256 -0.205339 0.078716 -0.254805 0.123862 0.081778 -0.064234 0.192102 0.031097 -0.089411 -0.340619 0.055604 -0.048480 0.086065 -0.343198 0.254391 -0.152976 0.265535 0.115059 0.063986 0.114273 0.052314 -0.021113 0.312287 -0.179965 -0.255695 0.024341 0.443584 0.002217 -0.163575 0.172540 0.128167 0.023679 -0.006767 0.426638 -0.312135 -0.184013 0.080137 -0.179808 -0.240721 0.355298 0.134726 -0.102727 -0.261929 0.030948 0.259614 -0.217344 -0.105541 0.164175 -0.075689 -0.172744 -0.218754 0.502552 0.175600 0.036234 -0.421705 -0.116545 0.136648 0.077779 -0.258698 0.339007 -0.022152 -0.374875 0.089482 -0.302905 -0.019437 0.093951 0.264264 0.064420
2 -0.345102 -0.025075 -0.051468 0.043864 -0.089330 -0.034558 -0.031093 -0.167183 0.114514 0.014815 0.145134 0.310233 0.226905 0.156793 -0.062408 0.114482 -0.245329 0.372341 0.107597 -0.024985 -0.069310 0.054414 -0.036716 -0.122801 -0.051996 -0.011550 -0.020267 -0.094070 -0.398997 -0.270517 0.122272 -0.080385 0.031817 -0.174725 -0.003283 -0.067236 0.050964 0.020412 0.136545 0.317899 -0.142148 -0.087841 0.220858 0.120790 -0.286828 0.114975 -0.014696 -0.120343 0.017087 0.060714 0.087485 -0.070981 -0.137278 -0.088279 -0.212719 -0.236017 -0.157381 -0.011325 -0.407686 0.307453 -0.211431 0.080961 -0.196040 0.151308 0.049660 -0.027029 0.204973 -0.019541 -0.106896 -0.276497 0.074352 -0.099543 0.121546 -0.455716 0.235517 -0.137973 0.289327 0.160826 0.079825 0.105610 0.040339 -0.041514 0.347856 -0.208942 -0.250653 -0.001288 0.390732 -0.032723 -0.152183 0.245752 0.160393 0.105812 0.065681 0.415353 -0.264307 -0.276489 0.078478 -0.082037 -0.207953 0.338563 0.169880 -0.153841 -0.176656 -0.026115 0.152211 -0.257452 -0.093579 0.187844 -0.092501 -0.157760 -0.177263 0.446115 0.209996 -0.004988 -0.390975 -0.032937 0.166444 0.080921 -0.189205 0.338687 -0.102224 -0.338172 -0.028866 -0.279042 -0.095265 0.126606 0.171038 0.071161
172 0.289974 0.332820 -0.898310 -0.413226 0.005999 0.030914 0.590290 -0.251533 0.673761 0.171486 -0.229540 -0.011110 -0.029237 -0.171498 -0.324474 -0.160674 -0.088917 0.619680 0.091545 -0.276919 -0.439708 -0.491463 0.924029 -0.292761 -1.080615 -0.183150 0.107338 -0.335728 0.232868 -0.241520 -0.166430 0.360745 -0.364303 -0.358300 0.099447 0.164246 -0.711720 -0.095417 -0.101453 0.228058 -0.235215 -0.072457 0.039536 0.022201 -0.120022 0.128177 0.365917 0.182762 0.179055 -0.446639 0.030380 0.135729 0.027040 0.146257 -0.094166 -0.628931 0.121510 -0.609393 -0.464527 -0.232916 -0.291663 -0.329954 -0.013955 0.121886 -0.022498 -0.125062 -0.345825 0.891477 -0.083499 0.400310 -0.322892 -0.144684 0.281598 -0.320205 -0.093350 0.247320 0.404611 -0.019585 -0.312874 0.078729 -0.265456 0.047571 -0.241505 0.310155 -0.027345 0.011768 1.134992 -0.498464 -0.349883 -0.032731 0.168135 0.180027 0.136894 0.170444 -0.260029 0.155657 -0.314804 -0.498171 0.369173 -0.323556 -0.216288 0.512246 -0.508910 -0.104348 -0.698080 0.253760 -0.040192 0.241474 0.134597 -0.164641 -0.187831 0.250583 0.189443 -0.323625 0.358714 0.597718 0.732638 0.514097 -0.239813 0.030889 -0.203158 1.046412 0.059096 0.315389 0.020065 1.196329 0.448673 -0.161385
35 -0.345417 -0.028370 0.040688 0.098756 -0.096890 -0.019648 -0.153521 -0.104631 0.168453 0.142661 0.093674 0.341242 0.183383 0.027171 -0.102557 0.130901 -0.268130 0.323068 0.006152 -0.094161 -0.077369 0.063908 0.029786 -0.047854 -0.119689 0.043841 -0.001203 -0.019924 -0.262574 -0.320705 0.166871 -0.114120 0.102694 -0.137592 -0.015308 -0.059725 0.033239 -0.035672 0.099999 0.359922 -0.048250 -0.052270 0.197457 0.033631 -0.238911 0.074770 0.018281 -0.093066 0.036694 0.048824 0.090583 -0.029144 -0.158807 -0.043526 -0.194641 -0.270986 -0.098549 -0.050865 -0.351071 0.335590 -0.226946 0.083305 -0.267461 0.131909 0.051241 -0.113764 0.212379 -0.027736 -0.155843 -0.312148 0.007186 -0.105617 0.073382 -0.360611 0.180122 -0.147686 0.197200 0.173567 0.091244 0.126076 0.022905 -0.107464 0.396766 -0.155412 -0.234944 0.049714 0.421438 -0.010402 -0.060624 0.142542 0.167703 0.070748 0.000544 0.470740 -0.302205 -0.221493 0.045112 -0.168569 -0.085918 0.435039 0.118837 -0.080335 -0.253513 -0.059126 0.145742 -0.220255 -0.144988 0.227782 -0.010517 -0.133462 -0.225384 0.581159 0.224248 -0.004979 -0.402114 -0.036367 0.180287 0.010811 -0.230704 0.389199 -0.104782 -0.395576 0.018817 -0.297233 -0.025629 0.061619 0.220487 0.062968
36 -0.273669 0.024256 0.016094 0.002741 -0.123009 -0.021431 -0.068494 -0.082945 0.220434 0.029970 0.083398 0.356305 0.287087 0.090378 -0.039041 0.128004 -0.197978 0.351781 0.091595 -0.071963 -0.053372 0.030268 -0.002354 -0.117243 -0.152534 0.082976 0.006384 -0.049943 -0.257969 -0.238612 0.198342 -0.117901 0.101561 -0.202265 -0.047086 -0.040352 0.091405 -0.029184 0.064273 0.316771 -0.080708 -0.113064 0.267602 0.010084 -0.169058 0.098805 -0.064344 -0.115979 0.018805 0.033386 0.145440 -0.004368 -0.177369 -0.097002 -0.214811 -0.280818 -0.165327 -0.076746 -0.288476 0.261845 -0.272098 0.020468 -0.165813 0.147201 0.065476 -0.088234 0.215820 -0.061925 -0.106112 -0.216637 0.057382 -0.102150 0.087751 -0.344621 0.236745 -0.094473 0.218908 0.159997 0.131954 0.081128 0.066261 -0.070820 0.328003 -0.111041 -0.201670 0.124548 0.476084 -0.031614 -0.166691 0.152583 0.195108 0.015203 0.042919 0.440631 -0.334500 -0.189659 0.090436 -0.095197 -0.216838 0.402967 0.209045 -0.094902 -0.210597 -0.002240 0.170354 -0.172298 -0.183243 0.251251 -0.082888 -0.120332 -0.220259 0.499664 0.202189 0.054287 -0.462388 -0.068655 0.172952 0.075669 -0.177645 0.333027 -0.111889 -0.338696 0.015985 -0.264681 0.014618 0.062200 0.210102 0.062825
63 -0.329293 -0.009924 0.052648 0.096513 -0.171716 0.046123 -0.099066 -0.118766 0.209332 0.005217 0.099155 0.375888 0.301803 0.176971 -0.153927 0.070347 -0.192008 0.371687 0.056684 -0.094571 -0.140745 0.053497 -0.070751 -0.110608 -0.108235 0.082414 -0.080761 -0.036929 -0.256977 -0.303679 0.126225 -0.150977 0.100081 -0.183985 -0.047129 -0.133538 0.149251 -0.032031 0.133383 0.304259 -0.172724 -0.105765 0.225956 0.029967 -0.282584 0.017885 0.004521 -0.160039 0.124085 0.022740 0.115164 -0.041965 -0.082873 -0.024637 -0.194561 -0.248112 -0.048593 0.005458 -0.365790 0.261021 -0.160862 0.019080 -0.206858 0.263253 0.033745 -0.055572 0.154199 -0.047830 -0.083996 -0.276255 0.019229 -0.086050 0.091825 -0.310055 0.310764 -0.067948 0.303213 0.238761 0.110541 0.138631 0.025141 -0.083859 0.370611 -0.178529 -0.169096 0.083243 0.460232 -0.106097 -0.171631 0.206321 0.200618 0.047596 -0.025040 0.352012 -0.271083 -0.218289 -0.004461 -0.165007 -0.118957 0.422799 0.158902 -0.162585 -0.245805 0.064431 0.094132 -0.206519 -0.098044 0.201125 -0.080666 -0.163398 -0.222947 0.539404 0.216519 -0.025346 -0.456741 -0.045762 0.178534 0.054233 -0.178951 0.317124 -0.071619 -0.318289 0.094678 -0.303032 0.025147 0.075489 0.223610 0.000657
15 -0.406046 -0.011502 0.064419 0.038728 -0.025718 0.022655 -0.114799 -0.116333 0.180443 0.013946 0.078709 0.301312 0.244327 0.063258 -0.129055 0.104960 -0.285982 0.335032 0.080301 -0.014097 -0.038840 -0.013700 0.016054 -0.116544 -0.077992 0.058792 -0.078196 -0.073197 -0.266623 -0.253912 0.096981 -0.088149 0.004221 -0.157443 -0.002055 -0.073902 0.052586 -0.040803 0.067281 0.363466 -0.145452 -0.051595 0.148044 0.094548 -0.223449 0.040845 0.033823 -0.233909 0.106812 0.033377 0.147664 -0.014184 -0.152769 -0.013344 -0.221787 -0.261207 -0.118448 -0.034383 -0.369552 0.254849 -0.213567 0.034376 -0.225765 0.206113 0.008070 -0.062982 0.209161 -0.063755 -0.039071 -0.260639 0.066740 -0.123247 0.091555 -0.336945 0.172137 -0.077585 0.254614 0.148605 0.102586 0.097365 0.074852 -0.077002 0.325546 -0.172702 -0.245995 -0.020603 0.428746 -0.094896 -0.074516 0.147328 0.196097 -0.032358 0.044028 0.420247 -0.297278 -0.211411 0.023049 -0.099018 -0.225037 0.402745 0.189246 -0.115761 -0.245141 -0.030417 0.132256 -0.184483 -0.121307 0.220050 -0.095207 -0.210091 -0.193907 0.526816 0.179601 -0.011601 -0.498651 -0.103560 0.283133 0.075208 -0.223371 0.322237 -0.131926 -0.363247 0.033690 -0.196211 -0.019215 0.055774 0.256933 -0.008473
4 -0.313331 0.077698 0.019822 0.001970 -0.059136 0.029427 -0.074779 -0.148135 0.172083 0.033535 0.071149 0.350292 0.265389 0.128727 -0.123489 0.081817 -0.198784 0.287244 0.029793 -0.132862 -0.038606 -0.019767 -0.001724 -0.142943 -0.094098 0.056195 0.040442 -0.108069 -0.261083 -0.233361 0.233351 -0.134824 0.055839 -0.163867 0.032940 -0.060423 0.032452 -0.051949 0.115035 0.318301 -0.144607 -0.055782 0.218829 0.042547 -0.193121 0.089274 0.026520 -0.076553 0.065084 -0.021398 0.061899 0.028688 -0.142574 -0.128961 -0.097627 -0.250840 -0.111396 -0.113826 -0.380885 0.313407 -0.196794 0.094322 -0.213902 0.141856 0.120388 -0.069606 0.132889 -0.038991 -0.083538 -0.286836 0.052990 -0.101126 0.019838 -0.368713 0.252491 -0.111382 0.258620 0.180274 0.015376 0.119648 0.040132 -0.053288 0.389870 -0.138270 -0.244299 0.129028 0.385991 -0.027102 -0.091553 0.160454 0.190737 0.080762 -0.018843 0.420679 -0.356370 -0.253904 0.051954 -0.227955 -0.249902 0.399343 0.100356 -0.137477 -0.197555 0.021997 0.153121 -0.287748 -0.144047 0.162254 -0.111695 -0.130928 -0.162315 0.499494 0.194351 0.051900 -0.439319 -0.090091 0.128654 0.059308 -0.232275 0.378644 -0.053853 -0.308791 0.045399 -0.267913 0.088874 0.033792 0.273983 0.086599
6 -0.338992 0.033883 -0.034401 0.007876 -0.130414 0.019560 -0.119954 -0.086543 0.185791 0.049173 0.116817 0.295958 0.241686 0.112956 -0.173960 0.069790 -0.239033 0.326380 0.084389 -0.122083 -0.023932 0.017281 0.003576 -0.113682 -0.060418 0.029829 0.036064 -0.046970 -0.294223 -0.239535 0.189185 -0.139610 0.099561 -0.124367 -0.004630 -0.076429 0.049317 0.029809 0.023577 0.335597 -0.105275 -0.073261 0.194551 0.062430 -0.254505 0.086087 0.018160 -0.096777 0.078916 0.005676 0.141099 0.051966 -0.191410 -0.051811 -0.151555 -0.239715 -0.171232 -0.027912 -0.307930 0.293622 -0.236332 0.028489 -0.259158 0.166998 0.017919 -0.058623 0.138801 -0.075865 -0.071643 -0.258087 -0.017156 -0.137810 0.064818 -0.363937 0.167432 -0.037445 0.319572 0.184127 0.000221 0.114818 -0.029710 -0.082929 0.399220 -0.141581 -0.272153 0.095462 0.351498 -0.121120 -0.128094 0.117343 0.173414 0.063544 0.010167 0.401656 -0.381639 -0.133289 0.105561 -0.183405 -0.205864 0.395941 0.140569 -0.198825 -0.230632 -0.033469 0.135897 -0.207281 -0.106754 0.179424 -0.086744 -0.181951 -0.303538 0.522048 0.173637 0.001904 -0.406591 -0.085836 0.250265 0.015974 -0.224055 0.336202 -0.047737 -0.383514 -0.019905 -0.236008 -0.070096 0.045016 0.203675 0.029945
